genomestart 17929
trait 1 0.357478 0.0938496 0.575594 0.679355 0.209169 0.105202 0.053311 0.290551 
node 1 1 1 1 0
node 2 1 1 1 0
node 3 1 1 1 0
node 4 1 1 1 0
node 5 1 1 1 0
node 6 1 1 1 0
node 7 1 1 1 0
node 8 1 1 1 0
node 9 1 1 1 0
node 10 1 1 1 0
node 11 1 1 1 0
node 12 1 1 1 0
node 13 1 1 1 0
node 14 1 1 1 0
node 15 1 1 1 0
node 16 1 1 1 0
node 17 1 1 1 0
node 18 1 1 1 0
node 19 1 1 3 0
node 20 1 0 2 0
node 21 1 0 2 0
node 22 1 0 2 0
node 23 1 0 2 0
node 78 1 0 0 0
node 86 1 0 0 0
node 91 1 0 0 0
node 98 1 0 0 0
node 104 1 0 0 0
node 105 1 0 0 0
node 120 1 0 0 0
node 136 1 0 0 0
node 144 1 0 0 0
node 174 1 0 0 0
node 180 1 0 0 0
node 183 1 0 0 0
node 194 1 0 0 0
node 195 1 0 0 0
node 196 1 0 0 0
node 197 1 0 0 0
node 199 1 0 0 0
node 229 1 0 0 0
node 271 1 0 0 0
node 303 1 0 0 0
gene 1 1 20 -1.20534 0 1 -1.20534 1
gene 1 2 20 -1.18683 0 2 -1.18683 1
gene 1 3 20 0.166517 0 3 0.166517 1
gene 1 4 20 1.61272 0 4 1.61272 1
gene 1 5 20 0.112198 0 5 0.112198 1
gene 1 6 20 0.59093 0 6 0.59093 1
gene 1 7 20 0.896428 0 7 0.896428 1
gene 1 8 20 0.914055 0 8 0.914055 1
gene 1 9 20 0.24567 0 9 0.24567 1
gene 1 10 20 -0.788552 0 10 -0.788552 1
gene 1 11 20 -1.02557 0 11 -1.02557 0
gene 1 12 20 -0.280432 0 12 -0.280432 1
gene 1 13 20 1.12921 0 13 1.12921 1
gene 1 14 20 0.0764948 0 14 0.0764948 1
gene 1 15 20 -0.38291 0 15 -0.38291 1
gene 1 16 20 -0.213126 0 16 -0.213126 1
gene 1 17 20 1.21133 0 17 1.21133 1
gene 1 18 20 -1.83386 0 18 -1.83386 1
gene 1 19 20 -2.74684 0 19 -2.74684 1
gene 1 1 21 -0.36772 0 20 -0.36772 1
gene 1 2 21 0.912121 0 21 0.912121 1
gene 1 3 21 0.690207 0 22 0.690207 0
gene 1 4 21 1.74942 0 23 1.74942 1
gene 1 5 21 -0.0370568 0 24 -0.0370568 1
gene 1 6 21 -0.329957 0 25 -0.329957 1
gene 1 7 21 0.645607 0 26 0.645607 1
gene 1 8 21 -0.727041 0 27 -0.727041 1
gene 1 9 21 -0.243403 0 28 -0.243403 1
gene 1 10 21 -0.337999 0 29 -0.337999 0
gene 1 11 21 0.0118107 0 30 0.0118107 1
gene 1 12 21 0.23149 0 31 0.23149 1
gene 1 13 21 -0.519811 0 32 -0.519811 1
gene 1 14 21 0.436969 0 33 0.436969 1
gene 1 15 21 0.0240488 0 34 0.0240488 1
gene 1 16 21 0.0141451 0 35 0.0141451 0
gene 1 17 21 -0.567195 0 36 -0.567195 1
gene 1 18 21 1.43958 0 37 1.43958 1
gene 1 19 21 -1.21663 0 38 -1.21663 1
gene 1 1 22 -1.6954 0 39 -1.6954 1
gene 1 2 22 0.759472 0 40 0.759472 1
gene 1 3 22 -1.48137 0 41 -1.48137 1
gene 1 4 22 0.659859 0 42 0.659859 1
gene 1 5 22 -0.503211 0 43 -0.503211 1
gene 1 6 22 -0.905431 0 44 -0.905431 1
gene 1 7 22 -0.662598 0 45 -0.662598 1
gene 1 8 22 -0.796635 0 46 -0.796635 1
gene 1 9 22 -1.55812 0 47 -1.55812 1
gene 1 10 22 1.06682 0 48 1.06682 1
gene 1 11 22 -1.29442 0 49 -1.29442 1
gene 1 12 22 -0.406069 0 50 -0.406069 1
gene 1 13 22 -1.63325 0 51 -1.63325 1
gene 1 14 22 -0.405629 0 52 -0.405629 1
gene 1 15 22 -0.139278 0 53 -0.139278 1
gene 1 16 22 0.0158384 0 54 0.0158384 1
gene 1 17 22 0.324736 0 55 0.324736 1
gene 1 18 22 0.0175637 0 56 0.0175637 1
gene 1 19 22 0.720534 0 57 0.720534 1
gene 1 1 23 1.48221 0 58 1.48221 1
gene 1 2 23 0.0918224 0 59 0.0918224 1
gene 1 3 23 0.0492839 0 60 0.0492839 1
gene 1 4 23 0.218094 0 61 0.218094 1
gene 1 5 23 -1.25955 0 62 -1.25955 1
gene 1 6 23 0.100203 0 63 0.100203 0
gene 1 7 23 0.172454 0 64 0.172454 1
gene 1 8 23 -0.581276 0 65 -0.581276 1
gene 1 9 23 -0.0926706 0 66 -0.0926706 1
gene 1 10 23 -0.43031 0 67 -0.43031 1
gene 1 11 23 -1.72353 0 68 -1.72353 1
gene 1 12 23 -0.432269 0 69 -0.432269 0
gene 1 13 23 -0.511822 0 70 -0.511822 1
gene 1 14 23 -1.49721 0 71 -1.49721 1
gene 1 15 23 0.883054 0 72 0.883054 1
gene 1 16 23 0.00657493 0 73 0.00657493 1
gene 1 17 23 -1.18323 0 74 -1.18323 1
gene 1 18 23 -0.444358 0 75 -0.444358 0
gene 1 19 23 0.647777 0 76 0.647777 1
gene 1 20 20 -1.47928 1 79 -1.47928 1
gene 1 23 20 -1.68434 0 80 -1.68434 1
gene 1 21 23 1.3082 0 109 1.3082 1
gene 1 20 22 0.667934 0 141 0.667934 1
gene 1 3 78 -0.335376 0 287 -0.335376 1
gene 1 78 20 -0.664995 0 288 -0.664995 1
gene 1 18 86 0.432935 0 317 0.432935 1
gene 1 86 23 0.198115 0 318 0.198115 1
gene 1 11 91 0.357996 0 332 0.357996 1
gene 1 91 20 -1.02489 0 333 -1.02489 1
gene 1 7 98 -0.0872569 0 360 -0.0872569 1
gene 1 98 22 0.631429 0 361 0.631429 1
gene 1 6 104 0.389388 0 387 0.389388 1
gene 1 104 23 -0.279637 0 388 -0.279637 1
gene 1 12 78 -0.104923 0 389 -0.104923 1
gene 1 15 105 -0.479447 0 392 -0.479447 1
gene 1 105 23 0.210219 0 393 0.210219 1
gene 1 17 78 0.61319 0 408 0.61319 1
gene 1 18 98 -0.721259 0 434 -0.721259 1
gene 1 20 120 0.392638 1 469 0.392638 1
gene 1 120 20 -1.41867 0 470 -1.41867 1
gene 1 4 91 -1.80021 0 473 -1.80021 1
gene 1 91 22 -0.186323 0 527 -0.186323 1
gene 1 78 78 -1.04353 1 534 -1.04353 1
gene 1 14 78 -0.28275 0 544 -0.28275 1
gene 1 8 91 0.147339 0 548 0.147339 1
gene 1 15 136 -1.0284 0 568 -1.0284 1
gene 1 136 22 0.21053 0 569 0.21053 1
gene 1 21 120 -0.810922 0 574 -0.810922 1
gene 1 16 144 -0.565465 0 607 -0.565465 0
gene 1 144 21 -0.18406 0 608 -0.18406 1
gene 1 136 86 -0.290354 0 723 -0.290354 1
gene 1 91 105 -0.476697 0 739 -0.476697 1
gene 1 16 174 0.0460505 0 824 0.0460505 1
gene 1 174 144 0.919401 0 825 0.919401 1
gene 1 136 105 -0.610152 0 840 -0.610152 1
gene 1 3 180 -0.236202 0 842 -0.236202 1
gene 1 180 21 0.334874 0 843 0.334874 1
gene 1 19 144 1.48933 0 847 1.48933 1
gene 1 12 183 0.755925 0 851 0.755925 1
gene 1 183 23 0.415415 0 852 0.415415 1
gene 1 98 180 -0.266924 0 860 -0.266924 1
gene 1 180 105 -0.192469 0 865 -0.192469 1
gene 1 13 86 0.0220765 0 883 0.0220765 1
gene 1 16 78 -0.0737785 0 903 -0.0737785 1
gene 1 120 91 -0.0747956 0 905 -0.0747956 1
gene 1 3 194 0.352856 0 906 0.352856 1
gene 1 194 78 0.234412 0 907 0.234412 1
gene 1 13 195 0.236837 0 908 0.236837 1
gene 1 195 22 -0.161243 0 909 -0.161243 1
gene 1 8 180 1.14825 0 910 1.14825 0
gene 1 10 196 -0.0339417 0 911 -0.0339417 1
gene 1 196 21 -0.373485 0 912 -0.373485 1
gene 1 21 21 -0.0758354 1 913 -0.0758354 1
gene 1 12 197 0.24406 0 914 0.24406 1
gene 1 197 23 -0.017125 0 915 -0.017125 1
gene 1 11 199 -0.843382 0 920 -0.843382 1
gene 1 199 23 0.442574 0 921 0.442574 1
gene 1 19 180 -0.436755 0 926 -0.436755 1
gene 1 17 229 0.88711 0 1056 0.88711 1
gene 1 229 78 1.08892 0 1057 1.08892 1
gene 1 8 271 -0.136202 0 1239 -0.136202 1
gene 1 271 180 -0.443979 0 1240 -0.443979 1
gene 1 3 91 0.897032 0 1252 0.897032 1
gene 1 196 194 1.27068 0 1371 1.27068 1
gene 1 4 303 0.707612 0 1389 0.707612 1
gene 1 303 23 0.289108 0 1390 0.289108 1
gene 1 120 136 -0.460968 0 1540 -0.460968 1
gene 1 91 91 0.269357 1 1613 0.269357 1
gene 1 21 199 -0.358159 0 1653 -0.358159 1
genomeend 17929
genomestart 185
trait 1 0.667563 0.349284 0.945292 0.484558 0 0.142967 0.188577 0.425069 
node 1 1 1 1 0
node 2 1 1 1 0
node 3 1 1 1 0
node 4 1 1 1 0
node 5 1 1 1 0
node 6 1 1 1 0
node 7 1 1 1 0
node 8 1 1 1 0
node 9 1 1 1 0
node 10 1 1 1 0
node 11 1 1 1 0
node 12 1 1 1 0
node 13 1 1 1 0
node 14 1 1 1 0
node 15 1 1 1 0
node 16 1 1 1 0
node 17 1 1 1 0
node 18 1 1 1 0
node 19 1 1 3 0
node 20 1 0 2 0
node 21 1 0 2 0
node 22 1 0 2 0
node 23 1 0 2 0
node 78 1 0 0 0
node 86 1 0 0 0
node 91 1 0 0 0
node 98 1 0 0 0
node 104 1 0 0 0
node 105 1 0 0 0
node 120 1 0 0 0
node 136 1 0 0 0
node 144 1 0 0 0
node 174 1 0 0 0
node 180 1 0 0 0
node 183 1 0 0 0
node 194 1 0 0 0
node 195 1 0 0 0
node 200 1 0 0 0
node 237 1 0 0 0
node 253 1 0 0 0
gene 1 1 20 -1.13922 0 1 -1.13922 1
gene 1 2 20 -0.941293 0 2 -0.941293 1
gene 1 3 20 -1.22849 0 3 -1.22849 0
gene 1 4 20 -0.407524 0 4 -0.407524 1
gene 1 5 20 -0.50016 0 5 -0.50016 1
gene 1 6 20 -0.465829 0 6 -0.465829 1
gene 1 7 20 -1.01714 0 7 -1.01714 1
gene 1 8 20 -1.85315 0 8 -1.85315 1
gene 1 9 20 -0.26993 0 9 -0.26993 1
gene 1 10 20 1.13716 0 10 1.13716 1
gene 1 11 20 -0.330074 0 11 -0.330074 0
gene 1 12 20 -0.423397 0 12 -0.423397 1
gene 1 13 20 0.0911588 0 13 0.0911588 1
gene 1 14 20 -0.639801 0 14 -0.639801 1
gene 1 15 20 -0.225767 0 15 -0.225767 1
gene 1 16 20 1.30759 0 16 1.30759 1
gene 1 17 20 0.637764 0 17 0.637764 1
gene 1 18 20 -0.968132 0 18 -0.968132 1
gene 1 19 20 0.0846235 0 19 0.0846235 1
gene 1 1 21 -0.298099 0 20 -0.298099 0
gene 1 2 21 -0.215381 0 21 -0.215381 1
gene 1 3 21 0.0281092 0 22 0.0281092 1
gene 1 4 21 -0.14822 0 23 -0.14822 1
gene 1 5 21 -0.543624 0 24 -0.543624 1
gene 1 6 21 -0.74804 0 25 -0.74804 1
gene 1 7 21 -0.393543 0 26 -0.393543 1
gene 1 8 21 -0.223837 0 27 -0.223837 1
gene 1 9 21 -0.18576 0 28 -0.18576 1
gene 1 10 21 -0.969334 0 29 -0.969334 1
gene 1 11 21 -0.84191 0 30 -0.84191 1
gene 1 12 21 -0.231133 0 31 -0.231133 1
gene 1 13 21 -0.420606 0 32 -0.420606 1
gene 1 14 21 0.283286 0 33 0.283286 1
gene 1 15 21 0.308933 0 34 0.308933 1
gene 1 16 21 -2.44911 0 35 -2.44911 1
gene 1 17 21 0.474177 0 36 0.474177 1
gene 1 18 21 0.0934294 0 37 0.0934294 1
gene 1 19 21 -0.235625 0 38 -0.235625 1
gene 1 1 22 0.336595 0 39 0.336595 1
gene 1 2 22 0.494028 0 40 0.494028 1
gene 1 3 22 -0.333879 0 41 -0.333879 1
gene 1 4 22 -0.0606871 0 42 -0.0606871 0
gene 1 5 22 -0.279251 0 43 -0.279251 1
gene 1 6 22 0.424067 0 44 0.424067 1
gene 1 7 22 -0.343023 0 45 -0.343023 1
gene 1 8 22 -0.610974 0 46 -0.610974 1
gene 1 9 22 -0.528677 0 47 -0.528677 1
gene 1 10 22 -0.164965 0 48 -0.164965 1
gene 1 11 22 0.127394 0 49 0.127394 1
gene 1 12 22 1.29282 0 50 1.29282 1
gene 1 13 22 -1.7361 0 51 -1.7361 0
gene 1 14 22 -0.786405 0 52 -0.786405 1
gene 1 15 22 0.313766 0 53 0.313766 1
gene 1 16 22 -0.322329 0 54 -0.322329 1
gene 1 17 22 0.562547 0 55 0.562547 1
gene 1 18 22 1.36573 0 56 1.36573 1
gene 1 19 22 0.0673664 0 57 0.0673664 1
gene 1 1 23 0.0244926 0 58 0.0244926 1
gene 1 2 23 -1.8729 0 59 -1.8729 1
gene 1 3 23 -1.3498 0 60 -1.3498 1
gene 1 4 23 0.304438 0 61 0.304438 1
gene 1 5 23 2.2857 0 62 2.2857 1
gene 1 6 23 -0.0779184 0 63 -0.0779184 1
gene 1 7 23 1.12973 0 64 1.12973 1
gene 1 8 23 -0.0702772 0 65 -0.0702772 1
gene 1 9 23 -0.304785 0 66 -0.304785 1
gene 1 10 23 -0.93508 0 67 -0.93508 1
gene 1 11 23 -0.599149 0 68 -0.599149 1
gene 1 12 23 -0.995958 0 69 -0.995958 1
gene 1 13 23 -1.03145 0 70 -1.03145 1
gene 1 14 23 -0.200268 0 71 -0.200268 1
gene 1 15 23 -1.16042 0 72 -1.16042 0
gene 1 16 23 1.00223 0 73 1.00223 1
gene 1 17 23 -1.25936 0 74 -1.25936 1
gene 1 18 23 0.61949 0 75 0.61949 1
gene 1 19 23 1.28289 0 76 1.28289 1
gene 1 20 20 -0.204879 1 79 -0.204879 1
gene 1 23 20 -1.49851 0 80 -1.49851 1
gene 1 21 23 -1.0509 0 109 -1.0509 1
gene 1 20 22 0.919852 0 141 0.919852 1
gene 1 3 78 1.03789 0 287 1.03789 1
gene 1 78 20 -0.0451609 0 288 -0.0451609 1
gene 1 18 86 2.09792 0 317 2.09792 1
gene 1 86 23 -2.24637 0 318 -2.24637 1
gene 1 11 91 0.399732 0 332 0.399732 1
gene 1 91 20 0.241867 0 333 0.241867 1
gene 1 7 98 0.806108 0 360 0.806108 1
gene 1 98 22 1.31871 0 361 1.31871 1
gene 1 6 104 -0.372004 0 387 -0.372004 1
gene 1 104 23 0.529448 0 388 0.529448 1
gene 1 12 78 0.471217 0 389 0.471217 1
gene 1 15 105 0.737165 0 392 0.737165 1
gene 1 105 23 -0.511862 0 393 -0.511862 1
gene 1 17 78 0.2403 0 408 0.2403 1
gene 1 18 98 0.174875 0 434 0.174875 1
gene 1 20 120 0.901145 1 469 0.901145 1
gene 1 120 20 -1.51827 0 470 -1.51827 1
gene 1 4 91 -0.28547 0 473 -0.28547 1
gene 1 91 22 -0.695436 0 527 -0.695436 1
gene 1 78 78 0.344884 1 534 0.344884 1
gene 1 14 78 0.797828 0 544 0.797828 1
gene 1 8 91 0.985975 0 548 0.985975 1
gene 1 15 136 0.887129 0 568 0.887129 1
gene 1 136 22 0.426152 0 569 0.426152 1
gene 1 21 120 -0.145356 0 574 -0.145356 1
gene 1 16 144 -0.0726092 0 607 -0.0726092 0
gene 1 144 21 -0.934591 0 608 -0.934591 1
gene 1 136 86 0.218648 0 723 0.218648 1
gene 1 91 105 -0.0493747 0 739 -0.0493747 1
gene 1 16 174 -0.0453564 0 824 -0.0453564 1
gene 1 174 144 0.669971 0 825 0.669971 1
gene 1 136 105 -0.294594 0 840 -0.294594 1
gene 1 3 180 0.0854205 0 842 0.0854205 1
gene 1 180 21 -0.477952 0 843 -0.477952 1
gene 1 19 144 -0.00945571 0 847 -0.00945571 1
gene 1 12 183 0.539644 0 851 0.539644 1
gene 1 183 23 -0.490856 0 852 -0.490856 1
gene 1 98 180 0.0391396 0 860 0.0391396 1
gene 1 180 105 -0.334108 0 865 -0.334108 1
gene 1 13 86 -0.838648 0 883 -0.838648 1
gene 1 16 78 0.469091 0 903 0.469091 1
gene 1 120 91 -0.0976307 0 905 -0.0976307 1
gene 1 3 194 0.0344673 0 906 0.0344673 1
gene 1 194 78 -0.0313057 0 907 -0.0313057 1
gene 1 13 195 0.049701 0 908 0.049701 1
gene 1 195 22 0.764355 0 909 0.764355 1
gene 1 8 180 0.418477 0 910 0.418477 1
gene 1 21 21 -0.40927 1 913 -0.40927 1
gene 1 19 180 -0.296882 0 926 -0.296882 1
gene 1 4 200 -0.188333 0 945 -0.188333 1
gene 1 200 22 0.329711 0 946 0.329711 1
gene 1 16 237 0.955597 0 1080 0.955597 1
gene 1 237 78 0.35998 0 1081 0.35998 1
gene 1 1 253 -0.0388434 0 1140 -0.0388434 1
gene 1 253 21 -0.402787 0 1141 -0.402787 1
gene 1 9 183 -0.177065 0 1249 -0.177065 1
gene 1 105 194 0.398978 0 1301 0.398978 1
genomeend 185
genomestart 311
trait 1 0.527433 0.872093 0.0569855 0.0371699 0.0962153 0.477469 0.0721828 0.567593 
node 1 1 1 1 0
node 2 1 1 1 0
node 3 1 1 1 0
node 4 1 1 1 0
node 5 1 1 1 0
node 6 1 1 1 0
node 7 1 1 1 0
node 8 1 1 1 0
node 9 1 1 1 0
node 10 1 1 1 0
node 11 1 1 1 0
node 12 1 1 1 0
node 13 1 1 1 0
node 14 1 1 1 0
node 15 1 1 1 0
node 16 1 1 1 0
node 17 1 1 1 0
node 18 1 1 1 0
node 19 1 1 3 0
node 20 1 0 2 0
node 21 1 0 2 0
node 22 1 0 2 0
node 23 1 0 2 0
node 78 1 0 0 0
node 86 1 0 0 0
node 91 1 0 0 0
node 98 1 0 0 0
node 104 1 0 0 0
node 105 1 0 0 0
node 120 1 0 0 0
node 136 1 0 0 0
node 144 1 0 0 0
node 174 1 0 0 0
node 180 1 0 0 0
node 183 1 0 0 0
node 194 1 0 0 0
node 196 1 0 0 0
node 197 1 0 0 0
node 199 1 0 0 0
node 270 1 0 0 0
gene 1 1 20 0.32583 0 1 0.32583 1
gene 1 2 20 0.629692 0 2 0.629692 1
gene 1 3 20 0.0502122 0 3 0.0502122 1
gene 1 4 20 -1.36264 0 4 -1.36264 1
gene 1 5 20 -0.586908 0 5 -0.586908 1
gene 1 6 20 0.462818 0 6 0.462818 1
gene 1 7 20 -0.13419 0 7 -0.13419 1
gene 1 8 20 -0.256282 0 8 -0.256282 1
gene 1 9 20 0.0983132 0 9 0.0983132 1
gene 1 10 20 -1.01106 0 10 -1.01106 1
gene 1 11 20 -1.36431 0 11 -1.36431 0
gene 1 12 20 -0.144645 0 12 -0.144645 1
gene 1 13 20 0.855544 0 13 0.855544 1
gene 1 14 20 -0.397123 0 14 -0.397123 1
gene 1 15 20 -0.680407 0 15 -0.680407 1
gene 1 16 20 1.43502 0 16 1.43502 1
gene 1 17 20 0.652118 0 17 0.652118 1
gene 1 18 20 -1.3799 0 18 -1.3799 1
gene 1 19 20 -2.29237 0 19 -2.29237 1
gene 1 1 21 -0.0296988 0 20 -0.0296988 1
gene 1 2 21 -0.145052 0 21 -0.145052 1
gene 1 3 21 0.177888 0 22 0.177888 1
gene 1 4 21 0.286507 0 23 0.286507 1
gene 1 5 21 -0.825962 0 24 -0.825962 1
gene 1 6 21 -0.434864 0 25 -0.434864 1
gene 1 7 21 0.814682 0 26 0.814682 1
gene 1 8 21 -0.924771 0 27 -0.924771 1
gene 1 9 21 -0.332574 0 28 -0.332574 1
gene 1 10 21 -0.325787 0 29 -0.325787 0
gene 1 11 21 0.194776 0 30 0.194776 1
gene 1 12 21 0.717218 0 31 0.717218 1
gene 1 13 21 -0.0762917 0 32 -0.0762917 1
gene 1 14 21 0.0090083 0 33 0.0090083 1
gene 1 15 21 0.157864 0 34 0.157864 1
gene 1 16 21 1.01235 0 35 1.01235 1
gene 1 17 21 -0.618074 0 36 -0.618074 1
gene 1 18 21 0.126046 0 37 0.126046 1
gene 1 19 21 -0.058115 0 38 -0.058115 1
gene 1 1 22 -0.0449667 0 39 -0.0449667 1
gene 1 2 22 0.266136 0 40 0.266136 1
gene 1 3 22 0.185021 0 41 0.185021 1
gene 1 4 22 0.92197 0 42 0.92197 1
gene 1 5 22 0.00123237 0 43 0.00123237 1
gene 1 6 22 0.622491 0 44 0.622491 1
gene 1 7 22 -0.136841 0 45 -0.136841 1
gene 1 8 22 0.164042 0 46 0.164042 1
gene 1 9 22 0.335405 0 47 0.335405 1
gene 1 10 22 -0.374532 0 48 -0.374532 1
gene 1 11 22 -0.509547 0 49 -0.509547 1
gene 1 12 22 -0.302984 0 50 -0.302984 1
gene 1 13 22 0.110606 0 51 0.110606 1
gene 1 14 22 0.132101 0 52 0.132101 1
gene 1 15 22 0.619739 0 53 0.619739 1
gene 1 16 22 -1.43226 0 54 -1.43226 1
gene 1 17 22 0.907027 0 55 0.907027 1
gene 1 18 22 -0.351399 0 56 -0.351399 1
gene 1 19 22 0.000431758 0 57 0.000431758 1
gene 1 1 23 1.52179 0 58 1.52179 1
gene 1 2 23 0.536469 0 59 0.536469 1
gene 1 3 23 -0.231202 0 60 -0.231202 1
gene 1 4 23 -0.286501 0 61 -0.286501 1
gene 1 5 23 -0.916543 0 62 -0.916543 1
gene 1 6 23 0.0453611 0 63 0.0453611 1
gene 1 7 23 -0.234408 0 64 -0.234408 1
gene 1 8 23 -0.185031 0 65 -0.185031 1
gene 1 9 23 0.260929 0 66 0.260929 1
gene 1 10 23 0.372674 0 67 0.372674 1
gene 1 11 23 1.19058 0 68 1.19058 1
gene 1 12 23 0.518406 0 69 0.518406 1
gene 1 13 23 0.751343 0 70 0.751343 1
gene 1 14 23 -0.253568 0 71 -0.253568 1
gene 1 15 23 -1.31872 0 72 -1.31872 0
gene 1 16 23 -1.48444 0 73 -1.48444 1
gene 1 17 23 0.0707343 0 74 0.0707343 1
gene 1 18 23 0.388174 0 75 0.388174 1
gene 1 19 23 2.72063 0 76 2.72063 1
gene 1 20 20 0.484394 1 79 0.484394 1
gene 1 23 20 -3 0 80 -3 1
gene 1 21 23 -0.0205271 0 109 -0.0205271 1
gene 1 20 22 -0.850374 0 141 -0.850374 1
gene 1 3 78 -0.751924 0 287 -0.751924 1
gene 1 78 20 -0.734342 0 288 -0.734342 1
gene 1 18 86 -0.0688588 0 317 -0.0688588 1
gene 1 86 23 0.519551 0 318 0.519551 1
gene 1 11 91 -0.0694635 0 332 -0.0694635 1
gene 1 91 20 0.758077 0 333 0.758077 1
gene 1 7 98 -1.17505 0 360 -1.17505 1
gene 1 98 22 -0.336293 0 361 -0.336293 1
gene 1 6 104 -0.426722 0 387 -0.426722 1
gene 1 104 23 -0.199942 0 388 -0.199942 1
gene 1 12 78 0.296106 0 389 0.296106 1
gene 1 15 105 -2.21605 0 392 -2.21605 1
gene 1 105 23 -0.226478 0 393 -0.226478 1
gene 1 17 78 -0.215519 0 408 -0.215519 1
gene 1 18 98 -0.120491 0 434 -0.120491 1
gene 1 20 120 0.776795 1 469 0.776795 1
gene 1 120 20 0.752388 0 470 0.752388 1
gene 1 4 91 -1.00875 0 473 -1.00875 1
gene 1 91 22 0.590811 0 527 0.590811 1
gene 1 78 78 -1.28635 1 534 -1.28635 1
gene 1 14 78 -0.119792 0 544 -0.119792 1
gene 1 8 91 -0.768509 0 548 -0.768509 1
gene 1 15 136 0.400313 0 568 0.400313 1
gene 1 136 22 2.00144 0 569 2.00144 1
gene 1 21 120 1.3888 0 574 1.3888 1
gene 1 16 144 -0.286191 0 607 -0.286191 1
gene 1 144 21 -1.03298 0 608 -1.03298 1
gene 1 136 86 -1.11964 0 723 -1.11964 1
gene 1 91 105 -0.120416 0 739 -0.120416 1
gene 1 16 174 0.315678 0 824 0.315678 1
gene 1 174 144 -0.0937968 0 825 -0.0937968 1
gene 1 136 105 0.634736 0 840 0.634736 1
gene 1 3 180 -0.854424 0 842 -0.854424 1
gene 1 180 21 0.189237 0 843 0.189237 1
gene 1 19 144 -0.0896743 0 847 -0.0896743 1
gene 1 12 183 0.535248 0 851 0.535248 1
gene 1 183 23 1.25417 0 852 1.25417 1
gene 1 98 180 0.627413 0 860 0.627413 1
gene 1 180 105 1.04867 0 865 1.04867 1
gene 1 13 86 0.865559 0 883 0.865559 1
gene 1 120 91 0.123519 0 905 0.123519 1
gene 1 3 194 -1.48821 0 906 -1.48821 1
gene 1 194 78 -0.368478 0 907 -0.368478 1
gene 1 10 196 -0.268788 0 911 -0.268788 1
gene 1 196 21 -0.183527 0 912 -0.183527 1
gene 1 12 197 -0.330682 0 914 -0.330682 1
gene 1 197 23 0.165637 0 915 0.165637 1
gene 1 11 199 0.432934 0 920 0.432934 1
gene 1 199 23 0.717395 0 921 0.717395 1
gene 1 104 104 0.329156 1 929 0.329156 1
gene 1 8 196 0.385843 0 931 0.385843 1
gene 1 8 136 -1.72791 0 936 -1.72791 1
gene 1 14 98 0.0641978 0 942 0.0641978 1
gene 1 120 105 -0.742341 0 1186 -0.742341 1
gene 1 98 270 0.25167 0 1233 0.25167 1
gene 1 270 22 0.430227 0 1234 0.430227 1
gene 1 12 180 0.284717 0 1472 0.284717 1
gene 1 5 194 0.471125 0 1608 0.471125 1
gene 1 21 21 -0.0119344 1 1662 -0.0119344 1
gene 1 180 78 -0.264933 0 1673 -0.264933 1
genomeend 311
genomestart 394
trait 1 0.608204 0.667063 0.0383999 0.0332952 0.0728585 0.608837 0.16687 0.425317 
node 1 1 1 1 0
node 2 1 1 1 0
node 3 1 1 1 0
node 4 1 1 1 0
node 5 1 1 1 0
node 6 1 1 1 0
node 7 1 1 1 0
node 8 1 1 1 0
node 9 1 1 1 0
node 10 1 1 1 0
node 11 1 1 1 0
node 12 1 1 1 0
node 13 1 1 1 0
node 14 1 1 1 0
node 15 1 1 1 0
node 16 1 1 1 0
node 17 1 1 1 0
node 18 1 1 1 0
node 19 1 1 3 0
node 20 1 0 2 0
node 21 1 0 2 0
node 22 1 0 2 0
node 23 1 0 2 0
node 78 1 0 0 0
node 86 1 0 0 0
node 91 1 0 0 0
node 98 1 0 0 0
node 104 1 0 0 0
node 105 1 0 0 0
node 120 1 0 0 0
node 136 1 0 0 0
node 144 1 0 0 0
node 174 1 0 0 0
node 180 1 0 0 0
node 183 1 0 0 0
node 194 1 0 0 0
node 196 1 0 0 0
node 197 1 0 0 0
node 199 1 0 0 0
node 270 1 0 0 0
gene 1 1 20 -0.0127589 0 1 -0.0127589 1
gene 1 2 20 -0.666222 0 2 -0.666222 1
gene 1 3 20 0.776811 0 3 0.776811 1
gene 1 4 20 -0.480944 0 4 -0.480944 1
gene 1 5 20 -0.211746 0 5 -0.211746 1
gene 1 6 20 0.780584 0 6 0.780584 1
gene 1 7 20 0.161364 0 7 0.161364 1
gene 1 8 20 -0.414276 0 8 -0.414276 1
gene 1 9 20 0.506098 0 9 0.506098 1
gene 1 10 20 -0.72472 0 10 -0.72472 1
gene 1 11 20 -1.42924 0 11 -1.42924 0
gene 1 12 20 0.304874 0 12 0.304874 1
gene 1 13 20 -0.135945 0 13 -0.135945 1
gene 1 14 20 -0.304415 0 14 -0.304415 1
gene 1 15 20 -0.698058 0 15 -0.698058 1
gene 1 16 20 -0.950615 0 16 -0.950615 1
gene 1 17 20 0.396157 0 17 0.396157 1
gene 1 18 20 -1.6587 0 18 -1.6587 1
gene 1 19 20 0.275029 0 19 0.275029 1
gene 1 1 21 0.400876 0 20 0.400876 1
gene 1 2 21 0.145274 0 21 0.145274 1
gene 1 3 21 0.38924 0 22 0.38924 1
gene 1 4 21 0.0790034 0 23 0.0790034 1
gene 1 5 21 -1.02144 0 24 -1.02144 1
gene 1 6 21 0.869905 0 25 0.869905 1
gene 1 7 21 0.514144 0 26 0.514144 1
gene 1 8 21 -0.559615 0 27 -0.559615 1
gene 1 9 21 -0.480192 0 28 -0.480192 1
gene 1 10 21 -0.156101 0 29 -0.156101 0
gene 1 11 21 0.111746 0 30 0.111746 1
gene 1 12 21 0.684869 0 31 0.684869 1
gene 1 13 21 0.371983 0 32 0.371983 1
gene 1 14 21 0.00311356 0 33 0.00311356 1
gene 1 15 21 -0.240362 0 34 -0.240362 1
gene 1 16 21 0.640987 0 35 0.640987 1
gene 1 17 21 -1.85095 0 36 -1.85095 1
gene 1 18 21 0.123648 0 37 0.123648 1
gene 1 19 21 0.10859 0 38 0.10859 1
gene 1 1 22 -0.525808 0 39 -0.525808 1
gene 1 2 22 0.734894 0 40 0.734894 1
gene 1 3 22 0.438927 0 41 0.438927 1
gene 1 4 22 0.872345 0 42 0.872345 1
gene 1 5 22 -0.329268 0 43 -0.329268 1
gene 1 6 22 -1.26133 0 44 -1.26133 1
gene 1 7 22 0.232852 0 45 0.232852 1
gene 1 8 22 -0.257244 0 46 -0.257244 1
gene 1 9 22 0.659069 0 47 0.659069 1
gene 1 10 22 -0.400959 0 48 -0.400959 1
gene 1 11 22 -0.975553 0 49 -0.975553 1
gene 1 12 22 0.280579 0 50 0.280579 1
gene 1 13 22 0.512097 0 51 0.512097 1
gene 1 14 22 1.36568 0 52 1.36568 1
gene 1 15 22 -0.304359 0 53 -0.304359 1
gene 1 16 22 0.264556 0 54 0.264556 1
gene 1 17 22 1.20566 0 55 1.20566 1
gene 1 18 22 -0.235555 0 56 -0.235555 1
gene 1 19 22 0.274214 0 57 0.274214 1
gene 1 1 23 1.83799 0 58 1.83799 1
gene 1 2 23 0.600679 0 59 0.600679 1
gene 1 3 23 -0.0610464 0 60 -0.0610464 1
gene 1 4 23 -0.112571 0 61 -0.112571 1
gene 1 5 23 -0.919974 0 62 -0.919974 1
gene 1 6 23 -0.313393 0 63 -0.313393 1
gene 1 7 23 -0.20279 0 64 -0.20279 1
gene 1 8 23 -0.147878 0 65 -0.147878 1
gene 1 9 23 0.12883 0 66 0.12883 1
gene 1 10 23 0.537331 0 67 0.537331 1
gene 1 11 23 -0.00908371 0 68 -0.00908371 1
gene 1 12 23 0.988982 0 69 0.988982 1
gene 1 13 23 0.900033 0 70 0.900033 1
gene 1 14 23 -0.167803 0 71 -0.167803 1
gene 1 15 23 -1.26428 0 72 -1.26428 0
gene 1 16 23 -1.06502 0 73 -1.06502 1
gene 1 17 23 -0.7721 0 74 -0.7721 1
gene 1 18 23 -0.776669 0 75 -0.776669 1
gene 1 19 23 2.96721 0 76 2.96721 1
gene 1 20 20 -0.682123 1 79 -0.682123 1
gene 1 23 20 -2.65405 0 80 -2.65405 1
gene 1 21 23 -0.253639 0 109 -0.253639 1
gene 1 20 22 -0.424157 0 141 -0.424157 1
gene 1 3 78 -0.0878132 0 287 -0.0878132 1
gene 1 78 20 -0.454901 0 288 -0.454901 1
gene 1 18 86 -0.258121 0 317 -0.258121 1
gene 1 86 23 0.839507 0 318 0.839507 1
gene 1 11 91 -0.202304 0 332 -0.202304 1
gene 1 91 20 -0.500115 0 333 -0.500115 1
gene 1 7 98 -0.408445 0 360 -0.408445 1
gene 1 98 22 0.0120809 0 361 0.0120809 1
gene 1 6 104 -0.0843917 0 387 -0.0843917 1
gene 1 104 23 0.170353 0 388 0.170353 1
gene 1 12 78 -0.84349 0 389 -0.84349 1
gene 1 15 105 -2.48137 0 392 -2.48137 1
gene 1 105 23 -0.356701 0 393 -0.356701 1
gene 1 17 78 0.14333 0 408 0.14333 1
gene 1 18 98 0.137331 0 434 0.137331 1
gene 1 20 120 0.348641 1 469 0.348641 1
gene 1 120 20 0.387081 0 470 0.387081 1
gene 1 4 91 -0.292069 0 473 -0.292069 1
gene 1 91 22 0.181058 0 527 0.181058 1
gene 1 78 78 0.179575 1 534 0.179575 1
gene 1 14 78 -0.55393 0 544 -0.55393 1
gene 1 8 91 -0.302219 0 548 -0.302219 1
gene 1 15 136 -0.318711 0 568 -0.318711 1
gene 1 136 22 0.237418 0 569 0.237418 1
gene 1 21 120 0.85028 0 574 0.85028 1
gene 1 16 144 -0.0299537 0 607 -0.0299537 1
gene 1 144 21 -0.187572 0 608 -0.187572 1
gene 1 136 86 -1.15439 0 723 -1.15439 1
gene 1 91 105 -0.398693 0 739 -0.398693 1
gene 1 16 174 -0.751771 0 824 -0.751771 1
gene 1 174 144 -0.656726 0 825 -0.656726 1
gene 1 136 105 0.177112 0 840 0.177112 1
gene 1 3 180 0.0469061 0 842 0.0469061 1
gene 1 180 21 -0.224451 0 843 -0.224451 1
gene 1 19 144 -0.480657 0 847 -0.480657 1
gene 1 12 183 0.552065 0 851 0.552065 1
gene 1 183 23 -0.547459 0 852 -0.547459 1
gene 1 98 180 1.74362 0 860 1.74362 1
gene 1 180 105 1.04867 0 865 1.04867 1
gene 1 13 86 0.172317 0 883 0.172317 1
gene 1 120 91 0.519367 0 905 0.519367 1
gene 1 3 194 -1.48821 0 906 -1.48821 1
gene 1 194 78 -0.509888 0 907 -0.509888 1
gene 1 10 196 -0.888844 0 911 -0.888844 1
gene 1 196 21 -0.202304 0 912 -0.202304 1
gene 1 12 197 -0.560421 0 914 -0.560421 1
gene 1 197 23 0.165637 0 915 0.165637 1
gene 1 11 199 0.432934 0 920 0.432934 1
gene 1 199 23 0.40832 0 921 0.40832 1
gene 1 104 104 -0.496678 1 929 -0.496678 1
gene 1 8 196 0.357162 0 931 0.357162 1
gene 1 8 136 -1.97426 0 936 -1.97426 1
gene 1 14 98 -0.41166 0 942 -0.41166 1
gene 1 120 105 -0.934046 0 1186 -0.934046 1
gene 1 98 270 0.19602 0 1233 0.19602 1
gene 1 270 22 0.372833 0 1234 0.372833 1
gene 1 12 180 -0.122118 0 1472 -0.122118 1
gene 1 5 194 2.24409 0 1608 2.24409 1
gene 1 21 21 -0.0400531 1 1662 -0.0400531 1
gene 1 180 78 -0.334297 0 1673 -0.334297 1
genomeend 394
genomestart 428
trait 1 0.120417 0.631046 0 0.202789 0.625347 0.0559343 1 0.805176 
node 1 1 1 1 0
node 2 1 1 1 0
node 3 1 1 1 0
node 4 1 1 1 0
node 5 1 1 1 0
node 6 1 1 1 0
node 7 1 1 1 0
node 8 1 1 1 0
node 9 1 1 1 0
node 10 1 1 1 0
node 11 1 1 1 0
node 12 1 1 1 0
node 13 1 1 1 0
node 14 1 1 1 0
node 15 1 1 1 0
node 16 1 1 1 0
node 17 1 1 1 0
node 18 1 1 1 0
node 19 1 1 3 0
node 20 1 0 2 0
node 21 1 0 2 0
node 22 1 0 2 0
node 23 1 0 2 0
node 78 1 0 0 0
node 86 1 0 0 0
node 91 1 0 0 0
node 98 1 0 0 0
node 104 1 0 0 0
node 105 1 0 0 0
node 120 1 0 0 0
node 136 1 0 0 0
node 144 1 0 0 0
node 174 1 0 0 0
node 180 1 0 0 0
node 183 1 0 0 0
node 232 1 0 0 0
node 298 1 0 0 0
gene 1 1 20 -0.686531 0 1 -0.686531 1
gene 1 2 20 -2.06294 0 2 -2.06294 1
gene 1 3 20 -0.396324 0 3 -0.396324 0
gene 1 4 20 0.0367604 0 4 0.0367604 1
gene 1 5 20 -0.740836 0 5 -0.740836 1
gene 1 6 20 -0.413956 0 6 -0.413956 1
gene 1 7 20 1.92045 0 7 1.92045 1
gene 1 8 20 0.919725 0 8 0.919725 1
gene 1 9 20 -1.42841 0 9 -1.42841 1
gene 1 10 20 -0.568111 0 10 -0.568111 1
gene 1 11 20 1.19887 0 11 1.19887 1
gene 1 12 20 0.807364 0 12 0.807364 1
gene 1 13 20 -0.416777 0 13 -0.416777 1
gene 1 14 20 0.647301 0 14 0.647301 1
gene 1 15 20 -0.632268 0 15 -0.632268 1
gene 1 16 20 -0.499206 0 16 -0.499206 1
gene 1 17 20 0.425858 0 17 0.425858 1
gene 1 18 20 0.657992 0 18 0.657992 1
gene 1 19 20 0.206267 0 19 0.206267 1
gene 1 1 21 0.617938 0 20 0.617938 1
gene 1 2 21 0.19409 0 21 0.19409 1
gene 1 3 21 1.17998 0 22 1.17998 1
gene 1 4 21 0.49232 0 23 0.49232 0
gene 1 5 21 0.194858 0 24 0.194858 1
gene 1 6 21 1.25147 0 25 1.25147 1
gene 1 7 21 -1.41771 0 26 -1.41771 1
gene 1 8 21 -0.220902 0 27 -0.220902 1
gene 1 9 21 -0.614237 0 28 -0.614237 1
gene 1 10 21 0.826233 0 29 0.826233 1
gene 1 11 21 -1.54336 0 30 -1.54336 1
gene 1 12 21 0.584137 0 31 0.584137 1
gene 1 13 21 0.887485 0 32 0.887485 1
gene 1 14 21 -1.40427 0 33 -1.40427 1
gene 1 15 21 -0.278668 0 34 -0.278668 1
gene 1 16 21 -0.224688 0 35 -0.224688 0
gene 1 17 21 -2.73072 0 36 -2.73072 1
gene 1 18 21 -1.46711 0 37 -1.46711 1
gene 1 19 21 -0.4802 0 38 -0.4802 1
gene 1 1 22 2.17976 0 39 2.17976 1
gene 1 2 22 0.0094166 0 40 0.0094166 1
gene 1 3 22 0.774942 0 41 0.774942 1
gene 1 4 22 -1.45979 0 42 -1.45979 1
gene 1 5 22 -1.12126 0 43 -1.12126 1
gene 1 6 22 1.37511 0 44 1.37511 1
gene 1 7 22 -0.0426885 0 45 -0.0426885 1
gene 1 8 22 0.730493 0 46 0.730493 1
gene 1 9 22 0.211232 0 47 0.211232 1
gene 1 10 22 -0.3429 0 48 -0.3429 1
gene 1 11 22 0.0188264 0 49 0.0188264 1
gene 1 12 22 -0.671432 0 50 -0.671432 1
gene 1 13 22 -0.191027 0 51 -0.191027 1
gene 1 14 22 -0.729544 0 52 -0.729544 1
gene 1 15 22 -0.128895 0 53 -0.128895 1
gene 1 16 22 -0.583675 0 54 -0.583675 1
gene 1 17 22 0.123251 0 55 0.123251 1
gene 1 18 22 1.02962 0 56 1.02962 1
gene 1 19 22 0.304689 0 57 0.304689 1
gene 1 1 23 -1.93798 0 58 -1.93798 1
gene 1 2 23 0.552129 0 59 0.552129 1
gene 1 3 23 -0.283171 0 60 -0.283171 1
gene 1 4 23 0.380666 0 61 0.380666 1
gene 1 5 23 0.879518 0 62 0.879518 1
gene 1 6 23 -0.0394073 0 63 -0.0394073 0
gene 1 7 23 0.821906 0 64 0.821906 1
gene 1 8 23 -0.4158 0 65 -0.4158 1
gene 1 9 23 0.297687 0 66 0.297687 1
gene 1 10 23 -0.366412 0 67 -0.366412 1
gene 1 11 23 0.409249 0 68 0.409249 1
gene 1 12 23 1.38135 0 69 1.38135 1
gene 1 13 23 -0.89734 0 70 -0.89734 1
gene 1 14 23 1.053 0 71 1.053 1
gene 1 15 23 0.061886 0 72 0.061886 0
gene 1 16 23 0.100187 0 73 0.100187 1
gene 1 17 23 -0.28158 0 74 -0.28158 1
gene 1 18 23 1.65922 0 75 1.65922 0
gene 1 19 23 -0.526857 0 76 -0.526857 1
gene 1 20 20 0.129329 1 79 0.129329 1
gene 1 23 20 -0.881924 0 80 -0.881924 1
gene 1 21 23 -0.0507793 0 109 -0.0507793 1
gene 1 20 22 -0.326247 0 141 -0.326247 1
gene 1 3 78 0.657854 0 287 0.657854 1
gene 1 78 20 0.435936 0 288 0.435936 1
gene 1 18 86 -0.458995 0 317 -0.458995 1
gene 1 86 23 -0.279853 0 318 -0.279853 1
gene 1 11 91 -0.333975 0 332 -0.333975 1
gene 1 91 20 -1.06554 0 333 -1.06554 1
gene 1 7 98 -1.00251 0 360 -1.00251 1
gene 1 98 22 -0.204828 0 361 -0.204828 1
gene 1 6 104 0.35738 0 387 0.35738 1
gene 1 104 23 0.468606 0 388 0.468606 1
gene 1 12 78 0.255921 0 389 0.255921 1
gene 1 15 105 0.937411 0 392 0.937411 1
gene 1 105 23 -0.351642 0 393 -0.351642 1
gene 1 17 78 -0.290707 0 408 -0.290707 1
gene 1 18 98 0.310457 0 434 0.310457 1
gene 1 20 120 1.3949 1 469 1.3949 1
gene 1 120 20 -1.16644 0 470 -1.16644 1
gene 1 4 91 -0.852862 0 473 -0.852862 1
gene 1 91 22 0.817223 0 527 0.817223 1
gene 1 78 78 0.925496 1 534 0.925496 1
gene 1 14 78 0.407847 0 544 0.407847 1
gene 1 8 91 0.681225 0 548 0.681225 1
gene 1 15 136 0.07863 0 568 0.07863 1
gene 1 136 22 -0.400076 0 569 -0.400076 1
gene 1 21 120 -0.114202 0 574 -0.114202 1
gene 1 16 144 0.0117083 0 607 0.0117083 1
gene 1 144 21 -0.421484 0 608 -0.421484 1
gene 1 136 86 -0.182579 0 723 -0.182579 1
gene 1 91 105 0.43359 0 739 0.43359 1
gene 1 16 174 0.641685 0 824 0.641685 1
gene 1 174 144 1.56891 0 825 1.56891 1
gene 1 136 105 -0.89583 0 840 -0.89583 1
gene 1 3 180 1.14083 0 842 1.14083 1
gene 1 180 21 0.328176 0 843 0.328176 1
gene 1 19 144 -0.236459 0 847 -0.236459 1
gene 1 12 183 0.469615 0 851 0.469615 0
gene 1 183 23 0.271408 0 852 0.271408 1
gene 1 98 180 0.19427 0 860 0.19427 1
gene 1 180 105 0.485883 0 865 0.485883 1
gene 1 13 86 0.387993 0 883 0.387993 1
gene 1 16 78 -0.365102 0 903 -0.365102 1
gene 1 144 144 0.269141 1 1016 0.269141 1
gene 1 4 232 0.108285 0 1064 0.108285 1
gene 1 232 21 -0.219058 0 1065 -0.219058 1
gene 1 21 20 -0.262994 0 1335 -0.262994 1
gene 1 12 298 -0.170931 0 1359 -0.170931 1
gene 1 298 183 0.418398 0 1360 0.418398 1
gene 1 120 136 1.1614 0 1540 1.1614 1
genomeend 428
genomestart 447
trait 1 0.356757 0.0938965 0.575389 0.681472 0.209276 0.104524 0.053407 0.290617 
node 1 1 1 1 0
node 2 1 1 1 0
node 3 1 1 1 0
node 4 1 1 1 0
node 5 1 1 1 0
node 6 1 1 1 0
node 7 1 1 1 0
node 8 1 1 1 0
node 9 1 1 1 0
node 10 1 1 1 0
node 11 1 1 1 0
node 12 1 1 1 0
node 13 1 1 1 0
node 14 1 1 1 0
node 15 1 1 1 0
node 16 1 1 1 0
node 17 1 1 1 0
node 18 1 1 1 0
node 19 1 1 3 0
node 20 1 0 2 0
node 21 1 0 2 0
node 22 1 0 2 0
node 23 1 0 2 0
node 78 1 0 0 0
node 86 1 0 0 0
node 91 1 0 0 0
node 98 1 0 0 0
node 104 1 0 0 0
node 105 1 0 0 0
node 120 1 0 0 0
node 136 1 0 0 0
node 144 1 0 0 0
node 174 1 0 0 0
node 180 1 0 0 0
node 183 1 0 0 0
node 194 1 0 0 0
node 195 1 0 0 0
node 196 1 0 0 0
node 197 1 0 0 0
node 199 1 0 0 0
node 229 1 0 0 0
node 271 1 0 0 0
node 303 1 0 0 0
gene 1 1 20 -1.45876 0 1 -1.45876 1
gene 1 2 20 -2.07746 0 2 -2.07746 1
gene 1 3 20 -0.76886 0 3 -0.76886 1
gene 1 4 20 1.70742 0 4 1.70742 1
gene 1 5 20 0.875417 0 5 0.875417 1
gene 1 6 20 -0.308267 0 6 -0.308267 1
gene 1 7 20 0.405401 0 7 0.405401 1
gene 1 8 20 1.49872 0 8 1.49872 1
gene 1 9 20 0.535524 0 9 0.535524 1
gene 1 10 20 0.452718 0 10 0.452718 1
gene 1 11 20 -1.26885 0 11 -1.26885 0
gene 1 12 20 -0.661565 0 12 -0.661565 1
gene 1 13 20 -0.118703 0 13 -0.118703 1
gene 1 14 20 0.627317 0 14 0.627317 1
gene 1 15 20 -0.231788 0 15 -0.231788 1
gene 1 16 20 -0.234313 0 16 -0.234313 1
gene 1 17 20 1.48685 0 17 1.48685 1
gene 1 18 20 -1.95821 0 18 -1.95821 1
gene 1 19 20 -0.401729 0 19 -0.401729 1
gene 1 1 21 -0.389648 0 20 -0.389648 1
gene 1 2 21 1.25532 0 21 1.25532 1
gene 1 3 21 -0.0896948 0 22 -0.0896948 0
gene 1 4 21 0.785334 0 23 0.785334 1
gene 1 5 21 0.194481 0 24 0.194481 1
gene 1 6 21 -1.22204 0 25 -1.22204 1
gene 1 7 21 0.907462 0 26 0.907462 1
gene 1 8 21 -0.508551 0 27 -0.508551 1
gene 1 9 21 0.621424 0 28 0.621424 1
gene 1 10 21 -0.273563 0 29 -0.273563 0
gene 1 11 21 0.0920258 0 30 0.0920258 1
gene 1 12 21 1.13843 0 31 1.13843 1
gene 1 13 21 -1.63555 0 32 -1.63555 1
gene 1 14 21 1.3573 0 33 1.3573 1
gene 1 15 21 0.490515 0 34 0.490515 1
gene 1 16 21 0.39504 0 35 0.39504 0
gene 1 17 21 -0.282031 0 36 -0.282031 1
gene 1 18 21 1.24696 0 37 1.24696 1
gene 1 19 21 -1.26375 0 38 -1.26375 1
gene 1 1 22 -2.09897 0 39 -2.09897 1
gene 1 2 22 -0.333603 0 40 -0.333603 1
gene 1 3 22 0.457673 0 41 0.457673 1
gene 1 4 22 -0.383238 0 42 -0.383238 1
gene 1 5 22 -0.0537875 0 43 -0.0537875 1
gene 1 6 22 -0.57756 0 44 -0.57756 1
gene 1 7 22 0.287427 0 45 0.287427 1
gene 1 8 22 -0.783403 0 46 -0.783403 1
gene 1 9 22 -1.99508 0 47 -1.99508 1
gene 1 10 22 1.04593 0 48 1.04593 1
gene 1 11 22 -1.69687 0 49 -1.69687 1
gene 1 12 22 0.0281815 0 50 0.0281815 1
gene 1 13 22 -0.14523 0 51 -0.14523 1
gene 1 14 22 0.184963 0 52 0.184963 1
gene 1 15 22 0.32085 0 53 0.32085 1
gene 1 16 22 -1.33583 0 54 -1.33583 1
gene 1 17 22 0.154325 0 55 0.154325 1
gene 1 18 22 0.238501 0 56 0.238501 1
gene 1 19 22 0.921699 0 57 0.921699 1
gene 1 1 23 1.25273 0 58 1.25273 1
gene 1 2 23 0.402 0 59 0.402 1
gene 1 3 23 0.309774 0 60 0.309774 1
gene 1 4 23 -0.404324 0 61 -0.404324 1
gene 1 5 23 -0.935744 0 62 -0.935744 1
gene 1 6 23 0.34348 0 63 0.34348 0
gene 1 7 23 0.526076 0 64 0.526076 1
gene 1 8 23 0.0390469 0 65 0.0390469 1
gene 1 9 23 -0.0570948 0 66 -0.0570948 1
gene 1 10 23 -0.232927 0 67 -0.232927 1
gene 1 11 23 -2.38035 0 68 -2.38035 1
gene 1 12 23 -0.113458 0 69 -0.113458 0
gene 1 13 23 -0.0569281 0 70 -0.0569281 1
gene 1 14 23 -0.405452 0 71 -0.405452 1
gene 1 15 23 0.737152 0 72 0.737152 0
gene 1 16 23 -0.146402 0 73 -0.146402 1
gene 1 17 23 -0.075236 0 74 -0.075236 1
gene 1 18 23 -0.85579 0 75 -0.85579 0
gene 1 19 23 0.387973 0 76 0.387973 1
gene 1 20 20 -0.84652 1 79 -0.84652 1
gene 1 23 20 0.165707 0 80 0.165707 1
gene 1 21 23 2.55423 0 109 2.55423 1
gene 1 20 22 -0.034252 0 141 -0.034252 1
gene 1 3 78 0.352699 0 287 0.352699 1
gene 1 78 20 0.152528 0 288 0.152528 1
gene 1 18 86 0.367685 0 317 0.367685 1
gene 1 86 23 0.182451 0 318 0.182451 1
gene 1 11 91 0.256049 0 332 0.256049 1
gene 1 91 20 -0.834087 0 333 -0.834087 1
gene 1 7 98 0.469805 0 360 0.469805 1
gene 1 98 22 -0.494087 0 361 -0.494087 1
gene 1 6 104 0.561863 0 387 0.561863 1
gene 1 104 23 -0.362873 0 388 -0.362873 1
gene 1 12 78 0.615069 0 389 0.615069 1
gene 1 15 105 0.910428 0 392 0.910428 1
gene 1 105 23 -1.33537 0 393 -1.33537 1
gene 1 17 78 0.21024 0 408 0.21024 1
gene 1 18 98 -0.308377 0 434 -0.308377 1
gene 1 20 120 -0.335346 1 469 -0.335346 1
gene 1 120 20 -0.920953 0 470 -0.920953 1
gene 1 4 91 0.0631242 0 473 0.0631242 1
gene 1 91 22 -0.635685 0 527 -0.635685 1
gene 1 78 78 0.137847 1 534 0.137847 1
gene 1 14 78 0.160008 0 544 0.160008 1
gene 1 8 91 0.197822 0 548 0.197822 1
gene 1 15 136 -0.635357 0 568 -0.635357 1
gene 1 136 22 -0.046907 0 569 -0.046907 1
gene 1 21 120 -0.198948 0 574 -0.198948 1
gene 1 16 144 -2.91043 0 607 -2.91043 0
gene 1 144 21 -0.701123 0 608 -0.701123 1
gene 1 136 86 -0.0624645 0 723 -0.0624645 1
gene 1 91 105 -0.245698 0 739 -0.245698 1
gene 1 16 174 -0.0299335 0 824 -0.0299335 1
gene 1 174 144 0.198842 0 825 0.198842 1
gene 1 136 105 0.374065 0 840 0.374065 1
gene 1 3 180 0.43548 0 842 0.43548 1
gene 1 180 21 0.0281981 0 843 0.0281981 1
gene 1 19 144 1.59227 0 847 1.59227 1
gene 1 12 183 0.231843 0 851 0.231843 1
gene 1 183 23 0.0194483 0 852 0.0194483 1
gene 1 98 180 0.315769 0 860 0.315769 1
gene 1 180 105 0.623343 0 865 0.623343 1
gene 1 13 86 -0.578717 0 883 -0.578717 1
gene 1 16 78 0.175827 0 903 0.175827 1
gene 1 120 91 1.31471 0 905 1.31471 1
gene 1 3 194 0.361438 0 906 0.361438 1
gene 1 194 78 0.317868 0 907 0.317868 1
gene 1 13 195 -0.406036 0 908 -0.406036 1
gene 1 195 22 -0.947189 0 909 -0.947189 1
gene 1 8 180 0.794557 0 910 0.794557 0
gene 1 10 196 0.0513719 0 911 0.0513719 1
gene 1 196 21 -1.83524 0 912 -1.83524 1
gene 1 21 21 -0.126873 1 913 -0.126873 1
gene 1 12 197 -0.300192 0 914 -0.300192 1
gene 1 197 23 0.687772 0 915 0.687772 1
gene 1 11 199 0.430448 0 920 0.430448 1
gene 1 199 23 0.302299 0 921 0.302299 1
gene 1 19 180 -0.179864 0 926 -0.179864 1
gene 1 17 229 -0.131892 0 1056 -0.131892 1
gene 1 229 78 0.430469 0 1057 0.430469 1
gene 1 8 271 -0.103701 0 1239 -0.103701 1
gene 1 271 180 -1.0519 0 1240 -1.0519 1
gene 1 3 91 0.121178 0 1252 0.121178 1
gene 1 196 194 1.24674 0 1371 1.24674 1
gene 1 4 303 0.0529673 0 1389 0.0529673 1
gene 1 303 23 0.247295 0 1390 0.247295 1
gene 1 120 136 -0.0433024 0 1540 -0.0433024 1
gene 1 91 91 -0.375242 1 1613 -0.375242 1
gene 1 21 199 -0.347442 0 1653 -0.347442 1
gene 1 7 105 0.2268 0 1714 0.2268 1
genomeend 447
genomestart 452
trait 1 0.667563 0.349284 0.945292 0.484558 0 0.142967 0.188577 0.425069 
node 1 1 1 1 0
node 2 1 1 1 0
node 3 1 1 1 0
node 4 1 1 1 0
node 5 1 1 1 0
node 6 1 1 1 0
node 7 1 1 1 0
node 8 1 1 1 0
node 9 1 1 1 0
node 10 1 1 1 0
node 11 1 1 1 0
node 12 1 1 1 0
node 13 1 1 1 0
node 14 1 1 1 0
node 15 1 1 1 0
node 16 1 1 1 0
node 17 1 1 1 0
node 18 1 1 1 0
node 19 1 1 3 0
node 20 1 0 2 0
node 21 1 0 2 0
node 22 1 0 2 0
node 23 1 0 2 0
node 78 1 0 0 0
node 86 1 0 0 0
node 91 1 0 0 0
node 98 1 0 0 0
node 104 1 0 0 0
node 105 1 0 0 0
node 120 1 0 0 0
node 136 1 0 0 0
node 144 1 0 0 0
node 174 1 0 0 0
node 180 1 0 0 0
node 183 1 0 0 0
node 194 1 0 0 0
node 195 1 0 0 0
node 200 1 0 0 0
node 237 1 0 0 0
node 253 1 0 0 0
gene 1 1 20 -0.420217 0 1 -0.420217 1
gene 1 2 20 0.0226819 0 2 0.0226819 1
gene 1 3 20 -0.846062 0 3 -0.846062 0
gene 1 4 20 -0.0909866 0 4 -0.0909866 1
gene 1 5 20 0.0898231 0 5 0.0898231 1
gene 1 6 20 -0.462446 0 6 -0.462446 1
gene 1 7 20 0.0971739 0 7 0.0971739 1
gene 1 8 20 -2.23847 0 8 -2.23847 1
gene 1 9 20 0.5375 0 9 0.5375 1
gene 1 10 20 -0.759642 0 10 -0.759642 1
gene 1 11 20 -0.401507 0 11 -0.401507 0
gene 1 12 20 0.312433 0 12 0.312433 1
gene 1 13 20 0.549809 0 13 0.549809 1
gene 1 14 20 0.452911 0 14 0.452911 1
gene 1 15 20 0.318424 0 15 0.318424 1
gene 1 16 20 0.906061 0 16 0.906061 1
gene 1 17 20 -0.0146025 0 17 -0.0146025 1
gene 1 18 20 -1.35593 0 18 -1.35593 1
gene 1 19 20 0.162586 0 19 0.162586 1
gene 1 1 21 0.593296 0 20 0.593296 0
gene 1 2 21 0.0384459 0 21 0.0384459 1
gene 1 3 21 0.0174195 0 22 0.0174195 1
gene 1 4 21 -0.107268 0 23 -0.107268 1
gene 1 5 21 -0.135523 0 24 -0.135523 1
gene 1 6 21 -0.279308 0 25 -0.279308 1
gene 1 7 21 -0.16693 0 26 -0.16693 1
gene 1 8 21 -0.461704 0 27 -0.461704 1
gene 1 9 21 -0.130772 0 28 -0.130772 1
gene 1 10 21 -1.5137 0 29 -1.5137 1
gene 1 11 21 -0.337104 0 30 -0.337104 1
gene 1 12 21 -0.444211 0 31 -0.444211 1
gene 1 13 21 -0.658335 0 32 -0.658335 1
gene 1 14 21 -0.428684 0 33 -0.428684 1
gene 1 15 21 -0.316422 0 34 -0.316422 1
gene 1 16 21 0.0370352 0 35 0.0370352 1
gene 1 17 21 0.453907 0 36 0.453907 1
gene 1 18 21 0.457433 0 37 0.457433 1
gene 1 19 21 -0.199844 0 38 -0.199844 1
gene 1 1 22 -0.102479 0 39 -0.102479 1
gene 1 2 22 -0.588327 0 40 -0.588327 1
gene 1 3 22 -0.879562 0 41 -0.879562 1
gene 1 4 22 -0.0767519 0 42 -0.0767519 0
gene 1 5 22 -0.00299101 0 43 -0.00299101 1
gene 1 6 22 -0.397804 0 44 -0.397804 1
gene 1 7 22 0.489333 0 45 0.489333 1
gene 1 8 22 0.0486701 0 46 0.0486701 1
gene 1 9 22 -0.744613 0 47 -0.744613 1
gene 1 10 22 0.217858 0 48 0.217858 1
gene 1 11 22 -0.393766 0 49 -0.393766 1
gene 1 12 22 0.168701 0 50 0.168701 1
gene 1 13 22 0.327213 0 51 0.327213 0
gene 1 14 22 -0.422992 0 52 -0.422992 1
gene 1 15 22 -0.0287363 0 53 -0.0287363 1
gene 1 16 22 -0.304888 0 54 -0.304888 1
gene 1 17 22 0.116661 0 55 0.116661 1
gene 1 18 22 0.468766 0 56 0.468766 1
gene 1 19 22 -0.179976 0 57 -0.179976 1
gene 1 1 23 -0.0219501 0 58 -0.0219501 1
gene 1 2 23 0.495077 0 59 0.495077 1
gene 1 3 23 0.3769 0 60 0.3769 1
gene 1 4 23 0.213712 0 61 0.213712 1
gene 1 5 23 2.43426 0 62 2.43426 1
gene 1 6 23 -0.467232 0 63 -0.467232 1
gene 1 7 23 0.307993 0 64 0.307993 1
gene 1 8 23 -0.218966 0 65 -0.218966 1
gene 1 9 23 0.609459 0 66 0.609459 1
gene 1 10 23 -0.183024 0 67 -0.183024 1
gene 1 11 23 -1.36019 0 68 -1.36019 1
gene 1 12 23 -0.344461 0 69 -0.344461 1
gene 1 13 23 -0.196984 0 70 -0.196984 1
gene 1 14 23 0.158105 0 71 0.158105 1
gene 1 15 23 -0.656352 0 72 -0.656352 0
gene 1 16 23 0.231235 0 73 0.231235 1
gene 1 17 23 -0.832642 0 74 -0.832642 1
gene 1 18 23 0.138592 0 75 0.138592 0
gene 1 19 23 0.0275946 0 76 0.0275946 1
gene 1 20 20 0.537538 1 79 0.537538 1
gene 1 23 20 -1.14883 0 80 -1.14883 1
gene 1 21 23 0.170913 0 109 0.170913 1
gene 1 20 22 0.489442 0 141 0.489442 1
gene 1 3 78 0.48713 0 287 0.48713 0
gene 1 78 20 0.154136 0 288 0.154136 1
gene 1 18 86 1.14047 0 317 1.14047 1
gene 1 86 23 -1.80078 0 318 -1.80078 1
gene 1 11 91 0.151004 0 332 0.151004 1
gene 1 91 20 0.407327 0 333 0.407327 1
gene 1 7 98 0.0165517 0 360 0.0165517 1
gene 1 98 22 0.397404 0 361 0.397404 1
gene 1 6 104 -0.176984 0 387 -0.176984 1
gene 1 104 23 0.161902 0 388 0.161902 1
gene 1 12 78 0.954541 0 389 0.954541 1
gene 1 15 105 -0.923839 0 392 -0.923839 1
gene 1 105 23 0.10504 0 393 0.10504 1
gene 1 17 78 0.230187 0 408 0.230187 1
gene 1 18 98 -0.351015 0 434 -0.351015 1
gene 1 20 120 0.111865 1 469 0.111865 1
gene 1 120 20 -0.0221435 0 470 -0.0221435 1
gene 1 4 91 -0.790749 0 473 -0.790749 1
gene 1 91 22 -0.996728 0 527 -0.996728 1
gene 1 78 78 -0.220876 1 534 -0.220876 1
gene 1 14 78 1.17689 0 544 1.17689 1
gene 1 8 91 1.0265 0 548 1.0265 1
gene 1 15 136 1.12033 0 568 1.12033 1
gene 1 136 22 -0.617158 0 569 -0.617158 1
gene 1 21 120 0.33848 0 574 0.33848 1
gene 1 16 144 -0.596726 0 607 -0.596726 0
gene 1 144 21 0.456907 0 608 0.456907 1
gene 1 136 86 0.43548 0 723 0.43548 1
gene 1 91 105 0.177419 0 739 0.177419 1
gene 1 16 174 0.734972 0 824 0.734972 1
gene 1 174 144 0.870279 0 825 0.870279 1
gene 1 136 105 0.654184 0 840 0.654184 1
gene 1 3 180 0.0650602 0 842 0.0650602 1
gene 1 180 21 0.207984 0 843 0.207984 1
gene 1 19 144 0.0502406 0 847 0.0502406 1
gene 1 12 183 0.299283 0 851 0.299283 1
gene 1 183 23 0.465281 0 852 0.465281 1
gene 1 98 180 0.494823 0 860 0.494823 1
gene 1 180 105 0.417387 0 865 0.417387 1
gene 1 13 86 -0.231168 0 883 -0.231168 1
gene 1 16 78 0.425214 0 903 0.425214 1
gene 1 120 91 -0.23728 0 905 -0.23728 1
gene 1 3 194 -0.141099 0 906 -0.141099 1
gene 1 194 78 -0.578485 0 907 -0.578485 1
gene 1 13 195 0.198798 0 908 0.198798 1
gene 1 195 22 -0.458335 0 909 -0.458335 1
gene 1 8 180 0.0223725 0 910 0.0223725 1
gene 1 21 21 -0.770107 1 913 -0.770107 1
gene 1 19 180 -0.670539 0 926 -0.670539 1
gene 1 4 200 -0.442287 0 945 -0.442287 1
gene 1 200 22 0.0501324 0 946 0.0501324 1
gene 1 16 237 -0.48629 0 1080 -0.48629 1
gene 1 237 78 0.182788 0 1081 0.182788 1
gene 1 1 253 0.249568 0 1140 0.249568 1
gene 1 253 21 -0.346664 0 1141 -0.346664 1
gene 1 9 183 -0.284998 0 1249 -0.284998 1
gene 1 105 194 -0.222753 0 1301 -0.222753 1
gene 1 183 237 1.20749 0 1692 1.20749 1
genomeend 452
genomestart 455
trait 1 0.353995 0.0936542 0.578605 0.685927 0.206581 0.122679 0.0572228 0.296836 
node 1 1 1 1 0
node 2 1 1 1 0
node 3 1 1 1 0
node 4 1 1 1 0
node 5 1 1 1 0
node 6 1 1 1 0
node 7 1 1 1 0
node 8 1 1 1 0
node 9 1 1 1 0
node 10 1 1 1 0
node 11 1 1 1 0
node 12 1 1 1 0
node 13 1 1 1 0
node 14 1 1 1 0
node 15 1 1 1 0
node 16 1 1 1 0
node 17 1 1 1 0
node 18 1 1 1 0
node 19 1 1 3 0
node 20 1 0 2 0
node 21 1 0 2 0
node 22 1 0 2 0
node 23 1 0 2 0
node 78 1 0 0 0
node 86 1 0 0 0
node 91 1 0 0 0
node 98 1 0 0 0
node 104 1 0 0 0
node 105 1 0 0 0
node 120 1 0 0 0
node 136 1 0 0 0
node 144 1 0 0 0
node 174 1 0 0 0
node 180 1 0 0 0
node 183 1 0 0 0
node 194 1 0 0 0
node 195 1 0 0 0
node 196 1 0 0 0
node 197 1 0 0 0
node 199 1 0 0 0
node 229 1 0 0 0
node 271 1 0 0 0
node 303 1 0 0 0
gene 1 1 20 -1.09286 0 1 -1.09286 1
gene 1 2 20 -1.00305 0 2 -1.00305 1
gene 1 3 20 -0.153876 0 3 -0.153876 1
gene 1 4 20 1.29207 0 4 1.29207 1
gene 1 5 20 0.537167 0 5 0.537167 1
gene 1 6 20 -0.0456291 0 6 -0.0456291 1
gene 1 7 20 0.526897 0 7 0.526897 1
gene 1 8 20 1.04209 0 8 1.04209 1
gene 1 9 20 -0.22026 0 9 -0.22026 1
gene 1 10 20 -0.444455 0 10 -0.444455 1
gene 1 11 20 -0.797159 0 11 -0.797159 0
gene 1 12 20 -0.368899 0 12 -0.368899 1
gene 1 13 20 0.43312 0 13 0.43312 1
gene 1 14 20 0.46361 0 14 0.46361 1
gene 1 15 20 -0.192665 0 15 -0.192665 1
gene 1 16 20 0.824281 0 16 0.824281 1
gene 1 17 20 0.622758 0 17 0.622758 1
gene 1 18 20 0.393523 0 18 0.393523 1
gene 1 19 20 -0.397225 0 19 -0.397225 1
gene 1 1 21 -0.335006 0 20 -0.335006 1
gene 1 2 21 0.798408 0 21 0.798408 1
gene 1 3 21 0.586098 0 22 0.586098 0
gene 1 4 21 0.502802 0 23 0.502802 1
gene 1 5 21 0.524354 0 24 0.524354 1
gene 1 6 21 -0.622629 0 25 -0.622629 1
gene 1 7 21 0.36182 0 26 0.36182 1
gene 1 8 21 -0.950972 0 27 -0.950972 1
gene 1 9 21 -0.0918798 0 28 -0.0918798 1
gene 1 10 21 -0.680407 0 29 -0.680407 0
gene 1 11 21 0.517033 0 30 0.517033 1
gene 1 12 21 0.225726 0 31 0.225726 1
gene 1 13 21 -1.09151 0 32 -1.09151 1
gene 1 14 21 0.524122 0 33 0.524122 1
gene 1 15 21 -0.168814 0 34 -0.168814 1
gene 1 16 21 -0.110493 0 35 -0.110493 0
gene 1 17 21 0.354297 0 36 0.354297 1
gene 1 18 21 0.0575744 0 37 0.0575744 1
gene 1 19 21 -1.67879 0 38 -1.67879 1
gene 1 1 22 -0.707258 0 39 -0.707258 1
gene 1 2 22 0.138895 0 40 0.138895 1
gene 1 3 22 -0.117956 0 41 -0.117956 1
gene 1 4 22 -0.030176 0 42 -0.030176 1
gene 1 5 22 0.177604 0 43 0.177604 1
gene 1 6 22 -0.554462 0 44 -0.554462 1
gene 1 7 22 -0.110755 0 45 -0.110755 1
gene 1 8 22 -0.425361 0 46 -0.425361 1
gene 1 9 22 -0.902828 0 47 -0.902828 1
gene 1 10 22 0.3566 0 48 0.3566 1
gene 1 11 22 0.252788 0 49 0.252788 1
gene 1 12 22 0.45232 0 50 0.45232 1
gene 1 13 22 -0.461798 0 51 -0.461798 1
gene 1 14 22 0.0485446 0 52 0.0485446 1
gene 1 15 22 -0.0181199 0 53 -0.0181199 1
gene 1 16 22 -0.83435 0 54 -0.83435 1
gene 1 17 22 0.665355 0 55 0.665355 1
gene 1 18 22 0.214352 0 56 0.214352 1
gene 1 19 22 1.39068 0 57 1.39068 1
gene 1 1 23 0.567325 0 58 0.567325 1
gene 1 2 23 0.247293 0 59 0.247293 1
gene 1 3 23 -0.61466 0 60 -0.61466 1
gene 1 4 23 -0.316704 0 61 -0.316704 1
gene 1 5 23 -0.147321 0 62 -0.147321 1
gene 1 6 23 0.218765 0 63 0.218765 0
gene 1 7 23 0.0391883 0 64 0.0391883 1
gene 1 8 23 -0.131102 0 65 -0.131102 1
gene 1 9 23 0.27428 0 66 0.27428 1
gene 1 10 23 0.191964 0 67 0.191964 1
gene 1 11 23 -2.14772 0 68 -2.14772 1
gene 1 12 23 -0.332286 0 69 -0.332286 0
gene 1 13 23 -0.484587 0 70 -0.484587 1
gene 1 14 23 -1.08179 0 71 -1.08179 1
gene 1 15 23 0.636011 0 72 0.636011 0
gene 1 16 23 -0.399718 0 73 -0.399718 1
gene 1 17 23 -0.299454 0 74 -0.299454 1
gene 1 18 23 -0.112676 0 75 -0.112676 0
gene 1 19 23 0.330406 0 76 0.330406 1
gene 1 20 20 -0.0967989 1 79 -0.0967989 1
gene 1 23 20 -0.775031 0 80 -0.775031 1
gene 1 21 23 0.807929 0 109 0.807929 1
gene 1 20 22 0.218355 0 141 0.218355 1
gene 1 3 78 -0.0210685 0 287 -0.0210685 1
gene 1 78 20 -0.39585 0 288 -0.39585 1
gene 1 18 86 0.0615981 0 317 0.0615981 1
gene 1 86 23 -0.253621 0 318 -0.253621 1
gene 1 11 91 -0.2139 0 332 -0.2139 1
gene 1 91 20 -0.706826 0 333 -0.706826 1
gene 1 7 98 -0.371945 0 360 -0.371945 1
gene 1 98 22 0.949505 0 361 0.949505 1
gene 1 6 104 0.18081 0 387 0.18081 1
gene 1 104 23 -0.0467254 0 388 -0.0467254 1
gene 1 12 78 0.275083 0 389 0.275083 1
gene 1 15 105 -0.405422 0 392 -0.405422 1
gene 1 105 23 -0.143858 0 393 -0.143858 1
gene 1 17 78 -0.412868 0 408 -0.412868 1
gene 1 18 98 -0.471119 0 434 -0.471119 1
gene 1 20 120 0.162855 1 469 0.162855 1
gene 1 120 20 0.00270652 0 470 0.00270652 1
gene 1 4 91 -0.220858 0 473 -0.220858 1
gene 1 91 22 -0.187939 0 527 -0.187939 1
gene 1 78 78 -1.08929 1 534 -1.08929 1
gene 1 14 78 0.0539752 0 544 0.0539752 1
gene 1 8 91 0.352909 0 548 0.352909 1
gene 1 15 136 0.0465704 0 568 0.0465704 1
gene 1 136 22 0.108315 0 569 0.108315 1
gene 1 21 120 -0.132512 0 574 -0.132512 1
gene 1 16 144 -1.37261 0 607 -1.37261 0
gene 1 144 21 0.00704685 0 608 0.00704685 1
gene 1 136 86 -0.486701 0 723 -0.486701 1
gene 1 91 105 -0.168345 0 739 -0.168345 1
gene 1 16 174 -0.14625 0 824 -0.14625 1
gene 1 174 144 0.405932 0 825 0.405932 1
gene 1 136 105 -0.700662 0 840 -0.700662 1
gene 1 3 180 0.210945 0 842 0.210945 1
gene 1 180 21 -0.0218283 0 843 -0.0218283 1
gene 1 19 144 0.0792892 0 847 0.0792892 1
gene 1 12 183 -0.0830836 0 851 -0.0830836 1
gene 1 183 23 0.794633 0 852 0.794633 1
gene 1 98 180 0.0557975 0 860 0.0557975 1
gene 1 180 105 0.271303 0 865 0.271303 1
gene 1 13 86 0.320784 0 883 0.320784 1
gene 1 16 78 0.0925437 0 903 0.0925437 1
gene 1 120 91 0.652787 0 905 0.652787 1
gene 1 3 194 0.464569 0 906 0.464569 1
gene 1 194 78 -0.0230304 0 907 -0.0230304 1
gene 1 13 195 0.153131 0 908 0.153131 1
gene 1 195 22 0.244262 0 909 0.244262 1
gene 1 8 180 0.0550096 0 910 0.0550096 0
gene 1 10 196 0.615315 0 911 0.615315 1
gene 1 196 21 -0.987099 0 912 -0.987099 1
gene 1 21 21 -0.180935 1 913 -0.180935 1
gene 1 12 197 0.00699582 0 914 0.00699582 1
gene 1 197 23 -0.0350766 0 915 -0.0350766 1
gene 1 11 199 0.102844 0 920 0.102844 1
gene 1 199 23 -0.109493 0 921 -0.109493 1
gene 1 19 180 -0.0698011 0 926 -0.0698011 1
gene 1 17 229 1.65958 0 1056 1.65958 1
gene 1 229 78 0.361892 0 1057 0.361892 1
gene 1 8 271 0.415429 0 1239 0.415429 1
gene 1 271 180 -0.454348 0 1240 -0.454348 1
gene 1 3 91 0.0385398 0 1252 0.0385398 1
gene 1 196 194 0.960899 0 1371 0.960899 1
gene 1 4 303 -0.412199 0 1389 -0.412199 1
gene 1 303 23 0.174052 0 1390 0.174052 1
gene 1 120 136 0.265203 0 1540 0.265203 1
gene 1 91 91 0.605995 1 1613 0.605995 1
gene 1 21 199 -0.0469122 0 1653 -0.0469122 1
gene 1 7 105 0.296766 0 1714 0.296766 1
genomeend 455
genomestart 461
trait 1 0.356757 0.0938965 0.575388 0.681473 0.209276 0.104525 0.053407 0.290617 
node 1 1 1 1 0
node 2 1 1 1 0
node 3 1 1 1 0
node 4 1 1 1 0
node 5 1 1 1 0
node 6 1 1 1 0
node 7 1 1 1 0
node 8 1 1 1 0
node 9 1 1 1 0
node 10 1 1 1 0
node 11 1 1 1 0
node 12 1 1 1 0
node 13 1 1 1 0
node 14 1 1 1 0
node 15 1 1 1 0
node 16 1 1 1 0
node 17 1 1 1 0
node 18 1 1 1 0
node 19 1 1 3 0
node 20 1 0 2 0
node 21 1 0 2 0
node 22 1 0 2 0
node 23 1 0 2 0
node 78 1 0 0 0
node 86 1 0 0 0
node 91 1 0 0 0
node 98 1 0 0 0
node 104 1 0 0 0
node 105 1 0 0 0
node 120 1 0 0 0
node 136 1 0 0 0
node 144 1 0 0 0
node 174 1 0 0 0
node 180 1 0 0 0
node 183 1 0 0 0
node 194 1 0 0 0
node 195 1 0 0 0
node 196 1 0 0 0
node 197 1 0 0 0
node 199 1 0 0 0
node 229 1 0 0 0
node 271 1 0 0 0
node 303 1 0 0 0
gene 1 1 20 -0.472855 0 1 -0.472855 1
gene 1 2 20 -1.64632 0 2 -1.64632 1
gene 1 3 20 -0.450299 0 3 -0.450299 1
gene 1 4 20 1.50809 0 4 1.50809 1
gene 1 5 20 0.608838 0 5 0.608838 1
gene 1 6 20 -0.0351476 0 6 -0.0351476 1
gene 1 7 20 0.583234 0 7 0.583234 1
gene 1 8 20 1.1792 0 8 1.1792 1
gene 1 9 20 -0.277694 0 9 -0.277694 1
gene 1 10 20 -0.695276 0 10 -0.695276 1
gene 1 11 20 -0.509508 0 11 -0.509508 0
gene 1 12 20 -0.104079 0 12 -0.104079 1
gene 1 13 20 -0.0258042 0 13 -0.0258042 1
gene 1 14 20 0.593884 0 14 0.593884 1
gene 1 15 20 0.212387 0 15 0.212387 1
gene 1 16 20 1.19026 0 16 1.19026 1
gene 1 17 20 1.20673 0 17 1.20673 1
gene 1 18 20 0.0975457 0 18 0.0975457 1
gene 1 19 20 -1.62997 0 19 -1.62997 1
gene 1 1 21 -1.01122 0 20 -1.01122 1
gene 1 2 21 2.024 0 21 2.024 1
gene 1 3 21 0.68483 0 22 0.68483 0
gene 1 4 21 -0.0124854 0 23 -0.0124854 1
gene 1 5 21 -0.231933 0 24 -0.231933 1
gene 1 6 21 -0.707409 0 25 -0.707409 1
gene 1 7 21 0.363313 0 26 0.363313 1
gene 1 8 21 -0.802319 0 27 -0.802319 1
gene 1 9 21 -0.0406035 0 28 -0.0406035 1
gene 1 10 21 -0.117177 0 29 -0.117177 0
gene 1 11 21 0.229898 0 30 0.229898 1
gene 1 12 21 0.0285986 0 31 0.0285986 1
gene 1 13 21 -1.78145 0 32 -1.78145 1
gene 1 14 21 0.413515 0 33 0.413515 1
gene 1 15 21 0.280721 0 34 0.280721 1
gene 1 16 21 -0.172624 0 35 -0.172624 1
gene 1 17 21 0.159817 0 36 0.159817 1
gene 1 18 21 0.530415 0 37 0.530415 1
gene 1 19 21 -1.76207 0 38 -1.76207 1
gene 1 1 22 -1.90864 0 39 -1.90864 1
gene 1 2 22 0.593717 0 40 0.593717 1
gene 1 3 22 -0.541316 0 41 -0.541316 1
gene 1 4 22 -0.104037 0 42 -0.104037 1
gene 1 5 22 0.610481 0 43 0.610481 1
gene 1 6 22 -1.29831 0 44 -1.29831 1
gene 1 7 22 0.206952 0 45 0.206952 1
gene 1 8 22 -0.844933 0 46 -0.844933 1
gene 1 9 22 -0.955709 0 47 -0.955709 1
gene 1 10 22 0.476594 0 48 0.476594 1
gene 1 11 22 0.647735 0 49 0.647735 1
gene 1 12 22 -0.235518 0 50 -0.235518 1
gene 1 13 22 -1.23916 0 51 -1.23916 1
gene 1 14 22 0.870033 0 52 0.870033 1
gene 1 15 22 0.13892 0 53 0.13892 1
gene 1 16 22 -0.412887 0 54 -0.412887 1
gene 1 17 22 0.651814 0 55 0.651814 1
gene 1 18 22 -0.284659 0 56 -0.284659 1
gene 1 19 22 1.79349 0 57 1.79349 1
gene 1 1 23 0.573949 0 58 0.573949 1
gene 1 2 23 -0.260311 0 59 -0.260311 1
gene 1 3 23 -0.913474 0 60 -0.913474 1
gene 1 4 23 0.147619 0 61 0.147619 1
gene 1 5 23 -0.596297 0 62 -0.596297 1
gene 1 6 23 0.830037 0 63 0.830037 1
gene 1 7 23 0.640559 0 64 0.640559 1
gene 1 8 23 -0.0673655 0 65 -0.0673655 1
gene 1 9 23 0.637995 0 66 0.637995 1
gene 1 10 23 0.332432 0 67 0.332432 1
gene 1 11 23 -1.50418 0 68 -1.50418 1
gene 1 12 23 -0.759612 0 69 -0.759612 1
gene 1 13 23 -0.241902 0 70 -0.241902 1
gene 1 14 23 -0.834754 0 71 -0.834754 1
gene 1 15 23 1.00788 0 72 1.00788 1
gene 1 16 23 -0.411928 0 73 -0.411928 1
gene 1 17 23 0.112987 0 74 0.112987 1
gene 1 18 23 -0.244134 0 75 -0.244134 0
gene 1 19 23 -0.119323 0 76 -0.119323 1
gene 1 20 20 -0.850598 1 79 -0.850598 1
gene 1 23 20 -0.520258 0 80 -0.520258 1
gene 1 21 23 1.24098 0 109 1.24098 1
gene 1 20 22 0.588008 0 141 0.588008 1
gene 1 3 78 0.338676 0 287 0.338676 1
gene 1 78 20 0.0316359 0 288 0.0316359 1
gene 1 18 86 -0.277781 0 317 -0.277781 1
gene 1 86 23 -0.129542 0 318 -0.129542 1
gene 1 11 91 -0.138022 0 332 -0.138022 1
gene 1 91 20 -0.751614 0 333 -0.751614 1
gene 1 7 98 -0.159649 0 360 -0.159649 1
gene 1 98 22 0.929483 0 361 0.929483 1
gene 1 6 104 0.843054 0 387 0.843054 1
gene 1 104 23 0.0425518 0 388 0.0425518 1
gene 1 12 78 -0.355262 0 389 -0.355262 1
gene 1 15 105 -0.338368 0 392 -0.338368 1
gene 1 105 23 -0.378762 0 393 -0.378762 1
gene 1 17 78 -0.120939 0 408 -0.120939 1
gene 1 18 98 -1.08406 0 434 -1.08406 1
gene 1 20 120 0.593468 1 469 0.593468 1
gene 1 120 20 0.0835328 0 470 0.0835328 1
gene 1 4 91 -0.846428 0 473 -0.846428 1
gene 1 91 22 0.0720437 0 527 0.0720437 1
gene 1 78 78 -0.976776 1 534 -0.976776 1
gene 1 14 78 -0.541528 0 544 -0.541528 1
gene 1 8 91 0.855815 0 548 0.855815 1
gene 1 15 136 -1.38547 0 568 -1.38547 1
gene 1 136 22 0.135154 0 569 0.135154 1
gene 1 21 120 0.615212 0 574 0.615212 1
gene 1 16 144 -2.28852 0 607 -2.28852 0
gene 1 144 21 -0.084064 0 608 -0.084064 1
gene 1 136 86 -0.743271 0 723 -0.743271 1
gene 1 91 105 0.060947 0 739 0.060947 1
gene 1 16 174 -0.400209 0 824 -0.400209 1
gene 1 174 144 0.119934 0 825 0.119934 1
gene 1 136 105 -0.712186 0 840 -0.712186 1
gene 1 3 180 -0.222543 0 842 -0.222543 1
gene 1 180 21 -0.0266458 0 843 -0.0266458 1
gene 1 19 144 -0.17683 0 847 -0.17683 1
gene 1 12 183 -0.0280615 0 851 -0.0280615 1
gene 1 183 23 0.302803 0 852 0.302803 1
gene 1 98 180 -0.10857 0 860 -0.10857 1
gene 1 180 105 -0.251377 0 865 -0.251377 1
gene 1 13 86 0.00964392 0 883 0.00964392 1
gene 1 16 78 0.291933 0 903 0.291933 1
gene 1 120 91 0.226358 0 905 0.226358 1
gene 1 3 194 0.610425 0 906 0.610425 1
gene 1 194 78 0.173331 0 907 0.173331 1
gene 1 13 195 -0.264437 0 908 -0.264437 1
gene 1 195 22 -0.357046 0 909 -0.357046 1
gene 1 8 180 0.724994 0 910 0.724994 0
gene 1 10 196 0.587611 0 911 0.587611 1
gene 1 196 21 -0.907547 0 912 -0.907547 1
gene 1 21 21 0.159741 1 913 0.159741 1
gene 1 12 197 -0.353136 0 914 -0.353136 1
gene 1 197 23 0.421372 0 915 0.421372 1
gene 1 11 199 0.946813 0 920 0.946813 1
gene 1 199 23 0.76835 0 921 0.76835 1
gene 1 19 180 -0.0625886 0 926 -0.0625886 1
gene 1 17 229 -0.49902 0 1056 -0.49902 1
gene 1 229 78 0.450175 0 1057 0.450175 1
gene 1 8 271 0.553074 0 1239 0.553074 1
gene 1 271 180 0.107928 0 1240 0.107928 1
gene 1 3 91 -0.0586973 0 1252 -0.0586973 1
gene 1 196 194 -0.38668 0 1371 -0.38668 1
gene 1 4 303 0.249849 0 1389 0.249849 1
gene 1 303 23 0.159979 0 1390 0.159979 1
gene 1 120 136 -0.149272 0 1540 -0.149272 1
gene 1 91 91 0.361067 1 1613 0.361067 1
gene 1 21 199 -0.155632 0 1653 -0.155632 1
gene 1 7 105 0.333541 0 1714 0.333541 1
genomeend 461
genomestart 462
trait 1 0.667563 0.349284 0.945292 0.484558 0 0.142967 0.188577 0.425069 
node 1 1 1 1 0
node 2 1 1 1 0
node 3 1 1 1 0
node 4 1 1 1 0
node 5 1 1 1 0
node 6 1 1 1 0
node 7 1 1 1 0
node 8 1 1 1 0
node 9 1 1 1 0
node 10 1 1 1 0
node 11 1 1 1 0
node 12 1 1 1 0
node 13 1 1 1 0
node 14 1 1 1 0
node 15 1 1 1 0
node 16 1 1 1 0
node 17 1 1 1 0
node 18 1 1 1 0
node 19 1 1 3 0
node 20 1 0 2 0
node 21 1 0 2 0
node 22 1 0 2 0
node 23 1 0 2 0
node 78 1 0 0 0
node 86 1 0 0 0
node 91 1 0 0 0
node 98 1 0 0 0
node 104 1 0 0 0
node 105 1 0 0 0
node 120 1 0 0 0
node 136 1 0 0 0
node 144 1 0 0 0
node 174 1 0 0 0
node 180 1 0 0 0
node 183 1 0 0 0
node 194 1 0 0 0
node 195 1 0 0 0
node 200 1 0 0 0
node 237 1 0 0 0
node 253 1 0 0 0
gene 1 1 20 -1.26656 0 1 -1.26656 1
gene 1 2 20 -0.318827 0 2 -0.318827 1
gene 1 3 20 -0.529562 0 3 -0.529562 0
gene 1 4 20 -0.01416 0 4 -0.01416 1
gene 1 5 20 0.0563245 0 5 0.0563245 1
gene 1 6 20 -0.204518 0 6 -0.204518 1
gene 1 7 20 -1.28556 0 7 -1.28556 1
gene 1 8 20 -2.16071 0 8 -2.16071 1
gene 1 9 20 -0.655891 0 9 -0.655891 1
gene 1 10 20 -0.35964 0 10 -0.35964 1
gene 1 11 20 -0.0677634 0 11 -0.0677634 0
gene 1 12 20 0.374582 0 12 0.374582 1
gene 1 13 20 0.94768 0 13 0.94768 1
gene 1 14 20 -0.207179 0 14 -0.207179 1
gene 1 15 20 -1.01881 0 15 -1.01881 1
gene 1 16 20 1.12599 0 16 1.12599 1
gene 1 17 20 -1.07194 0 17 -1.07194 1
gene 1 18 20 0.134098 0 18 0.134098 1
gene 1 19 20 0.00434072 0 19 0.00434072 1
gene 1 1 21 -0.172464 0 20 -0.172464 0
gene 1 2 21 0.374285 0 21 0.374285 1
gene 1 3 21 0.405651 0 22 0.405651 1
gene 1 4 21 -0.34853 0 23 -0.34853 1
gene 1 5 21 -0.20243 0 24 -0.20243 1
gene 1 6 21 -0.876182 0 25 -0.876182 1
gene 1 7 21 0.450507 0 26 0.450507 1
gene 1 8 21 0.450864 0 27 0.450864 1
gene 1 9 21 -0.659061 0 28 -0.659061 1
gene 1 10 21 -0.0340984 0 29 -0.0340984 1
gene 1 11 21 -1.03896 0 30 -1.03896 1
gene 1 12 21 -0.46523 0 31 -0.46523 1
gene 1 13 21 -0.836656 0 32 -0.836656 1
gene 1 14 21 -0.130134 0 33 -0.130134 1
gene 1 15 21 -0.265404 0 34 -0.265404 1
gene 1 16 21 -2.9408 0 35 -2.9408 1
gene 1 17 21 -0.963775 0 36 -0.963775 1
gene 1 18 21 0.281929 0 37 0.281929 1
gene 1 19 21 0.0150015 0 38 0.0150015 1
gene 1 1 22 1.02813 0 39 1.02813 1
gene 1 2 22 0.728756 0 40 0.728756 1
gene 1 3 22 -0.620744 0 41 -0.620744 1
gene 1 4 22 -0.159879 0 42 -0.159879 0
gene 1 5 22 -0.246045 0 43 -0.246045 1
gene 1 6 22 -0.0514299 0 44 -0.0514299 1
gene 1 7 22 -0.610662 0 45 -0.610662 1
gene 1 8 22 -0.308875 0 46 -0.308875 1
gene 1 9 22 -0.13002 0 47 -0.13002 1
gene 1 10 22 -0.632102 0 48 -0.632102 1
gene 1 11 22 -0.856399 0 49 -0.856399 1
gene 1 12 22 1.90288 0 50 1.90288 1
gene 1 13 22 -2.37464 0 51 -2.37464 0
gene 1 14 22 -0.220443 0 52 -0.220443 1
gene 1 15 22 -0.02605 0 53 -0.02605 1
gene 1 16 22 -0.438404 0 54 -0.438404 1
gene 1 17 22 0.22915 0 55 0.22915 1
gene 1 18 22 1.55376 0 56 1.55376 1
gene 1 19 22 0.0321501 0 57 0.0321501 1
gene 1 1 23 0.331034 0 58 0.331034 1
gene 1 2 23 -2.09275 0 59 -2.09275 1
gene 1 3 23 -1.74628 0 60 -1.74628 1
gene 1 4 23 0.355702 0 61 0.355702 1
gene 1 5 23 2.17092 0 62 2.17092 1
gene 1 6 23 1.35805 0 63 1.35805 1
gene 1 7 23 0.964339 0 64 0.964339 1
gene 1 8 23 -0.122529 0 65 -0.122529 1
gene 1 9 23 -0.0103828 0 66 -0.0103828 1
gene 1 10 23 -0.025502 0 67 -0.025502 1
gene 1 11 23 0.031067 0 68 0.031067 1
gene 1 12 23 -1.20118 0 69 -1.20118 1
gene 1 13 23 0.469303 0 70 0.469303 1
gene 1 14 23 0.40724 0 71 0.40724 1
gene 1 15 23 0.142086 0 72 0.142086 0
gene 1 16 23 0.536344 0 73 0.536344 1
gene 1 17 23 -1.4774 0 74 -1.4774 1
gene 1 18 23 0.708082 0 75 0.708082 1
gene 1 19 23 1.487 0 76 1.487 1
gene 1 20 20 0.704257 1 79 0.704257 1
gene 1 23 20 -1.29132 0 80 -1.29132 1
gene 1 21 23 -0.607153 0 109 -0.607153 1
gene 1 20 22 0.401377 0 141 0.401377 1
gene 1 3 78 0.38412 0 287 0.38412 1
gene 1 78 20 -0.115924 0 288 -0.115924 1
gene 1 18 86 -0.441394 0 317 -0.441394 1
gene 1 86 23 -2.26328 0 318 -2.26328 1
gene 1 11 91 -0.103877 0 332 -0.103877 1
gene 1 91 20 0.219567 0 333 0.219567 1
gene 1 7 98 1.11219 0 360 1.11219 1
gene 1 98 22 0.280068 0 361 0.280068 1
gene 1 6 104 -0.322114 0 387 -0.322114 1
gene 1 104 23 0.2113 0 388 0.2113 1
gene 1 12 78 0.124567 0 389 0.124567 1
gene 1 15 105 -0.362072 0 392 -0.362072 1
gene 1 105 23 -0.245307 0 393 -0.245307 1
gene 1 17 78 -0.160335 0 408 -0.160335 1
gene 1 18 98 -0.0499904 0 434 -0.0499904 1
gene 1 20 120 0.471028 1 469 0.471028 1
gene 1 120 20 -0.194448 0 470 -0.194448 1
gene 1 4 91 0.025731 0 473 0.025731 1
gene 1 91 22 -1.40296 0 527 -1.40296 1
gene 1 78 78 0.907771 1 534 0.907771 1
gene 1 14 78 -0.0887972 0 544 -0.0887972 1
gene 1 8 91 1.10026 0 548 1.10026 1
gene 1 15 136 0.986831 0 568 0.986831 1
gene 1 136 22 0.394004 0 569 0.394004 1
gene 1 21 120 -0.489229 0 574 -0.489229 1
gene 1 16 144 -0.176898 0 607 -0.176898 0
gene 1 144 21 -0.0951507 0 608 -0.0951507 1
gene 1 136 86 -0.0950055 0 723 -0.0950055 1
gene 1 91 105 0.179857 0 739 0.179857 1
gene 1 16 174 0.38439 0 824 0.38439 1
gene 1 174 144 0.929986 0 825 0.929986 1
gene 1 136 105 -1.09005 0 840 -1.09005 1
gene 1 3 180 0.479855 0 842 0.479855 1
gene 1 180 21 -1.07393 0 843 -1.07393 1
gene 1 19 144 0.390524 0 847 0.390524 1
gene 1 12 183 0.0569973 0 851 0.0569973 1
gene 1 183 23 -0.516767 0 852 -0.516767 1
gene 1 98 180 -0.256355 0 860 -0.256355 1
gene 1 180 105 -0.108474 0 865 -0.108474 1
gene 1 13 86 -0.647219 0 883 -0.647219 1
gene 1 16 78 0.139251 0 903 0.139251 1
gene 1 120 91 -0.00558588 0 905 -0.00558588 1
gene 1 3 194 -0.818104 0 906 -0.818104 1
gene 1 194 78 -0.0162975 0 907 -0.0162975 1
gene 1 13 195 0.200252 0 908 0.200252 1
gene 1 195 22 0.481053 0 909 0.481053 1
gene 1 8 180 0.396004 0 910 0.396004 1
gene 1 21 21 -0.111935 1 913 -0.111935 1
gene 1 19 180 -0.515411 0 926 -0.515411 1
gene 1 4 200 0.336947 0 945 0.336947 1
gene 1 200 22 0.554933 0 946 0.554933 1
gene 1 16 237 1.64125 0 1080 1.64125 1
gene 1 237 78 -0.13615 0 1081 -0.13615 1
gene 1 1 253 0.245654 0 1140 0.245654 1
gene 1 253 21 0.0262688 0 1141 0.0262688 1
gene 1 9 183 0.427292 0 1249 0.427292 1
gene 1 105 194 0.0614 0 1301 0.0614 1
genomeend 462
genomestart 463
trait 1 0.667563 0 0.945292 0.848201 0 0.142967 0.188577 0.425069 
node 1 1 1 1 0
node 2 1 1 1 0
node 3 1 1 1 0
node 4 1 1 1 0
node 5 1 1 1 0
node 6 1 1 1 0
node 7 1 1 1 0
node 8 1 1 1 0
node 9 1 1 1 0
node 10 1 1 1 0
node 11 1 1 1 0
node 12 1 1 1 0
node 13 1 1 1 0
node 14 1 1 1 0
node 15 1 1 1 0
node 16 1 1 1 0
node 17 1 1 1 0
node 18 1 1 1 0
node 19 1 1 3 0
node 20 1 0 2 0
node 21 1 0 2 0
node 22 1 0 2 0
node 23 1 0 2 0
node 78 1 0 0 0
node 86 1 0 0 0
node 91 1 0 0 0
node 98 1 0 0 0
node 104 1 0 0 0
node 105 1 0 0 0
node 120 1 0 0 0
node 136 1 0 0 0
node 144 1 0 0 0
node 174 1 0 0 0
node 180 1 0 0 0
node 183 1 0 0 0
node 194 1 0 0 0
node 195 1 0 0 0
node 200 1 0 0 0
node 237 1 0 0 0
node 253 1 0 0 0
gene 1 1 20 -1.26656 0 1 -1.26656 1
gene 1 2 20 -0.318827 0 2 -0.318827 1
gene 1 3 20 -1.22849 0 3 -1.22849 0
gene 1 4 20 -0.407524 0 4 -0.407524 1
gene 1 5 20 -0.50016 0 5 -0.50016 1
gene 1 6 20 -0.204518 0 6 -0.204518 1
gene 1 7 20 -1.01714 0 7 -1.01714 1
gene 1 8 20 -2.16071 0 8 -2.16071 1
gene 1 9 20 -0.26993 0 9 -0.26993 1
gene 1 10 20 -0.35964 0 10 -0.35964 1
gene 1 11 20 -0.0677634 0 11 -0.0677634 0
gene 1 12 20 0.374582 0 12 0.374582 1
gene 1 13 20 0.0911588 0 13 0.0911588 1
gene 1 14 20 -0.207179 0 14 -0.207179 1
gene 1 15 20 -1.01881 0 15 -1.01881 1
gene 1 16 20 1.30759 0 16 1.30759 1
gene 1 17 20 -1.07194 0 17 -1.07194 1
gene 1 18 20 -0.968132 0 18 -0.968132 1
gene 1 19 20 0.00434072 0 19 0.00434072 1
gene 1 1 21 -0.298099 0 20 -0.298099 0
gene 1 2 21 -0.215381 0 21 -0.215381 1
gene 1 3 21 0.0281092 0 22 0.0281092 1
gene 1 4 21 -0.14822 0 23 -0.14822 1
gene 1 5 21 -0.543624 0 24 -0.543624 1
gene 1 6 21 -0.74804 0 25 -0.74804 1
gene 1 7 21 -0.393543 0 26 -0.393543 1
gene 1 8 21 0.450864 0 27 0.450864 1
gene 1 9 21 -0.18576 0 28 -0.18576 1
gene 1 10 21 -0.0340984 0 29 -0.0340984 1
gene 1 11 21 -0.84191 0 30 -0.84191 1
gene 1 12 21 -0.46523 0 31 -0.46523 1
gene 1 13 21 -0.836656 0 32 -0.836656 1
gene 1 14 21 -0.130134 0 33 -0.130134 1
gene 1 15 21 0.308933 0 34 0.308933 1
gene 1 16 21 -2.9408 0 35 -2.9408 1
gene 1 17 21 -0.963775 0 36 -0.963775 1
gene 1 18 21 0.281929 0 37 0.281929 1
gene 1 19 21 0.0150015 0 38 0.0150015 1
gene 1 1 22 0.336595 0 39 0.336595 1
gene 1 2 22 0.728756 0 40 0.728756 1
gene 1 3 22 -0.333879 0 41 -0.333879 1
gene 1 4 22 -0.0606871 0 42 -0.0606871 0
gene 1 5 22 -0.279251 0 43 -0.279251 1
gene 1 6 22 0.424067 0 44 0.424067 1
gene 1 7 22 -0.610662 0 45 -0.610662 1
gene 1 8 22 -0.610974 0 46 -0.610974 1
gene 1 9 22 -0.13002 0 47 -0.13002 1
gene 1 10 22 -0.632102 0 48 -0.632102 1
gene 1 11 22 -0.856399 0 49 -0.856399 1
gene 1 12 22 1.90288 0 50 1.90288 1
gene 1 13 22 -1.7361 0 51 -1.7361 0
gene 1 14 22 -0.220443 0 52 -0.220443 1
gene 1 15 22 -0.02605 0 53 -0.02605 1
gene 1 16 22 -0.438404 0 54 -0.438404 1
gene 1 17 22 0.562547 0 55 0.562547 1
gene 1 18 22 1.55376 0 56 1.55376 1
gene 1 19 22 0.0673664 0 57 0.0673664 1
gene 1 1 23 0.331034 0 58 0.331034 1
gene 1 2 23 -2.09275 0 59 -2.09275 1
gene 1 3 23 -1.74628 0 60 -1.74628 1
gene 1 4 23 0.304438 0 61 0.304438 1
gene 1 5 23 2.17092 0 62 2.17092 1
gene 1 6 23 1.35805 0 63 1.35805 1
gene 1 7 23 1.12973 0 64 1.12973 1
gene 1 8 23 -0.122529 0 65 -0.122529 1
gene 1 9 23 -0.0103828 0 66 -0.0103828 1
gene 1 10 23 -0.025502 0 67 -0.025502 1
gene 1 11 23 -0.599149 0 68 -0.599149 1
gene 1 12 23 -0.995958 0 69 -0.995958 1
gene 1 13 23 -1.03145 0 70 -1.03145 1
gene 1 14 23 0.40724 0 71 0.40724 1
gene 1 15 23 0.142086 0 72 0.142086 0
gene 1 16 23 1.00223 0 73 1.00223 1
gene 1 17 23 -1.4774 0 74 -1.4774 1
gene 1 18 23 0.708082 0 75 0.708082 1
gene 1 19 23 1.487 0 76 1.487 1
gene 1 20 20 -0.204879 1 79 -0.204879 1
gene 1 23 20 -1.49851 0 80 -1.49851 1
gene 1 21 23 -1.0509 0 109 -1.0509 1
gene 1 20 22 0.401377 0 141 0.401377 1
gene 1 3 78 1.03789 0 287 1.03789 1
gene 1 78 20 -0.0451609 0 288 -0.0451609 1
gene 1 18 86 -0.441394 0 317 -0.441394 1
gene 1 86 23 -2.26328 0 318 -2.26328 1
gene 1 11 91 -0.103877 0 332 -0.103877 1
gene 1 91 20 0.219567 0 333 0.219567 1
gene 1 7 98 0.806108 0 360 0.806108 1
gene 1 98 22 1.31871 0 361 1.31871 1
gene 1 6 104 -0.372004 0 387 -0.372004 1
gene 1 104 23 0.2113 0 388 0.2113 1
gene 1 12 78 0.124567 0 389 0.124567 1
gene 1 15 105 -0.362072 0 392 -0.362072 1
gene 1 105 23 -0.511862 0 393 -0.511862 1
gene 1 17 78 -0.160335 0 408 -0.160335 1
gene 1 18 98 -0.0499904 0 434 -0.0499904 1
gene 1 20 120 0.471028 1 469 0.471028 1
gene 1 120 20 -0.194448 0 470 -0.194448 1
gene 1 4 91 -0.28547 0 473 -0.28547 1
gene 1 91 22 -1.40296 0 527 -1.40296 1
gene 1 78 78 0.907771 1 534 0.907771 1
gene 1 14 78 -0.0887972 0 544 -0.0887972 1
gene 1 8 91 1.10026 0 548 1.10026 1
gene 1 15 136 0.887129 0 568 0.887129 1
gene 1 136 22 0.394004 0 569 0.394004 1
gene 1 21 120 -0.489229 0 574 -0.489229 1
gene 1 16 144 -0.176898 0 607 -0.176898 0
gene 1 144 21 -0.0951507 0 608 -0.0951507 1
gene 1 136 86 -0.0950055 0 723 -0.0950055 1
gene 1 91 105 0.179857 0 739 0.179857 1
gene 1 16 174 0.38439 0 824 0.38439 1
gene 1 174 144 0.669971 0 825 0.669971 1
gene 1 136 105 -0.294594 0 840 -0.294594 1
gene 1 3 180 0.0854205 0 842 0.0854205 1
gene 1 180 21 -1.07393 0 843 -1.07393 1
gene 1 19 144 -0.00945571 0 847 -0.00945571 1
gene 1 12 183 0.539644 0 851 0.539644 1
gene 1 183 23 -0.516767 0 852 -0.516767 1
gene 1 98 180 -0.256355 0 860 -0.256355 1
gene 1 180 105 -0.108474 0 865 -0.108474 1
gene 1 13 86 -0.647219 0 883 -0.647219 1
gene 1 16 78 0.139251 0 903 0.139251 1
gene 1 120 91 -0.0976307 0 905 -0.0976307 1
gene 1 3 194 0.0344673 0 906 0.0344673 1
gene 1 194 78 -0.0313057 0 907 -0.0313057 1
gene 1 13 195 0.049701 0 908 0.049701 1
gene 1 195 22 0.764355 0 909 0.764355 1
gene 1 8 180 0.396004 0 910 0.396004 1
gene 1 21 21 -0.111935 1 913 -0.111935 1
gene 1 19 180 -0.515411 0 926 -0.515411 1
gene 1 4 200 0.336947 0 945 0.336947 1
gene 1 200 22 0.329711 0 946 0.329711 1
gene 1 16 237 1.64125 0 1080 1.64125 1
gene 1 237 78 -0.13615 0 1081 -0.13615 1
gene 1 1 253 0.245654 0 1140 0.245654 1
gene 1 253 21 -0.402787 0 1141 -0.402787 1
gene 1 9 183 -0.177065 0 1249 -0.177065 1
gene 1 105 194 0.398978 0 1301 0.398978 1
genomeend 463
genomestart 465
trait 1 1 0.349284 0.945292 0.484558 0 0.142967 0.188577 1 
node 1 1 1 1 0
node 2 1 1 1 0
node 3 1 1 1 0
node 4 1 1 1 0
node 5 1 1 1 0
node 6 1 1 1 0
node 7 1 1 1 0
node 8 1 1 1 0
node 9 1 1 1 0
node 10 1 1 1 0
node 11 1 1 1 0
node 12 1 1 1 0
node 13 1 1 1 0
node 14 1 1 1 0
node 15 1 1 1 0
node 16 1 1 1 0
node 17 1 1 1 0
node 18 1 1 1 0
node 19 1 1 3 0
node 20 1 0 2 0
node 21 1 0 2 0
node 22 1 0 2 0
node 23 1 0 2 0
node 78 1 0 0 0
node 86 1 0 0 0
node 91 1 0 0 0
node 98 1 0 0 0
node 104 1 0 0 0
node 105 1 0 0 0
node 120 1 0 0 0
node 136 1 0 0 0
node 144 1 0 0 0
node 174 1 0 0 0
node 180 1 0 0 0
node 183 1 0 0 0
node 194 1 0 0 0
node 195 1 0 0 0
node 200 1 0 0 0
node 237 1 0 0 0
node 253 1 0 0 0
gene 1 1 20 -1.18671 0 1 -1.18671 1
gene 1 2 20 -0.387194 0 2 -0.387194 1
gene 1 3 20 0.787458 0 3 0.787458 0
gene 1 4 20 0.435061 0 4 0.435061 1
gene 1 5 20 -0.258987 0 5 -0.258987 1
gene 1 6 20 -0.976918 0 6 -0.976918 1
gene 1 7 20 0.0691837 0 7 0.0691837 1
gene 1 8 20 0.685069 0 8 0.685069 1
gene 1 9 20 0.474122 0 9 0.474122 1
gene 1 10 20 0.617401 0 10 0.617401 1
gene 1 11 20 -0.0302211 0 11 -0.0302211 0
gene 1 12 20 -0.601556 0 12 -0.601556 1
gene 1 13 20 0.265459 0 13 0.265459 1
gene 1 14 20 -0.0730514 0 14 -0.0730514 1
gene 1 15 20 0.633465 0 15 0.633465 1
gene 1 16 20 -0.114774 0 16 -0.114774 1
gene 1 17 20 -0.704063 0 17 -0.704063 1
gene 1 18 20 0.300541 0 18 0.300541 1
gene 1 19 20 -0.746206 0 19 -0.746206 1
gene 1 1 21 0.457976 0 20 0.457976 0
gene 1 2 21 0.0256352 0 21 0.0256352 1
gene 1 3 21 -0.555501 0 22 -0.555501 1
gene 1 4 21 -0.326836 0 23 -0.326836 1
gene 1 5 21 -0.97554 0 24 -0.97554 1
gene 1 6 21 -0.326703 0 25 -0.326703 1
gene 1 7 21 -0.138338 0 26 -0.138338 1
gene 1 8 21 -0.44183 0 27 -0.44183 1
gene 1 9 21 0.431295 0 28 0.431295 1
gene 1 10 21 -0.230611 0 29 -0.230611 1
gene 1 11 21 -1.73521 0 30 -1.73521 1
gene 1 12 21 -0.609673 0 31 -0.609673 1
gene 1 13 21 -0.287231 0 32 -0.287231 1
gene 1 14 21 -0.653022 0 33 -0.653022 1
gene 1 15 21 0.3068 0 34 0.3068 1
gene 1 16 21 -2.17794 0 35 -2.17794 1
gene 1 17 21 -0.860894 0 36 -0.860894 1
gene 1 18 21 0.364464 0 37 0.364464 1
gene 1 19 21 -0.273948 0 38 -0.273948 1
gene 1 1 22 -0.969863 0 39 -0.969863 1
gene 1 2 22 -0.52932 0 40 -0.52932 1
gene 1 3 22 -0.86397 0 41 -0.86397 1
gene 1 4 22 -0.754513 0 42 -0.754513 0
gene 1 5 22 0.0029308 0 43 0.0029308 1
gene 1 6 22 0.261176 0 44 0.261176 1
gene 1 7 22 0.175136 0 45 0.175136 1
gene 1 8 22 -0.452769 0 46 -0.452769 1
gene 1 9 22 0.176259 0 47 0.176259 1
gene 1 10 22 -0.542151 0 48 -0.542151 1
gene 1 11 22 0.100884 0 49 0.100884 1
gene 1 12 22 1.08487 0 50 1.08487 1
gene 1 13 22 -1.04602 0 51 -1.04602 0
gene 1 14 22 1.09363 0 52 1.09363 1
gene 1 15 22 -1.31334 0 53 -1.31334 1
gene 1 16 22 -0.44479 0 54 -0.44479 1
gene 1 17 22 0.456396 0 55 0.456396 1
gene 1 18 22 0.372971 0 56 0.372971 1
gene 1 19 22 0.16027 0 57 0.16027 1
gene 1 1 23 0.207779 0 58 0.207779 1
gene 1 2 23 -1.185 0 59 -1.185 1
gene 1 3 23 -1.29711 0 60 -1.29711 1
gene 1 4 23 0.362093 0 61 0.362093 1
gene 1 5 23 0.526725 0 62 0.526725 1
gene 1 6 23 1.3052 0 63 1.3052 1
gene 1 7 23 1.70298 0 64 1.70298 1
gene 1 8 23 -0.0569855 0 65 -0.0569855 1
gene 1 9 23 -0.344171 0 66 -0.344171 1
gene 1 10 23 -0.992925 0 67 -0.992925 1
gene 1 11 23 -0.533686 0 68 -0.533686 1
gene 1 12 23 -0.273987 0 69 -0.273987 1
gene 1 13 23 -0.103549 0 70 -0.103549 1
gene 1 14 23 0.420878 0 71 0.420878 1
gene 1 15 23 -0.76099 0 72 -0.76099 0
gene 1 16 23 1.03736 0 73 1.03736 1
gene 1 17 23 -1.02527 0 74 -1.02527 1
gene 1 18 23 0.423331 0 75 0.423331 0
gene 1 19 23 0.901915 0 76 0.901915 1
gene 1 20 20 0.439468 1 79 0.439468 1
gene 1 23 20 -1.36776 0 80 -1.36776 1
gene 1 21 23 -1.74075 0 109 -1.74075 1
gene 1 20 22 0.766434 0 141 0.766434 1
gene 1 3 78 0.82008 0 287 0.82008 0
gene 1 78 20 -0.00229106 0 288 -0.00229106 1
gene 1 18 86 2.64894 0 317 2.64894 1
gene 1 86 23 0.737596 0 318 0.737596 1
gene 1 11 91 0.735717 0 332 0.735717 1
gene 1 91 20 0.544854 0 333 0.544854 1
gene 1 7 98 -0.304383 0 360 -0.304383 1
gene 1 98 22 0.38479 0 361 0.38479 1
gene 1 6 104 -0.266418 0 387 -0.266418 1
gene 1 104 23 0.309852 0 388 0.309852 1
gene 1 12 78 -0.414252 0 389 -0.414252 1
gene 1 15 105 0.28654 0 392 0.28654 1
gene 1 105 23 -0.754715 0 393 -0.754715 1
gene 1 17 78 -0.0314042 0 408 -0.0314042 1
gene 1 18 98 -0.677631 0 434 -0.677631 1
gene 1 20 120 0.0421896 1 469 0.0421896 1
gene 1 120 20 0.52465 0 470 0.52465 1
gene 1 4 91 -0.322941 0 473 -0.322941 1
gene 1 91 22 0.492387 0 527 0.492387 1
gene 1 78 78 1.87522 1 534 1.87522 1
gene 1 14 78 0.205843 0 544 0.205843 1
gene 1 8 91 -0.36032 0 548 -0.36032 1
gene 1 15 136 0.191703 0 568 0.191703 1
gene 1 136 22 -1.77286 0 569 -1.77286 1
gene 1 21 120 0.271852 0 574 0.271852 1
gene 1 16 144 -0.0209598 0 607 -0.0209598 0
gene 1 144 21 0.334346 0 608 0.334346 1
gene 1 136 86 -0.0232959 0 723 -0.0232959 1
gene 1 91 105 0.0018025 0 739 0.0018025 1
gene 1 16 174 0.532641 0 824 0.532641 1
gene 1 174 144 0.888663 0 825 0.888663 1
gene 1 136 105 1.87386 0 840 1.87386 1
gene 1 3 180 -0.44914 0 842 -0.44914 1
gene 1 180 21 -1.10187 0 843 -1.10187 1
gene 1 19 144 -0.210771 0 847 -0.210771 1
gene 1 12 183 0.194201 0 851 0.194201 1
gene 1 183 23 0.536594 0 852 0.536594 1
gene 1 98 180 -0.0442164 0 860 -0.0442164 1
gene 1 180 105 -0.272669 0 865 -0.272669 1
gene 1 13 86 -1.50494 0 883 -1.50494 1
gene 1 16 78 -0.771167 0 903 -0.771167 1
gene 1 120 91 -0.163146 0 905 -0.163146 1
gene 1 3 194 -0.855962 0 906 -0.855962 1
gene 1 194 78 0.0257312 0 907 0.0257312 1
gene 1 13 195 -0.181093 0 908 -0.181093 1
gene 1 195 22 -0.373029 0 909 -0.373029 1
gene 1 8 180 0.770022 0 910 0.770022 1
gene 1 21 21 -0.490188 1 913 -0.490188 1
gene 1 19 180 -0.690183 0 926 -0.690183 1
gene 1 4 200 0.0192696 0 945 0.0192696 1
gene 1 200 22 -0.2724 0 946 -0.2724 1
gene 1 16 237 2.1208 0 1080 2.1208 1
gene 1 237 78 0.261063 0 1081 0.261063 1
gene 1 1 253 0.0824531 0 1140 0.0824531 1
gene 1 253 21 -0.0362529 0 1141 -0.0362529 1
gene 1 9 183 1.60913 0 1249 1.60913 1
gene 1 105 194 0.122285 0 1301 0.122285 1
genomeend 465
genomestart 471
trait 1 0.667563 0.349284 0.945292 0.484558 0 0.142967 0.188577 0.425069 
node 1 1 1 1 0
node 2 1 1 1 0
node 3 1 1 1 0
node 4 1 1 1 0
node 5 1 1 1 0
node 6 1 1 1 0
node 7 1 1 1 0
node 8 1 1 1 0
node 9 1 1 1 0
node 10 1 1 1 0
node 11 1 1 1 0
node 12 1 1 1 0
node 13 1 1 1 0
node 14 1 1 1 0
node 15 1 1 1 0
node 16 1 1 1 0
node 17 1 1 1 0
node 18 1 1 1 0
node 19 1 1 3 0
node 20 1 0 2 0
node 21 1 0 2 0
node 22 1 0 2 0
node 23 1 0 2 0
node 78 1 0 0 0
node 86 1 0 0 0
node 91 1 0 0 0
node 98 1 0 0 0
node 104 1 0 0 0
node 105 1 0 0 0
node 120 1 0 0 0
node 136 1 0 0 0
node 144 1 0 0 0
node 174 1 0 0 0
node 180 1 0 0 0
node 183 1 0 0 0
node 194 1 0 0 0
node 195 1 0 0 0
node 200 1 0 0 0
node 237 1 0 0 0
node 253 1 0 0 0
gene 1 1 20 -0.751856 0 1 -0.751856 1
gene 1 2 20 -0.672212 0 2 -0.672212 1
gene 1 3 20 -0.527952 0 3 -0.527952 0
gene 1 4 20 -0.088242 0 4 -0.088242 1
gene 1 5 20 -0.0515535 0 5 -0.0515535 1
gene 1 6 20 -1.14753 0 6 -1.14753 1
gene 1 7 20 -1.34996 0 7 -1.34996 1
gene 1 8 20 -1.65342 0 8 -1.65342 1
gene 1 9 20 -0.201924 0 9 -0.201924 1
gene 1 10 20 1.08384 0 10 1.08384 1
gene 1 11 20 0.176753 0 11 0.176753 0
gene 1 12 20 -0.355644 0 12 -0.355644 1
gene 1 13 20 0.712667 0 13 0.712667 1
gene 1 14 20 -0.90607 0 14 -0.90607 1
gene 1 15 20 -0.679687 0 15 -0.679687 1
gene 1 16 20 1.81537 0 16 1.81537 1
gene 1 17 20 -1.33408 0 17 -1.33408 1
gene 1 18 20 0.129611 0 18 0.129611 1
gene 1 19 20 0.290365 0 19 0.290365 1
gene 1 1 21 -0.00065266 0 20 -0.00065266 0
gene 1 2 21 0.48768 0 21 0.48768 1
gene 1 3 21 0.397532 0 22 0.397532 1
gene 1 4 21 -0.640836 0 23 -0.640836 1
gene 1 5 21 -0.391814 0 24 -0.391814 1
gene 1 6 21 -0.657123 0 25 -0.657123 1
gene 1 7 21 0.228287 0 26 0.228287 1
gene 1 8 21 -0.216598 0 27 -0.216598 1
gene 1 9 21 0.730564 0 28 0.730564 1
gene 1 10 21 -0.756549 0 29 -0.756549 1
gene 1 11 21 -1.50763 0 30 -1.50763 1
gene 1 12 21 -0.458345 0 31 -0.458345 1
gene 1 13 21 0.0888216 0 32 0.0888216 1
gene 1 14 21 0.0103499 0 33 0.0103499 1
gene 1 15 21 0.248316 0 34 0.248316 1
gene 1 16 21 -2.2386 0 35 -2.2386 1
gene 1 17 21 -0.650027 0 36 -0.650027 1
gene 1 18 21 -0.211589 0 37 -0.211589 1
gene 1 19 21 -0.953018 0 38 -0.953018 1
gene 1 1 22 -0.837472 0 39 -0.837472 1
gene 1 2 22 0.0956674 0 40 0.0956674 1
gene 1 3 22 -0.145894 0 41 -0.145894 1
gene 1 4 22 -0.199396 0 42 -0.199396 0
gene 1 5 22 -0.525035 0 43 -0.525035 1
gene 1 6 22 -0.174673 0 44 -0.174673 1
gene 1 7 22 -0.252011 0 45 -0.252011 1
gene 1 8 22 0.206972 0 46 0.206972 1
gene 1 9 22 0.204343 0 47 0.204343 1
gene 1 10 22 0.121759 0 48 0.121759 1
gene 1 11 22 0.0857099 0 49 0.0857099 1
gene 1 12 22 0.866468 0 50 0.866468 1
gene 1 13 22 -1.81828 0 51 -1.81828 0
gene 1 14 22 0.473552 0 52 0.473552 1
gene 1 15 22 -1.23095 0 53 -1.23095 1
gene 1 16 22 -0.327395 0 54 -0.327395 1
gene 1 17 22 0.88844 0 55 0.88844 1
gene 1 18 22 1.17227 0 56 1.17227 1
gene 1 19 22 0.195067 0 57 0.195067 1
gene 1 1 23 -0.213461 0 58 -0.213461 1
gene 1 2 23 -1.74543 0 59 -1.74543 1
gene 1 3 23 -1.99949 0 60 -1.99949 1
gene 1 4 23 0.941417 0 61 0.941417 1
gene 1 5 23 1.43803 0 62 1.43803 1
gene 1 6 23 0.877852 0 63 0.877852 1
gene 1 7 23 0.602835 0 64 0.602835 1
gene 1 8 23 -0.141258 0 65 -0.141258 1
gene 1 9 23 -0.0615742 0 66 -0.0615742 1
gene 1 10 23 -0.696838 0 67 -0.696838 1
gene 1 11 23 -0.650326 0 68 -0.650326 1
gene 1 12 23 -0.924962 0 69 -0.924962 1
gene 1 13 23 -1.10698 0 70 -1.10698 1
gene 1 14 23 0.151472 0 71 0.151472 1
gene 1 15 23 -0.52302 0 72 -0.52302 0
gene 1 16 23 1.44026 0 73 1.44026 1
gene 1 17 23 -0.588717 0 74 -0.588717 1
gene 1 18 23 0.134942 0 75 0.134942 0
gene 1 19 23 1.66708 0 76 1.66708 1
gene 1 20 20 0.643748 1 79 0.643748 1
gene 1 23 20 -0.520983 0 80 -0.520983 1
gene 1 21 23 -1.22864 0 109 -1.22864 1
gene 1 20 22 1.13278 0 141 1.13278 1
gene 1 3 78 0.655922 0 287 0.655922 1
gene 1 78 20 0.538421 0 288 0.538421 1
gene 1 18 86 2.44979 0 317 2.44979 1
gene 1 86 23 -2.5645 0 318 -2.5645 1
gene 1 11 91 -0.27672 0 332 -0.27672 1
gene 1 91 20 0.441625 0 333 0.441625 1
gene 1 7 98 1.02103 0 360 1.02103 1
gene 1 98 22 0.894473 0 361 0.894473 1
gene 1 6 104 -0.8441 0 387 -0.8441 1
gene 1 104 23 0.554533 0 388 0.554533 1
gene 1 12 78 0.525863 0 389 0.525863 1
gene 1 15 105 0.0510287 0 392 0.0510287 1
gene 1 105 23 -0.671863 0 393 -0.671863 1
gene 1 17 78 -0.454535 0 408 -0.454535 1
gene 1 18 98 0.838001 0 434 0.838001 1
gene 1 20 120 0.539931 1 469 0.539931 1
gene 1 120 20 -1.04167 0 470 -1.04167 1
gene 1 4 91 -0.457753 0 473 -0.457753 1
gene 1 91 22 -0.0833492 0 527 -0.0833492 1
gene 1 78 78 1.21523 1 534 1.21523 1
gene 1 14 78 0.399544 0 544 0.399544 1
gene 1 8 91 0.949152 0 548 0.949152 1
gene 1 15 136 0.971923 0 568 0.971923 1
gene 1 136 22 -1.55201 0 569 -1.55201 1
gene 1 21 120 0.195428 0 574 0.195428 1
gene 1 16 144 -0.0863089 0 607 -0.0863089 0
gene 1 144 21 -0.170587 0 608 -0.170587 1
gene 1 136 86 0.486699 0 723 0.486699 1
gene 1 91 105 -0.352779 0 739 -0.352779 1
gene 1 16 174 0.12609 0 824 0.12609 1
gene 1 174 144 0.855098 0 825 0.855098 1
gene 1 136 105 0.13477 0 840 0.13477 1
gene 1 3 180 -0.405893 0 842 -0.405893 1
gene 1 180 21 -0.9646 0 843 -0.9646 1
gene 1 19 144 0.221053 0 847 0.221053 1
gene 1 12 183 0.148716 0 851 0.148716 1
gene 1 183 23 0.273542 0 852 0.273542 1
gene 1 98 180 0.171513 0 860 0.171513 1
gene 1 180 105 -0.274642 0 865 -0.274642 1
gene 1 13 86 -0.19059 0 883 -0.19059 1
gene 1 16 78 -0.308861 0 903 -0.308861 1
gene 1 120 91 -0.0976307 0 905 -0.0976307 1
gene 1 3 194 -0.818104 0 906 -0.818104 1
gene 1 194 78 0.131158 0 907 0.131158 1
gene 1 13 195 0.0454504 0 908 0.0454504 1
gene 1 195 22 0.740527 0 909 0.740527 1
gene 1 8 180 0.418477 0 910 0.418477 1
gene 1 21 21 -0.00360392 1 913 -0.00360392 1
gene 1 19 180 -0.346069 0 926 -0.346069 1
gene 1 4 200 -0.177786 0 945 -0.177786 1
gene 1 200 22 0.329711 0 946 0.329711 1
gene 1 16 237 1.41837 0 1080 1.41837 1
gene 1 237 78 0.286677 0 1081 0.286677 1
gene 1 1 253 0.148224 0 1140 0.148224 1
gene 1 253 21 -0.0362529 0 1141 -0.0362529 1
gene 1 9 183 0.434643 0 1249 0.434643 1
gene 1 105 194 -0.952391 0 1301 -0.952391 1
genomeend 471
genomestart 473
trait 1 0.528302 0.794732 0.0341744 0.0293109 0.0867085 0.545444 0.0738483 0.495278 
node 1 1 1 1 0
node 2 1 1 1 0
node 3 1 1 1 0
node 4 1 1 1 0
node 5 1 1 1 0
node 6 1 1 1 0
node 7 1 1 1 0
node 8 1 1 1 0
node 9 1 1 1 0
node 10 1 1 1 0
node 11 1 1 1 0
node 12 1 1 1 0
node 13 1 1 1 0
node 14 1 1 1 0
node 15 1 1 1 0
node 16 1 1 1 0
node 17 1 1 1 0
node 18 1 1 1 0
node 19 1 1 3 0
node 20 1 0 2 0
node 21 1 0 2 0
node 22 1 0 2 0
node 23 1 0 2 0
node 78 1 0 0 0
node 86 1 0 0 0
node 91 1 0 0 0
node 98 1 0 0 0
node 104 1 0 0 0
node 105 1 0 0 0
node 120 1 0 0 0
node 136 1 0 0 0
node 144 1 0 0 0
node 174 1 0 0 0
node 180 1 0 0 0
node 183 1 0 0 0
node 194 1 0 0 0
node 196 1 0 0 0
node 197 1 0 0 0
node 199 1 0 0 0
node 270 1 0 0 0
node 324 1 0 0 0
gene 1 1 20 0.692607 0 1 0.692607 1
gene 1 2 20 -0.173388 0 2 -0.173388 1
gene 1 3 20 0.592487 0 3 0.592487 1
gene 1 4 20 -1.32636 0 4 -1.32636 1
gene 1 5 20 -0.384579 0 5 -0.384579 1
gene 1 6 20 -0.786214 0 6 -0.786214 1
gene 1 7 20 0.485481 0 7 0.485481 1
gene 1 8 20 0.404142 0 8 0.404142 1
gene 1 9 20 -0.0216607 0 9 -0.0216607 1
gene 1 10 20 -0.539817 0 10 -0.539817 1
gene 1 11 20 -0.918546 0 11 -0.918546 0
gene 1 12 20 -0.594659 0 12 -0.594659 1
gene 1 13 20 -0.134512 0 13 -0.134512 1
gene 1 14 20 0.590611 0 14 0.590611 1
gene 1 15 20 0.242237 0 15 0.242237 1
gene 1 16 20 -0.556537 0 16 -0.556537 1
gene 1 17 20 0.806015 0 17 0.806015 1
gene 1 18 20 -0.81367 0 18 -0.81367 1
gene 1 19 20 0.250171 0 19 0.250171 1
gene 1 1 21 -0.365471 0 20 -0.365471 1
gene 1 2 21 1.96032 0 21 1.96032 1
gene 1 3 21 0.0992974 0 22 0.0992974 1
gene 1 4 21 -0.726725 0 23 -0.726725 1
gene 1 5 21 0.552089 0 24 0.552089 1
gene 1 6 21 1.04765 0 25 1.04765 1
gene 1 7 21 -0.0465876 0 26 -0.0465876 1
gene 1 8 21 0.11602 0 27 0.11602 1
gene 1 9 21 0.502389 0 28 0.502389 1
gene 1 10 21 0.688567 0 29 0.688567 0
gene 1 11 21 -0.840762 0 30 -0.840762 1
gene 1 12 21 -0.511285 0 31 -0.511285 1
gene 1 13 21 -0.250087 0 32 -0.250087 1
gene 1 14 21 -0.514976 0 33 -0.514976 1
gene 1 15 21 0.656748 0 34 0.656748 1
gene 1 16 21 -0.41057 0 35 -0.41057 1
gene 1 17 21 -1.43867 0 36 -1.43867 1
gene 1 18 21 -1.2414 0 37 -1.2414 1
gene 1 19 21 0.418092 0 38 0.418092 1
gene 1 1 22 -1.35737 0 39 -1.35737 1
gene 1 2 22 0.298723 0 40 0.298723 1
gene 1 3 22 -0.148952 0 41 -0.148952 1
gene 1 4 22 1.18308 0 42 1.18308 1
gene 1 5 22 -0.809355 0 43 -0.809355 1
gene 1 6 22 0.131906 0 44 0.131906 1
gene 1 7 22 -0.544769 0 45 -0.544769 1
gene 1 8 22 -0.492228 0 46 -0.492228 1
gene 1 9 22 -0.132577 0 47 -0.132577 1
gene 1 10 22 -0.545485 0 48 -0.545485 1
gene 1 11 22 0.392812 0 49 0.392812 1
gene 1 12 22 -0.0211522 0 50 -0.0211522 1
gene 1 13 22 -0.105659 0 51 -0.105659 1
gene 1 14 22 0.820031 0 52 0.820031 1
gene 1 15 22 -0.0865586 0 53 -0.0865586 1
gene 1 16 22 0.303093 0 54 0.303093 1
gene 1 17 22 -0.0116453 0 55 -0.0116453 1
gene 1 18 22 0.987378 0 56 0.987378 1
gene 1 19 22 0.748803 0 57 0.748803 1
gene 1 1 23 1.07042 0 58 1.07042 1
gene 1 2 23 -1.02873 0 59 -1.02873 1
gene 1 3 23 0.593419 0 60 0.593419 1
gene 1 4 23 -0.979323 0 61 -0.979323 1
gene 1 5 23 -0.676822 0 62 -0.676822 1
gene 1 6 23 0.104867 0 63 0.104867 1
gene 1 7 23 -0.0732531 0 64 -0.0732531 1
gene 1 8 23 0.808691 0 65 0.808691 1
gene 1 9 23 0.464309 0 66 0.464309 1
gene 1 10 23 0.154504 0 67 0.154504 1
gene 1 11 23 -0.0931093 0 68 -0.0931093 1
gene 1 12 23 1.47876 0 69 1.47876 1
gene 1 13 23 -0.33 0 70 -0.33 1
gene 1 14 23 -0.276974 0 71 -0.276974 1
gene 1 15 23 -0.240735 0 72 -0.240735 0
gene 1 16 23 0.623615 0 73 0.623615 1
gene 1 17 23 -1.30771 0 74 -1.30771 1
gene 1 18 23 -0.388643 0 75 -0.388643 1
gene 1 19 23 2.96095 0 76 2.96095 1
gene 1 20 20 0.195739 1 79 0.195739 1
gene 1 23 20 0.620007 0 80 0.620007 1
gene 1 21 23 -0.0199262 0 109 -0.0199262 1
gene 1 20 22 0.168496 0 141 0.168496 1
gene 1 3 78 -0.0668981 0 287 -0.0668981 1
gene 1 78 20 -0.844283 0 288 -0.844283 1
gene 1 18 86 0.47049 0 317 0.47049 1
gene 1 86 23 -0.303717 0 318 -0.303717 1
gene 1 11 91 -0.235711 0 332 -0.235711 1
gene 1 91 20 -0.654011 0 333 -0.654011 1
gene 1 7 98 0.395387 0 360 0.395387 1
gene 1 98 22 0.163926 0 361 0.163926 1
gene 1 6 104 -0.633863 0 387 -0.633863 1
gene 1 104 23 0.7168 0 388 0.7168 1
gene 1 12 78 -0.995911 0 389 -0.995911 1
gene 1 15 105 -1.48526 0 392 -1.48526 1
gene 1 105 23 0.0778462 0 393 0.0778462 1
gene 1 17 78 -0.376676 0 408 -0.376676 1
gene 1 18 98 0.490423 0 434 0.490423 1
gene 1 20 120 -0.214377 1 469 -0.214377 1
gene 1 120 20 0.125041 0 470 0.125041 1
gene 1 4 91 -0.118268 0 473 -0.118268 1
gene 1 91 22 0.300473 0 527 0.300473 1
gene 1 78 78 0.786527 1 534 0.786527 1
gene 1 14 78 -0.199687 0 544 -0.199687 1
gene 1 8 91 0.200541 0 548 0.200541 1
gene 1 15 136 0.433496 0 568 0.433496 1
gene 1 136 22 1.33304 0 569 1.33304 1
gene 1 21 120 0.370491 0 574 0.370491 1
gene 1 16 144 -1.05129 0 607 -1.05129 1
gene 1 144 21 -0.149346 0 608 -0.149346 1
gene 1 136 86 -1.50967 0 723 -1.50967 1
gene 1 91 105 -0.0882214 0 739 -0.0882214 1
gene 1 16 174 -0.538245 0 824 -0.538245 1
gene 1 174 144 0.465633 0 825 0.465633 1
gene 1 136 105 -0.184637 0 840 -0.184637 1
gene 1 3 180 -0.0293999 0 842 -0.0293999 0
gene 1 180 21 -0.160092 0 843 -0.160092 1
gene 1 19 144 0.1062 0 847 0.1062 1
gene 1 12 183 -0.133528 0 851 -0.133528 1
gene 1 183 23 0.475406 0 852 0.475406 1
gene 1 98 180 -0.0368059 0 860 -0.0368059 1
gene 1 180 105 -0.0285035 0 865 -0.0285035 1
gene 1 13 86 0.00943792 0 883 0.00943792 1
gene 1 120 91 0.523771 0 905 0.523771 1
gene 1 3 194 -0.277658 0 906 -0.277658 1
gene 1 194 78 0.125925 0 907 0.125925 1
gene 1 10 196 0.265582 0 911 0.265582 1
gene 1 196 21 0.185997 0 912 0.185997 1
gene 1 12 197 -0.538284 0 914 -0.538284 1
gene 1 197 23 -0.939857 0 915 -0.939857 1
gene 1 11 199 -0.124327 0 920 -0.124327 1
gene 1 199 23 0.381135 0 921 0.381135 1
gene 1 104 104 0.592162 1 929 0.592162 1
gene 1 8 196 0.303918 0 931 0.303918 1
gene 1 8 136 0.375706 0 936 0.375706 1
gene 1 14 98 0.136689 0 942 0.136689 1
gene 1 120 105 0.932212 0 1186 0.932212 1
gene 1 98 270 0.123672 0 1233 0.123672 1
gene 1 270 22 0.439812 0 1234 0.439812 1
gene 1 12 180 0.108162 0 1472 0.108162 1
gene 1 5 194 0.897242 0 1608 0.897242 1
gene 1 21 21 -0.139899 1 1662 -0.139899 1
gene 1 180 78 -0.252303 0 1673 -0.252303 1
gene 1 199 180 0.613443 0 1699 0.613443 1
gene 1 3 324 1.6221 0 1705 1.6221 1
gene 1 324 180 0.0842897 0 1706 0.0842897 1
genomeend 473
genomestart 474
trait 1 0.916891 0.349284 0.972646 0.484558 0 0.142967 0.319518 0.568802 
node 1 1 1 1 0
node 2 1 1 1 0
node 3 1 1 1 0
node 4 1 1 1 0
node 5 1 1 1 0
node 6 1 1 1 0
node 7 1 1 1 0
node 8 1 1 1 0
node 9 1 1 1 0
node 10 1 1 1 0
node 11 1 1 1 0
node 12 1 1 1 0
node 13 1 1 1 0
node 14 1 1 1 0
node 15 1 1 1 0
node 16 1 1 1 0
node 17 1 1 1 0
node 18 1 1 1 0
node 19 1 1 3 0
node 20 1 0 2 0
node 21 1 0 2 0
node 22 1 0 2 0
node 23 1 0 2 0
node 78 1 0 0 0
node 86 1 0 0 0
node 91 1 0 0 0
node 98 1 0 0 0
node 104 1 0 0 0
node 105 1 0 0 0
node 120 1 0 0 0
node 136 1 0 0 0
node 144 1 0 0 0
node 174 1 0 0 0
node 180 1 0 0 0
node 183 1 0 0 0
node 194 1 0 0 0
node 195 1 0 0 0
node 200 1 0 0 0
node 237 1 0 0 0
node 253 1 0 0 0
node 329 1 0 0 0
gene 1 1 20 -1.19799 0 1 -1.19799 1
gene 1 2 20 -0.807928 0 2 -0.807928 1
gene 1 3 20 -0.545681 0 3 -0.545681 0
gene 1 4 20 -0.141682 0 4 -0.141682 1
gene 1 5 20 -0.021677 0 5 -0.021677 1
gene 1 6 20 -0.361295 0 6 -0.361295 1
gene 1 7 20 -0.000244857 0 7 -0.000244857 1
gene 1 8 20 -1.98816 0 8 -1.98816 1
gene 1 9 20 0.46532 0 9 0.46532 1
gene 1 10 20 0.084396 0 10 0.084396 1
gene 1 11 20 -0.332204 0 11 -0.332204 0
gene 1 12 20 -0.333314 0 12 -0.333314 1
gene 1 13 20 0.343495 0 13 0.343495 1
gene 1 14 20 -0.290439 0 14 -0.290439 1
gene 1 15 20 -0.0645335 0 15 -0.0645335 1
gene 1 16 20 -0.290156 0 16 -0.290156 1
gene 1 17 20 0.199287 0 17 0.199287 1
gene 1 18 20 -0.294654 0 18 -0.294654 1
gene 1 19 20 0.803579 0 19 0.803579 1
gene 1 1 21 0.246921 0 20 0.246921 0
gene 1 2 21 0.83787 0 21 0.83787 1
gene 1 3 21 -0.0770595 0 22 -0.0770595 1
gene 1 4 21 -0.261704 0 23 -0.261704 1
gene 1 5 21 -0.21184 0 24 -0.21184 1
gene 1 6 21 -0.477436 0 25 -0.477436 1
gene 1 7 21 0.414686 0 26 0.414686 1
gene 1 8 21 -0.425724 0 27 -0.425724 1
gene 1 9 21 0.10163 0 28 0.10163 1
gene 1 10 21 -0.410473 0 29 -0.410473 1
gene 1 11 21 -0.692961 0 30 -0.692961 1
gene 1 12 21 -0.516854 0 31 -0.516854 1
gene 1 13 21 -0.465963 0 32 -0.465963 1
gene 1 14 21 -0.650281 0 33 -0.650281 1
gene 1 15 21 0.441471 0 34 0.441471 1
gene 1 16 21 -1.51009 0 35 -1.51009 1
gene 1 17 21 -0.228913 0 36 -0.228913 1
gene 1 18 21 0.405903 0 37 0.405903 1
gene 1 19 21 -0.450018 0 38 -0.450018 1
gene 1 1 22 -0.562093 0 39 -0.562093 1
gene 1 2 22 0.565549 0 40 0.565549 1
gene 1 3 22 -0.601893 0 41 -0.601893 1
gene 1 4 22 -0.805496 0 42 -0.805496 0
gene 1 5 22 0.181973 0 43 0.181973 1
gene 1 6 22 -0.628916 0 44 -0.628916 1
gene 1 7 22 -0.043217 0 45 -0.043217 1
gene 1 8 22 -0.728064 0 46 -0.728064 1
gene 1 9 22 -0.34347 0 47 -0.34347 1
gene 1 10 22 0.284534 0 48 0.284534 1
gene 1 11 22 -0.343883 0 49 -0.343883 1
gene 1 12 22 1.70315 0 50 1.70315 1
gene 1 13 22 -1.00401 0 51 -1.00401 0
gene 1 14 22 -0.3443 0 52 -0.3443 1
gene 1 15 22 0.479399 0 53 0.479399 1
gene 1 16 22 -0.334222 0 54 -0.334222 1
gene 1 17 22 0.518882 0 55 0.518882 1
gene 1 18 22 0.574753 0 56 0.574753 1
gene 1 19 22 0.0834959 0 57 0.0834959 1
gene 1 1 23 0.415064 0 58 0.415064 1
gene 1 2 23 -1.54666 0 59 -1.54666 1
gene 1 3 23 -1.46786 0 60 -1.46786 1
gene 1 4 23 -0.356884 0 61 -0.356884 1
gene 1 5 23 1.25948 0 62 1.25948 1
gene 1 6 23 0.656972 0 63 0.656972 1
gene 1 7 23 1.64363 0 64 1.64363 1
gene 1 8 23 -0.809829 0 65 -0.809829 1
gene 1 9 23 0.164508 0 66 0.164508 1
gene 1 10 23 -0.279743 0 67 -0.279743 1
gene 1 11 23 -1.78812 0 68 -1.78812 1
gene 1 12 23 -0.469014 0 69 -0.469014 1
gene 1 13 23 -0.965689 0 70 -0.965689 1
gene 1 14 23 -0.0509277 0 71 -0.0509277 1
gene 1 15 23 -1.13881 0 72 -1.13881 0
gene 1 16 23 0.955646 0 73 0.955646 1
gene 1 17 23 -1.08996 0 74 -1.08996 1
gene 1 18 23 0.470045 0 75 0.470045 0
gene 1 19 23 1.63636 0 76 1.63636 1
gene 1 20 20 0.262313 1 79 0.262313 1
gene 1 23 20 -0.604452 0 80 -0.604452 1
gene 1 21 23 -1.50888 0 109 -1.50888 1
gene 1 20 22 0.573251 0 141 0.573251 1
gene 1 3 78 0.432979 0 287 0.432979 0
gene 1 78 20 0.0327721 0 288 0.0327721 1
gene 1 18 86 0.900947 0 317 0.900947 1
gene 1 86 23 -0.0316189 0 318 -0.0316189 1
gene 1 11 91 0.297357 0 332 0.297357 1
gene 1 91 20 0.517138 0 333 0.517138 1
gene 1 7 98 -0.335165 0 360 -0.335165 1
gene 1 98 22 0.542967 0 361 0.542967 1
gene 1 6 104 -0.558726 0 387 -0.558726 1
gene 1 104 23 0.0617317 0 388 0.0617317 1
gene 1 12 78 0.618111 0 389 0.618111 1
gene 1 15 105 0.358783 0 392 0.358783 1
gene 1 105 23 -0.735016 0 393 -0.735016 1
gene 1 17 78 -0.0639186 0 408 -0.0639186 1
gene 1 18 98 -0.583619 0 434 -0.583619 1
gene 1 20 120 -0.0326834 1 469 -0.0326834 1
gene 1 120 20 -2.34353 0 470 -2.34353 1
gene 1 4 91 -0.469987 0 473 -0.469987 1
gene 1 91 22 0.150662 0 527 0.150662 1
gene 1 78 78 1.51389 1 534 1.51389 1
gene 1 14 78 0.128045 0 544 0.128045 1
gene 1 8 91 -0.110531 0 548 -0.110531 1
gene 1 15 136 0.370977 0 568 0.370977 1
gene 1 136 22 -1.30267 0 569 -1.30267 1
gene 1 21 120 -0.00179825 0 574 -0.00179825 1
gene 1 16 144 -0.378456 0 607 -0.378456 0
gene 1 144 21 -0.399977 0 608 -0.399977 1
gene 1 136 86 -0.180885 0 723 -0.180885 1
gene 1 91 105 -0.081359 0 739 -0.081359 1
gene 1 16 174 0.504924 0 824 0.504924 1
gene 1 174 144 0.605374 0 825 0.605374 1
gene 1 136 105 1.31998 0 840 1.31998 1
gene 1 3 180 -0.361397 0 842 -0.361397 1
gene 1 180 21 -0.144328 0 843 -0.144328 1
gene 1 19 144 -0.28324 0 847 -0.28324 1
gene 1 12 183 0.259072 0 851 0.259072 1
gene 1 183 23 -0.00750343 0 852 -0.00750343 1
gene 1 98 180 0.112495 0 860 0.112495 1
gene 1 180 105 -0.271363 0 865 -0.271363 1
gene 1 13 86 -0.869827 0 883 -0.869827 1
gene 1 16 78 -0.349752 0 903 -0.349752 1
gene 1 120 91 -0.0383312 0 905 -0.0383312 1
gene 1 3 194 0.161887 0 906 0.161887 1
gene 1 194 78 0.14027 0 907 0.14027 1
gene 1 13 195 -0.372639 0 908 -0.372639 1
gene 1 195 22 -0.123994 0 909 -0.123994 1
gene 1 8 180 0.272521 0 910 0.272521 1
gene 1 21 21 -0.471484 1 913 -0.471484 1
gene 1 19 180 -0.561012 0 926 -0.561012 1
gene 1 4 200 -0.17766 0 945 -0.17766 1
gene 1 200 22 0.57848 0 946 0.57848 1
gene 1 16 237 1.10889 0 1080 1.10889 1
gene 1 237 78 0.331619 0 1081 0.331619 1
gene 1 1 253 0.291056 0 1140 0.291056 1
gene 1 253 21 -0.232118 0 1141 -0.232118 1
gene 1 9 183 0.666923 0 1249 0.666923 1
gene 1 105 194 -0.141973 0 1301 -0.141973 1
gene 1 4 329 1.45338 0 1719 1.45338 1
gene 1 329 23 -0.282332 0 1720 -0.282332 1
genomeend 474
genomestart 475
trait 1 0.357479 0.0938497 0.575593 0.679356 0.209169 0.105203 0.053311 0.290551 
node 1 1 1 1 0
node 2 1 1 1 0
node 3 1 1 1 0
node 4 1 1 1 0
node 5 1 1 1 0
node 6 1 1 1 0
node 7 1 1 1 0
node 8 1 1 1 0
node 9 1 1 1 0
node 10 1 1 1 0
node 11 1 1 1 0
node 12 1 1 1 0
node 13 1 1 1 0
node 14 1 1 1 0
node 15 1 1 1 0
node 16 1 1 1 0
node 17 1 1 1 0
node 18 1 1 1 0
node 19 1 1 3 0
node 20 1 0 2 0
node 21 1 0 2 0
node 22 1 0 2 0
node 23 1 0 2 0
node 78 1 0 0 0
node 86 1 0 0 0
node 91 1 0 0 0
node 98 1 0 0 0
node 104 1 0 0 0
node 105 1 0 0 0
node 120 1 0 0 0
node 136 1 0 0 0
node 144 1 0 0 0
node 174 1 0 0 0
node 180 1 0 0 0
node 183 1 0 0 0
node 194 1 0 0 0
node 195 1 0 0 0
node 196 1 0 0 0
node 197 1 0 0 0
node 199 1 0 0 0
node 229 1 0 0 0
node 271 1 0 0 0
node 303 1 0 0 0
gene 1 1 20 0.338796 0 1 0.338796 1
gene 1 2 20 -1.05311 0 2 -1.05311 1
gene 1 3 20 -0.282998 0 3 -0.282998 1
gene 1 4 20 2.00783 0 4 2.00783 1
gene 1 5 20 1.17071 0 5 1.17071 1
gene 1 6 20 0.698614 0 6 0.698614 1
gene 1 7 20 -0.0459095 0 7 -0.0459095 1
gene 1 8 20 0.794175 0 8 0.794175 1
gene 1 9 20 0.1297 0 9 0.1297 1
gene 1 10 20 -1.17844 0 10 -1.17844 1
gene 1 11 20 -1.26139 0 11 -1.26139 0
gene 1 12 20 0.085385 0 12 0.085385 1
gene 1 13 20 -0.0408377 0 13 -0.0408377 1
gene 1 14 20 -0.0499187 0 14 -0.0499187 1
gene 1 15 20 -0.29739 0 15 -0.29739 1
gene 1 16 20 1.4459 0 16 1.4459 1
gene 1 17 20 0.195746 0 17 0.195746 1
gene 1 18 20 -0.262963 0 18 -0.262963 1
gene 1 19 20 -2.98176 0 19 -2.98176 1
gene 1 1 21 -0.778018 0 20 -0.778018 1
gene 1 2 21 1.60688 0 21 1.60688 1
gene 1 3 21 -0.490696 0 22 -0.490696 0
gene 1 4 21 0.574851 0 23 0.574851 1
gene 1 5 21 -0.956615 0 24 -0.956615 1
gene 1 6 21 0.230447 0 25 0.230447 1
gene 1 7 21 0.678087 0 26 0.678087 1
gene 1 8 21 -0.437143 0 27 -0.437143 1
gene 1 9 21 0.0986729 0 28 0.0986729 1
gene 1 10 21 -0.435822 0 29 -0.435822 0
gene 1 11 21 -0.325246 0 30 -0.325246 1
gene 1 12 21 0.441386 0 31 0.441386 1
gene 1 13 21 -0.840536 0 32 -0.840536 1
gene 1 14 21 1.75276 0 33 1.75276 1
gene 1 15 21 -0.00706127 0 34 -0.00706127 1
gene 1 16 21 -0.0293459 0 35 -0.0293459 0
gene 1 17 21 -0.339576 0 36 -0.339576 1
gene 1 18 21 1.8642 0 37 1.8642 1
gene 1 19 21 -1.59114 0 38 -1.59114 1
gene 1 1 22 -2.46917 0 39 -2.46917 1
gene 1 2 22 0.79012 0 40 0.79012 1
gene 1 3 22 -0.995539 0 41 -0.995539 1
gene 1 4 22 0.485444 0 42 0.485444 1
gene 1 5 22 0.327039 0 43 0.327039 1
gene 1 6 22 -0.935306 0 44 -0.935306 1
gene 1 7 22 0.564131 0 45 0.564131 1
gene 1 8 22 -0.704024 0 46 -0.704024 1
gene 1 9 22 -0.0724314 0 47 -0.0724314 1
gene 1 10 22 0.409703 0 48 0.409703 1
gene 1 11 22 -0.492186 0 49 -0.492186 1
gene 1 12 22 -0.527728 0 50 -0.527728 1
gene 1 13 22 -1.37164 0 51 -1.37164 1
gene 1 14 22 -0.134926 0 52 -0.134926 1
gene 1 15 22 0.409618 0 53 0.409618 1
gene 1 16 22 -0.505022 0 54 -0.505022 1
gene 1 17 22 0.601945 0 55 0.601945 1
gene 1 18 22 0.253071 0 56 0.253071 1
gene 1 19 22 1.70868 0 57 1.70868 1
gene 1 1 23 1.71641 0 58 1.71641 1
gene 1 2 23 -1.05112 0 59 -1.05112 1
gene 1 3 23 -0.985695 0 60 -0.985695 1
gene 1 4 23 0.14997 0 61 0.14997 1
gene 1 5 23 -1.75946 0 62 -1.75946 1
gene 1 6 23 1.04402 0 63 1.04402 0
gene 1 7 23 -0.165312 0 64 -0.165312 1
gene 1 8 23 0.616505 0 65 0.616505 1
gene 1 9 23 0.258366 0 66 0.258366 1
gene 1 10 23 0.740753 0 67 0.740753 1
gene 1 11 23 -2.30489 0 68 -2.30489 1
gene 1 12 23 -0.607387 0 69 -0.607387 0
gene 1 13 23 -0.0460828 0 70 -0.0460828 1
gene 1 14 23 -0.347574 0 71 -0.347574 1
gene 1 15 23 1.45046 0 72 1.45046 0
gene 1 16 23 -0.150332 0 73 -0.150332 1
gene 1 17 23 1.21083 0 74 1.21083 1
gene 1 18 23 -0.507262 0 75 -0.507262 0
gene 1 19 23 0.415126 0 76 0.415126 1
gene 1 20 20 -1.37022 1 79 -1.37022 1
gene 1 23 20 -1.06972 0 80 -1.06972 1
gene 1 21 23 -0.338688 0 109 -0.338688 1
gene 1 20 22 -0.310662 0 141 -0.310662 1
gene 1 3 78 -0.0548306 0 287 -0.0548306 1
gene 1 78 20 0.465009 0 288 0.465009 1
gene 1 18 86 -1.05235 0 317 -1.05235 1
gene 1 86 23 -0.555116 0 318 -0.555116 1
gene 1 11 91 0.260195 0 332 0.260195 1
gene 1 91 20 0.0476644 0 333 0.0476644 1
gene 1 7 98 -0.482001 0 360 -0.482001 1
gene 1 98 22 0.867388 0 361 0.867388 1
gene 1 6 104 0.0599398 0 387 0.0599398 1
gene 1 104 23 0.551779 0 388 0.551779 1
gene 1 12 78 0.968676 0 389 0.968676 1
gene 1 15 105 0.252822 0 392 0.252822 1
gene 1 105 23 -1.37553 0 393 -1.37553 1
gene 1 17 78 -0.00345827 0 408 -0.00345827 1
gene 1 18 98 -1.52225 0 434 -1.52225 1
gene 1 20 120 0.367349 1 469 0.367349 1
gene 1 120 20 -0.569664 0 470 -0.569664 1
gene 1 4 91 -0.299295 0 473 -0.299295 1
gene 1 91 22 -0.127752 0 527 -0.127752 1
gene 1 78 78 -1.76932 1 534 -1.76932 1
gene 1 14 78 -0.20499 0 544 -0.20499 1
gene 1 8 91 -0.318998 0 548 -0.318998 1
gene 1 15 136 -1.06974 0 568 -1.06974 1
gene 1 136 22 0.811535 0 569 0.811535 1
gene 1 21 120 0.452521 0 574 0.452521 1
gene 1 16 144 -2.49272 0 607 -2.49272 0
gene 1 144 21 0.242059 0 608 0.242059 1
gene 1 136 86 0.212777 0 723 0.212777 1
gene 1 91 105 0.273827 0 739 0.273827 1
gene 1 16 174 -0.203808 0 824 -0.203808 1
gene 1 174 144 0.64904 0 825 0.64904 1
gene 1 136 105 -0.854358 0 840 -0.854358 1
gene 1 3 180 -0.60094 0 842 -0.60094 1
gene 1 180 21 -0.481649 0 843 -0.481649 1
gene 1 19 144 0.212701 0 847 0.212701 1
gene 1 12 183 0.257116 0 851 0.257116 1
gene 1 183 23 0.0647993 0 852 0.0647993 1
gene 1 98 180 0.354079 0 860 0.354079 1
gene 1 180 105 -0.422383 0 865 -0.422383 1
gene 1 13 86 -0.961656 0 883 -0.961656 1
gene 1 16 78 -0.288913 0 903 -0.288913 1
gene 1 120 91 -0.21374 0 905 -0.21374 1
gene 1 3 194 -0.0126214 0 906 -0.0126214 1
gene 1 194 78 -0.279204 0 907 -0.279204 1
gene 1 13 195 0.355483 0 908 0.355483 1
gene 1 195 22 -0.409894 0 909 -0.409894 1
gene 1 8 180 1.1562 0 910 1.1562 0
gene 1 10 196 0.0823364 0 911 0.0823364 1
gene 1 196 21 -0.532252 0 912 -0.532252 1
gene 1 21 21 0.710086 1 913 0.710086 1
gene 1 12 197 0.727572 0 914 0.727572 1
gene 1 197 23 -0.456024 0 915 -0.456024 1
gene 1 11 199 -0.370631 0 920 -0.370631 1
gene 1 199 23 0.827176 0 921 0.827176 1
gene 1 19 180 -0.370453 0 926 -0.370453 1
gene 1 17 229 0.198215 0 1056 0.198215 1
gene 1 229 78 0.491879 0 1057 0.491879 1
gene 1 8 271 1.33143 0 1239 1.33143 1
gene 1 271 180 -0.974509 0 1240 -0.974509 1
