genomestart 138
trait 1 0.44981 0.284434 0.716712 0.69181 0.0255945 1 0.228105 0.314046 
node 1 1 1 1 0
node 2 1 1 1 0
node 3 1 1 1 0
node 4 1 1 1 0
node 5 1 1 1 0
node 6 1 1 1 0
node 7 1 1 1 0
node 8 1 1 1 0
node 9 1 1 1 0
node 10 1 1 1 0
node 11 1 1 1 0
node 12 1 1 1 0
node 13 1 1 1 0
node 14 1 1 1 0
node 15 1 1 1 0
node 16 1 1 1 0
node 17 1 1 1 0
node 18 1 1 1 0
node 19 1 1 3 0
node 20 1 0 2 0
node 21 1 0 2 0
node 22 1 0 2 0
node 23 1 0 2 0
node 28 1 0 0 0
node 35 1 0 0 0
node 36 1 0 0 0
node 68 1 0 0 0
node 72 1 0 0 0
node 75 1 0 0 0
node 81 1 0 0 0
gene 1 1 20 0.0440952 0 1 0.0440952 0
gene 1 2 20 -1.1104 0 2 -1.1104 1
gene 1 3 20 0.23109 0 3 0.23109 1
gene 1 4 20 -0.32397 0 4 -0.32397 1
gene 1 5 20 0.283944 0 5 0.283944 1
gene 1 6 20 0.334256 0 6 0.334256 1
gene 1 7 20 2.20764 0 7 2.20764 1
gene 1 8 20 0.383045 0 8 0.383045 1
gene 1 9 20 -0.108201 0 9 -0.108201 1
gene 1 10 20 -0.282943 0 10 -0.282943 1
gene 1 11 20 0.0538775 0 11 0.0538775 1
gene 1 12 20 0.952889 0 12 0.952889 1
gene 1 13 20 -0.557021 0 13 -0.557021 1
gene 1 14 20 0.122175 0 14 0.122175 0
gene 1 15 20 -0.267165 0 15 -0.267165 1
gene 1 16 20 0.230146 0 16 0.230146 1
gene 1 17 20 0.46935 0 17 0.46935 0
gene 1 18 20 -0.510807 0 18 -0.510807 1
gene 1 19 20 0.264302 0 19 0.264302 1
gene 1 1 21 0.0576197 0 20 0.0576197 1
gene 1 2 21 -1.0731 0 21 -1.0731 1
gene 1 3 21 -1.18876 0 22 -1.18876 1
gene 1 4 21 0.279969 0 23 0.279969 1
gene 1 5 21 -0.339854 0 24 -0.339854 1
gene 1 6 21 0.0860266 0 25 0.0860266 1
gene 1 7 21 0.243701 0 26 0.243701 1
gene 1 8 21 0.395961 0 27 0.395961 1
gene 1 9 21 0.254271 0 28 0.254271 1
gene 1 10 21 0.466954 0 29 0.466954 1
gene 1 11 21 -1.17526 0 30 -1.17526 1
gene 1 12 21 -0.224896 0 31 -0.224896 1
gene 1 13 21 -0.225863 0 32 -0.225863 1
gene 1 14 21 0.00834935 0 33 0.00834935 1
gene 1 15 21 -0.212655 0 34 -0.212655 1
gene 1 16 21 0.00974812 0 35 0.00974812 1
gene 1 17 21 -0.110684 0 36 -0.110684 1
gene 1 18 21 -0.844701 0 37 -0.844701 1
gene 1 19 21 -0.275954 0 38 -0.275954 1
gene 1 1 22 0.0306188 0 39 0.0306188 1
gene 1 2 22 -1.79785 0 40 -1.79785 1
gene 1 3 22 -0.287993 0 41 -0.287993 1
gene 1 4 22 -0.469608 0 42 -0.469608 1
gene 1 5 22 0.274705 0 43 0.274705 1
gene 1 6 22 0.324266 0 44 0.324266 1
gene 1 7 22 0.19347 0 45 0.19347 1
gene 1 8 22 2.03428 0 46 2.03428 1
gene 1 9 22 -0.071348 0 47 -0.071348 1
gene 1 10 22 -0.124843 0 48 -0.124843 1
gene 1 11 22 -0.385242 0 49 -0.385242 1
gene 1 12 22 0.265555 0 50 0.265555 1
gene 1 13 22 0.355671 0 51 0.355671 1
gene 1 14 22 0.495638 0 52 0.495638 1
gene 1 15 22 0.383443 0 53 0.383443 1
gene 1 16 22 -0.156529 0 54 -0.156529 1
gene 1 17 22 0.0860727 0 55 0.0860727 1
gene 1 18 22 -0.137116 0 56 -0.137116 1
gene 1 19 22 1.48241 0 57 1.48241 1
gene 1 1 23 0.168106 0 58 0.168106 1
gene 1 2 23 0.0289685 0 59 0.0289685 1
gene 1 3 23 -0.524663 0 60 -0.524663 1
gene 1 4 23 0.0955061 0 61 0.0955061 1
gene 1 5 23 0.302631 0 62 0.302631 1
gene 1 6 23 0.867303 0 63 0.867303 1
gene 1 7 23 -0.582142 0 64 -0.582142 1
gene 1 8 23 -1.09563 0 65 -1.09563 1
gene 1 9 23 -0.0786985 0 66 -0.0786985 1
gene 1 10 23 0.411491 0 67 0.411491 1
gene 1 11 23 0.0162611 0 68 0.0162611 1
gene 1 12 23 -1.08648 0 69 -1.08648 1
gene 1 13 23 -0.15807 0 70 -0.15807 1
gene 1 14 23 -0.671629 0 71 -0.671629 1
gene 1 15 23 -0.443192 0 72 -0.443192 0
gene 1 16 23 0.201168 0 73 0.201168 1
gene 1 17 23 -0.387377 0 74 -0.387377 1
gene 1 18 23 0.477184 0 75 0.477184 1
gene 1 19 23 0.18988 0 76 0.18988 1
gene 1 21 20 -0.0593897 0 78 -0.0593897 1
gene 1 22 22 -0.047765 1 83 -0.047765 1
gene 1 10 28 0.245759 0 92 0.245759 1
gene 1 28 20 0.83102 0 93 0.83102 1
gene 1 20 22 -0.393218 0 118 -0.393218 1
gene 1 3 35 -0.316083 0 129 -0.316083 1
gene 1 35 20 0.580527 0 130 0.580527 1
gene 1 1 36 -0.406061 0 131 -0.406061 1
gene 1 36 20 -0.209962 0 132 -0.209962 1
gene 1 23 23 0.209403 1 206 0.209403 1
gene 1 6 35 0.436489 0 233 0.436489 1
gene 1 14 68 -0.0422542 0 261 -0.0422542 1
gene 1 68 20 -0.411982 0 262 -0.411982 1
gene 1 4 28 0.338254 0 265 0.338254 1
gene 1 15 36 0.793109 0 273 0.793109 1
gene 1 12 72 1.22649 0 283 1.22649 1
gene 1 72 20 0.0617472 0 284 0.0617472 1
gene 1 15 75 0.0584903 0 290 0.0584903 1
gene 1 75 23 -0.172653 0 291 -0.172653 1
gene 1 17 81 1 0 318 0 1
gene 1 81 20 0.140805 0 319 0 1
genomeend 138
genomestart 139
trait 1 0.44981 0.284434 0.716712 0.299579 0.0255945 0.76503 0.228105 0.314046 
node 1 1 1 1 0
node 2 1 1 1 0
node 3 1 1 1 0
node 4 1 1 1 0
node 5 1 1 1 0
node 6 1 1 1 0
node 7 1 1 1 0
node 8 1 1 1 0
node 9 1 1 1 0
node 10 1 1 1 0
node 11 1 1 1 0
node 12 1 1 1 0
node 13 1 1 1 0
node 14 1 1 1 0
node 15 1 1 1 0
node 16 1 1 1 0
node 17 1 1 1 0
node 18 1 1 1 0
node 19 1 1 3 0
node 20 1 0 2 0
node 21 1 0 2 0
node 22 1 0 2 0
node 23 1 0 2 0
node 28 1 0 0 0
node 35 1 0 0 0
node 36 1 0 0 0
node 68 1 0 0 0
node 72 1 0 0 0
node 75 1 0 0 0
gene 1 1 20 -0.197802 0 1 -0.197802 0
gene 1 2 20 -1.87301 0 2 -1.87301 1
gene 1 3 20 0.123838 0 3 0.123838 1
gene 1 4 20 0.48042 0 4 0.48042 1
gene 1 5 20 -0.0928838 0 5 -0.0928838 1
gene 1 6 20 0.565729 0 6 0.565729 1
gene 1 7 20 2.63911 0 7 2.63911 1
gene 1 8 20 1.10868 0 8 1.10868 1
gene 1 9 20 -0.250724 0 9 -0.250724 1
gene 1 10 20 -0.190834 0 10 -0.190834 1
gene 1 11 20 0.038784 0 11 0.038784 1
gene 1 12 20 0.112585 0 12 0.112585 1
gene 1 13 20 -0.557021 0 13 -0.557021 1
gene 1 14 20 -0.0552686 0 14 -0.0552686 0
gene 1 15 20 0.0486611 0 15 0.0486611 1
gene 1 16 20 0.186397 0 16 0.186397 1
gene 1 17 20 0.422583 0 17 0.422583 1
gene 1 18 20 -0.283525 0 18 -0.283525 1
gene 1 19 20 0.0244787 0 19 0.0244787 1
gene 1 1 21 0.364078 0 20 0.364078 1
gene 1 2 21 -0.557379 0 21 -0.557379 1
gene 1 3 21 -1.88324 0 22 -1.88324 1
gene 1 4 21 0.0653962 0 23 0.0653962 1
gene 1 5 21 -0.674394 0 24 -0.674394 1
gene 1 6 21 -0.300173 0 25 -0.300173 1
gene 1 7 21 0.62471 0 26 0.62471 1
gene 1 8 21 -0.30591 0 27 -0.30591 1
gene 1 9 21 0.0938094 0 28 0.0938094 1
gene 1 10 21 0.994426 0 29 0.994426 1
gene 1 11 21 0.0243084 0 30 0.0243084 1
gene 1 12 21 0.109343 0 31 0.109343 1
gene 1 13 21 -0.27629 0 32 -0.27629 1
gene 1 14 21 -0.147989 0 33 -0.147989 1
gene 1 15 21 0.0803172 0 34 0.0803172 1
gene 1 16 21 -0.286773 0 35 -0.286773 1
gene 1 17 21 0.306929 0 36 0.306929 1
gene 1 18 21 -0.74733 0 37 -0.74733 1
gene 1 19 21 -0.741169 0 38 -0.741169 1
gene 1 1 22 0.114159 0 39 0.114159 1
gene 1 2 22 -1.64692 0 40 -1.64692 1
gene 1 3 22 -0.273358 0 41 -0.273358 1
gene 1 4 22 -0.316827 0 42 -0.316827 1
gene 1 5 22 -0.037661 0 43 -0.037661 1
gene 1 6 22 0.263357 0 44 0.263357 1
gene 1 7 22 0.575083 0 45 0.575083 1
gene 1 8 22 0.21469 0 46 0.21469 1
gene 1 9 22 -0.123039 0 47 -0.123039 1
gene 1 10 22 0.0118772 0 48 0.0118772 1
gene 1 11 22 0.106147 0 49 0.106147 1
gene 1 12 22 -0.240695 0 50 -0.240695 1
gene 1 13 22 0.46814 0 51 0.46814 1
gene 1 14 22 0.341657 0 52 0.341657 1
gene 1 15 22 -0.0927235 0 53 -0.0927235 1
gene 1 16 22 -0.397856 0 54 -0.397856 1
gene 1 17 22 0.59104 0 55 0.59104 1
gene 1 18 22 -0.347247 0 56 -0.347247 1
gene 1 19 22 1.68277 0 57 1.68277 1
gene 1 1 23 0.171337 0 58 0.171337 1
gene 1 2 23 0.788266 0 59 0.788266 1
gene 1 3 23 -0.806502 0 60 -0.806502 1
gene 1 4 23 0.294885 0 61 0.294885 1
gene 1 5 23 -0.22578 0 62 -0.22578 1
gene 1 6 23 0.964141 0 63 0.964141 1
gene 1 7 23 -0.62382 0 64 -0.62382 1
gene 1 8 23 0.135093 0 65 0.135093 1
gene 1 9 23 -0.038451 0 66 -0.038451 1
gene 1 10 23 0.250398 0 67 0.250398 1
gene 1 11 23 -0.612205 0 68 -0.612205 1
gene 1 12 23 -1.04001 0 69 -1.04001 1
gene 1 13 23 -0.0250009 0 70 -0.0250009 1
gene 1 14 23 -0.175683 0 71 -0.175683 1
gene 1 15 23 0.11558 0 72 0.11558 0
gene 1 16 23 -0.287972 0 73 -0.287972 1
gene 1 17 23 -0.00884841 0 74 -0.00884841 1
gene 1 18 23 0.952635 0 75 0.952635 1
gene 1 19 23 0.691145 0 76 0.691145 1
gene 1 21 20 -0.52701 0 78 -0.52701 1
gene 1 22 22 -0.299959 1 83 -0.299959 1
gene 1 10 28 0.0666281 0 92 0.0666281 1
gene 1 28 20 0.551189 0 93 0.551189 1
gene 1 20 22 0.136388 0 118 0.136388 1
gene 1 3 35 -0.225993 0 129 -0.225993 1
gene 1 35 20 0.192744 0 130 0.192744 1
gene 1 1 36 -0.329892 0 131 -0.329892 1
gene 1 36 20 -0.298431 0 132 -0.298431 1
gene 1 23 23 0.381632 1 206 0.381632 1
gene 1 6 35 0.355072 0 233 0.355072 1
gene 1 14 68 0.13177 0 261 0.13177 1
gene 1 68 20 -0.221823 0 262 -0.221823 1
gene 1 4 28 0.169175 0 265 0.169175 1
gene 1 15 36 1.27832 0 273 1.27832 1
gene 1 12 72 1.44082 0 283 1.44082 1
gene 1 72 20 -0.413229 0 284 -0.413229 1
gene 1 15 75 0.452234 0 290 0.452234 1
gene 1 75 23 0.904824 0 291 0.904824 1
genomeend 139
genomestart 140
trait 1 0.44981 0.284434 0.716712 0.299579 0.0255945 0.76503 0.228105 0.314046 
node 1 1 1 1 0
node 2 1 1 1 0
node 3 1 1 1 0
node 4 1 1 1 0
node 5 1 1 1 0
node 6 1 1 1 0
node 7 1 1 1 0
node 8 1 1 1 0
node 9 1 1 1 0
node 10 1 1 1 0
node 11 1 1 1 0
node 12 1 1 1 0
node 13 1 1 1 0
node 14 1 1 1 0
node 15 1 1 1 0
node 16 1 1 1 0
node 17 1 1 1 0
node 18 1 1 1 0
node 19 1 1 3 0
node 20 1 0 2 0
node 21 1 0 2 0
node 22 1 0 2 0
node 23 1 0 2 0
node 28 1 0 0 0
node 35 1 0 0 0
node 36 1 0 0 0
node 68 1 0 0 0
node 72 1 0 0 0
node 75 1 0 0 0
gene 1 1 20 0.482229 0 1 0.482229 0
gene 1 2 20 0.0762456 0 2 0.0762456 1
gene 1 3 20 -0.0678173 0 3 -0.0678173 1
gene 1 4 20 0.374234 0 4 0.374234 1
gene 1 5 20 0.805438 0 5 0.805438 1
gene 1 6 20 0.550014 0 6 0.550014 1
gene 1 7 20 2.73813 0 7 2.73813 1
gene 1 8 20 0.577957 0 8 0.577957 1
gene 1 9 20 -0.430252 0 9 -0.430252 1
gene 1 10 20 -0.923227 0 10 -0.923227 1
gene 1 11 20 -0.1137 0 11 -0.1137 1
gene 1 12 20 0.118425 0 12 0.118425 1
gene 1 13 20 -1.43283 0 13 -1.43283 1
gene 1 14 20 -0.551029 0 14 -0.551029 0
gene 1 15 20 0.21693 0 15 0.21693 1
gene 1 16 20 0.130051 0 16 0.130051 1
gene 1 17 20 -0.112023 0 17 -0.112023 1
gene 1 18 20 0.0434411 0 18 0.0434411 1
gene 1 19 20 0.44064 0 19 0.44064 1
gene 1 1 21 -0.268648 0 20 -0.268648 1
gene 1 2 21 -0.108017 0 21 -0.108017 1
gene 1 3 21 -1.56539 0 22 -1.56539 1
gene 1 4 21 -0.157322 0 23 -0.157322 1
gene 1 5 21 0.907707 0 24 0.907707 1
gene 1 6 21 -0.391185 0 25 -0.391185 1
gene 1 7 21 -0.0719582 0 26 -0.0719582 1
gene 1 8 21 0.524452 0 27 0.524452 1
gene 1 9 21 0.748241 0 28 0.748241 1
gene 1 10 21 0.052302 0 29 0.052302 1
gene 1 11 21 0.354974 0 30 0.354974 1
gene 1 12 21 -0.580341 0 31 -0.580341 1
gene 1 13 21 0.256832 0 32 0.256832 1
gene 1 14 21 -0.385282 0 33 -0.385282 1
gene 1 15 21 -0.146369 0 34 -0.146369 1
gene 1 16 21 -0.384421 0 35 -0.384421 1
gene 1 17 21 0.14229 0 36 0.14229 1
gene 1 18 21 -0.367386 0 37 -0.367386 1
gene 1 19 21 0.057033 0 38 0.057033 1
gene 1 1 22 -0.0277004 0 39 -0.0277004 1
gene 1 2 22 -1.79785 0 40 -1.79785 1
gene 1 3 22 -0.488614 0 41 -0.488614 1
gene 1 4 22 -0.550592 0 42 -0.550592 1
gene 1 5 22 0.248751 0 43 0.248751 1
gene 1 6 22 -0.332405 0 44 -0.332405 1
gene 1 7 22 -0.169775 0 45 -0.169775 1
gene 1 8 22 1.69177 0 46 1.69177 1
gene 1 9 22 -0.367733 0 47 -0.367733 1
gene 1 10 22 -0.00544327 0 48 -0.00544327 1
gene 1 11 22 0.318161 0 49 0.318161 1
gene 1 12 22 0.439706 0 50 0.439706 1
gene 1 13 22 0.629972 0 51 0.629972 1
gene 1 14 22 -0.480902 0 52 -0.480902 1
gene 1 15 22 0.0909951 0 53 0.0909951 1
gene 1 16 22 -0.25352 0 54 -0.25352 1
gene 1 17 22 0.622129 0 55 0.622129 1
gene 1 18 22 -0.655734 0 56 -0.655734 1
gene 1 19 22 1.73517 0 57 1.73517 1
gene 1 1 23 -0.354932 0 58 -0.354932 1
gene 1 2 23 -0.684422 0 59 -0.684422 1
gene 1 3 23 0.0695678 0 60 0.0695678 1
gene 1 4 23 0.178572 0 61 0.178572 1
gene 1 5 23 0.287952 0 62 0.287952 1
gene 1 6 23 1.35509 0 63 1.35509 1
gene 1 7 23 0.413558 0 64 0.413558 1
gene 1 8 23 -1.52231 0 65 -1.52231 1
gene 1 9 23 0.13761 0 66 0.13761 1
gene 1 10 23 0.805157 0 67 0.805157 1
gene 1 11 23 0.658901 0 68 0.658901 1
gene 1 12 23 0.247227 0 69 0.247227 1
gene 1 13 23 0.264506 0 70 0.264506 1
gene 1 14 23 -0.708448 0 71 -0.708448 1
gene 1 15 23 -0.492333 0 72 -0.492333 0
gene 1 16 23 0.029523 0 73 0.029523 1
gene 1 17 23 -0.548279 0 74 -0.548279 1
gene 1 18 23 0.752947 0 75 0.752947 1
gene 1 19 23 0.348541 0 76 0.348541 1
gene 1 21 20 0.285943 0 78 0.285943 1
gene 1 22 22 0.407475 1 83 0.407475 1
gene 1 10 28 0.34992 0 92 0.34992 1
gene 1 28 20 0.122094 0 93 0.122094 1
gene 1 20 22 -0.931145 0 118 -0.931145 1
gene 1 3 35 0.0512611 0 129 0.0512611 1
gene 1 35 20 -0.0869678 0 130 -0.0869678 1
gene 1 1 36 0.00118131 0 131 0.00118131 1
gene 1 36 20 -0.231426 0 132 -0.231426 1
gene 1 23 23 0.14302 1 206 0.14302 1
gene 1 6 35 -0.173638 0 233 -0.173638 1
gene 1 14 68 0.270809 0 261 0.270809 1
gene 1 68 20 0.267315 0 262 0.267315 1
gene 1 4 28 -0.153575 0 265 -0.153575 1
gene 1 15 36 1.28975 0 273 1.28975 1
gene 1 12 72 0.968991 0 283 0.968991 1
gene 1 72 20 0.238786 0 284 0.238786 1
gene 1 15 75 -0.1223 0 290 -0.1223 1
gene 1 75 23 0.0414987 0 291 0.0414987 1
genomeend 140
genomestart 141
trait 1 0.44981 0.284434 0.716712 0.299579 0.0255945 0.76503 0.228105 0.314046 
node 1 1 1 1 0
node 2 1 1 1 0
node 3 1 1 1 0
node 4 1 1 1 0
node 5 1 1 1 0
node 6 1 1 1 0
node 7 1 1 1 0
node 8 1 1 1 0
node 9 1 1 1 0
node 10 1 1 1 0
node 11 1 1 1 0
node 12 1 1 1 0
node 13 1 1 1 0
node 14 1 1 1 0
node 15 1 1 1 0
node 16 1 1 1 0
node 17 1 1 1 0
node 18 1 1 1 0
node 19 1 1 3 0
node 20 1 0 2 0
node 21 1 0 2 0
node 22 1 0 2 0
node 23 1 0 2 0
node 28 1 0 0 0
node 35 1 0 0 0
node 36 1 0 0 0
node 68 1 0 0 0
node 72 1 0 0 0
node 75 1 0 0 0
gene 1 1 20 -0.116582 0 1 -0.116582 0
gene 1 2 20 -1.29002 0 2 -1.29002 1
gene 1 3 20 -0.319523 0 3 -0.319523 1
gene 1 4 20 -0.638122 0 4 -0.638122 1
gene 1 5 20 0.278207 0 5 0.278207 1
gene 1 6 20 0.862263 0 6 0.862263 1
gene 1 7 20 0.278802 0 7 0.278802 1
gene 1 8 20 0.768653 0 8 0.768653 1
gene 1 9 20 -0.595869 0 9 -0.595869 1
gene 1 10 20 0.0502079 0 10 0.0502079 1
gene 1 11 20 0.575228 0 11 0.575228 1
gene 1 12 20 0.615373 0 12 0.615373 1
gene 1 13 20 0.117867 0 13 0.117867 1
gene 1 14 20 0.425481 0 14 0.425481 0
gene 1 15 20 0.392957 0 15 0.392957 1
gene 1 16 20 0.134571 0 16 0.134571 1
gene 1 17 20 0.0638933 0 17 0.0638933 1
gene 1 18 20 0.679074 0 18 0.679074 1
gene 1 19 20 -0.569787 0 19 -0.569787 1
gene 1 1 21 0.170939 0 20 0.170939 1
gene 1 2 21 0.284269 0 21 0.284269 1
gene 1 3 21 -1.74707 0 22 -1.74707 1
gene 1 4 21 -0.186862 0 23 -0.186862 1
gene 1 5 21 0.449748 0 24 0.449748 1
gene 1 6 21 0.511542 0 25 0.511542 1
gene 1 7 21 -0.013683 0 26 -0.013683 1
gene 1 8 21 0.320317 0 27 0.320317 1
gene 1 9 21 0.570931 0 28 0.570931 1
gene 1 10 21 0.122653 0 29 0.122653 1
gene 1 11 21 -0.875361 0 30 -0.875361 1
gene 1 12 21 -0.467653 0 31 -0.467653 1
gene 1 13 21 0.446329 0 32 0.446329 1
gene 1 14 21 0.0541667 0 33 0.0541667 1
gene 1 15 21 -0.585014 0 34 -0.585014 1
gene 1 16 21 -0.518113 0 35 -0.518113 1
gene 1 17 21 0.397108 0 36 0.397108 1
gene 1 18 21 0.421365 0 37 0.421365 1
gene 1 19 21 0.645733 0 38 0.645733 1
gene 1 1 22 0.582429 0 39 0.582429 1
gene 1 2 22 -1.20322 0 40 -1.20322 1
gene 1 3 22 -0.267834 0 41 -0.267834 1
gene 1 4 22 -0.526891 0 42 -0.526891 1
gene 1 5 22 -0.0879737 0 43 -0.0879737 1
gene 1 6 22 0.917058 0 44 0.917058 1
gene 1 7 22 0.18998 0 45 0.18998 1
gene 1 8 22 2.33766 0 46 2.33766 1
gene 1 9 22 0.479639 0 47 0.479639 1
gene 1 10 22 0.591869 0 48 0.591869 1
gene 1 11 22 -0.327294 0 49 -0.327294 1
gene 1 12 22 0.0781955 0 50 0.0781955 1
gene 1 13 22 -0.684754 0 51 -0.684754 1
gene 1 14 22 -0.0651756 0 52 -0.0651756 1
gene 1 15 22 -0.233079 0 53 -0.233079 1
gene 1 16 22 -0.659785 0 54 -0.659785 1
gene 1 17 22 0.203475 0 55 0.203475 1
gene 1 18 22 -0.0456119 0 56 -0.0456119 1
gene 1 19 22 0.803024 0 57 0.803024 1
gene 1 1 23 -0.582675 0 58 -0.582675 1
gene 1 2 23 0.489845 0 59 0.489845 1
gene 1 3 23 -0.624782 0 60 -0.624782 1
gene 1 4 23 0.408337 0 61 0.408337 1
gene 1 5 23 -0.190054 0 62 -0.190054 1
gene 1 6 23 0.221401 0 63 0.221401 1
gene 1 7 23 0.606107 0 64 0.606107 1
gene 1 8 23 -0.833377 0 65 -0.833377 1
gene 1 9 23 0.0791541 0 66 0.0791541 1
gene 1 10 23 -0.218564 0 67 -0.218564 1
gene 1 11 23 0.283457 0 68 0.283457 1
gene 1 12 23 -0.44407 0 69 -0.44407 1
gene 1 13 23 -0.0936554 0 70 -0.0936554 1
gene 1 14 23 -1.12294 0 71 -1.12294 1
gene 1 15 23 -0.222435 0 72 -0.222435 0
gene 1 16 23 0.913666 0 73 0.913666 1
gene 1 17 23 -0.247481 0 74 -0.247481 1
gene 1 18 23 1.20355 0 75 1.20355 1
gene 1 19 23 -0.0974348 0 76 -0.0974348 1
gene 1 21 20 -0.302463 0 78 -0.302463 1
gene 1 22 22 0.259894 1 83 0.259894 1
gene 1 10 28 -0.00348073 0 92 -0.00348073 1
gene 1 28 20 -0.482863 0 93 -0.482863 1
gene 1 20 22 -0.967171 0 118 -0.967171 1
gene 1 3 35 -0.0302372 0 129 -0.0302372 1
gene 1 35 20 0.392418 0 130 0.392418 1
gene 1 1 36 0.00808152 0 131 0.00808152 1
gene 1 36 20 -0.33678 0 132 -0.33678 1
gene 1 23 23 0.112756 1 206 0.112756 1
gene 1 6 35 0.12003 0 233 0.12003 1
gene 1 14 68 -0.460951 0 261 -0.460951 1
gene 1 68 20 0.900423 0 262 0.900423 1
gene 1 4 28 0.355438 0 265 0.355438 1
gene 1 15 36 1.15761 0 273 1.15761 1
gene 1 12 72 -0.382315 0 283 -0.382315 1
gene 1 72 20 0.362167 0 284 0.362167 1
gene 1 15 75 -0.141334 0 290 -0.141334 1
gene 1 75 23 0.421118 0 291 0.421118 1
genomeend 141
genomestart 142
trait 1 0.44981 0.284434 0.716712 0.299579 0.0255945 0.76503 0.228105 0.314046 
node 1 1 1 1 0
node 2 1 1 1 0
node 3 1 1 1 0
node 4 1 1 1 0
node 5 1 1 1 0
node 6 1 1 1 0
node 7 1 1 1 0
node 8 1 1 1 0
node 9 1 1 1 0
node 10 1 1 1 0
node 11 1 1 1 0
node 12 1 1 1 0
node 13 1 1 1 0
node 14 1 1 1 0
node 15 1 1 1 0
node 16 1 1 1 0
node 17 1 1 1 0
node 18 1 1 1 0
node 19 1 1 3 0
node 20 1 0 2 0
node 21 1 0 2 0
node 22 1 0 2 0
node 23 1 0 2 0
node 28 1 0 0 0
node 35 1 0 0 0
node 36 1 0 0 0
node 68 1 0 0 0
node 72 1 0 0 0
node 75 1 0 0 0
gene 1 1 20 0.532669 0 1 0.532669 0
gene 1 2 20 -1.1104 0 2 -1.1104 1
gene 1 3 20 0.474575 0 3 0.474575 1
gene 1 4 20 -0.736413 0 4 -0.736413 1
gene 1 5 20 0.237238 0 5 0.237238 1
gene 1 6 20 0.79538 0 6 0.79538 1
gene 1 7 20 2.03082 0 7 2.03082 1
gene 1 8 20 0.879309 0 8 0.879309 1
gene 1 9 20 0.27807 0 9 0.27807 1
gene 1 10 20 0.145711 0 10 0.145711 1
gene 1 11 20 -0.417091 0 11 -0.417091 1
gene 1 12 20 0.416593 0 12 0.416593 1
gene 1 13 20 -0.557021 0 13 -0.557021 1
gene 1 14 20 -0.274901 0 14 -0.274901 0
gene 1 15 20 -0.276725 0 15 -0.276725 1
gene 1 16 20 0.230146 0 16 0.230146 1
gene 1 17 20 0.810668 0 17 0.810668 1
gene 1 18 20 -0.619599 0 18 -0.619599 1
gene 1 19 20 0.243675 0 19 0.243675 1
gene 1 1 21 0.459694 0 20 0.459694 1
gene 1 2 21 0.206759 0 21 0.206759 1
gene 1 3 21 -0.855232 0 22 -0.855232 1
gene 1 4 21 0.366283 0 23 0.366283 1
gene 1 5 21 -0.20312 0 24 -0.20312 1
gene 1 6 21 -0.405247 0 25 -0.405247 1
gene 1 7 21 -0.019381 0 26 -0.019381 1
gene 1 8 21 0.302313 0 27 0.302313 1
gene 1 9 21 0.31109 0 28 0.31109 1
gene 1 10 21 0.309631 0 29 0.309631 1
gene 1 11 21 -1.17526 0 30 -1.17526 1
gene 1 12 21 0.242634 0 31 0.242634 1
gene 1 13 21 -0.326757 0 32 -0.326757 1
gene 1 14 21 0.0742727 0 33 0.0742727 1
gene 1 15 21 -0.212655 0 34 -0.212655 1
gene 1 16 21 -0.478299 0 35 -0.478299 1
gene 1 17 21 -0.0819153 0 36 -0.0819153 1
gene 1 18 21 -0.183177 0 37 -0.183177 1
gene 1 19 21 -0.715469 0 38 -0.715469 1
gene 1 1 22 -0.226814 0 39 -0.226814 1
gene 1 2 22 -1.79785 0 40 -1.79785 1
gene 1 3 22 0.00148275 0 41 0.00148275 1
gene 1 4 22 -0.303755 0 42 -0.303755 1
gene 1 5 22 0.109073 0 43 0.109073 1
gene 1 6 22 0.60443 0 44 0.60443 1
gene 1 7 22 0.584422 0 45 0.584422 1
gene 1 8 22 -0.148713 0 46 -0.148713 1
gene 1 9 22 -0.559451 0 47 -0.559451 1
gene 1 10 22 -0.323301 0 48 -0.323301 1
gene 1 11 22 0.0298142 0 49 0.0298142 1
gene 1 12 22 -0.0824217 0 50 -0.0824217 1
gene 1 13 22 0.243936 0 51 0.243936 1
gene 1 14 22 0.112889 0 52 0.112889 1
gene 1 15 22 0.87556 0 53 0.87556 1
gene 1 16 22 0.0726442 0 54 0.0726442 1
gene 1 17 22 0.419525 0 55 0.419525 1
gene 1 18 22 -0.271625 0 56 -0.271625 1
gene 1 19 22 1.48241 0 57 1.48241 1
gene 1 1 23 -0.0465586 0 58 -0.0465586 1
gene 1 2 23 -0.457209 0 59 -0.457209 1
gene 1 3 23 -0.187352 0 60 -0.187352 1
gene 1 4 23 0.0269616 0 61 0.0269616 1
gene 1 5 23 0.539991 0 62 0.539991 1
gene 1 6 23 1.32364 0 63 1.32364 1
gene 1 7 23 -0.984222 0 64 -0.984222 1
gene 1 8 23 0.353106 0 65 0.353106 1
gene 1 9 23 0.353928 0 66 0.353928 1
gene 1 10 23 0.615687 0 67 0.615687 1
gene 1 11 23 -0.0424512 0 68 -0.0424512 1
gene 1 12 23 -0.335657 0 69 -0.335657 1
gene 1 13 23 -0.31321 0 70 -0.31321 1
gene 1 14 23 -0.540984 0 71 -0.540984 1
gene 1 15 23 -0.125161 0 72 -0.125161 0
gene 1 16 23 0.134984 0 73 0.134984 1
gene 1 17 23 0.0267476 0 74 0.0267476 1
gene 1 18 23 0.477184 0 75 0.477184 1
gene 1 19 23 -0.171541 0 76 -0.171541 1
gene 1 21 20 0.375026 0 78 0.375026 1
gene 1 22 22 -0.31805 1 83 -0.31805 1
gene 1 10 28 0.544169 0 92 0.544169 1
gene 1 28 20 1.03176 0 93 1.03176 1
gene 1 20 22 -0.281245 0 118 -0.281245 1
gene 1 3 35 -0.374263 0 129 -0.374263 1
gene 1 35 20 0.580527 0 130 0.580527 1
gene 1 1 36 -0.406061 0 131 -0.406061 1
gene 1 36 20 0.0583144 0 132 0.0583144 1
gene 1 23 23 0.112874 1 206 0.112874 1
gene 1 6 35 0.144932 0 233 0.144932 1
gene 1 14 68 -0.297198 0 261 -0.297198 1
gene 1 68 20 -0.829826 0 262 -0.829826 1
gene 1 4 28 0.724469 0 265 0.724469 1
gene 1 15 36 1.01641 0 273 1.01641 1
gene 1 12 72 1.44678 0 283 1.44678 1
gene 1 72 20 -0.434949 0 284 -0.434949 1
gene 1 15 75 -0.434687 0 290 -0.434687 1
gene 1 75 23 -0.380178 0 291 -0.380178 1
genomeend 142
genomestart 143
trait 1 0.395303 0.281727 0.784237 0.41143 0.0227217 0.702821 0.249883 0.342792 
node 1 1 1 1 0
node 2 1 1 1 0
node 3 1 1 1 0
node 4 1 1 1 0
node 5 1 1 1 0
node 6 1 1 1 0
node 7 1 1 1 0
node 8 1 1 1 0
node 9 1 1 1 0
node 10 1 1 1 0
node 11 1 1 1 0
node 12 1 1 1 0
node 13 1 1 1 0
node 14 1 1 1 0
node 15 1 1 1 0
node 16 1 1 1 0
node 17 1 1 1 0
node 18 1 1 1 0
node 19 1 1 3 0
node 20 1 0 2 0
node 21 1 0 2 0
node 22 1 0 2 0
node 23 1 0 2 0
node 28 1 0 0 0
node 35 1 0 0 0
node 36 1 0 0 0
node 68 1 0 0 0
node 72 1 0 0 0
node 75 1 0 0 0
gene 1 1 20 -0.280607 0 1 -0.280607 0
gene 1 2 20 -1.13991 0 2 -1.13991 1
gene 1 3 20 -0.410844 0 3 -0.410844 1
gene 1 4 20 0.168023 0 4 0.168023 1
gene 1 5 20 -0.611906 0 5 -0.611906 1
gene 1 6 20 -0.235089 0 6 -0.235089 1
gene 1 7 20 -0.216845 0 7 -0.216845 1
gene 1 8 20 0.554405 0 8 0.554405 1
gene 1 9 20 -0.937621 0 9 -0.937621 1
gene 1 10 20 -0.526746 0 10 -0.526746 1
gene 1 11 20 -1.00129 0 11 -1.00129 1
gene 1 12 20 -0.588573 0 12 -0.588573 1
gene 1 13 20 -0.912362 0 13 -0.912362 1
gene 1 14 20 -0.0233136 0 14 -0.0233136 1
gene 1 15 20 -0.288735 0 15 -0.288735 1
gene 1 16 20 0.316829 0 16 0.316829 1
gene 1 17 20 1.20504 0 17 1.20504 1
gene 1 18 20 -0.0915765 0 18 -0.0915765 1
gene 1 19 20 -0.206637 0 19 -0.206637 1
gene 1 1 21 0.502097 0 20 0.502097 1
gene 1 2 21 -1.58982 0 21 -1.58982 1
gene 1 3 21 0.441515 0 22 0.441515 1
gene 1 4 21 0.765007 0 23 0.765007 1
gene 1 5 21 0.546798 0 24 0.546798 1
gene 1 6 21 0.148488 0 25 0.148488 1
gene 1 7 21 -1.03648 0 26 -1.03648 1
gene 1 8 21 1.22704 0 27 1.22704 1
gene 1 9 21 -1.1964 0 28 -1.1964 1
gene 1 10 21 -0.168898 0 29 -0.168898 1
gene 1 11 21 -1.2417 0 30 -1.2417 1
gene 1 12 21 -0.277185 0 31 -0.277185 1
gene 1 13 21 0.408225 0 32 0.408225 1
gene 1 14 21 0.897052 0 33 0.897052 1
gene 1 15 21 -0.334527 0 34 -0.334527 1
gene 1 16 21 0.0164617 0 35 0.0164617 1
gene 1 17 21 0.0956611 0 36 0.0956611 1
gene 1 18 21 0.544715 0 37 0.544715 1
gene 1 19 21 -0.678369 0 38 -0.678369 1
gene 1 1 22 0.350629 0 39 0.350629 1
gene 1 2 22 -0.0456813 0 40 -0.0456813 1
gene 1 3 22 -0.634845 0 41 -0.634845 1
gene 1 4 22 1.60879 0 42 1.60879 1
gene 1 5 22 0.0805113 0 43 0.0805113 1
gene 1 6 22 0.100269 0 44 0.100269 1
gene 1 7 22 -1.33861 0 45 -1.33861 1
gene 1 8 22 2.15223 0 46 2.15223 1
gene 1 9 22 0.672081 0 47 0.672081 1
gene 1 10 22 0.370088 0 48 0.370088 1
gene 1 11 22 -0.457078 0 49 -0.457078 1
gene 1 12 22 1.19792 0 50 1.19792 1
gene 1 13 22 -0.425813 0 51 -0.425813 1
gene 1 14 22 0.49088 0 52 0.49088 1
gene 1 15 22 0.132488 0 53 0.132488 1
gene 1 16 22 0.750022 0 54 0.750022 1
gene 1 17 22 1.06628 0 55 1.06628 1
gene 1 18 22 -0.866334 0 56 -0.866334 1
gene 1 19 22 1.92729 0 57 1.92729 1
gene 1 1 23 0.120614 0 58 0.120614 1
gene 1 2 23 -0.350188 0 59 -0.350188 1
gene 1 3 23 -0.108089 0 60 -0.108089 1
gene 1 4 23 1.47176 0 61 1.47176 1
gene 1 5 23 1.51035 0 62 1.51035 1
gene 1 6 23 1.36366 0 63 1.36366 1
gene 1 7 23 -0.471472 0 64 -0.471472 1
gene 1 8 23 -0.40872 0 65 -0.40872 1
gene 1 9 23 0.0169331 0 66 0.0169331 1
gene 1 10 23 0.61826 0 67 0.61826 1
gene 1 11 23 0.343734 0 68 0.343734 1
gene 1 12 23 -0.551181 0 69 -0.551181 1
gene 1 13 23 -0.961924 0 70 -0.961924 1
gene 1 14 23 -1.1292 0 71 -1.1292 1
gene 1 15 23 -1.25717 0 72 -1.25717 0
gene 1 16 23 -0.869102 0 73 -0.869102 1
gene 1 17 23 1.40681 0 74 1.40681 1
gene 1 18 23 0.09075 0 75 0.09075 1
gene 1 19 23 -0.725288 0 76 -0.725288 1
gene 1 21 20 -0.857058 0 78 -0.857058 1
gene 1 22 22 0.278933 1 83 0.278933 1
gene 1 10 28 0.681586 0 92 0.681586 1
gene 1 28 20 -0.152795 0 93 -0.152795 1
gene 1 20 22 0.024538 0 118 0.024538 1
gene 1 3 35 -0.0486568 0 129 -0.0486568 1
gene 1 35 20 0.234079 0 130 0.234079 1
gene 1 1 36 0.102294 0 131 0.102294 1
gene 1 36 20 -0.0477188 0 132 -0.0477188 1
gene 1 23 23 -1.35371 1 206 -1.35371 1
gene 1 6 35 -0.486682 0 233 -0.486682 1
gene 1 14 68 0.333208 0 261 0.333208 1
gene 1 68 20 0.0897007 0 262 0.0897007 1
gene 1 4 28 -0.265743 0 265 -0.265743 1
gene 1 15 36 1.28672 0 273 1.28672 1
gene 1 12 72 0.0615977 0 283 0.0615977 1
gene 1 72 20 -0.118764 0 284 -0.118764 1
gene 1 15 75 1.14879 0 290 1.14879 1
gene 1 75 23 -0.303054 0 291 -0.303054 1
gene 1 1 72 0.608871 0 320 0.608871 1
genomeend 143
genomestart 144
trait 1 0.395303 0.281727 0.784237 0.41143 0.0227217 0.702821 0.249883 0.342792 
node 1 1 1 1 0
node 2 1 1 1 0
node 3 1 1 1 0
node 4 1 1 1 0
node 5 1 1 1 0
node 6 1 1 1 0
node 7 1 1 1 0
node 8 1 1 1 0
node 9 1 1 1 0
node 10 1 1 1 0
node 11 1 1 1 0
node 12 1 1 1 0
node 13 1 1 1 0
node 14 1 1 1 0
node 15 1 1 1 0
node 16 1 1 1 0
node 17 1 1 1 0
node 18 1 1 1 0
node 19 1 1 3 0
node 20 1 0 2 0
node 21 1 0 2 0
node 22 1 0 2 0
node 23 1 0 2 0
node 28 1 0 0 0
node 35 1 0 0 0
node 36 1 0 0 0
node 68 1 0 0 0
node 72 1 0 0 0
node 75 1 0 0 0
gene 1 1 20 0.394586 0 1 0.394586 0
gene 1 2 20 -1.43351 0 2 -1.43351 1
gene 1 3 20 -0.648113 0 3 -0.648113 1
gene 1 4 20 -0.270897 0 4 -0.270897 1
gene 1 5 20 -0.750289 0 5 -0.750289 1
gene 1 6 20 -0.370165 0 6 -0.370165 1
gene 1 7 20 0.197747 0 7 0.197747 1
gene 1 8 20 -0.782222 0 8 -0.782222 1
gene 1 9 20 -0.578107 0 9 -0.578107 1
gene 1 10 20 -0.340242 0 10 -0.340242 1
gene 1 11 20 -0.827168 0 11 -0.827168 1
gene 1 12 20 -0.000872597 0 12 -0.000872597 1
gene 1 13 20 -0.545255 0 13 -0.545255 1
gene 1 14 20 -0.873388 0 14 -0.873388 1
gene 1 15 20 0.436463 0 15 0.436463 1
gene 1 16 20 0.0489665 0 16 0.0489665 1
gene 1 17 20 1.32273 0 17 1.32273 1
gene 1 18 20 0.276715 0 18 0.276715 1
gene 1 19 20 0.404542 0 19 0.404542 1
gene 1 1 21 0.725657 0 20 0.725657 1
gene 1 2 21 -0.0265872 0 21 -0.0265872 1
gene 1 3 21 0.482431 0 22 0.482431 1
gene 1 4 21 -0.142861 0 23 -0.142861 1
gene 1 5 21 -0.0422528 0 24 -0.0422528 1
gene 1 6 21 -0.328677 0 25 -0.328677 1
gene 1 7 21 -0.302532 0 26 -0.302532 1
gene 1 8 21 -0.138317 0 27 -0.138317 1
gene 1 9 21 -0.98955 0 28 -0.98955 1
gene 1 10 21 -0.0113169 0 29 -0.0113169 1
gene 1 11 21 0.0526925 0 30 0.0526925 1
gene 1 12 21 0.00825496 0 31 0.00825496 1
gene 1 13 21 0.778827 0 32 0.778827 1
gene 1 14 21 -0.354435 0 33 -0.354435 1
gene 1 15 21 -0.470083 0 34 -0.470083 1
gene 1 16 21 -0.272292 0 35 -0.272292 1
gene 1 17 21 -0.492485 0 36 -0.492485 1
gene 1 18 21 -0.485133 0 37 -0.485133 1
gene 1 19 21 -0.215982 0 38 -0.215982 1
gene 1 1 22 0.393306 0 39 0.393306 1
gene 1 2 22 -0.561794 0 40 -0.561794 1
gene 1 3 22 0.0438423 0 41 0.0438423 1
gene 1 4 22 1.12231 0 42 1.12231 1
gene 1 5 22 -0.245911 0 43 -0.245911 1
gene 1 6 22 -0.241533 0 44 -0.241533 1
gene 1 7 22 -1.27014 0 45 -1.27014 1
gene 1 8 22 2.88621 0 46 2.88621 1
gene 1 9 22 0.74333 0 47 0.74333 1
gene 1 10 22 -0.473142 0 48 -0.473142 1
gene 1 11 22 0.653113 0 49 0.653113 1
gene 1 12 22 0.359359 0 50 0.359359 1
gene 1 13 22 -0.312357 0 51 -0.312357 1
gene 1 14 22 0.861702 0 52 0.861702 1
gene 1 15 22 -0.0345141 0 53 -0.0345141 1
gene 1 16 22 0.964977 0 54 0.964977 1
gene 1 17 22 0.65276 0 55 0.65276 1
gene 1 18 22 -0.219148 0 56 -0.219148 1
gene 1 19 22 2.54184 0 57 2.54184 1
gene 1 1 23 -0.431988 0 58 -0.431988 1
gene 1 2 23 0.833165 0 59 0.833165 1
gene 1 3 23 -0.229929 0 60 -0.229929 1
gene 1 4 23 1.6186 0 61 1.6186 1
gene 1 5 23 1.36933 0 62 1.36933 1
gene 1 6 23 0.568415 0 63 0.568415 1
gene 1 7 23 -1.3757 0 64 -1.3757 1
gene 1 8 23 0.278592 0 65 0.278592 1
gene 1 9 23 -0.392714 0 66 -0.392714 1
gene 1 10 23 0.362589 0 67 0.362589 1
gene 1 11 23 -0.279994 0 68 -0.279994 1
gene 1 12 23 -1.92435 0 69 -1.92435 1
gene 1 13 23 0.00221574 0 70 0.00221574 1
gene 1 14 23 -0.371603 0 71 -0.371603 1
gene 1 15 23 -0.767731 0 72 -0.767731 0
gene 1 16 23 -0.529148 0 73 -0.529148 1
gene 1 17 23 0.214381 0 74 0.214381 1
gene 1 18 23 -0.695856 0 75 -0.695856 1
gene 1 19 23 -0.316701 0 76 -0.316701 1
gene 1 21 20 -0.870773 0 78 -0.870773 1
gene 1 22 22 -0.102101 1 83 -0.102101 1
gene 1 10 28 -0.374444 0 92 -0.374444 1
gene 1 28 20 -0.162449 0 93 -0.162449 1
gene 1 20 22 0.0683371 0 118 0.0683371 1
gene 1 3 35 -0.0494048 0 129 -0.0494048 1
gene 1 35 20 0.241523 0 130 0.241523 1
gene 1 1 36 -0.379381 0 131 -0.379381 1
gene 1 36 20 0.127407 0 132 0.127407 1
gene 1 23 23 -0.2972 1 206 -0.2972 1
gene 1 6 35 -0.837701 0 233 -0.837701 1
gene 1 14 68 -0.0238206 0 261 -0.0238206 1
gene 1 68 20 0.377966 0 262 0.377966 1
gene 1 4 28 0.366204 0 265 0.366204 1
gene 1 15 36 -0.271721 0 273 -0.271721 1
gene 1 12 72 -0.204505 0 283 -0.204505 1
gene 1 72 20 0.882575 0 284 0.882575 1
gene 1 15 75 1.68602 0 290 1.68602 1
gene 1 75 23 0.534105 0 291 0.534105 1
genomeend 144
genomestart 145
trait 1 0.470286 0.284976 0.703207 0.263628 0.0261958 0.786438 0.22375 0.308297 
node 1 1 1 1 0
node 2 1 1 1 0
node 3 1 1 1 0
node 4 1 1 1 0
node 5 1 1 1 0
node 6 1 1 1 0
node 7 1 1 1 0
node 8 1 1 1 0
node 9 1 1 1 0
node 10 1 1 1 0
node 11 1 1 1 0
node 12 1 1 1 0
node 13 1 1 1 0
node 14 1 1 1 0
node 15 1 1 1 0
node 16 1 1 1 0
node 17 1 1 1 0
node 18 1 1 1 0
node 19 1 1 3 0
node 20 1 0 2 0
node 21 1 0 2 0
node 22 1 0 2 0
node 23 1 0 2 0
node 28 1 0 0 0
node 35 1 0 0 0
node 36 1 0 0 0
node 68 1 0 0 0
node 72 1 0 0 0
node 75 1 0 0 0
gene 1 1 20 0.380104 0 1 0.380104 0
gene 1 2 20 -0.0961121 0 2 -0.0961121 1
gene 1 3 20 -0.0803407 0 3 -0.0803407 1
gene 1 4 20 0.0466561 0 4 0.0466561 1
gene 1 5 20 -0.227006 0 5 -0.227006 1
gene 1 6 20 0.225995 0 6 0.225995 1
gene 1 7 20 1.63344 0 7 1.63344 1
gene 1 8 20 -0.435847 0 8 -0.435847 1
gene 1 9 20 -0.864385 0 9 -0.864385 1
gene 1 10 20 0.271812 0 10 0.271812 1
gene 1 11 20 0.470281 0 11 0.470281 1
gene 1 12 20 0.0323386 0 12 0.0323386 1
gene 1 13 20 -0.966576 0 13 -0.966576 1
gene 1 14 20 -0.240156 0 14 -0.240156 0
gene 1 15 20 -0.180329 0 15 -0.180329 1
gene 1 16 20 0.45051 0 16 0.45051 1
gene 1 17 20 -0.338801 0 17 -0.338801 1
gene 1 18 20 -0.127813 0 18 -0.127813 1
gene 1 19 20 0.230278 0 19 0.230278 1
gene 1 1 21 0.16656 0 20 0.16656 1
gene 1 2 21 -1.12596 0 21 -1.12596 1
gene 1 3 21 -1.89244 0 22 -1.89244 1
gene 1 4 21 0.196056 0 23 0.196056 1
gene 1 5 21 -0.211704 0 24 -0.211704 1
gene 1 6 21 0.0275582 0 25 0.0275582 1
gene 1 7 21 0.667222 0 26 0.667222 1
gene 1 8 21 -0.00903476 0 27 -0.00903476 1
gene 1 9 21 0.285056 0 28 0.285056 1
gene 1 10 21 -0.482506 0 29 -0.482506 1
gene 1 11 21 -1.26786 0 30 -1.26786 1
gene 1 12 21 0.897116 0 31 0.897116 1
gene 1 13 21 -0.153353 0 32 -0.153353 1
gene 1 14 21 -0.39597 0 33 -0.39597 1
gene 1 15 21 0.0276467 0 34 0.0276467 1
gene 1 16 21 -0.24947 0 35 -0.24947 1
gene 1 17 21 -0.376518 0 36 -0.376518 1
gene 1 18 21 -0.73174 0 37 -0.73174 1
gene 1 19 21 0.100923 0 38 0.100923 1
gene 1 1 22 -0.115579 0 39 -0.115579 1
gene 1 2 22 -2.84381 0 40 -2.84381 1
gene 1 3 22 0.261244 0 41 0.261244 1
gene 1 4 22 -1.87579 0 42 -1.87579 1
gene 1 5 22 -0.227991 0 43 -0.227991 1
gene 1 6 22 -0.0456265 0 44 -0.0456265 1
gene 1 7 22 -0.21706 0 45 -0.21706 1
gene 1 8 22 2.88543 0 46 2.88543 1
gene 1 9 22 0.317703 0 47 0.317703 1
gene 1 10 22 -0.1531 0 48 -0.1531 1
gene 1 11 22 0.126676 0 49 0.126676 1
gene 1 12 22 0.0523138 0 50 0.0523138 1
gene 1 13 22 0.787177 0 51 0.787177 1
gene 1 14 22 0.778683 0 52 0.778683 1
gene 1 15 22 -0.435654 0 53 -0.435654 1
gene 1 16 22 -1.36477 0 54 -1.36477 1
gene 1 17 22 -0.516515 0 55 -0.516515 1
gene 1 18 22 -0.0483343 0 56 -0.0483343 1
gene 1 19 22 -0.423041 0 57 -0.423041 1
gene 1 1 23 -0.286699 0 58 -0.286699 1
gene 1 2 23 -0.392282 0 59 -0.392282 1
gene 1 3 23 0.425708 0 60 0.425708 1
gene 1 4 23 -0.358728 0 61 -0.358728 1
gene 1 5 23 -0.611204 0 62 -0.611204 1
gene 1 6 23 1.38745 0 63 1.38745 1
gene 1 7 23 -0.0230164 0 64 -0.0230164 1
gene 1 8 23 -1.09687 0 65 -1.09687 1
gene 1 9 23 0.403461 0 66 0.403461 1
gene 1 10 23 -0.238772 0 67 -0.238772 1
gene 1 11 23 0.153205 0 68 0.153205 1
gene 1 12 23 -0.164645 0 69 -0.164645 1
gene 1 13 23 -0.499233 0 70 -0.499233 1
gene 1 14 23 0.130905 0 71 0.130905 1
gene 1 15 23 -0.706129 0 72 -0.706129 0
gene 1 16 23 -0.183637 0 73 -0.183637 1
gene 1 17 23 -0.117836 0 74 -0.117836 1
gene 1 18 23 0.932015 0 75 0.932015 1
gene 1 19 23 0.231848 0 76 0.231848 1
gene 1 21 20 -0.237287 0 78 -0.237287 1
gene 1 22 22 -0.31047 1 83 -0.31047 1
gene 1 10 28 0.0252243 0 92 0.0252243 1
gene 1 28 20 -0.470013 0 93 -0.470013 1
gene 1 20 22 -0.40234 0 118 -0.40234 1
gene 1 3 35 0.0223735 0 129 0.0223735 1
gene 1 35 20 1.08478 0 130 1.08478 1
gene 1 1 36 -0.0798626 0 131 -0.0798626 1
gene 1 36 20 0.140406 0 132 0.140406 1
gene 1 23 23 -0.430852 1 206 -0.430852 1
gene 1 6 35 0.712085 0 233 0.712085 1
gene 1 14 68 0.0146815 0 261 0.0146815 1
gene 1 68 20 -0.229597 0 262 -0.229597 1
gene 1 4 28 -0.373661 0 265 -0.373661 1
gene 1 15 36 1.28261 0 273 1.28261 1
gene 1 12 72 0.92343 0 283 0.92343 1
gene 1 72 20 1.25296 0 284 1.25296 1
gene 1 15 75 -0.435003 0 290 -0.435003 1
gene 1 75 23 -0.34619 0 291 -0.34619 1
genomeend 145
genomestart 146
trait 1 0.868651 0.284976 0.946977 0.263628 0.0261958 1 0.21597 0.308297 
node 1 1 1 1 0
node 2 1 1 1 0
node 3 1 1 1 0
node 4 1 1 1 0
node 5 1 1 1 0
node 6 1 1 1 0
node 7 1 1 1 0
node 8 1 1 1 0
node 9 1 1 1 0
node 10 1 1 1 0
node 11 1 1 1 0
node 12 1 1 1 0
node 13 1 1 1 0
node 14 1 1 1 0
node 15 1 1 1 0
node 16 1 1 1 0
node 17 1 1 1 0
node 18 1 1 1 0
node 19 1 1 3 0
node 20 1 0 2 0
node 21 1 0 2 0
node 22 1 0 2 0
node 23 1 0 2 0
node 28 1 0 0 0
node 35 1 0 0 0
node 36 1 0 0 0
node 68 1 0 0 0
node 72 1 0 0 0
node 75 1 0 0 0
gene 1 1 20 0.647323 0 1 0.647323 1
gene 1 2 20 -1.34932 0 2 -1.34932 1
gene 1 3 20 -0.155781 0 3 -0.155781 1
gene 1 4 20 0.0779824 0 4 0.0779824 1
gene 1 5 20 0.495612 0 5 0.495612 1
gene 1 6 20 -0.907651 0 6 -0.907651 1
gene 1 7 20 2.39914 0 7 2.39914 1
gene 1 8 20 0.379512 0 8 0.379512 1
gene 1 9 20 0.465563 0 9 0.465563 1
gene 1 10 20 -0.930147 0 10 -0.930147 1
gene 1 11 20 0.652869 0 11 0.652869 1
gene 1 12 20 0.262686 0 12 0.262686 1
gene 1 13 20 -0.705193 0 13 -0.705193 1
gene 1 14 20 -0.0344749 0 14 -0.0344749 0
gene 1 15 20 -0.230522 0 15 -0.230522 1
gene 1 16 20 -0.0592417 0 16 -0.0592417 1
gene 1 17 20 -0.784037 0 17 -0.784037 1
gene 1 18 20 -0.509352 0 18 -0.509352 1
gene 1 19 20 -0.624978 0 19 -0.624978 1
gene 1 1 21 0.289546 0 20 0.289546 1
gene 1 2 21 -1.3974 0 21 -1.3974 1
gene 1 3 21 -2.15343 0 22 -2.15343 1
gene 1 4 21 0.555205 0 23 0.555205 1
gene 1 5 21 0.563529 0 24 0.563529 1
gene 1 6 21 0.901588 0 25 0.901588 1
gene 1 7 21 0.570199 0 26 0.570199 1
gene 1 8 21 0.865767 0 27 0.865767 1
gene 1 9 21 0.126965 0 28 0.126965 1
gene 1 10 21 0.914824 0 29 0.914824 1
gene 1 11 21 -1.92807 0 30 -1.92807 1
gene 1 12 21 1.07683 0 31 1.07683 1
gene 1 13 21 0.246474 0 32 0.246474 1
gene 1 14 21 0.168304 0 33 0.168304 1
gene 1 15 21 0.226923 0 34 0.226923 1
gene 1 16 21 0.294714 0 35 0.294714 1
gene 1 17 21 0.119992 0 36 0.119992 1
gene 1 18 21 -0.0714357 0 37 -0.0714357 1
gene 1 19 21 0.68742 0 38 0.68742 1
gene 1 1 22 0.234961 0 39 0.234961 1
gene 1 2 22 -2.83001 0 40 -2.83001 1
gene 1 3 22 -0.0287845 0 41 -0.0287845 1
gene 1 4 22 -0.94746 0 42 -0.94746 1
gene 1 5 22 0.456145 0 43 0.456145 1
gene 1 6 22 0.464017 0 44 0.464017 1
gene 1 7 22 -0.162489 0 45 -0.162489 1
gene 1 8 22 3 0 46 3 1
gene 1 9 22 0.380233 0 47 0.380233 1
gene 1 10 22 0.244554 0 48 0.244554 1
gene 1 11 22 -0.500042 0 49 -0.500042 1
gene 1 12 22 0.564042 0 50 0.564042 1
gene 1 13 22 0.0787428 0 51 0.0787428 1
gene 1 14 22 1.07875 0 52 1.07875 1
gene 1 15 22 0.305156 0 53 0.305156 1
gene 1 16 22 -1.06933 0 54 -1.06933 1
gene 1 17 22 -0.358229 0 55 -0.358229 1
gene 1 18 22 -0.203272 0 56 -0.203272 1
gene 1 19 22 1.40612 0 57 1.40612 1
gene 1 1 23 1.6012 0 58 1.6012 1
gene 1 2 23 0.604211 0 59 0.604211 1
gene 1 3 23 -0.240361 0 60 -0.240361 1
gene 1 4 23 1.11115 0 61 1.11115 1
gene 1 5 23 -0.553235 0 62 -0.553235 1
gene 1 6 23 1.3194 0 63 1.3194 1
gene 1 7 23 -0.864915 0 64 -0.864915 1
gene 1 8 23 -1.10497 0 65 -1.10497 1
gene 1 9 23 -0.460631 0 66 -0.460631 1
gene 1 10 23 -0.050221 0 67 -0.050221 1
gene 1 11 23 0.481319 0 68 0.481319 1
gene 1 12 23 -0.791746 0 69 -0.791746 1
gene 1 13 23 0.356919 0 70 0.356919 1
gene 1 14 23 -0.139017 0 71 -0.139017 1
gene 1 15 23 -0.717413 0 72 -0.717413 0
gene 1 16 23 0.166524 0 73 0.166524 1
gene 1 17 23 -1.48599 0 74 -1.48599 1
gene 1 18 23 0.95079 0 75 0.95079 1
gene 1 19 23 -0.639358 0 76 -0.639358 1
gene 1 21 20 -0.634592 0 78 -0.634592 1
gene 1 22 22 0.174547 1 83 0.174547 1
gene 1 10 28 -1.0662 0 92 -1.0662 1
gene 1 28 20 -0.45533 0 93 -0.45533 1
gene 1 20 22 -0.763213 0 118 -0.763213 1
gene 1 3 35 -0.476242 0 129 -0.476242 1
gene 1 35 20 1.29362 0 130 1.29362 1
gene 1 1 36 -0.565554 0 131 -0.565554 1
gene 1 36 20 -0.159241 0 132 -0.159241 1
gene 1 23 23 0.150235 1 206 0.150235 1
gene 1 6 35 -0.468497 0 233 -0.468497 1
gene 1 14 68 0.0883443 0 261 0.0883443 1
gene 1 68 20 0.0193978 0 262 0.0193978 1
gene 1 4 28 0.28779 0 265 0.28779 1
gene 1 15 36 1.10718 0 273 1.10718 1
gene 1 12 72 1.26026 0 283 1.26026 1
gene 1 72 20 0.672496 0 284 0.672496 1
gene 1 15 75 0.391412 0 290 0.391412 1
gene 1 75 23 0.155898 0 291 0.155898 1
genomeend 146
genomestart 147
trait 1 0.470286 0 1 0 0.0261958 1 0.22375 0 
node 1 1 1 1 0
node 2 1 1 1 0
node 3 1 1 1 0
node 4 1 1 1 0
node 5 1 1 1 0
node 6 1 1 1 0
node 7 1 1 1 0
node 8 1 1 1 0
node 9 1 1 1 0
node 10 1 1 1 0
node 11 1 1 1 0
node 12 1 1 1 0
node 13 1 1 1 0
node 14 1 1 1 0
node 15 1 1 1 0
node 16 1 1 1 0
node 17 1 1 1 0
node 18 1 1 1 0
node 19 1 1 3 0
node 20 1 0 2 0
node 21 1 0 2 0
node 22 1 0 2 0
node 23 1 0 2 0
node 28 1 0 0 0
node 35 1 0 0 0
node 36 1 0 0 0
node 68 1 0 0 0
node 72 1 0 0 0
node 75 1 0 0 0
gene 1 1 20 1.18853 0 1 1.18853 0
gene 1 2 20 -1.03729 0 2 -1.03729 1
gene 1 3 20 -0.276501 0 3 -0.276501 1
gene 1 4 20 0.195097 0 4 0.195097 1
gene 1 5 20 0.00406979 0 5 0.00406979 1
gene 1 6 20 -0.275162 0 6 -0.275162 1
gene 1 7 20 1.78534 0 7 1.78534 1
gene 1 8 20 0.348889 0 8 0.348889 1
gene 1 9 20 -0.512448 0 9 -0.512448 1
gene 1 10 20 -0.635605 0 10 -0.635605 1
gene 1 11 20 0.391595 0 11 0.391595 1
gene 1 12 20 0.590237 0 12 0.590237 1
gene 1 13 20 -0.894949 0 13 -0.894949 1
gene 1 14 20 0.696206 0 14 0.696206 0
gene 1 15 20 -0.418722 0 15 -0.418722 1
gene 1 16 20 0.485007 0 16 0.485007 1
gene 1 17 20 -0.265178 0 17 -0.265178 1
gene 1 18 20 -0.138408 0 18 -0.138408 1
gene 1 19 20 -0.0682091 0 19 -0.0682091 1
gene 1 1 21 0.180594 0 20 0.180594 1
gene 1 2 21 -1.22631 0 21 -1.22631 1
gene 1 3 21 -1.62288 0 22 -1.62288 1
gene 1 4 21 0.247196 0 23 0.247196 1
gene 1 5 21 -0.491835 0 24 -0.491835 1
gene 1 6 21 0.502984 0 25 0.502984 1
gene 1 7 21 0.0273272 0 26 0.0273272 1
gene 1 8 21 1.54086 0 27 1.54086 1
gene 1 9 21 0.315685 0 28 0.315685 1
gene 1 10 21 0.352135 0 29 0.352135 1
gene 1 11 21 -1.32666 0 30 -1.32666 1
gene 1 12 21 -0.511598 0 31 -0.511598 1
gene 1 13 21 0.244137 0 32 0.244137 1
gene 1 14 21 -0.837809 0 33 -0.837809 1
gene 1 15 21 -0.373138 0 34 -0.373138 1
gene 1 16 21 0.338434 0 35 0.338434 1
gene 1 17 21 0.143243 0 36 0.143243 1
gene 1 18 21 -0.667767 0 37 -0.667767 1
gene 1 19 21 -0.0604658 0 38 -0.0604658 1
gene 1 1 22 -0.572 0 39 -0.572 1
gene 1 2 22 -2.37795 0 40 -2.37795 1
gene 1 3 22 -0.274568 0 41 -0.274568 1
gene 1 4 22 -1.05507 0 42 -1.05507 1
gene 1 5 22 0.99786 0 43 0.99786 1
gene 1 6 22 0.281979 0 44 0.281979 1
gene 1 7 22 0.148074 0 45 0.148074 1
gene 1 8 22 3 0 46 3 1
gene 1 9 22 0.792432 0 47 0.792432 1
gene 1 10 22 -0.0929006 0 48 -0.0929006 1
gene 1 11 22 -0.142485 0 49 -0.142485 1
gene 1 12 22 -0.0148477 0 50 -0.0148477 1
gene 1 13 22 0.552639 0 51 0.552639 1
gene 1 14 22 0.227455 0 52 0.227455 1
gene 1 15 22 0.190649 0 53 0.190649 1
gene 1 16 22 -0.955144 0 54 -0.955144 1
gene 1 17 22 -0.391775 0 55 -0.391775 1
gene 1 18 22 0.417531 0 56 0.417531 1
gene 1 19 22 1.7144 0 57 1.7144 1
gene 1 1 23 0.104443 0 58 0.104443 1
gene 1 2 23 -0.53269 0 59 -0.53269 1
gene 1 3 23 -1.06156 0 60 -1.06156 1
gene 1 4 23 0.547545 0 61 0.547545 1
gene 1 5 23 0.010525 0 62 0.010525 1
gene 1 6 23 1.24671 0 63 1.24671 1
gene 1 7 23 -0.659283 0 64 -0.659283 1
gene 1 8 23 -1.02203 0 65 -1.02203 1
gene 1 9 23 0.787468 0 66 0.787468 1
gene 1 10 23 -0.42684 0 67 -0.42684 1
gene 1 11 23 0.181361 0 68 0.181361 1
gene 1 12 23 -1.12767 0 69 -1.12767 1
gene 1 13 23 -0.350948 0 70 -0.350948 1
gene 1 14 23 0.751619 0 71 0.751619 1
gene 1 15 23 -0.706289 0 72 -0.706289 0
gene 1 16 23 -0.501258 0 73 -0.501258 1
gene 1 17 23 -0.236728 0 74 -0.236728 1
gene 1 18 23 0.625061 0 75 0.625061 1
gene 1 19 23 0.236241 0 76 0.236241 1
gene 1 21 20 -0.97951 0 78 -0.97951 1
gene 1 22 22 0.278424 1 83 0.278424 1
gene 1 10 28 -1.40456 0 92 -1.40456 1
gene 1 28 20 1.17007 0 93 1.17007 1
gene 1 20 22 0.255264 0 118 0.255264 1
gene 1 3 35 -0.0205163 0 129 -0.0205163 1
gene 1 35 20 -0.432434 0 130 -0.432434 1
gene 1 1 36 -0.286972 0 131 -0.286972 1
gene 1 36 20 0.180947 0 132 0.180947 1
gene 1 23 23 -0.698464 1 206 -0.698464 1
gene 1 6 35 1.13568 0 233 1.13568 1
gene 1 14 68 -0.256004 0 261 -0.256004 1
gene 1 68 20 -0.842393 0 262 -0.842393 1
gene 1 4 28 -0.489871 0 265 -0.489871 1
gene 1 15 36 0.779434 0 273 0.779434 1
gene 1 12 72 1.82828 0 283 1.82828 1
gene 1 72 20 -0.221783 0 284 -0.221783 1
gene 1 15 75 0.281443 0 290 0.281443 1
gene 1 75 23 -0.39837 0 291 -0.39837 1
genomeend 147
genomestart 148
trait 1 0.470286 0.284976 0.703207 0.263628 0.0261958 0.786438 0.22375 0.308297 
node 1 1 1 1 0
node 2 1 1 1 0
node 3 1 1 1 0
node 4 1 1 1 0
node 5 1 1 1 0
node 6 1 1 1 0
node 7 1 1 1 0
node 8 1 1 1 0
node 9 1 1 1 0
node 10 1 1 1 0
node 11 1 1 1 0
node 12 1 1 1 0
node 13 1 1 1 0
node 14 1 1 1 0
node 15 1 1 1 0
node 16 1 1 1 0
node 17 1 1 1 0
node 18 1 1 1 0
node 19 1 1 3 0
node 20 1 0 2 0
node 21 1 0 2 0
node 22 1 0 2 0
node 23 1 0 2 0
node 28 1 0 0 0
node 35 1 0 0 0
node 36 1 0 0 0
node 68 1 0 0 0
node 72 1 0 0 0
node 75 1 0 0 0
gene 1 1 20 0.389961 0 1 0.389961 0
gene 1 2 20 -0.576902 0 2 -0.576902 1
gene 1 3 20 -0.307308 0 3 -0.307308 1
gene 1 4 20 0.00716859 0 4 0.00716859 1
gene 1 5 20 -0.304382 0 5 -0.304382 1
gene 1 6 20 0.208325 0 6 0.208325 1
gene 1 7 20 2.10956 0 7 2.10956 1
gene 1 8 20 -0.445915 0 8 -0.445915 1
gene 1 9 20 0.275756 0 9 0.275756 1
gene 1 10 20 -0.272987 0 10 -0.272987 1
gene 1 11 20 0.369918 0 11 0.369918 1
gene 1 12 20 1.04491 0 12 1.04491 1
gene 1 13 20 -1.3053 0 13 -1.3053 1
gene 1 14 20 -0.102448 0 14 -0.102448 0
gene 1 15 20 0.185661 0 15 0.185661 1
gene 1 16 20 0.199817 0 16 0.199817 1
gene 1 17 20 -0.275146 0 17 -0.275146 1
gene 1 18 20 -0.582027 0 18 -0.582027 1
gene 1 19 20 -0.35158 0 19 -0.35158 1
gene 1 1 21 -0.257232 0 20 -0.257232 1
gene 1 2 21 -0.914715 0 21 -0.914715 1
gene 1 3 21 -1.43745 0 22 -1.43745 1
gene 1 4 21 1.01553 0 23 1.01553 1
gene 1 5 21 0.219549 0 24 0.219549 1
gene 1 6 21 -0.367962 0 25 -0.367962 1
gene 1 7 21 -0.0805073 0 26 -0.0805073 1
gene 1 8 21 1.03505 0 27 1.03505 1
gene 1 9 21 0.500521 0 28 0.500521 1
gene 1 10 21 0.213026 0 29 0.213026 1
gene 1 11 21 -1.08147 0 30 -1.08147 1
gene 1 12 21 0.214545 0 31 0.214545 1
gene 1 13 21 -0.163278 0 32 -0.163278 1
gene 1 14 21 -0.024305 0 33 -0.024305 1
gene 1 15 21 0.142412 0 34 0.142412 1
gene 1 16 21 -0.0917159 0 35 -0.0917159 1
gene 1 17 21 -0.0871537 0 36 -0.0871537 1
gene 1 18 21 -0.392906 0 37 -0.392906 1
gene 1 19 21 0.391346 0 38 0.391346 1
gene 1 1 22 -0.536833 0 39 -0.536833 1
gene 1 2 22 -2.44144 0 40 -2.44144 1
gene 1 3 22 -0.327408 0 41 -0.327408 1
gene 1 4 22 0.389716 0 42 0.389716 1
gene 1 5 22 -0.146027 0 43 -0.146027 1
gene 1 6 22 0.576152 0 44 0.576152 1
gene 1 7 22 0.123656 0 45 0.123656 1
gene 1 8 22 2.55414 0 46 2.55414 1
gene 1 9 22 -0.12657 0 47 -0.12657 1
gene 1 10 22 0.193918 0 48 0.193918 1
gene 1 11 22 -0.509524 0 49 -0.509524 1
gene 1 12 22 0.0404082 0 50 0.0404082 1
gene 1 13 22 0.611406 0 51 0.611406 1
gene 1 14 22 0.92001 0 52 0.92001 1
gene 1 15 22 -0.187022 0 53 -0.187022 1
gene 1 16 22 -1.18678 0 54 -1.18678 1
gene 1 17 22 0.0470712 0 55 0.0470712 1
gene 1 18 22 0.263077 0 56 0.263077 1
gene 1 19 22 1.42652 0 57 1.42652 1
gene 1 1 23 0.935476 0 58 0.935476 1
gene 1 2 23 -0.492401 0 59 -0.492401 1
gene 1 3 23 -0.206134 0 60 -0.206134 1
gene 1 4 23 0.721389 0 61 0.721389 1
gene 1 5 23 -0.139456 0 62 -0.139456 1
gene 1 6 23 0.778008 0 63 0.778008 1
gene 1 7 23 -0.776305 0 64 -0.776305 1
gene 1 8 23 -1.4584 0 65 -1.4584 1
gene 1 9 23 0.110357 0 66 0.110357 1
gene 1 10 23 0.389399 0 67 0.389399 1
gene 1 11 23 0.0843137 0 68 0.0843137 1
gene 1 12 23 -0.654578 0 69 -0.654578 1
gene 1 13 23 -0.163387 0 70 -0.163387 1
gene 1 14 23 0.00959472 0 71 0.00959472 1
gene 1 15 23 0.0735767 0 72 0.0735767 0
gene 1 16 23 -0.121699 0 73 -0.121699 1
gene 1 17 23 -0.4531 0 74 -0.4531 1
gene 1 18 23 0.249301 0 75 0.249301 1
gene 1 19 23 -0.130306 0 76 -0.130306 1
gene 1 21 20 -0.452632 0 78 -0.452632 1
gene 1 22 22 -0.395916 1 83 -0.395916 1
gene 1 10 28 -0.54212 0 92 -0.54212 1
gene 1 28 20 0.94549 0 93 0.94549 1
gene 1 20 22 -0.672799 0 118 -0.672799 1
gene 1 3 35 -0.0296906 0 129 -0.0296906 1
gene 1 35 20 0.93428 0 130 0.93428 1
gene 1 1 36 -0.103876 0 131 -0.103876 1
gene 1 36 20 0.200436 0 132 0.200436 1
gene 1 23 23 0.586281 1 206 0.586281 1
gene 1 6 35 0.438372 0 233 0.438372 1
gene 1 14 68 0.074234 0 261 0.074234 1
gene 1 68 20 -1.46737 0 262 -1.46737 1
gene 1 4 28 -0.376977 0 265 -0.376977 1
gene 1 15 36 1.00575 0 273 1.00575 1
gene 1 12 72 0.863979 0 283 0.863979 1
gene 1 72 20 0.72216 0 284 0.72216 1
gene 1 15 75 -0.0558286 0 290 -0.0558286 1
gene 1 75 23 -0.543101 0 291 -0.543101 1
genomeend 148
genomestart 149
trait 1 0.470286 0.284976 0.703207 0.263628 0.0261958 0.786438 0.22375 0.308297 
node 1 1 1 1 0
node 2 1 1 1 0
node 3 1 1 1 0
node 4 1 1 1 0
node 5 1 1 1 0
node 6 1 1 1 0
node 7 1 1 1 0
node 8 1 1 1 0
node 9 1 1 1 0
node 10 1 1 1 0
node 11 1 1 1 0
node 12 1 1 1 0
node 13 1 1 1 0
node 14 1 1 1 0
node 15 1 1 1 0
node 16 1 1 1 0
node 17 1 1 1 0
node 18 1 1 1 0
node 19 1 1 3 0
node 20 1 0 2 0
node 21 1 0 2 0
node 22 1 0 2 0
node 23 1 0 2 0
node 28 1 0 0 0
node 35 1 0 0 0
node 36 1 0 0 0
node 68 1 0 0 0
node 72 1 0 0 0
node 75 1 0 0 0
gene 1 1 20 -0.757287 0 1 -0.757287 0
gene 1 2 20 -1.80524 0 2 -1.80524 1
gene 1 3 20 0.178032 0 3 0.178032 1
gene 1 4 20 -0.920161 0 4 -0.920161 1
gene 1 5 20 0.407896 0 5 0.407896 1
gene 1 6 20 0.290329 0 6 0.290329 1
gene 1 7 20 -0.329837 0 7 -0.329837 1
gene 1 8 20 0.243363 0 8 0.243363 1
gene 1 9 20 -0.313079 0 9 -0.313079 1
gene 1 10 20 -0.46994 0 10 -0.46994 1
gene 1 11 20 -0.493411 0 11 -0.493411 1
gene 1 12 20 1.23053 0 12 1.23053 1
gene 1 13 20 0.37143 0 13 0.37143 1
gene 1 14 20 -0.0563902 0 14 -0.0563902 1
gene 1 15 20 -0.334469 0 15 -0.334469 1
gene 1 16 20 -0.485579 0 16 -0.485579 1
gene 1 17 20 0.464073 0 17 0.464073 1
gene 1 18 20 0.269441 0 18 0.269441 1
gene 1 19 20 0.809427 0 19 0.809427 1
gene 1 1 21 0.0757374 0 20 0.0757374 1
gene 1 2 21 -0.484988 0 21 -0.484988 1
gene 1 3 21 -2.25893 0 22 -2.25893 1
gene 1 4 21 0.112782 0 23 0.112782 1
gene 1 5 21 0.23997 0 24 0.23997 1
gene 1 6 21 -0.701459 0 25 -0.701459 1
gene 1 7 21 0.98826 0 26 0.98826 1
gene 1 8 21 -0.0077951 0 27 -0.0077951 1
gene 1 9 21 0.500219 0 28 0.500219 1
gene 1 10 21 0.256857 0 29 0.256857 1
gene 1 11 21 -0.181565 0 30 -0.181565 1
gene 1 12 21 0.244015 0 31 0.244015 1
gene 1 13 21 0.117012 0 32 0.117012 1
gene 1 14 21 -0.381418 0 33 -0.381418 1
gene 1 15 21 0.13184 0 34 0.13184 1
gene 1 16 21 -0.182147 0 35 -0.182147 1
gene 1 17 21 -0.667141 0 36 -0.667141 1
gene 1 18 21 -0.613219 0 37 -0.613219 1
gene 1 19 21 -0.300277 0 38 -0.300277 1
gene 1 1 22 0.233222 0 39 0.233222 1
gene 1 2 22 0.297029 0 40 0.297029 1
gene 1 3 22 0.0775447 0 41 0.0775447 1
gene 1 4 22 -0.820192 0 42 -0.820192 1
gene 1 5 22 0.678264 0 43 0.678264 1
gene 1 6 22 0.669557 0 44 0.669557 1
gene 1 7 22 0.278573 0 45 0.278573 1
gene 1 8 22 -0.0424648 0 46 -0.0424648 1
gene 1 9 22 0.0695835 0 47 0.0695835 1
gene 1 10 22 -0.203635 0 48 -0.203635 1
gene 1 11 22 -0.189341 0 49 -0.189341 1
gene 1 12 22 0.396398 0 50 0.396398 1
gene 1 13 22 0.3541 0 51 0.3541 1
gene 1 14 22 0.149393 0 52 0.149393 1
gene 1 15 22 -0.0973393 0 53 -0.0973393 1
gene 1 16 22 -0.203506 0 54 -0.203506 1
gene 1 17 22 -0.291492 0 55 -0.291492 1
gene 1 18 22 0.242523 0 56 0.242523 1
gene 1 19 22 1.5491 0 57 1.5491 1
gene 1 1 23 0.139797 0 58 0.139797 1
gene 1 2 23 -0.138484 0 59 -0.138484 1
gene 1 3 23 0.34548 0 60 0.34548 1
gene 1 4 23 -0.361056 0 61 -0.361056 1
gene 1 5 23 0.180039 0 62 0.180039 1
gene 1 6 23 2.03412 0 63 2.03412 1
gene 1 7 23 -0.695504 0 64 -0.695504 1
gene 1 8 23 -0.42277 0 65 -0.42277 1
gene 1 9 23 0.1627 0 66 0.1627 1
gene 1 10 23 -0.576003 0 67 -0.576003 1
gene 1 11 23 -0.247716 0 68 -0.247716 1
gene 1 12 23 -0.343228 0 69 -0.343228 1
gene 1 13 23 -0.954829 0 70 -0.954829 1
gene 1 14 23 -0.451451 0 71 -0.451451 1
gene 1 15 23 -0.389173 0 72 -0.389173 0
gene 1 16 23 1.10181 0 73 1.10181 1
gene 1 17 23 -0.394384 0 74 -0.394384 1
gene 1 18 23 -0.337173 0 75 -0.337173 1
gene 1 19 23 -0.0170491 0 76 -0.0170491 1
gene 1 21 20 -0.0710248 0 78 -0.0710248 1
gene 1 22 22 -0.306083 1 83 -0.306083 1
gene 1 10 28 0.0773914 0 92 0.0773914 1
gene 1 28 20 -0.0727437 0 93 -0.0727437 1
gene 1 20 22 -0.233702 0 118 -0.233702 1
gene 1 3 35 0.616226 0 129 0.616226 1
gene 1 35 20 0.169459 0 130 0.169459 1
gene 1 1 36 -0.208924 0 131 -0.208924 1
gene 1 36 20 0.207213 0 132 0.207213 1
gene 1 23 23 0.498554 1 206 0.498554 1
gene 1 6 35 0.0480663 0 233 0.0480663 1
gene 1 14 68 0.575238 0 261 0.575238 1
gene 1 68 20 0.193592 0 262 0.193592 1
gene 1 4 28 -0.256837 0 265 -0.256837 1
gene 1 15 36 1.31192 0 273 1.31192 1
gene 1 12 72 0.630772 0 283 0.630772 1
gene 1 72 20 0.588188 0 284 0.588188 1
gene 1 15 75 0.108881 0 290 0.108881 1
gene 1 75 23 -0.510619 0 291 -0.510619 1
genomeend 149
genomestart 150
trait 1 0.395303 0.281727 0.784237 0.41143 0.0227217 0.702821 0.249883 0.342792 
node 1 1 1 1 0
node 2 1 1 1 0
node 3 1 1 1 0
node 4 1 1 1 0
node 5 1 1 1 0
node 6 1 1 1 0
node 7 1 1 1 0
node 8 1 1 1 0
node 9 1 1 1 0
node 10 1 1 1 0
node 11 1 1 1 0
node 12 1 1 1 0
node 13 1 1 1 0
node 14 1 1 1 0
node 15 1 1 1 0
node 16 1 1 1 0
node 17 1 1 1 0
node 18 1 1 1 0
node 19 1 1 3 0
node 20 1 0 2 0
node 21 1 0 2 0
node 22 1 0 2 0
node 23 1 0 2 0
node 28 1 0 0 0
node 35 1 0 0 0
node 36 1 0 0 0
node 68 1 0 0 0
node 72 1 0 0 0
node 75 1 0 0 0
gene 1 1 20 0.12768 0 1 0.12768 0
gene 1 2 20 -0.971796 0 2 -0.971796 1
gene 1 3 20 -0.344176 0 3 -0.344176 1
gene 1 4 20 -0.0995277 0 4 -0.0995277 1
gene 1 5 20 -0.217535 0 5 -0.217535 1
gene 1 6 20 0.443434 0 6 0.443434 1
gene 1 7 20 -0.0982024 0 7 -0.0982024 1
gene 1 8 20 -0.519121 0 8 -0.519121 1
gene 1 9 20 0.0565684 0 9 0.0565684 1
gene 1 10 20 -0.606354 0 10 -0.606354 1
gene 1 11 20 0.565208 0 11 0.565208 1
gene 1 12 20 -0.0176612 0 12 -0.0176612 1
gene 1 13 20 -1.23148 0 13 -1.23148 1
gene 1 14 20 -0.298142 0 14 -0.298142 0
gene 1 15 20 0.419598 0 15 0.419598 1
gene 1 16 20 0.161407 0 16 0.161407 1
gene 1 17 20 0.603087 0 17 0.603087 1
gene 1 18 20 -0.877125 0 18 -0.877125 1
gene 1 19 20 0.520671 0 19 0.520671 1
gene 1 1 21 0.122736 0 20 0.122736 1
gene 1 2 21 -0.707829 0 21 -0.707829 1
gene 1 3 21 0.510768 0 22 0.510768 1
gene 1 4 21 -0.674958 0 23 -0.674958 1
gene 1 5 21 0.614404 0 24 0.614404 1
gene 1 6 21 -0.274255 0 25 -0.274255 1
gene 1 7 21 0.284774 0 26 0.284774 1
gene 1 8 21 0.739389 0 27 0.739389 1
gene 1 9 21 -1.35479 0 28 -1.35479 1
gene 1 10 21 0.0751472 0 29 0.0751472 1
gene 1 11 21 -0.423979 0 30 -0.423979 1
gene 1 12 21 0.274669 0 31 0.274669 1
gene 1 13 21 0.354344 0 32 0.354344 1
gene 1 14 21 -0.311759 0 33 -0.311759 1
gene 1 15 21 -0.555366 0 34 -0.555366 1
gene 1 16 21 -0.149108 0 35 -0.149108 1
gene 1 17 21 0.303629 0 36 0.303629 1
gene 1 18 21 0.721063 0 37 0.721063 1
gene 1 19 21 -0.386058 0 38 -0.386058 1
gene 1 1 22 1.1595 0 39 1.1595 1
gene 1 2 22 0.186993 0 40 0.186993 1
gene 1 3 22 0.116609 0 41 0.116609 1
gene 1 4 22 0.437363 0 42 0.437363 1
gene 1 5 22 0.640535 0 43 0.640535 1
gene 1 6 22 0.483988 0 44 0.483988 1
gene 1 7 22 -1.1696 0 45 -1.1696 1
gene 1 8 22 2.37456 0 46 2.37456 1
gene 1 9 22 1.68786 0 47 1.68786 1
gene 1 10 22 0.406211 0 48 0.406211 1
gene 1 11 22 -0.0753879 0 49 -0.0753879 1
gene 1 12 22 1.14383 0 50 1.14383 1
gene 1 13 22 0.780987 0 51 0.780987 1
gene 1 14 22 0.912785 0 52 0.912785 1
gene 1 15 22 -0.422102 0 53 -0.422102 1
gene 1 16 22 -0.635408 0 54 -0.635408 1
gene 1 17 22 0.437584 0 55 0.437584 1
gene 1 18 22 0.256228 0 56 0.256228 1
gene 1 19 22 -0.0479683 0 57 -0.0479683 1
gene 1 1 23 -0.000824665 0 58 -0.000824665 1
gene 1 2 23 0.531264 0 59 0.531264 1
gene 1 3 23 0.0520461 0 60 0.0520461 1
gene 1 4 23 0.583524 0 61 0.583524 1
gene 1 5 23 -0.267099 0 62 -0.267099 1
gene 1 6 23 0.790779 0 63 0.790779 1
gene 1 7 23 -0.688729 0 64 -0.688729 1
gene 1 8 23 0.165882 0 65 0.165882 1
gene 1 9 23 0.235108 0 66 0.235108 1
gene 1 10 23 0.240664 0 67 0.240664 1
gene 1 11 23 0.376052 0 68 0.376052 1
gene 1 12 23 -1.30496 0 69 -1.30496 1
gene 1 13 23 0.362195 0 70 0.362195 1
gene 1 14 23 -0.425303 0 71 -0.425303 1
gene 1 15 23 -1.08822 0 72 -1.08822 0
gene 1 16 23 -1.10529 0 73 -1.10529 1
gene 1 17 23 0.61527 0 74 0.61527 1
gene 1 18 23 0.107289 0 75 0.107289 1
gene 1 19 23 0.315132 0 76 0.315132 1
gene 1 21 20 -0.922902 0 78 -0.922902 1
gene 1 22 22 -0.42126 1 83 -0.42126 1
gene 1 10 28 0.0620069 0 92 0.0620069 1
gene 1 28 20 -0.593935 0 93 -0.593935 1
gene 1 20 22 -0.107449 0 118 -0.107449 1
gene 1 3 35 0.124351 0 129 0.124351 1
gene 1 35 20 -0.0721906 0 130 -0.0721906 1
gene 1 1 36 0.434998 0 131 0.434998 1
gene 1 36 20 0.421158 0 132 0.421158 1
gene 1 23 23 -1.16985 1 206 -1.16985 1
gene 1 6 35 -0.926505 0 233 -0.926505 1
gene 1 14 68 0.462955 0 261 0.462955 1
gene 1 68 20 -0.456907 0 262 -0.456907 1
gene 1 4 28 -0.499995 0 265 -0.499995 1
gene 1 15 36 0.14246 0 273 0.14246 1
gene 1 12 72 0.380825 0 283 0.380825 1
gene 1 72 20 -0.0943497 0 284 -0.0943497 1
gene 1 15 75 0.6867 0 290 0.6867 1
gene 1 75 23 0.0480318 0 291 0.0480318 1
genomeend 150
genomestart 151
trait 1 0.306475 0.280645 0.811247 0.551238 0.0213855 0.615178 0.258594 0.354291 
node 1 1 1 1 0
node 2 1 1 1 0
node 3 1 1 1 0
node 4 1 1 1 0
node 5 1 1 1 0
node 6 1 1 1 0
node 7 1 1 1 0
node 8 1 1 1 0
node 9 1 1 1 0
node 10 1 1 1 0
node 11 1 1 1 0
node 12 1 1 1 0
node 13 1 1 1 0
node 14 1 1 1 0
node 15 1 1 1 0
node 16 1 1 1 0
node 17 1 1 1 0
node 18 1 1 1 0
node 19 1 1 3 0
node 20 1 0 2 0
node 21 1 0 2 0
node 22 1 0 2 0
node 23 1 0 2 0
node 28 1 0 0 0
node 35 1 0 0 0
node 36 1 0 0 0
node 68 1 0 0 0
node 72 1 0 0 0
node 75 1 0 0 0
gene 1 1 20 -0.234013 0 1 -0.234013 0
gene 1 2 20 -2.11474 0 2 -2.11474 1
gene 1 3 20 1.84512 0 3 1.84512 1
gene 1 4 20 0.101892 0 4 0.101892 1
gene 1 5 20 0.643575 0 5 0.643575 1
gene 1 6 20 0.798525 0 6 0.798525 1
gene 1 7 20 -0.249396 0 7 -0.249396 1
gene 1 8 20 0.661671 0 8 0.661671 1
gene 1 9 20 0.885773 0 9 0.885773 1
gene 1 10 20 -0.58415 0 10 -0.58415 1
gene 1 11 20 -0.837547 0 11 -0.837547 1
gene 1 12 20 -0.536665 0 12 -0.536665 1
gene 1 13 20 0.466019 0 13 0.466019 1
gene 1 14 20 -0.704166 0 14 -0.704166 0
gene 1 15 20 -0.0812936 0 15 -0.0812936 1
gene 1 16 20 0.695263 0 16 0.695263 1
gene 1 17 20 0.1616 0 17 0.1616 1
gene 1 18 20 0.910075 0 18 0.910075 1
gene 1 19 20 0.0857794 0 19 0.0857794 1
gene 1 1 21 1.5365 0 20 1.5365 1
gene 1 2 21 -0.397626 0 21 -0.397626 1
gene 1 3 21 0.78532 0 22 0.78532 1
gene 1 4 21 -0.178318 0 23 -0.178318 1
gene 1 5 21 -0.513812 0 24 -0.513812 1
gene 1 6 21 0.0843319 0 25 0.0843319 1
gene 1 7 21 0.836678 0 26 0.836678 1
gene 1 8 21 0.749676 0 27 0.749676 1
gene 1 9 21 1.57406 0 28 1.57406 1
gene 1 10 21 -0.322427 0 29 -0.322427 1
gene 1 11 21 -2.1593 0 30 -2.1593 1
gene 1 12 21 -0.76553 0 31 -0.76553 1
gene 1 13 21 0.399384 0 32 0.399384 1
gene 1 14 21 0.165662 0 33 0.165662 1
gene 1 15 21 0.358601 0 34 0.358601 1
gene 1 16 21 -0.734554 0 35 -0.734554 1
gene 1 17 21 -1.10557 0 36 -1.10557 1
gene 1 18 21 -0.207936 0 37 -0.207936 1
gene 1 19 21 0.64306 0 38 0.64306 1
gene 1 1 22 0.442514 0 39 0.442514 1
gene 1 2 22 -2.69456 0 40 -2.69456 1
gene 1 3 22 -0.975165 0 41 -0.975165 1
gene 1 4 22 -0.969445 0 42 -0.969445 1
gene 1 5 22 0.0384483 0 43 0.0384483 1
gene 1 6 22 0.31519 0 44 0.31519 1
gene 1 7 22 -1.57828 0 45 -1.57828 1
gene 1 8 22 0.415087 0 46 0.415087 1
gene 1 9 22 -0.573864 0 47 -0.573864 1
gene 1 10 22 0.086812 0 48 0.086812 1
gene 1 11 22 -0.175676 0 49 -0.175676 1
gene 1 12 22 -0.155795 0 50 -0.155795 1
gene 1 13 22 0.165474 0 51 0.165474 1
gene 1 14 22 0.994677 0 52 0.994677 1
gene 1 15 22 0.362703 0 53 0.362703 1
gene 1 16 22 -0.485712 0 54 -0.485712 1
gene 1 17 22 -0.425656 0 55 -0.425656 1
gene 1 18 22 -1.46503 0 56 -1.46503 1
gene 1 19 22 0.404369 0 57 0.404369 1
gene 1 1 23 0.295367 0 58 0.295367 1
gene 1 2 23 0.468288 0 59 0.468288 1
gene 1 3 23 0.228653 0 60 0.228653 1
gene 1 4 23 0.370116 0 61 0.370116 1
gene 1 5 23 -0.776132 0 62 -0.776132 1
gene 1 6 23 0.145312 0 63 0.145312 1
gene 1 7 23 -0.08236 0 64 -0.08236 1
gene 1 8 23 0.700222 0 65 0.700222 1
gene 1 9 23 0.302357 0 66 0.302357 1
gene 1 10 23 1.34196 0 67 1.34196 1
gene 1 11 23 -0.465457 0 68 -0.465457 1
gene 1 12 23 -0.0742642 0 69 -0.0742642 1
gene 1 13 23 2.09638 0 70 2.09638 1
gene 1 14 23 -1.23921 0 71 -1.23921 1
gene 1 15 23 -1.33295 0 72 -1.33295 0
gene 1 16 23 -2.20002 0 73 -2.20002 1
gene 1 17 23 -0.50089 0 74 -0.50089 1
gene 1 18 23 0.642458 0 75 0.642458 1
gene 1 19 23 -1.23409 0 76 -1.23409 1
gene 1 21 20 0.0153557 0 78 0.0153557 1
gene 1 22 22 0.179573 1 83 0.179573 1
gene 1 10 28 -0.436055 0 92 -0.436055 1
gene 1 28 20 -0.238362 0 93 -0.238362 1
gene 1 20 22 -0.0752694 0 118 -0.0752694 1
gene 1 3 35 -0.0759685 0 129 -0.0759685 1
gene 1 35 20 -0.0799622 0 130 -0.0799622 1
gene 1 1 36 -0.392735 0 131 -0.392735 1
gene 1 36 20 0.73919 0 132 0.73919 1
gene 1 23 23 0.435766 1 206 0.435766 1
gene 1 6 35 -0.501169 0 233 -0.501169 1
gene 1 14 68 -0.107483 0 261 -0.107483 1
gene 1 68 20 0.449259 0 262 0.449259 1
gene 1 4 28 0.459276 0 265 0.459276 1
gene 1 15 36 -0.341114 0 273 -0.341114 1
gene 1 12 72 1.25817 0 283 1.25817 1
gene 1 72 20 -0.294967 0 284 -0.294967 1
gene 1 15 75 -0.885558 0 290 -0.885558 1
gene 1 75 23 -0.348155 0 291 -0.348155 1
gene 1 35 21 -0.14666 0 311 -0.14666 1
genomeend 151
genomestart 152
trait 1 0.429333 0.283893 0.730217 0.33553 0.0249932 0.743623 0.232461 0.319795 
node 1 1 1 1 0
node 2 1 1 1 0
node 3 1 1 1 0
node 4 1 1 1 0
node 5 1 1 1 0
node 6 1 1 1 0
node 7 1 1 1 0
node 8 1 1 1 0
node 9 1 1 1 0
node 10 1 1 1 0
node 11 1 1 1 0
node 12 1 1 1 0
node 13 1 1 1 0
node 14 1 1 1 0
node 15 1 1 1 0
node 16 1 1 1 0
node 17 1 1 1 0
node 18 1 1 1 0
node 19 1 1 3 0
node 20 1 0 2 0
node 21 1 0 2 0
node 22 1 0 2 0
node 23 1 0 2 0
node 28 1 0 0 0
node 35 1 0 0 0
node 36 1 0 0 0
node 68 1 0 0 0
node 72 1 0 0 0
node 75 1 0 0 0
gene 1 1 20 0.3394 0 1 0.3394 1
gene 1 2 20 -1.22317 0 2 -1.22317 1
gene 1 3 20 -0.300877 0 3 -0.300877 1
gene 1 4 20 0.717542 0 4 0.717542 1
gene 1 5 20 0.0503456 0 5 0.0503456 1
gene 1 6 20 1.32627 0 6 1.32627 1
gene 1 7 20 2.4295 0 7 2.4295 1
gene 1 8 20 -0.0427966 0 8 -0.0427966 1
gene 1 9 20 0.397419 0 9 0.397419 1
gene 1 10 20 -0.874445 0 10 -0.874445 1
gene 1 11 20 0.146865 0 11 0.146865 1
gene 1 12 20 0.397114 0 12 0.397114 1
gene 1 13 20 -0.0502123 0 13 -0.0502123 1
gene 1 14 20 -0.16532 0 14 -0.16532 1
gene 1 15 20 -0.0616839 0 15 -0.0616839 1
gene 1 16 20 0.0675883 0 16 0.0675883 1
gene 1 17 20 0.0454757 0 17 0.0454757 1
gene 1 18 20 -0.732734 0 18 -0.732734 1
gene 1 19 20 0.898848 0 19 0.898848 1
gene 1 1 21 0.747526 0 20 0.747526 1
gene 1 2 21 0.31756 0 21 0.31756 1
gene 1 3 21 0.618682 0 22 0.618682 1
gene 1 4 21 -0.16007 0 23 -0.16007 1
gene 1 5 21 -0.237406 0 24 -0.237406 1
gene 1 6 21 1.09246 0 25 1.09246 1
gene 1 7 21 -0.0836826 0 26 -0.0836826 1
gene 1 8 21 0.615026 0 27 0.615026 1
gene 1 9 21 1.3277 0 28 1.3277 1
gene 1 10 21 -0.448623 0 29 -0.448623 1
gene 1 11 21 -0.55346 0 30 -0.55346 1
gene 1 12 21 0.358196 0 31 0.358196 1
gene 1 13 21 0.376038 0 32 0.376038 1
gene 1 14 21 0.232702 0 33 0.232702 1
gene 1 15 21 0.118345 0 34 0.118345 1
gene 1 16 21 -1.03323 0 35 -1.03323 1
gene 1 17 21 -0.0684553 0 36 -0.0684553 1
gene 1 18 21 0.416876 0 37 0.416876 1
gene 1 19 21 0.404083 0 38 0.404083 1
gene 1 1 22 -0.291796 0 39 -0.291796 1
gene 1 2 22 0.00733864 0 40 0.00733864 1
gene 1 3 22 0.242397 0 41 0.242397 1
gene 1 4 22 -0.245816 0 42 -0.245816 1
gene 1 5 22 -0.0949215 0 43 -0.0949215 1
gene 1 6 22 0.317163 0 44 0.317163 1
gene 1 7 22 1.20525 0 45 1.20525 1
gene 1 8 22 1.5691 0 46 1.5691 1
gene 1 9 22 -0.320506 0 47 -0.320506 1
gene 1 10 22 0.052898 0 48 0.052898 1
gene 1 11 22 0.293245 0 49 0.293245 1
gene 1 12 22 -0.663524 0 50 -0.663524 1
gene 1 13 22 0.0538193 0 51 0.0538193 1
gene 1 14 22 -0.12803 0 52 -0.12803 1
gene 1 15 22 0.609098 0 53 0.609098 1
gene 1 16 22 -0.223838 0 54 -0.223838 1
gene 1 17 22 0.133321 0 55 0.133321 1
gene 1 18 22 -0.991586 0 56 -0.991586 1
gene 1 19 22 1.97466 0 57 1.97466 1
gene 1 1 23 -0.329242 0 58 -0.329242 1
gene 1 2 23 0.241131 0 59 0.241131 1
gene 1 3 23 -0.538988 0 60 -0.538988 1
gene 1 4 23 -0.1575 0 61 -0.1575 1
gene 1 5 23 -0.22517 0 62 -0.22517 1
gene 1 6 23 -0.286148 0 63 -0.286148 1
gene 1 7 23 -0.470031 0 64 -0.470031 1
gene 1 8 23 -1.1697 0 65 -1.1697 1
gene 1 9 23 0.539276 0 66 0.539276 1
gene 1 10 23 1.14267 0 67 1.14267 1
gene 1 11 23 -0.138671 0 68 -0.138671 1
gene 1 12 23 -1.01157 0 69 -1.01157 1
gene 1 13 23 0.126007 0 70 0.126007 1
gene 1 14 23 -1.55602 0 71 -1.55602 1
gene 1 15 23 0.18096 0 72 0.18096 0
gene 1 16 23 -0.213805 0 73 -0.213805 1
gene 1 17 23 -0.365879 0 74 -0.365879 1
gene 1 18 23 0.643833 0 75 0.643833 1
gene 1 19 23 -0.137768 0 76 -0.137768 1
gene 1 21 20 0.150882 0 78 0.150882 1
gene 1 22 22 -0.928955 1 83 -0.928955 1
gene 1 10 28 0.018724 0 92 0.018724 1
gene 1 28 20 0.153663 0 93 0.153663 1
gene 1 20 22 0.13364 0 118 0.13364 1
gene 1 3 35 -0.576492 0 129 -0.576492 1
gene 1 35 20 -0.0373937 0 130 -0.0373937 1
gene 1 1 36 -0.914762 0 131 -0.914762 1
gene 1 36 20 0.117717 0 132 0.117717 1
gene 1 23 23 -0.0461825 1 206 -0.0461825 1
gene 1 6 35 0.903315 0 233 0.903315 1
gene 1 14 68 0.0221995 0 261 0.0221995 1
gene 1 68 20 -0.0260004 0 262 -0.0260004 1
gene 1 4 28 0.0156714 0 265 0.0156714 1
gene 1 15 36 0.443711 0 273 0.443711 1
gene 1 12 72 0.176259 0 283 0.176259 1
gene 1 72 20 0.0215392 0 284 0.0215392 1
gene 1 15 75 -0.0279767 0 290 -0.0279767 1
gene 1 75 23 0.109844 0 291 0.109844 1
genomeend 152
genomestart 153
trait 1 0 0.283893 0.730217 0.965515 0 0 0.374341 0 
node 1 1 1 1 0
node 2 1 1 1 0
node 3 1 1 1 0
node 4 1 1 1 0
node 5 1 1 1 0
node 6 1 1 1 0
node 7 1 1 1 0
node 8 1 1 1 0
node 9 1 1 1 0
node 10 1 1 1 0
node 11 1 1 1 0
node 12 1 1 1 0
node 13 1 1 1 0
node 14 1 1 1 0
node 15 1 1 1 0
node 16 1 1 1 0
node 17 1 1 1 0
node 18 1 1 1 0
node 19 1 1 3 0
node 20 1 0 2 0
node 21 1 0 2 0
node 22 1 0 2 0
node 23 1 0 2 0
node 28 1 0 0 0
node 35 1 0 0 0
node 36 1 0 0 0
node 68 1 0 0 0
node 72 1 0 0 0
node 75 1 0 0 0
gene 1 1 20 0.511745 0 1 0.511745 1
gene 1 2 20 -0.21822 0 2 -0.21822 1
gene 1 3 20 -0.172409 0 3 -0.172409 1
gene 1 4 20 -0.417462 0 4 -0.417462 1
gene 1 5 20 0.297406 0 5 0.297406 1
gene 1 6 20 0.128389 0 6 0.128389 1
gene 1 7 20 2.48215 0 7 2.48215 1
gene 1 8 20 -0.459995 0 8 -0.459995 1
gene 1 9 20 -0.219044 0 9 -0.219044 1
gene 1 10 20 0.383038 0 10 0.383038 1
gene 1 11 20 -0.518812 0 11 -0.518812 1
gene 1 12 20 0.828013 0 12 0.828013 1
gene 1 13 20 -0.263998 0 13 -0.263998 1
gene 1 14 20 0.0216878 0 14 0.0216878 0
gene 1 15 20 -0.130742 0 15 -0.130742 1
gene 1 16 20 0.0795936 0 16 0.0795936 1
gene 1 17 20 0.689416 0 17 0.689416 1
gene 1 18 20 -0.796994 0 18 -0.796994 1
gene 1 19 20 -0.751295 0 19 -0.751295 1
gene 1 1 21 0.0210139 0 20 0.0210139 1
gene 1 2 21 -0.77252 0 21 -0.77252 1
gene 1 3 21 -1.14861 0 22 -1.14861 1
gene 1 4 21 0.115921 0 23 0.115921 1
gene 1 5 21 -0.683501 0 24 -0.683501 1
gene 1 6 21 -0.276204 0 25 -0.276204 1
gene 1 7 21 -0.377679 0 26 -0.377679 1
gene 1 8 21 0.405567 0 27 0.405567 1
gene 1 9 21 -0.618391 0 28 -0.618391 1
gene 1 10 21 0.395218 0 29 0.395218 1
gene 1 11 21 -0.825565 0 30 -0.825565 1
gene 1 12 21 -0.175371 0 31 -0.175371 1
gene 1 13 21 -0.275333 0 32 -0.275333 1
gene 1 14 21 0.867188 0 33 0.867188 1
gene 1 15 21 0.00314449 0 34 0.00314449 1
gene 1 16 21 0.380352 0 35 0.380352 1
gene 1 17 21 0.182679 0 36 0.182679 1
gene 1 18 21 -1.02289 0 37 -1.02289 1
gene 1 19 21 0.282464 0 38 0.282464 1
gene 1 1 22 -0.189388 0 39 -0.189388 1
gene 1 2 22 0.0300833 0 40 0.0300833 1
gene 1 3 22 -0.438405 0 41 -0.438405 1
gene 1 4 22 0.425297 0 42 0.425297 1
gene 1 5 22 -0.499262 0 43 -0.499262 1
gene 1 6 22 0.42443 0 44 0.42443 1
gene 1 7 22 -0.441177 0 45 -0.441177 1
gene 1 8 22 2.19563 0 46 2.19563 1
gene 1 9 22 0.195262 0 47 0.195262 1
gene 1 10 22 0.39517 0 48 0.39517 1
gene 1 11 22 0.121022 0 49 0.121022 1
gene 1 12 22 0.099907 0 50 0.099907 1
gene 1 13 22 0.390919 0 51 0.390919 1
gene 1 14 22 -0.424301 0 52 -0.424301 1
gene 1 15 22 0.300846 0 53 0.300846 1
gene 1 16 22 0.142056 0 54 0.142056 1
gene 1 17 22 0.272304 0 55 0.272304 1
gene 1 18 22 -0.887786 0 56 -0.887786 1
gene 1 19 22 0.697744 0 57 0.697744 1
gene 1 1 23 0.179623 0 58 0.179623 1
gene 1 2 23 -0.210121 0 59 -0.210121 1
gene 1 3 23 -0.571231 0 60 -0.571231 1
gene 1 4 23 -0.996837 0 61 -0.996837 1
gene 1 5 23 0.507735 0 62 0.507735 1
gene 1 6 23 0.236366 0 63 0.236366 1
gene 1 7 23 -1.22111 0 64 -1.22111 1
gene 1 8 23 -1.70977 0 65 -1.70977 1
gene 1 9 23 0.389691 0 66 0.389691 1
gene 1 10 23 0.530351 0 67 0.530351 1
gene 1 11 23 -0.140128 0 68 -0.140128 1
gene 1 12 23 -1.4507 0 69 -1.4507 1
gene 1 13 23 0.693473 0 70 0.693473 1
gene 1 14 23 -0.332463 0 71 -0.332463 1
gene 1 15 23 -0.466616 0 72 -0.466616 0
gene 1 16 23 0.0302437 0 73 0.0302437 1
gene 1 17 23 -0.122185 0 74 -0.122185 1
gene 1 18 23 0.437637 0 75 0.437637 1
gene 1 19 23 -0.433966 0 76 -0.433966 1
gene 1 21 20 1.05396 0 78 1.05396 1
gene 1 22 22 -0.834576 1 83 -0.834576 1
gene 1 10 28 -0.150506 0 92 -0.150506 1
gene 1 28 20 -0.143977 0 93 -0.143977 1
gene 1 20 22 -0.850688 0 118 -0.850688 1
gene 1 3 35 -0.247396 0 129 -0.247396 1
gene 1 35 20 0.0014236 0 130 0.0014236 1
gene 1 1 36 0.0901227 0 131 0.0901227 1
gene 1 36 20 -0.231101 0 132 -0.231101 1
gene 1 23 23 0.348554 1 206 0.348554 1
gene 1 6 35 0.0143911 0 233 0.0143911 1
gene 1 14 68 -0.00793897 0 261 -0.00793897 1
gene 1 68 20 0.453912 0 262 0.453912 1
gene 1 4 28 0.349667 0 265 0.349667 1
gene 1 15 36 1.58582 0 273 1.58582 1
gene 1 12 72 -0.696822 0 283 -0.696822 1
gene 1 72 20 0.266918 0 284 0.266918 1
gene 1 15 75 -0.212225 0 290 -0.212225 1
gene 1 75 23 -0.126912 0 291 -0.126912 1
genomeend 153
genomestart 154
trait 1 0.429333 0.283893 0.730217 0.33553 0.0249932 0.743623 0.232461 0.319795 
node 1 1 1 1 0
node 2 1 1 1 0
node 3 1 1 1 0
node 4 1 1 1 0
node 5 1 1 1 0
node 6 1 1 1 0
node 7 1 1 1 0
node 8 1 1 1 0
node 9 1 1 1 0
node 10 1 1 1 0
node 11 1 1 1 0
node 12 1 1 1 0
node 13 1 1 1 0
node 14 1 1 1 0
node 15 1 1 1 0
node 16 1 1 1 0
node 17 1 1 1 0
node 18 1 1 1 0
node 19 1 1 3 0
node 20 1 0 2 0
node 21 1 0 2 0
node 22 1 0 2 0
node 23 1 0 2 0
node 28 1 0 0 0
node 35 1 0 0 0
node 36 1 0 0 0
node 68 1 0 0 0
node 72 1 0 0 0
node 75 1 0 0 0
gene 1 1 20 -0.977477 0 1 -0.977477 1
gene 1 2 20 0.321624 0 2 0.321624 1
gene 1 3 20 0.899357 0 3 0.899357 1
gene 1 4 20 -0.294102 0 4 -0.294102 1
gene 1 5 20 -0.194944 0 5 -0.194944 1
gene 1 6 20 -0.35473 0 6 -0.35473 1
gene 1 7 20 0.239124 0 7 0.239124 1
gene 1 8 20 0.553029 0 8 0.553029 1
gene 1 9 20 -0.272292 0 9 -0.272292 1
gene 1 10 20 0.815607 0 10 0.815607 1
gene 1 11 20 -0.48399 0 11 -0.48399 1
gene 1 12 20 1.37473 0 12 1.37473 1
gene 1 13 20 -0.959956 0 13 -0.959956 1
gene 1 14 20 0.0855355 0 14 0.0855355 0
gene 1 15 20 -0.499743 0 15 -0.499743 1
gene 1 16 20 -0.227951 0 16 -0.227951 1
gene 1 17 20 0.0772051 0 17 0.0772051 1
gene 1 18 20 -0.387362 0 18 -0.387362 1
gene 1 19 20 0.32617 0 19 0.32617 1
gene 1 1 21 0.0871356 0 20 0.0871356 1
gene 1 2 21 -1.58147 0 21 -1.58147 1
gene 1 3 21 -0.345503 0 22 -0.345503 1
gene 1 4 21 0.930805 0 23 0.930805 1
gene 1 5 21 -0.551309 0 24 -0.551309 1
gene 1 6 21 0.000226458 0 25 0.000226458 1
gene 1 7 21 0.0560174 0 26 0.0560174 1
gene 1 8 21 0.770317 0 27 0.770317 1
gene 1 9 21 -0.359947 0 28 -0.359947 1
gene 1 10 21 0.573438 0 29 0.573438 1
gene 1 11 21 0.0561283 0 30 0.0561283 1
gene 1 12 21 -0.121069 0 31 -0.121069 1
gene 1 13 21 -0.701439 0 32 -0.701439 1
gene 1 14 21 0.347369 0 33 0.347369 1
gene 1 15 21 0.14499 0 34 0.14499 1
gene 1 16 21 -0.9786 0 35 -0.9786 1
gene 1 17 21 -0.273032 0 36 -0.273032 1
gene 1 18 21 -0.0735775 0 37 -0.0735775 1
gene 1 19 21 -0.952308 0 38 -0.952308 1
gene 1 1 22 0.166786 0 39 0.166786 1
gene 1 2 22 -1.22284 0 40 -1.22284 1
gene 1 3 22 -0.328835 0 41 -0.328835 1
gene 1 4 22 -0.629696 0 42 -0.629696 1
gene 1 5 22 0.184199 0 43 0.184199 1
gene 1 6 22 0.156515 0 44 0.156515 1
gene 1 7 22 -0.429326 0 45 -0.429326 1
gene 1 8 22 0.718982 0 46 0.718982 1
gene 1 9 22 -0.176419 0 47 -0.176419 1
gene 1 10 22 0.113766 0 48 0.113766 1
gene 1 11 22 -0.173548 0 49 -0.173548 1
gene 1 12 22 0.000318647 0 50 0.000318647 1
gene 1 13 22 0.420337 0 51 0.420337 1
gene 1 14 22 -0.159655 0 52 -0.159655 1
gene 1 15 22 0.459772 0 53 0.459772 1
gene 1 16 22 0.328121 0 54 0.328121 1
gene 1 17 22 0.0304993 0 55 0.0304993 1
gene 1 18 22 0.0406221 0 56 0.0406221 1
gene 1 19 22 2.02123 0 57 2.02123 1
gene 1 1 23 0.497911 0 58 0.497911 1
gene 1 2 23 -0.238968 0 59 -0.238968 1
gene 1 3 23 -0.351539 0 60 -0.351539 1
gene 1 4 23 -0.198817 0 61 -0.198817 1
gene 1 5 23 -0.0675624 0 62 -0.0675624 1
gene 1 6 23 0.457012 0 63 0.457012 1
gene 1 7 23 0.242702 0 64 0.242702 1
gene 1 8 23 -1.60911 0 65 -1.60911 1
gene 1 9 23 0.379088 0 66 0.379088 1
gene 1 10 23 0.123066 0 67 0.123066 1
gene 1 11 23 0.347768 0 68 0.347768 1
gene 1 12 23 -1.03243 0 69 -1.03243 1
gene 1 13 23 -0.936052 0 70 -0.936052 1
gene 1 14 23 -0.19817 0 71 -0.19817 1
gene 1 15 23 -0.473257 0 72 -0.473257 0
gene 1 16 23 -0.515167 0 73 -0.515167 1
gene 1 17 23 0.00276007 0 74 0.00276007 1
gene 1 18 23 -0.0169894 0 75 -0.0169894 1
gene 1 19 23 0.517611 0 76 0.517611 1
gene 1 21 20 0.129508 0 78 0.129508 1
gene 1 22 22 0.00824411 1 83 0.00824411 1
gene 1 10 28 -0.0777026 0 92 -0.0777026 1
gene 1 28 20 1.22133 0 93 1.22133 1
gene 1 20 22 -0.766849 0 118 -0.766849 1
gene 1 3 35 0.252726 0 129 0.252726 1
gene 1 35 20 0.929237 0 130 0.929237 1
gene 1 1 36 -0.10185 0 131 -0.10185 1
gene 1 36 20 -0.466855 0 132 -0.466855 1
gene 1 23 23 0.0762844 1 206 0.0762844 1
gene 1 6 35 0.137889 0 233 0.137889 1
gene 1 14 68 0.437258 0 261 0.437258 1
gene 1 68 20 -0.109253 0 262 -0.109253 1
gene 1 4 28 0.279618 0 265 0.279618 1
gene 1 15 36 -0.130076 0 273 -0.130076 1
gene 1 12 72 1.58409 0 283 1.58409 1
gene 1 72 20 -0.560978 0 284 -0.560978 1
gene 1 15 75 -0.0398614 0 290 -0.0398614 1
gene 1 75 23 -0.998927 0 291 -0.998927 1
genomeend 154
genomestart 155
trait 1 0.429333 0.283893 0.730217 0.33553 0.0249932 0.743623 0.232461 0.319795 
node 1 1 1 1 0
node 2 1 1 1 0
node 3 1 1 1 0
node 4 1 1 1 0
node 5 1 1 1 0
node 6 1 1 1 0
node 7 1 1 1 0
node 8 1 1 1 0
node 9 1 1 1 0
node 10 1 1 1 0
node 11 1 1 1 0
node 12 1 1 1 0
node 13 1 1 1 0
node 14 1 1 1 0
node 15 1 1 1 0
node 16 1 1 1 0
node 17 1 1 1 0
node 18 1 1 1 0
node 19 1 1 3 0
node 20 1 0 2 0
node 21 1 0 2 0
node 22 1 0 2 0
node 23 1 0 2 0
node 28 1 0 0 0
node 35 1 0 0 0
node 36 1 0 0 0
node 68 1 0 0 0
node 72 1 0 0 0
node 75 1 0 0 0
gene 1 1 20 -0.776215 0 1 -0.776215 1
gene 1 2 20 -1.1895 0 2 -1.1895 1
gene 1 3 20 0.0914787 0 3 0.0914787 1
gene 1 4 20 -0.384148 0 4 -0.384148 1
gene 1 5 20 0.633253 0 5 0.633253 1
gene 1 6 20 -0.428732 0 6 -0.428732 1
gene 1 7 20 -0.0163033 0 7 -0.0163033 1
gene 1 8 20 0.0214576 0 8 0.0214576 1
gene 1 9 20 -0.457748 0 9 -0.457748 1
gene 1 10 20 0.722099 0 10 0.722099 1
gene 1 11 20 -0.306604 0 11 -0.306604 1
gene 1 12 20 0.252107 0 12 0.252107 1
gene 1 13 20 0.418838 0 13 0.418838 1
gene 1 14 20 -0.442289 0 14 -0.442289 0
gene 1 15 20 0.10698 0 15 0.10698 1
gene 1 16 20 -0.17747 0 16 -0.17747 1
gene 1 17 20 1.55435 0 17 1.55435 1
gene 1 18 20 -0.483508 0 18 -0.483508 1
gene 1 19 20 0.526488 0 19 0.526488 1
gene 1 1 21 -0.310365 0 20 -0.310365 1
gene 1 2 21 -2.01975 0 21 -2.01975 1
gene 1 3 21 -0.200074 0 22 -0.200074 1
gene 1 4 21 0.711325 0 23 0.711325 1
gene 1 5 21 -0.562106 0 24 -0.562106 1
gene 1 6 21 0.109103 0 25 0.109103 1
gene 1 7 21 0.817073 0 26 0.817073 1
gene 1 8 21 0.432333 0 27 0.432333 1
gene 1 9 21 0.895406 0 28 0.895406 1
gene 1 10 21 0.294556 0 29 0.294556 1
gene 1 11 21 -1.31918 0 30 -1.31918 1
gene 1 12 21 -0.0677183 0 31 -0.0677183 1
gene 1 13 21 -0.51941 0 32 -0.51941 1
gene 1 14 21 0.140915 0 33 0.140915 1
gene 1 15 21 -0.165717 0 34 -0.165717 1
gene 1 16 21 -0.851012 0 35 -0.851012 1
gene 1 17 21 -0.415727 0 36 -0.415727 1
gene 1 18 21 -0.909625 0 37 -0.909625 1
gene 1 19 21 -0.495852 0 38 -0.495852 1
gene 1 1 22 0.561966 0 39 0.561966 1
gene 1 2 22 -1.5481 0 40 -1.5481 1
gene 1 3 22 1.1555 0 41 1.1555 1
gene 1 4 22 -0.474402 0 42 -0.474402 1
gene 1 5 22 0.18974 0 43 0.18974 1
gene 1 6 22 0.408686 0 44 0.408686 1
gene 1 7 22 0.192795 0 45 0.192795 1
gene 1 8 22 0.879873 0 46 0.879873 1
gene 1 9 22 -0.682189 0 47 -0.682189 1
gene 1 10 22 0.179739 0 48 0.179739 1
gene 1 11 22 0.366016 0 49 0.366016 1
gene 1 12 22 0.0417712 0 50 0.0417712 1
gene 1 13 22 1.36547 0 51 1.36547 1
gene 1 14 22 -0.198842 0 52 -0.198842 1
gene 1 15 22 0.406947 0 53 0.406947 1
gene 1 16 22 1.00405 0 54 1.00405 1
gene 1 17 22 0.462028 0 55 0.462028 1
gene 1 18 22 -0.704846 0 56 -0.704846 1
gene 1 19 22 1.05596 0 57 1.05596 1
gene 1 1 23 -0.345165 0 58 -0.345165 1
gene 1 2 23 -0.355391 0 59 -0.355391 1
gene 1 3 23 -0.649956 0 60 -0.649956 1
gene 1 4 23 0.254293 0 61 0.254293 1
gene 1 5 23 0.409084 0 62 0.409084 1
gene 1 6 23 -0.917541 0 63 -0.917541 1
gene 1 7 23 -0.866155 0 64 -0.866155 1
gene 1 8 23 0.0476293 0 65 0.0476293 1
gene 1 9 23 -0.0683938 0 66 -0.0683938 1
gene 1 10 23 -0.210643 0 67 -0.210643 1
gene 1 11 23 0.747224 0 68 0.747224 1
gene 1 12 23 -0.103147 0 69 -0.103147 1
gene 1 13 23 0.390543 0 70 0.390543 1
gene 1 14 23 -0.955197 0 71 -0.955197 1
gene 1 15 23 -0.113517 0 72 -0.113517 0
gene 1 16 23 0.282131 0 73 0.282131 1
gene 1 17 23 -0.964269 0 74 -0.964269 1
gene 1 18 23 -1.29003 0 75 -1.29003 1
gene 1 19 23 0.981823 0 76 0.981823 1
gene 1 21 20 0.118495 0 78 0.118495 1
gene 1 22 22 0.0272573 1 83 0.0272573 1
gene 1 10 28 -0.41411 0 92 -0.41411 1
gene 1 28 20 1.38858 0 93 1.38858 1
gene 1 20 22 -0.974063 0 118 -0.974063 1
gene 1 3 35 -1.17842 0 129 -1.17842 1
gene 1 35 20 -0.749827 0 130 -0.749827 1
gene 1 1 36 -0.319947 0 131 -0.319947 1
gene 1 36 20 -0.301795 0 132 -0.301795 1
gene 1 23 23 0.0297631 1 206 0.0297631 1
gene 1 6 35 1.01882 0 233 1.01882 1
gene 1 14 68 0.58409 0 261 0.58409 1
gene 1 68 20 0.0944248 0 262 0.0944248 1
gene 1 4 28 0.314268 0 265 0.314268 1
gene 1 15 36 0.367963 0 273 0.367963 1
gene 1 12 72 0.145247 0 283 0.145247 1
gene 1 72 20 -0.204462 0 284 -0.204462 1
gene 1 15 75 0.227541 0 290 0.227541 1
gene 1 75 23 0.446707 0 291 0.446707 1
genomeend 155
genomestart 156
trait 1 0.429333 0.283893 0.730217 0.33553 0.0249932 0.743623 0.232461 0.319795 
node 1 1 1 1 0
node 2 1 1 1 0
node 3 1 1 1 0
node 4 1 1 1 0
node 5 1 1 1 0
node 6 1 1 1 0
node 7 1 1 1 0
node 8 1 1 1 0
node 9 1 1 1 0
node 10 1 1 1 0
node 11 1 1 1 0
node 12 1 1 1 0
node 13 1 1 1 0
node 14 1 1 1 0
node 15 1 1 1 0
node 16 1 1 1 0
node 17 1 1 1 0
node 18 1 1 1 0
node 19 1 1 3 0
node 20 1 0 2 0
node 21 1 0 2 0
node 22 1 0 2 0
node 23 1 0 2 0
node 28 1 0 0 0
node 35 1 0 0 0
node 36 1 0 0 0
node 68 1 0 0 0
node 72 1 0 0 0
node 75 1 0 0 0
gene 1 1 20 -0.218027 0 1 -0.218027 1
gene 1 2 20 -0.971206 0 2 -0.971206 1
gene 1 3 20 0.773641 0 3 0.773641 1
gene 1 4 20 -0.347726 0 4 -0.347726 1
gene 1 5 20 0.513962 0 5 0.513962 1
gene 1 6 20 1.28624 0 6 1.28624 1
gene 1 7 20 2.13318 0 7 2.13318 1
gene 1 8 20 0.562845 0 8 0.562845 1
gene 1 9 20 -0.25734 0 9 -0.25734 1
gene 1 10 20 -0.135441 0 10 -0.135441 1
gene 1 11 20 0.134847 0 11 0.134847 1
gene 1 12 20 1.17045 0 12 1.17045 1
gene 1 13 20 -0.807355 0 13 -0.807355 1
gene 1 14 20 -0.236025 0 14 -0.236025 0
gene 1 15 20 0.912228 0 15 0.912228 1
gene 1 16 20 -0.0925616 0 16 -0.0925616 1
gene 1 17 20 -0.0551391 0 17 -0.0551391 1
gene 1 18 20 -0.112756 0 18 -0.112756 1
gene 1 19 20 0.713946 0 19 0.713946 1
gene 1 1 21 -0.0843479 0 20 -0.0843479 1
gene 1 2 21 -2.16665 0 21 -2.16665 1
gene 1 3 21 0.145272 0 22 0.145272 1
gene 1 4 21 0.549317 0 23 0.549317 1
gene 1 5 21 -0.432429 0 24 -0.432429 1
gene 1 6 21 0.360377 0 25 0.360377 1
gene 1 7 21 0.670565 0 26 0.670565 1
gene 1 8 21 -0.145875 0 27 -0.145875 1
gene 1 9 21 0.508344 0 28 0.508344 1
gene 1 10 21 -0.377931 0 29 -0.377931 1
gene 1 11 21 -0.364313 0 30 -0.364313 1
gene 1 12 21 0.32909 0 31 0.32909 1
gene 1 13 21 0.186896 0 32 0.186896 1
gene 1 14 21 -0.405331 0 33 -0.405331 1
gene 1 15 21 -0.469363 0 34 -0.469363 1
gene 1 16 21 0.456492 0 35 0.456492 1
gene 1 17 21 -0.561724 0 36 -0.561724 1
gene 1 18 21 -1.79143 0 37 -1.79143 1
gene 1 19 21 -1.07783 0 38 -1.07783 1
gene 1 1 22 -0.250622 0 39 -0.250622 1
gene 1 2 22 -0.607292 0 40 -0.607292 1
gene 1 3 22 -1.4097 0 41 -1.4097 1
gene 1 4 22 0.0830246 0 42 0.0830246 1
gene 1 5 22 -0.155547 0 43 -0.155547 1
gene 1 6 22 0.174391 0 44 0.174391 1
gene 1 7 22 0.805879 0 45 0.805879 1
gene 1 8 22 1.02839 0 46 1.02839 1
gene 1 9 22 -0.190963 0 47 -0.190963 1
gene 1 10 22 -0.624125 0 48 -0.624125 1
gene 1 11 22 -0.0484436 0 49 -0.0484436 1
gene 1 12 22 0.113678 0 50 0.113678 1
gene 1 13 22 0.343048 0 51 0.343048 1
gene 1 14 22 0.998841 0 52 0.998841 1
gene 1 15 22 0.252045 0 53 0.252045 1
gene 1 16 22 -0.598982 0 54 -0.598982 1
gene 1 17 22 -0.034901 0 55 -0.034901 1
gene 1 18 22 -0.268115 0 56 -0.268115 1
gene 1 19 22 1.22193 0 57 1.22193 1
gene 1 1 23 0.257632 0 58 0.257632 1
gene 1 2 23 0.457627 0 59 0.457627 1
gene 1 3 23 -0.241855 0 60 -0.241855 1
gene 1 4 23 -0.645219 0 61 -0.645219 1
gene 1 5 23 0.629462 0 62 0.629462 1
gene 1 6 23 0.340503 0 63 0.340503 1
gene 1 7 23 -1.06506 0 64 -1.06506 1
gene 1 8 23 -2.15565 0 65 -2.15565 1
gene 1 9 23 -0.174739 0 66 -0.174739 1
gene 1 10 23 -0.011435 0 67 -0.011435 1
gene 1 11 23 0.0753309 0 68 0.0753309 1
gene 1 12 23 -1.61441 0 69 -1.61441 1
gene 1 13 23 -0.90028 0 70 -0.90028 1
gene 1 14 23 -0.473334 0 71 -0.473334 1
gene 1 15 23 -0.484707 0 72 -0.484707 0
gene 1 16 23 -0.0201375 0 73 -0.0201375 1
gene 1 17 23 -0.704755 0 74 -0.704755 1
gene 1 18 23 -0.355528 0 75 -0.355528 1
gene 1 19 23 0.482575 0 76 0.482575 1
gene 1 21 20 0.793271 0 78 0.793271 1
gene 1 22 22 0.0910241 1 83 0.0910241 1
gene 1 10 28 0.746696 0 92 0.746696 1
gene 1 28 20 0.572471 0 93 0.572471 1
gene 1 20 22 -0.193926 0 118 -0.193926 1
gene 1 3 35 0.0460651 0 129 0.0460651 1
gene 1 35 20 -0.235884 0 130 -0.235884 1
gene 1 1 36 -0.440207 0 131 -0.440207 1
gene 1 36 20 -0.396286 0 132 -0.396286 1
gene 1 23 23 -0.400078 1 206 -0.400078 1
gene 1 6 35 0.361048 0 233 0.361048 1
gene 1 14 68 -0.313569 0 261 -0.313569 1
gene 1 68 20 0.147982 0 262 0.147982 1
gene 1 4 28 -0.171039 0 265 -0.171039 1
gene 1 15 36 0.0756185 0 273 0.0756185 1
gene 1 12 72 1.47025 0 283 1.47025 1
gene 1 72 20 0.0659419 0 284 0.0659419 1
gene 1 15 75 -0.101611 0 290 -0.101611 1
gene 1 75 23 0.366088 0 291 0.366088 1
gene 1 12 68 0.218405 0 322 0.218405 1
genomeend 156
genomestart 157
trait 1 0 1 0.203131 0.139295 0 0.702821 0.820875 0.342792 
node 1 1 1 1 0
node 2 1 1 1 0
node 3 1 1 1 0
node 4 1 1 1 0
node 5 1 1 1 0
node 6 1 1 1 0
node 7 1 1 1 0
node 8 1 1 1 0
node 9 1 1 1 0
node 10 1 1 1 0
node 11 1 1 1 0
node 12 1 1 1 0
node 13 1 1 1 0
node 14 1 1 1 0
node 15 1 1 1 0
node 16 1 1 1 0
node 17 1 1 1 0
node 18 1 1 1 0
node 19 1 1 3 0
node 20 1 0 2 0
node 21 1 0 2 0
node 22 1 0 2 0
node 23 1 0 2 0
node 28 1 0 0 0
node 35 1 0 0 0
node 36 1 0 0 0
node 68 1 0 0 0
node 72 1 0 0 0
node 75 1 0 0 0
gene 1 1 20 -0.142209 0 1 -0.142209 0
gene 1 2 20 -1.80139 0 2 -1.80139 1
gene 1 3 20 0.130215 0 3 0.130215 1
gene 1 4 20 -0.258227 0 4 -0.258227 1
gene 1 5 20 -0.563057 0 5 -0.563057 1
gene 1 6 20 -0.593343 0 6 -0.593343 1
gene 1 7 20 0.54999 0 7 0.54999 1
gene 1 8 20 -0.178131 0 8 -0.178131 1
gene 1 9 20 -0.570757 0 9 -0.570757 1
gene 1 10 20 -0.0157507 0 10 -0.0157507 1
gene 1 11 20 -1.15074 0 11 -1.15074 1
gene 1 12 20 -0.135069 0 12 -0.135069 1
gene 1 13 20 -1.05872 0 13 -1.05872 1
gene 1 14 20 -0.34592 0 14 -0.34592 0
gene 1 15 20 -0.210329 0 15 -0.210329 1
gene 1 16 20 0.939183 0 16 0.939183 1
gene 1 17 20 0.890734 0 17 0.890734 1
gene 1 18 20 -0.20692 0 18 -0.20692 1
gene 1 19 20 -0.663066 0 19 -0.663066 1
gene 1 1 21 -0.745627 0 20 -0.745627 1
gene 1 2 21 0.420229 0 21 0.420229 1
gene 1 3 21 1.13224 0 22 1.13224 1
gene 1 4 21 1.09541 0 23 1.09541 1
gene 1 5 21 -0.0145245 0 24 -0.0145245 1
gene 1 6 21 0.192942 0 25 0.192942 1
gene 1 7 21 -0.460947 0 26 -0.460947 1
gene 1 8 21 0.657321 0 27 0.657321 1
gene 1 9 21 0.0234436 0 28 0.0234436 1
gene 1 10 21 0.859372 0 29 0.859372 1
gene 1 11 21 -2.21113 0 30 -2.21113 1
gene 1 12 21 0.0992072 0 31 0.0992072 1
gene 1 13 21 -0.393113 0 32 -0.393113 1
gene 1 14 21 0.967499 0 33 0.967499 1
gene 1 15 21 -0.518451 0 34 -0.518451 1
gene 1 16 21 0.176557 0 35 0.176557 1
gene 1 17 21 -0.828079 0 36 -0.828079 1
gene 1 18 21 -0.137936 0 37 -0.137936 1
gene 1 19 21 -0.458983 0 38 -0.458983 1
gene 1 1 22 -0.297857 0 39 -0.297857 1
gene 1 2 22 -2.56826 0 40 -2.56826 1
gene 1 3 22 0.216574 0 41 0.216574 1
gene 1 4 22 -0.231259 0 42 -0.231259 1
gene 1 5 22 0.975943 0 43 0.975943 1
gene 1 6 22 -0.754376 0 44 -0.754376 1
gene 1 7 22 -0.788251 0 45 -0.788251 1
gene 1 8 22 2.58585 0 46 2.58585 1
gene 1 9 22 0.762068 0 47 0.762068 1
gene 1 10 22 -0.346882 0 48 -0.346882 1
gene 1 11 22 0.537403 0 49 0.537403 1
gene 1 12 22 -0.0291388 0 50 -0.0291388 1
gene 1 13 22 -0.554206 0 51 -0.554206 1
gene 1 14 22 0.279182 0 52 0.279182 1
gene 1 15 22 -0.0145542 0 53 -0.0145542 1
gene 1 16 22 0.892901 0 54 0.892901 1
gene 1 17 22 0.359537 0 55 0.359537 1
gene 1 18 22 -1.21716 0 56 -1.21716 1
gene 1 19 22 1.40593 0 57 1.40593 1
gene 1 1 23 -0.114785 0 58 -0.114785 1
gene 1 2 23 0.984624 0 59 0.984624 1
gene 1 3 23 0.939666 0 60 0.939666 1
gene 1 4 23 -0.651953 0 61 -0.651953 1
gene 1 5 23 0.357037 0 62 0.357037 1
gene 1 6 23 -1.03507 0 63 -1.03507 1
gene 1 7 23 -0.938819 0 64 -0.938819 1
gene 1 8 23 -0.613429 0 65 -0.613429 1
gene 1 9 23 0.690502 0 66 0.690502 1
gene 1 10 23 0.558781 0 67 0.558781 1
gene 1 11 23 -0.188364 0 68 -0.188364 1
gene 1 12 23 -1.24802 0 69 -1.24802 1
gene 1 13 23 2.59388 0 70 2.59388 1
gene 1 14 23 -0.890199 0 71 -0.890199 1
gene 1 15 23 -0.233068 0 72 -0.233068 1
gene 1 16 23 0.210384 0 73 0.210384 1
gene 1 17 23 -0.33066 0 74 -0.33066 1
gene 1 18 23 -0.803756 0 75 -0.803756 1
gene 1 19 23 -0.986873 0 76 -0.986873 1
gene 1 21 20 0.220587 0 78 0.220587 1
gene 1 22 22 -0.213243 1 83 -0.213243 1
gene 1 10 28 -0.420287 0 92 -0.420287 1
gene 1 28 20 -0.296347 0 93 -0.296347 1
gene 1 20 22 0.348976 0 118 0.348976 1
gene 1 3 35 0.606325 0 129 0.606325 1
gene 1 35 20 -0.331487 0 130 -0.331487 1
gene 1 1 36 -0.414948 0 131 -0.414948 1
gene 1 36 20 0.405378 0 132 0.405378 1
gene 1 23 23 -0.681487 1 206 -0.681487 1
gene 1 6 35 1.0598 0 233 1.0598 1
gene 1 14 68 0.461609 0 261 0.461609 1
gene 1 68 20 -0.297621 0 262 -0.297621 1
gene 1 4 28 0.431436 0 265 0.431436 1
gene 1 15 36 -0.302124 0 273 -0.302124 1
gene 1 12 72 2.07828 0 283 2.07828 1
gene 1 72 20 0.133938 0 284 0.133938 1
gene 1 15 75 -0.121968 0 290 -0.121968 1
gene 1 75 23 -0.251948 0 291 -0.251948 1
gene 1 8 68 -0.735467 0 323 -0.735467 1
genomeend 157
genomestart 158
trait 1 0 0.630585 0 0.968534 0 0.702821 0.277155 0.342792 
node 1 1 1 1 0
node 2 1 1 1 0
node 3 1 1 1 0
node 4 1 1 1 0
node 5 1 1 1 0
node 6 1 1 1 0
node 7 1 1 1 0
node 8 1 1 1 0
node 9 1 1 1 0
node 10 1 1 1 0
node 11 1 1 1 0
node 12 1 1 1 0
node 13 1 1 1 0
node 14 1 1 1 0
node 15 1 1 1 0
node 16 1 1 1 0
node 17 1 1 1 0
node 18 1 1 1 0
node 19 1 1 3 0
node 20 1 0 2 0
node 21 1 0 2 0
node 22 1 0 2 0
node 23 1 0 2 0
node 28 1 0 0 0
node 35 1 0 0 0
node 36 1 0 0 0
node 68 1 0 0 0
node 72 1 0 0 0
node 75 1 0 0 0
gene 1 1 20 -0.20343 0 1 -0.20343 0
gene 1 2 20 -0.801334 0 2 -0.801334 1
gene 1 3 20 0.161017 0 3 0.161017 1
gene 1 4 20 -0.745858 0 4 -0.745858 1
gene 1 5 20 -0.529188 0 5 -0.529188 1
gene 1 6 20 0.0350314 0 6 0.0350314 1
gene 1 7 20 0.386244 0 7 0.386244 1
gene 1 8 20 0.862361 0 8 0.862361 1
gene 1 9 20 -0.911039 0 9 -0.911039 1
gene 1 10 20 -0.308654 0 10 -0.308654 1
gene 1 11 20 -0.103958 0 11 -0.103958 1
gene 1 12 20 0.804319 0 12 0.804319 1
gene 1 13 20 -0.380625 0 13 -0.380625 1
gene 1 14 20 -1.0581 0 14 -1.0581 0
gene 1 15 20 0.592684 0 15 0.592684 1
gene 1 16 20 -0.854253 0 16 -0.854253 1
gene 1 17 20 0.445088 0 17 0.445088 1
gene 1 18 20 0.264984 0 18 0.264984 1
gene 1 19 20 -0.0620756 0 19 -0.0620756 1
gene 1 1 21 -0.332894 0 20 -0.332894 1
gene 1 2 21 1.17704 0 21 1.17704 1
gene 1 3 21 0.502993 0 22 0.502993 1
gene 1 4 21 -0.0551018 0 23 -0.0551018 1
gene 1 5 21 -0.109704 0 24 -0.109704 1
gene 1 6 21 0.335588 0 25 0.335588 1
gene 1 7 21 0.0377833 0 26 0.0377833 1
gene 1 8 21 -0.101883 0 27 -0.101883 1
gene 1 9 21 -0.39825 0 28 -0.39825 1
gene 1 10 21 0.723847 0 29 0.723847 1
gene 1 11 21 -1.27639 0 30 -1.27639 1
gene 1 12 21 0.329062 0 31 0.329062 1
gene 1 13 21 -0.875369 0 32 -0.875369 1
gene 1 14 21 0.675571 0 33 0.675571 1
gene 1 15 21 0.322625 0 34 0.322625 1
gene 1 16 21 -0.233974 0 35 -0.233974 1
gene 1 17 21 -0.752285 0 36 -0.752285 1
gene 1 18 21 -0.659751 0 37 -0.659751 1
gene 1 19 21 -0.364559 0 38 -0.364559 1
gene 1 1 22 -0.0945234 0 39 -0.0945234 1
gene 1 2 22 -2.11755 0 40 -2.11755 1
gene 1 3 22 -0.402722 0 41 -0.402722 1
gene 1 4 22 0.0431146 0 42 0.0431146 1
gene 1 5 22 -0.459389 0 43 -0.459389 1
gene 1 6 22 -1.65317 0 44 -1.65317 1
gene 1 7 22 -0.565826 0 45 -0.565826 1
gene 1 8 22 2.38982 0 46 2.38982 1
gene 1 9 22 0.111132 0 47 0.111132 1
gene 1 10 22 -0.245686 0 48 -0.245686 1
gene 1 11 22 -0.437399 0 49 -0.437399 1
gene 1 12 22 -0.743249 0 50 -0.743249 1
gene 1 13 22 -1.11891 0 51 -1.11891 1
gene 1 14 22 -0.396971 0 52 -0.396971 1
gene 1 15 22 0.332592 0 53 0.332592 1
gene 1 16 22 0.548651 0 54 0.548651 1
gene 1 17 22 -0.704927 0 55 -0.704927 1
gene 1 18 22 -1.23945 0 56 -1.23945 1
gene 1 19 22 1.27283 0 57 1.27283 1
gene 1 1 23 0.440307 0 58 0.440307 1
gene 1 2 23 0.298214 0 59 0.298214 1
gene 1 3 23 0.0811874 0 60 0.0811874 1
gene 1 4 23 0.163709 0 61 0.163709 1
gene 1 5 23 0.640832 0 62 0.640832 1
gene 1 6 23 -1.32333 0 63 -1.32333 1
gene 1 7 23 -0.419871 0 64 -0.419871 1
gene 1 8 23 -0.210355 0 65 -0.210355 1
gene 1 9 23 1.29137 0 66 1.29137 1
gene 1 10 23 0.590812 0 67 0.590812 1
gene 1 11 23 -0.741489 0 68 -0.741489 1
gene 1 12 23 -1.45603 0 69 -1.45603 1
gene 1 13 23 0.355297 0 70 0.355297 1
gene 1 14 23 -0.614041 0 71 -0.614041 1
gene 1 15 23 -0.207715 0 72 -0.207715 0
gene 1 16 23 -0.194159 0 73 -0.194159 1
gene 1 17 23 0.854447 0 74 0.854447 1
gene 1 18 23 0.434572 0 75 0.434572 1
gene 1 19 23 -1.09729 0 76 -1.09729 1
gene 1 21 20 -0.0374208 0 78 -0.0374208 1
gene 1 22 22 -0.538011 1 83 -0.538011 1
gene 1 10 28 -0.49944 0 92 -0.49944 1
gene 1 28 20 -0.227692 0 93 -0.227692 1
gene 1 20 22 -0.862296 0 118 -0.862296 1
gene 1 3 35 0.551141 0 129 0.551141 1
gene 1 35 20 -0.695744 0 130 -0.695744 1
gene 1 1 36 -0.229889 0 131 -0.229889 1
gene 1 36 20 1.12603 0 132 1.12603 1
gene 1 23 23 -0.0290633 1 206 -0.0290633 1
gene 1 6 35 0.624986 0 233 0.624986 1
gene 1 14 68 0.160267 0 261 0.160267 1
gene 1 68 20 -0.315745 0 262 -0.315745 1
gene 1 4 28 0.586423 0 265 0.586423 1
gene 1 15 36 0.30989 0 273 0.30989 1
gene 1 12 72 2.01009 0 283 2.01009 1
gene 1 72 20 -0.0277776 0 284 -0.0277776 1
gene 1 15 75 0.149674 0 290 0.149674 1
gene 1 75 23 0.414403 0 291 0.414403 1
genomeend 158
genomestart 159
trait 1 0 1 0.203131 0 0.347369 1 0.820875 1 
node 1 1 1 1 0
node 2 1 1 1 0
node 3 1 1 1 0
node 4 1 1 1 0
node 5 1 1 1 0
node 6 1 1 1 0
node 7 1 1 1 0
node 8 1 1 1 0
node 9 1 1 1 0
node 10 1 1 1 0
node 11 1 1 1 0
node 12 1 1 1 0
node 13 1 1 1 0
node 14 1 1 1 0
node 15 1 1 1 0
node 16 1 1 1 0
node 17 1 1 1 0
node 18 1 1 1 0
node 19 1 1 3 0
node 20 1 0 2 0
node 21 1 0 2 0
node 22 1 0 2 0
node 23 1 0 2 0
node 28 1 0 0 0
node 35 1 0 0 0
node 36 1 0 0 0
node 68 1 0 0 0
node 72 1 0 0 0
node 75 1 0 0 0
gene 1 1 20 0.743921 0 1 0.743921 1
gene 1 2 20 0.042609 0 2 0.042609 1
gene 1 3 20 0.189256 0 3 0.189256 1
gene 1 4 20 -0.964553 0 4 -0.964553 1
gene 1 5 20 -0.539324 0 5 -0.539324 1
gene 1 6 20 0.469893 0 6 0.469893 1
gene 1 7 20 0.576232 0 7 0.576232 1
gene 1 8 20 0.673657 0 8 0.673657 1
gene 1 9 20 -1.00883 0 9 -1.00883 1
gene 1 10 20 -0.0394346 0 10 -0.0394346 1
gene 1 11 20 -0.566062 0 11 -0.566062 1
gene 1 12 20 0.565772 0 12 0.565772 1
gene 1 13 20 -0.759988 0 13 -0.759988 1
gene 1 14 20 0.206118 0 14 0.206118 0
gene 1 15 20 -0.703291 0 15 -0.703291 1
gene 1 16 20 0.366592 0 16 0.366592 1
gene 1 17 20 1.14147 0 17 1.14147 1
gene 1 18 20 -0.447837 0 18 -0.447837 1
gene 1 19 20 -0.0655615 0 19 -0.0655615 1
gene 1 1 21 -0.313783 0 20 -0.313783 1
gene 1 2 21 0.00897568 0 21 0.00897568 1
gene 1 3 21 0.68403 0 22 0.68403 1
gene 1 4 21 0.978444 0 23 0.978444 1
gene 1 5 21 -0.890104 0 24 -0.890104 1
gene 1 6 21 0.332135 0 25 0.332135 1
gene 1 7 21 0.204698 0 26 0.204698 1
gene 1 8 21 0.757653 0 27 0.757653 1
gene 1 9 21 0.343346 0 28 0.343346 1
gene 1 10 21 0.877998 0 29 0.877998 1
gene 1 11 21 -2.09326 0 30 -2.09326 1
gene 1 12 21 -0.240853 0 31 -0.240853 1
gene 1 13 21 -0.190648 0 32 -0.190648 1
gene 1 14 21 0.699404 0 33 0.699404 1
gene 1 15 21 -0.788981 0 34 -0.788981 1
gene 1 16 21 -0.364366 0 35 -0.364366 1
gene 1 17 21 -0.587185 0 36 -0.587185 1
gene 1 18 21 -0.44366 0 37 -0.44366 1
gene 1 19 21 0.0534724 0 38 0.0534724 1
gene 1 1 22 -0.486886 0 39 -0.486886 1
gene 1 2 22 -0.582179 0 40 -0.582179 1
gene 1 3 22 -0.181532 0 41 -0.181532 1
gene 1 4 22 -0.248226 0 42 -0.248226 1
gene 1 5 22 0.148067 0 43 0.148067 1
gene 1 6 22 -0.0305203 0 44 -0.0305203 1
gene 1 7 22 -1.09826 0 45 -1.09826 1
gene 1 8 22 3 0 46 3 1
gene 1 9 22 0.756294 0 47 0.756294 1
gene 1 10 22 -0.464116 0 48 -0.464116 1
gene 1 11 22 -0.119513 0 49 -0.119513 1
gene 1 12 22 -0.479461 0 50 -0.479461 1
gene 1 13 22 -0.313898 0 51 -0.313898 1
gene 1 14 22 0.211731 0 52 0.211731 1
gene 1 15 22 -0.821642 0 53 -0.821642 1
gene 1 16 22 -0.163224 0 54 -0.163224 1
gene 1 17 22 -0.176432 0 55 -0.176432 1
gene 1 18 22 -2.03639 0 56 -2.03639 1
gene 1 19 22 1.4829 0 57 1.4829 1
gene 1 1 23 -0.169633 0 58 -0.169633 1
gene 1 2 23 0.0522082 0 59 0.0522082 1
gene 1 3 23 0.0411694 0 60 0.0411694 1
gene 1 4 23 0.625559 0 61 0.625559 1
gene 1 5 23 0.428729 0 62 0.428729 1
gene 1 6 23 -1.66968 0 63 -1.66968 1
gene 1 7 23 -0.556118 0 64 -0.556118 1
gene 1 8 23 -0.00226742 0 65 -0.00226742 1
gene 1 9 23 -0.0836475 0 66 -0.0836475 1
gene 1 10 23 0.376576 0 67 0.376576 1
gene 1 11 23 -0.19411 0 68 -0.19411 1
gene 1 12 23 -0.69374 0 69 -0.69374 1
gene 1 13 23 2.03745 0 70 2.03745 1
gene 1 14 23 0.123603 0 71 0.123603 1
gene 1 15 23 0.0476621 0 72 0.0476621 0
gene 1 16 23 0.236045 0 73 0.236045 1
gene 1 17 23 -0.782626 0 74 -0.782626 1
gene 1 18 23 -0.919984 0 75 -0.919984 1
gene 1 19 23 -0.851872 0 76 -0.851872 1
gene 1 21 20 0.134292 0 78 0.134292 1
gene 1 22 22 -0.410097 1 83 -0.410097 1
gene 1 10 28 0.123488 0 92 0.123488 1
gene 1 28 20 -0.689601 0 93 -0.689601 1
gene 1 20 22 -0.601805 0 118 -0.601805 1
gene 1 3 35 0.317676 0 129 0.317676 1
gene 1 35 20 -0.240237 0 130 -0.240237 1
gene 1 1 36 -0.549933 0 131 -0.549933 1
gene 1 36 20 -0.454285 0 132 -0.454285 1
gene 1 23 23 -0.657839 1 206 -0.657839 1
gene 1 6 35 0.342433 0 233 0.342433 1
gene 1 14 68 -0.799503 0 261 -0.799503 1
gene 1 68 20 0.331089 0 262 0.331089 1
gene 1 4 28 0.102705 0 265 0.102705 1
gene 1 15 36 0.255126 0 273 0.255126 1
gene 1 12 72 1.32353 0 283 1.32353 1
gene 1 72 20 0.402449 0 284 0.402449 1
gene 1 15 75 2.39634 0 290 2.39634 1
gene 1 75 23 0.395491 0 291 0.395491 1
gene 1 17 68 -0.573445 0 321 -0.573445 1
genomeend 159
genomestart 160
trait 1 0.0516177 1 0.203131 0 0 0.11177 0.757197 0.868443 
node 1 1 1 1 0
node 2 1 1 1 0
node 3 1 1 1 0
node 4 1 1 1 0
node 5 1 1 1 0
node 6 1 1 1 0
node 7 1 1 1 0
node 8 1 1 1 0
node 9 1 1 1 0
node 10 1 1 1 0
node 11 1 1 1 0
node 12 1 1 1 0
node 13 1 1 1 0
node 14 1 1 1 0
node 15 1 1 1 0
node 16 1 1 1 0
node 17 1 1 1 0
node 18 1 1 1 0
node 19 1 1 3 0
node 20 1 0 2 0
node 21 1 0 2 0
node 22 1 0 2 0
node 23 1 0 2 0
node 28 1 0 0 0
node 35 1 0 0 0
node 36 1 0 0 0
node 68 1 0 0 0
node 72 1 0 0 0
node 75 1 0 0 0
gene 1 1 20 -0.207657 0 1 -0.207657 0
gene 1 2 20 -2.33891 0 2 -2.33891 1
gene 1 3 20 0.112495 0 3 0.112495 1
gene 1 4 20 -0.423116 0 4 -0.423116 1
gene 1 5 20 -1.37398 0 5 -1.37398 1
gene 1 6 20 -0.0522572 0 6 -0.0522572 1
gene 1 7 20 -0.730033 0 7 -0.730033 1
gene 1 8 20 -0.963236 0 8 -0.963236 1
gene 1 9 20 -1.24153 0 9 -1.24153 1
gene 1 10 20 -0.521899 0 10 -0.521899 1
gene 1 11 20 -0.181391 0 11 -0.181391 1
gene 1 12 20 0.658795 0 12 0.658795 1
gene 1 13 20 -1.13071 0 13 -1.13071 1
gene 1 14 20 0.136097 0 14 0.136097 0
gene 1 15 20 -0.29729 0 15 -0.29729 1
gene 1 16 20 -0.299677 0 16 -0.299677 1
gene 1 17 20 1.24074 0 17 1.24074 1
gene 1 18 20 -0.728913 0 18 -0.728913 1
gene 1 19 20 -0.184421 0 19 -0.184421 1
gene 1 1 21 0.321765 0 20 0.321765 1
gene 1 2 21 -0.341172 0 21 -0.341172 1
gene 1 3 21 0.656898 0 22 0.656898 1
gene 1 4 21 0.238157 0 23 0.238157 1
gene 1 5 21 -1.10151 0 24 -1.10151 1
gene 1 6 21 -0.383815 0 25 -0.383815 1
gene 1 7 21 0.212971 0 26 0.212971 1
gene 1 8 21 0.832485 0 27 0.832485 1
gene 1 9 21 -0.496408 0 28 -0.496408 1
gene 1 10 21 0.480467 0 29 0.480467 1
gene 1 11 21 -1.50878 0 30 -1.50878 1
gene 1 12 21 0.0209514 0 31 0.0209514 1
gene 1 13 21 0.0972495 0 32 0.0972495 1
gene 1 14 21 1.03445 0 33 1.03445 1
gene 1 15 21 -0.602606 0 34 -0.602606 1
gene 1 16 21 0.524181 0 35 0.524181 1
gene 1 17 21 -0.231034 0 36 -0.231034 1
gene 1 18 21 0.07778 0 37 0.07778 1
gene 1 19 21 0.276699 0 38 0.276699 1
gene 1 1 22 -0.21136 0 39 -0.21136 1
gene 1 2 22 -2.6654 0 40 -2.6654 1
gene 1 3 22 0.545242 0 41 0.545242 1
gene 1 4 22 -0.429795 0 42 -0.429795 1
gene 1 5 22 0.238132 0 43 0.238132 1
gene 1 6 22 -1.01872 0 44 -1.01872 1
gene 1 7 22 0.128119 0 45 0.128119 1
gene 1 8 22 2.28173 0 46 2.28173 1
gene 1 9 22 1.04212 0 47 1.04212 1
gene 1 10 22 -0.317644 0 48 -0.317644 1
gene 1 11 22 0.0831597 0 49 0.0831597 1
gene 1 12 22 -0.472223 0 50 -0.472223 1
gene 1 13 22 -0.0583412 0 51 -0.0583412 1
gene 1 14 22 -0.330701 0 52 -0.330701 1
gene 1 15 22 -0.126831 0 53 -0.126831 1
gene 1 16 22 -0.439848 0 54 -0.439848 1
gene 1 17 22 1.27134 0 55 1.27134 1
gene 1 18 22 -0.534977 0 56 -0.534977 1
gene 1 19 22 1.4976 0 57 1.4976 1
gene 1 1 23 0.434849 0 58 0.434849 1
gene 1 2 23 1.29784 0 59 1.29784 1
gene 1 3 23 0.684386 0 60 0.684386 1
gene 1 4 23 0.704449 0 61 0.704449 1
gene 1 5 23 -0.475821 0 62 -0.475821 1
gene 1 6 23 -1.94686 0 63 -1.94686 1
gene 1 7 23 -0.391152 0 64 -0.391152 1
gene 1 8 23 1.09887 0 65 1.09887 1
gene 1 9 23 -0.00842649 0 66 -0.00842649 1
gene 1 10 23 -0.315089 0 67 -0.315089 1
gene 1 11 23 -0.0263325 0 68 -0.0263325 1
gene 1 12 23 -1.89565 0 69 -1.89565 1
gene 1 13 23 2.83865 0 70 2.83865 1
gene 1 14 23 0.702337 0 71 0.702337 1
gene 1 15 23 -0.0699038 0 72 -0.0699038 1
gene 1 16 23 -0.258664 0 73 -0.258664 1
gene 1 17 23 -0.340307 0 74 -0.340307 1
gene 1 18 23 0.085308 0 75 0.085308 1
gene 1 19 23 -1.06372 0 76 -1.06372 1
gene 1 21 20 0.149212 0 78 0.149212 1
gene 1 22 22 -0.561913 1 83 -0.561913 1
gene 1 10 28 0.0169452 0 92 0.0169452 1
gene 1 28 20 -0.239086 0 93 -0.239086 1
gene 1 20 22 -0.0497212 0 118 -0.0497212 1
gene 1 3 35 0.469211 0 129 0.469211 1
gene 1 35 20 -0.629803 0 130 -0.629803 1
gene 1 1 36 -0.514473 0 131 -0.514473 1
gene 1 36 20 1.2129 0 132 1.2129 1
gene 1 23 23 0.451739 1 206 0.451739 1
gene 1 6 35 1.2369 0 233 1.2369 1
gene 1 14 68 0.0839362 0 261 0.0839362 1
gene 1 68 20 0.345691 0 262 0.345691 1
gene 1 4 28 0.748318 0 265 0.748318 1
gene 1 15 36 -0.450977 0 273 -0.450977 1
gene 1 12 72 0.10403 0 283 0.10403 1
gene 1 72 20 0.167769 0 284 0.167769 1
gene 1 15 75 -0.674044 0 290 -0.674044 1
gene 1 75 23 0.382745 0 291 0.382745 1
genomeend 160
genomestart 161
trait 1 0 1 0.203131 0.139295 0 0.702821 0.820875 0.342792 
node 1 1 1 1 0
node 2 1 1 1 0
node 3 1 1 1 0
node 4 1 1 1 0
node 5 1 1 1 0
node 6 1 1 1 0
node 7 1 1 1 0
node 8 1 1 1 0
node 9 1 1 1 0
node 10 1 1 1 0
node 11 1 1 1 0
node 12 1 1 1 0
node 13 1 1 1 0
node 14 1 1 1 0
node 15 1 1 1 0
node 16 1 1 1 0
node 17 1 1 1 0
node 18 1 1 1 0
node 19 1 1 3 0
node 20 1 0 2 0
node 21 1 0 2 0
node 22 1 0 2 0
node 23 1 0 2 0
node 28 1 0 0 0
node 35 1 0 0 0
node 36 1 0 0 0
node 68 1 0 0 0
node 72 1 0 0 0
node 75 1 0 0 0
gene 1 1 20 0.729563 0 1 0.729563 0
gene 1 2 20 -2.23007 0 2 -2.23007 1
gene 1 3 20 1.03813 0 3 1.03813 1
gene 1 4 20 -0.10257 0 4 -0.10257 1
gene 1 5 20 -0.35086 0 5 -0.35086 1
gene 1 6 20 -0.821716 0 6 -0.821716 1
gene 1 7 20 0.41498 0 7 0.41498 1
gene 1 8 20 0.314604 0 8 0.314604 1
gene 1 9 20 -0.666068 0 9 -0.666068 1
gene 1 10 20 0.167497 0 10 0.167497 1
gene 1 11 20 0.258912 0 11 0.258912 1
gene 1 12 20 -0.166748 0 12 -0.166748 1
gene 1 13 20 -0.516047 0 13 -0.516047 1
gene 1 14 20 0.933767 0 14 0.933767 0
gene 1 15 20 -0.969619 0 15 -0.969619 1
gene 1 16 20 -0.411086 0 16 -0.411086 1
gene 1 17 20 0.343833 0 17 0.343833 1
gene 1 18 20 -0.677818 0 18 -0.677818 1
gene 1 19 20 0.472558 0 19 0.472558 1
gene 1 1 21 -0.923782 0 20 -0.923782 1
gene 1 2 21 -0.18641 0 21 -0.18641 1
gene 1 3 21 0.850084 0 22 0.850084 1
gene 1 4 21 1.99645 0 23 1.99645 1
gene 1 5 21 0.290958 0 24 0.290958 1
gene 1 6 21 -0.577484 0 25 -0.577484 1
gene 1 7 21 0.442368 0 26 0.442368 1
gene 1 8 21 0.333577 0 27 0.333577 1
gene 1 9 21 -0.124018 0 28 -0.124018 1
gene 1 10 21 -0.752285 0 29 -0.752285 1
gene 1 11 21 -2.04992 0 30 -2.04992 1
gene 1 12 21 -0.169484 0 31 -0.169484 1
gene 1 13 21 -0.301391 0 32 -0.301391 1
gene 1 14 21 0.328877 0 33 0.328877 1
gene 1 15 21 -0.455712 0 34 -0.455712 1
gene 1 16 21 1.03165 0 35 1.03165 1
gene 1 17 21 -1.25955 0 36 -1.25955 1
gene 1 18 21 0.0586417 0 37 0.0586417 1
gene 1 19 21 0.0222032 0 38 0.0222032 1
gene 1 1 22 -0.353927 0 39 -0.353927 1
gene 1 2 22 -0.619626 0 40 -0.619626 1
gene 1 3 22 -0.0201194 0 41 -0.0201194 1
gene 1 4 22 0.122719 0 42 0.122719 1
gene 1 5 22 0.0958877 0 43 0.0958877 1
gene 1 6 22 0.124851 0 44 0.124851 1
gene 1 7 22 -0.510258 0 45 -0.510258 1
gene 1 8 22 2.89546 0 46 2.89546 1
gene 1 9 22 -0.00486324 0 47 -0.00486324 1
gene 1 10 22 -0.628875 0 48 -0.628875 1
gene 1 11 22 0.0719033 0 49 0.0719033 1
gene 1 12 22 -0.515145 0 50 -0.515145 1
gene 1 13 22 0.0547193 0 51 0.0547193 1
gene 1 14 22 0.107418 0 52 0.107418 1
gene 1 15 22 -0.14513 0 53 -0.14513 1
gene 1 16 22 0.539798 0 54 0.539798 1
gene 1 17 22 0.356871 0 55 0.356871 1
gene 1 18 22 -0.45138 0 56 -0.45138 1
gene 1 19 22 1.85899 0 57 1.85899 1
gene 1 1 23 0.227698 0 58 0.227698 1
gene 1 2 23 0.860188 0 59 0.860188 1
gene 1 3 23 0.474577 0 60 0.474577 1
gene 1 4 23 -0.156386 0 61 -0.156386 1
