genomestart 2263
trait 1 0.0393161 0.976431 0.730876 0.900195 0.895852 0.276305 0.611468 0.66966 
node 1 1 1 1 0
node 2 1 1 1 0
node 3 1 1 1 0
node 4 1 1 1 0
node 5 1 1 1 0
node 6 1 1 1 0
node 7 1 1 1 0
node 8 1 1 1 0
node 9 1 1 1 0
node 10 1 1 1 0
node 11 1 1 1 0
node 12 1 1 1 0
node 13 1 1 1 0
node 14 1 1 1 0
node 15 1 1 1 0
node 16 1 1 1 0
node 17 1 1 1 0
node 18 1 1 1 0
node 19 1 1 3 0
node 20 1 0 2 0
node 21 1 0 2 0
node 22 1 0 2 0
node 23 1 0 2 0
node 24 1 0 0 0
node 25 1 0 0 0
node 26 1 0 0 0
node 27 1 0 0 0
node 30 1 0 0 0
node 31 1 0 0 0
node 38 1 0 0 0
node 39 1 0 0 0
node 43 1 0 0 0
node 45 1 0 0 0
node 47 1 0 0 0
node 48 1 0 0 0
node 52 1 0 0 0
node 56 1 0 0 0
node 57 1 0 0 0
node 60 1 0 0 0
node 63 1 0 0 0
node 64 1 0 0 0
node 66 1 0 0 0
node 68 1 0 0 0
node 72 1 0 0 0
node 76 1 0 0 0
node 79 1 0 0 0
node 81 1 0 0 0
node 83 1 0 0 0
node 91 1 0 0 0
node 93 1 0 0 0
node 97 1 0 0 0
node 98 1 0 0 0
node 103 1 0 0 0
node 106 1 0 0 0
node 121 1 0 0 0
node 127 1 0 0 0
node 128 1 0 0 0
node 134 1 0 0 0
node 136 1 0 0 0
node 138 1 0 0 0
node 141 1 0 0 0
node 144 1 0 0 0
node 154 1 0 0 0
node 159 1 0 0 0
node 161 1 0 0 0
node 164 1 0 0 0
node 170 1 0 0 0
node 173 1 0 0 0
node 180 1 0 0 0
node 195 1 0 0 0
node 244 1 0 0 0
gene 1 1 20 0.610971 0 1 0.610971 1
gene 1 2 20 0.437735 0 2 0.437735 0
gene 1 3 20 -0.0842322 0 3 -0.0842322 0
gene 1 4 20 1.0254 0 4 1.0254 1
gene 1 5 20 0.020415 0 5 0.020415 1
gene 1 6 20 -1.53528 0 6 -1.53528 1
gene 1 7 20 0.332266 0 7 0.332266 1
gene 1 8 20 -0.242727 0 8 -0.242727 0
gene 1 9 20 -1.01677 0 9 -1.01677 0
gene 1 10 20 0.323896 0 10 0.323896 1
gene 1 11 20 0.0145646 0 11 0.0145646 1
gene 1 12 20 -1.77165 0 12 -1.77165 1
gene 1 13 20 -0.948631 0 13 -0.948631 1
gene 1 14 20 0.117999 0 14 0.117999 1
gene 1 15 20 0.50106 0 15 0.50106 1
gene 1 16 20 -0.224439 0 16 -0.224439 0
gene 1 17 20 0.317169 0 17 0.317169 1
gene 1 18 20 -0.0710099 0 18 -0.0710099 1
gene 1 19 20 0.338177 0 19 0.338177 1
gene 1 1 21 -0.00237308 0 20 -0.00237308 1
gene 1 2 21 0.8917 0 21 0.8917 1
gene 1 3 21 0.0596579 0 22 0.0596579 1
gene 1 4 21 -0.547498 0 23 -0.547498 1
gene 1 5 21 1.9223 0 24 1.9223 1
gene 1 6 21 0.221224 0 25 0.221224 0
gene 1 7 21 0.217519 0 26 0.217519 0
gene 1 8 21 -0.450908 0 27 -0.450908 1
gene 1 9 21 -0.616264 0 28 -0.616264 1
gene 1 10 21 -0.169152 0 29 -0.169152 1
gene 1 11 21 0.397967 0 30 0.397967 1
gene 1 12 21 -0.0289497 0 31 -0.0289497 1
gene 1 13 21 0.0279826 0 32 0.0279826 0
gene 1 14 21 -0.452936 0 33 -0.452936 0
gene 1 15 21 0.696738 0 34 0.696738 1
gene 1 16 21 -0.168419 0 35 -0.168419 1
gene 1 17 21 0.0494786 0 36 0.0494786 0
gene 1 18 21 1.15458 0 37 1.15458 1
gene 1 19 21 0.544239 0 38 0.544239 1
gene 1 1 22 -0.318473 0 39 -0.318473 1
gene 1 2 22 -0.394649 0 40 -0.394649 1
gene 1 3 22 -0.543046 0 41 -0.543046 1
gene 1 4 22 -0.0332424 0 42 -0.0332424 1
gene 1 5 22 0.394579 0 43 0.394579 0
gene 1 6 22 -0.152102 0 44 -0.152102 1
gene 1 7 22 0.380544 0 45 0.380544 1
gene 1 8 22 0.317746 0 46 0.317746 1
gene 1 9 22 -0.812868 0 47 -0.812868 1
gene 1 10 22 0.0326409 0 48 0.0326409 1
gene 1 11 22 -0.309724 0 49 -0.309724 1
gene 1 12 22 -0.0400307 0 50 -0.0400307 1
gene 1 13 22 -0.731586 0 51 -0.731586 1
gene 1 14 22 0.395452 0 52 0.395452 1
gene 1 15 22 0.0723492 0 53 0.0723492 1
gene 1 16 22 0.576889 0 54 0.576889 1
gene 1 17 22 1.07928 0 55 1.07928 1
gene 1 18 22 -0.453854 0 56 -0.453854 1
gene 1 19 22 -0.15283 0 57 -0.15283 1
gene 1 1 23 -0.907702 0 58 -0.907702 1
gene 1 2 23 0.33529 0 59 0.33529 1
gene 1 3 23 0.419429 0 60 0.419429 0
gene 1 4 23 -0.273873 0 61 -0.273873 1
gene 1 5 23 -0.374516 0 62 -0.374516 0
gene 1 6 23 -0.354123 0 63 -0.354123 1
gene 1 7 23 0.52015 0 64 0.52015 1
gene 1 8 23 0.621982 0 65 0.621982 1
gene 1 9 23 -0.0563705 0 66 -0.0563705 1
gene 1 10 23 0.228761 0 67 0.228761 1
gene 1 11 23 -0.560727 0 68 -0.560727 1
gene 1 12 23 -0.12608 0 69 -0.12608 0
gene 1 13 23 0.107329 0 70 0.107329 1
gene 1 14 23 0.349772 0 71 0.349772 1
gene 1 15 23 0.735895 0 72 0.735895 1
gene 1 16 23 -0.413914 0 73 -0.413914 0
gene 1 17 23 0.0972461 0 74 0.0972461 1
gene 1 18 23 0.0857475 0 75 0.0857475 1
gene 1 19 23 -1.00081 0 76 -1.00081 1
gene 1 4 24 0.361157 0 77 0.361157 1
gene 1 24 20 -0.137171 0 78 -0.137171 1
gene 1 18 25 -0.0303874 0 79 -0.0303874 1
gene 1 25 22 -0.178866 0 80 -0.178866 1
gene 1 3 26 -0.0421134 0 81 -0.0421134 0
gene 1 26 21 0.938739 0 82 0.938739 1
gene 1 22 20 -1.25699 0 83 -1.25699 1
gene 1 3 27 -0.868357 0 84 -0.868357 1
gene 1 27 23 -1.00356 0 85 -1.00356 1
gene 1 22 21 -1.38768 0 91 -1.38768 1
gene 1 9 30 -0.16371 0 93 -0.16371 1
gene 1 30 20 -1.18647 0 94 -1.18647 1
gene 1 26 20 0.41963 0 96 0.41963 1
gene 1 6 31 -0.0395683 0 98 -0.0395683 1
gene 1 31 22 -0.798343 0 99 -0.798343 0
gene 1 21 23 -0.474682 0 101 -0.474682 1
gene 1 23 22 -1.60656 0 104 -1.60656 1
gene 1 22 26 0.378287 0 105 0.378287 1
gene 1 16 38 -0.333042 0 119 -0.333042 1
gene 1 38 23 -0.626806 0 120 -0.626806 1
gene 1 9 39 -1.54646 0 121 -1.54646 1
gene 1 39 21 -0.0845204 0 122 -0.0845204 1
gene 1 14 27 0.827253 0 130 0.827253 1
gene 1 12 27 -1.19249 0 131 -1.19249 1
gene 1 9 43 0.0495551 0 134 0.0495551 1
gene 1 43 22 0.283619 0 135 0.283619 1
gene 1 26 26 0.224938 1 137 0.224938 1
gene 1 10 27 0.192091 0 139 0.192091 1
gene 1 31 30 0.763899 0 141 0.763899 1
gene 1 20 20 -0.00686395 1 146 -0.00686395 1
gene 1 9 45 0.446258 0 148 0.446258 1
gene 1 45 22 1.01645 0 149 1.01645 1
gene 1 26 30 -0.0267283 0 153 -0.0267283 1
gene 1 18 47 0.149932 0 154 0.149932 1
gene 1 47 21 -0.46246 0 155 -0.46246 0
gene 1 5 48 0.0654202 0 156 0.0654202 1
gene 1 48 22 -0.130083 0 157 -0.130083 1
gene 1 10 26 1.38056 0 159 1.38056 1
gene 1 7 25 0.073739 0 162 0.073739 1
gene 1 9 26 -0.712207 0 169 -0.712207 1
gene 1 1 27 0.169246 0 170 0.169246 0
gene 1 13 52 -1.04736 0 173 -1.04736 1
gene 1 52 21 -0.576513 0 174 -0.576513 1
gene 1 14 56 -0.126258 0 183 -0.126258 1
gene 1 56 20 -0.00735291 0 184 -0.00735291 1
gene 1 16 26 0.425897 0 185 0.425897 1
gene 1 11 57 0.386955 0 186 0.386955 1
gene 1 57 20 -0.270239 0 187 -0.270239 1
gene 1 17 30 0.905036 0 190 0.905036 1
gene 1 30 48 -0.497009 0 193 -0.497009 1
gene 1 25 24 -0.190496 0 200 -0.190496 1
gene 1 24 24 0.459451 1 208 0.459451 1
gene 1 17 60 -1.41798 0 209 -1.41798 1
gene 1 60 21 -0.45981 0 210 -0.45981 1
gene 1 38 26 0.269625 0 211 0.269625 1
gene 1 19 39 0.176129 0 212 0.176129 1
gene 1 6 47 -0.642039 0 215 -0.642039 1
gene 1 7 43 -0.988086 0 217 -0.988086 1
gene 1 18 26 0.869366 0 218 0.869366 1
gene 1 47 63 0.0152815 0 228 0.0152815 1
gene 1 63 21 0.189582 0 229 0.189582 1
gene 1 2 64 0.243647 0 231 0.243647 1
gene 1 64 20 0.512304 0 232 0.512304 1
gene 1 64 64 0.396404 1 235 0.396404 0
gene 1 3 66 1.04499 0 236 1.04499 1
gene 1 66 23 -0.00254389 0 237 -0.00254389 1
gene 1 13 68 0.520088 0 241 0.520088 1
gene 1 68 22 -0.670824 0 242 -0.670824 1
gene 1 10 48 1.86858 0 252 1.86858 1
gene 1 6 25 -0.323693 0 265 -0.323693 1
gene 1 12 72 0.616395 0 266 0.616395 1
gene 1 72 21 -0.252412 0 267 -0.252412 1
gene 1 1 47 -0.0890994 0 274 -0.0890994 0
gene 1 30 38 1.15856 0 281 1.15856 1
gene 1 3 76 -0.26249 0 282 -0.26249 1
gene 1 76 20 1.36986 0 283 1.36986 0
gene 1 1 79 1.64895 0 296 1.64895 1
gene 1 79 27 -0.588126 0 297 -0.588126 1
gene 1 22 81 -0.156502 0 301 -0.156502 1
gene 1 81 20 -0.294592 0 302 -0.294592 1
gene 1 7 83 0.903887 0 307 0.903887 1
gene 1 83 21 -0.331209 0 308 -0.331209 1
gene 1 52 66 1.22634 0 317 1.22634 1
gene 1 2 91 -0.13062 0 332 -0.13062 1
gene 1 91 21 -0.706448 0 333 -0.706448 0
gene 1 24 22 0.420741 0 334 0.420741 1
gene 1 4 93 0.0755211 0 345 0.0755211 1
gene 1 93 22 -0.244281 0 346 -0.244281 1
gene 1 7 81 -0.211369 0 355 -0.211369 1
gene 1 52 52 -0.139836 1 362 -0.139836 1
gene 1 18 97 -0.200247 0 377 -0.200247 1
gene 1 97 26 0.423255 0 378 0.423255 1
gene 1 6 98 -0.148248 0 381 -0.148248 1
gene 1 98 21 -0.574268 0 382 -0.574268 1
gene 1 38 91 -0.105039 0 387 -0.105039 1
gene 1 9 103 -0.294851 0 408 -0.294851 1
gene 1 103 20 -0.726379 0 409 -0.726379 1
gene 1 48 64 0.147848 0 418 0.147848 1
gene 1 12 106 0.416842 0 420 0.416842 1
gene 1 106 23 -0.639556 0 421 -0.639556 1
gene 1 72 39 -0.442614 0 426 -0.442614 1
gene 1 5 121 -0.404236 0 485 -0.404236 1
gene 1 121 23 1.16476 0 486 1.16476 1
gene 1 8 127 -0.0410436 0 501 -0.0410436 1
gene 1 127 20 0.227317 0 502 0.227317 1
gene 1 17 128 0.233881 0 503 0.233881 1
gene 1 128 30 0.387821 0 504 0.387821 1
gene 1 31 23 -0.37107 0 508 -0.37107 1
gene 1 31 134 -0.564455 0 524 -0.564455 1
gene 1 134 22 2.0107 0 525 2.0107 1
gene 1 91 64 0.174809 0 528 0.174809 1
gene 1 10 136 0.868465 0 533 0.868465 1
gene 1 136 23 -0.443786 0 534 -0.443786 1
gene 1 91 138 -1.30477 0 538 -1.30477 1
gene 1 138 21 -0.594077 0 539 -0.594077 1
gene 1 38 38 0.0515742 1 548 0.0515742 1
gene 1 27 141 0.395115 0 552 0.395115 1
gene 1 141 23 0.274352 0 553 0.274352 1
gene 1 27 31 0.170751 0 560 0.170751 1
gene 1 64 128 -1.13188 0 561 -1.13188 1
gene 1 14 144 0.162046 0 567 0.162046 1
gene 1 144 21 0.188341 0 568 0.188341 1
gene 1 60 66 -0.0919956 0 582 -0.0919956 1
gene 1 136 121 0.349397 0 599 0.349397 1
gene 1 6 72 0.075188 0 605 0.075188 1
gene 1 27 154 0.311133 0 618 0.311133 0
gene 1 154 31 -0.379274 0 619 -0.379274 1
gene 1 39 64 -0.160984 0 630 -0.160984 1
gene 1 27 159 -0.171878 0 640 -0.171878 1
gene 1 159 154 0.00431367 0 641 0.00431367 1
gene 1 12 128 0.993809 0 642 0.993809 1
gene 1 15 161 -0.0372827 0 647 -0.0372827 1
gene 1 161 22 -0.345119 0 648 -0.345119 1
gene 1 10 43 0.117956 0 658 0.117956 1
gene 1 27 52 0.204376 0 659 0.204376 1
gene 1 64 164 -0.277811 1 675 -0.277811 1
gene 1 164 64 0.320976 0 676 0.320976 1
gene 1 3 170 -1.86157 0 701 -1.86157 1
gene 1 170 26 -0.0677221 0 702 -0.0677221 1
gene 1 5 106 0.618736 0 708 0.618736 1
gene 1 17 173 1.21649 0 722 1.21649 1
gene 1 173 23 0.420914 0 723 0.420914 1
gene 1 121 121 0.479092 1 724 0.479092 1
gene 1 56 79 -0.394655 0 739 -0.394655 1
gene 1 154 154 -0.022957 1 741 -0.022957 1
gene 1 16 180 1.1802 0 768 1.1802 1
gene 1 180 20 0.977779 0 769 0.977779 1
gene 1 45 136 -0.234225 0 771 -0.234225 1
gene 1 97 21 0.119441 0 783 0.119441 1
gene 1 66 66 0.086616 1 791 0.086616 1
gene 1 39 39 0.129498 1 807 0.129498 1
gene 1 27 138 -0.0110802 0 808 -0.0110802 1
gene 1 138 26 0.428062 0 817 0.428062 1
gene 1 144 52 -0.523367 0 835 -0.523367 1
gene 1 68 68 0.17913 1 836 0.17913 1
gene 1 21 21 1.22912 1 850 1.22912 1
gene 1 19 60 0.0378455 0 851 0.0378455 1
gene 1 76 195 0.8283 0 863 0.8283 1
gene 1 195 20 0.373033 0 864 0.373033 1
gene 1 173 64 0.927062 0 876 0.927062 1
gene 1 4 144 -0.932358 0 884 -0.932358 1
gene 1 68 81 0.400278 0 898 0.400278 1
gene 1 180 47 0.79422 0 902 0.79422 1
gene 1 27 24 0.946397 0 928 0.946397 1
gene 1 159 173 0.611506 0 951 0.611506 1
gene 1 164 25 -0.587672 0 1064 -0.587672 1
gene 1 1 244 1.68725 0 1070 1.68725 1
gene 1 244 47 -0.152279 0 1071 -0.152279 1
genomeend 2263
genomestart 2300
trait 1 0.0393161 0.976431 0.730876 0.900195 0.895852 0.276305 0.611468 0.66966 
node 1 1 1 1 0
node 2 1 1 1 0
node 3 1 1 1 0
node 4 1 1 1 0
node 5 1 1 1 0
node 6 1 1 1 0
node 7 1 1 1 0
node 8 1 1 1 0
node 9 1 1 1 0
node 10 1 1 1 0
node 11 1 1 1 0
node 12 1 1 1 0
node 13 1 1 1 0
node 14 1 1 1 0
node 15 1 1 1 0
node 16 1 1 1 0
node 17 1 1 1 0
node 18 1 1 1 0
node 19 1 1 3 0
node 20 1 0 2 0
node 21 1 0 2 0
node 22 1 0 2 0
node 23 1 0 2 0
node 24 1 0 0 0
node 25 1 0 0 0
node 26 1 0 0 0
node 27 1 0 0 0
node 30 1 0 0 0
node 31 1 0 0 0
node 38 1 0 0 0
node 39 1 0 0 0
node 43 1 0 0 0
node 45 1 0 0 0
node 47 1 0 0 0
node 48 1 0 0 0
node 52 1 0 0 0
node 56 1 0 0 0
node 57 1 0 0 0
node 60 1 0 0 0
node 63 1 0 0 0
node 64 1 0 0 0
node 66 1 0 0 0
node 68 1 0 0 0
node 72 1 0 0 0
node 76 1 0 0 0
node 79 1 0 0 0
node 81 1 0 0 0
node 83 1 0 0 0
node 91 1 0 0 0
node 93 1 0 0 0
node 97 1 0 0 0
node 98 1 0 0 0
node 103 1 0 0 0
node 106 1 0 0 0
node 121 1 0 0 0
node 127 1 0 0 0
node 128 1 0 0 0
node 134 1 0 0 0
node 136 1 0 0 0
node 138 1 0 0 0
node 141 1 0 0 0
node 144 1 0 0 0
node 154 1 0 0 0
node 159 1 0 0 0
node 161 1 0 0 0
node 164 1 0 0 0
node 170 1 0 0 0
node 173 1 0 0 0
node 180 1 0 0 0
node 195 1 0 0 0
node 244 1 0 0 0
gene 1 1 20 0.610971 0 1 0.610971 1
gene 1 2 20 0.437735 0 2 0.437735 0
gene 1 3 20 -0.0842322 0 3 -0.0842322 0
gene 1 4 20 1.0254 0 4 1.0254 1
gene 1 5 20 0.801653 0 5 0.801653 1
gene 1 6 20 -1.53528 0 6 -1.53528 1
gene 1 7 20 -0.031369 0 7 -0.031369 1
gene 1 8 20 -1.00011 0 8 -1.00011 0
gene 1 9 20 -1.01677 0 9 -1.01677 0
gene 1 10 20 -0.143459 0 10 -0.143459 1
gene 1 11 20 -0.469218 0 11 -0.469218 1
gene 1 12 20 -0.530099 0 12 -0.530099 1
gene 1 13 20 -0.483465 0 13 -0.483465 1
gene 1 14 20 0.0798964 0 14 0.0798964 1
gene 1 15 20 0.649975 0 15 0.649975 1
gene 1 16 20 -0.234123 0 16 -0.234123 0
gene 1 17 20 -0.103569 0 17 -0.103569 1
gene 1 18 20 -0.58913 0 18 -0.58913 1
gene 1 19 20 -0.34882 0 19 -0.34882 1
gene 1 1 21 0.125761 0 20 0.125761 1
gene 1 2 21 0.0308172 0 21 0.0308172 1
gene 1 3 21 0.0596579 0 22 0.0596579 1
gene 1 4 21 -0.222503 0 23 -0.222503 1
gene 1 5 21 2.37854 0 24 2.37854 1
gene 1 6 21 0.263059 0 25 0.263059 0
gene 1 7 21 0.217519 0 26 0.217519 0
gene 1 8 21 -0.869727 0 27 -0.869727 1
gene 1 9 21 -0.344432 0 28 -0.344432 1
gene 1 10 21 0.188122 0 29 0.188122 1
gene 1 11 21 -0.106859 0 30 -0.106859 1
gene 1 12 21 -0.537564 0 31 -0.537564 1
gene 1 13 21 0.0279826 0 32 0.0279826 0
gene 1 14 21 0.823126 0 33 0.823126 0
gene 1 15 21 -1.0212 0 34 -1.0212 1
gene 1 16 21 1.23961 0 35 1.23961 1
gene 1 17 21 -0.286694 0 36 -0.286694 0
gene 1 18 21 1.15458 0 37 1.15458 1
gene 1 19 21 0.175428 0 38 0.175428 1
gene 1 1 22 -0.526258 0 39 -0.526258 1
gene 1 2 22 -0.417743 0 40 -0.417743 1
gene 1 3 22 -0.680746 0 41 -0.680746 1
gene 1 4 22 0.744293 0 42 0.744293 1
gene 1 5 22 -0.334817 0 43 -0.334817 0
gene 1 6 22 0.0642925 0 44 0.0642925 1
gene 1 7 22 -0.207441 0 45 -0.207441 1
gene 1 8 22 0.320485 0 46 0.320485 1
gene 1 9 22 -0.812868 0 47 -0.812868 1
gene 1 10 22 0.0326409 0 48 0.0326409 1
gene 1 11 22 -0.828159 0 49 -0.828159 1
gene 1 12 22 0.303067 0 50 0.303067 1
gene 1 13 22 0.194071 0 51 0.194071 1
gene 1 14 22 0.119532 0 52 0.119532 1
gene 1 15 22 -0.262935 0 53 -0.262935 1
gene 1 16 22 0.576889 0 54 0.576889 1
gene 1 17 22 -0.341464 0 55 -0.341464 1
gene 1 18 22 -0.453854 0 56 -0.453854 1
gene 1 19 22 0.579169 0 57 0.579169 1
gene 1 1 23 -0.890748 0 58 -0.890748 1
gene 1 2 23 -0.659077 0 59 -0.659077 1
gene 1 3 23 0.419429 0 60 0.419429 0
gene 1 4 23 0.573033 0 61 0.573033 1
gene 1 5 23 -0.0925121 0 62 -0.0925121 0
gene 1 6 23 -1.2926 0 63 -1.2926 1
gene 1 7 23 0.52015 0 64 0.52015 1
gene 1 8 23 -0.0893589 0 65 -0.0893589 1
gene 1 9 23 -0.055111 0 66 -0.055111 1
gene 1 10 23 1.38827 0 67 1.38827 1
gene 1 11 23 -0.973288 0 68 -0.973288 1
gene 1 12 23 -0.240758 0 69 -0.240758 0
gene 1 13 23 -0.549842 0 70 -0.549842 1
gene 1 14 23 0.349772 0 71 0.349772 1
gene 1 15 23 1.9767 0 72 1.9767 1
gene 1 16 23 -1.58746 0 73 -1.58746 0
gene 1 17 23 0.0706321 0 74 0.0706321 1
gene 1 18 23 0.0475735 0 75 0.0475735 1
gene 1 19 23 -0.937476 0 76 -0.937476 1
gene 1 4 24 -0.792712 0 77 -0.792712 1
gene 1 24 20 -0.56384 0 78 -0.56384 1
gene 1 18 25 -0.0303874 0 79 -0.0303874 1
gene 1 25 22 0.342704 0 80 0.342704 1
gene 1 3 26 -0.265873 0 81 -0.265873 0
gene 1 26 21 -0.86121 0 82 -0.86121 1
gene 1 22 20 -1.25699 0 83 -1.25699 1
gene 1 3 27 -1.36275 0 84 -1.36275 1
gene 1 27 23 -1.00356 0 85 -1.00356 1
gene 1 22 21 0.26438 0 91 0.26438 1
gene 1 9 30 0.445551 0 93 0.445551 1
gene 1 30 20 -1.18647 0 94 -1.18647 1
gene 1 26 20 0.0474837 0 96 0.0474837 1
gene 1 6 31 0.365535 0 98 0.365535 1
gene 1 31 22 -0.798343 0 99 -0.798343 0
gene 1 21 23 0.180191 0 101 0.180191 1
gene 1 23 22 -0.324883 0 104 -0.324883 1
gene 1 22 26 0.378287 0 105 0.378287 1
gene 1 16 38 0.827977 0 119 0.827977 1
gene 1 38 23 -0.740311 0 120 -0.740311 1
gene 1 9 39 -0.684609 0 121 -0.684609 1
gene 1 39 21 0.835164 0 122 0.835164 1
gene 1 14 27 0.614572 0 130 0.614572 1
gene 1 12 27 -1.19241 0 131 -1.19241 1
gene 1 9 43 -0.12106 0 134 -0.12106 1
gene 1 43 22 -0.787376 0 135 -0.787376 1
gene 1 26 26 0.303005 1 137 0.303005 1
gene 1 10 27 0.192091 0 139 0.192091 1
gene 1 31 30 0.763899 0 141 0.763899 1
gene 1 20 20 0.0655891 1 146 0.0655891 1
gene 1 9 45 -0.0541866 0 148 -0.0541866 1
gene 1 45 22 0.821669 0 149 0.821669 1
gene 1 26 30 -0.809475 0 153 -0.809475 1
gene 1 18 47 0.149932 0 154 0.149932 1
gene 1 47 21 -1.37297 0 155 -1.37297 0
gene 1 5 48 0.0654202 0 156 0.0654202 1
gene 1 48 22 0.413814 0 157 0.413814 1
gene 1 10 26 1.08706 0 159 1.08706 1
gene 1 7 25 0.073739 0 162 0.073739 1
gene 1 9 26 -0.960308 0 169 -0.960308 1
gene 1 1 27 -0.225709 0 170 -0.225709 0
gene 1 13 52 -1.04736 0 173 -1.04736 1
gene 1 52 21 0.0300338 0 174 0.0300338 1
gene 1 14 56 0.358926 0 183 0.358926 1
gene 1 56 20 -1.53644 0 184 -1.53644 1
gene 1 16 26 0.425897 0 185 0.425897 1
gene 1 11 57 -0.234426 0 186 -0.234426 1
gene 1 57 20 0.0271996 0 187 0.0271996 1
gene 1 17 30 1.50232 0 190 1.50232 1
gene 1 30 48 -0.843179 0 193 -0.843179 1
gene 1 25 24 -0.941377 0 200 -0.941377 1
gene 1 24 24 1.50659 1 208 1.50659 1
gene 1 17 60 -0.632478 0 209 -0.632478 1
gene 1 60 21 -0.45981 0 210 -0.45981 1
gene 1 38 26 1.57369 0 211 1.57369 1
gene 1 19 39 -0.71029 0 212 -0.71029 1
gene 1 6 47 -0.642039 0 215 -0.642039 1
gene 1 7 43 -0.988086 0 217 -0.988086 1
gene 1 18 26 0.869366 0 218 0.869366 1
gene 1 47 63 0.0152815 0 228 0.0152815 1
gene 1 63 21 0.569102 0 229 0.569102 1
gene 1 2 64 0.168741 0 231 0.168741 1
gene 1 64 20 0.24763 0 232 0.24763 1
gene 1 64 64 0.396404 1 235 0.396404 0
gene 1 3 66 1.72534 0 236 1.72534 1
gene 1 66 23 -0.170204 0 237 -0.170204 1
gene 1 13 68 -0.490859 0 241 -0.490859 1
gene 1 68 22 -0.539175 0 242 -0.539175 1
gene 1 10 48 1.86858 0 252 1.86858 1
gene 1 6 25 -0.0791807 0 265 -0.0791807 1
gene 1 12 72 1.08572 0 266 1.08572 1
gene 1 72 21 -0.138467 0 267 -0.138467 1
gene 1 1 47 -0.318767 0 274 -0.318767 0
gene 1 30 38 1.15856 0 281 1.15856 1
gene 1 3 76 -0.350219 0 282 -0.350219 1
gene 1 76 20 1.25025 0 283 1.25025 0
gene 1 1 79 2.37984 0 296 2.37984 1
gene 1 79 27 -0.588126 0 297 -0.588126 1
gene 1 22 81 -0.156502 0 301 -0.156502 1
gene 1 81 20 -0.294592 0 302 -0.294592 1
gene 1 7 83 1.07805 0 307 1.07805 1
gene 1 83 21 -0.405923 0 308 -0.405923 1
gene 1 52 66 -0.374611 0 317 -0.374611 1
gene 1 2 91 -0.13062 0 332 -0.13062 1
gene 1 91 21 -0.195329 0 333 -0.195329 0
gene 1 24 22 0.420741 0 334 0.420741 1
gene 1 4 93 0.0755211 0 345 0.0755211 1
gene 1 93 22 -0.554781 0 346 -0.554781 1
gene 1 7 81 -0.211369 0 355 -0.211369 1
gene 1 52 52 -0.933739 1 362 -0.933739 1
gene 1 18 97 -0.200247 0 377 -0.200247 1
gene 1 97 26 0.423255 0 378 0.423255 1
gene 1 6 98 -0.148248 0 381 -0.148248 1
gene 1 98 21 0.184532 0 382 0.184532 1
gene 1 38 91 0.207557 0 387 0.207557 1
gene 1 9 103 -0.0432675 0 408 -0.0432675 1
gene 1 103 20 -0.916201 0 409 -0.916201 1
gene 1 48 64 0.439809 0 418 0.439809 1
gene 1 12 106 0.161937 0 420 0.161937 1
gene 1 106 23 -2.32844 0 421 -2.32844 1
gene 1 72 39 -0.729538 0 426 -0.729538 1
gene 1 5 121 0.670095 0 485 0.670095 1
gene 1 121 23 0.948392 0 486 0.948392 1
gene 1 8 127 -0.0410436 0 501 -0.0410436 1
gene 1 127 20 0.227317 0 502 0.227317 1
gene 1 17 128 0.823704 0 503 0.823704 1
gene 1 128 30 0.387821 0 504 0.387821 1
gene 1 31 23 -0.471531 0 508 -0.471531 1
gene 1 31 134 1.34347 0 524 1.34347 1
gene 1 134 22 2.0107 0 525 2.0107 1
gene 1 91 64 0.174809 0 528 0.174809 1
gene 1 10 136 -0.46911 0 533 -0.46911 1
gene 1 136 23 -0.443786 0 534 -0.443786 1
gene 1 91 138 -1.6455 0 538 -1.6455 1
gene 1 138 21 0.282082 0 539 0.282082 1
gene 1 38 38 -0.0623958 1 548 -0.0623958 1
gene 1 27 141 0.176063 0 552 0.176063 1
gene 1 141 23 0.542716 0 553 0.542716 1
gene 1 27 31 -0.307934 0 560 -0.307934 1
gene 1 64 128 0.157568 0 561 0.157568 1
gene 1 14 144 0.470942 0 567 0.470942 1
gene 1 144 21 -0.434257 0 568 -0.434257 1
gene 1 60 66 -0.0919956 0 582 -0.0919956 1
gene 1 136 121 0.38093 0 599 0.38093 1
gene 1 6 72 0.674231 0 605 0.674231 1
gene 1 27 154 0.311133 0 618 0.311133 0
gene 1 154 31 -0.379274 0 619 -0.379274 1
gene 1 39 64 -0.00906181 0 630 -0.00906181 1
gene 1 27 159 -0.0720552 0 640 -0.0720552 1
gene 1 159 154 0.00431367 0 641 0.00431367 1
gene 1 12 128 -0.210506 0 642 -0.210506 1
gene 1 15 161 0.334161 0 647 0.334161 1
gene 1 161 22 -0.249486 0 648 -0.249486 1
gene 1 10 43 0.320641 0 658 0.320641 1
gene 1 27 52 0.0528125 0 659 0.0528125 1
gene 1 64 164 -0.300544 1 675 -0.300544 1
gene 1 164 64 -0.585938 0 676 -0.585938 1
gene 1 3 170 -1.39635 0 701 -1.39635 1
gene 1 170 26 -0.0677221 0 702 -0.0677221 1
gene 1 5 106 -0.228671 0 708 -0.228671 1
gene 1 17 173 -0.196811 0 722 -0.196811 1
gene 1 173 23 -0.39757 0 723 -0.39757 1
gene 1 121 121 0.479092 1 724 0.479092 1
gene 1 56 79 0.302585 0 739 0.302585 1
gene 1 154 154 0.0926622 1 741 0.0926622 1
gene 1 16 180 -0.0760579 0 768 -0.0760579 1
gene 1 180 20 1.50969 0 769 1.50969 1
gene 1 45 136 0.0226365 0 771 0.0226365 1
gene 1 97 21 0.41632 0 783 0.41632 1
gene 1 66 66 -1.25541 1 791 -1.25541 1
gene 1 39 39 0.0145467 1 807 0.0145467 1
gene 1 27 138 -0.0110802 0 808 -0.0110802 1
gene 1 138 26 0.428062 0 817 0.428062 1
gene 1 144 52 -0.743167 0 835 -0.743167 1
gene 1 68 68 -0.582592 1 836 -0.582592 1
gene 1 21 21 1.22912 1 850 1.22912 1
gene 1 19 60 0.012919 0 851 0.012919 1
gene 1 76 195 -0.365123 0 863 -0.365123 1
gene 1 195 20 0.373033 0 864 0.373033 1
gene 1 173 64 -0.25185 0 876 -0.25185 1
gene 1 4 144 -0.932358 0 884 -0.932358 1
gene 1 68 81 -0.0836699 0 898 -0.0836699 1
gene 1 180 47 -0.383158 0 902 -0.383158 1
gene 1 27 24 0.946397 0 928 0.946397 1
gene 1 159 173 0.0336021 0 951 0.0336021 1
gene 1 164 25 -0.587672 0 1064 -0.587672 1
gene 1 1 244 0.754825 0 1070 0.754825 1
gene 1 244 47 0.31734 0 1071 0.31734 1
gene 1 68 66 0.635316 0 1097 0.635316 1
genomeend 2300
genomestart 201
trait 1 0.891963 1 0.348928 0.625923 0.189247 0 0.640465 0.193854 
node 1 1 1 1 0
node 2 1 1 1 0
node 3 1 1 1 0
node 4 1 1 1 0
node 5 1 1 1 0
node 6 1 1 1 0
node 7 1 1 1 0
node 8 1 1 1 0
node 9 1 1 1 0
node 10 1 1 1 0
node 11 1 1 1 0
node 12 1 1 1 0
node 13 1 1 1 0
node 14 1 1 1 0
node 15 1 1 1 0
node 16 1 1 1 0
node 17 1 1 1 0
node 18 1 1 1 0
node 19 1 1 3 0
node 20 1 0 2 0
node 21 1 0 2 0
node 22 1 0 2 0
node 23 1 0 2 0
node 24 1 0 0 0
node 25 1 0 0 0
node 26 1 0 0 0
node 27 1 0 0 0
node 30 1 0 0 0
node 31 1 0 0 0
node 38 1 0 0 0
node 39 1 0 0 0
node 43 1 0 0 0
node 47 1 0 0 0
node 52 1 0 0 0
node 55 1 0 0 0
node 57 1 0 0 0
node 64 1 0 0 0
node 66 1 0 0 0
node 67 1 0 0 0
node 68 1 0 0 0
node 70 1 0 0 0
node 80 1 0 0 0
node 81 1 0 0 0
node 85 1 0 0 0
node 87 1 0 0 0
node 91 1 0 0 0
node 93 1 0 0 0
node 95 1 0 0 0
node 100 1 0 0 0
node 121 1 0 0 0
node 127 1 0 0 0
node 130 1 0 0 0
node 153 1 0 0 0
node 165 1 0 0 0
node 169 1 0 0 0
node 185 1 0 0 0
node 189 1 0 0 0
node 191 1 0 0 0
node 208 1 0 0 0
node 217 1 0 0 0
node 250 1 0 0 0
gene 1 1 20 -1.25568 0 1 -1.25568 1
gene 1 2 20 0.058485 0 2 0.058485 0
gene 1 3 20 0.548405 0 3 0.548405 1
gene 1 4 20 -0.62649 0 4 -0.62649 1
gene 1 5 20 0.0519851 0 5 0.0519851 1
gene 1 6 20 -0.367624 0 6 -0.367624 1
gene 1 7 20 0.309269 0 7 0.309269 1
gene 1 8 20 0.232824 0 8 0.232824 0
gene 1 9 20 0.621511 0 9 0.621511 0
gene 1 10 20 0.952861 0 10 0.952861 1
gene 1 11 20 -0.058815 0 11 -0.058815 1
gene 1 12 20 0.283441 0 12 0.283441 1
gene 1 13 20 -0.72917 0 13 -0.72917 1
gene 1 14 20 0.474951 0 14 0.474951 1
gene 1 15 20 -1.44501 0 15 -1.44501 1
gene 1 16 20 0.283077 0 16 0.283077 1
gene 1 17 20 -1.61897 0 17 -1.61897 1
gene 1 18 20 0.188406 0 18 0.188406 1
gene 1 19 20 -1.64225 0 19 -1.64225 1
gene 1 1 21 -0.301556 0 20 -0.301556 1
gene 1 2 21 0.593161 0 21 0.593161 0
gene 1 3 21 -0.823188 0 22 -0.823188 1
gene 1 4 21 0.966604 0 23 0.966604 1
gene 1 5 21 0.512956 0 24 0.512956 1
gene 1 6 21 0.266633 0 25 0.266633 1
gene 1 7 21 0.494009 0 26 0.494009 1
gene 1 8 21 -0.357717 0 27 -0.357717 1
gene 1 9 21 -0.613721 0 28 -0.613721 1
gene 1 10 21 0.230635 0 29 0.230635 0
gene 1 11 21 0.869218 0 30 0.869218 1
gene 1 12 21 -0.0575223 0 31 -0.0575223 1
gene 1 13 21 0.974132 0 32 0.974132 1
gene 1 14 21 -1.33939 0 33 -1.33939 1
gene 1 15 21 -1.0249 0 34 -1.0249 1
gene 1 16 21 0.681832 0 35 0.681832 1
gene 1 17 21 1.68458 0 36 1.68458 1
gene 1 18 21 -0.132246 0 37 -0.132246 1
gene 1 19 21 0.133794 0 38 0.133794 1
gene 1 1 22 0.659131 0 39 0.659131 1
gene 1 2 22 -0.0357894 0 40 -0.0357894 1
gene 1 3 22 0.981456 0 41 0.981456 1
gene 1 4 22 -0.280506 0 42 -0.280506 0
gene 1 5 22 0.246019 0 43 0.246019 1
gene 1 6 22 -0.242204 0 44 -0.242204 1
gene 1 7 22 0.0463701 0 45 0.0463701 1
gene 1 8 22 -0.336608 0 46 -0.336608 1
gene 1 9 22 -0.650809 0 47 -0.650809 1
gene 1 10 22 -0.487703 0 48 -0.487703 1
gene 1 11 22 -0.565346 0 49 -0.565346 1
gene 1 12 22 -0.0189 0 50 -0.0189 1
gene 1 13 22 -0.401917 0 51 -0.401917 1
gene 1 14 22 -0.363226 0 52 -0.363226 0
gene 1 15 22 -0.437152 0 53 -0.437152 1
gene 1 16 22 -0.63576 0 54 -0.63576 1
gene 1 17 22 -0.0540253 0 55 -0.0540253 1
gene 1 18 22 -0.391069 0 56 -0.391069 1
gene 1 19 22 0.368982 0 57 0.368982 1
gene 1 1 23 0.772916 0 58 0.772916 1
gene 1 2 23 -0.363873 0 59 -0.363873 1
gene 1 3 23 -0.437481 0 60 -0.437481 0
gene 1 4 23 1.0873 0 61 1.0873 1
gene 1 5 23 -0.88976 0 62 -0.88976 1
gene 1 6 23 -0.0944803 0 63 -0.0944803 0
gene 1 7 23 0.177463 0 64 0.177463 1
gene 1 8 23 -0.449664 0 65 -0.449664 1
gene 1 9 23 -0.325374 0 66 -0.325374 1
gene 1 10 23 1.35064 0 67 1.35064 1
gene 1 11 23 -0.0895487 0 68 -0.0895487 1
gene 1 12 23 0.841327 0 69 0.841327 1
gene 1 13 23 0.465475 0 70 0.465475 1
gene 1 14 23 0.391326 0 71 0.391326 1
gene 1 15 23 0.16777 0 72 0.16777 1
gene 1 16 23 0.261955 0 73 0.261955 1
gene 1 17 23 0.0408412 0 74 0.0408412 1
gene 1 18 23 0.486146 0 75 0.486146 1
gene 1 19 23 0.217229 0 76 0.217229 1
gene 1 4 24 1.64641 0 77 1.64641 0
gene 1 24 20 0.111186 0 78 0.111186 1
gene 1 18 25 -0.461201 0 79 -0.461201 1
gene 1 25 22 -0.49425 0 80 -0.49425 1
gene 1 3 26 -1.1632 0 81 -1.1632 1
gene 1 26 21 0.979385 0 82 0.979385 1
gene 1 22 20 -1.56717 0 83 -1.56717 1
gene 1 3 27 0.00579228 0 84 0.00579228 1
gene 1 27 23 0.565721 0 85 0.565721 1
gene 1 22 21 0.338243 0 91 0.338243 1
gene 1 9 30 -0.875626 0 93 -0.875626 1
gene 1 30 20 0.442636 0 94 0.442636 1
gene 1 26 20 -0.841361 0 96 -0.841361 0
gene 1 6 31 -0.255323 0 98 -0.255323 1
gene 1 31 22 1.2408 0 99 1.2408 1
gene 1 21 23 0.0105117 0 101 0.0105117 1
gene 1 23 22 1.02283 0 104 1.02283 1
gene 1 22 26 -0.767954 0 105 -0.767954 1
gene 1 16 38 0.181558 0 119 0.181558 1
gene 1 38 23 1.74182 0 120 1.74182 0
gene 1 9 39 0.448994 0 121 0.448994 1
gene 1 39 21 0.346616 0 122 0.346616 1
gene 1 14 27 0.782087 0 130 0.782087 1
gene 1 12 27 -0.0758909 0 131 -0.0758909 1
gene 1 9 43 0.689373 0 134 0.689373 1
gene 1 43 22 0.681765 0 135 0.681765 1
gene 1 26 26 0.199873 1 137 0.199873 1
gene 1 31 30 0.149274 0 141 0.149274 1
gene 1 26 30 -0.311886 0 153 -0.311886 1
gene 1 18 47 0.0879149 0 154 0.0879149 1
gene 1 47 21 -0.301675 0 155 -0.301675 1
gene 1 7 25 0.249471 0 162 0.249471 1
gene 1 20 20 -0.192913 1 165 -0.192913 1
gene 1 9 26 0.826642 0 169 0.826642 1
gene 1 13 52 0.215494 0 173 0.215494 1
gene 1 52 21 -0.401378 0 174 -0.401378 1
gene 1 8 55 -0.882213 0 180 -0.882213 1
gene 1 55 22 1.63702 0 181 1.63702 1
gene 1 11 57 0.280424 0 186 0.280424 1
gene 1 57 20 0.0429734 0 187 0.0429734 0
gene 1 25 24 -0.56011 0 200 -0.56011 1
gene 1 24 24 0.181385 1 208 0.181385 1
gene 1 19 39 -0.145489 0 212 -0.145489 1
gene 1 7 43 -0.301682 0 217 -0.301682 1
gene 1 18 26 0.0382255 0 218 0.0382255 1
gene 1 2 64 1.26001 0 231 1.26001 1
gene 1 64 20 -0.1632 0 232 -0.1632 1
gene 1 64 64 0.347156 1 235 0.347156 1
gene 1 3 66 0.199856 0 236 0.199856 1
gene 1 66 23 0.320062 0 237 0.320062 1
gene 1 10 67 -0.302312 0 238 -0.302312 1
gene 1 67 20 0.236868 0 239 0.236868 1
gene 1 13 68 0.629052 0 241 0.629052 1
gene 1 68 22 -0.230696 0 242 -0.230696 1
gene 1 4 43 -0.381131 0 249 -0.381131 1
gene 1 27 21 -0.618266 0 253 -0.618266 1
gene 1 16 70 -0.453779 0 256 -0.453779 1
gene 1 70 21 1.29887 0 257 1.29887 1
gene 1 43 66 -0.322977 0 259 -0.322977 1
gene 1 6 25 0.52708 0 265 0.52708 1
gene 1 10 25 -0.277297 0 272 -0.277297 1
gene 1 6 52 0.520029 0 276 0.520029 1
gene 1 30 38 -0.361208 0 281 -0.361208 1
gene 1 22 25 -1.2699 1 294 -1.2699 1
gene 1 6 80 0.227707 0 299 0.227707 1
gene 1 80 25 0.461158 0 300 0.461158 1
gene 1 22 81 -0.597949 0 301 -0.597949 1
gene 1 81 20 0.244648 0 302 0.244648 1
gene 1 18 85 -0.027291 0 312 -0.027291 1
gene 1 85 25 -0.368688 0 313 -0.368688 1
gene 1 14 87 -0.629606 0 321 -0.629606 1
gene 1 87 22 -0.00320314 0 322 -0.00320314 1
gene 1 2 91 -0.992596 0 332 -0.992596 1
gene 1 91 21 0.602029 0 333 0.602029 1
gene 1 24 22 0.308046 0 334 0.308046 1
gene 1 4 93 -0.292641 0 345 -0.292641 1
gene 1 93 22 0.56565 0 346 0.56565 1
gene 1 17 52 -0.525495 0 351 -0.525495 1
gene 1 52 52 0.104745 1 362 0.104745 1
gene 1 6 95 -0.570963 0 364 -0.570963 1
gene 1 95 20 0.0227397 0 365 0.0227397 1
gene 1 67 67 -0.98295 1 366 -0.98295 1
gene 1 67 25 0.331543 0 368 0.331543 1
gene 1 6 67 0.617063 0 390 0.617063 1
gene 1 24 100 0.404147 1 396 0.404147 1
gene 1 100 24 0.161137 0 397 0.161137 1
gene 1 13 80 0.0666839 0 422 0.0666839 1
gene 1 11 43 -0.32907 0 431 -0.32907 1
gene 1 15 25 -0.124016 0 434 -0.124016 1
gene 1 18 43 -0.494319 0 438 -0.494319 1
gene 1 8 64 -0.0944037 0 443 -0.0944037 1
gene 1 22 22 -0.305689 1 462 -0.305689 1
gene 1 19 43 -0.373349 0 466 -0.373349 1
gene 1 5 121 -0.63836 0 485 -0.63836 1
gene 1 121 23 -0.970514 0 486 -0.970514 1
gene 1 8 127 -1.05824 0 501 -1.05824 1
gene 1 127 20 0.210044 0 502 0.210044 1
gene 1 67 130 -0.629726 1 510 -0.629726 1
gene 1 130 67 0.457032 0 511 0.457032 1
gene 1 21 91 0.691982 1 543 0.691982 1
gene 1 66 70 -0.476417 0 545 -0.476417 1
gene 1 68 68 0.0909773 1 559 0.0909773 1
gene 1 9 100 -0.487223 0 579 -0.487223 1
gene 1 15 121 0.86158 0 593 0.86158 1
gene 1 100 153 -0.475672 0 612 -0.475672 1
gene 1 153 24 -1.01437 0 613 -1.01437 1
gene 1 47 43 -0.526336 0 668 -0.526336 1
gene 1 91 70 -0.278776 0 674 -0.278776 1
gene 1 57 165 0.573595 0 677 0.573595 1
gene 1 165 20 0.063837 0 678 0.063837 1
gene 1 165 55 -0.965336 0 681 -0.965336 0
gene 1 6 169 0.644947 0 696 0.644947 1
gene 1 169 23 -0.188543 0 697 -0.188543 1
gene 1 70 70 -0.485261 1 698 -0.485261 1
gene 1 121 31 0.352036 0 699 0.352036 1
gene 1 100 127 0.507046 0 712 0.507046 1
gene 1 16 64 0.831841 0 725 0.831841 1
gene 1 11 153 0.510164 0 732 0.510164 1
gene 1 16 91 -0.488111 0 735 -0.488111 1
gene 1 87 127 -0.244141 0 801 -0.244141 1
gene 1 4 185 0.157732 0 804 0.157732 1
gene 1 185 24 -0.652168 0 805 -0.652168 1
gene 1 165 189 -0.385393 0 828 -0.385393 1
gene 1 189 55 -0.31678 0 829 -0.31678 1
gene 1 14 191 -0.165026 0 847 -0.165026 1
gene 1 191 23 0.0200131 0 848 0.0200131 1
gene 1 10 208 0.210281 0 941 0.210281 1
gene 1 208 21 0.213852 0 942 0.213852 1
gene 1 38 217 -0.461409 0 975 -0.461409 1
gene 1 217 23 0.10909 0 976 0.10909 1
gene 1 130 121 0.602921 0 978 0.602921 1
gene 1 185 185 0.944861 1 1021 0.944861 1
gene 1 43 165 0.184514 0 1050 0.184514 1
gene 1 67 24 -0.662725 0 1063 -0.662725 1
gene 1 20 85 -0.789514 1 1083 -0.789514 1
gene 1 26 250 1.07231 0 1087 1.07231 1
gene 1 250 20 -0.07901 0 1088 -0.07901 1
genomeend 201
genomestart 352
trait 1 0.0459347 0.981699 0.780009 0.770891 0.919127 0.274012 0.569389 0.669709 
node 1 1 1 1 0
node 2 1 1 1 0
node 3 1 1 1 0
node 4 1 1 1 0
node 5 1 1 1 0
node 6 1 1 1 0
node 7 1 1 1 0
node 8 1 1 1 0
node 9 1 1 1 0
node 10 1 1 1 0
node 11 1 1 1 0
node 12 1 1 1 0
node 13 1 1 1 0
node 14 1 1 1 0
node 15 1 1 1 0
node 16 1 1 1 0
node 17 1 1 1 0
node 18 1 1 1 0
node 19 1 1 3 0
node 20 1 0 2 0
node 21 1 0 2 0
node 22 1 0 2 0
node 23 1 0 2 0
node 24 1 0 0 0
node 25 1 0 0 0
node 26 1 0 0 0
node 27 1 0 0 0
node 30 1 0 0 0
node 31 1 0 0 0
node 38 1 0 0 0
node 39 1 0 0 0
node 43 1 0 0 0
node 45 1 0 0 0
node 47 1 0 0 0
node 48 1 0 0 0
node 52 1 0 0 0
node 56 1 0 0 0
node 57 1 0 0 0
node 60 1 0 0 0
node 63 1 0 0 0
node 64 1 0 0 0
node 66 1 0 0 0
node 68 1 0 0 0
node 72 1 0 0 0
node 76 1 0 0 0
node 79 1 0 0 0
node 81 1 0 0 0
node 83 1 0 0 0
node 91 1 0 0 0
node 93 1 0 0 0
node 97 1 0 0 0
node 98 1 0 0 0
node 103 1 0 0 0
node 106 1 0 0 0
node 121 1 0 0 0
node 127 1 0 0 0
node 128 1 0 0 0
node 134 1 0 0 0
node 136 1 0 0 0
node 138 1 0 0 0
node 141 1 0 0 0
node 144 1 0 0 0
node 154 1 0 0 0
node 159 1 0 0 0
node 161 1 0 0 0
node 164 1 0 0 0
node 170 1 0 0 0
node 173 1 0 0 0
node 180 1 0 0 0
node 195 1 0 0 0
node 244 1 0 0 0
node 254 1 0 0 0
gene 1 1 20 1.04193 0 1 1.04193 1
gene 1 2 20 -0.0456905 0 2 -0.0456905 0
gene 1 3 20 -0.00844576 0 3 -0.00844576 0
gene 1 4 20 0.12845 0 4 0.12845 1
gene 1 5 20 -0.458513 0 5 -0.458513 1
gene 1 6 20 0.251829 0 6 0.251829 1
gene 1 7 20 0.199143 0 7 0.199143 1
gene 1 8 20 -1.47161 0 8 -1.47161 0
gene 1 9 20 -0.225467 0 9 -0.225467 0
gene 1 10 20 -0.288629 0 10 -0.288629 1
gene 1 11 20 -0.28268 0 11 -0.28268 1
gene 1 12 20 -1.75066 0 12 -1.75066 1
gene 1 13 20 -0.644625 0 13 -0.644625 1
gene 1 14 20 0.0360438 0 14 0.0360438 1
gene 1 15 20 0.378612 0 15 0.378612 1
gene 1 16 20 0.487434 0 16 0.487434 0
gene 1 17 20 0.348508 0 17 0.348508 1
gene 1 18 20 -0.0830894 0 18 -0.0830894 1
gene 1 19 20 -0.660064 0 19 -0.660064 1
gene 1 1 21 0.36983 0 20 0.36983 1
gene 1 2 21 0.192575 0 21 0.192575 1
gene 1 3 21 0.356021 0 22 0.356021 1
gene 1 4 21 0.153328 0 23 0.153328 1
gene 1 5 21 0.0501899 0 24 0.0501899 1
gene 1 6 21 0.586356 0 25 0.586356 0
gene 1 7 21 0.0710256 0 26 0.0710256 0
gene 1 8 21 -0.71274 0 27 -0.71274 1
gene 1 9 21 -0.510994 0 28 -0.510994 1
gene 1 10 21 0.0826266 0 29 0.0826266 1
gene 1 11 21 -0.511865 0 30 -0.511865 1
gene 1 12 21 -0.876497 0 31 -0.876497 1
gene 1 13 21 -0.469313 0 32 -0.469313 0
gene 1 14 21 0.28132 0 33 0.28132 0
gene 1 15 21 0.460482 0 34 0.460482 1
gene 1 16 21 0.85931 0 35 0.85931 1
gene 1 17 21 -0.396132 0 36 -0.396132 0
gene 1 18 21 0.805552 0 37 0.805552 1
gene 1 19 21 0.175428 0 38 0.175428 1
gene 1 1 22 -0.208107 0 39 -0.208107 1
gene 1 2 22 -0.0168008 0 40 -0.0168008 1
gene 1 3 22 -0.976371 0 41 -0.976371 1
gene 1 4 22 -0.0332424 0 42 -0.0332424 1
gene 1 5 22 0.906533 0 43 0.906533 0
gene 1 6 22 0.0904621 0 44 0.0904621 1
gene 1 7 22 0.431799 0 45 0.431799 1
gene 1 8 22 -0.422946 0 46 -0.422946 1
gene 1 9 22 -0.557561 0 47 -0.557561 1
gene 1 10 22 -0.26019 0 48 -0.26019 1
gene 1 11 22 0.266158 0 49 0.266158 1
gene 1 12 22 0.185609 0 50 0.185609 1
gene 1 13 22 0.0549444 0 51 0.0549444 1
gene 1 14 22 -0.32246 0 52 -0.32246 1
gene 1 15 22 0.0370614 0 53 0.0370614 1
gene 1 16 22 0.277115 0 54 0.277115 1
gene 1 17 22 -0.412475 0 55 -0.412475 1
gene 1 18 22 0.475426 0 56 0.475426 1
gene 1 19 22 0.00653743 0 57 0.00653743 1
gene 1 1 23 -0.0937929 0 58 -0.0937929 1
gene 1 2 23 -0.589374 0 59 -0.589374 1
gene 1 3 23 0.969404 0 60 0.969404 0
gene 1 4 23 -0.231956 0 61 -0.231956 1
gene 1 5 23 -0.356059 0 62 -0.356059 0
gene 1 6 23 -0.634593 0 63 -0.634593 1
gene 1 7 23 0.711632 0 64 0.711632 1
gene 1 8 23 0.223531 0 65 0.223531 1
gene 1 9 23 0.283264 0 66 0.283264 1
gene 1 10 23 0.753267 0 67 0.753267 1
gene 1 11 23 -0.973288 0 68 -0.973288 1
gene 1 12 23 -0.0913933 0 69 -0.0913933 0
gene 1 13 23 -0.610409 0 70 -0.610409 1
gene 1 14 23 -0.487653 0 71 -0.487653 1
gene 1 15 23 2.41484 0 72 2.41484 1
gene 1 16 23 -0.746934 0 73 -0.746934 0
gene 1 17 23 -0.641526 0 74 -0.641526 1
gene 1 18 23 -0.468912 0 75 -0.468912 1
gene 1 19 23 -0.431486 0 76 -0.431486 1
gene 1 4 24 -0.764632 0 77 -0.764632 1
gene 1 24 20 -0.841596 0 78 -0.841596 1
gene 1 18 25 -0.344342 0 79 -0.344342 1
gene 1 25 22 -0.108481 0 80 -0.108481 1
gene 1 3 26 -0.81057 0 81 -0.81057 0
gene 1 26 21 -0.52174 0 82 -0.52174 1
gene 1 22 20 -0.673317 0 83 -0.673317 1
gene 1 3 27 -1.05261 0 84 -1.05261 1
gene 1 27 23 -0.0741004 0 85 -0.0741004 1
gene 1 22 21 0.0142333 0 91 0.0142333 1
gene 1 9 30 -0.376041 0 93 -0.376041 1
gene 1 30 20 -0.113865 0 94 -0.113865 1
gene 1 26 20 -0.0687182 0 96 -0.0687182 1
gene 1 6 31 1.51369 0 98 1.51369 1
gene 1 31 22 -0.648174 0 99 -0.648174 0
gene 1 21 23 -0.860524 0 101 -0.860524 1
gene 1 23 22 -1.66888 0 104 -1.66888 1
gene 1 22 26 0.00412396 0 105 0.00412396 1
gene 1 16 38 -0.424533 0 119 -0.424533 1
gene 1 38 23 -0.923205 0 120 -0.923205 1
gene 1 9 39 -0.785944 0 121 -0.785944 1
gene 1 39 21 0.785035 0 122 0.785035 1
gene 1 14 27 -0.0899834 0 130 -0.0899834 1
gene 1 12 27 -1.09463 0 131 -1.09463 1
gene 1 9 43 0.712591 0 134 0.712591 1
gene 1 43 22 -0.470133 0 135 -0.470133 1
gene 1 26 26 -0.660602 1 137 -0.660602 1
gene 1 10 27 0.192091 0 139 0.192091 1
gene 1 31 30 0.388592 0 141 0.388592 1
gene 1 20 20 -1.46397 1 146 -1.46397 1
gene 1 9 45 -0.247819 0 148 -0.247819 1
gene 1 45 22 0.757419 0 149 0.757419 1
gene 1 26 30 -0.506382 0 153 -0.506382 1
gene 1 18 47 0.643658 0 154 0.643658 1
gene 1 47 21 -0.842206 0 155 -0.842206 0
gene 1 5 48 -0.188577 0 156 -0.188577 1
gene 1 48 22 0.506288 0 157 0.506288 1
gene 1 10 26 0.262674 0 159 0.262674 1
gene 1 7 25 -0.0887228 0 162 -0.0887228 1
gene 1 9 26 -0.0801364 0 169 -0.0801364 1
gene 1 1 27 -0.585374 0 170 -0.585374 0
gene 1 13 52 -0.990184 0 173 -0.990184 1
gene 1 52 21 -1.25621 0 174 -1.25621 1
gene 1 14 56 -0.216278 0 183 -0.216278 1
gene 1 56 20 0.515602 0 184 0.515602 1
gene 1 16 26 -0.142943 0 185 -0.142943 1
gene 1 11 57 0.0482491 0 186 0.0482491 1
gene 1 57 20 -0.108508 0 187 -0.108508 1
gene 1 17 30 -0.0231951 0 190 -0.0231951 1
gene 1 30 48 0.287674 0 193 0.287674 1
gene 1 25 24 0.187393 0 200 0.187393 1
gene 1 24 24 1.52012 1 208 1.52012 1
gene 1 17 60 0.242133 0 209 0.242133 1
gene 1 60 21 -0.45981 0 210 -0.45981 1
gene 1 38 26 -0.997759 0 211 -0.997759 1
gene 1 19 39 -0.717597 0 212 -0.717597 1
gene 1 6 47 -0.639743 0 215 -0.639743 1
gene 1 7 43 0.0940145 0 217 0.0940145 1
gene 1 18 26 0.632889 0 218 0.632889 1
gene 1 47 63 0.134475 0 228 0.134475 1
gene 1 63 21 0.334935 0 229 0.334935 1
gene 1 2 64 0.215223 0 231 0.215223 1
gene 1 64 20 -0.128037 0 232 -0.128037 1
gene 1 64 64 -0.0882116 1 235 -0.0882116 0
gene 1 3 66 1.37251 0 236 1.37251 1
gene 1 66 23 0.308603 0 237 0.308603 1
gene 1 13 68 -0.844341 0 241 -0.844341 1
gene 1 68 22 -0.661442 0 242 -0.661442 1
gene 1 10 48 1.55002 0 252 1.55002 1
gene 1 6 25 -0.461277 0 265 -0.461277 1
gene 1 12 72 -0.20555 0 266 -0.20555 1
gene 1 72 21 -0.899285 0 267 -0.899285 1
gene 1 1 47 -1.01514 0 274 -1.01514 0
gene 1 30 38 1.32818 0 281 1.32818 1
gene 1 3 76 -0.0648656 0 282 -0.0648656 1
gene 1 76 20 1.45284 0 283 1.45284 0
gene 1 1 79 -0.197029 0 296 -0.197029 1
gene 1 79 27 0.449161 0 297 0.449161 1
gene 1 22 81 0.0962545 0 301 0.0962545 1
gene 1 81 20 -0.94274 0 302 -0.94274 1
gene 1 7 83 1.39033 0 307 1.39033 1
gene 1 83 21 -0.387311 0 308 -0.387311 1
gene 1 52 66 -0.0200123 0 317 -0.0200123 1
gene 1 2 91 0.231346 0 332 0.231346 1
gene 1 91 21 -0.615192 0 333 -0.615192 0
gene 1 24 22 0.785446 0 334 0.785446 1
gene 1 4 93 0.0755211 0 345 0.0755211 1
gene 1 93 22 0.449487 0 346 0.449487 1
gene 1 7 81 0.0626291 0 355 0.0626291 1
gene 1 52 52 -0.560802 1 362 -0.560802 1
gene 1 18 97 1.00297 0 377 1.00297 1
gene 1 97 26 -0.342901 0 378 -0.342901 1
gene 1 6 98 0.0430289 0 381 0.0430289 1
gene 1 98 21 0.330128 0 382 0.330128 1
gene 1 38 91 -0.315304 0 387 -0.315304 1
gene 1 9 103 -0.05064 0 408 -0.05064 1
gene 1 103 20 -0.726802 0 409 -0.726802 1
gene 1 48 64 -1.01886 0 418 -1.01886 1
gene 1 12 106 0.0154881 0 420 0.0154881 1
gene 1 106 23 0.333361 0 421 0.333361 1
gene 1 72 39 0.423153 0 426 0.423153 1
gene 1 5 121 -0.251461 0 485 -0.251461 1
gene 1 121 23 0.958407 0 486 0.958407 1
gene 1 8 127 -0.0663616 0 501 -0.0663616 1
gene 1 127 20 -0.424072 0 502 -0.424072 1
gene 1 17 128 0.0798912 0 503 0.0798912 1
gene 1 128 30 0.148697 0 504 0.148697 1
gene 1 31 23 -0.829077 0 508 -0.829077 1
gene 1 31 134 -0.753257 0 524 -0.753257 1
gene 1 134 22 1.74391 0 525 1.74391 1
gene 1 91 64 0.140869 0 528 0.140869 1
gene 1 10 136 1.95226 0 533 1.95226 1
gene 1 136 23 -0.349376 0 534 -0.349376 1
gene 1 91 138 -1.21313 0 538 -1.21313 1
gene 1 138 21 0.19767 0 539 0.19767 1
gene 1 38 38 0.446318 1 548 0.446318 1
gene 1 27 141 0.978889 0 552 0.978889 1
gene 1 141 23 0.578968 0 553 0.578968 1
gene 1 27 31 -0.238778 0 560 -0.238778 1
gene 1 64 128 -0.463222 0 561 -0.463222 1
gene 1 14 144 0.328492 0 567 0.328492 1
gene 1 144 21 -0.146233 0 568 -0.146233 1
gene 1 60 66 -0.728942 0 582 -0.728942 1
gene 1 136 121 0.492784 0 599 0.492784 1
gene 1 6 72 -0.12431 0 605 -0.12431 1
gene 1 27 154 -0.224726 0 618 -0.224726 0
gene 1 154 31 0.338965 0 619 0.338965 1
gene 1 39 64 -0.133009 0 630 -0.133009 1
gene 1 27 159 0.222782 0 640 0.222782 1
gene 1 159 154 0.110638 0 641 0.110638 1
gene 1 12 128 0.0658666 0 642 0.0658666 1
gene 1 15 161 -0.295981 0 647 -0.295981 1
gene 1 161 22 -0.525721 0 648 -0.525721 1
gene 1 10 43 0.315023 0 658 0.315023 1
gene 1 27 52 -0.560862 0 659 -0.560862 1
gene 1 64 164 0.0614312 1 675 0.0614312 1
gene 1 164 64 -0.808999 0 676 -0.808999 1
gene 1 3 170 -0.445777 0 701 -0.445777 1
gene 1 170 26 0.425079 0 702 0.425079 1
gene 1 5 106 -0.569892 0 708 -0.569892 1
gene 1 17 173 -0.452767 0 722 -0.452767 1
gene 1 173 23 0.420914 0 723 0.420914 1
gene 1 121 121 0.0166131 1 724 0.0166131 1
gene 1 56 79 0.603315 0 739 0.603315 1
gene 1 154 154 0.00564821 1 741 0.00564821 1
gene 1 16 180 0.690831 0 768 0.690831 1
gene 1 180 20 0.752209 0 769 0.752209 1
gene 1 45 136 -0.342134 0 771 -0.342134 1
gene 1 97 21 0.270848 0 783 0.270848 1
gene 1 66 66 0.694826 1 791 0.694826 1
gene 1 39 39 0.486927 1 807 0.486927 1
gene 1 27 138 0.30996 0 808 0.30996 1
gene 1 138 26 0.104092 0 817 0.104092 1
gene 1 144 52 -0.39583 0 835 -0.39583 1
gene 1 68 68 -0.123162 1 836 -0.123162 1
gene 1 21 21 1.07068 1 850 1.07068 1
gene 1 19 60 -0.226058 0 851 -0.226058 1
gene 1 76 195 -0.40815 0 863 -0.40815 1
gene 1 195 20 -0.0688477 0 864 -0.0688477 1
gene 1 173 64 0.287209 0 876 0.287209 1
gene 1 4 144 -1.53689 0 884 -1.53689 1
gene 1 68 81 -0.163953 0 898 -0.163953 1
gene 1 180 47 0.79422 0 902 0.79422 1
gene 1 27 24 1.26088 0 928 1.26088 1
gene 1 159 173 0.0158669 0 951 0.0158669 1
gene 1 164 25 0.384712 0 1064 0.384712 1
gene 1 1 244 0.0851869 0 1070 0.0851869 1
gene 1 244 47 -0.281703 0 1071 -0.281703 1
gene 1 68 66 0.355628 0 1097 0.355628 1
gene 1 9 254 1.19305 0 1103 1.19305 1
gene 1 254 103 -0.215522 0 1104 -0.215522 1
genomeend 352
genomestart 415
trait 1 0.73847 0.395663 0.196734 0.542829 0.00989899 0.327279 0.475768 0.104461 
node 1 1 1 1 0
node 2 1 1 1 0
node 3 1 1 1 0
node 4 1 1 1 0
node 5 1 1 1 0
node 6 1 1 1 0
node 7 1 1 1 0
node 8 1 1 1 0
node 9 1 1 1 0
node 10 1 1 1 0
node 11 1 1 1 0
node 12 1 1 1 0
node 13 1 1 1 0
node 14 1 1 1 0
node 15 1 1 1 0
node 16 1 1 1 0
node 17 1 1 1 0
node 18 1 1 1 0
node 19 1 1 3 0
node 20 1 0 2 0
node 21 1 0 2 0
node 22 1 0 2 0
node 23 1 0 2 0
node 24 1 0 0 0
node 25 1 0 0 0
node 26 1 0 0 0
node 27 1 0 0 0
node 30 1 0 0 0
node 31 1 0 0 0
node 38 1 0 0 0
node 39 1 0 0 0
node 43 1 0 0 0
node 47 1 0 0 0
node 48 1 0 0 0
node 52 1 0 0 0
node 56 1 0 0 0
node 60 1 0 0 0
node 64 1 0 0 0
node 66 1 0 0 0
node 68 1 0 0 0
node 72 1 0 0 0
node 76 1 0 0 0
node 79 1 0 0 0
node 81 1 0 0 0
node 91 1 0 0 0
node 103 1 0 0 0
node 128 1 0 0 0
node 138 1 0 0 0
node 144 1 0 0 0
node 164 1 0 0 0
node 170 1 0 0 0
node 173 1 0 0 0
node 180 1 0 0 0
node 195 1 0 0 0
node 252 1 0 0 0
gene 1 1 20 -0.329192 0 1 -0.329192 1
gene 1 2 20 0.581022 0 2 0.581022 0
gene 1 3 20 0.477454 0 3 0.477454 1
gene 1 4 20 0.029549 0 4 0.029549 1
gene 1 5 20 -0.426826 0 5 -0.426826 1
gene 1 6 20 0.435649 0 6 0.435649 1
gene 1 7 20 0.113296 0 7 0.113296 1
gene 1 8 20 -0.762625 0 8 -0.762625 1
gene 1 9 20 0.242391 0 9 0.242391 0
gene 1 10 20 -0.930982 0 10 -0.930982 1
gene 1 11 20 -0.231354 0 11 -0.231354 1
gene 1 12 20 -0.575199 0 12 -0.575199 1
gene 1 13 20 -0.504387 0 13 -0.504387 1
gene 1 14 20 0.0785512 0 14 0.0785512 1
gene 1 15 20 -0.143497 0 15 -0.143497 1
gene 1 16 20 -0.0628059 0 16 -0.0628059 0
gene 1 17 20 0.18502 0 17 0.18502 1
gene 1 18 20 -0.0758971 0 18 -0.0758971 1
gene 1 19 20 -0.273639 0 19 -0.273639 1
gene 1 1 21 0.200773 0 20 0.200773 1
gene 1 2 21 -0.772792 0 21 -0.772792 1
gene 1 3 21 -0.142295 0 22 -0.142295 0
gene 1 4 21 -1.62629 0 23 -1.62629 1
gene 1 5 21 0.839461 0 24 0.839461 1
gene 1 6 21 -0.0936692 0 25 -0.0936692 1
gene 1 7 21 0.234861 0 26 0.234861 1
gene 1 8 21 -0.203964 0 27 -0.203964 1
gene 1 9 21 -0.00846925 0 28 -0.00846925 1
gene 1 10 21 -0.476285 0 29 -0.476285 1
gene 1 11 21 -0.657557 0 30 -0.657557 1
gene 1 12 21 -0.385487 0 31 -0.385487 1
gene 1 13 21 0.0381584 0 32 0.0381584 1
gene 1 14 21 0.18705 0 33 0.18705 0
gene 1 15 21 -0.121403 0 34 -0.121403 1
gene 1 16 21 -0.358943 0 35 -0.358943 1
gene 1 17 21 0.265657 0 36 0.265657 0
gene 1 18 21 0.316498 0 37 0.316498 1
gene 1 19 21 -1.10998 0 38 -1.10998 1
gene 1 1 22 -0.472905 0 39 -0.472905 1
gene 1 2 22 -0.19825 0 40 -0.19825 1
gene 1 3 22 -1.14764 0 41 -1.14764 1
gene 1 4 22 0.203224 0 42 0.203224 1
gene 1 5 22 -0.0673562 0 43 -0.0673562 1
gene 1 6 22 0.261212 0 44 0.261212 1
gene 1 7 22 1.06661 0 45 1.06661 1
gene 1 8 22 0.266183 0 46 0.266183 1
gene 1 9 22 -1.13267 0 47 -1.13267 1
gene 1 10 22 -0.194769 0 48 -0.194769 1
gene 1 11 22 0.591154 0 49 0.591154 1
gene 1 12 22 -0.439022 0 50 -0.439022 1
gene 1 13 22 0.166215 0 51 0.166215 1
gene 1 14 22 0.705385 0 52 0.705385 1
gene 1 15 22 -0.196124 0 53 -0.196124 1
gene 1 16 22 -0.00741035 0 54 -0.00741035 1
gene 1 17 22 -0.626986 0 55 -0.626986 1
gene 1 18 22 0.482843 0 56 0.482843 1
gene 1 19 22 -0.126087 0 57 -0.126087 1
gene 1 1 23 -0.0826238 0 58 -0.0826238 1
gene 1 2 23 0.66168 0 59 0.66168 1
gene 1 3 23 -0.436362 0 60 -0.436362 1
gene 1 4 23 0.719625 0 61 0.719625 1
gene 1 5 23 0.146603 0 62 0.146603 1
gene 1 6 23 -0.734734 0 63 -0.734734 1
gene 1 7 23 1.43397 0 64 1.43397 1
gene 1 8 23 0.252081 0 65 0.252081 1
gene 1 9 23 -0.135723 0 66 -0.135723 1
gene 1 10 23 0.343512 0 67 0.343512 1
gene 1 11 23 -0.397598 0 68 -0.397598 1
gene 1 12 23 -0.477129 0 69 -0.477129 1
gene 1 13 23 -0.802676 0 70 -0.802676 1
gene 1 14 23 -0.195575 0 71 -0.195575 1
gene 1 15 23 -0.460938 0 72 -0.460938 1
gene 1 16 23 -0.365087 0 73 -0.365087 1
gene 1 17 23 0.0645 0 74 0.0645 1
gene 1 18 23 0.0628773 0 75 0.0628773 1
gene 1 19 23 0.484949 0 76 0.484949 1
gene 1 4 24 -0.469737 0 77 -0.469737 0
gene 1 24 20 0.101935 0 78 0.101935 1
gene 1 18 25 0.198617 0 79 0.198617 1
gene 1 25 22 -0.409431 0 80 -0.409431 1
gene 1 3 26 0.391807 0 81 0.391807 1
gene 1 26 21 -0.937638 0 82 -0.937638 1
gene 1 22 20 -0.981219 0 83 -0.981219 1
gene 1 3 27 1.35759 0 84 1.35759 1
gene 1 27 23 -0.0269883 0 85 -0.0269883 1
gene 1 22 21 -1.29458 0 91 -1.29458 1
gene 1 9 30 0.206163 0 93 0.206163 1
gene 1 30 20 -0.629337 0 94 -0.629337 1
gene 1 26 20 0.0682213 0 96 0.0682213 1
gene 1 6 31 0.200513 0 98 0.200513 1
gene 1 31 22 -0.117284 0 99 -0.117284 1
gene 1 21 23 1.57413 0 101 1.57413 1
gene 1 23 22 1.19131 0 104 1.19131 1
gene 1 22 26 0.78099 0 105 0.78099 1
gene 1 16 38 0.790795 0 119 0.790795 1
gene 1 38 23 0.0309105 0 120 0.0309105 1
gene 1 9 39 0.348998 0 121 0.348998 1
gene 1 39 21 0.102521 0 122 0.102521 1
gene 1 14 27 0.323945 0 130 0.323945 1
gene 1 12 27 -0.0793426 0 131 -0.0793426 1
gene 1 9 43 0.805875 0 134 0.805875 1
gene 1 43 22 -0.390907 0 135 -0.390907 1
gene 1 26 26 -0.490297 1 137 -0.490297 1
gene 1 10 27 0.101535 0 139 0.101535 1
gene 1 31 30 0.292942 0 141 0.292942 1
gene 1 20 20 0.346335 1 146 0.346335 1
gene 1 26 30 0.754181 0 153 0.754181 1
gene 1 18 47 0.0863226 0 154 0.0863226 1
gene 1 47 21 0.154581 0 155 0.154581 1
gene 1 5 48 -0.0827176 0 156 -0.0827176 1
gene 1 48 22 0.378969 0 157 0.378969 1
gene 1 10 26 0.427568 0 159 0.427568 1
gene 1 7 25 0.308299 0 162 0.308299 1
gene 1 9 26 0.280816 0 169 0.280816 1
gene 1 1 27 -0.403269 0 170 -0.403269 1
gene 1 13 52 0.0522789 0 173 0.0522789 1
gene 1 52 21 0.402248 0 174 0.402248 1
gene 1 14 56 -0.401497 0 183 -0.401497 1
gene 1 56 20 -0.0202278 0 184 -0.0202278 1
gene 1 16 26 0.222026 0 185 0.222026 1
gene 1 17 30 0.17257 0 190 0.17257 0
gene 1 30 48 0.0804662 0 193 0.0804662 1
gene 1 25 24 0.17723 0 200 0.17723 1
gene 1 24 24 1.54953 1 208 1.54953 1
gene 1 17 60 -0.111733 0 209 -0.111733 1
gene 1 60 21 0.689732 0 210 0.689732 1
gene 1 38 26 -0.0955707 0 211 -0.0955707 1
gene 1 19 39 -0.202913 0 212 -0.202913 1
gene 1 6 47 0.134242 0 215 0.134242 1
gene 1 7 43 0.088868 0 217 0.088868 1
gene 1 18 26 0.0282104 0 218 0.0282104 1
gene 1 2 64 0.42105 0 231 0.42105 1
gene 1 64 20 -0.0927252 0 232 -0.0927252 1
gene 1 64 64 -0.234578 1 235 -0.234578 0
gene 1 3 66 0.182029 0 236 0.182029 1
gene 1 66 23 -0.23492 0 237 -0.23492 1
gene 1 13 68 -0.632181 0 241 -0.632181 1
gene 1 68 22 0.103157 0 242 0.103157 1
gene 1 10 48 0.188512 0 252 0.188512 1
gene 1 6 25 1.63068 0 265 1.63068 1
gene 1 12 72 -0.501521 0 266 -0.501521 1
gene 1 72 21 0.152497 0 267 0.152497 1
gene 1 1 47 -0.999289 0 274 -0.999289 1
gene 1 3 76 0.336936 0 282 0.336936 1
gene 1 76 20 -0.718811 0 283 -0.718811 1
gene 1 1 79 1.039 0 296 1.039 1
gene 1 79 27 -0.189692 0 297 -0.189692 1
gene 1 22 81 -0.280873 0 301 -0.280873 1
gene 1 81 20 0.211047 0 302 0.211047 1
gene 1 52 66 0.00669259 0 317 0.00669259 1
gene 1 2 91 0.797301 0 332 0.797301 1
gene 1 91 21 0.190571 0 333 0.190571 1
gene 1 24 22 0.519699 0 334 0.519699 1
gene 1 7 81 0.477084 0 355 0.477084 1
gene 1 52 52 0.351171 1 362 0.351171 1
gene 1 38 91 0.612548 0 387 0.612548 1
gene 1 9 103 -0.620861 0 408 -0.620861 1
gene 1 103 20 -0.382526 0 409 -0.382526 1
gene 1 48 64 -0.931946 0 418 -0.931946 1
gene 1 72 39 0.404219 0 426 0.404219 1
gene 1 17 128 -0.155831 0 503 -0.155831 1
gene 1 128 30 0.763562 0 504 0.763562 1
gene 1 31 23 0.466239 0 508 0.466239 1
gene 1 91 64 -0.0122613 0 528 -0.0122613 1
gene 1 91 138 -0.343875 0 538 -0.343875 1
gene 1 138 21 -0.156355 0 539 -0.156355 1
gene 1 64 128 -0.417924 0 561 -0.417924 1
gene 1 14 144 0.130787 0 567 0.130787 1
gene 1 144 21 0.412611 0 568 0.412611 1
gene 1 60 66 0.246365 0 582 0.246365 1
gene 1 6 72 -0.484132 0 605 -0.484132 1
gene 1 39 64 0.663387 0 630 0.663387 1
gene 1 12 128 -0.000102027 0 642 -0.000102027 1
gene 1 10 43 -0.0466797 0 658 -0.0466797 1
gene 1 27 52 0.186795 0 659 0.186795 1
gene 1 64 164 0.520552 1 675 0.520552 1
gene 1 164 64 1.13671 0 676 1.13671 1
gene 1 3 170 0.0166705 0 701 0.0166705 1
gene 1 170 26 0.383415 0 702 0.383415 1
gene 1 17 173 -0.392117 0 722 -0.392117 1
gene 1 173 23 -0.0146372 0 723 -0.0146372 1
gene 1 56 79 0.117995 0 739 0.117995 1
gene 1 16 180 -0.176224 0 768 -0.176224 1
gene 1 180 20 0.0394425 0 769 0.0394425 1
gene 1 66 66 1.62435 1 791 1.62435 1
gene 1 39 39 0.167412 1 807 0.167412 1
gene 1 27 138 0.22525 0 808 0.22525 1
gene 1 138 26 1.31959 0 817 1.31959 1
gene 1 144 52 0.105847 0 835 0.105847 1
gene 1 68 68 -0.869306 1 836 -0.869306 1
gene 1 19 60 0.216603 0 851 0.216603 1
gene 1 76 195 -0.273338 0 863 -0.273338 1
gene 1 195 20 -0.0347125 0 864 -0.0347125 1
gene 1 173 64 -0.373148 0 876 -0.373148 1
gene 1 6 24 -0.316475 0 914 -0.316475 1
gene 1 52 79 0.124977 1 1018 0.124977 1
gene 1 2 128 0.636986 0 1024 0.636986 1
gene 1 4 252 0.478984 0 1094 0.478984 1
gene 1 252 24 0.222566 0 1095 0.222566 1
gene 1 47 25 0.64513 0 1100 0.64513 1
genomeend 415
genomestart 446
trait 1 0.701106 0.574512 0.489613 0.171138 0.900301 0.308344 0.213203 0.397149 
node 1 1 1 1 0
node 2 1 1 1 0
node 3 1 1 1 0
node 4 1 1 1 0
node 5 1 1 1 0
node 6 1 1 1 0
node 7 1 1 1 0
node 8 1 1 1 0
node 9 1 1 1 0
node 10 1 1 1 0
node 11 1 1 1 0
node 12 1 1 1 0
node 13 1 1 1 0
node 14 1 1 1 0
node 15 1 1 1 0
node 16 1 1 1 0
node 17 1 1 1 0
node 18 1 1 1 0
node 19 1 1 3 0
node 20 1 0 2 0
node 21 1 0 2 0
node 22 1 0 2 0
node 23 1 0 2 0
node 24 1 0 0 0
node 25 1 0 0 0
node 26 1 0 0 0
node 27 1 0 0 0
node 30 1 0 0 0
node 31 1 0 0 0
node 38 1 0 0 0
node 39 1 0 0 0
node 43 1 0 0 0
node 45 1 0 0 0
node 47 1 0 0 0
node 48 1 0 0 0
node 52 1 0 0 0
node 55 1 0 0 0
node 56 1 0 0 0
node 57 1 0 0 0
node 60 1 0 0 0
node 63 1 0 0 0
node 64 1 0 0 0
node 66 1 0 0 0
node 67 1 0 0 0
node 68 1 0 0 0
node 70 1 0 0 0
node 72 1 0 0 0
node 79 1 0 0 0
node 80 1 0 0 0
node 81 1 0 0 0
node 83 1 0 0 0
node 85 1 0 0 0
node 87 1 0 0 0
node 91 1 0 0 0
node 93 1 0 0 0
node 95 1 0 0 0
node 97 1 0 0 0
node 98 1 0 0 0
node 100 1 0 0 0
node 103 1 0 0 0
node 106 1 0 0 0
node 121 1 0 0 0
node 127 1 0 0 0
node 128 1 0 0 0
node 130 1 0 0 0
node 134 1 0 0 0
node 136 1 0 0 0
node 138 1 0 0 0
node 144 1 0 0 0
node 153 1 0 0 0
node 154 1 0 0 0
node 159 1 0 0 0
node 161 1 0 0 0
node 164 1 0 0 0
node 165 1 0 0 0
node 169 1 0 0 0
node 170 1 0 0 0
node 173 1 0 0 0
node 180 1 0 0 0
node 185 1 0 0 0
node 189 1 0 0 0
node 191 1 0 0 0
node 253 1 0 0 0
node 254 1 0 0 0
node 255 1 0 0 0
gene 1 1 20 -0.171341 0 1 -0.171341 1
gene 1 2 20 0.417957 0 2 0.417957 1
gene 1 3 20 0.0997388 0 3 0.0997388 1
gene 1 4 20 -0.7502 0 4 -0.7502 1
gene 1 5 20 0.584785 0 5 0.584785 1
gene 1 6 20 0.970208 0 6 0.970208 1
gene 1 7 20 0.992774 0 7 0.992774 1
gene 1 8 20 -0.632437 0 8 -0.632437 0
gene 1 9 20 -0.454911 0 9 -0.454911 0
gene 1 10 20 0.907703 0 10 0.907703 1
gene 1 11 20 0.137495 0 11 0.137495 1
gene 1 12 20 0.0394492 0 12 0.0394492 1
gene 1 13 20 0.466072 0 13 0.466072 1
gene 1 14 20 0.461708 0 14 0.461708 1
gene 1 15 20 -0.349005 0 15 -0.349005 1
gene 1 16 20 0.304304 0 16 0.304304 1
gene 1 17 20 -0.0323474 0 17 -0.0323474 1
gene 1 18 20 1.57249 0 18 1.57249 1
gene 1 19 20 0.510373 0 19 0.510373 1
gene 1 1 21 0.224712 0 20 0.224712 1
gene 1 2 21 -0.431575 0 21 -0.431575 0
gene 1 3 21 0.459884 0 22 0.459884 1
gene 1 4 21 -0.465439 0 23 -0.465439 1
gene 1 5 21 -0.381599 0 24 -0.381599 1
gene 1 6 21 -0.655088 0 25 -0.655088 0
gene 1 7 21 -0.187515 0 26 -0.187515 1
gene 1 8 21 0.0155598 0 27 0.0155598 1
gene 1 9 21 0.440669 0 28 0.440669 0
gene 1 10 21 0.395047 0 29 0.395047 1
gene 1 11 21 -0.160335 0 30 -0.160335 1
gene 1 12 21 0.268074 0 31 0.268074 1
gene 1 13 21 -1.08125 0 32 -1.08125 1
gene 1 14 21 -0.334164 0 33 -0.334164 1
gene 1 15 21 -0.183281 0 34 -0.183281 1
gene 1 16 21 0.496297 0 35 0.496297 0
gene 1 17 21 -0.471251 0 36 -0.471251 0
gene 1 18 21 -0.297956 0 37 -0.297956 1
gene 1 19 21 -0.00694052 0 38 -0.00694052 1
gene 1 1 22 1.18667 0 39 1.18667 1
gene 1 2 22 0.765291 0 40 0.765291 1
gene 1 3 22 -0.290925 0 41 -0.290925 1
gene 1 4 22 -1.30308 0 42 -1.30308 1
gene 1 5 22 -0.177349 0 43 -0.177349 1
gene 1 6 22 0.327462 0 44 0.327462 1
gene 1 7 22 0.704274 0 45 0.704274 1
gene 1 8 22 0.369223 0 46 0.369223 1
gene 1 9 22 0.0134502 0 47 0.0134502 1
gene 1 10 22 -1.44681 0 48 -1.44681 1
gene 1 11 22 0.386035 0 49 0.386035 1
gene 1 12 22 0.652458 0 50 0.652458 1
gene 1 13 22 0.399181 0 51 0.399181 1
gene 1 14 22 -0.0245676 0 52 -0.0245676 0
gene 1 15 22 1.48739 0 53 1.48739 1
gene 1 16 22 0.0335676 0 54 0.0335676 1
gene 1 17 22 0.158012 0 55 0.158012 1
gene 1 18 22 1.5655 0 56 1.5655 1
gene 1 19 22 -0.854012 0 57 -0.854012 1
gene 1 1 23 0.57774 0 58 0.57774 1
gene 1 2 23 1.27881 0 59 1.27881 1
gene 1 3 23 -0.326027 0 60 -0.326027 1
gene 1 4 23 -0.283172 0 61 -0.283172 1
gene 1 5 23 -0.688064 0 62 -0.688064 0
gene 1 6 23 -0.348691 0 63 -0.348691 1
gene 1 7 23 0.638459 0 64 0.638459 1
gene 1 8 23 1.3319 0 65 1.3319 1
gene 1 9 23 -0.220421 0 66 -0.220421 1
gene 1 10 23 0.591508 0 67 0.591508 1
gene 1 11 23 -0.336773 0 68 -0.336773 1
gene 1 12 23 0.210926 0 69 0.210926 1
gene 1 13 23 -0.464928 0 70 -0.464928 1
gene 1 14 23 -1.00718 0 71 -1.00718 1
gene 1 15 23 1.91869 0 72 1.91869 1
gene 1 16 23 -0.104132 0 73 -0.104132 1
gene 1 17 23 -0.417431 0 74 -0.417431 1
gene 1 18 23 0.162312 0 75 0.162312 1
gene 1 19 23 0.130983 0 76 0.130983 1
gene 1 4 24 -0.412542 0 77 -0.412542 0
gene 1 24 20 -0.325956 0 78 -0.325956 1
gene 1 18 25 -1.32444 0 79 -1.32444 1
gene 1 25 22 -0.0801051 0 80 -0.0801051 1
gene 1 3 26 0.0064306 0 81 0.0064306 1
gene 1 26 21 -0.237828 0 82 -0.237828 1
gene 1 22 20 -1.91 0 83 -1.91 1
gene 1 3 27 -1.38328 0 84 -1.38328 1
gene 1 27 23 1.409 0 85 1.409 1
gene 1 22 21 -1.76971 0 91 -1.76971 1
gene 1 9 30 0.915245 0 93 0.915245 1
gene 1 30 20 -0.338272 0 94 -0.338272 1
gene 1 26 20 -1.07425 0 96 -1.07425 1
gene 1 6 31 1.04096 0 98 1.04096 1
gene 1 31 22 0.355875 0 99 0.355875 1
gene 1 21 23 0.28549 0 101 0.28549 1
gene 1 23 22 0.137851 0 104 0.137851 1
gene 1 22 26 -0.574249 0 105 -0.574249 1
gene 1 16 38 -0.00048033 0 119 -0.00048033 1
gene 1 38 23 0.377961 0 120 0.377961 1
gene 1 9 39 0.507225 0 121 0.507225 1
gene 1 39 21 0.361793 0 122 0.361793 1
gene 1 14 27 -0.376362 0 130 -0.376362 1
gene 1 12 27 -0.104996 0 131 -0.104996 1
gene 1 9 43 -0.0574183 0 134 -0.0574183 1
gene 1 43 22 1.30067 0 135 1.30067 1
gene 1 26 26 0.0696423 1 137 0.0696423 1
gene 1 10 27 -0.0113131 0 139 -0.0113131 1
gene 1 31 30 -0.0145463 0 141 -0.0145463 1
gene 1 20 20 -0.507078 1 146 -0.507078 1
gene 1 9 45 0.749145 0 148 0.749145 1
gene 1 45 22 -0.48016 0 149 -0.48016 1
gene 1 26 30 1.31333 0 153 1.31333 1
gene 1 18 47 0.84318 0 154 0.84318 1
gene 1 47 21 0.513707 0 155 0.513707 0
gene 1 5 48 -0.225216 0 156 -0.225216 1
gene 1 48 22 -0.496411 0 157 -0.496411 1
gene 1 10 26 -0.0122204 0 159 -0.0122204 1
gene 1 7 25 -0.00457983 0 162 -0.00457983 1
gene 1 9 26 -0.293834 0 169 -0.293834 1
gene 1 1 27 1.32933 0 170 1.32933 1
gene 1 13 52 -0.485222 0 173 -0.485222 1
gene 1 52 21 -0.919523 0 174 -0.919523 1
gene 1 8 55 -0.184004 0 180 -0.184004 1
gene 1 55 22 -0.849325 0 181 -0.849325 1
gene 1 14 56 0.333766 0 183 0.333766 1
gene 1 56 20 -0.19036 0 184 -0.19036 1
gene 1 16 26 0.520755 0 185 0.520755 1
gene 1 11 57 0.168594 0 186 0.168594 1
gene 1 57 20 -0.0111525 0 187 -0.0111525 1
gene 1 17 30 1.8729 0 190 1.8729 1
gene 1 30 48 -1.46186 0 193 -1.46186 1
gene 1 25 24 -1.70308 0 200 -1.70308 1
gene 1 24 24 1.43996 1 208 1.43996 1
gene 1 17 60 -0.564894 0 209 -0.564894 1
gene 1 60 21 -0.166975 0 210 -0.166975 1
gene 1 38 26 -0.266028 0 211 -0.266028 1
gene 1 19 39 0.178448 0 212 0.178448 1
gene 1 6 47 0.198994 0 215 0.198994 1
gene 1 7 43 -0.207889 0 217 -0.207889 1
gene 1 18 26 -0.236959 0 218 -0.236959 1
gene 1 47 63 0.422681 0 228 0.422681 1
gene 1 63 21 0.0060726 0 229 0.0060726 1
gene 1 2 64 -0.460458 0 231 -0.460458 1
gene 1 64 20 0.387853 0 232 0.387853 1
gene 1 64 64 1.01956 1 235 1.01956 1
gene 1 3 66 -1.14214 0 236 -1.14214 1
gene 1 66 23 0.495847 0 237 0.495847 1
gene 1 10 67 0.764971 0 238 0.764971 1
gene 1 67 20 1.09708 0 239 1.09708 1
gene 1 13 68 2.77211 0 241 2.77211 1
gene 1 68 22 2.64443 0 242 2.64443 1
gene 1 4 43 -0.378162 0 249 -0.378162 1
gene 1 10 48 0.0218444 0 252 0.0218444 1
gene 1 27 21 0.389301 0 253 0.389301 1
gene 1 16 70 0.159342 0 256 0.159342 1
gene 1 70 21 -0.888436 0 257 -0.888436 1
gene 1 43 66 -1.09926 0 259 -1.09926 1
gene 1 6 25 1.37729 0 265 1.37729 1
gene 1 12 72 -1.03768 0 266 -1.03768 1
gene 1 72 21 -0.10366 0 267 -0.10366 1
gene 1 10 25 -0.075561 0 272 -0.075561 1
gene 1 1 47 -2.08497 0 274 -2.08497 1
gene 1 6 52 -0.0142785 0 276 -0.0142785 1
gene 1 30 38 -0.165101 0 281 -0.165101 1
gene 1 22 25 -1.37309 1 294 -1.37309 1
gene 1 1 79 1.14221 0 296 1.14221 1
gene 1 79 27 -0.948853 0 297 -0.948853 1
gene 1 6 80 -0.926848 0 299 -0.926848 1
gene 1 80 25 -0.00735249 0 300 -0.00735249 1
gene 1 22 81 0.157809 0 301 0.157809 1
gene 1 81 20 0.605277 0 302 0.605277 1
gene 1 7 83 0.41341 0 307 0.41341 1
gene 1 83 21 0.0574005 0 308 0.0574005 1
gene 1 18 85 1.07826 0 312 1.07826 1
gene 1 85 25 -0.912263 0 313 -0.912263 1
gene 1 52 66 0.400146 0 317 0.400146 1
gene 1 14 87 -0.0363094 0 321 -0.0363094 1
gene 1 87 22 0.440482 0 322 0.440482 1
gene 1 2 91 -0.202267 0 332 -0.202267 1
gene 1 91 21 0.25664 0 333 0.25664 1
gene 1 24 22 0.340853 0 334 0.340853 1
gene 1 4 93 0.0511104 0 345 0.0511104 1
gene 1 93 22 0.2614 0 346 0.2614 1
gene 1 17 52 0.269379 0 351 0.269379 1
gene 1 7 81 -0.170887 0 355 -0.170887 1
gene 1 52 52 -0.0532317 1 362 -0.0532317 1
gene 1 6 95 -0.140681 0 364 -0.140681 1
gene 1 95 20 -0.105004 0 365 -0.105004 1
gene 1 67 67 0.212503 1 366 0.212503 1
gene 1 67 25 -0.809213 0 368 -0.809213 1
gene 1 18 97 0.0343857 0 377 0.0343857 0
gene 1 97 26 0.0066634 0 378 0.0066634 1
gene 1 6 98 0.735267 0 381 0.735267 1
gene 1 98 21 -0.0741568 0 382 -0.0741568 1
gene 1 38 91 0.346475 0 387 0.346475 1
gene 1 6 67 0.590758 0 390 0.590758 1
gene 1 24 100 -1.10179 1 396 -1.10179 1
gene 1 100 24 0.730684 0 397 0.730684 1
gene 1 9 103 0.926465 0 408 0.926465 1
gene 1 103 20 -0.798139 0 409 -0.798139 1
gene 1 48 64 -0.0150403 0 418 -0.0150403 1
gene 1 12 106 0.0829172 0 420 0.0829172 1
gene 1 106 23 -0.154738 0 421 -0.154738 1
gene 1 13 80 -0.0917905 0 422 -0.0917905 1
gene 1 72 39 -0.0481389 0 426 -0.0481389 1
gene 1 11 43 0.19282 0 431 0.19282 1
gene 1 15 25 1.17795 0 434 1.17795 1
gene 1 18 43 0.402708 0 438 0.402708 1
gene 1 8 64 -0.87071 0 443 -0.87071 1
gene 1 22 22 0.555671 1 462 0.555671 1
gene 1 19 43 0.0985055 0 466 0.0985055 1
gene 1 5 121 -0.146344 0 485 -0.146344 1
gene 1 121 23 -0.54429 0 486 -0.54429 1
gene 1 8 127 -0.0516719 0 501 -0.0516719 1
gene 1 127 20 0.750547 0 502 0.750547 1
gene 1 17 128 0.437905 0 503 0.437905 1
gene 1 128 30 -0.769021 0 504 -0.769021 1
gene 1 31 23 0.887563 0 508 0.887563 1
gene 1 67 130 -0.96137 1 510 -0.96137 1
gene 1 130 67 -1.36652 0 511 -1.36652 1
gene 1 31 134 -1.30796 0 524 -1.30796 1
gene 1 134 22 0.540686 0 525 0.540686 1
gene 1 91 64 0.521352 0 528 0.521352 1
gene 1 10 136 -0.158686 0 533 -0.158686 1
gene 1 136 23 -0.202889 0 534 -0.202889 1
gene 1 91 138 -0.420945 0 538 -0.420945 1
gene 1 138 21 0.628329 0 539 0.628329 1
gene 1 21 91 -0.671471 1 543 -0.671471 1
gene 1 66 70 -0.0683137 0 545 -0.0683137 1
gene 1 38 38 -1.13402 1 548 -1.13402 1
gene 1 68 68 -0.909538 1 559 -0.909538 1
gene 1 27 31 1.9787 0 560 1.9787 1
gene 1 64 128 0.289895 0 561 0.289895 1
gene 1 14 144 -0.121008 0 567 -0.121008 1
gene 1 144 21 -1.18994 0 568 -1.18994 1
gene 1 9 100 0.0899234 0 579 0.0899234 1
gene 1 60 66 -0.145732 0 582 -0.145732 1
gene 1 15 121 0.494342 0 593 0.494342 1
gene 1 136 121 -0.0365005 0 599 -0.0365005 1
gene 1 6 72 0.849342 0 605 0.849342 1
gene 1 100 153 0.0173755 0 612 0.0173755 1
gene 1 153 24 -0.320381 0 613 -0.320381 1
gene 1 27 154 0.0683607 0 618 0.0683607 1
gene 1 154 31 -0.287353 0 619 -0.287353 1
gene 1 39 64 0.315293 0 630 0.315293 1
gene 1 27 159 -0.422795 0 640 -0.422795 1
gene 1 159 154 -0.15743 0 641 -0.15743 1
gene 1 12 128 -0.931621 0 642 -0.931621 1
gene 1 15 161 -0.45261 0 647 -0.45261 1
gene 1 161 22 0.328553 0 648 0.328553 1
gene 1 10 43 0.00364874 0 658 0.00364874 1
gene 1 27 52 0.190569 0 659 0.190569 1
gene 1 47 43 -0.588536 0 668 -0.588536 1
gene 1 91 70 -0.0769258 0 674 -0.0769258 1
gene 1 64 164 -0.0190771 1 675 -0.0190771 1
gene 1 164 64 0.51149 0 676 0.51149 1
gene 1 57 165 -0.397446 0 677 -0.397446 1
gene 1 165 20 1.30059 0 678 1.30059 1
gene 1 165 55 0.36355 0 681 0.36355 0
gene 1 6 169 0.45704 0 696 0.45704 1
gene 1 169 23 -0.0801667 0 697 -0.0801667 1
gene 1 70 70 0.157619 1 698 0.157619 1
gene 1 121 31 0.602365 0 699 0.602365 1
gene 1 3 170 0.392791 0 701 0.392791 1
gene 1 170 26 0.162874 0 702 0.162874 1
gene 1 5 106 0.346796 0 708 0.346796 1
gene 1 100 127 -0.370142 0 712 -0.370142 1
gene 1 17 173 0.261268 0 722 0.261268 1
gene 1 173 23 -0.104254 0 723 -0.104254 1
gene 1 121 121 -0.195054 1 724 -0.195054 1
gene 1 16 64 -0.114467 0 725 -0.114467 1
gene 1 11 153 0.0903081 0 732 0.0903081 1
gene 1 16 91 0.364662 0 735 0.364662 1
gene 1 56 79 -0.693025 0 739 -0.693025 1
gene 1 154 154 0.257841 1 741 0.257841 1
gene 1 16 180 -1.26504 0 768 -1.26504 1
gene 1 180 20 0.538272 0 769 0.538272 1
gene 1 45 136 -0.0817608 0 771 -0.0817608 1
gene 1 97 21 -0.208668 0 783 -0.208668 1
gene 1 66 66 0.689826 1 791 0.689826 1
gene 1 87 127 0.20889 0 801 0.20889 1
gene 1 4 185 -0.0510666 0 804 -0.0510666 1
gene 1 185 24 -0.559877 0 805 -0.559877 1
gene 1 39 39 0.322968 1 807 0.322968 1
gene 1 27 138 0.0894352 0 808 0.0894352 1
gene 1 138 26 0.422094 0 817 0.422094 1
gene 1 165 189 -0.728036 0 828 -0.728036 1
gene 1 189 55 0.48526 0 829 0.48526 1
gene 1 144 52 0.742697 0 835 0.742697 1
gene 1 14 191 0.347432 0 847 0.347432 1
gene 1 191 23 0.359154 0 848 0.359154 1
gene 1 21 21 -0.356694 1 850 -0.356694 1
gene 1 153 64 0.560941 0 946 0.560941 1
gene 1 26 189 2.45588e-05 0 1090 2.45588e-05 1
gene 1 18 253 0.0128584 0 1098 0.0128584 1
gene 1 253 97 -0.174377 0 1099 -0.174377 1
gene 1 9 254 -0.570059 0 1103 -0.570059 1
gene 1 254 103 -0.420281 0 1104 -0.420281 1
gene 1 9 255 -0.982652 0 1109 -0.982652 1
gene 1 255 21 0.93149 0 1110 0.93149 1
genomeend 446
genomestart 447
trait 1 0.645855 0.512167 0.527377 0.228897 0.372506 0.558913 0.383383 0.840619 
node 1 1 1 1 0
node 2 1 1 1 0
node 3 1 1 1 0
node 4 1 1 1 0
node 5 1 1 1 0
node 6 1 1 1 0
node 7 1 1 1 0
node 8 1 1 1 0
node 9 1 1 1 0
node 10 1 1 1 0
node 11 1 1 1 0
node 12 1 1 1 0
node 13 1 1 1 0
node 14 1 1 1 0
node 15 1 1 1 0
node 16 1 1 1 0
node 17 1 1 1 0
node 18 1 1 1 0
node 19 1 1 3 0
node 20 1 0 2 0
node 21 1 0 2 0
node 22 1 0 2 0
node 23 1 0 2 0
node 26 1 0 0 0
node 27 1 0 0 0
node 30 1 0 0 0
node 31 1 0 0 0
node 38 1 0 0 0
node 47 1 0 0 0
node 48 1 0 0 0
node 57 1 0 0 0
node 66 1 0 0 0
node 72 1 0 0 0
node 81 1 0 0 0
node 82 1 0 0 0
node 91 1 0 0 0
node 93 1 0 0 0
node 107 1 0 0 0
node 115 1 0 0 0
node 136 1 0 0 0
node 177 1 0 0 0
node 184 1 0 0 0
node 196 1 0 0 0
node 246 1 0 0 0
node 248 1 0 0 0
node 249 1 0 0 0
gene 1 1 20 0.0363688 0 1 0.0363688 1
gene 1 2 20 0.431861 0 2 0.431861 1
gene 1 3 20 -0.221151 0 3 -0.221151 1
gene 1 4 20 -0.552152 0 4 -0.552152 1
gene 1 5 20 1.05916 0 5 1.05916 1
gene 1 6 20 0.948359 0 6 0.948359 1
gene 1 7 20 0.974732 0 7 0.974732 1
gene 1 8 20 1.52875 0 8 1.52875 1
gene 1 9 20 1.14743 0 9 1.14743 1
gene 1 10 20 0.669567 0 10 0.669567 0
gene 1 11 20 0.083517 0 11 0.083517 1
gene 1 12 20 0.387105 0 12 0.387105 1
gene 1 13 20 -0.316685 0 13 -0.316685 1
gene 1 14 20 -1.04135 0 14 -1.04135 1
gene 1 15 20 0.17371 0 15 0.17371 0
gene 1 16 20 -1.29574 0 16 -1.29574 1
gene 1 17 20 -0.49032 0 17 -0.49032 0
gene 1 18 20 -0.345829 0 18 -0.345829 1
gene 1 19 20 0.779249 0 19 0.779249 1
gene 1 1 21 0.805896 0 20 0.805896 1
gene 1 2 21 0.910947 0 21 0.910947 0
gene 1 3 21 -0.420219 0 22 -0.420219 0
gene 1 4 21 1.24144 0 23 1.24144 1
gene 1 5 21 0.307586 0 24 0.307586 1
gene 1 6 21 0.593237 0 25 0.593237 1
gene 1 7 21 -0.812061 0 26 -0.812061 1
gene 1 8 21 1.05551 0 27 1.05551 1
gene 1 9 21 -0.364187 0 28 -0.364187 1
gene 1 10 21 0.0662372 0 29 0.0662372 1
gene 1 11 21 0.0292223 0 30 0.0292223 0
gene 1 12 21 0.367362 0 31 0.367362 1
gene 1 13 21 0.603549 0 32 0.603549 1
gene 1 14 21 -0.139335 0 33 -0.139335 1
gene 1 15 21 0.796129 0 34 0.796129 1
gene 1 16 21 -0.016645 0 35 -0.016645 1
gene 1 17 21 0.750622 0 36 0.750622 1
gene 1 18 21 0.410549 0 37 0.410549 1
gene 1 19 21 0.00468729 0 38 0.00468729 1
gene 1 1 22 0.391318 0 39 0.391318 1
gene 1 2 22 -0.353548 0 40 -0.353548 1
gene 1 3 22 -0.296746 0 41 -0.296746 1
gene 1 4 22 -0.562622 0 42 -0.562622 1
gene 1 5 22 -0.444795 0 43 -0.444795 1
gene 1 6 22 -0.518553 0 44 -0.518553 1
gene 1 7 22 0.541692 0 45 0.541692 1
gene 1 8 22 -0.482449 0 46 -0.482449 1
gene 1 9 22 -0.154593 0 47 -0.154593 1
gene 1 10 22 -1.64399 0 48 -1.64399 1
gene 1 11 22 0.0424767 0 49 0.0424767 1
gene 1 12 22 -0.214474 0 50 -0.214474 1
gene 1 13 22 0.130827 0 51 0.130827 1
gene 1 14 22 -0.732577 0 52 -0.732577 1
gene 1 15 22 0.0257238 0 53 0.0257238 1
gene 1 16 22 0.774641 0 54 0.774641 1
gene 1 17 22 -0.797699 0 55 -0.797699 1
gene 1 18 22 -0.339211 0 56 -0.339211 1
gene 1 19 22 1.18669 0 57 1.18669 1
gene 1 1 23 -0.128581 0 58 -0.128581 1
gene 1 2 23 -0.707276 0 59 -0.707276 1
gene 1 3 23 -0.49653 0 60 -0.49653 1
gene 1 4 23 -0.179811 0 61 -0.179811 1
gene 1 5 23 -0.338322 0 62 -0.338322 1
gene 1 6 23 -0.0843241 0 63 -0.0843241 1
gene 1 7 23 0.948215 0 64 0.948215 1
gene 1 8 23 0.137015 0 65 0.137015 1
gene 1 9 23 0.199797 0 66 0.199797 1
gene 1 10 23 0.316562 0 67 0.316562 1
gene 1 11 23 -0.40183 0 68 -0.40183 1
gene 1 12 23 0.756606 0 69 0.756606 1
gene 1 13 23 -0.30801 0 70 -0.30801 1
gene 1 14 23 0.358908 0 71 0.358908 1
gene 1 15 23 -0.161686 0 72 -0.161686 1
gene 1 16 23 -0.317669 0 73 -0.317669 0
gene 1 17 23 0.760897 0 74 0.760897 1
gene 1 18 23 0.174597 0 75 0.174597 1
gene 1 19 23 0.444158 0 76 0.444158 1
gene 1 3 26 0.85006 0 81 0.85006 1
gene 1 26 21 -0.525682 0 82 -0.525682 1
gene 1 22 20 -1.74199 0 83 -1.74199 1
gene 1 3 27 0.595475 0 84 0.595475 1
gene 1 27 23 -0.827312 0 85 -0.827312 1
gene 1 22 21 -0.406477 0 91 -0.406477 1
gene 1 9 30 -0.301595 0 93 -0.301595 1
gene 1 30 20 1.20425 0 94 1.20425 1
gene 1 6 31 0.150999 0 98 0.150999 1
gene 1 31 22 -0.668062 0 99 -0.668062 1
gene 1 21 23 -0.124034 0 101 -0.124034 1
gene 1 23 22 1.54904 0 104 1.54904 1
gene 1 16 38 -0.867188 0 119 -0.867188 1
gene 1 38 23 0.461244 0 120 0.461244 1
gene 1 14 27 1.02544 0 130 1.02544 1
gene 1 12 27 0.256446 0 131 0.256446 1
gene 1 10 27 -0.306435 0 139 -0.306435 1
gene 1 31 30 -0.01744 0 141 -0.01744 1
gene 1 20 20 -0.249667 1 146 -0.249667 0
gene 1 26 30 0.0400362 0 153 0.0400362 1
gene 1 18 47 -0.427607 0 154 -0.427607 1
gene 1 47 21 0.995757 0 155 0.995757 1
gene 1 5 48 -0.245315 0 156 -0.245315 1
gene 1 48 22 0.299129 0 157 0.299129 1
gene 1 10 26 0.207462 0 159 0.207462 1
gene 1 1 27 -0.666253 0 170 -0.666253 1
gene 1 11 57 -0.783602 0 186 -0.783602 1
gene 1 57 20 -0.314813 0 187 -0.314813 1
gene 1 17 30 -0.408067 0 190 -0.408067 1
gene 1 38 26 -0.722345 0 211 -0.722345 1
gene 1 6 47 0.0604257 0 215 0.0604257 1
gene 1 18 26 0.618979 0 218 0.618979 1
gene 1 3 66 0.938336 0 236 0.938336 1
gene 1 66 23 -2.01284 0 237 -2.01284 1
gene 1 10 48 0.34726 0 252 0.34726 1
gene 1 12 72 0.367856 0 266 0.367856 1
gene 1 72 21 -0.685271 0 267 -0.685271 1
gene 1 1 47 -0.732141 0 274 -0.732141 1
gene 1 30 38 -0.233425 0 281 -0.233425 1
gene 1 22 81 -0.0815384 0 301 -0.0815384 1
gene 1 81 20 0.0869873 0 302 0.0869873 1
gene 1 17 82 0.114205 0 304 0.114205 1
gene 1 82 20 -0.742868 0 305 -0.742868 1
gene 1 2 91 -0.628784 0 332 -0.628784 1
gene 1 91 21 0.369794 0 333 0.369794 1
gene 1 4 93 0.656383 0 345 0.656383 1
gene 1 93 22 -0.224663 0 346 -0.224663 1
gene 1 7 81 -0.772783 0 355 -0.772783 1
gene 1 6 66 0.47963 0 392 0.47963 1
gene 1 8 31 -0.352015 0 407 -0.352015 1
gene 1 20 107 -0.0697 1 429 -0.0697 1
gene 1 107 20 -0.64954 0 430 -0.64954 1
gene 1 15 47 -0.352129 0 437 -0.352129 1
gene 1 38 27 0.86416 0 448 0.86416 1
gene 1 15 115 0.431135 0 467 0.431135 1
gene 1 115 20 0.232439 0 468 0.232439 1
gene 1 2 72 -0.416748 0 515 -0.416748 1
gene 1 10 136 -0.6162 0 533 -0.6162 1
gene 1 136 23 1.00078 0 534 1.00078 1
gene 1 8 115 0.0286132 0 587 0.0286132 1
gene 1 27 66 0.33953 0 588 0.33953 1
gene 1 48 66 -0.392663 0 606 -0.392663 1
gene 1 91 66 -0.277626 0 645 -0.277626 1
gene 1 27 27 -0.00782061 1 646 -0.00782061 1
gene 1 91 107 -0.0843437 0 655 -0.0843437 1
gene 1 107 107 0.0145336 1 664 0.0145336 1
gene 1 93 72 0.421017 0 669 0.421017 1
gene 1 7 72 -0.100435 0 707 -0.100435 1
gene 1 136 81 -0.670786 0 717 -0.670786 1
gene 1 38 22 0.363613 0 721 0.363613 1
gene 1 115 177 -0.144225 0 748 -0.144225 1
gene 1 177 20 -0.130872 0 749 -0.130872 1
gene 1 26 26 0.0446325 1 751 0.0446325 1
gene 1 22 107 0.0349163 0 755 0.0349163 1
gene 1 1 82 0.0968926 0 767 0.0968926 1
gene 1 7 48 -0.300434 0 770 -0.300434 1
gene 1 19 107 -0.504723 0 776 -0.504723 1
gene 1 13 48 0.276238 0 781 0.276238 1
gene 1 11 66 0.267529 0 786 0.267529 1
gene 1 15 184 -0.369408 0 799 -0.369408 1
gene 1 184 115 -0.44061 0 800 -0.44061 1
gene 1 47 47 -0.449581 1 825 -0.449581 1
gene 1 31 177 -0.443194 0 837 -0.443194 1
gene 1 184 47 -0.202441 0 849 -0.202441 1
gene 1 8 196 -0.490612 0 895 -0.490612 1
gene 1 196 23 0.257952 0 896 0.257952 1
gene 1 4 136 0.861908 0 966 0.861908 1
gene 1 72 72 0.00245003 1 1032 0.00245003 1
gene 1 22 66 -1.8176 0 1034 -1.8176 1
gene 1 10 246 -0.245849 0 1074 -0.245849 1
gene 1 246 20 0.211678 0 1075 0.211678 1
gene 1 13 248 -0.175619 0 1079 -0.175619 1
gene 1 248 20 -0.360321 0 1080 -0.360321 1
gene 1 11 249 1.23378 0 1085 1.23378 1
gene 1 249 21 -0.0208083 0 1086 -0.0208083 1
genomeend 447
genomestart 458
trait 1 0.890186 0.854091 0.349072 0.624218 0.189037 0.0080594 0.659848 0.193977 
node 1 1 1 1 0
node 2 1 1 1 0
node 3 1 1 1 0
node 4 1 1 1 0
node 5 1 1 1 0
node 6 1 1 1 0
node 7 1 1 1 0
node 8 1 1 1 0
node 9 1 1 1 0
node 10 1 1 1 0
node 11 1 1 1 0
node 12 1 1 1 0
node 13 1 1 1 0
node 14 1 1 1 0
node 15 1 1 1 0
node 16 1 1 1 0
node 17 1 1 1 0
node 18 1 1 1 0
node 19 1 1 3 0
node 20 1 0 2 0
node 21 1 0 2 0
node 22 1 0 2 0
node 23 1 0 2 0
node 24 1 0 0 0
node 25 1 0 0 0
node 26 1 0 0 0
node 27 1 0 0 0
node 30 1 0 0 0
node 31 1 0 0 0
node 38 1 0 0 0
node 39 1 0 0 0
node 43 1 0 0 0
node 47 1 0 0 0
node 52 1 0 0 0
node 55 1 0 0 0
node 57 1 0 0 0
node 64 1 0 0 0
node 66 1 0 0 0
node 67 1 0 0 0
node 68 1 0 0 0
node 70 1 0 0 0
node 80 1 0 0 0
node 81 1 0 0 0
node 85 1 0 0 0
node 87 1 0 0 0
node 91 1 0 0 0
node 93 1 0 0 0
node 95 1 0 0 0
node 100 1 0 0 0
node 121 1 0 0 0
node 127 1 0 0 0
node 130 1 0 0 0
node 153 1 0 0 0
node 165 1 0 0 0
node 169 1 0 0 0
node 185 1 0 0 0
node 189 1 0 0 0
node 191 1 0 0 0
node 208 1 0 0 0
node 217 1 0 0 0
node 250 1 0 0 0
gene 1 1 20 -1.50964 0 1 -1.50964 1
gene 1 2 20 -0.521338 0 2 -0.521338 0
gene 1 3 20 -0.408457 0 3 -0.408457 1
gene 1 4 20 -0.52346 0 4 -0.52346 1
gene 1 5 20 -0.231147 0 5 -0.231147 1
gene 1 6 20 -0.535024 0 6 -0.535024 1
gene 1 7 20 0.283476 0 7 0.283476 1
gene 1 8 20 -0.0130645 0 8 -0.0130645 0
gene 1 9 20 0.661198 0 9 0.661198 0
gene 1 10 20 1.13418 0 10 1.13418 1
gene 1 11 20 -1.01005 0 11 -1.01005 1
gene 1 12 20 -0.590976 0 12 -0.590976 1
gene 1 13 20 -0.899955 0 13 -0.899955 1
gene 1 14 20 0.592145 0 14 0.592145 1
gene 1 15 20 -1.52736 0 15 -1.52736 1
gene 1 16 20 0.87032 0 16 0.87032 1
gene 1 17 20 -1.06444 0 17 -1.06444 1
gene 1 18 20 0.517633 0 18 0.517633 1
gene 1 19 20 -1.59833 0 19 -1.59833 1
gene 1 1 21 -1.36373 0 20 -1.36373 1
gene 1 2 21 0.481414 0 21 0.481414 0
gene 1 3 21 -0.291828 0 22 -0.291828 1
gene 1 4 21 0.826632 0 23 0.826632 1
gene 1 5 21 0.40063 0 24 0.40063 1
gene 1 6 21 0.283845 0 25 0.283845 1
gene 1 7 21 0.169848 0 26 0.169848 1
gene 1 8 21 -0.0871716 0 27 -0.0871716 1
gene 1 9 21 -1.12816 0 28 -1.12816 1
gene 1 10 21 0.264357 0 29 0.264357 0
gene 1 11 21 0.940373 0 30 0.940373 1
gene 1 12 21 -0.0891471 0 31 -0.0891471 1
gene 1 13 21 -0.0546121 0 32 -0.0546121 1
gene 1 14 21 -1.37225 0 33 -1.37225 1
gene 1 15 21 -0.693286 0 34 -0.693286 1
gene 1 16 21 -0.837266 0 35 -0.837266 1
gene 1 17 21 1.58256 0 36 1.58256 1
gene 1 18 21 -0.251524 0 37 -0.251524 1
gene 1 19 21 0.339459 0 38 0.339459 1
gene 1 1 22 0.269716 0 39 0.269716 1
gene 1 2 22 0.00273813 0 40 0.00273813 1
gene 1 3 22 0.796414 0 41 0.796414 1
gene 1 4 22 -0.112319 0 42 -0.112319 0
gene 1 5 22 -0.364742 0 43 -0.364742 1
gene 1 6 22 0.481563 0 44 0.481563 1
gene 1 7 22 0.176005 0 45 0.176005 1
gene 1 8 22 -0.0517628 0 46 -0.0517628 1
gene 1 9 22 -0.50374 0 47 -0.50374 1
gene 1 10 22 0.0869604 0 48 0.0869604 1
gene 1 11 22 -0.318307 0 49 -0.318307 1
gene 1 12 22 0.0482136 0 50 0.0482136 1
gene 1 13 22 -0.214035 0 51 -0.214035 1
gene 1 14 22 -0.298041 0 52 -0.298041 0
gene 1 15 22 -0.130444 0 53 -0.130444 1
gene 1 16 22 0.240725 0 54 0.240725 1
gene 1 17 22 0.267378 0 55 0.267378 1
gene 1 18 22 1.92337 0 56 1.92337 1
gene 1 19 22 0.593383 0 57 0.593383 1
gene 1 1 23 0.725649 0 58 0.725649 1
gene 1 2 23 -0.83724 0 59 -0.83724 1
gene 1 3 23 -0.0250676 0 60 -0.0250676 0
gene 1 4 23 1.0873 0 61 1.0873 1
gene 1 5 23 -0.573348 0 62 -0.573348 1
gene 1 6 23 -0.0375817 0 63 -0.0375817 0
gene 1 7 23 0.315172 0 64 0.315172 1
gene 1 8 23 -0.0216003 0 65 -0.0216003 1
gene 1 9 23 1.04057 0 66 1.04057 1
gene 1 10 23 0.752077 0 67 0.752077 1
gene 1 11 23 0.135857 0 68 0.135857 1
gene 1 12 23 0.230196 0 69 0.230196 1
gene 1 13 23 0.0939462 0 70 0.0939462 1
gene 1 14 23 -0.295384 0 71 -0.295384 1
gene 1 15 23 0.124768 0 72 0.124768 1
gene 1 16 23 -0.612594 0 73 -0.612594 1
gene 1 17 23 0.019409 0 74 0.019409 1
gene 1 18 23 -0.770574 0 75 -0.770574 1
gene 1 19 23 0.188349 0 76 0.188349 1
gene 1 4 24 1.65383 0 77 1.65383 0
gene 1 24 20 0.0918828 0 78 0.0918828 1
gene 1 18 25 -0.471956 0 79 -0.471956 1
gene 1 25 22 0.135312 0 80 0.135312 1
gene 1 3 26 -0.675316 0 81 -0.675316 1
gene 1 26 21 -0.17579 0 82 -0.17579 1
gene 1 22 20 -1.00033 0 83 -1.00033 1
gene 1 3 27 0.102749 0 84 0.102749 1
gene 1 27 23 1.06653 0 85 1.06653 1
gene 1 22 21 -0.228348 0 91 -0.228348 1
gene 1 9 30 -0.219325 0 93 -0.219325 1
gene 1 30 20 -0.699952 0 94 -0.699952 1
gene 1 26 20 -0.903122 0 96 -0.903122 0
gene 1 6 31 -0.359379 0 98 -0.359379 1
gene 1 31 22 0.858044 0 99 0.858044 1
gene 1 21 23 -0.0205958 0 101 -0.0205958 1
gene 1 23 22 0.245226 0 104 0.245226 1
gene 1 22 26 -0.361736 0 105 -0.361736 1
gene 1 16 38 -0.336069 0 119 -0.336069 1
gene 1 38 23 1.5982 0 120 1.5982 0
gene 1 9 39 0.277846 0 121 0.277846 1
gene 1 39 21 0.327069 0 122 0.327069 1
gene 1 14 27 0.844418 0 130 0.844418 1
gene 1 12 27 -0.179267 0 131 -0.179267 1
gene 1 9 43 0.0223807 0 134 0.0223807 1
gene 1 43 22 0.443846 0 135 0.443846 1
gene 1 26 26 0.244977 1 137 0.244977 1
gene 1 31 30 -0.333255 0 141 -0.333255 1
gene 1 26 30 -0.188445 0 153 -0.188445 1
gene 1 18 47 0.0957962 0 154 0.0957962 1
gene 1 47 21 -0.0121065 0 155 -0.0121065 1
gene 1 7 25 -0.240422 0 162 -0.240422 1
gene 1 20 20 0.643856 1 165 0.643856 1
gene 1 9 26 0.279504 0 169 0.279504 1
gene 1 13 52 0.426727 0 173 0.426727 1
gene 1 52 21 -0.298774 0 174 -0.298774 1
gene 1 8 55 -0.487107 0 180 -0.487107 1
gene 1 55 22 0.503111 0 181 0.503111 1
gene 1 11 57 0.414672 0 186 0.414672 1
gene 1 57 20 0.326033 0 187 0.326033 0
gene 1 25 24 0.138867 0 200 0.138867 1
gene 1 24 24 0.401597 1 208 0.401597 1
gene 1 19 39 0.85223 0 212 0.85223 1
gene 1 7 43 0.0699705 0 217 0.0699705 1
gene 1 18 26 -0.152045 0 218 -0.152045 1
gene 1 2 64 0.771304 0 231 0.771304 1
gene 1 64 20 -0.783068 0 232 -0.783068 1
gene 1 64 64 -0.476188 1 235 -0.476188 1
gene 1 3 66 -0.294353 0 236 -0.294353 1
gene 1 66 23 0.168538 0 237 0.168538 1
gene 1 10 67 -0.302312 0 238 -0.302312 1
gene 1 67 20 0.673649 0 239 0.673649 1
gene 1 13 68 0.271898 0 241 0.271898 1
gene 1 68 22 -0.102446 0 242 -0.102446 1
gene 1 4 43 -0.20787 0 249 -0.20787 1
gene 1 27 21 -0.678273 0 253 -0.678273 1
gene 1 16 70 -0.540578 0 256 -0.540578 1
gene 1 70 21 1.41132 0 257 1.41132 1
gene 1 43 66 0.313254 0 259 0.313254 1
gene 1 6 25 0.235044 0 265 0.235044 1
gene 1 10 25 -0.602336 0 272 -0.602336 1
gene 1 6 52 -0.790798 0 276 -0.790798 1
gene 1 30 38 -0.282163 0 281 -0.282163 1
gene 1 22 25 -1.55105 1 294 -1.55105 1
gene 1 6 80 -0.104109 0 299 -0.104109 1
gene 1 80 25 0.0759174 0 300 0.0759174 1
gene 1 22 81 -0.745529 0 301 -0.745529 1
gene 1 81 20 0.281339 0 302 0.281339 1
gene 1 18 85 0.375136 0 312 0.375136 1
gene 1 85 25 -0.347265 0 313 -0.347265 1
gene 1 14 87 -0.285015 0 321 -0.285015 1
gene 1 87 22 0.185633 0 322 0.185633 1
gene 1 2 91 -0.645224 0 332 -0.645224 1
gene 1 91 21 0.602029 0 333 0.602029 1
gene 1 24 22 0.00730912 0 334 0.00730912 1
gene 1 4 93 0.620128 0 345 0.620128 1
gene 1 93 22 0.685878 0 346 0.685878 1
gene 1 17 52 -0.0795074 0 351 -0.0795074 1
gene 1 52 52 0.200991 1 362 0.200991 1
gene 1 6 95 -0.807704 0 364 -0.807704 1
gene 1 95 20 -0.66288 0 365 -0.66288 1
gene 1 67 67 -0.763179 1 366 -0.763179 1
gene 1 67 25 0.741765 0 368 0.741765 1
gene 1 6 67 0.403078 0 390 0.403078 1
gene 1 24 100 -0.276218 1 396 -0.276218 1
gene 1 100 24 0.919425 0 397 0.919425 1
gene 1 13 80 0.132066 0 422 0.132066 1
gene 1 11 43 0.333808 0 431 0.333808 1
gene 1 15 25 -0.131434 0 434 -0.131434 1
gene 1 18 43 -1.12151 0 438 -1.12151 1
gene 1 8 64 0.0336659 0 443 0.0336659 1
gene 1 22 22 0.463524 1 462 0.463524 1
gene 1 19 43 -0.0167281 0 466 -0.0167281 1
gene 1 5 121 -0.330764 0 485 -0.330764 1
gene 1 121 23 -0.898403 0 486 -0.898403 1
gene 1 8 127 -0.764998 0 501 -0.764998 1
gene 1 127 20 0.214084 0 502 0.214084 1
gene 1 67 130 -0.301145 1 510 -0.301145 1
gene 1 130 67 0.622178 0 511 0.622178 1
gene 1 21 91 0.563738 1 543 0.563738 1
gene 1 66 70 -0.106453 0 545 -0.106453 1
gene 1 68 68 0.139894 1 559 0.139894 1
gene 1 9 100 -0.169839 0 579 -0.169839 1
gene 1 15 121 0.179892 0 593 0.179892 1
gene 1 100 153 0.0452229 0 612 0.0452229 1
gene 1 153 24 -0.676719 0 613 -0.676719 1
gene 1 47 43 -0.152664 0 668 -0.152664 1
gene 1 91 70 0.866227 0 674 0.866227 1
gene 1 57 165 0.426154 0 677 0.426154 1
gene 1 165 20 -0.386179 0 678 -0.386179 1
gene 1 165 55 -0.085864 0 681 -0.085864 0
gene 1 6 169 0.240846 0 696 0.240846 1
gene 1 169 23 -0.130928 0 697 -0.130928 1
gene 1 70 70 -0.428386 1 698 -0.428386 1
gene 1 121 31 -0.108476 0 699 -0.108476 1
gene 1 100 127 0.793756 0 712 0.793756 1
gene 1 16 64 -0.799509 0 725 -0.799509 1
gene 1 11 153 0.238131 0 732 0.238131 1
gene 1 16 91 -0.00755836 0 735 -0.00755836 1
gene 1 87 127 -0.256269 0 801 -0.256269 1
gene 1 4 185 0.0116867 0 804 0.0116867 1
gene 1 185 24 -0.524399 0 805 -0.524399 1
gene 1 165 189 0.429246 0 828 0.429246 1
gene 1 189 55 0.581555 0 829 0.581555 1
gene 1 14 191 -0.143782 0 847 -0.143782 1
gene 1 191 23 -0.0177248 0 848 -0.0177248 1
gene 1 10 208 0.242954 0 941 0.242954 1
gene 1 208 21 0.158262 0 942 0.158262 1
gene 1 38 217 -0.786755 0 975 -0.786755 1
gene 1 217 23 -0.2295 0 976 -0.2295 1
gene 1 130 121 0.177784 0 978 0.177784 1
gene 1 185 185 0.584521 1 1021 0.584521 1
gene 1 43 165 -0.220869 0 1050 -0.220869 1
gene 1 67 24 -0.460817 0 1063 -0.460817 1
gene 1 20 85 -0.334229 1 1083 -0.334229 1
gene 1 26 250 0.929278 0 1087 0.929278 1
gene 1 250 20 -0.270937 0 1088 0 1
genomeend 458
genomestart 470
trait 1 0.0480895 0.983752 0.791075 0.724061 0.928201 0.273496 0.546346 0.66972 
node 1 1 1 1 0
node 2 1 1 1 0
node 3 1 1 1 0
node 4 1 1 1 0
node 5 1 1 1 0
node 6 1 1 1 0
node 7 1 1 1 0
node 8 1 1 1 0
node 9 1 1 1 0
node 10 1 1 1 0
node 11 1 1 1 0
node 12 1 1 1 0
node 13 1 1 1 0
node 14 1 1 1 0
node 15 1 1 1 0
node 16 1 1 1 0
node 17 1 1 1 0
node 18 1 1 1 0
node 19 1 1 3 0
node 20 1 0 2 0
node 21 1 0 2 0
node 22 1 0 2 0
node 23 1 0 2 0
node 24 1 0 0 0
node 25 1 0 0 0
node 26 1 0 0 0
node 27 1 0 0 0
node 30 1 0 0 0
node 31 1 0 0 0
node 38 1 0 0 0
node 39 1 0 0 0
node 43 1 0 0 0
node 45 1 0 0 0
node 47 1 0 0 0
node 48 1 0 0 0
node 52 1 0 0 0
node 56 1 0 0 0
node 57 1 0 0 0
node 60 1 0 0 0
node 63 1 0 0 0
node 64 1 0 0 0
node 66 1 0 0 0
node 68 1 0 0 0
node 72 1 0 0 0
node 76 1 0 0 0
node 79 1 0 0 0
node 81 1 0 0 0
node 83 1 0 0 0
node 91 1 0 0 0
node 93 1 0 0 0
node 97 1 0 0 0
node 98 1 0 0 0
node 103 1 0 0 0
node 106 1 0 0 0
node 121 1 0 0 0
node 127 1 0 0 0
node 128 1 0 0 0
node 134 1 0 0 0
node 136 1 0 0 0
node 138 1 0 0 0
node 141 1 0 0 0
node 144 1 0 0 0
node 154 1 0 0 0
node 159 1 0 0 0
node 161 1 0 0 0
node 164 1 0 0 0
node 170 1 0 0 0
node 173 1 0 0 0
node 180 1 0 0 0
node 195 1 0 0 0
node 244 1 0 0 0
gene 1 1 20 1.19436 0 1 1.19436 1
gene 1 2 20 -0.121625 0 2 -0.121625 1
gene 1 3 20 0.133319 0 3 0.133319 0
gene 1 4 20 0.410537 0 4 0.410537 1
gene 1 5 20 0.0786677 0 5 0.0786677 1
gene 1 6 20 -1.50154 0 6 -1.50154 1
gene 1 7 20 0.0301057 0 7 0.0301057 1
gene 1 8 20 -0.707221 0 8 -0.707221 0
gene 1 9 20 -0.840427 0 9 -0.840427 0
gene 1 10 20 -0.161381 0 10 -0.161381 1
gene 1 11 20 0.0181773 0 11 0.0181773 1
gene 1 12 20 -1.22008 0 12 -1.22008 1
gene 1 13 20 -0.411797 0 13 -0.411797 1
gene 1 14 20 0.448395 0 14 0.448395 1
gene 1 15 20 0.0981801 0 15 0.0981801 1
gene 1 16 20 -0.67512 0 16 -0.67512 0
gene 1 17 20 0.307488 0 17 0.307488 1
gene 1 18 20 -0.236063 0 18 -0.236063 1
gene 1 19 20 0.43561 0 19 0.43561 1
gene 1 1 21 -0.072244 0 20 -0.072244 1
gene 1 2 21 -0.423866 0 21 -0.423866 1
gene 1 3 21 -0.0216569 0 22 -0.0216569 1
gene 1 4 21 0.0619883 0 23 0.0619883 1
gene 1 5 21 2.14913 0 24 2.14913 1
gene 1 6 21 0.347742 0 25 0.347742 0
gene 1 7 21 0.444508 0 26 0.444508 0
gene 1 8 21 -0.909158 0 27 -0.909158 1
gene 1 9 21 -0.263503 0 28 -0.263503 1
gene 1 10 21 0.467197 0 29 0.467197 1
gene 1 11 21 -0.144746 0 30 -0.144746 1
gene 1 12 21 -0.399555 0 31 -0.399555 1
gene 1 13 21 -0.353808 0 32 -0.353808 1
gene 1 14 21 1.1377 0 33 1.1377 0
gene 1 15 21 0.230146 0 34 0.230146 1
gene 1 16 21 0.755055 0 35 0.755055 1
gene 1 17 21 -0.453388 0 36 -0.453388 0
gene 1 18 21 0.345291 0 37 0.345291 1
gene 1 19 21 -0.231136 0 38 -0.231136 1
gene 1 1 22 0.0452969 0 39 0.0452969 1
gene 1 2 22 0.120425 0 40 0.120425 1
gene 1 3 22 -0.311917 0 41 -0.311917 1
gene 1 4 22 0.0139527 0 42 0.0139527 1
gene 1 5 22 0.501927 0 43 0.501927 0
gene 1 6 22 -0.358432 0 44 -0.358432 1
gene 1 7 22 0.170337 0 45 0.170337 1
gene 1 8 22 0.430983 0 46 0.430983 1
gene 1 9 22 -0.790274 0 47 -0.790274 1
gene 1 10 22 -0.442602 0 48 -0.442602 1
gene 1 11 22 -0.653961 0 49 -0.653961 1
gene 1 12 22 -0.142603 0 50 -0.142603 1
gene 1 13 22 -0.146998 0 51 -0.146998 1
gene 1 14 22 0.0749224 0 52 0.0749224 1
gene 1 15 22 -0.0542849 0 53 -0.0542849 1
gene 1 16 22 0.261738 0 54 0.261738 1
gene 1 17 22 -0.822746 0 55 -0.822746 1
gene 1 18 22 -0.365598 0 56 -0.365598 1
gene 1 19 22 0.362257 0 57 0.362257 1
gene 1 1 23 -1.60156 0 58 -1.60156 1
gene 1 2 23 -0.443178 0 59 -0.443178 1
gene 1 3 23 0.482759 0 60 0.482759 0
gene 1 4 23 0.395731 0 61 0.395731 1
gene 1 5 23 -0.664563 0 62 -0.664563 0
gene 1 6 23 -0.111195 0 63 -0.111195 1
gene 1 7 23 0.621549 0 64 0.621549 1
gene 1 8 23 -0.425517 0 65 -0.425517 1
gene 1 9 23 -0.945088 0 66 -0.945088 1
gene 1 10 23 0.751067 0 67 0.751067 1
gene 1 11 23 -0.702196 0 68 -0.702196 1
gene 1 12 23 -0.0903861 0 69 -0.0903861 0
gene 1 13 23 -0.304014 0 70 -0.304014 1
gene 1 14 23 -0.448905 0 71 -0.448905 1
gene 1 15 23 0.904086 0 72 0.904086 1
gene 1 16 23 -1.00318 0 73 -1.00318 0
gene 1 17 23 0.39253 0 74 0.39253 1
gene 1 18 23 -0.492462 0 75 -0.492462 1
gene 1 19 23 -0.861345 0 76 -0.861345 1
gene 1 4 24 -0.521015 0 77 -0.521015 1
gene 1 24 20 -0.510468 0 78 -0.510468 1
gene 1 18 25 -0.615797 0 79 -0.615797 1
gene 1 25 22 0.315453 0 80 0.315453 1
gene 1 3 26 -0.403656 0 81 -0.403656 1
gene 1 26 21 0.357554 0 82 0.357554 1
gene 1 22 20 -1.25044 0 83 -1.25044 1
gene 1 3 27 -1.02787 0 84 -1.02787 1
gene 1 27 23 -0.355934 0 85 -0.355934 1
gene 1 22 21 0.147256 0 91 0.147256 1
gene 1 9 30 0.331782 0 93 0.331782 1
gene 1 30 20 -0.791269 0 94 -0.791269 1
gene 1 26 20 -0.226029 0 96 -0.226029 1
gene 1 6 31 -0.149692 0 98 -0.149692 1
gene 1 31 22 -0.840997 0 99 -0.840997 0
gene 1 21 23 0.389102 0 101 0.389102 1
gene 1 23 22 -1.50668 0 104 -1.50668 1
gene 1 22 26 -0.418598 0 105 -0.418598 1
gene 1 16 38 -0.181313 0 119 -0.181313 1
gene 1 38 23 -0.70991 0 120 -0.70991 1
gene 1 9 39 -0.570462 0 121 -0.570462 1
gene 1 39 21 0.575183 0 122 0.575183 1
gene 1 14 27 0.529662 0 130 0.529662 1
gene 1 12 27 -1.33617 0 131 -1.33617 1
gene 1 9 43 0.0237973 0 134 0.0237973 1
gene 1 43 22 -0.490063 0 135 -0.490063 1
gene 1 26 26 -0.116419 1 137 -0.116419 1
gene 1 10 27 0.259434 0 139 0.259434 1
gene 1 31 30 1.45433 0 141 1.45433 1
gene 1 20 20 -0.581398 1 146 -0.581398 1
gene 1 9 45 -0.375986 0 148 -0.375986 1
gene 1 45 22 1.11392 0 149 1.11392 1
gene 1 26 30 -0.202032 0 153 -0.202032 1
gene 1 18 47 -0.322378 0 154 -0.322378 1
gene 1 47 21 -1.2063 0 155 -1.2063 0
gene 1 5 48 0.29104 0 156 0.29104 1
gene 1 48 22 1.08651 0 157 1.08651 1
gene 1 10 26 1.04598 0 159 1.04598 1
gene 1 7 25 0.0440316 0 162 0.0440316 1
gene 1 9 26 -0.0154059 0 169 -0.0154059 1
gene 1 1 27 -0.563581 0 170 -0.563581 1
gene 1 13 52 -0.399564 0 173 -0.399564 1
gene 1 52 21 -0.0671611 0 174 -0.0671611 1
gene 1 14 56 -0.0663548 0 183 -0.0663548 1
gene 1 56 20 -1.24389 0 184 -1.24389 1
gene 1 16 26 -0.220372 0 185 -0.220372 1
gene 1 11 57 -0.442543 0 186 -0.442543 1
gene 1 57 20 0.553419 0 187 0.553419 1
gene 1 17 30 0.619222 0 190 0.619222 1
gene 1 30 48 0.400064 0 193 0.400064 1
gene 1 25 24 -0.294236 0 200 -0.294236 1
gene 1 24 24 1.29473 1 208 1.29473 1
gene 1 17 60 -0.454374 0 209 -0.454374 1
gene 1 60 21 -0.688997 0 210 -0.688997 1
gene 1 38 26 0.690373 0 211 0.690373 1
gene 1 19 39 -0.385867 0 212 -0.385867 1
gene 1 6 47 -1.03296 0 215 -1.03296 1
gene 1 7 43 -1.03307 0 217 -1.03307 1
gene 1 18 26 -0.163423 0 218 -0.163423 1
gene 1 47 63 0.820394 0 228 0.820394 1
gene 1 63 21 0.326988 0 229 0.326988 1
gene 1 2 64 -0.25304 0 231 -0.25304 1
gene 1 64 20 0.403999 0 232 0.403999 1
gene 1 64 64 -0.110088 1 235 -0.110088 0
gene 1 3 66 1.01857 0 236 1.01857 1
gene 1 66 23 -0.726452 0 237 -0.726452 1
gene 1 13 68 -0.0438445 0 241 -0.0438445 1
gene 1 68 22 -0.237032 0 242 -0.237032 1
gene 1 10 48 1.80027 0 252 1.80027 1
gene 1 6 25 -0.38601 0 265 -0.38601 1
gene 1 12 72 0.849868 0 266 0.849868 1
gene 1 72 21 -0.263086 0 267 -0.263086 1
gene 1 1 47 -0.390412 0 274 -0.390412 1
gene 1 30 38 0.0783483 0 281 0.0783483 1
gene 1 3 76 -0.169481 0 282 -0.169481 1
gene 1 76 20 0.98473 0 283 0.98473 0
gene 1 1 79 -0.0148898 0 296 -0.0148898 1
gene 1 79 27 -0.280285 0 297 -0.280285 1
gene 1 22 81 -0.105288 0 301 -0.105288 1
gene 1 81 20 -0.408983 0 302 -0.408983 1
gene 1 7 83 0.600585 0 307 0.600585 1
gene 1 83 21 -0.0731213 0 308 -0.0731213 1
gene 1 52 66 0.553365 0 317 0.553365 1
gene 1 2 91 -0.46211 0 332 -0.46211 1
gene 1 91 21 0.0547664 0 333 0.0547664 0
gene 1 24 22 0.46765 0 334 0.46765 1
gene 1 4 93 -0.182211 0 345 -0.182211 1
gene 1 93 22 0.140219 0 346 0.140219 1
gene 1 7 81 0.648391 0 355 0.648391 1
gene 1 52 52 -0.795066 1 362 -0.795066 1
gene 1 18 97 -0.404891 0 377 -0.404891 1
gene 1 97 26 0.318054 0 378 0.318054 1
gene 1 6 98 0.65503 0 381 0.65503 1
gene 1 98 21 -0.387004 0 382 -0.387004 1
gene 1 38 91 0.74815 0 387 0.74815 1
gene 1 9 103 0.341834 0 408 0.341834 1
gene 1 103 20 -0.00448079 0 409 -0.00448079 1
gene 1 48 64 0.238597 0 418 0.238597 1
gene 1 12 106 0.500991 0 420 0.500991 1
gene 1 106 23 -0.858905 0 421 -0.858905 1
gene 1 72 39 -0.229893 0 426 -0.229893 1
gene 1 5 121 0.0286372 0 485 0.0286372 1
gene 1 121 23 0.396574 0 486 0.396574 1
gene 1 8 127 -0.236814 0 501 -0.236814 1
gene 1 127 20 0.23898 0 502 0.23898 1
gene 1 17 128 -0.222817 0 503 -0.222817 1
gene 1 128 30 -0.0658337 0 504 -0.0658337 1
gene 1 31 23 -0.455766 0 508 -0.455766 1
gene 1 31 134 0.931576 0 524 0.931576 1
gene 1 134 22 1.30753 0 525 1.30753 1
gene 1 91 64 -0.322991 0 528 -0.322991 1
gene 1 10 136 0.969996 0 533 0.969996 1
gene 1 136 23 -0.0204392 0 534 -0.0204392 1
gene 1 91 138 -0.656395 0 538 -0.656395 1
gene 1 138 21 -0.111246 0 539 -0.111246 1
gene 1 38 38 0.335187 1 548 0.335187 1
gene 1 27 141 -0.00486683 0 552 -0.00486683 1
gene 1 141 23 0.4269 0 553 0.4269 1
gene 1 27 31 -0.0848644 0 560 -0.0848644 1
gene 1 64 128 -0.576853 0 561 -0.576853 1
gene 1 14 144 0.191902 0 567 0.191902 1
gene 1 144 21 -0.253228 0 568 -0.253228 1
gene 1 60 66 0.039087 0 582 0.039087 1
gene 1 136 121 0.0564232 0 599 0.0564232 1
gene 1 6 72 0.0379853 0 605 0.0379853 1
gene 1 27 154 0.208483 0 618 0.208483 0
gene 1 154 31 -0.0448332 0 619 -0.0448332 1
gene 1 39 64 0.511091 0 630 0.511091 1
gene 1 27 159 -0.242549 0 640 -0.242549 1
gene 1 159 154 0.0329962 0 641 0.0329962 1
gene 1 12 128 -0.121877 0 642 -0.121877 1
gene 1 15 161 0.486135 0 647 0.486135 1
gene 1 161 22 -0.375554 0 648 -0.375554 1
gene 1 10 43 0.005972 0 658 0.005972 1
gene 1 27 52 0.227279 0 659 0.227279 1
gene 1 64 164 -0.278011 1 675 -0.278011 1
gene 1 164 64 -0.440862 0 676 -0.440862 1
gene 1 3 170 -0.21781 0 701 -0.21781 1
gene 1 170 26 -0.383828 0 702 -0.383828 1
gene 1 5 106 -0.0708309 0 708 -0.0708309 1
gene 1 17 173 -0.256404 0 722 -0.256404 1
gene 1 173 23 -0.265597 0 723 -0.265597 1
gene 1 121 121 0.334116 1 724 0.334116 1
gene 1 56 79 0.0030715 0 739 0.0030715 1
gene 1 154 154 -0.715286 1 741 -0.715286 1
gene 1 16 180 -0.324922 0 768 -0.324922 1
gene 1 180 20 0.79038 0 769 0.79038 1
gene 1 45 136 0.176072 0 771 0.176072 1
gene 1 97 21 -0.174217 0 783 -0.174217 1
gene 1 66 66 -1.26061 1 791 -1.26061 1
gene 1 39 39 0.0249305 1 807 0.0249305 1
gene 1 27 138 0.172376 0 808 0.172376 1
gene 1 138 26 -0.0236207 0 817 -0.0236207 1
gene 1 144 52 -0.41837 0 835 -0.41837 1
gene 1 68 68 -0.858566 1 836 -0.858566 1
gene 1 21 21 0.234498 1 850 0.234498 1
gene 1 19 60 0.297978 0 851 0.297978 1
gene 1 76 195 0.082726 0 863 0.082726 1
gene 1 195 20 -0.273274 0 864 -0.273274 1
gene 1 173 64 0.471358 0 876 0.471358 1
gene 1 4 144 -1.30438 0 884 -1.30438 1
gene 1 68 81 -0.432474 0 898 -0.432474 1
gene 1 180 47 0.379228 0 902 0.379228 1
gene 1 27 24 0.890757 0 928 0.890757 1
gene 1 159 173 -0.178908 0 951 -0.178908 1
gene 1 164 25 -0.132869 0 1064 -0.132869 1
gene 1 1 244 -0.310662 0 1070 -0.310662 1
gene 1 244 47 0.310971 0 1071 0.310971 1
genomeend 470
genomestart 490
trait 1 0.0491872 0.984957 0.794394 0.885446 0.459564 0.273341 0.530215 0.834854 
node 1 1 1 1 0
node 2 1 1 1 0
node 3 1 1 1 0
node 4 1 1 1 0
node 5 1 1 1 0
node 6 1 1 1 0
node 7 1 1 1 0
node 8 1 1 1 0
node 9 1 1 1 0
node 10 1 1 1 0
node 11 1 1 1 0
node 12 1 1 1 0
node 13 1 1 1 0
node 14 1 1 1 0
node 15 1 1 1 0
node 16 1 1 1 0
node 17 1 1 1 0
node 18 1 1 1 0
node 19 1 1 3 0
node 20 1 0 2 0
node 21 1 0 2 0
node 22 1 0 2 0
node 23 1 0 2 0
node 24 1 0 0 0
node 25 1 0 0 0
node 26 1 0 0 0
node 27 1 0 0 0
node 30 1 0 0 0
node 31 1 0 0 0
node 38 1 0 0 0
node 39 1 0 0 0
node 43 1 0 0 0
node 45 1 0 0 0
node 47 1 0 0 0
node 48 1 0 0 0
node 52 1 0 0 0
node 56 1 0 0 0
node 57 1 0 0 0
node 60 1 0 0 0
node 63 1 0 0 0
node 64 1 0 0 0
node 66 1 0 0 0
node 68 1 0 0 0
node 72 1 0 0 0
node 76 1 0 0 0
node 79 1 0 0 0
node 81 1 0 0 0
node 83 1 0 0 0
node 91 1 0 0 0
node 93 1 0 0 0
node 97 1 0 0 0
node 98 1 0 0 0
node 103 1 0 0 0
node 106 1 0 0 0
node 121 1 0 0 0
node 127 1 0 0 0
node 128 1 0 0 0
node 134 1 0 0 0
node 136 1 0 0 0
node 138 1 0 0 0
node 141 1 0 0 0
node 144 1 0 0 0
node 154 1 0 0 0
node 159 1 0 0 0
node 161 1 0 0 0
node 164 1 0 0 0
node 170 1 0 0 0
node 173 1 0 0 0
node 180 1 0 0 0
node 195 1 0 0 0
node 244 1 0 0 0
node 254 1 0 0 0
gene 1 1 20 0.0175543 0 1 0.0175543 1
gene 1 2 20 0.901693 0 2 0.901693 0
gene 1 3 20 -0.489571 0 3 -0.489571 0
gene 1 4 20 1.01347 0 4 1.01347 1
gene 1 5 20 -0.409744 0 5 -0.409744 1
gene 1 6 20 0.251829 0 6 0.251829 1
gene 1 7 20 0.541639 0 7 0.541639 1
gene 1 8 20 -1.47161 0 8 -1.47161 0
gene 1 9 20 -0.0965752 0 9 -0.0965752 0
gene 1 10 20 -0.00610803 0 10 -0.00610803 1
gene 1 11 20 0.151456 0 11 0.151456 1
gene 1 12 20 -0.952271 0 12 -0.952271 1
gene 1 13 20 -1.046 0 13 -1.046 1
gene 1 14 20 0.0393608 0 14 0.0393608 1
gene 1 15 20 1.19482 0 15 1.19482 1
gene 1 16 20 0.487434 0 16 0.487434 0
gene 1 17 20 0.670062 0 17 0.670062 1
gene 1 18 20 -0.354963 0 18 -0.354963 1
gene 1 19 20 -0.255717 0 19 -0.255717 1
gene 1 1 21 0.191058 0 20 0.191058 1
gene 1 2 21 0.251353 0 21 0.251353 1
gene 1 3 21 -0.252165 0 22 -0.252165 1
gene 1 4 21 -0.24695 0 23 -0.24695 1
gene 1 5 21 1.23027 0 24 1.23027 1
gene 1 6 21 0.312979 0 25 0.312979 0
gene 1 7 21 -0.199263 0 26 -0.199263 0
gene 1 8 21 -0.729381 0 27 -0.729381 1
gene 1 9 21 -0.750801 0 28 -0.750801 1
gene 1 10 21 -0.646745 0 29 -0.646745 1
gene 1 11 21 -0.813133 0 30 -0.813133 1
gene 1 12 21 -0.789558 0 31 -0.789558 1
gene 1 13 21 -0.473782 0 32 -0.473782 0
gene 1 14 21 0.857651 0 33 0.857651 0
gene 1 15 21 0.299317 0 34 0.299317 1
gene 1 16 21 0.418914 0 35 0.418914 1
gene 1 17 21 -0.713691 0 36 -0.713691 1
gene 1 18 21 1.19294 0 37 1.19294 1
gene 1 19 21 -0.0536184 0 38 -0.0536184 1
gene 1 1 22 -0.113956 0 39 -0.113956 1
gene 1 2 22 -0.260094 0 40 -0.260094 1
gene 1 3 22 -0.484194 0 41 -0.484194 1
gene 1 4 22 0.333575 0 42 0.333575 1
gene 1 5 22 1.29873 0 43 1.29873 0
gene 1 6 22 0.1492 0 44 0.1492 1
gene 1 7 22 0.333746 0 45 0.333746 1
gene 1 8 22 -0.422946 0 46 -0.422946 1
gene 1 9 22 -0.147528 0 47 -0.147528 1
gene 1 10 22 -0.18463 0 48 -0.18463 1
gene 1 11 22 0.167554 0 49 0.167554 1
gene 1 12 22 0.210462 0 50 0.210462 1
gene 1 13 22 -0.206974 0 51 -0.206974 1
gene 1 14 22 0.00884777 0 52 0.00884777 1
gene 1 15 22 0.0370614 0 53 0.0370614 1
gene 1 16 22 0.733031 0 54 0.733031 1
gene 1 17 22 0.0169122 0 55 0.0169122 1
gene 1 18 22 0.881872 0 56 0.881872 1
gene 1 19 22 -0.0921952 0 57 -0.0921952 1
gene 1 1 23 -0.57699 0 58 -0.57699 1
gene 1 2 23 0.144489 0 59 0.144489 1
gene 1 3 23 0.735925 0 60 0.735925 0
gene 1 4 23 -0.199764 0 61 -0.199764 1
gene 1 5 23 0.0405482 0 62 0.0405482 1
gene 1 6 23 -1.13402 0 63 -1.13402 1
gene 1 7 23 1.06141 0 64 1.06141 1
gene 1 8 23 -0.120877 0 65 -0.120877 1
gene 1 9 23 -0.441502 0 66 -0.441502 1
gene 1 10 23 0.631773 0 67 0.631773 1
gene 1 11 23 -1.06126 0 68 -1.06126 1
gene 1 12 23 -0.0990732 0 69 -0.0990732 0
gene 1 13 23 -0.750494 0 70 -0.750494 1
gene 1 14 23 -0.305594 0 71 -0.305594 1
gene 1 15 23 2.22911 0 72 2.22911 1
gene 1 16 23 -1.62827 0 73 -1.62827 0
gene 1 17 23 -0.28116 0 74 -0.28116 1
gene 1 18 23 -0.123022 0 75 -0.123022 1
gene 1 19 23 -1.33084 0 76 -1.33084 1
gene 1 4 24 -0.35993 0 77 -0.35993 1
gene 1 24 20 -1.20886 0 78 -1.20886 1
gene 1 18 25 -0.296661 0 79 -0.296661 1
gene 1 25 22 -0.237603 0 80 -0.237603 1
gene 1 3 26 -0.534022 0 81 -0.534022 0
gene 1 26 21 0.584867 0 82 0.584867 1
gene 1 22 20 -0.673317 0 83 -0.673317 1
gene 1 3 27 -0.0664747 0 84 -0.0664747 1
gene 1 27 23 -0.611516 0 85 -0.611516 1
gene 1 22 21 -0.368435 0 91 -0.368435 1
gene 1 9 30 0.96442 0 93 0.96442 1
gene 1 30 20 -1.08576 0 94 -1.08576 1
gene 1 26 20 -0.511332 0 96 -0.511332 1
gene 1 6 31 0.125165 0 98 0.125165 1
gene 1 31 22 -1.04863 0 99 -1.04863 0
gene 1 21 23 0.363913 0 101 0.363913 1
gene 1 23 22 -1.34108 0 104 -1.34108 1
gene 1 22 26 0.104275 0 105 0.104275 1
gene 1 16 38 -0.125855 0 119 -0.125855 1
gene 1 38 23 0.147306 0 120 0.147306 1
gene 1 9 39 -0.695123 0 121 -0.695123 1
gene 1 39 21 0.44314 0 122 0.44314 1
gene 1 14 27 0.133636 0 130 0.133636 1
gene 1 12 27 0.46691 0 131 0.46691 1
gene 1 9 43 0.509552 0 134 0.509552 1
gene 1 43 22 -0.862591 0 135 -0.862591 1
gene 1 26 26 0.493488 1 137 0.493488 1
gene 1 10 27 -0.165124 0 139 -0.165124 1
gene 1 31 30 0.0516184 0 141 0.0516184 1
gene 1 20 20 -0.607968 1 146 -0.607968 1
gene 1 9 45 0.277526 0 148 0.277526 1
gene 1 45 22 1.26092 0 149 1.26092 1
gene 1 26 30 -0.209421 0 153 -0.209421 1
gene 1 18 47 0.583824 0 154 0.583824 1
gene 1 47 21 -0.20755 0 155 -0.20755 0
gene 1 5 48 0.984473 0 156 0.984473 1
gene 1 48 22 0.0667805 0 157 0.0667805 1
gene 1 10 26 1.67922 0 159 1.67922 1
gene 1 7 25 0.245983 0 162 0.245983 1
gene 1 9 26 0.22516 0 169 0.22516 1
gene 1 1 27 -0.585374 0 170 -0.585374 0
gene 1 13 52 -1.37274 0 173 -1.37274 1
gene 1 52 21 -0.463832 0 174 -0.463832 1
gene 1 14 56 -0.135215 0 183 -0.135215 1
gene 1 56 20 -0.911883 0 184 -0.911883 1
gene 1 16 26 -0.142943 0 185 -0.142943 1
gene 1 11 57 0.457897 0 186 0.457897 1
gene 1 57 20 -1.09002 0 187 -1.09002 1
gene 1 17 30 -0.142038 0 190 -0.142038 1
gene 1 30 48 0.55595 0 193 0.55595 1
gene 1 25 24 0.0113254 0 200 0.0113254 1
gene 1 24 24 2.41178 1 208 2.41178 1
gene 1 17 60 0.39012 0 209 0.39012 1
gene 1 60 21 0.0290519 0 210 0.0290519 1
gene 1 38 26 1.00873 0 211 1.00873 1
gene 1 19 39 0.00802982 0 212 0.00802982 1
gene 1 6 47 -0.655151 0 215 -0.655151 1
gene 1 7 43 0.0585987 0 217 0.0585987 1
gene 1 18 26 0.570863 0 218 0.570863 1
gene 1 47 63 -0.100169 0 228 -0.100169 1
gene 1 63 21 -0.216929 0 229 -0.216929 1
gene 1 2 64 -0.921296 0 231 -0.921296 1
gene 1 64 20 -0.558845 0 232 -0.558845 1
gene 1 64 64 0.170858 1 235 0.170858 0
gene 1 3 66 1.37251 0 236 1.37251 1
gene 1 66 23 0.138986 0 237 0.138986 1
gene 1 13 68 -0.457627 0 241 -0.457627 1
gene 1 68 22 -0.502557 0 242 -0.502557 1
gene 1 10 48 1.50618 0 252 1.50618 1
gene 1 6 25 0.251272 0 265 0.251272 1
gene 1 12 72 0.611513 0 266 0.611513 1
gene 1 72 21 -0.567779 0 267 -0.567779 1
gene 1 1 47 0.486588 0 274 0.486588 0
gene 1 30 38 1.32818 0 281 1.32818 1
gene 1 3 76 -0.0190445 0 282 -0.0190445 1
gene 1 76 20 1.78107 0 283 1.78107 0
gene 1 1 79 1.64387 0 296 1.64387 1
gene 1 79 27 -0.0130822 0 297 -0.0130822 1
gene 1 22 81 -0.462272 0 301 -0.462272 1
gene 1 81 20 -1.14651 0 302 -1.14651 1
gene 1 7 83 2.04672 0 307 2.04672 1
gene 1 83 21 -0.387311 0 308 -0.387311 1
gene 1 52 66 -0.274276 0 317 -0.274276 1
gene 1 2 91 0.231346 0 332 0.231346 1
gene 1 91 21 -1.06153 0 333 -1.06153 0
gene 1 24 22 0.491314 0 334 0.491314 1
gene 1 4 93 -0.368673 0 345 -0.368673 1
gene 1 93 22 -0.598494 0 346 -0.598494 1
gene 1 7 81 -0.0176792 0 355 -0.0176792 1
