genomestart 5508
trait 1 0.207196 0.859193 0.304888 0.690877 0.678429 0.918083 0.767813 0.780803 
node 1 1 1 1 0
node 2 1 1 1 0
node 3 1 1 1 0
node 4 1 1 1 0
node 5 1 1 1 0
node 6 1 1 1 0
node 7 1 1 1 0
node 8 1 1 1 0
node 9 1 1 1 0
node 10 1 1 1 0
node 11 1 1 1 0
node 12 1 1 1 0
node 13 1 1 1 0
node 14 1 1 1 0
node 15 1 1 1 0
node 16 1 1 1 0
node 17 1 1 1 0
node 18 1 1 1 0
node 19 1 1 3 0
node 20 1 0 2 0
node 21 1 0 2 0
node 22 1 0 2 0
node 23 1 0 2 0
node 31 1 0 0 0
node 43 1 0 0 0
node 80 1 0 0 0
node 112 1 0 0 0
node 117 1 0 0 0
node 128 1 0 0 0
node 141 1 0 0 0
node 149 1 0 0 0
node 191 1 0 0 0
node 202 1 0 0 0
node 204 1 0 0 0
node 208 1 0 0 0
node 219 1 0 0 0
node 224 1 0 0 0
node 236 1 0 0 0
node 238 1 0 0 0
gene 1 1 20 1.38269 0 1 1.38269 1
gene 1 2 20 -0.116839 0 2 -0.116839 1
gene 1 3 20 0.0456134 0 3 0.0456134 1
gene 1 4 20 0.108164 0 4 0.108164 1
gene 1 5 20 0.628487 0 5 0.628487 1
gene 1 6 20 0.0322691 0 6 0.0322691 1
gene 1 7 20 -0.373054 0 7 -0.373054 1
gene 1 8 20 0.735399 0 8 0.735399 1
gene 1 9 20 0.396594 0 9 0.396594 1
gene 1 10 20 -0.103099 0 10 -0.103099 1
gene 1 11 20 0.202845 0 11 0.202845 1
gene 1 12 20 -0.365512 0 12 -0.365512 1
gene 1 13 20 1.2785 0 13 1.2785 1
gene 1 14 20 -0.437424 0 14 -0.437424 0
gene 1 15 20 0.427834 0 15 0.427834 1
gene 1 16 20 1.89413 0 16 1.89413 1
gene 1 17 20 0.510093 0 17 0.510093 1
gene 1 18 20 0.0142295 0 18 0.0142295 1
gene 1 19 20 0.678536 0 19 0.678536 1
gene 1 1 21 -0.00422876 0 20 -0.00422876 1
gene 1 2 21 -1.04397 0 21 -1.04397 1
gene 1 3 21 -0.0669752 0 22 -0.0669752 1
gene 1 4 21 0.165676 0 23 0.165676 1
gene 1 5 21 0.470477 0 24 0.470477 1
gene 1 6 21 0.292708 0 25 0.292708 0
gene 1 7 21 -1.01583 0 26 -1.01583 1
gene 1 8 21 -0.355423 0 27 -0.355423 1
gene 1 9 21 0.812864 0 28 0.812864 1
gene 1 10 21 -0.590634 0 29 -0.590634 1
gene 1 11 21 0.857637 0 30 0.857637 1
gene 1 12 21 0.121682 0 31 0.121682 1
gene 1 13 21 -0.1094 0 32 -0.1094 1
gene 1 14 21 0.340046 0 33 0.340046 1
gene 1 15 21 -1.46823 0 34 -1.46823 1
gene 1 16 21 -0.283211 0 35 -0.283211 1
gene 1 17 21 0.440683 0 36 0.440683 1
gene 1 18 21 1.36157 0 37 1.36157 0
gene 1 19 21 -0.37761 0 38 -0.37761 1
gene 1 1 22 -0.0513803 0 39 -0.0513803 1
gene 1 2 22 0.338379 0 40 0.338379 1
gene 1 3 22 0.111969 0 41 0.111969 1
gene 1 4 22 -1.8645 0 42 -1.8645 1
gene 1 5 22 -0.433149 0 43 -0.433149 1
gene 1 6 22 0.868288 0 44 0.868288 1
gene 1 7 22 -0.18676 0 45 -0.18676 1
gene 1 8 22 0.079876 0 46 0.079876 1
gene 1 9 22 -1.05841 0 47 -1.05841 1
gene 1 10 22 -0.702759 0 48 -0.702759 0
gene 1 11 22 0.500157 0 49 0.500157 1
gene 1 12 22 0.262732 0 50 0.262732 1
gene 1 13 22 0.996826 0 51 0.996826 1
gene 1 14 22 -0.27172 0 52 -0.27172 1
gene 1 15 22 -0.0622477 0 53 -0.0622477 1
gene 1 16 22 0.0371075 0 54 0.0371075 1
gene 1 17 22 -0.129999 0 55 -0.129999 1
gene 1 18 22 -0.635049 0 56 -0.635049 1
gene 1 19 22 0.383695 0 57 0.383695 1
gene 1 1 23 0.0233408 0 58 0.0233408 1
gene 1 2 23 -1.07047 0 59 -1.07047 0
gene 1 3 23 1.1774 0 60 1.1774 1
gene 1 4 23 -0.328245 0 61 -0.328245 1
gene 1 5 23 -0.289561 0 62 -0.289561 1
gene 1 6 23 -0.0749596 0 63 -0.0749596 1
gene 1 7 23 -0.0314158 0 64 -0.0314158 1
gene 1 8 23 -0.273981 0 65 -0.273981 1
gene 1 9 23 -2.5154 0 66 -2.5154 1
gene 1 10 23 -1.06098 0 67 -1.06098 1
gene 1 11 23 0.846199 0 68 0.846199 1
gene 1 12 23 -0.224807 0 69 -0.224807 1
gene 1 13 23 -0.478815 0 70 -0.478815 1
gene 1 14 23 0.557096 0 71 0.557096 1
gene 1 15 23 -0.172367 0 72 -0.172367 0
gene 1 16 23 -0.29702 0 73 -0.29702 1
gene 1 17 23 0.432386 0 74 0.432386 1
gene 1 18 23 -0.0307328 0 75 -0.0307328 0
gene 1 19 23 -0.565429 0 76 -0.565429 1
gene 1 20 21 0.234045 0 78 0.234045 1
gene 1 22 23 0.352366 0 79 0.352366 1
gene 1 7 31 -1.37545 0 101 -1.37545 1
gene 1 31 23 -0.0601222 0 102 -0.0601222 1
gene 1 10 43 0.819385 0 137 0.819385 1
gene 1 43 20 0.39968 0 138 0.39968 1
gene 1 1 31 -0.106904 0 197 -0.106904 1
gene 1 18 80 -0.404707 0 241 -0.404707 1
gene 1 80 23 0.654681 0 242 0.654681 1
gene 1 6 112 -0.11807 0 380 -0.11807 1
gene 1 112 21 0.265725 0 381 0.265725 1
gene 1 31 112 -0.8833 0 382 -0.8833 1
gene 1 12 43 0.852879 0 386 0.852879 1
gene 1 15 112 -0.456634 0 387 -0.456634 1
gene 1 112 20 0.542011 0 396 0.542011 1
gene 1 18 43 0.854726 0 397 0.854726 1
gene 1 43 31 0.61924 0 400 0.61924 1
gene 1 15 117 -1.75119 0 403 -1.75119 1
gene 1 117 23 -0.0713359 0 404 -0.0713359 1
gene 1 22 117 0.0455852 0 423 0.0455852 1
gene 1 10 128 -1.0853 0 440 -1.0853 1
gene 1 128 22 -0.985262 0 441 -0.985262 1
gene 1 1 112 0.141098 0 443 0.141098 1
gene 1 2 80 0.0189223 0 451 0.0189223 1
gene 1 6 141 0.714176 0 497 0.714176 1
gene 1 141 20 -0.928586 0 498 -0.928586 1
gene 1 18 149 0.339482 0 519 0.339482 1
gene 1 149 23 -0.396998 0 520 -0.396998 1
gene 1 80 80 -0.295982 1 551 -0.295982 1
gene 1 112 112 0.654466 1 597 0.654466 1
gene 1 23 23 0.134851 1 623 0.134851 1
gene 1 1 191 1.63059 0 649 1.63059 1
gene 1 191 20 0.43686 0 650 0.43686 1
gene 1 14 202 0.566082 0 686 0.566082 1
gene 1 202 20 0.255925 0 687 0.255925 1
gene 1 20 20 0.34195 1 688 0.34195 1
gene 1 3 204 1.84193 0 695 1.84193 1
gene 1 204 20 0.0566228 0 696 0.0566228 1
gene 1 8 208 -0.167094 0 707 -0.167094 1
gene 1 208 21 -0.028135 0 708 -0.028135 1
gene 1 4 31 0.117639 0 710 0.117639 1
gene 1 16 202 -0.213092 0 711 -0.213092 1
gene 1 202 23 0.227968 0 748 0.227968 1
gene 1 1 219 -0.222779 0 759 -0.222779 1
gene 1 219 23 -1.35084 0 760 -1.35084 1
gene 1 1 128 -0.244041 0 761 -0.244041 1
gene 1 2 224 0.0139933 0 775 0.0139933 1
gene 1 224 23 -0.391902 0 776 -0.391902 1
gene 1 17 112 -0.16915 0 782 -0.16915 1
gene 1 18 236 0.160397 0 808 0.160397 1
gene 1 236 21 -0.489924 0 809 -0.489924 1
gene 1 14 238 0.386624 0 814 0.386624 1
gene 1 238 21 -0.0434482 0 815 -0.0434482 1
gene 1 12 80 -0.210854 0 822 -0.210854 1
gene 1 202 202 0.32899 1 824 0.32899 1
gene 1 5 117 0.410126 0 927 0.410126 1
genomeend 5508
genomestart 5913
trait 1 0.207046 0.826135 0.19976 0.831927 0.566415 0.920962 0.942287 0.815939 
node 1 1 1 1 0
node 2 1 1 1 0
node 3 1 1 1 0
node 4 1 1 1 0
node 5 1 1 1 0
node 6 1 1 1 0
node 7 1 1 1 0
node 8 1 1 1 0
node 9 1 1 1 0
node 10 1 1 1 0
node 11 1 1 1 0
node 12 1 1 1 0
node 13 1 1 1 0
node 14 1 1 1 0
node 15 1 1 1 0
node 16 1 1 1 0
node 17 1 1 1 0
node 18 1 1 1 0
node 19 1 1 3 0
node 20 1 0 2 0
node 21 1 0 2 0
node 22 1 0 2 0
node 23 1 0 2 0
node 31 1 0 0 0
node 43 1 0 0 0
node 80 1 0 0 0
node 112 1 0 0 0
node 128 1 0 0 0
node 202 1 0 0 0
node 204 1 0 0 0
node 227 1 0 0 0
gene 1 1 20 -0.0652147 0 1 -0.0652147 1
gene 1 2 20 0.0794712 0 2 0.0794712 1
gene 1 3 20 -0.383986 0 3 -0.383986 1
gene 1 4 20 0.37179 0 4 0.37179 1
gene 1 5 20 -0.345389 0 5 -0.345389 1
gene 1 6 20 0.753411 0 6 0.753411 1
gene 1 7 20 1.35564 0 7 1.35564 1
gene 1 8 20 0.876652 0 8 0.876652 1
gene 1 9 20 1.94957 0 9 1.94957 1
gene 1 10 20 -1.18584 0 10 -1.18584 1
gene 1 11 20 2.50232 0 11 2.50232 1
gene 1 12 20 -0.312666 0 12 -0.312666 1
gene 1 13 20 1.11667 0 13 1.11667 1
gene 1 14 20 0.361497 0 14 0.361497 0
gene 1 15 20 0.291539 0 15 0.291539 1
gene 1 16 20 0.68658 0 16 0.68658 1
gene 1 17 20 0.141549 0 17 0.141549 1
gene 1 18 20 -0.489456 0 18 -0.489456 1
gene 1 19 20 2.28257 0 19 2.28257 1
gene 1 1 21 -0.407104 0 20 -0.407104 1
gene 1 2 21 -0.351636 0 21 -0.351636 1
gene 1 3 21 -0.677091 0 22 -0.677091 1
gene 1 4 21 -0.454201 0 23 -0.454201 1
gene 1 5 21 0.335857 0 24 0.335857 1
gene 1 6 21 0.649835 0 25 0.649835 1
gene 1 7 21 0.953252 0 26 0.953252 1
gene 1 8 21 -0.0206877 0 27 -0.0206877 1
gene 1 9 21 0.0971459 0 28 0.0971459 1
gene 1 10 21 0.475375 0 29 0.475375 1
gene 1 11 21 2.45442 0 30 2.45442 1
gene 1 12 21 0.662322 0 31 0.662322 1
gene 1 13 21 -0.36595 0 32 -0.36595 1
gene 1 14 21 0.208261 0 33 0.208261 1
gene 1 15 21 -1.19748 0 34 -1.19748 1
gene 1 16 21 -0.594537 0 35 -0.594537 1
gene 1 17 21 0.731723 0 36 0.731723 1
gene 1 18 21 0.837069 0 37 0.837069 1
gene 1 19 21 -2.04133 0 38 -2.04133 1
gene 1 1 22 -0.0103956 0 39 -0.0103956 1
gene 1 2 22 0.662667 0 40 0.662667 1
gene 1 3 22 0.906423 0 41 0.906423 1
gene 1 4 22 -0.580277 0 42 -0.580277 1
gene 1 5 22 0.155753 0 43 0.155753 1
gene 1 6 22 -0.378356 0 44 -0.378356 1
gene 1 7 22 0.54094 0 45 0.54094 1
gene 1 8 22 0.169146 0 46 0.169146 1
gene 1 9 22 0.111279 0 47 0.111279 1
gene 1 10 22 0.278252 0 48 0.278252 0
gene 1 11 22 -0.620782 0 49 -0.620782 1
gene 1 12 22 -0.014853 0 50 -0.014853 1
gene 1 13 22 -0.791875 0 51 -0.791875 1
gene 1 14 22 -0.86805 0 52 -0.86805 1
gene 1 15 22 -0.043531 0 53 -0.043531 1
gene 1 16 22 0.209182 0 54 0.209182 1
gene 1 17 22 -0.80253 0 55 -0.80253 1
gene 1 18 22 -1.52363 0 56 -1.52363 1
gene 1 19 22 0.0292171 0 57 0.0292171 1
gene 1 1 23 -0.664282 0 58 -0.664282 1
gene 1 2 23 0.209791 0 59 0.209791 1
gene 1 3 23 0.0322027 0 60 0.0322027 1
gene 1 4 23 1.41575 0 61 1.41575 1
gene 1 5 23 -0.527151 0 62 -0.527151 1
gene 1 6 23 -0.180607 0 63 -0.180607 1
gene 1 7 23 -0.37068 0 64 -0.37068 1
gene 1 8 23 -0.697374 0 65 -0.697374 1
gene 1 9 23 -1.413 0 66 -1.413 1
gene 1 10 23 -0.684854 0 67 -0.684854 1
gene 1 11 23 0.156621 0 68 0.156621 1
gene 1 12 23 -0.451769 0 69 -0.451769 1
gene 1 13 23 -0.153705 0 70 -0.153705 1
gene 1 14 23 -0.579084 0 71 -0.579084 1
gene 1 15 23 0.596768 0 72 0.596768 1
gene 1 16 23 -0.310513 0 73 -0.310513 1
gene 1 17 23 1.61868 0 74 1.61868 1
gene 1 18 23 0.409679 0 75 0.409679 1
gene 1 19 23 0.48361 0 76 0.48361 1
gene 1 20 21 0.314394 0 78 0.314394 1
gene 1 22 23 0.282314 0 79 0.282314 1
gene 1 7 31 -0.938298 0 101 -0.938298 1
gene 1 31 23 0.977972 0 102 0.977972 1
gene 1 10 43 0.441931 0 137 0.441931 1
gene 1 43 20 0.801997 0 138 0.801997 1
gene 1 1 31 -0.632149 0 197 -0.632149 1
gene 1 18 80 0.606322 0 241 0.606322 1
gene 1 80 23 0.397163 0 242 0.397163 1
gene 1 6 112 0.237527 0 380 0.237527 1
gene 1 112 21 0.702086 0 381 0.702086 1
gene 1 12 43 -0.812847 0 386 -0.812847 1
gene 1 112 20 0.446556 0 396 0.446556 1
gene 1 18 43 0.290062 0 397 0.290062 0
gene 1 10 128 0.360431 0 440 0.360431 1
gene 1 128 22 0.596367 0 441 0.596367 1
gene 1 1 112 -0.300072 0 443 -0.300072 1
gene 1 112 112 0.425143 1 597 0.425143 1
gene 1 23 23 -0.313932 1 623 -0.313932 1
gene 1 14 202 0.738841 0 686 0.738841 1
gene 1 202 20 0.0535877 0 687 0.0535877 1
gene 1 3 204 1.332 0 695 1.332 1
gene 1 204 20 0.415421 0 696 0.415421 1
gene 1 4 31 0.00232845 0 710 0.00232845 1
gene 1 16 202 0.0553939 0 711 0.0553939 1
gene 1 202 23 0.878001 0 748 0.878001 1
gene 1 18 227 0.0645823 0 783 0.0645823 1
gene 1 227 43 1.14183 0 784 1.14183 1
gene 1 128 23 0.228479 0 945 0.228479 1
genomeend 5913
genomestart 6332
trait 1 0.353343 0.869601 0.200092 0.873945 0.565576 0.921833 0.706715 0.742245 
node 1 1 1 1 0
node 2 1 1 1 0
node 3 1 1 1 0
node 4 1 1 1 0
node 5 1 1 1 0
node 6 1 1 1 0
node 7 1 1 1 0
node 8 1 1 1 0
node 9 1 1 1 0
node 10 1 1 1 0
node 11 1 1 1 0
node 12 1 1 1 0
node 13 1 1 1 0
node 14 1 1 1 0
node 15 1 1 1 0
node 16 1 1 1 0
node 17 1 1 1 0
node 18 1 1 1 0
node 19 1 1 3 0
node 20 1 0 2 0
node 21 1 0 2 0
node 22 1 0 2 0
node 23 1 0 2 0
node 31 1 0 0 0
node 43 1 0 0 0
node 80 1 0 0 0
node 112 1 0 0 0
node 128 1 0 0 0
node 202 1 0 0 0
node 204 1 0 0 0
node 227 1 0 0 0
gene 1 1 20 0.264737 0 1 0.264737 1
gene 1 2 20 0.205475 0 2 0.205475 1
gene 1 3 20 -0.339477 0 3 -0.339477 1
gene 1 4 20 0.363492 0 4 0.363492 1
gene 1 5 20 -0.131083 0 5 -0.131083 1
gene 1 6 20 0.386622 0 6 0.386622 1
gene 1 7 20 1.28428 0 7 1.28428 1
gene 1 8 20 0.607533 0 8 0.607533 1
gene 1 9 20 1.7424 0 9 1.7424 1
gene 1 10 20 0.427307 0 10 0.427307 1
gene 1 11 20 2.6609 0 11 2.6609 1
gene 1 12 20 -0.0849752 0 12 -0.0849752 1
gene 1 13 20 0.643836 0 13 0.643836 1
gene 1 14 20 0.174332 0 14 0.174332 0
gene 1 15 20 0.37851 0 15 0.37851 1
gene 1 16 20 0.883129 0 16 0.883129 1
gene 1 17 20 -0.108459 0 17 -0.108459 1
gene 1 18 20 -0.135946 0 18 -0.135946 1
gene 1 19 20 2.26717 0 19 2.26717 1
gene 1 1 21 -1.02835 0 20 -1.02835 1
gene 1 2 21 -0.167078 0 21 -0.167078 1
gene 1 3 21 -0.610337 0 22 -0.610337 1
gene 1 4 21 -0.116146 0 23 -0.116146 1
gene 1 5 21 -0.327931 0 24 -0.327931 1
gene 1 6 21 0.396856 0 25 0.396856 1
gene 1 7 21 0.803547 0 26 0.803547 1
gene 1 8 21 -0.392897 0 27 -0.392897 1
gene 1 9 21 0.392661 0 28 0.392661 1
gene 1 10 21 0.677864 0 29 0.677864 1
gene 1 11 21 0.147963 0 30 0.147963 1
gene 1 12 21 0.754426 0 31 0.754426 1
gene 1 13 21 -0.311101 0 32 -0.311101 1
gene 1 14 21 -0.0143234 0 33 -0.0143234 1
gene 1 15 21 -1.82463 0 34 -1.82463 1
gene 1 16 21 -0.547601 0 35 -0.547601 1
gene 1 17 21 0.449906 0 36 0.449906 1
gene 1 18 21 0.922198 0 37 0.922198 1
gene 1 19 21 -0.140912 0 38 -0.140912 1
gene 1 1 22 0.107355 0 39 0.107355 1
gene 1 2 22 0.350735 0 40 0.350735 1
gene 1 3 22 -0.112119 0 41 -0.112119 1
gene 1 4 22 -0.599994 0 42 -0.599994 1
gene 1 5 22 0.51327 0 43 0.51327 1
gene 1 6 22 0.339739 0 44 0.339739 1
gene 1 7 22 1.07737 0 45 1.07737 1
gene 1 8 22 0.290525 0 46 0.290525 1
gene 1 9 22 -0.451808 0 47 -0.451808 1
gene 1 10 22 0.276903 0 48 0.276903 0
gene 1 11 22 -0.277406 0 49 -0.277406 1
gene 1 12 22 -0.330585 0 50 -0.330585 1
gene 1 13 22 -0.284519 0 51 -0.284519 1
gene 1 14 22 -0.409419 0 52 -0.409419 1
gene 1 15 22 -0.16705 0 53 -0.16705 1
gene 1 16 22 0.669619 0 54 0.669619 1
gene 1 17 22 -0.391659 0 55 -0.391659 1
gene 1 18 22 -1.11212 0 56 -1.11212 1
gene 1 19 22 -0.344629 0 57 -0.344629 1
gene 1 1 23 -0.473193 0 58 -0.473193 1
gene 1 2 23 -0.203297 0 59 -0.203297 1
gene 1 3 23 0.595351 0 60 0.595351 1
gene 1 4 23 2.01759 0 61 2.01759 1
gene 1 5 23 -0.973196 0 62 -0.973196 1
gene 1 6 23 -0.545339 0 63 -0.545339 1
gene 1 7 23 -0.388666 0 64 -0.388666 1
gene 1 8 23 -1.08796 0 65 -1.08796 1
gene 1 9 23 -1.69973 0 66 -1.69973 1
gene 1 10 23 -0.714523 0 67 -0.714523 1
gene 1 11 23 0.322167 0 68 0.322167 1
gene 1 12 23 -0.113577 0 69 -0.113577 1
gene 1 13 23 -0.289122 0 70 -0.289122 1
gene 1 14 23 0.116392 0 71 0.116392 1
gene 1 15 23 0.524742 0 72 0.524742 1
gene 1 16 23 0.491331 0 73 0.491331 1
gene 1 17 23 0.166316 0 74 0.166316 1
gene 1 18 23 0.334328 0 75 0.334328 1
gene 1 19 23 0.185405 0 76 0.185405 1
gene 1 20 21 0.0617838 0 78 0.0617838 1
gene 1 22 23 -0.253832 0 79 -0.253832 1
gene 1 7 31 -0.90245 0 101 -0.90245 1
gene 1 31 23 1.0372 0 102 1.0372 1
gene 1 10 43 0.402272 0 137 0.402272 1
gene 1 43 20 0.733682 0 138 0.733682 1
gene 1 1 31 -0.415536 0 197 -0.415536 1
gene 1 18 80 1.01764 0 241 1.01764 1
gene 1 80 23 0.160507 0 242 0.160507 1
gene 1 6 112 -0.0679773 0 380 -0.0679773 1
gene 1 112 21 -0.184672 0 381 -0.184672 1
gene 1 12 43 -0.94009 0 386 -0.94009 1
gene 1 112 20 0.17339 0 396 0.17339 1
gene 1 18 43 0.590201 0 397 0.590201 1
gene 1 10 128 0.751195 0 440 0.751195 1
gene 1 128 22 0.629651 0 441 0.629651 1
gene 1 1 112 -0.0171895 0 443 -0.0171895 1
gene 1 112 112 -0.152859 1 597 -0.152859 1
gene 1 23 23 -0.6507 1 623 -0.6507 1
gene 1 14 202 0.507571 0 686 0.507571 1
gene 1 202 20 0.539554 0 687 0.539554 1
gene 1 3 204 1.03593 0 695 1.03593 1
gene 1 204 20 -0.31076 0 696 -0.31076 1
gene 1 4 31 -0.247852 0 710 -0.247852 1
gene 1 16 202 0.434286 0 711 0.434286 1
gene 1 202 23 0.236808 0 748 0.236808 1
gene 1 18 227 -0.0666848 0 783 -0.0666848 1
gene 1 227 43 0.609289 0 784 0.609289 1
gene 1 128 23 -0.384509 0 945 -0.384509 1
genomeend 6332
genomestart 6579
trait 1 0.368551 0.589692 0.890993 0.682613 0.472286 0.81804 0.477502 0.938714 
node 1 1 1 1 0
node 2 1 1 1 0
node 3 1 1 1 0
node 4 1 1 1 0
node 5 1 1 1 0
node 6 1 1 1 0
node 7 1 1 1 0
node 8 1 1 1 0
node 9 1 1 1 0
node 10 1 1 1 0
node 11 1 1 1 0
node 12 1 1 1 0
node 13 1 1 1 0
node 14 1 1 1 0
node 15 1 1 1 0
node 16 1 1 1 0
node 17 1 1 1 0
node 18 1 1 1 0
node 19 1 1 3 0
node 20 1 0 2 0
node 21 1 0 2 0
node 22 1 0 2 0
node 23 1 0 2 0
node 31 1 0 0 0
node 43 1 0 0 0
node 80 1 0 0 0
node 121 1 0 0 0
node 125 1 0 0 0
node 129 1 0 0 0
node 135 1 0 0 0
node 169 1 0 0 0
node 170 1 0 0 0
node 172 1 0 0 0
node 178 1 0 0 0
node 179 1 0 0 0
gene 1 1 20 0.294237 0 1 0.294237 1
gene 1 2 20 0.417117 0 2 0.417117 1
gene 1 3 20 0.40202 0 3 0.40202 1
gene 1 4 20 -0.0150951 0 4 -0.0150951 1
gene 1 5 20 -0.491162 0 5 -0.491162 1
gene 1 6 20 0.590604 0 6 0.590604 1
gene 1 7 20 0.362173 0 7 0.362173 1
gene 1 8 20 -0.0758121 0 8 -0.0758121 1
gene 1 9 20 1.04362 0 9 1.04362 1
gene 1 10 20 -0.808406 0 10 -0.808406 1
gene 1 11 20 1.31371 0 11 1.31371 1
gene 1 12 20 0.749977 0 12 0.749977 1
gene 1 13 20 0.438331 0 13 0.438331 1
gene 1 14 20 0.931766 0 14 0.931766 1
gene 1 15 20 -1.38004 0 15 -1.38004 1
gene 1 16 20 -0.315393 0 16 -0.315393 1
gene 1 17 20 0.0202689 0 17 0.0202689 1
gene 1 18 20 -0.403433 0 18 -0.403433 1
gene 1 19 20 1.49473 0 19 1.49473 1
gene 1 1 21 -0.103443 0 20 -0.103443 1
gene 1 2 21 0.30585 0 21 0.30585 1
gene 1 3 21 -0.157698 0 22 -0.157698 1
gene 1 4 21 1.45777 0 23 1.45777 1
gene 1 5 21 0.130841 0 24 0.130841 1
gene 1 6 21 0.536674 0 25 0.536674 1
gene 1 7 21 -0.74813 0 26 -0.74813 1
gene 1 8 21 0.610185 0 27 0.610185 1
gene 1 9 21 0.00322519 0 28 0.00322519 1
gene 1 10 21 0.749971 0 29 0.749971 1
gene 1 11 21 1.03177 0 30 1.03177 1
gene 1 12 21 0.566051 0 31 0.566051 1
gene 1 13 21 -0.316427 0 32 -0.316427 1
gene 1 14 21 0.34672 0 33 0.34672 1
gene 1 15 21 -0.989199 0 34 -0.989199 1
gene 1 16 21 0.396619 0 35 0.396619 1
gene 1 17 21 0.38349 0 36 0.38349 1
gene 1 18 21 -0.285617 0 37 -0.285617 1
gene 1 19 21 -0.671873 0 38 -0.671873 1
gene 1 1 22 0.0351275 0 39 0.0351275 1
gene 1 2 22 1.16864 0 40 1.16864 1
gene 1 3 22 -0.238199 0 41 -0.238199 1
gene 1 4 22 -0.651614 0 42 -0.651614 1
gene 1 5 22 -0.213905 0 43 -0.213905 1
gene 1 6 22 0.473494 0 44 0.473494 1
gene 1 7 22 0.27958 0 45 0.27958 1
gene 1 8 22 0.0410811 0 46 0.0410811 1
gene 1 9 22 -0.684091 0 47 -0.684091 1
gene 1 10 22 0.84317 0 48 0.84317 1
gene 1 11 22 -0.0668661 0 49 -0.0668661 1
gene 1 12 22 -0.601464 0 50 -0.601464 1
gene 1 13 22 -0.545763 0 51 -0.545763 1
gene 1 14 22 -0.666663 0 52 -0.666663 1
gene 1 15 22 -1.07338 0 53 -1.07338 1
gene 1 16 22 0.244654 0 54 0.244654 1
gene 1 17 22 -1.38531 0 55 -1.38531 1
gene 1 18 22 0.719298 0 56 0.719298 1
gene 1 19 22 -1.13643 0 57 -1.13643 1
gene 1 1 23 -0.154291 0 58 -0.154291 1
gene 1 2 23 0.464602 0 59 0.464602 0
gene 1 3 23 -0.350484 0 60 -0.350484 1
gene 1 4 23 0.522707 0 61 0.522707 1
gene 1 5 23 -0.668654 0 62 -0.668654 1
gene 1 6 23 2.70335 0 63 2.70335 1
gene 1 7 23 0.729833 0 64 0.729833 1
gene 1 8 23 0.197219 0 65 0.197219 1
gene 1 9 23 0.388202 0 66 0.388202 1
gene 1 10 23 -0.986489 0 67 -0.986489 1
gene 1 11 23 -0.858067 0 68 -0.858067 0
gene 1 12 23 -0.46447 0 69 -0.46447 1
gene 1 13 23 0.847349 0 70 0.847349 1
gene 1 14 23 -1.71938 0 71 -1.71938 1
gene 1 15 23 0.273851 0 72 0.273851 1
gene 1 16 23 -0.80494 0 73 -0.80494 1
gene 1 17 23 0.909154 0 74 0.909154 1
gene 1 18 23 0.224883 0 75 0.224883 1
gene 1 19 23 -0.335834 0 76 -0.335834 1
gene 1 20 21 -0.0936334 0 78 -0.0936334 1
gene 1 22 23 0.743845 0 79 0.743845 1
gene 1 7 31 0.382986 0 101 0.382986 1
gene 1 31 23 -1.08543 0 102 -1.08543 1
gene 1 10 43 0.797066 0 137 0.797066 0
gene 1 43 20 -0.329734 0 138 -0.329734 1
gene 1 1 31 0.0168241 0 197 0.0168241 0
gene 1 18 80 0.498921 0 241 0.498921 1
gene 1 80 23 -0.414757 0 242 -0.414757 1
gene 1 12 43 0.665685 0 386 0.665685 1
gene 1 23 23 0.7808 1 407 0.7808 1
gene 1 31 21 -0.373423 0 413 -0.373423 1
gene 1 1 121 -0.312848 0 414 -0.312848 1
gene 1 121 31 -0.971555 0 415 -0.971555 1
gene 1 20 20 0.488434 1 426 0.488434 1
gene 1 11 125 0.177754 0 430 0.177754 1
gene 1 125 23 -0.375036 0 431 -0.375036 1
gene 1 19 125 0.52794 0 435 0.52794 1
gene 1 43 21 0.821025 0 438 0.821025 1
gene 1 10 129 1.52156 0 444 1.52156 1
gene 1 129 21 -1.05826 0 445 -1.05826 1
gene 1 2 43 -0.114601 0 452 -0.114601 1
gene 1 11 43 1.51517 0 462 1.51517 1
gene 1 43 23 0.189875 0 464 0.189875 1
gene 1 22 21 0.113483 0 473 0.113483 1
gene 1 13 135 0.395399 0 475 0.395399 1
gene 1 135 23 0.471686 0 476 0.471686 1
gene 1 20 22 -0.158356 0 492 -0.158356 1
gene 1 3 121 0.396234 0 536 0.396234 1
gene 1 121 43 -0.59816 0 583 -0.59816 1
gene 1 7 169 -0.0376287 0 584 -0.0376287 1
gene 1 169 22 0.601672 0 585 0.601672 1
gene 1 2 170 -0.230047 0 587 -0.230047 1
gene 1 170 20 -0.651096 0 588 -0.651096 1
gene 1 22 172 0.226414 0 595 0.226414 1
gene 1 172 23 -1.25123 0 596 -1.25123 1
gene 1 10 178 0.0772214 0 612 0.0772214 1
gene 1 178 43 -0.16462 0 613 -0.16462 1
gene 1 2 179 0.185952 0 614 0.185952 1
gene 1 179 23 -0.212493 0 615 -0.212493 1
gene 1 15 172 0.541686 0 636 0.541686 1
gene 1 43 129 0.24225 0 672 0.24225 1
gene 1 16 170 0.131853 0 743 0.131853 1
gene 1 12 135 0.174857 0 746 0.174857 1
gene 1 20 80 0.268809 0 750 0.268809 1
gene 1 12 129 -0.215281 0 872 -0.215281 1
gene 1 31 179 0.576952 0 921 0.576952 1
gene 1 16 135 0.486738 0 975 0.486738 1
gene 1 18 31 -0.788075 0 1011 -0.788075 1
gene 1 178 179 0.0559763 0 1022 0.0559763 1
gene 1 135 22 -0.0488604 0 1072 -0.0488604 1
genomeend 6579
genomestart 6584
trait 1 0.478549 0.641889 0.740361 0.722286 0.421849 0.783396 0.393057 0.948929 
node 1 1 1 1 0
node 2 1 1 1 0
node 3 1 1 1 0
node 4 1 1 1 0
node 5 1 1 1 0
node 6 1 1 1 0
node 7 1 1 1 0
node 8 1 1 1 0
node 9 1 1 1 0
node 10 1 1 1 0
node 11 1 1 1 0
node 12 1 1 1 0
node 13 1 1 1 0
node 14 1 1 1 0
node 15 1 1 1 0
node 16 1 1 1 0
node 17 1 1 1 0
node 18 1 1 1 0
node 19 1 1 3 0
node 20 1 0 2 0
node 21 1 0 2 0
node 22 1 0 2 0
node 23 1 0 2 0
node 31 1 0 0 0
node 43 1 0 0 0
node 80 1 0 0 0
node 121 1 0 0 0
node 125 1 0 0 0
node 129 1 0 0 0
node 135 1 0 0 0
node 169 1 0 0 0
node 170 1 0 0 0
node 172 1 0 0 0
node 178 1 0 0 0
node 179 1 0 0 0
gene 1 1 20 -0.0177658 0 1 -0.0177658 1
gene 1 2 20 0.75911 0 2 0.75911 1
gene 1 3 20 0.119274 0 3 0.119274 1
gene 1 4 20 -0.0374393 0 4 -0.0374393 1
gene 1 5 20 -0.696698 0 5 -0.696698 1
gene 1 6 20 0.323503 0 6 0.323503 1
gene 1 7 20 0.857569 0 7 0.857569 1
gene 1 8 20 0.195915 0 8 0.195915 1
gene 1 9 20 0.985705 0 9 0.985705 1
gene 1 10 20 -0.186239 0 10 -0.186239 1
gene 1 11 20 1.33115 0 11 1.33115 1
gene 1 12 20 0.586101 0 12 0.586101 1
gene 1 13 20 0.551631 0 13 0.551631 1
gene 1 14 20 0.918922 0 14 0.918922 1
gene 1 15 20 -1.64767 0 15 -1.64767 1
gene 1 16 20 -0.600192 0 16 -0.600192 1
gene 1 17 20 0.523108 0 17 0.523108 1
gene 1 18 20 -0.703071 0 18 -0.703071 1
gene 1 19 20 0.444818 0 19 0.444818 1
gene 1 1 21 -0.11496 0 20 -0.11496 1
gene 1 2 21 0.770345 0 21 0.770345 1
gene 1 3 21 0.0708208 0 22 0.0708208 1
gene 1 4 21 1.11961 0 23 1.11961 1
gene 1 5 21 -0.467171 0 24 -0.467171 1
gene 1 6 21 0.657294 0 25 0.657294 1
gene 1 7 21 -0.754718 0 26 -0.754718 1
gene 1 8 21 0.566835 0 27 0.566835 1
gene 1 9 21 0.449669 0 28 0.449669 1
gene 1 10 21 1.07255 0 29 1.07255 1
gene 1 11 21 0.62571 0 30 0.62571 1
gene 1 12 21 0.0184729 0 31 0.0184729 1
gene 1 13 21 -0.0915563 0 32 -0.0915563 1
gene 1 14 21 -0.288266 0 33 -0.288266 1
gene 1 15 21 -0.566307 0 34 -0.566307 1
gene 1 16 21 0.130321 0 35 0.130321 1
gene 1 17 21 0.726752 0 36 0.726752 1
gene 1 18 21 -0.0907467 0 37 -0.0907467 1
gene 1 19 21 -0.931934 0 38 -0.931934 1
gene 1 1 22 -0.14112 0 39 -0.14112 1
gene 1 2 22 0.809784 0 40 0.809784 1
gene 1 3 22 -0.36742 0 41 -0.36742 1
gene 1 4 22 -0.675493 0 42 -0.675493 1
gene 1 5 22 -0.179152 0 43 -0.179152 1
gene 1 6 22 -0.345417 0 44 -0.345417 1
gene 1 7 22 -0.158581 0 45 -0.158581 1
gene 1 8 22 0.0768574 0 46 0.0768574 1
gene 1 9 22 -0.484986 0 47 -0.484986 1
gene 1 10 22 0.934524 0 48 0.934524 1
gene 1 11 22 0.285091 0 49 0.285091 1
gene 1 12 22 -0.721601 0 50 -0.721601 1
gene 1 13 22 -0.582105 0 51 -0.582105 1
gene 1 14 22 -1.08467 0 52 -1.08467 1
gene 1 15 22 -0.850061 0 53 -0.850061 1
gene 1 16 22 -0.0562843 0 54 -0.0562843 1
gene 1 17 22 -0.141089 0 55 -0.141089 1
gene 1 18 22 0.330066 0 56 0.330066 1
gene 1 19 22 -1.59943 0 57 -1.59943 1
gene 1 1 23 -0.534143 0 58 -0.534143 1
gene 1 2 23 0.0841663 0 59 0.0841663 0
gene 1 3 23 -0.399797 0 60 -0.399797 1
gene 1 4 23 0.789771 0 61 0.789771 1
gene 1 5 23 -1.17936 0 62 -1.17936 1
gene 1 6 23 2.52759 0 63 2.52759 1
gene 1 7 23 0.0708075 0 64 0.0708075 1
gene 1 8 23 0.277543 0 65 0.277543 1
gene 1 9 23 -0.0963255 0 66 -0.0963255 1
gene 1 10 23 -0.892533 0 67 -0.892533 1
gene 1 11 23 -0.391691 0 68 -0.391691 0
gene 1 12 23 -0.2147 0 69 -0.2147 1
gene 1 13 23 0.495065 0 70 0.495065 1
gene 1 14 23 -1.08626 0 71 -1.08626 1
gene 1 15 23 0.730869 0 72 0.730869 1
gene 1 16 23 -0.260483 0 73 -0.260483 1
gene 1 17 23 -0.0181219 0 74 -0.0181219 1
gene 1 18 23 -0.0368998 0 75 -0.0368998 1
gene 1 19 23 0.105292 0 76 0.105292 1
gene 1 20 21 0.0382132 0 78 0.0382132 1
gene 1 22 23 0.181241 0 79 0.181241 1
gene 1 7 31 -0.24739 0 101 -0.24739 1
gene 1 31 23 -0.778619 0 102 -0.778619 1
gene 1 10 43 1.03923 0 137 1.03923 0
gene 1 43 20 -0.441971 0 138 -0.441971 1
gene 1 1 31 -0.167594 0 197 -0.167594 1
gene 1 18 80 0.33193 0 241 0.33193 1
gene 1 80 23 -0.741789 0 242 -0.741789 1
gene 1 12 43 0.169868 0 386 0.169868 1
gene 1 23 23 0.954803 1 407 0.954803 1
gene 1 31 21 -0.020271 0 413 -0.020271 1
gene 1 1 121 -0.867476 0 414 -0.867476 1
gene 1 121 31 -0.794091 0 415 -0.794091 1
gene 1 20 20 1.2257 1 426 1.2257 1
gene 1 11 125 0.411085 0 430 0.411085 1
gene 1 125 23 0.196958 0 431 0.196958 1
gene 1 19 125 0.394943 0 435 0.394943 1
gene 1 43 21 0.926208 0 438 0.926208 1
gene 1 10 129 1.51717 0 444 1.51717 1
gene 1 129 21 -0.484325 0 445 -0.484325 1
gene 1 2 43 -0.514437 0 452 -0.514437 1
gene 1 11 43 0.621127 0 462 0.621127 1
gene 1 43 23 0.360402 0 464 0.360402 1
gene 1 22 21 0.989195 0 473 0.989195 1
gene 1 13 135 -0.0670162 0 475 -0.0670162 1
gene 1 135 23 0.436434 0 476 0.436434 1
gene 1 20 22 -0.419303 0 492 -0.419303 1
gene 1 3 121 0.227368 0 536 0.227368 1
gene 1 121 43 0.239214 0 583 0.239214 1
gene 1 7 169 0.0764627 0 584 0.0764627 1
gene 1 169 22 0.857241 0 585 0.857241 1
gene 1 2 170 0.192174 0 587 0.192174 1
gene 1 170 20 -0.588049 0 588 -0.588049 1
gene 1 22 172 0.309731 0 595 0.309731 1
gene 1 172 23 -1.28222 0 596 -1.28222 1
gene 1 10 178 0.217937 0 612 0.217937 1
gene 1 178 43 0.0469697 0 613 0.0469697 1
gene 1 2 179 0.27453 0 614 0.27453 1
gene 1 179 23 0.463403 0 615 0.463403 1
gene 1 15 172 0.1993 0 636 0.1993 1
gene 1 43 129 -0.251205 0 672 -0.251205 1
gene 1 16 170 -0.0910132 0 743 -0.0910132 1
gene 1 12 135 0.209387 0 746 0.209387 1
gene 1 20 80 0.651652 0 750 0.651652 1
gene 1 12 129 0.339645 0 872 0.339645 1
gene 1 31 179 0.34284 0 921 0.34284 1
gene 1 16 135 0.854307 0 975 0.854307 1
gene 1 18 31 -0.788075 0 1011 -0.788075 1
gene 1 178 179 0.332079 0 1022 0.332079 1
gene 1 135 22 -0.0488604 0 1072 -0.0488604 1
genomeend 6584
genomestart 6611
trait 1 0.499639 0.913067 0.200424 0.915963 0.564737 0.922703 0.471144 0.668552 
node 1 1 1 1 0
node 2 1 1 1 0
node 3 1 1 1 0
node 4 1 1 1 0
node 5 1 1 1 0
node 6 1 1 1 0
node 7 1 1 1 0
node 8 1 1 1 0
node 9 1 1 1 0
node 10 1 1 1 0
node 11 1 1 1 0
node 12 1 1 1 0
node 13 1 1 1 0
node 14 1 1 1 0
node 15 1 1 1 0
node 16 1 1 1 0
node 17 1 1 1 0
node 18 1 1 1 0
node 19 1 1 3 0
node 20 1 0 2 0
node 21 1 0 2 0
node 22 1 0 2 0
node 23 1 0 2 0
node 31 1 0 0 0
node 43 1 0 0 0
node 80 1 0 0 0
node 112 1 0 0 0
node 128 1 0 0 0
node 202 1 0 0 0
node 204 1 0 0 0
node 227 1 0 0 0
gene 1 1 20 -0.295446 0 1 -0.295446 1
gene 1 2 20 0.0794712 0 2 0.0794712 1
gene 1 3 20 -0.383986 0 3 -0.383986 1
gene 1 4 20 -0.142086 0 4 -0.142086 1
gene 1 5 20 -0.45133 0 5 -0.45133 1
gene 1 6 20 -0.425997 0 6 -0.425997 1
gene 1 7 20 1.35564 0 7 1.35564 1
gene 1 8 20 0.198034 0 8 0.198034 1
gene 1 9 20 1.63781 0 9 1.63781 1
gene 1 10 20 -1.18584 0 10 -1.18584 1
gene 1 11 20 2.74779 0 11 2.74779 1
gene 1 12 20 -0.312666 0 12 -0.312666 1
gene 1 13 20 1.10861 0 13 1.10861 1
gene 1 14 20 0.361497 0 14 0.361497 0
gene 1 15 20 0.291539 0 15 0.291539 1
gene 1 16 20 0.272495 0 16 0.272495 1
gene 1 17 20 -0.314594 0 17 -0.314594 1
gene 1 18 20 -0.751753 0 18 -0.751753 1
gene 1 19 20 2.28257 0 19 2.28257 1
gene 1 1 21 -0.407104 0 20 -0.407104 1
gene 1 2 21 -0.351636 0 21 -0.351636 1
gene 1 3 21 -0.458512 0 22 -0.458512 1
gene 1 4 21 -0.630516 0 23 -0.630516 1
gene 1 5 21 0.335857 0 24 0.335857 1
gene 1 6 21 0.649835 0 25 0.649835 1
gene 1 7 21 0.926168 0 26 0.926168 1
gene 1 8 21 -0.0206877 0 27 -0.0206877 1
gene 1 9 21 0.0971459 0 28 0.0971459 1
gene 1 10 21 -0.378435 0 29 -0.378435 1
gene 1 11 21 2.45442 0 30 2.45442 1
gene 1 12 21 0.662322 0 31 0.662322 1
gene 1 13 21 -0.36595 0 32 -0.36595 1
gene 1 14 21 0.563027 0 33 0.563027 1
gene 1 15 21 -1.19748 0 34 -1.19748 1
gene 1 16 21 -0.254598 0 35 -0.254598 1
gene 1 17 21 0.202446 0 36 0.202446 1
gene 1 18 21 1.27087 0 37 1.27087 1
gene 1 19 21 -1.18832 0 38 -1.18832 1
gene 1 1 22 -0.187576 0 39 -0.187576 1
gene 1 2 22 0.300035 0 40 0.300035 1
gene 1 3 22 0.906423 0 41 0.906423 1
gene 1 4 22 -0.909616 0 42 -0.909616 1
gene 1 5 22 0.155753 0 43 0.155753 1
gene 1 6 22 -0.378356 0 44 -0.378356 1
gene 1 7 22 0.626498 0 45 0.626498 1
gene 1 8 22 0.169146 0 46 0.169146 1
gene 1 9 22 0.111279 0 47 0.111279 1
gene 1 10 22 -0.410124 0 48 -0.410124 0
gene 1 11 22 -0.620782 0 49 -0.620782 1
gene 1 12 22 -0.014853 0 50 -0.014853 1
gene 1 13 22 -0.791875 0 51 -0.791875 1
gene 1 14 22 -0.86805 0 52 -0.86805 1
gene 1 15 22 -0.0352276 0 53 -0.0352276 1
gene 1 16 22 0.209182 0 54 0.209182 1
gene 1 17 22 -0.80253 0 55 -0.80253 1
gene 1 18 22 0.00296851 0 56 0.00296851 1
gene 1 19 22 0.0292171 0 57 0.0292171 1
gene 1 1 23 0.15986 0 58 0.15986 1
gene 1 2 23 -0.0261917 0 59 -0.0261917 1
gene 1 3 23 0.0322027 0 60 0.0322027 1
gene 1 4 23 1.50764 0 61 1.50764 1
gene 1 5 23 -0.297171 0 62 -0.297171 1
gene 1 6 23 -0.0676418 0 63 -0.0676418 1
gene 1 7 23 -0.354561 0 64 -0.354561 1
gene 1 8 23 -0.697374 0 65 -0.697374 1
gene 1 9 23 -1.413 0 66 -1.413 1
gene 1 10 23 -0.255876 0 67 -0.255876 1
gene 1 11 23 0.156621 0 68 0.156621 1
gene 1 12 23 -0.451769 0 69 -0.451769 1
gene 1 13 23 -0.153705 0 70 -0.153705 1
gene 1 14 23 -0.243571 0 71 -0.243571 1
gene 1 15 23 -0.281815 0 72 -0.281815 1
gene 1 16 23 -0.310513 0 73 -0.310513 1
gene 1 17 23 1.61868 0 74 1.61868 1
gene 1 18 23 0.181233 0 75 0.181233 1
gene 1 19 23 0.3916 0 76 0.3916 1
gene 1 20 21 0.314394 0 78 0.314394 1
gene 1 22 23 0.282314 0 79 0.282314 1
gene 1 7 31 -0.938298 0 101 -0.938298 1
gene 1 31 23 0.800601 0 102 0.800601 1
gene 1 10 43 -0.0599481 0 137 -0.0599481 1
gene 1 43 20 0.801997 0 138 0.801997 1
gene 1 1 31 -1.07172 0 197 -1.07172 1
gene 1 18 80 0.425462 0 241 0.425462 1
gene 1 80 23 -0.0718833 0 242 -0.0718833 1
gene 1 6 112 0.238535 0 380 0.238535 1
gene 1 112 21 -0.0281674 0 381 -0.0281674 1
gene 1 12 43 -0.812847 0 386 -0.812847 1
gene 1 112 20 0.446556 0 396 0.446556 1
gene 1 18 43 0.303466 0 397 0.303466 0
gene 1 10 128 0.757561 0 440 0.757561 1
gene 1 128 22 0.596367 0 441 0.596367 1
gene 1 1 112 -0.300072 0 443 -0.300072 1
gene 1 112 112 0.0169651 1 597 0.0169651 1
gene 1 23 23 -0.313932 1 623 -0.313932 1
gene 1 14 202 0.346993 0 686 0.346993 1
gene 1 202 20 0.343677 0 687 0.343677 1
gene 1 3 204 1.00204 0 695 1.00204 1
gene 1 204 20 -0.24777 0 696 -0.24777 1
gene 1 4 31 0.310844 0 710 0.310844 1
gene 1 16 202 -0.0530055 0 711 -0.0530055 1
gene 1 202 23 -0.329731 0 748 -0.329731 1
gene 1 18 227 0.873869 0 783 0.873869 1
gene 1 227 43 1.14183 0 784 1.14183 1
gene 1 128 23 0.228479 0 945 0.228479 1
genomeend 6611
genomestart 6644
trait 1 0.577118 0.665923 0.656827 0.841306 0.332056 0.888101 0.196837 0.984679 
node 1 1 1 1 0
node 2 1 1 1 0
node 3 1 1 1 0
node 4 1 1 1 0
node 5 1 1 1 0
node 6 1 1 1 0
node 7 1 1 1 0
node 8 1 1 1 0
node 9 1 1 1 0
node 10 1 1 1 0
node 11 1 1 1 0
node 12 1 1 1 0
node 13 1 1 1 0
node 14 1 1 1 0
node 15 1 1 1 0
node 16 1 1 1 0
node 17 1 1 1 0
node 18 1 1 1 0
node 19 1 1 3 0
node 20 1 0 2 0
node 21 1 0 2 0
node 22 1 0 2 0
node 23 1 0 2 0
node 31 1 0 0 0
node 43 1 0 0 0
node 80 1 0 0 0
node 121 1 0 0 0
node 125 1 0 0 0
node 129 1 0 0 0
node 135 1 0 0 0
node 169 1 0 0 0
node 170 1 0 0 0
node 172 1 0 0 0
node 178 1 0 0 0
node 179 1 0 0 0
gene 1 1 20 0.697668 0 1 0.697668 1
gene 1 2 20 1.63093 0 2 1.63093 1
gene 1 3 20 0.121998 0 3 0.121998 1
gene 1 4 20 0.498808 0 4 0.498808 1
gene 1 5 20 -0.358161 0 5 -0.358161 1
gene 1 6 20 0.495992 0 6 0.495992 1
gene 1 7 20 0.860979 0 7 0.860979 1
gene 1 8 20 -0.116116 0 8 -0.116116 1
gene 1 9 20 0.455247 0 9 0.455247 1
gene 1 10 20 -0.502595 0 10 -0.502595 1
gene 1 11 20 1.42514 0 11 1.42514 1
gene 1 12 20 -0.417111 0 12 -0.417111 1
gene 1 13 20 1.27533 0 13 1.27533 1
gene 1 14 20 0.864529 0 14 0.864529 1
gene 1 15 20 -2.38461 0 15 -2.38461 1
gene 1 16 20 0.0834787 0 16 0.0834787 1
gene 1 17 20 0.0997158 0 17 0.0997158 1
gene 1 18 20 -0.196698 0 18 -0.196698 1
gene 1 19 20 -0.000963731 0 19 -0.000963731 1
gene 1 1 21 -0.353013 0 20 -0.353013 1
gene 1 2 21 0.0481518 0 21 0.0481518 1
gene 1 3 21 -0.439042 0 22 -0.439042 1
gene 1 4 21 0.726311 0 23 0.726311 1
gene 1 5 21 -0.303903 0 24 -0.303903 1
gene 1 6 21 -0.315721 0 25 -0.315721 1
gene 1 7 21 0.318711 0 26 0.318711 1
gene 1 8 21 -0.059014 0 27 -0.059014 1
gene 1 9 21 -0.136885 0 28 -0.136885 1
gene 1 10 21 0.451608 0 29 0.451608 1
gene 1 11 21 0.373794 0 30 0.373794 1
gene 1 12 21 0.389117 0 31 0.389117 1
gene 1 13 21 0.361402 0 32 0.361402 1
gene 1 14 21 -0.0758653 0 33 -0.0758653 1
gene 1 15 21 -1.35033 0 34 -1.35033 1
gene 1 16 21 -1.32551 0 35 -1.32551 1
gene 1 17 21 -0.317234 0 36 -0.317234 1
gene 1 18 21 -0.420396 0 37 -0.420396 1
gene 1 19 21 -0.391834 0 38 -0.391834 1
gene 1 1 22 0.0206047 0 39 0.0206047 1
gene 1 2 22 -0.246258 0 40 -0.246258 1
gene 1 3 22 0.276687 0 41 0.276687 1
gene 1 4 22 -0.369144 0 42 -0.369144 1
gene 1 5 22 0.0337431 0 43 0.0337431 1
gene 1 6 22 0.622855 0 44 0.622855 1
gene 1 7 22 -0.0672155 0 45 -0.0672155 1
gene 1 8 22 -0.0759333 0 46 -0.0759333 1
gene 1 9 22 -0.26495 0 47 -0.26495 1
gene 1 10 22 -0.400944 0 48 -0.400944 1
gene 1 11 22 -0.526745 0 49 -0.526745 1
gene 1 12 22 -0.020651 0 50 -0.020651 1
gene 1 13 22 -0.392574 0 51 -0.392574 1
gene 1 14 22 0.362585 0 52 0.362585 1
gene 1 15 22 -1.31883 0 53 -1.31883 1
gene 1 16 22 0.0118005 0 54 0.0118005 1
gene 1 17 22 -1.17117 0 55 -1.17117 1
gene 1 18 22 0.0433818 0 56 0.0433818 1
gene 1 19 22 -0.796599 0 57 -0.796599 1
gene 1 1 23 0.582177 0 58 0.582177 1
gene 1 2 23 0.556156 0 59 0.556156 0
gene 1 3 23 0.354392 0 60 0.354392 1
gene 1 4 23 0.814363 0 61 0.814363 1
gene 1 5 23 0.053323 0 62 0.053323 1
gene 1 6 23 0.461222 0 63 0.461222 1
gene 1 7 23 0.0061181 0 64 0.0061181 1
gene 1 8 23 0.119244 0 65 0.119244 1
gene 1 9 23 0.652645 0 66 0.652645 1
gene 1 10 23 -0.782363 0 67 -0.782363 1
gene 1 11 23 0.483027 0 68 0.483027 0
gene 1 12 23 -0.138901 0 69 -0.138901 1
gene 1 13 23 1.15914 0 70 1.15914 1
gene 1 14 23 -0.875052 0 71 -0.875052 1
gene 1 15 23 0.228379 0 72 0.228379 1
gene 1 16 23 -0.404139 0 73 -0.404139 1
gene 1 17 23 0.931002 0 74 0.931002 1
gene 1 18 23 -0.106271 0 75 -0.106271 1
gene 1 19 23 0.255735 0 76 0.255735 1
gene 1 20 21 -0.058741 0 78 -0.058741 1
gene 1 22 23 -0.0101568 0 79 -0.0101568 0
gene 1 7 31 1.11508 0 101 1.11508 1
gene 1 31 23 -0.306268 0 102 -0.306268 1
gene 1 10 43 0.913499 0 137 0.913499 0
gene 1 43 20 0.315401 0 138 0.315401 1
gene 1 1 31 -0.455615 0 197 -0.455615 0
gene 1 18 80 0.82196 0 241 0.82196 1
gene 1 80 23 -0.271317 0 242 -0.271317 1
gene 1 12 43 -0.166023 0 386 -0.166023 1
gene 1 23 23 1.17581 1 407 1.17581 1
gene 1 31 21 -0.248507 0 413 -0.248507 1
gene 1 1 121 -0.250396 0 414 -0.250396 1
gene 1 121 31 0.307127 0 415 0.307127 1
gene 1 20 20 1.84175 1 426 1.84175 1
gene 1 11 125 0.401845 0 430 0.401845 1
gene 1 125 23 -0.675338 0 431 -0.675338 1
gene 1 19 125 -0.457498 0 435 -0.457498 1
gene 1 43 21 -0.0669482 0 438 -0.0669482 1
gene 1 10 129 0.305971 0 444 0.305971 1
gene 1 129 21 -0.605247 0 445 -0.605247 1
gene 1 2 43 0.876123 0 452 0.876123 1
gene 1 11 43 0.0237239 0 462 0.0237239 1
gene 1 43 23 0.0668324 0 464 0.0668324 1
gene 1 22 21 1.23676 0 473 1.23676 1
gene 1 13 135 0.59234 0 475 0.59234 1
gene 1 135 23 0.562948 0 476 0.562948 1
gene 1 20 22 -0.0934137 0 492 -0.0934137 1
gene 1 3 121 -0.115295 0 536 -0.115295 1
gene 1 121 43 -0.0914348 0 583 -0.0914348 1
gene 1 7 169 -0.742307 0 584 -0.742307 1
gene 1 169 22 0.130781 0 585 0.130781 1
gene 1 2 170 0.407611 0 587 0.407611 1
gene 1 170 20 0.0824044 0 588 0.0824044 1
gene 1 22 172 -0.0358043 0 595 -0.0358043 1
gene 1 172 23 -0.0935424 0 596 -0.0935424 1
gene 1 10 178 0.562433 0 612 0.562433 1
gene 1 178 43 -0.371714 0 613 -0.371714 1
gene 1 2 179 0.0496878 0 614 0.0496878 1
gene 1 179 23 0.261268 0 615 0.261268 1
gene 1 15 172 -0.242279 0 636 -0.242279 1
gene 1 43 129 -0.0509197 0 672 -0.0509197 1
gene 1 16 170 0.57806 0 743 0.57806 1
gene 1 12 135 0.363472 0 746 0.363472 1
gene 1 20 80 0.699626 0 750 0.699626 1
gene 1 12 129 -0.362187 0 872 -0.362187 1
gene 1 31 179 -0.347354 0 921 -0.347354 1
gene 1 16 135 0.392515 0 975 0.392515 1
gene 1 18 31 -0.297036 0 1011 -0.297036 1
gene 1 178 179 0.94503 0 1022 0.94503 1
genomeend 6644
genomestart 6732
trait 1 0.472834 0.627807 0.77391 0.761959 0.402171 0.85307 0.33717 0.961697 
node 1 1 1 1 0
node 2 1 1 1 0
node 3 1 1 1 0
node 4 1 1 1 0
node 5 1 1 1 0
node 6 1 1 1 0
node 7 1 1 1 0
node 8 1 1 1 0
node 9 1 1 1 0
node 10 1 1 1 0
node 11 1 1 1 0
node 12 1 1 1 0
node 13 1 1 1 0
node 14 1 1 1 0
node 15 1 1 1 0
node 16 1 1 1 0
node 17 1 1 1 0
node 18 1 1 1 0
node 19 1 1 3 0
node 20 1 0 2 0
node 21 1 0 2 0
node 22 1 0 2 0
node 23 1 0 2 0
node 31 1 0 0 0
node 43 1 0 0 0
node 80 1 0 0 0
node 121 1 0 0 0
node 125 1 0 0 0
node 129 1 0 0 0
node 135 1 0 0 0
node 169 1 0 0 0
node 170 1 0 0 0
node 172 1 0 0 0
node 178 1 0 0 0
node 179 1 0 0 0
gene 1 1 20 0.675418 0 1 0.675418 1
gene 1 2 20 1.37092 0 2 1.37092 1
gene 1 3 20 0.665041 0 3 0.665041 1
gene 1 4 20 0.436996 0 4 0.436996 1
gene 1 5 20 -0.479682 0 5 -0.479682 1
gene 1 6 20 0.917129 0 6 0.917129 1
gene 1 7 20 0.44298 0 7 0.44298 1
gene 1 8 20 0.0279146 0 8 0.0279146 1
gene 1 9 20 0.735056 0 9 0.735056 1
gene 1 10 20 -1.1003 0 10 -1.1003 1
gene 1 11 20 1.68351 0 11 1.68351 1
gene 1 12 20 0.637754 0 12 0.637754 1
gene 1 13 20 1.26572 0 13 1.26572 1
gene 1 14 20 0.976702 0 14 0.976702 1
gene 1 15 20 -2.19444 0 15 -2.19444 1
gene 1 16 20 -0.292914 0 16 -0.292914 1
gene 1 17 20 0.062534 0 17 0.062534 1
gene 1 18 20 -0.567314 0 18 -0.567314 1
gene 1 19 20 0.858024 0 19 0.858024 1
gene 1 1 21 0.0452483 0 20 0.0452483 1
gene 1 2 21 0.031412 0 21 0.031412 1
gene 1 3 21 0.108584 0 22 0.108584 1
gene 1 4 21 1.49852 0 23 1.49852 1
gene 1 5 21 -0.559304 0 24 -0.559304 1
gene 1 6 21 0.300999 0 25 0.300999 1
gene 1 7 21 -0.529707 0 26 -0.529707 1
gene 1 8 21 0.612193 0 27 0.612193 1
gene 1 9 21 -0.00683009 0 28 -0.00683009 1
gene 1 10 21 0.959843 0 29 0.959843 1
gene 1 11 21 1.00426 0 30 1.00426 1
gene 1 12 21 0.132808 0 31 0.132808 1
gene 1 13 21 0.459621 0 32 0.459621 1
gene 1 14 21 -0.314131 0 33 -0.314131 1
gene 1 15 21 -1.45382 0 34 -1.45382 1
gene 1 16 21 -0.216141 0 35 -0.216141 1
gene 1 17 21 0.349743 0 36 0.349743 1
gene 1 18 21 -0.267549 0 37 -0.267549 1
gene 1 19 21 -0.0622417 0 38 -0.0622417 1
gene 1 1 22 0.298481 0 39 0.298481 1
gene 1 2 22 0.115339 0 40 0.115339 1
gene 1 3 22 0.459022 0 41 0.459022 1
gene 1 4 22 -0.113383 0 42 -0.113383 1
gene 1 5 22 -0.145747 0 43 -0.145747 1
gene 1 6 22 0.639187 0 44 0.639187 1
gene 1 7 22 -0.0299324 0 45 -0.0299324 1
gene 1 8 22 -0.119849 0 46 -0.119849 1
gene 1 9 22 -0.879285 0 47 -0.879285 1
gene 1 10 22 0.0701903 0 48 0.0701903 1
gene 1 11 22 -0.786221 0 49 -0.786221 1
gene 1 12 22 -0.810432 0 50 -0.810432 1
gene 1 13 22 -0.53395 0 51 -0.53395 1
gene 1 14 22 -0.185143 0 52 -0.185143 1
gene 1 15 22 -1.1526 0 53 -1.1526 1
gene 1 16 22 0.279733 0 54 0.279733 1
gene 1 17 22 -0.820632 0 55 -0.820632 1
gene 1 18 22 0.138277 0 56 0.138277 1
gene 1 19 22 -1.22965 0 57 -1.22965 1
gene 1 1 23 -0.0208166 0 58 -0.0208166 1
gene 1 2 23 0.122808 0 59 0.122808 0
gene 1 3 23 0.194041 0 60 0.194041 1
gene 1 4 23 0.434071 0 61 0.434071 1
gene 1 5 23 -0.206571 0 62 -0.206571 1
gene 1 6 23 1.25731 0 63 1.25731 1
gene 1 7 23 0.391747 0 64 0.391747 1
gene 1 8 23 0.611801 0 65 0.611801 1
gene 1 9 23 0.184546 0 66 0.184546 1
gene 1 10 23 -1.19135 0 67 -1.19135 1
gene 1 11 23 0.149274 0 68 0.149274 0
gene 1 12 23 -0.32895 0 69 -0.32895 1
gene 1 13 23 1.26611 0 70 1.26611 1
gene 1 14 23 -1.69254 0 71 -1.69254 1
gene 1 15 23 0.592948 0 72 0.592948 1
gene 1 16 23 -0.823439 0 73 -0.823439 1
gene 1 17 23 1.09106 0 74 1.09106 1
gene 1 18 23 0.0600388 0 75 0.0600388 1
gene 1 19 23 -0.0897373 0 76 -0.0897373 1
gene 1 20 21 -0.325295 0 78 -0.325295 1
gene 1 22 23 0.317584 0 79 0.317584 1
gene 1 7 31 1.19785 0 101 1.19785 1
gene 1 31 23 -0.738365 0 102 -0.738365 1
gene 1 10 43 1.23599 0 137 1.23599 1
gene 1 43 20 0.0682288 0 138 0.0682288 1
gene 1 1 31 0.115398 0 197 0.115398 0
gene 1 18 80 1.05135 0 241 1.05135 1
gene 1 80 23 -0.326987 0 242 -0.326987 1
gene 1 12 43 -0.00567338 0 386 -0.00567338 1
gene 1 23 23 0.977484 1 407 0.977484 1
gene 1 31 21 -0.165539 0 413 -0.165539 1
gene 1 1 121 -0.525677 0 414 -0.525677 1
gene 1 121 31 0.0663613 0 415 0.0663613 1
gene 1 20 20 1.60329 1 426 1.60329 1
gene 1 11 125 0.631547 0 430 0.631547 1
gene 1 125 23 -0.036746 0 431 -0.036746 1
gene 1 19 125 -0.122788 0 435 -0.122788 1
gene 1 43 21 0.101102 0 438 0.101102 1
gene 1 10 129 1.25002 0 444 1.25002 1
gene 1 129 21 -0.653171 0 445 -0.653171 1
gene 1 2 43 0.618394 0 452 0.618394 1
gene 1 11 43 0.363996 0 462 0.363996 1
gene 1 43 23 -0.124086 0 464 -0.124086 1
gene 1 22 21 0.846507 0 473 0.846507 1
gene 1 13 135 0.836948 0 475 0.836948 1
gene 1 135 23 0.470125 0 476 0.470125 1
gene 1 20 22 -0.181871 0 492 -0.181871 1
gene 1 3 121 0.00444515 0 536 0.00444515 1
gene 1 121 43 -0.0227336 0 583 -0.0227336 1
gene 1 7 169 -0.399914 0 584 -0.399914 1
gene 1 169 22 0.360764 0 585 0.360764 1
gene 1 2 170 -0.0958503 0 587 -0.0958503 1
gene 1 170 20 -0.284346 0 588 -0.284346 1
gene 1 22 172 0.095305 0 595 0.095305 1
gene 1 172 23 -0.862268 0 596 -0.862268 1
gene 1 10 178 0.319827 0 612 0.319827 1
gene 1 178 43 -0.639486 0 613 -0.639486 1
gene 1 2 179 0.11782 0 614 0.11782 1
gene 1 179 23 -0.433752 0 615 -0.433752 1
gene 1 15 172 0.149704 0 636 0.149704 1
gene 1 43 129 0.0956651 0 672 0.0956651 1
gene 1 16 170 0.717365 0 743 0.717365 1
gene 1 12 135 0.413654 0 746 0.413654 1
gene 1 20 80 0.845598 0 750 0.845598 1
gene 1 12 129 -0.0811183 0 872 -0.0811183 1
gene 1 31 179 -0.0125589 0 921 -0.0125589 1
gene 1 16 135 -0.372603 0 975 -0.372603 1
gene 1 18 31 -0.987815 0 1011 -0.987815 1
gene 1 178 179 0.500503 0 1022 0.500503 1
gene 1 135 22 -0.0212798 0 1072 -0.0212798 1
genomeend 6732
genomestart 6881
trait 1 0.475692 0.634848 0.757136 0.742123 0.41201 0.840978 0.342256 0.962973 
node 1 1 1 1 0
node 2 1 1 1 0
node 3 1 1 1 0
node 4 1 1 1 0
node 5 1 1 1 0
node 6 1 1 1 0
node 7 1 1 1 0
node 8 1 1 1 0
node 9 1 1 1 0
node 10 1 1 1 0
node 11 1 1 1 0
node 12 1 1 1 0
node 13 1 1 1 0
node 14 1 1 1 0
node 15 1 1 1 0
node 16 1 1 1 0
node 17 1 1 1 0
node 18 1 1 1 0
node 19 1 1 3 0
node 20 1 0 2 0
node 21 1 0 2 0
node 22 1 0 2 0
node 23 1 0 2 0
node 31 1 0 0 0
node 43 1 0 0 0
node 80 1 0 0 0
node 121 1 0 0 0
node 125 1 0 0 0
node 129 1 0 0 0
node 135 1 0 0 0
node 169 1 0 0 0
node 170 1 0 0 0
node 172 1 0 0 0
node 178 1 0 0 0
node 179 1 0 0 0
node 279 1 0 0 0
gene 1 1 20 -0.177221 0 1 -0.177221 1
gene 1 2 20 0.911224 0 2 0.911224 1
gene 1 3 20 0.0326456 0 3 0.0326456 1
gene 1 4 20 0.033956 0 4 0.033956 1
gene 1 5 20 -0.39855 0 5 -0.39855 1
gene 1 6 20 1.08324 0 6 1.08324 1
gene 1 7 20 1.07634 0 7 1.07634 1
gene 1 8 20 0.457517 0 8 0.457517 1
gene 1 9 20 0.57789 0 9 0.57789 1
gene 1 10 20 -0.191042 0 10 -0.191042 1
gene 1 11 20 -0.0758331 0 11 -0.0758331 1
gene 1 12 20 0.297775 0 12 0.297775 1
gene 1 13 20 -0.103613 0 13 -0.103613 1
gene 1 14 20 0.90305 0 14 0.90305 1
gene 1 15 20 -2.60691 0 15 -2.60691 1
gene 1 16 20 -0.470635 0 16 -0.470635 1
gene 1 17 20 -0.53271 0 17 -0.53271 1
gene 1 18 20 -0.114347 0 18 -0.114347 1
gene 1 19 20 0.705263 0 19 0.705263 1
gene 1 1 21 -0.174868 0 20 -0.174868 1
gene 1 2 21 -0.0293774 0 21 -0.0293774 1
gene 1 3 21 0.450162 0 22 0.450162 1
gene 1 4 21 1.11479 0 23 1.11479 1
gene 1 5 21 0.022292 0 24 0.022292 0
gene 1 6 21 -0.157973 0 25 -0.157973 1
gene 1 7 21 -0.0188581 0 26 -0.0188581 1
gene 1 8 21 0.0980106 0 27 0.0980106 1
gene 1 9 21 0.367992 0 28 0.367992 1
gene 1 10 21 0.032017 0 29 0.032017 1
gene 1 11 21 0.597482 0 30 0.597482 1
gene 1 12 21 -0.134043 0 31 -0.134043 1
gene 1 13 21 0.0430639 0 32 0.0430639 1
gene 1 14 21 -0.245708 0 33 -0.245708 1
gene 1 15 21 -1.01007 0 34 -1.01007 1
gene 1 16 21 0.427458 0 35 0.427458 1
gene 1 17 21 0.265094 0 36 0.265094 1
gene 1 18 21 -0.479124 0 37 -0.479124 1
gene 1 19 21 0.073084 0 38 0.073084 1
gene 1 1 22 -0.438265 0 39 -0.438265 1
gene 1 2 22 0.409991 0 40 0.409991 1
gene 1 3 22 0.302174 0 41 0.302174 1
gene 1 4 22 -0.253574 0 42 -0.253574 1
gene 1 5 22 -0.18278 0 43 -0.18278 1
gene 1 6 22 0.0769218 0 44 0.0769218 1
gene 1 7 22 0.213536 0 45 0.213536 1
gene 1 8 22 -0.147217 0 46 -0.147217 1
gene 1 9 22 -0.76654 0 47 -0.76654 1
gene 1 10 22 0.989265 0 48 0.989265 1
gene 1 11 22 -0.3374 0 49 -0.3374 1
gene 1 12 22 -0.712017 0 50 -0.712017 1
gene 1 13 22 -0.221353 0 51 -0.221353 1
gene 1 14 22 -0.296977 0 52 -0.296977 1
gene 1 15 22 -1.20555 0 53 -1.20555 1
gene 1 16 22 0.432337 0 54 0.432337 1
gene 1 17 22 -0.199629 0 55 -0.199629 1
gene 1 18 22 -0.0514168 0 56 -0.0514168 1
gene 1 19 22 -1.33101 0 57 -1.33101 1
gene 1 1 23 -0.56549 0 58 -0.56549 1
gene 1 2 23 0.273415 0 59 0.273415 0
gene 1 3 23 0.341222 0 60 0.341222 1
gene 1 4 23 0.46436 0 61 0.46436 1
gene 1 5 23 -0.511178 0 62 -0.511178 1
gene 1 6 23 0.340933 0 63 0.340933 1
gene 1 7 23 0.496745 0 64 0.496745 1
gene 1 8 23 0.0587029 0 65 0.0587029 1
gene 1 9 23 0.369606 0 66 0.369606 1
gene 1 10 23 -1.44301 0 67 -1.44301 1
gene 1 11 23 0.0133777 0 68 0.0133777 1
gene 1 12 23 -0.0519252 0 69 -0.0519252 1
gene 1 13 23 -0.149867 0 70 -0.149867 1
gene 1 14 23 -1.69603 0 71 -1.69603 1
gene 1 15 23 -0.422778 0 72 -0.422778 1
gene 1 16 23 -0.060411 0 73 -0.060411 1
gene 1 17 23 0.268799 0 74 0.268799 1
gene 1 18 23 -0.373306 0 75 -0.373306 1
gene 1 19 23 0.517024 0 76 0.517024 1
gene 1 20 21 -0.281752 0 78 -0.281752 1
gene 1 22 23 -0.236048 0 79 -0.236048 1
gene 1 7 31 0.203418 0 101 0.203418 1
gene 1 31 23 -0.415422 0 102 -0.415422 1
gene 1 10 43 0.90158 0 137 0.90158 0
gene 1 43 20 -0.768594 0 138 -0.768594 1
gene 1 1 31 0.277768 0 197 0.277768 0
gene 1 18 80 0.36611 0 241 0.36611 1
gene 1 80 23 -0.693909 0 242 -0.693909 1
gene 1 12 43 0.0820975 0 386 0.0820975 1
gene 1 23 23 1.00379 1 407 1.00379 1
gene 1 31 21 0.267198 0 413 0.267198 1
gene 1 1 121 -0.514218 0 414 -0.514218 1
gene 1 121 31 -0.0559169 0 415 -0.0559169 1
gene 1 20 20 1.2682 1 426 1.2682 1
gene 1 11 125 0.816059 0 430 0.816059 1
gene 1 125 23 -0.350443 0 431 -0.350443 1
gene 1 19 125 -0.343121 0 435 -0.343121 1
gene 1 43 21 0.502578 0 438 0.502578 1
gene 1 10 129 1.29128 0 444 1.29128 1
gene 1 129 21 -0.661062 0 445 -0.661062 1
gene 1 2 43 0.34759 0 452 0.34759 1
gene 1 11 43 0.933914 0 462 0.933914 1
gene 1 43 23 0.27234 0 464 0.27234 1
gene 1 22 21 0.878671 0 473 0.878671 1
gene 1 13 135 0.505244 0 475 0.505244 1
gene 1 135 23 -0.313063 0 476 -0.313063 1
gene 1 20 22 -0.181412 0 492 -0.181412 1
gene 1 3 121 0.197919 0 536 0.197919 1
gene 1 121 43 -0.53299 0 583 -0.53299 1
gene 1 7 169 -0.262224 0 584 -0.262224 1
gene 1 169 22 -0.0279575 0 585 -0.0279575 1
gene 1 2 170 -0.25744 0 587 -0.25744 1
gene 1 170 20 -0.655602 0 588 -0.655602 1
gene 1 22 172 0.0795706 0 595 0.0795706 1
gene 1 172 23 -0.273871 0 596 -0.273871 1
gene 1 10 178 0.218214 0 612 0.218214 1
gene 1 178 43 -0.265733 0 613 -0.265733 1
gene 1 2 179 -0.417895 0 614 -0.417895 1
gene 1 179 23 -0.244467 0 615 -0.244467 1
gene 1 15 172 0.333704 0 636 0.333704 1
gene 1 43 129 0.334401 0 672 0.334401 1
gene 1 16 170 0.00870959 0 743 0.00870959 1
gene 1 12 135 -0.398808 0 746 -0.398808 1
gene 1 20 80 0.456213 0 750 0.456213 1
gene 1 12 129 0.364257 0 872 0.364257 1
gene 1 31 179 0.0110763 0 921 0.0110763 1
gene 1 16 135 0.355254 0 975 0.355254 1
gene 1 18 31 -0.921084 0 1011 -0.921084 1
gene 1 178 179 -0.496145 0 1022 -0.496145 1
gene 1 5 279 -0.0515233 0 1033 -0.0515233 1
gene 1 279 21 -0.24634 0 1034 -0.24634 1
gene 1 135 22 0.146554 0 1072 0.146554 1
genomeend 6881
genomestart 6889
trait 1 0.732593 0.126329 0.582912 0.876648 0.864447 1 0.3176 0.643392 
node 1 1 1 1 0
node 2 1 1 1 0
node 3 1 1 1 0
node 4 1 1 1 0
node 5 1 1 1 0
node 6 1 1 1 0
node 7 1 1 1 0
node 8 1 1 1 0
node 9 1 1 1 0
node 10 1 1 1 0
node 11 1 1 1 0
node 12 1 1 1 0
node 13 1 1 1 0
node 14 1 1 1 0
node 15 1 1 1 0
node 16 1 1 1 0
node 17 1 1 1 0
node 18 1 1 1 0
node 19 1 1 3 0
node 20 1 0 2 0
node 21 1 0 2 0
node 22 1 0 2 0
node 23 1 0 2 0
node 31 1 0 0 0
node 43 1 0 0 0
node 80 1 0 0 0
node 143 1 0 0 0
node 154 1 0 0 0
node 224 1 0 0 0
node 251 1 0 0 0
node 273 1 0 0 0
node 276 1 0 0 0
gene 1 1 20 -0.0691966 0 1 -0.0691966 1
gene 1 2 20 0.389068 0 2 0.389068 1
gene 1 3 20 -1.6209 0 3 -1.6209 1
gene 1 4 20 0.445265 0 4 0.445265 1
gene 1 5 20 -0.337111 0 5 -0.337111 1
gene 1 6 20 0.210258 0 6 0.210258 1
gene 1 7 20 -0.107925 0 7 -0.107925 1
gene 1 8 20 0.245562 0 8 0.245562 1
gene 1 9 20 0.677469 0 9 0.677469 1
gene 1 10 20 0.862303 0 10 0.862303 1
gene 1 11 20 -0.928693 0 11 -0.928693 1
gene 1 12 20 0.25535 0 12 0.25535 1
gene 1 13 20 2.20282 0 13 2.20282 1
gene 1 14 20 -0.287022 0 14 -0.287022 1
gene 1 15 20 -0.416602 0 15 -0.416602 1
gene 1 16 20 -0.508673 0 16 -0.508673 1
gene 1 17 20 -0.374284 0 17 -0.374284 1
gene 1 18 20 -0.273669 0 18 -0.273669 1
gene 1 19 20 0.459756 0 19 0.459756 1
gene 1 1 21 -0.124729 0 20 -0.124729 1
gene 1 2 21 2.31524 0 21 2.31524 1
gene 1 3 21 0.186823 0 22 0.186823 1
gene 1 4 21 0.897569 0 23 0.897569 1
gene 1 5 21 -0.365079 0 24 -0.365079 1
gene 1 6 21 -0.27927 0 25 -0.27927 1
gene 1 7 21 -0.0694898 0 26 -0.0694898 1
gene 1 8 21 0.0516214 0 27 0.0516214 1
gene 1 9 21 -0.783396 0 28 -0.783396 1
gene 1 10 21 -0.362427 0 29 -0.362427 1
gene 1 11 21 1.32998 0 30 1.32998 1
gene 1 12 21 -0.537686 0 31 -0.537686 1
gene 1 13 21 -0.626724 0 32 -0.626724 1
gene 1 14 21 -1.20321 0 33 -1.20321 1
gene 1 15 21 0.0366529 0 34 0.0366529 1
gene 1 16 21 -0.313503 0 35 -0.313503 1
gene 1 17 21 -0.0226043 0 36 -0.0226043 1
gene 1 18 21 -0.272349 0 37 -0.272349 1
gene 1 19 21 0.567062 0 38 0.567062 1
gene 1 1 22 -1.20949 0 39 -1.20949 1
gene 1 2 22 -0.109214 0 40 -0.109214 1
gene 1 3 22 0.295849 0 41 0.295849 1
gene 1 4 22 0.456482 0 42 0.456482 1
gene 1 5 22 -0.26713 0 43 -0.26713 1
gene 1 6 22 -0.677215 0 44 -0.677215 1
gene 1 7 22 -0.0576483 0 45 -0.0576483 1
gene 1 8 22 0.486422 0 46 0.486422 1
gene 1 9 22 -0.24683 0 47 -0.24683 1
gene 1 10 22 1.6685 0 48 1.6685 1
gene 1 11 22 -0.812471 0 49 -0.812471 1
gene 1 12 22 0.0616528 0 50 0.0616528 1
gene 1 13 22 -1.09122 0 51 -1.09122 1
gene 1 14 22 0.283873 0 52 0.283873 1
gene 1 15 22 -0.44654 0 53 -0.44654 1
gene 1 16 22 -0.606697 0 54 -0.606697 1
gene 1 17 22 0.334453 0 55 0.334453 1
gene 1 18 22 -0.00829452 0 56 -0.00829452 1
gene 1 19 22 0.337311 0 57 0.337311 1
gene 1 1 23 -2.17382 0 58 -2.17382 1
gene 1 2 23 -0.263375 0 59 -0.263375 0
gene 1 3 23 -0.0480661 0 60 -0.0480661 1
gene 1 4 23 0.018654 0 61 0.018654 1
gene 1 5 23 0.508807 0 62 0.508807 1
gene 1 6 23 -1.07408 0 63 -1.07408 1
gene 1 7 23 -0.447636 0 64 -0.447636 1
gene 1 8 23 -0.0776137 0 65 -0.0776137 1
gene 1 9 23 -1.16707 0 66 -1.16707 1
gene 1 10 23 -0.315794 0 67 -0.315794 1
gene 1 11 23 -0.507708 0 68 -0.507708 1
gene 1 12 23 0.548587 0 69 0.548587 1
gene 1 13 23 0.886963 0 70 0.886963 0
gene 1 14 23 -0.0740246 0 71 -0.0740246 1
gene 1 15 23 -0.707974 0 72 -0.707974 1
gene 1 16 23 -0.268356 0 73 -0.268356 1
gene 1 17 23 1.23866 0 74 1.23866 0
gene 1 18 23 0.580634 0 75 0.580634 1
gene 1 19 23 -0.499179 0 76 -0.499179 1
gene 1 20 21 -0.292336 0 78 -0.292336 1
gene 1 22 23 0.980328 0 79 0.980328 1
gene 1 7 31 -1.01627 0 101 -1.01627 1
gene 1 31 23 -0.0462943 0 102 -0.0462943 1
gene 1 10 43 0.0801076 0 137 0.0801076 1
gene 1 43 20 0.0235341 0 138 0.0235341 1
gene 1 1 31 0.485627 0 197 0.485627 1
gene 1 18 80 -0.0934539 0 241 -0.0934539 1
gene 1 80 23 -0.252078 0 242 -0.252078 1
gene 1 43 23 0.735515 0 464 0.735515 1
gene 1 8 80 0.0587425 0 499 0.0587425 1
gene 1 9 143 -0.111144 0 503 -0.111144 1
gene 1 143 21 0.13185 0 504 0.13185 1
gene 1 2 154 -0.0751209 0 538 -0.0751209 1
gene 1 154 22 0.146577 0 539 0.146577 1
gene 1 6 31 -0.161655 0 566 -0.161655 1
gene 1 154 154 0.797189 1 724 0.797189 1
gene 1 16 31 -0.296171 0 730 -0.296171 1
gene 1 2 224 0.169943 0 775 0.169943 1
gene 1 224 23 0.0426394 0 776 0.0426394 1
gene 1 17 251 1 0 876 0 1
gene 1 251 23 0.371599 0 877 0 1
gene 1 143 143 0.295085 1 904 0.295085 1
gene 1 4 143 -0.643295 0 955 -0.643295 1
gene 1 1 80 -0.942438 0 980 -0.942438 1
gene 1 2 273 1 0 999 0 1
gene 1 273 22 0.0505589 0 1000 0 1
gene 1 20 154 -0.280609 0 1001 -0.280609 1
gene 1 13 276 -0.356833 0 1017 -0.356833 1
gene 1 276 23 -0.16675 0 1018 -0.16675 1
genomeend 6889
genomestart 6920
trait 1 0.472834 0.627807 0.77391 0.761959 0.402171 0.85307 0.33717 0.961697 
node 1 1 1 1 0
node 2 1 1 1 0
node 3 1 1 1 0
node 4 1 1 1 0
node 5 1 1 1 0
node 6 1 1 1 0
node 7 1 1 1 0
node 8 1 1 1 0
node 9 1 1 1 0
node 10 1 1 1 0
node 11 1 1 1 0
node 12 1 1 1 0
node 13 1 1 1 0
node 14 1 1 1 0
node 15 1 1 1 0
node 16 1 1 1 0
node 17 1 1 1 0
node 18 1 1 1 0
node 19 1 1 3 0
node 20 1 0 2 0
node 21 1 0 2 0
node 22 1 0 2 0
node 23 1 0 2 0
node 31 1 0 0 0
node 43 1 0 0 0
node 80 1 0 0 0
node 121 1 0 0 0
node 125 1 0 0 0
node 129 1 0 0 0
node 135 1 0 0 0
node 169 1 0 0 0
node 170 1 0 0 0
node 172 1 0 0 0
node 178 1 0 0 0
node 179 1 0 0 0
gene 1 1 20 -0.0157963 0 1 -0.0157963 1
gene 1 2 20 1.63093 0 2 1.63093 1
gene 1 3 20 0.121998 0 3 0.121998 1
gene 1 4 20 -0.137419 0 4 -0.137419 1
gene 1 5 20 -0.358161 0 5 -0.358161 1
gene 1 6 20 0.1597 0 6 0.1597 1
gene 1 7 20 0.188936 0 7 0.188936 1
gene 1 8 20 -0.407043 0 8 -0.407043 1
gene 1 9 20 1.73139 0 9 1.73139 1
gene 1 10 20 -0.761988 0 10 -0.761988 1
gene 1 11 20 0.962595 0 11 0.962595 1
gene 1 12 20 -0.417111 0 12 -0.417111 1
gene 1 13 20 1.27533 0 13 1.27533 1
gene 1 14 20 0.518315 0 14 0.518315 1
gene 1 15 20 -0.789424 0 15 -0.789424 1
gene 1 16 20 -0.663259 0 16 -0.663259 1
gene 1 17 20 0.0997158 0 17 0.0997158 1
gene 1 18 20 -0.150495 0 18 -0.150495 1
gene 1 19 20 1.15062 0 19 1.15062 1
gene 1 1 21 -0.353013 0 20 -0.353013 1
gene 1 2 21 0.0481518 0 21 0.0481518 1
gene 1 3 21 -0.439042 0 22 -0.439042 1
gene 1 4 21 1.50938 0 23 1.50938 1
gene 1 5 21 -0.303903 0 24 -0.303903 1
gene 1 6 21 -0.315721 0 25 -0.315721 1
gene 1 7 21 -0.0408295 0 26 -0.0408295 1
gene 1 8 21 1.10064 0 27 1.10064 1
gene 1 9 21 -0.136885 0 28 -0.136885 1
gene 1 10 21 0.451608 0 29 0.451608 1
gene 1 11 21 1.65012 0 30 1.65012 1
gene 1 12 21 0.964325 0 31 0.964325 1
gene 1 13 21 0.361402 0 32 0.361402 1
gene 1 14 21 0.752896 0 33 0.752896 1
gene 1 15 21 -1.18769 0 34 -1.18769 1
gene 1 16 21 0.00863 0 35 0.00863 1
gene 1 17 21 0.934898 0 36 0.934898 1
gene 1 18 21 -0.420396 0 37 -0.420396 1
gene 1 19 21 -0.391834 0 38 -0.391834 1
gene 1 1 22 0.163667 0 39 0.163667 1
gene 1 2 22 -0.246258 0 40 -0.246258 1
gene 1 3 22 0.276687 0 41 0.276687 1
gene 1 4 22 -0.649339 0 42 -0.649339 1
gene 1 5 22 0.0337431 0 43 0.0337431 1
gene 1 6 22 1.19951 0 44 1.19951 1
gene 1 7 22 -0.0672155 0 45 -0.0672155 1
gene 1 8 22 -0.0759333 0 46 -0.0759333 1
gene 1 9 22 -0.26495 0 47 -0.26495 1
gene 1 10 22 0.903514 0 48 0.903514 1
gene 1 11 22 -0.526745 0 49 -0.526745 1
gene 1 12 22 -0.594364 0 50 -0.594364 1
gene 1 13 22 -0.392574 0 51 -0.392574 1
gene 1 14 22 -0.12556 0 52 -0.12556 1
gene 1 15 22 -0.76331 0 53 -0.76331 1
gene 1 16 22 0.0872164 0 54 0.0872164 1
gene 1 17 22 -0.687196 0 55 -0.687196 1
gene 1 18 22 0.151332 0 56 0.151332 1
gene 1 19 22 -0.796599 0 57 -0.796599 1
gene 1 1 23 0.219189 0 58 0.219189 1
gene 1 2 23 0.556156 0 59 0.556156 0
gene 1 3 23 0.354392 0 60 0.354392 1
gene 1 4 23 0.411737 0 61 0.411737 1
gene 1 5 23 0.053323 0 62 0.053323 1
gene 1 6 23 2.31655 0 63 2.31655 1
gene 1 7 23 0.259757 0 64 0.259757 1
gene 1 8 23 0.119244 0 65 0.119244 1
gene 1 9 23 0.0768856 0 66 0.0768856 1
gene 1 10 23 -0.782363 0 67 -0.782363 1
gene 1 11 23 -0.615816 0 68 -0.615816 0
gene 1 12 23 0.0914335 0 69 0.0914335 1
gene 1 13 23 1.15914 0 70 1.15914 1
gene 1 14 23 -2.63316 0 71 -2.63316 1
gene 1 15 23 0.228379 0 72 0.228379 1
gene 1 16 23 -0.918152 0 73 -0.918152 1
gene 1 17 23 1.79581 0 74 1.79581 1
gene 1 18 23 -0.106271 0 75 -0.106271 1
gene 1 19 23 0.190964 0 76 0.190964 1
gene 1 20 21 -0.513728 0 78 -0.513728 1
gene 1 22 23 -0.0101568 0 79 -0.0101568 0
gene 1 7 31 0.000644473 0 101 0.000644473 1
gene 1 31 23 -0.306268 0 102 -0.306268 1
gene 1 10 43 0.913499 0 137 0.913499 0
gene 1 43 20 -0.700604 0 138 -0.700604 1
gene 1 1 31 0.144637 0 197 0.144637 0
gene 1 18 80 0.496076 0 241 0.496076 1
gene 1 80 23 -0.411035 0 242 -0.411035 1
gene 1 12 43 0.430342 0 386 0.430342 1
gene 1 23 23 0.803686 1 407 0.803686 1
gene 1 31 21 -0.248507 0 413 -0.248507 1
gene 1 1 121 -0.250396 0 414 -0.250396 1
gene 1 121 31 -0.572945 0 415 -0.572945 1
gene 1 20 20 0.326651 1 426 0.326651 1
gene 1 11 125 -0.0197385 0 430 -0.0197385 1
gene 1 125 23 -0.675338 0 431 -0.675338 1
gene 1 19 125 0.322161 0 435 0.322161 1
gene 1 43 21 1.19159 0 438 1.19159 1
gene 1 10 129 1.29329 0 444 1.29329 1
gene 1 129 21 -0.605247 0 445 -0.605247 1
gene 1 2 43 -1.05588 0 452 -1.05588 1
gene 1 11 43 1.72682 0 462 1.72682 1
gene 1 43 23 -0.275525 0 464 -0.275525 1
gene 1 22 21 1.23676 0 473 1.23676 1
gene 1 13 135 0.603996 0 475 0.603996 1
gene 1 135 23 0.00745747 0 476 0.00745747 1
gene 1 20 22 -0.465927 0 492 -0.465927 1
gene 1 3 121 -0.115295 0 536 -0.115295 1
gene 1 121 43 -0.0914348 0 583 -0.0914348 1
gene 1 7 169 0.371384 0 584 0.371384 1
gene 1 169 22 0.130781 0 585 0.130781 1
gene 1 2 170 0.123118 0 587 0.123118 1
gene 1 170 20 0.0824044 0 588 0.0824044 1
gene 1 22 172 -0.0358043 0 595 -0.0358043 1
gene 1 172 23 -1.65307 0 596 -1.65307 1
gene 1 10 178 0.562433 0 612 0.562433 1
gene 1 178 43 -0.371714 0 613 -0.371714 1
gene 1 2 179 0.0496878 0 614 0.0496878 1
gene 1 179 23 0.21975 0 615 0.21975 1
gene 1 15 172 -0.242279 0 636 -0.242279 1
gene 1 43 129 0.581518 0 672 0.581518 1
gene 1 16 170 0.57806 0 743 0.57806 1
gene 1 12 135 0.0200912 0 746 0.0200912 1
gene 1 20 80 -0.149284 0 750 -0.149284 1
gene 1 12 129 -0.362187 0 872 -0.362187 1
gene 1 31 179 -0.347354 0 921 -0.347354 1
gene 1 16 135 0.392515 0 975 0.392515 1
gene 1 18 31 -1.05416 0 1011 -1.05416 1
gene 1 178 179 -0.435274 0 1022 -0.435274 1
gene 1 135 22 -0.109618 0 1072 -0.109618 1
genomeend 6920
genomestart 6938
trait 1 0.281468 0.821017 0.280166 0.773886 0.605744 0.759585 0.628938 0.606833 
node 1 1 1 1 0
node 2 1 1 1 0
node 3 1 1 1 0
node 4 1 1 1 0
node 5 1 1 1 0
node 6 1 1 1 0
node 7 1 1 1 0
node 8 1 1 1 0
node 9 1 1 1 0
node 10 1 1 1 0
node 11 1 1 1 0
node 12 1 1 1 0
node 13 1 1 1 0
node 14 1 1 1 0
node 15 1 1 1 0
node 16 1 1 1 0
node 17 1 1 1 0
node 18 1 1 1 0
node 19 1 1 3 0
node 20 1 0 2 0
node 21 1 0 2 0
node 22 1 0 2 0
node 23 1 0 2 0
node 31 1 0 0 0
node 43 1 0 0 0
node 80 1 0 0 0
node 112 1 0 0 0
node 117 1 0 0 0
node 128 1 0 0 0
node 141 1 0 0 0
node 149 1 0 0 0
node 191 1 0 0 0
node 202 1 0 0 0
node 204 1 0 0 0
node 208 1 0 0 0
node 219 1 0 0 0
node 224 1 0 0 0
node 227 1 0 0 0
node 236 1 0 0 0
node 238 1 0 0 0
node 257 1 0 0 0
gene 1 1 20 0.12511 0 1 0.12511 1
gene 1 2 20 -0.183142 0 2 -0.183142 1
gene 1 3 20 -0.467944 0 3 -0.467944 1
gene 1 4 20 0.0609081 0 4 0.0609081 1
gene 1 5 20 -0.0848463 0 5 -0.0848463 1
gene 1 6 20 0.147846 0 6 0.147846 1
gene 1 7 20 -0.430856 0 7 -0.430856 1
gene 1 8 20 0.430811 0 8 0.430811 1
gene 1 9 20 0.45205 0 9 0.45205 1
gene 1 10 20 0.12638 0 10 0.12638 1
gene 1 11 20 0.517451 0 11 0.517451 1
gene 1 12 20 0.0536644 0 12 0.0536644 1
gene 1 13 20 1.58817 0 13 1.58817 1
gene 1 14 20 -0.126514 0 14 -0.126514 0
gene 1 15 20 -0.00464264 0 15 -0.00464264 1
gene 1 16 20 1.46512 0 16 1.46512 1
gene 1 17 20 0.418321 0 17 0.418321 1
gene 1 18 20 -0.360863 0 18 -0.360863 1
gene 1 19 20 1.12625 0 19 1.12625 1
gene 1 1 21 -1.79144 0 20 -1.79144 1
gene 1 2 21 -0.415622 0 21 -0.415622 1
gene 1 3 21 0.242437 0 22 0.242437 1
gene 1 4 21 -0.142543 0 23 -0.142543 1
gene 1 5 21 0.320356 0 24 0.320356 1
gene 1 6 21 0.0738565 0 25 0.0738565 1
gene 1 7 21 -0.600868 0 26 -0.600868 1
gene 1 8 21 -0.460352 0 27 -0.460352 1
gene 1 9 21 0.0513819 0 28 0.0513819 1
gene 1 10 21 0.196651 0 29 0.196651 1
gene 1 11 21 0.971612 0 30 0.971612 1
gene 1 12 21 0.505064 0 31 0.505064 1
gene 1 13 21 0.0753154 0 32 0.0753154 1
gene 1 14 21 0.339723 0 33 0.339723 1
gene 1 15 21 -2.67821 0 34 -2.67821 1
gene 1 16 21 -0.0170466 0 35 -0.0170466 1
gene 1 17 21 0.0505989 0 36 0.0505989 1
gene 1 18 21 0.766669 0 37 0.766669 1
gene 1 19 21 -0.741926 0 38 -0.741926 1
gene 1 1 22 -0.186337 0 39 -0.186337 1
gene 1 2 22 -1.08203 0 40 -1.08203 1
gene 1 3 22 0.851295 0 41 0.851295 1
gene 1 4 22 0.123375 0 42 0.123375 1
gene 1 5 22 -0.482288 0 43 -0.482288 1
gene 1 6 22 0.74692 0 44 0.74692 1
gene 1 7 22 -0.487339 0 45 -0.487339 1
gene 1 8 22 -0.183754 0 46 -0.183754 1
gene 1 9 22 -0.206294 0 47 -0.206294 1
gene 1 10 22 -1.52633 0 48 -1.52633 1
gene 1 11 22 -0.182295 0 49 -0.182295 1
gene 1 12 22 -0.446563 0 50 -0.446563 1
gene 1 13 22 0.614155 0 51 0.614155 1
gene 1 14 22 -0.475342 0 52 -0.475342 1
gene 1 15 22 -0.21629 0 53 -0.21629 1
gene 1 16 22 0.62958 0 54 0.62958 1
gene 1 17 22 -1.13409 0 55 -1.13409 1
gene 1 18 22 -1.76699 0 56 -1.76699 1
gene 1 19 22 0.627174 0 57 0.627174 1
gene 1 1 23 -0.299056 0 58 -0.299056 1
gene 1 2 23 -0.166779 0 59 -0.166779 0
gene 1 3 23 -0.271509 0 60 -0.271509 1
gene 1 4 23 -0.282347 0 61 -0.282347 1
gene 1 5 23 -0.013119 0 62 -0.013119 1
gene 1 6 23 -0.215152 0 63 -0.215152 1
gene 1 7 23 0.244185 0 64 0.244185 1
gene 1 8 23 0.16596 0 65 0.16596 1
gene 1 9 23 -2.01096 0 66 -2.01096 1
gene 1 10 23 -0.616914 0 67 -0.616914 1
gene 1 11 23 0.63149 0 68 0.63149 1
gene 1 12 23 0.136548 0 69 0.136548 1
gene 1 13 23 -1.06389 0 70 -1.06389 1
gene 1 14 23 0.48229 0 71 0.48229 1
gene 1 15 23 -0.0495519 0 72 -0.0495519 0
gene 1 16 23 -0.125666 0 73 -0.125666 1
gene 1 17 23 -0.612131 0 74 -0.612131 1
gene 1 18 23 -0.216103 0 75 -0.216103 0
gene 1 19 23 0.881646 0 76 0.881646 1
gene 1 20 21 -0.0747822 0 78 -0.0747822 1
gene 1 22 23 -0.271944 0 79 -0.271944 1
gene 1 7 31 -0.0417783 0 101 -0.0417783 1
gene 1 31 23 -0.172244 0 102 -0.172244 1
gene 1 10 43 -0.123636 0 137 -0.123636 1
gene 1 43 20 0.452534 0 138 0.452534 1
gene 1 1 31 -0.0688941 0 197 -0.0688941 1
gene 1 18 80 -0.771459 0 241 -0.771459 1
gene 1 80 23 -0.108278 0 242 -0.108278 1
gene 1 6 112 0.34281 0 380 0.34281 1
gene 1 112 21 0.337655 0 381 0.337655 1
gene 1 31 112 -0.291826 0 382 -0.291826 1
gene 1 12 43 0.390713 0 386 0.390713 1
gene 1 15 112 -0.478544 0 387 -0.478544 1
gene 1 112 20 -0.286952 0 396 -0.286952 1
gene 1 18 43 0.545826 0 397 0.545826 1
gene 1 43 31 1.1101 0 400 1.1101 1
gene 1 15 117 -0.911709 0 403 -0.911709 1
gene 1 117 23 -0.785568 0 404 -0.785568 1
gene 1 22 117 -0.502214 0 423 -0.502214 1
gene 1 10 128 -0.632967 0 440 -0.632967 1
gene 1 128 22 -0.603263 0 441 -0.603263 1
gene 1 1 112 0.271594 0 443 0.271594 1
gene 1 2 80 -0.0380771 0 451 -0.0380771 1
gene 1 6 141 0.0565657 0 497 0.0565657 1
gene 1 141 20 0.240483 0 498 0.240483 1
gene 1 18 149 -1.28738 0 519 -1.28738 1
gene 1 149 23 -0.203742 0 520 -0.203742 1
gene 1 80 80 -0.0632518 1 551 -0.0632518 1
gene 1 112 112 0.32779 1 597 0.32779 1
gene 1 23 23 0.266999 1 623 0.266999 1
gene 1 1 191 1.11511 0 649 1.11511 1
gene 1 191 20 0.879712 0 650 0.879712 1
gene 1 14 202 0.0339882 0 686 0.0339882 1
gene 1 202 20 0.199212 0 687 0.199212 1
gene 1 20 20 0.693376 1 688 0.693376 1
gene 1 3 204 0.00439352 0 695 0.00439352 1
gene 1 204 20 0.317387 0 696 0.317387 1
gene 1 8 208 -0.000131547 0 707 -0.000131547 1
gene 1 208 21 0.768109 0 708 0.768109 1
gene 1 4 31 0.0721382 0 710 0.0721382 1
gene 1 16 202 0.143686 0 711 0.143686 1
gene 1 202 23 -0.501051 0 748 -0.501051 1
gene 1 1 219 -0.0417504 0 759 -0.0417504 1
gene 1 219 23 0.190941 0 760 0.190941 1
gene 1 1 128 -0.194963 0 761 -0.194963 1
gene 1 2 224 0.330065 0 775 0.330065 1
gene 1 224 23 -0.483705 0 776 -0.483705 1
gene 1 17 112 -0.263789 0 782 -0.263789 1
gene 1 18 227 -0.469881 0 783 -0.469881 1
gene 1 227 43 -0.0870375 0 784 -0.0870375 1
gene 1 18 236 0.0106594 0 808 0.0106594 1
gene 1 236 21 -0.418156 0 809 -0.418156 1
gene 1 14 238 0.542542 0 814 0.542542 1
gene 1 238 21 0.0297676 0 815 0.0297676 1
gene 1 12 80 -0.0780243 0 822 -0.0780243 1
gene 1 202 202 -0.330303 1 824 -0.330303 1
gene 1 17 257 0.513816 0 908 0.513816 1
gene 1 257 22 0.125569 0 909 0.125569 1
gene 1 5 117 0.0978594 0 927 0.0978594 1
gene 1 128 23 0.00415971 0 945 0.00415971 1
genomeend 6938
genomestart 6964
trait 1 0.732593 0.0731477 0.327249 0 0.133799 1 0.3176 1 
node 1 1 1 1 0
node 2 1 1 1 0
node 3 1 1 1 0
node 4 1 1 1 0
node 5 1 1 1 0
node 6 1 1 1 0
node 7 1 1 1 0
node 8 1 1 1 0
node 9 1 1 1 0
node 10 1 1 1 0
node 11 1 1 1 0
node 12 1 1 1 0
node 13 1 1 1 0
node 14 1 1 1 0
node 15 1 1 1 0
node 16 1 1 1 0
node 17 1 1 1 0
node 18 1 1 1 0
node 19 1 1 3 0
node 20 1 0 2 0
node 21 1 0 2 0
node 22 1 0 2 0
node 23 1 0 2 0
node 31 1 0 0 0
node 43 1 0 0 0
node 80 1 0 0 0
node 143 1 0 0 0
node 154 1 0 0 0
node 224 1 0 0 0
node 276 1 0 0 0
gene 1 1 20 -0.560203 0 1 -0.560203 1
gene 1 2 20 -0.20143 0 2 -0.20143 1
gene 1 3 20 -1.27999 0 3 -1.27999 1
gene 1 4 20 0.463311 0 4 0.463311 1
gene 1 5 20 0.0637091 0 5 0.0637091 1
gene 1 6 20 0.691129 0 6 0.691129 1
gene 1 7 20 0.626644 0 7 0.626644 1
gene 1 8 20 -1.04394 0 8 -1.04394 1
gene 1 9 20 0.265305 0 9 0.265305 1
gene 1 10 20 -0.0168807 0 10 -0.0168807 1
gene 1 11 20 0.991835 0 11 0.991835 1
gene 1 12 20 0.134435 0 12 0.134435 1
gene 1 13 20 1.96853 0 13 1.96853 1
gene 1 14 20 0.102648 0 14 0.102648 1
gene 1 15 20 -1.18718 0 15 -1.18718 1
gene 1 16 20 0.965041 0 16 0.965041 1
gene 1 17 20 1.66886 0 17 1.66886 1
gene 1 18 20 0.413967 0 18 0.413967 1
gene 1 19 20 0.309064 0 19 0.309064 1
gene 1 1 21 0.34982 0 20 0.34982 1
gene 1 2 21 2.09648 0 21 2.09648 1
gene 1 3 21 0.690272 0 22 0.690272 1
gene 1 4 21 0.512994 0 23 0.512994 1
gene 1 5 21 -1.40862 0 24 -1.40862 1
gene 1 6 21 0.281307 0 25 0.281307 1
gene 1 7 21 -1.09194 0 26 -1.09194 1
gene 1 8 21 -0.313226 0 27 -0.313226 1
gene 1 9 21 -0.270406 0 28 -0.270406 1
gene 1 10 21 -1.20749 0 29 -1.20749 1
gene 1 11 21 -0.0153804 0 30 -0.0153804 1
gene 1 12 21 -0.0554503 0 31 -0.0554503 1
gene 1 13 21 -0.470627 0 32 -0.470627 1
gene 1 14 21 -1.11861 0 33 -1.11861 1
gene 1 15 21 0.691784 0 34 0.691784 1
gene 1 16 21 0.190309 0 35 0.190309 1
gene 1 17 21 0.0957849 0 36 0.0957849 1
gene 1 18 21 -0.248235 0 37 -0.248235 1
gene 1 19 21 0.695459 0 38 0.695459 1
gene 1 1 22 0.00139198 0 39 0.00139198 1
gene 1 2 22 0.321852 0 40 0.321852 1
gene 1 3 22 -0.401693 0 41 -0.401693 1
gene 1 4 22 0.542209 0 42 0.542209 1
gene 1 5 22 -0.744195 0 43 -0.744195 1
gene 1 6 22 -0.666714 0 44 -0.666714 1
gene 1 7 22 -0.221014 0 45 -0.221014 1
gene 1 8 22 -0.813804 0 46 -0.813804 1
gene 1 9 22 1.52502 0 47 1.52502 1
gene 1 10 22 1.42881 0 48 1.42881 1
gene 1 11 22 0.614979 0 49 0.614979 1
gene 1 12 22 -0.626139 0 50 -0.626139 1
gene 1 13 22 -1.51586 0 51 -1.51586 1
gene 1 14 22 -0.587446 0 52 -0.587446 1
gene 1 15 22 0.39315 0 53 0.39315 1
gene 1 16 22 0.132066 0 54 0.132066 1
gene 1 17 22 0.48102 0 55 0.48102 1
gene 1 18 22 -1.20782 0 56 -1.20782 1
gene 1 19 22 0.114161 0 57 0.114161 1
gene 1 1 23 -0.845288 0 58 -0.845288 1
gene 1 2 23 0.160268 0 59 0.160268 0
gene 1 3 23 0.915414 0 60 0.915414 1
gene 1 4 23 -0.00843735 0 61 -0.00843735 1
gene 1 5 23 -0.265876 0 62 -0.265876 1
gene 1 6 23 -0.582201 0 63 -0.582201 1
gene 1 7 23 -0.718685 0 64 -0.718685 1
gene 1 8 23 0.616156 0 65 0.616156 1
gene 1 9 23 -0.703906 0 66 -0.703906 1
gene 1 10 23 -0.337244 0 67 -0.337244 1
gene 1 11 23 -1.28342 0 68 -1.28342 1
gene 1 12 23 0.875902 0 69 0.875902 1
gene 1 13 23 0.0796255 0 70 0.0796255 0
gene 1 14 23 0.462965 0 71 0.462965 1
gene 1 15 23 -0.742276 0 72 -0.742276 1
gene 1 16 23 0.0502558 0 73 0.0502558 1
gene 1 17 23 0.473983 0 74 0.473983 1
gene 1 18 23 0.640737 0 75 0.640737 1
gene 1 19 23 -0.650024 0 76 -0.650024 1
gene 1 20 21 -0.319662 0 78 -0.319662 1
gene 1 22 23 0.00156215 0 79 0.00156215 1
gene 1 7 31 -0.450951 0 101 -0.450951 1
gene 1 31 23 0.483442 0 102 0.483442 1
gene 1 10 43 0.443495 0 137 0.443495 1
gene 1 43 20 0.708011 0 138 0.708011 1
gene 1 1 31 -0.184694 0 197 -0.184694 1
gene 1 18 80 -0.26986 0 241 -0.26986 1
gene 1 80 23 -0.623145 0 242 -0.623145 1
gene 1 43 23 0.705375 0 464 0.705375 1
gene 1 8 80 0.244999 0 499 0.244999 1
gene 1 9 143 -0.693196 0 503 -0.693196 1
gene 1 143 21 -0.512346 0 504 -0.512346 1
gene 1 2 154 -0.0335054 0 538 -0.0335054 1
gene 1 154 22 -0.0283258 0 539 -0.0283258 1
gene 1 6 31 0.391476 0 566 0.391476 1
gene 1 154 154 -0.283902 1 724 -0.283902 1
gene 1 16 31 -0.360671 0 730 0 1
gene 1 2 224 0.61149 0 775 0.61149 1
gene 1 224 23 -0.144004 0 776 -0.144004 1
gene 1 143 143 -0.193862 1 904 -0.193862 1
gene 1 4 143 0.0256005 0 955 0.0256005 1
gene 1 1 80 -0.317584 0 980 -0.317584 1
gene 1 20 154 0.299898 0 1001 0.299898 1
gene 1 13 276 1 0 1017 0 1
gene 1 276 23 0.0238876 0 1018 0 1
gene 1 276 43 0.254026 0 1100 0.254026 1
genomeend 6964
genomestart 7006
trait 1 0.420693 0.608749 0.832451 0.722286 0.437228 0.835555 0.407336 0.950205 
node 1 1 1 1 0
node 2 1 1 1 0
node 3 1 1 1 0
node 4 1 1 1 0
node 5 1 1 1 0
node 6 1 1 1 0
node 7 1 1 1 0
node 8 1 1 1 0
node 9 1 1 1 0
node 10 1 1 1 0
node 11 1 1 1 0
node 12 1 1 1 0
node 13 1 1 1 0
node 14 1 1 1 0
node 15 1 1 1 0
node 16 1 1 1 0
node 17 1 1 1 0
node 18 1 1 1 0
node 19 1 1 3 0
node 20 1 0 2 0
node 21 1 0 2 0
node 22 1 0 2 0
node 23 1 0 2 0
node 31 1 0 0 0
node 43 1 0 0 0
node 80 1 0 0 0
node 121 1 0 0 0
node 125 1 0 0 0
node 129 1 0 0 0
node 135 1 0 0 0
node 169 1 0 0 0
node 170 1 0 0 0
node 172 1 0 0 0
node 178 1 0 0 0
node 179 1 0 0 0
gene 1 1 20 -0.0157963 0 1 -0.0157963 1
gene 1 2 20 -0.0276649 0 2 -0.0276649 1
gene 1 3 20 0.121998 0 3 0.121998 1
gene 1 4 20 0.127018 0 4 0.127018 1
gene 1 5 20 -0.785041 0 5 -0.785041 1
gene 1 6 20 0.1597 0 6 0.1597 1
gene 1 7 20 0.188936 0 7 0.188936 1
gene 1 8 20 -0.407043 0 8 -0.407043 1
gene 1 9 20 1.45945 0 9 1.45945 1
gene 1 10 20 -0.761988 0 10 -0.761988 1
gene 1 11 20 1.18106 0 11 1.18106 1
gene 1 12 20 0.886353 0 12 0.886353 1
gene 1 13 20 0.655453 0 13 0.655453 1
gene 1 14 20 0.617779 0 14 0.617779 1
gene 1 15 20 -1.20612 0 15 -1.20612 1
gene 1 16 20 -0.727352 0 16 -0.727352 1
gene 1 17 20 0.0997158 0 17 0.0997158 1
gene 1 18 20 -0.150495 0 18 -0.150495 1
gene 1 19 20 1.14517 0 19 1.14517 1
gene 1 1 21 -0.353013 0 20 -0.353013 1
gene 1 2 21 -0.170895 0 21 -0.170895 1
gene 1 3 21 -0.0256979 0 22 -0.0256979 1
gene 1 4 21 1.50938 0 23 1.50938 1
gene 1 5 21 -0.303903 0 24 -0.303903 1
gene 1 6 21 0.620631 0 25 0.620631 1
gene 1 7 21 -0.0408295 0 26 -0.0408295 1
gene 1 8 21 0.885853 0 27 0.885853 1
gene 1 9 21 -0.0801213 0 28 -0.0801213 1
gene 1 10 21 0.451608 0 29 0.451608 1
gene 1 11 21 1.65012 0 30 1.65012 1
gene 1 12 21 0.878203 0 31 0.878203 1
gene 1 13 21 0.361402 0 32 0.361402 1
gene 1 14 21 0.752896 0 33 0.752896 1
gene 1 15 21 -1.23706 0 34 -1.23706 1
gene 1 16 21 0.112405 0 35 0.112405 1
gene 1 17 21 0.805619 0 36 0.805619 1
gene 1 18 21 -0.420396 0 37 -0.420396 1
gene 1 19 21 -0.753478 0 38 -0.753478 1
gene 1 1 22 0.19846 0 39 0.19846 1
gene 1 2 22 -0.246258 0 40 -0.246258 1
gene 1 3 22 -0.243423 0 41 -0.243423 1
gene 1 4 22 -0.649339 0 42 -0.649339 1
gene 1 5 22 0.0337431 0 43 0.0337431 1
gene 1 6 22 0.794613 0 44 0.794613 1
gene 1 7 22 0.670653 0 45 0.670653 1
gene 1 8 22 -0.0759333 0 46 -0.0759333 1
gene 1 9 22 -0.26495 0 47 -0.26495 1
gene 1 10 22 0.903514 0 48 0.903514 1
gene 1 11 22 -0.022104 0 49 -0.022104 1
gene 1 12 22 -0.594364 0 50 -0.594364 1
gene 1 13 22 -0.392574 0 51 -0.392574 1
gene 1 14 22 -0.12556 0 52 -0.12556 1
gene 1 15 22 -0.76331 0 53 -0.76331 1
gene 1 16 22 -0.00548048 0 54 -0.00548048 1
gene 1 17 22 -0.687196 0 55 -0.687196 1
gene 1 18 22 0.276418 0 56 0.276418 1
gene 1 19 22 -0.796599 0 57 -0.796599 1
gene 1 1 23 0.219189 0 58 0.219189 1
gene 1 2 23 0.556156 0 59 0.556156 0
gene 1 3 23 -0.62544 0 60 -0.62544 1
gene 1 4 23 0.702737 0 61 0.702737 1
gene 1 5 23 -0.191942 0 62 -0.191942 1
gene 1 6 23 2.46628 0 63 2.46628 1
gene 1 7 23 0.673929 0 64 0.673929 1
gene 1 8 23 0.119244 0 65 0.119244 1
gene 1 9 23 0.101171 0 66 0.101171 1
gene 1 10 23 -0.564334 0 67 -0.564334 1
gene 1 11 23 -0.615816 0 68 -0.615816 0
gene 1 12 23 0.0914335 0 69 0.0914335 1
gene 1 13 23 1.14533 0 70 1.14533 1
gene 1 14 23 -2.63316 0 71 -2.63316 1
gene 1 15 23 0.228379 0 72 0.228379 1
gene 1 16 23 -0.902625 0 73 -0.902625 1
gene 1 17 23 1.79581 0 74 1.79581 1
gene 1 18 23 -0.106271 0 75 -0.106271 1
gene 1 19 23 -0.102575 0 76 -0.102575 1
gene 1 20 21 -0.20584 0 78 -0.20584 1
gene 1 22 23 -0.0101568 0 79 -0.0101568 0
gene 1 7 31 -0.112155 0 101 -0.112155 1
gene 1 31 23 -0.306268 0 102 -0.306268 1
gene 1 10 43 0.37928 0 137 0.37928 0
gene 1 43 20 -0.349067 0 138 -0.349067 1
gene 1 1 31 0.144637 0 197 0.144637 0
gene 1 18 80 0.297423 0 241 0.297423 1
gene 1 80 23 -0.234752 0 242 -0.234752 1
gene 1 12 43 0.642601 0 386 0.642601 1
gene 1 23 23 1.25707 1 407 1.25707 1
gene 1 31 21 -0.248507 0 413 -0.248507 1
gene 1 1 121 -0.148365 0 414 -0.148365 1
gene 1 121 31 -0.491367 0 415 -0.491367 1
gene 1 20 20 0.326651 1 426 0.326651 1
gene 1 11 125 -0.0197385 0 430 -0.0197385 1
gene 1 125 23 -0.587867 0 431 -0.587867 1
gene 1 19 125 0.322161 0 435 0.322161 1
gene 1 43 21 0.956157 0 438 0.956157 1
gene 1 10 129 1.63416 0 444 1.63416 1
gene 1 129 21 -1.4205 0 445 -1.4205 1
gene 1 2 43 -1.05588 0 452 -1.05588 1
gene 1 11 43 1.72682 0 462 1.72682 1
gene 1 43 23 -0.275525 0 464 -0.275525 1
gene 1 22 21 1.23676 0 473 1.23676 1
gene 1 13 135 0.325876 0 475 0.325876 1
gene 1 135 23 0.00745747 0 476 0.00745747 1
gene 1 20 22 -0.465927 0 492 -0.465927 1
gene 1 3 121 -0.0545412 0 536 -0.0545412 1
gene 1 121 43 -0.0914348 0 583 -0.0914348 1
gene 1 7 169 0.155146 0 584 0.155146 1
gene 1 169 22 0.601672 0 585 0.601672 1
gene 1 2 170 0.00860435 0 587 0.00860435 1
gene 1 170 20 0.0824044 0 588 0.0824044 1
gene 1 22 172 -0.0358043 0 595 -0.0358043 1
gene 1 172 23 -1.65307 0 596 -1.65307 1
gene 1 10 178 0.562433 0 612 0.562433 1
gene 1 178 43 0.184949 0 613 0.184949 1
gene 1 2 179 0.0496878 0 614 0.0496878 1
gene 1 179 23 0.21975 0 615 0.21975 1
gene 1 15 172 -0.242279 0 636 -0.242279 1
gene 1 43 129 0.581518 0 672 0.581518 1
gene 1 16 170 0.57806 0 743 0.57806 1
gene 1 12 135 0.0200912 0 746 0.0200912 1
gene 1 20 80 -0.112616 0 750 -0.112616 1
gene 1 12 129 -0.362187 0 872 -0.362187 1
gene 1 31 179 0.4491 0 921 0.4491 1
gene 1 16 135 0.392515 0 975 0.392515 1
gene 1 18 31 -0.859567 0 1011 -0.859567 1
gene 1 178 179 -0.435274 0 1022 -0.435274 1
gene 1 135 22 -0.109618 0 1072 -0.109618 1
genomeend 7006
genomestart 7031
trait 1 0.281468 0.821017 0.280166 0.773886 0.605744 0.759585 0.628938 0.606833 
node 1 1 1 1 0
node 2 1 1 1 0
node 3 1 1 1 0
node 4 1 1 1 0
node 5 1 1 1 0
node 6 1 1 1 0
node 7 1 1 1 0
node 8 1 1 1 0
node 9 1 1 1 0
node 10 1 1 1 0
node 11 1 1 1 0
node 12 1 1 1 0
node 13 1 1 1 0
node 14 1 1 1 0
node 15 1 1 1 0
node 16 1 1 1 0
node 17 1 1 1 0
node 18 1 1 1 0
node 19 1 1 3 0
node 20 1 0 2 0
node 21 1 0 2 0
node 22 1 0 2 0
node 23 1 0 2 0
node 31 1 0 0 0
node 43 1 0 0 0
node 80 1 0 0 0
node 112 1 0 0 0
node 117 1 0 0 0
node 128 1 0 0 0
node 141 1 0 0 0
node 149 1 0 0 0
node 191 1 0 0 0
node 202 1 0 0 0
node 204 1 0 0 0
node 208 1 0 0 0
node 219 1 0 0 0
node 224 1 0 0 0
node 227 1 0 0 0
node 236 1 0 0 0
node 238 1 0 0 0
node 257 1 0 0 0
gene 1 1 20 0.154062 0 1 0.154062 1
gene 1 2 20 0.0532647 0 2 0.0532647 1
gene 1 3 20 -0.877482 0 3 -0.877482 1
gene 1 4 20 -0.010565 0 4 -0.010565 1
gene 1 5 20 -0.776971 0 5 -0.776971 1
gene 1 6 20 0.227791 0 6 0.227791 1
gene 1 7 20 -0.399561 0 7 -0.399561 1
gene 1 8 20 0.852001 0 8 0.852001 1
gene 1 9 20 0.58888 0 9 0.58888 1
gene 1 10 20 0.0515987 0 10 0.0515987 1
gene 1 11 20 0.539966 0 11 0.539966 1
gene 1 12 20 0.463948 0 12 0.463948 1
gene 1 13 20 1.27592 0 13 1.27592 1
gene 1 14 20 -0.059878 0 14 -0.059878 0
gene 1 15 20 0.0233685 0 15 0.0233685 1
gene 1 16 20 2.22451 0 16 2.22451 1
gene 1 17 20 -0.395106 0 17 -0.395106 1
gene 1 18 20 -0.50931 0 18 -0.50931 1
gene 1 19 20 1.07934 0 19 1.07934 1
gene 1 1 21 -1.82318 0 20 -1.82318 1
gene 1 2 21 -0.841999 0 21 -0.841999 1
gene 1 3 21 0.448775 0 22 0.448775 1
gene 1 4 21 -0.248634 0 23 -0.248634 1
gene 1 5 21 0.198929 0 24 0.198929 1
gene 1 6 21 0.0235804 0 25 0.0235804 0
gene 1 7 21 -0.367163 0 26 -0.367163 1
gene 1 8 21 -0.709807 0 27 -0.709807 1
gene 1 9 21 0.216647 0 28 0.216647 1
gene 1 10 21 0.205033 0 29 0.205033 1
gene 1 11 21 0.33742 0 30 0.33742 1
gene 1 12 21 0.15017 0 31 0.15017 1
gene 1 13 21 -0.227091 0 32 -0.227091 1
gene 1 14 21 0.612017 0 33 0.612017 1
gene 1 15 21 -2.72061 0 34 -2.72061 1
gene 1 16 21 -0.320347 0 35 -0.320347 1
gene 1 17 21 0.268596 0 36 0.268596 1
gene 1 18 21 1.02738 0 37 1.02738 0
gene 1 19 21 -0.926998 0 38 -0.926998 1
gene 1 1 22 0.628433 0 39 0.628433 1
gene 1 2 22 -1.30269 0 40 -1.30269 1
gene 1 3 22 0.903144 0 41 0.903144 1
gene 1 4 22 -0.222744 0 42 -0.222744 1
gene 1 5 22 -0.256971 0 43 -0.256971 1
gene 1 6 22 0.402459 0 44 0.402459 1
gene 1 7 22 -0.533293 0 45 -0.533293 1
gene 1 8 22 -0.376211 0 46 -0.376211 1
gene 1 9 22 -0.034105 0 47 -0.034105 1
gene 1 10 22 -1.32626 0 48 -1.32626 0
gene 1 11 22 -0.129593 0 49 -0.129593 1
gene 1 12 22 -0.394015 0 50 -0.394015 1
gene 1 13 22 -0.327977 0 51 -0.327977 1
gene 1 14 22 -0.619166 0 52 -0.619166 1
gene 1 15 22 -0.740825 0 53 -0.740825 1
gene 1 16 22 0.939098 0 54 0.939098 1
gene 1 17 22 -1.40271 0 55 -1.40271 1
gene 1 18 22 -2.36623 0 56 -2.36623 1
gene 1 19 22 0.6855 0 57 0.6855 1
gene 1 1 23 -0.147561 0 58 -0.147561 1
gene 1 2 23 -0.307658 0 59 -0.307658 0
gene 1 3 23 0.0533767 0 60 0.0533767 1
gene 1 4 23 0.0339658 0 61 0.0339658 1
gene 1 5 23 -0.29281 0 62 -0.29281 1
gene 1 6 23 -0.242756 0 63 -0.242756 1
gene 1 7 23 0.354708 0 64 0.354708 1
gene 1 8 23 -0.0125996 0 65 -0.0125996 1
gene 1 9 23 -1.64003 0 66 -1.64003 1
gene 1 10 23 -0.626802 0 67 -0.626802 1
gene 1 11 23 0.995473 0 68 0.995473 1
gene 1 12 23 -0.318786 0 69 -0.318786 1
gene 1 13 23 -1.15539 0 70 -1.15539 1
gene 1 14 23 -0.112455 0 71 -0.112455 1
gene 1 15 23 -0.0933459 0 72 -0.0933459 0
gene 1 16 23 0.144084 0 73 0.144084 1
gene 1 17 23 -0.88181 0 74 -0.88181 1
gene 1 18 23 0.52137 0 75 0.52137 0
gene 1 19 23 0.698751 0 76 0.698751 1
gene 1 20 21 0.09135 0 78 0.09135 1
gene 1 22 23 0.0632752 0 79 0.0632752 1
gene 1 7 31 -0.124686 0 101 -0.124686 1
gene 1 31 23 -1.14055 0 102 -1.14055 1
gene 1 10 43 -0.0435225 0 137 -0.0435225 1
gene 1 43 20 0.414252 0 138 0.414252 1
gene 1 1 31 -0.326164 0 197 -0.326164 1
gene 1 18 80 -0.573449 0 241 -0.573449 1
gene 1 80 23 0.27488 0 242 0.27488 1
gene 1 6 112 -0.0128577 0 380 -0.0128577 1
gene 1 112 21 0.292404 0 381 0.292404 1
gene 1 31 112 -0.371654 0 382 -0.371654 1
gene 1 12 43 0.230778 0 386 0.230778 1
gene 1 15 112 -0.140974 0 387 -0.140974 1
gene 1 112 20 -0.28852 0 396 -0.28852 1
gene 1 18 43 0.568757 0 397 0.568757 1
gene 1 43 31 1.05905 0 400 1.05905 1
gene 1 15 117 -1.25837 0 403 -1.25837 1
gene 1 117 23 -0.193562 0 404 -0.193562 1
gene 1 22 117 -0.205482 0 423 -0.205482 1
gene 1 10 128 -0.996087 0 440 -0.996087 1
gene 1 128 22 -0.799322 0 441 -0.799322 1
gene 1 1 112 0.0197738 0 443 0.0197738 1
gene 1 2 80 0.155817 0 451 0.155817 1
gene 1 6 141 -0.270491 0 497 -0.270491 1
gene 1 141 20 -0.133234 0 498 -0.133234 1
gene 1 18 149 -0.980531 0 519 -0.980531 1
gene 1 149 23 -0.0892446 0 520 -0.0892446 1
gene 1 80 80 -0.493759 1 551 -0.493759 1
gene 1 112 112 0.347558 1 597 0.347558 1
gene 1 23 23 0.0474284 1 623 0.0474284 1
gene 1 1 191 1.92749 0 649 1.92749 1
gene 1 191 20 0.992811 0 650 0.992811 1
gene 1 14 202 0.051916 0 686 0.051916 1
gene 1 202 20 0.0753222 0 687 0.0753222 1
gene 1 20 20 0.238871 1 688 0.238871 1
gene 1 3 204 0.315543 0 695 0.315543 1
gene 1 204 20 -0.0157692 0 696 -0.0157692 1
gene 1 8 208 0.0838171 0 707 0.0838171 1
gene 1 208 21 0.876479 0 708 0.876479 1
gene 1 4 31 0.252379 0 710 0.252379 1
gene 1 16 202 0.0433985 0 711 0.0433985 1
gene 1 202 23 -0.383199 0 748 -0.383199 1
gene 1 1 219 -0.0479234 0 759 -0.0479234 1
gene 1 219 23 0.0872201 0 760 0.0872201 1
gene 1 1 128 -0.072037 0 761 -0.072037 1
gene 1 2 224 0.135383 0 775 0.135383 1
gene 1 224 23 -0.805849 0 776 -0.805849 1
gene 1 17 112 0.0614314 0 782 0.0614314 1
gene 1 18 227 -0.248962 0 783 -0.248962 1
gene 1 227 43 -0.378577 0 784 -0.378577 1
gene 1 18 236 0.31848 0 808 0.31848 1
gene 1 236 21 -0.430975 0 809 -0.430975 1
gene 1 14 238 1.27992 0 814 1.27992 1
gene 1 238 21 -0.201405 0 815 -0.201405 1
gene 1 12 80 0.339615 0 822 0.339615 1
gene 1 202 202 -0.756903 1 824 -0.756903 1
gene 1 17 257 0.402228 0 908 0.402228 1
gene 1 257 22 0.545984 0 909 0.545984 1
gene 1 5 117 -0.259097 0 927 -0.259097 1
gene 1 128 23 -0.0486824 0 945 -0.0486824 1
genomeend 7031
genomestart 7044
trait 1 0.281468 0.821017 0.280166 0.773886 0.588468 0.692413 0.526299 0.529891 
node 1 1 1 1 0
node 2 1 1 1 0
node 3 1 1 1 0
node 4 1 1 1 0
node 5 1 1 1 0
node 6 1 1 1 0
node 7 1 1 1 0
node 8 1 1 1 0
node 9 1 1 1 0
node 10 1 1 1 0
node 11 1 1 1 0
node 12 1 1 1 0
node 13 1 1 1 0
node 14 1 1 1 0
node 15 1 1 1 0
node 16 1 1 1 0
node 17 1 1 1 0
node 18 1 1 1 0
node 19 1 1 3 0
node 20 1 0 2 0
node 21 1 0 2 0
node 22 1 0 2 0
node 23 1 0 2 0
node 31 1 0 0 0
node 43 1 0 0 0
node 80 1 0 0 0
node 112 1 0 0 0
node 117 1 0 0 0
node 128 1 0 0 0
node 141 1 0 0 0
node 149 1 0 0 0
node 191 1 0 0 0
node 202 1 0 0 0
node 204 1 0 0 0
node 208 1 0 0 0
node 219 1 0 0 0
node 224 1 0 0 0
node 227 1 0 0 0
node 236 1 0 0 0
node 237 1 0 0 0
node 238 1 0 0 0
node 257 1 0 0 0
gene 1 1 20 0.154062 0 1 0.154062 1
gene 1 2 20 0.0532647 0 2 0.0532647 1
gene 1 3 20 -0.0584064 0 3 -0.0584064 1
gene 1 4 20 0.132381 0 4 0.132381 1
gene 1 5 20 0.607279 0 5 0.607279 1
gene 1 6 20 0.0679023 0 6 0.0679023 1
gene 1 7 20 -0.399561 0 7 -0.399561 1
gene 1 8 20 0.00962136 0 8 0.00962136 1
gene 1 9 20 0.31522 0 9 0.31522 1
gene 1 10 20 0.0515987 0 10 0.0515987 1
gene 1 11 20 0.494936 0 11 0.494936 1
gene 1 12 20 -0.356619 0 12 -0.356619 1
gene 1 13 20 1.90043 0 13 1.90043 1
gene 1 14 20 -0.059878 0 14 -0.059878 0
gene 1 15 20 0.0233685 0 15 0.0233685 1
gene 1 16 20 0.705737 0 16 0.705737 1
gene 1 17 20 1.23175 0 17 1.23175 1
gene 1 18 20 -0.50931 0 18 -0.50931 1
gene 1 19 20 1.17316 0 19 1.17316 1
gene 1 1 21 -1.7597 0 20 -1.7597 1
gene 1 2 21 -0.841999 0 21 -0.841999 1
gene 1 3 21 0.0360975 0 22 0.0360975 1
gene 1 4 21 -0.0364519 0 23 -0.0364519 1
gene 1 5 21 0.441783 0 24 0.441783 1
gene 1 6 21 0.124133 0 25 0.124133 0
gene 1 7 21 -0.367163 0 26 -0.367163 1
gene 1 8 21 -0.210897 0 27 -0.210897 1
gene 1 9 21 0.216647 0 28 0.216647 1
gene 1 10 21 0.18827 0 29 0.18827 1
gene 1 11 21 0.33742 0 30 0.33742 1
gene 1 12 21 0.859958 0 31 0.859958 1
gene 1 13 21 0.377722 0 32 0.377722 1
gene 1 14 21 0.612017 0 33 0.612017 1
gene 1 15 21 -2.63582 0 34 -2.63582 1
gene 1 16 21 0.286254 0 35 0.286254 1
gene 1 17 21 0.268596 0 36 0.268596 1
gene 1 18 21 0.505954 0 37 0.505954 0
gene 1 19 21 -0.556854 0 38 -0.556854 1
gene 1 1 22 -1.00111 0 39 -1.00111 1
gene 1 2 22 -1.30269 0 40 -1.30269 1
gene 1 3 22 0.799446 0 41 0.799446 1
gene 1 4 22 -0.222744 0 42 -0.222744 1
gene 1 5 22 -0.707606 0 43 -0.707606 1
gene 1 6 22 0.402459 0 44 0.402459 1
gene 1 7 22 -0.441385 0 45 -0.441385 1
gene 1 8 22 0.0087033 0 46 0.0087033 1
gene 1 9 22 -0.034105 0 47 -0.034105 1
gene 1 10 22 -1.32626 0 48 -1.32626 0
gene 1 11 22 -0.129593 0 49 -0.129593 1
gene 1 12 22 -0.499112 0 50 -0.499112 1
gene 1 13 22 1.55629 0 51 1.55629 1
gene 1 14 22 -0.619166 0 52 -0.619166 1
gene 1 15 22 -0.740825 0 53 -0.740825 1
gene 1 16 22 0.320062 0 54 0.320062 1
gene 1 17 22 -0.865467 0 55 -0.865467 1
gene 1 18 22 -2.36623 0 56 -2.36623 1
gene 1 19 22 0.568847 0 57 0.568847 1
gene 1 1 23 -0.450551 0 58 -0.450551 1
gene 1 2 23 -0.0258999 0 59 -0.0258999 0
gene 1 3 23 0.0533767 0 60 0.0533767 1
gene 1 4 23 0.0339658 0 61 0.0339658 1
gene 1 5 23 0.266572 0 62 0.266572 1
gene 1 6 23 -0.242756 0 63 -0.242756 1
gene 1 7 23 0.354708 0 64 0.354708 1
gene 1 8 23 0.34452 0 65 0.34452 1
gene 1 9 23 -2.38188 0 66 -2.38188 1
gene 1 10 23 -0.607026 0 67 -0.607026 1
gene 1 11 23 0.267507 0 68 0.267507 1
gene 1 12 23 -0.318786 0 69 -0.318786 1
gene 1 13 23 -0.9724 0 70 -0.9724 1
gene 1 14 23 1.07704 0 71 1.07704 1
gene 1 15 23 -0.0933459 0 72 -0.0933459 1
gene 1 16 23 -0.395415 0 73 -0.395415 1
gene 1 17 23 -0.88181 0 74 -0.88181 1
gene 1 18 23 -0.953575 0 75 -0.953575 0
gene 1 19 23 1.06454 0 76 1.06454 1
gene 1 20 21 -0.240914 0 78 -0.240914 1
gene 1 22 23 0.0632752 0 79 0.0632752 1
gene 1 7 31 -0.124686 0 101 -0.124686 1
gene 1 31 23 0.796063 0 102 0.796063 1
gene 1 10 43 -0.203749 0 137 -0.203749 1
gene 1 43 20 0.490817 0 138 0.490817 1
gene 1 1 31 0.188376 0 197 0.188376 1
gene 1 18 80 -0.969469 0 241 -0.969469 1
gene 1 80 23 -0.491436 0 242 -0.491436 1
gene 1 6 112 -0.0128577 0 380 -0.0128577 1
gene 1 112 21 0.292404 0 381 0.292404 1
gene 1 31 112 -0.371654 0 382 -0.371654 1
gene 1 12 43 0.550648 0 386 0.550648 1
gene 1 15 112 -0.816114 0 387 -0.816114 1
gene 1 112 20 -0.285385 0 396 -0.285385 1
gene 1 18 43 0.522894 0 397 0.522894 1
gene 1 43 31 1.16116 0 400 1.16116 1
gene 1 15 117 -0.565043 0 403 -0.565043 1
gene 1 117 23 -0.193562 0 404 -0.193562 1
gene 1 22 117 -0.205482 0 423 -0.205482 1
gene 1 10 128 -0.269846 0 440 -0.269846 1
gene 1 128 22 -0.407204 0 441 -0.407204 1
gene 1 1 112 0.0197738 0 443 0.0197738 1
gene 1 2 80 0.155817 0 451 0.155817 1
gene 1 6 141 0.383622 0 497 0.383622 1
gene 1 141 20 -0.133234 0 498 -0.133234 1
gene 1 18 149 -0.980531 0 519 -0.980531 1
gene 1 149 23 -0.0892446 0 520 -0.0892446 1
gene 1 80 80 -0.493759 1 551 -0.493759 1
gene 1 112 112 0.308022 1 597 0.308022 1
gene 1 23 23 0.0474284 1 623 0.0474284 1
gene 1 1 191 0.302736 0 649 0.302736 1
gene 1 191 20 0.992811 0 650 0.992811 1
gene 1 14 202 0.0160604 0 686 0.0160604 1
gene 1 202 20 0.0753222 0 687 0.0753222 1
gene 1 20 20 1.14788 1 688 1.14788 1
gene 1 3 204 -0.306756 0 695 -0.306756 1
gene 1 204 20 0.650542 0 696 0.650542 0
gene 1 8 208 0.0838171 0 707 0.0838171 1
gene 1 208 21 0.876479 0 708 0.876479 1
gene 1 4 31 0.252379 0 710 0.252379 1
gene 1 16 202 0.243974 0 711 0.243974 1
gene 1 202 23 -0.618904 0 748 -0.618904 1
gene 1 1 219 -0.0355773 0 759 -0.0355773 1
gene 1 219 23 0.0872201 0 760 0.0872201 1
gene 1 1 128 -0.072037 0 761 -0.072037 1
gene 1 2 224 0.524747 0 775 0.524747 1
gene 1 224 23 -0.805849 0 776 -0.805849 1
gene 1 17 112 -0.58901 0 782 -0.58901 1
gene 1 18 227 -0.6908 0 783 -0.6908 1
gene 1 227 43 -0.378577 0 784 -0.378577 1
gene 1 18 236 0.31848 0 808 0.31848 1
gene 1 236 21 -0.405337 0 809 -0.405337 1
gene 1 204 237 1 0 812 0 1
gene 1 237 20 0.195163 0 813 0 1
gene 1 14 238 1.27992 0 814 1.27992 1
gene 1 238 21 0.26094 0 815 0.26094 1
gene 1 12 80 0.339615 0 822 0.339615 1
gene 1 202 202 -0.756903 1 824 -0.756903 1
gene 1 17 257 0.625404 0 908 0.625404 1
gene 1 257 22 0.545984 0 909 0.545984 1
gene 1 5 117 0.454815 0 927 0.454815 1
gene 1 128 23 -0.0486824 0 945 -0.0486824 1
genomeend 7044
genomestart 7145
trait 1 0.463065 0.902201 0.200341 0.905459 0.564946 0.922485 0.530036 0.686975 
node 1 1 1 1 0
node 2 1 1 1 0
node 3 1 1 1 0
node 4 1 1 1 0
node 5 1 1 1 0
node 6 1 1 1 0
node 7 1 1 1 0
node 8 1 1 1 0
node 9 1 1 1 0
node 10 1 1 1 0
node 11 1 1 1 0
node 12 1 1 1 0
node 13 1 1 1 0
node 14 1 1 1 0
node 15 1 1 1 0
node 16 1 1 1 0
node 17 1 1 1 0
node 18 1 1 1 0
node 19 1 1 3 0
node 20 1 0 2 0
node 21 1 0 2 0
node 22 1 0 2 0
node 23 1 0 2 0
node 31 1 0 0 0
node 43 1 0 0 0
node 80 1 0 0 0
node 112 1 0 0 0
node 128 1 0 0 0
node 202 1 0 0 0
node 204 1 0 0 0
node 227 1 0 0 0
gene 1 1 20 -0.258164 0 1 -0.258164 1
gene 1 2 20 0.0476418 0 2 0.0476418 1
gene 1 3 20 -0.464692 0 3 -0.464692 1
gene 1 4 20 0.325694 0 4 0.325694 1
gene 1 5 20 -0.206182 0 5 -0.206182 1
gene 1 6 20 0.126987 0 6 0.126987 1
gene 1 7 20 1.2291 0 7 1.2291 1
gene 1 8 20 0.300484 0 8 0.300484 1
gene 1 9 20 1.62502 0 9 1.62502 1
gene 1 10 20 -0.314931 0 10 -0.314931 1
gene 1 11 20 2.706 0 11 2.706 1
gene 1 12 20 -0.192289 0 12 -0.192289 1
gene 1 13 20 1.01734 0 13 1.01734 1
gene 1 14 20 -0.320866 0 14 -0.320866 0
gene 1 15 20 0.0147623 0 15 0.0147623 1
gene 1 16 20 0.851738 0 16 0.851738 1
gene 1 17 20 0.142394 0 17 0.142394 1
gene 1 18 20 -1.03435 0 18 -1.03435 1
gene 1 19 20 2.50836 0 19 2.50836 1
gene 1 1 21 -0.536944 0 20 -0.536944 1
gene 1 2 21 -0.15036 0 21 -0.15036 1
gene 1 3 21 -0.556391 0 22 -0.556391 1
gene 1 4 21 -0.544026 0 23 -0.544026 1
gene 1 5 21 -0.206532 0 24 -0.206532 1
gene 1 6 21 0.646366 0 25 0.646366 1
gene 1 7 21 1.11304 0 26 1.11304 1
gene 1 8 21 -0.424256 0 27 -0.424256 1
gene 1 9 21 0.230226 0 28 0.230226 1
gene 1 10 21 0.481245 0 29 0.481245 1
gene 1 11 21 2.72721 0 30 2.72721 1
gene 1 12 21 0.614432 0 31 0.614432 1
gene 1 13 21 -0.506057 0 32 -0.506057 1
gene 1 14 21 0.00945765 0 33 0.00945765 1
gene 1 15 21 -1.43483 0 34 -1.43483 1
gene 1 16 21 -0.163154 0 35 -0.163154 1
gene 1 17 21 0.613115 0 36 0.613115 1
gene 1 18 21 1.17973 0 37 1.17973 1
gene 1 19 21 -0.975685 0 38 -0.975685 1
gene 1 1 22 0.114455 0 39 0.114455 1
gene 1 2 22 0.418263 0 40 0.418263 1
gene 1 3 22 0.331086 0 41 0.331086 1
gene 1 4 22 -0.505111 0 42 -0.505111 1
gene 1 5 22 0.155977 0 43 0.155977 1
gene 1 6 22 -0.781598 0 44 -0.781598 1
gene 1 7 22 1.003 0 45 1.003 1
gene 1 8 22 0.318199 0 46 0.318199 1
gene 1 9 22 -0.0573159 0 47 -0.0573159 1
gene 1 10 22 -0.0923388 0 48 -0.0923388 1
gene 1 11 22 -0.293768 0 49 -0.293768 1
gene 1 12 22 -0.296688 0 50 -0.296688 1
gene 1 13 22 -0.397255 0 51 -0.397255 1
gene 1 14 22 -0.563366 0 52 -0.563366 1
gene 1 15 22 0.089009 0 53 0.089009 1
gene 1 16 22 0.286397 0 54 0.286397 1
gene 1 17 22 -1.2091 0 55 -1.2091 1
gene 1 18 22 -0.80662 0 56 -0.80662 1
gene 1 19 22 0.886115 0 57 0.886115 1
gene 1 1 23 -0.505785 0 58 -0.505785 1
gene 1 2 23 0.445233 0 59 0.445233 1
gene 1 3 23 0.385903 0 60 0.385903 1
gene 1 4 23 1.59538 0 61 1.59538 1
gene 1 5 23 -0.633911 0 62 -0.633911 1
gene 1 6 23 -0.170349 0 63 -0.170349 1
gene 1 7 23 -0.225949 0 64 -0.225949 1
gene 1 8 23 -0.748403 0 65 -0.748403 1
gene 1 9 23 -1.42753 0 66 -1.42753 1
gene 1 10 23 -0.503078 0 67 -0.503078 1
gene 1 11 23 0.261054 0 68 0.261054 1
gene 1 12 23 -0.204426 0 69 -0.204426 1
gene 1 13 23 -0.272042 0 70 -0.272042 1
gene 1 14 23 -0.175014 0 71 -0.175014 1
gene 1 15 23 0.270811 0 72 0.270811 1
gene 1 16 23 0.219721 0 73 0.219721 1
gene 1 17 23 1.6296 0 74 1.6296 1
gene 1 18 23 0.0649361 0 75 0.0649361 1
gene 1 19 23 0.196667 0 76 0.196667 1
gene 1 20 21 0.410217 0 78 0.410217 1
gene 1 22 23 -0.367478 0 79 -0.367478 1
gene 1 7 31 -0.408722 0 101 -0.408722 1
gene 1 31 23 0.890216 0 102 0.890216 1
gene 1 10 43 -0.110237 0 137 -0.110237 1
gene 1 43 20 0.91621 0 138 0.91621 1
gene 1 1 31 -0.762895 0 197 -0.762895 1
gene 1 18 80 0.441913 0 241 0.441913 1
gene 1 80 23 0.195253 0 242 0.195253 1
gene 1 6 112 0.085027 0 380 0.085027 1
gene 1 112 21 0.231075 0 381 0.231075 1
gene 1 12 43 -0.552234 0 386 -0.552234 1
gene 1 112 20 0.314195 0 396 0.314195 1
gene 1 18 43 0.311328 0 397 0.311328 1
gene 1 10 128 0.827702 0 440 0.827702 1
gene 1 128 22 0.613009 0 441 0.613009 1
gene 1 1 112 -0.036697 0 443 -0.036697 1
gene 1 112 112 -0.155848 1 597 -0.155848 1
gene 1 23 23 -0.537593 1 623 -0.537593 1
gene 1 14 202 0.227392 0 686 0.227392 1
gene 1 202 20 0.258312 0 687 0.258312 1
gene 1 3 204 1.10147 0 695 1.10147 1
gene 1 204 20 -0.363246 0 696 -0.363246 1
gene 1 4 31 -0.0456328 0 710 -0.0456328 1
gene 1 16 202 0.45143 0 711 0.45143 1
gene 1 202 23 0.0924743 0 748 0.0924743 1
gene 1 18 227 0.201271 0 783 0.201271 1
gene 1 227 43 0.929704 0 784 0.929704 1
gene 1 128 23 -0.196156 0 945 -0.196156 1
genomeend 7145
genomestart 7164
trait 1 0.272888 0.833702 0.128264 0.747311 0.316623 0.838263 0.721169 0.695 
node 1 1 1 1 0
node 2 1 1 1 0
node 3 1 1 1 0
node 4 1 1 1 0
node 5 1 1 1 0
node 6 1 1 1 0
node 7 1 1 1 0
node 8 1 1 1 0
node 9 1 1 1 0
node 10 1 1 1 0
node 11 1 1 1 0
node 12 1 1 1 0
node 13 1 1 1 0
node 14 1 1 1 0
node 15 1 1 1 0
node 16 1 1 1 0
node 17 1 1 1 0
node 18 1 1 1 0
node 19 1 1 3 0
node 20 1 0 2 0
node 21 1 0 2 0
node 22 1 0 2 0
node 23 1 0 2 0
node 31 1 0 0 0
node 43 1 0 0 0
node 80 1 0 0 0
node 112 1 0 0 0
node 117 1 0 0 0
node 128 1 0 0 0
node 141 1 0 0 0
node 149 1 0 0 0
node 191 1 0 0 0
node 202 1 0 0 0
node 204 1 0 0 0
node 208 1 0 0 0
node 219 1 0 0 0
node 224 1 0 0 0
node 227 1 0 0 0
node 236 1 0 0 0
node 238 1 0 0 0
node 257 1 0 0 0
gene 1 1 20 1.38269 0 1 1.38269 1
gene 1 2 20 -0.222412 0 2 -0.222412 1
gene 1 3 20 0.169979 0 3 0.169979 1
gene 1 4 20 -0.0636954 0 4 -0.0636954 1
gene 1 5 20 1.05119 0 5 1.05119 1
gene 1 6 20 0.147846 0 6 0.147846 1
gene 1 7 20 -0.781772 0 7 -0.781772 1
gene 1 8 20 -0.444904 0 8 -0.444904 1
gene 1 9 20 0.45205 0 9 0.45205 1
gene 1 10 20 0.231052 0 10 0.231052 1
gene 1 11 20 0.141205 0 11 0.141205 1
gene 1 12 20 0.327716 0 12 0.327716 1
gene 1 13 20 2.0651 0 13 2.0651 1
gene 1 14 20 -0.564262 0 14 -0.564262 0
gene 1 15 20 0.468695 0 15 0.468695 1
gene 1 16 20 0.303655 0 16 0.303655 1
gene 1 17 20 0.307659 0 17 0.307659 1
gene 1 18 20 0.391776 0 18 0.391776 1
gene 1 19 20 1.43557 0 19 1.43557 1
gene 1 1 21 -0.239271 0 20 -0.239271 1
gene 1 2 21 -0.266075 0 21 -0.266075 1
gene 1 3 21 -0.125888 0 22 -0.125888 1
gene 1 4 21 -0.489052 0 23 -0.489052 1
gene 1 5 21 0.724818 0 24 0.724818 1
gene 1 6 21 0.122911 0 25 0.122911 0
gene 1 7 21 -1.00726 0 26 -1.00726 1
gene 1 8 21 -0.505518 0 27 -0.505518 1
gene 1 9 21 0.634057 0 28 0.634057 1
gene 1 10 21 0.132545 0 29 0.132545 1
gene 1 11 21 -0.107176 0 30 -0.107176 1
gene 1 12 21 0.832721 0 31 0.832721 1
gene 1 13 21 -0.613734 0 32 -0.613734 1
gene 1 14 21 0.612017 0 33 0.612017 1
gene 1 15 21 -2.48752 0 34 -2.48752 1
gene 1 16 21 -0.151513 0 35 -0.151513 1
gene 1 17 21 0.119244 0 36 0.119244 1
gene 1 18 21 0.258207 0 37 0.258207 0
gene 1 19 21 -0.397905 0 38 -0.397905 1
gene 1 1 22 0.380972 0 39 0.380972 1
gene 1 2 22 -0.157104 0 40 -0.157104 1
gene 1 3 22 1.05359 0 41 1.05359 1
gene 1 4 22 0.0846409 0 42 0.0846409 1
gene 1 5 22 -0.524723 0 43 -0.524723 1
gene 1 6 22 0.994505 0 44 0.994505 1
gene 1 7 22 -0.863029 0 45 -0.863029 1
gene 1 8 22 -0.276327 0 46 -0.276327 1
gene 1 9 22 -0.086432 0 47 -0.086432 1
gene 1 10 22 -0.962882 0 48 -0.962882 0
gene 1 11 22 -0.455292 0 49 -0.455292 1
gene 1 12 22 -0.0757391 0 50 -0.0757391 1
gene 1 13 22 0.52092 0 51 0.52092 1
gene 1 14 22 0.0306234 0 52 0.0306234 1
gene 1 15 22 -0.0317632 0 53 -0.0317632 1
gene 1 16 22 0.369891 0 54 0.369891 1
gene 1 17 22 -0.80035 0 55 -0.80035 1
gene 1 18 22 -0.808544 0 56 -0.808544 1
gene 1 19 22 0.401915 0 57 0.401915 1
gene 1 1 23 0.382779 0 58 0.382779 1
gene 1 2 23 0.284426 0 59 0.284426 0
gene 1 3 23 -0.271509 0 60 -0.271509 1
gene 1 4 23 0.189738 0 61 0.189738 1
gene 1 5 23 -0.167775 0 62 -0.167775 1
gene 1 6 23 -0.18364 0 63 -0.18364 1
gene 1 7 23 0.255442 0 64 0.255442 1
gene 1 8 23 0.121352 0 65 0.121352 1
gene 1 9 23 -1.71769 0 66 -1.71769 1
gene 1 10 23 -0.0716422 0 67 -0.0716422 1
gene 1 11 23 0.114208 0 68 0.114208 1
gene 1 12 23 -0.0842944 0 69 -0.0842944 1
gene 1 13 23 -0.951337 0 70 -0.951337 1
gene 1 14 23 -0.47962 0 71 -0.47962 1
gene 1 15 23 0.164643 0 72 0.164643 0
gene 1 16 23 0.109956 0 73 0.109956 1
gene 1 17 23 -0.79694 0 74 -0.79694 1
gene 1 18 23 0.0574465 0 75 0.0574465 0
gene 1 19 23 -0.607258 0 76 -0.607258 1
gene 1 20 21 0.743917 0 78 0.743917 1
gene 1 22 23 -0.664346 0 79 -0.664346 1
gene 1 7 31 -0.175968 0 101 -0.175968 1
gene 1 31 23 0.164366 0 102 0.164366 1
gene 1 10 43 -0.118889 0 137 -0.118889 1
gene 1 43 20 -0.130275 0 138 -0.130275 1
gene 1 1 31 -0.472591 0 197 -0.472591 1
gene 1 18 80 -0.653982 0 241 -0.653982 1
gene 1 80 23 -0.109788 0 242 -0.109788 1
gene 1 6 112 0.260619 0 380 0.260619 1
gene 1 112 21 0.265725 0 381 0.265725 1
gene 1 31 112 -0.410401 0 382 -0.410401 1
gene 1 12 43 0.132496 0 386 0.132496 1
gene 1 15 112 -0.857286 0 387 -0.857286 1
gene 1 112 20 -0.664496 0 396 -0.664496 1
gene 1 18 43 0.0454958 0 397 0.0454958 1
gene 1 43 31 0.267308 0 400 0.267308 1
gene 1 15 117 -0.0726526 0 403 -0.0726526 1
gene 1 117 23 -0.42276 0 404 -0.42276 1
gene 1 22 117 -0.222427 0 423 -0.222427 1
gene 1 10 128 0.461308 0 440 0.461308 1
gene 1 128 22 -0.672227 0 441 -0.672227 1
gene 1 1 112 0.116784 0 443 0.116784 1
gene 1 2 80 -0.228823 0 451 -0.228823 1
gene 1 6 141 -0.0874039 0 497 -0.0874039 1
gene 1 141 20 0.474201 0 498 0.474201 1
gene 1 18 149 0.403111 0 519 0.403111 1
gene 1 149 23 0.234955 0 520 0.234955 1
gene 1 80 80 -0.0632518 1 551 -0.0632518 1
gene 1 112 112 0.32779 1 597 0.32779 1
gene 1 23 23 0.763656 1 623 0.763656 1
gene 1 1 191 0.953683 0 649 0.953683 1
gene 1 191 20 1.17358 0 650 1.17358 1
gene 1 14 202 0.911565 0 686 0.911565 1
gene 1 202 20 0.411413 0 687 0.411413 1
gene 1 20 20 0.21164 1 688 0.21164 1
gene 1 3 204 1.36291 0 695 1.36291 1
gene 1 204 20 0.271971 0 696 0.271971 1
gene 1 8 208 0.381477 0 707 0.381477 1
gene 1 208 21 0.234525 0 708 0.234525 1
gene 1 4 31 0.171495 0 710 0.171495 1
gene 1 16 202 -0.182661 0 711 -0.182661 1
gene 1 202 23 -0.970596 0 748 -0.970596 1
gene 1 1 219 -0.47667 0 759 -0.47667 1
gene 1 219 23 0.544999 0 760 0.544999 1
gene 1 1 128 -0.158233 0 761 -0.158233 1
gene 1 2 224 -0.201256 0 775 -0.201256 1
gene 1 224 23 -0.554575 0 776 -0.554575 1
gene 1 17 112 0.428071 0 782 0.428071 1
gene 1 18 227 -0.049775 0 783 -0.049775 1
gene 1 227 43 -0.0747856 0 784 -0.0747856 1
gene 1 18 236 -0.0300325 0 808 -0.0300325 1
gene 1 236 21 -0.557789 0 809 -0.557789 1
gene 1 14 238 0.0802341 0 814 0.0802341 1
gene 1 238 21 -0.418939 0 815 -0.418939 1
gene 1 12 80 -0.00446323 0 822 -0.00446323 1
gene 1 202 202 0.35491 1 824 0.35491 1
gene 1 17 257 -0.161323 0 908 -0.161323 1
gene 1 257 22 0.559268 0 909 0.559268 1
gene 1 5 117 -0.149941 0 927 -0.149941 1
gene 1 128 23 -0.268365 0 945 -0.268365 1
genomeend 7164
genomestart 7177
trait 1 0.546941 0.673632 0.648313 0.749561 0.389097 0.768942 0.333929 0.957068 
node 1 1 1 1 0
node 2 1 1 1 0
node 3 1 1 1 0
node 4 1 1 1 0
node 5 1 1 1 0
node 6 1 1 1 0
node 7 1 1 1 0
node 8 1 1 1 0
node 9 1 1 1 0
node 10 1 1 1 0
node 11 1 1 1 0
node 12 1 1 1 0
node 13 1 1 1 0
node 14 1 1 1 0
node 15 1 1 1 0
node 16 1 1 1 0
node 17 1 1 1 0
node 18 1 1 1 0
node 19 1 1 3 0
node 20 1 0 2 0
node 21 1 0 2 0
node 22 1 0 2 0
node 23 1 0 2 0
node 31 1 0 0 0
node 43 1 0 0 0
node 80 1 0 0 0
node 121 1 0 0 0
node 125 1 0 0 0
node 129 1 0 0 0
node 135 1 0 0 0
node 169 1 0 0 0
node 170 1 0 0 0
node 172 1 0 0 0
node 178 1 0 0 0
node 179 1 0 0 0
node 279 1 0 0 0
gene 1 1 20 -0.114733 0 1 -0.114733 1
gene 1 2 20 0.490002 0 2 0.490002 1
gene 1 3 20 0.848252 0 3 0.848252 1
gene 1 4 20 0.214826 0 4 0.214826 1
gene 1 5 20 -0.905314 0 5 -0.905314 1
gene 1 6 20 1.05381 0 6 1.05381 1
gene 1 7 20 -0.0947112 0 7 -0.0947112 1
gene 1 8 20 0.298383 0 8 0.298383 1
gene 1 9 20 1.2389 0 9 1.2389 1
gene 1 10 20 -0.546613 0 10 -0.546613 1
gene 1 11 20 1.598 0 11 1.598 1
gene 1 12 20 0.255515 0 12 0.255515 1
gene 1 13 20 0.0187729 0 13 0.0187729 1
gene 1 14 20 0.251822 0 14 0.251822 1
gene 1 15 20 -1.68649 0 15 -1.68649 1
gene 1 16 20 0.101316 0 16 0.101316 1
gene 1 17 20 -0.395396 0 17 -0.395396 1
gene 1 18 20 -0.113151 0 18 -0.113151 1
gene 1 19 20 0.082628 0 19 0.082628 1
gene 1 1 21 0.613712 0 20 0.613712 1
gene 1 2 21 -1.03592 0 21 -1.03592 1
gene 1 3 21 -0.140226 0 22 -0.140226 1
gene 1 4 21 0.978042 0 23 0.978042 1
gene 1 5 21 0.0072333 0 24 0.0072333 0
gene 1 6 21 0.389298 0 25 0.389298 1
gene 1 7 21 -0.554107 0 26 -0.554107 1
gene 1 8 21 0.69328 0 27 0.69328 1
gene 1 9 21 0.0292156 0 28 0.0292156 1
gene 1 10 21 1.20741 0 29 1.20741 1
gene 1 11 21 0.864719 0 30 0.864719 1
gene 1 12 21 0.13741 0 31 0.13741 1
gene 1 13 21 -0.257967 0 32 -0.257967 1
gene 1 14 21 -0.127916 0 33 -0.127916 1
gene 1 15 21 0.848555 0 34 0.848555 1
gene 1 16 21 0.532849 0 35 0.532849 1
gene 1 17 21 0.463093 0 36 0.463093 1
gene 1 18 21 0.0629936 0 37 0.0629936 1
