genomestart 238
trait 1 0.278239 0.832823 0.158329 0.74934 0.382657 0.818876 0.695443 0.672652 
node 1 1 1 1 0
node 2 1 1 1 0
node 3 1 1 1 0
node 4 1 1 1 0
node 5 1 1 1 0
node 6 1 1 1 0
node 7 1 1 1 0
node 8 1 1 1 0
node 9 1 1 1 0
node 10 1 1 1 0
node 11 1 1 1 0
node 12 1 1 1 0
node 13 1 1 1 0
node 14 1 1 1 0
node 15 1 1 1 0
node 16 1 1 1 0
node 17 1 1 1 0
node 18 1 1 1 0
node 19 1 1 3 0
node 20 1 0 2 0
node 21 1 0 2 0
node 22 1 0 2 0
node 23 1 0 2 0
node 31 1 0 0 0
node 43 1 0 0 0
node 80 1 0 0 0
node 112 1 0 0 0
node 117 1 0 0 0
node 128 1 0 0 0
node 141 1 0 0 0
node 149 1 0 0 0
node 191 1 0 0 0
node 202 1 0 0 0
node 204 1 0 0 0
node 208 1 0 0 0
node 219 1 0 0 0
node 224 1 0 0 0
node 227 1 0 0 0
node 236 1 0 0 0
node 238 1 0 0 0
node 257 1 0 0 0
gene 1 1 20 1.38269 0 1 1.38269 1
gene 1 2 20 -0.016949 0 2 -0.016949 1
gene 1 3 20 -0.291242 0 3 -0.291242 1
gene 1 4 20 -0.0636954 0 4 -0.0636954 1
gene 1 5 20 1.05119 0 5 1.05119 1
gene 1 6 20 0.147846 0 6 0.147846 1
gene 1 7 20 -0.579698 0 7 -0.579698 1
gene 1 8 20 -0.186942 0 8 -0.186942 1
gene 1 9 20 0.75195 0 9 0.75195 1
gene 1 10 20 0.231052 0 10 0.231052 1
gene 1 11 20 0.141205 0 11 0.141205 1
gene 1 12 20 0.327716 0 12 0.327716 1
gene 1 13 20 1.70359 0 13 1.70359 1
gene 1 14 20 -0.564262 0 14 -0.564262 0
gene 1 15 20 0.195582 0 15 0.195582 1
gene 1 16 20 0.303655 0 16 0.303655 1
gene 1 17 20 0.307659 0 17 0.307659 1
gene 1 18 20 0.391776 0 18 0.391776 1
gene 1 19 20 1.43557 0 19 1.43557 1
gene 1 1 21 -0.106886 0 20 -0.106886 1
gene 1 2 21 0.053795 0 21 0.053795 1
gene 1 3 21 -0.125888 0 22 -0.125888 1
gene 1 4 21 -0.224749 0 23 -0.224749 1
gene 1 5 21 0.567466 0 24 0.567466 1
gene 1 6 21 0.122911 0 25 0.122911 0
gene 1 7 21 -1.00726 0 26 -1.00726 1
gene 1 8 21 -0.505518 0 27 -0.505518 1
gene 1 9 21 0.634057 0 28 0.634057 1
gene 1 10 21 -0.098079 0 29 -0.098079 1
gene 1 11 21 -0.199949 0 30 -0.199949 1
gene 1 12 21 0.832721 0 31 0.832721 1
gene 1 13 21 -0.568475 0 32 -0.568475 1
gene 1 14 21 0.280264 0 33 0.280264 1
gene 1 15 21 -2.48752 0 34 -2.48752 1
gene 1 16 21 -0.151513 0 35 -0.151513 1
gene 1 17 21 0.346203 0 36 0.346203 1
gene 1 18 21 -0.129223 0 37 -0.129223 0
gene 1 19 21 -0.728587 0 38 -0.728587 1
gene 1 1 22 0.380972 0 39 0.380972 1
gene 1 2 22 -0.157104 0 40 -0.157104 1
gene 1 3 22 1.05359 0 41 1.05359 1
gene 1 4 22 -0.107633 0 42 -0.107633 1
gene 1 5 22 -0.524723 0 43 -0.524723 1
gene 1 6 22 0.994505 0 44 0.994505 1
gene 1 7 22 -0.863029 0 45 -0.863029 1
gene 1 8 22 -0.276327 0 46 -0.276327 1
gene 1 9 22 0.0185115 0 47 0.0185115 1
gene 1 10 22 -0.962882 0 48 -0.962882 0
gene 1 11 22 -0.455292 0 49 -0.455292 1
gene 1 12 22 -0.134872 0 50 -0.134872 1
gene 1 13 22 0.489592 0 51 0.489592 1
gene 1 14 22 0.0306234 0 52 0.0306234 1
gene 1 15 22 -0.0317632 0 53 -0.0317632 1
gene 1 16 22 0.369891 0 54 0.369891 1
gene 1 17 22 -0.326734 0 55 -0.326734 1
gene 1 18 22 -0.902213 0 56 -0.902213 1
gene 1 19 22 0.401367 0 57 0.401367 1
gene 1 1 23 -0.013055 0 58 -0.013055 1
gene 1 2 23 0.0938088 0 59 0.0938088 0
gene 1 3 23 -0.57664 0 60 -0.57664 1
gene 1 4 23 0.189738 0 61 0.189738 1
gene 1 5 23 -0.151393 0 62 -0.151393 1
gene 1 6 23 -0.120979 0 63 -0.120979 1
gene 1 7 23 0.255442 0 64 0.255442 1
gene 1 8 23 -0.0998365 0 65 -0.0998365 1
gene 1 9 23 -1.71769 0 66 -1.71769 1
gene 1 10 23 -0.211716 0 67 -0.211716 1
gene 1 11 23 0.139742 0 68 0.139742 1
gene 1 12 23 -0.0842944 0 69 -0.0842944 1
gene 1 13 23 -0.951337 0 70 -0.951337 1
gene 1 14 23 -0.47962 0 71 -0.47962 1
gene 1 15 23 -0.221131 0 72 -0.221131 0
gene 1 16 23 0.0380713 0 73 0.0380713 1
gene 1 17 23 -0.79694 0 74 -0.79694 1
gene 1 18 23 0.0574465 0 75 0.0574465 0
gene 1 19 23 -0.607258 0 76 -0.607258 1
gene 1 20 21 0.743917 0 78 0.743917 1
gene 1 22 23 -0.664346 0 79 -0.664346 1
gene 1 7 31 0.123521 0 101 0.123521 1
gene 1 31 23 0.164366 0 102 0.164366 1
gene 1 10 43 -0.118889 0 137 -0.118889 1
gene 1 43 20 0.204326 0 138 0.204326 1
gene 1 1 31 -0.642239 0 197 -0.642239 1
gene 1 18 80 -0.653982 0 241 -0.653982 1
gene 1 80 23 -0.109788 0 242 -0.109788 1
gene 1 6 112 -0.104653 0 380 -0.104653 1
gene 1 112 21 0.582971 0 381 0.582971 1
gene 1 31 112 -0.410401 0 382 -0.410401 1
gene 1 12 43 0.132496 0 386 0.132496 1
gene 1 15 112 -0.857286 0 387 -0.857286 1
gene 1 112 20 -0.664496 0 396 -0.664496 1
gene 1 18 43 -0.0484346 0 397 -0.0484346 1
gene 1 43 31 0.267308 0 400 0.267308 1
gene 1 15 117 -0.633456 0 403 -0.633456 1
gene 1 117 23 -0.42276 0 404 -0.42276 1
gene 1 22 117 -0.222427 0 423 -0.222427 1
gene 1 10 128 0.461308 0 440 0.461308 1
gene 1 128 22 -0.672227 0 441 -0.672227 1
gene 1 1 112 0.116784 0 443 0.116784 1
gene 1 2 80 -0.228823 0 451 -0.228823 1
gene 1 6 141 -0.0874039 0 497 -0.0874039 1
gene 1 141 20 0.474201 0 498 0.474201 1
gene 1 18 149 -0.49813 0 519 -0.49813 1
gene 1 149 23 0.213471 0 520 0.213471 1
gene 1 80 80 -0.0632518 1 551 -0.0632518 1
gene 1 112 112 0.371851 1 597 0.371851 1
gene 1 23 23 0.722684 1 623 0.722684 1
gene 1 1 191 1.31153 0 649 1.31153 1
gene 1 191 20 1.23946 0 650 1.23946 1
gene 1 14 202 0.777986 0 686 0.777986 1
gene 1 202 20 0.402832 0 687 0.402832 1
gene 1 20 20 0.21164 1 688 0.21164 1
gene 1 3 204 0.676042 0 695 0.676042 1
gene 1 204 20 -0.0962155 0 696 -0.0962155 1
gene 1 8 208 0.052177 0 707 0.052177 1
gene 1 208 21 -0.048546 0 708 -0.048546 1
gene 1 4 31 -0.0040995 0 710 -0.0040995 1
gene 1 16 202 -0.182661 0 711 -0.182661 1
gene 1 202 23 -0.970596 0 748 -0.970596 1
gene 1 1 219 -0.47667 0 759 -0.47667 1
gene 1 219 23 0.812345 0 760 0.812345 1
gene 1 1 128 -0.158233 0 761 -0.158233 1
gene 1 2 224 -0.182483 0 775 -0.182483 1
gene 1 224 23 -0.554575 0 776 -0.554575 1
gene 1 17 112 0.324388 0 782 0.324388 1
gene 1 18 227 -0.420289 0 783 -0.420289 1
gene 1 227 43 -0.0747856 0 784 -0.0747856 1
gene 1 18 236 -0.0300325 0 808 -0.0300325 1
gene 1 236 21 -0.557789 0 809 -0.557789 1
gene 1 14 238 -0.229198 0 814 -0.229198 1
gene 1 238 21 -0.418939 0 815 -0.418939 1
gene 1 12 80 -0.0756946 0 822 -0.0756946 1
gene 1 202 202 0.35491 1 824 0.35491 1
gene 1 17 257 -0.161323 0 908 -0.161323 1
gene 1 257 22 0.559268 0 909 0.559268 1
gene 1 5 117 -0.006858 0 927 -0.006858 1
gene 1 128 23 -0.268365 0 945 -0.268365 1
genomeend 238
genomestart 314
trait 1 0.435634 0.894051 0.200279 0.897581 0.565104 0.922322 0.574206 0.700793 
node 1 1 1 1 0
node 2 1 1 1 0
node 3 1 1 1 0
node 4 1 1 1 0
node 5 1 1 1 0
node 6 1 1 1 0
node 7 1 1 1 0
node 8 1 1 1 0
node 9 1 1 1 0
node 10 1 1 1 0
node 11 1 1 1 0
node 12 1 1 1 0
node 13 1 1 1 0
node 14 1 1 1 0
node 15 1 1 1 0
node 16 1 1 1 0
node 17 1 1 1 0
node 18 1 1 1 0
node 19 1 1 3 0
node 20 1 0 2 0
node 21 1 0 2 0
node 22 1 0 2 0
node 23 1 0 2 0
node 31 1 0 0 0
node 43 1 0 0 0
node 80 1 0 0 0
node 112 1 0 0 0
node 128 1 0 0 0
node 202 1 0 0 0
node 204 1 0 0 0
node 227 1 0 0 0
gene 1 1 20 0.00986096 0 1 0.00986096 1
gene 1 2 20 0.0680494 0 2 0.0680494 1
gene 1 3 20 -0.517195 0 3 -0.517195 1
gene 1 4 20 0.821005 0 4 0.821005 1
gene 1 5 20 -0.180312 0 5 -0.180312 1
gene 1 6 20 0.533273 0 6 0.533273 1
gene 1 7 20 0.527192 0 7 0.527192 1
gene 1 8 20 0.731983 0 8 0.731983 1
gene 1 9 20 1.31009 0 9 1.31009 1
gene 1 10 20 -0.37327 0 10 -0.37327 1
gene 1 11 20 0.168873 0 11 0.168873 1
gene 1 12 20 -0.312666 0 12 -0.312666 1
gene 1 13 20 0.751455 0 13 0.751455 1
gene 1 14 20 -0.77834 0 14 -0.77834 0
gene 1 15 20 -0.00797501 0 15 -0.00797501 1
gene 1 16 20 2.16081 0 16 2.16081 1
gene 1 17 20 0.0114451 0 17 0.0114451 1
gene 1 18 20 0.349162 0 18 0.349162 1
gene 1 19 20 2.28257 0 19 2.28257 1
gene 1 1 21 -0.39759 0 20 -0.39759 1
gene 1 2 21 -0.272761 0 21 -0.272761 1
gene 1 3 21 -0.416306 0 22 -0.416306 1
gene 1 4 21 -0.227867 0 23 -0.227867 1
gene 1 5 21 0.335857 0 24 0.335857 1
gene 1 6 21 1.10893 0 25 1.10893 1
gene 1 7 21 0.953252 0 26 0.953252 1
gene 1 8 21 -0.0397635 0 27 -0.0397635 1
gene 1 9 21 0.217071 0 28 0.217071 1
gene 1 10 21 -0.442539 0 29 -0.442539 1
gene 1 11 21 0.348179 0 30 0.348179 1
gene 1 12 21 -0.159445 0 31 -0.159445 1
gene 1 13 21 -0.926173 0 32 -0.926173 1
gene 1 14 21 -0.314325 0 33 -0.314325 1
gene 1 15 21 -2.3535 0 34 -2.3535 1
gene 1 16 21 -0.594537 0 35 -0.594537 1
gene 1 17 21 0.553397 0 36 0.553397 1
gene 1 18 21 1.43326 0 37 1.43326 1
gene 1 19 21 -0.207114 0 38 -0.207114 1
gene 1 1 22 0.202996 0 39 0.202996 1
gene 1 2 22 0.604349 0 40 0.604349 1
gene 1 3 22 -0.490861 0 41 -0.490861 1
gene 1 4 22 -0.295088 0 42 -0.295088 1
gene 1 5 22 0.155753 0 43 0.155753 1
gene 1 6 22 -0.378356 0 44 -0.378356 1
gene 1 7 22 -0.145483 0 45 -0.145483 1
gene 1 8 22 0.259036 0 46 0.259036 1
gene 1 9 22 -0.209023 0 47 -0.209023 1
gene 1 10 22 0.278252 0 48 0.278252 0
gene 1 11 22 0.0325162 0 49 0.0325162 1
gene 1 12 22 -0.014853 0 50 -0.014853 1
gene 1 13 22 0.724397 0 51 0.724397 1
gene 1 14 22 -0.592147 0 52 -0.592147 1
gene 1 15 22 0.0316441 0 53 0.0316441 1
gene 1 16 22 -0.108765 0 54 -0.108765 1
gene 1 17 22 -0.80253 0 55 -0.80253 1
gene 1 18 22 -1.22598 0 56 -1.22598 1
gene 1 19 22 0.485155 0 57 0.485155 1
gene 1 1 23 -0.69128 0 58 -0.69128 1
gene 1 2 23 0.209791 0 59 0.209791 1
gene 1 3 23 0.0573873 0 60 0.0573873 1
gene 1 4 23 1.41575 0 61 1.41575 1
gene 1 5 23 0.479249 0 62 0.479249 1
gene 1 6 23 0.281009 0 63 0.281009 1
gene 1 7 23 -0.63863 0 64 -0.63863 1
gene 1 8 23 0.304924 0 65 0.304924 1
gene 1 9 23 0.137367 0 66 0.137367 1
gene 1 10 23 0.481886 0 67 0.481886 1
gene 1 11 23 0.765599 0 68 0.765599 1
gene 1 12 23 -0.218132 0 69 -0.218132 1
gene 1 13 23 -0.425302 0 70 -0.425302 1
gene 1 14 23 -0.579084 0 71 -0.579084 1
gene 1 15 23 0.596768 0 72 0.596768 1
gene 1 16 23 -0.310513 0 73 -0.310513 1
gene 1 17 23 -0.246668 0 74 -0.246668 1
gene 1 18 23 -0.385586 0 75 -0.385586 1
gene 1 19 23 0.48361 0 76 0.48361 1
gene 1 20 21 0.314394 0 78 0.314394 1
gene 1 22 23 -0.390511 0 79 -0.390511 1
gene 1 7 31 0.0910877 0 101 0.0910877 1
gene 1 31 23 0.172682 0 102 0.172682 1
gene 1 10 43 0.0754081 0 137 0.0754081 1
gene 1 43 20 1.38459 0 138 1.38459 1
gene 1 1 31 -0.630151 0 197 -0.630151 1
gene 1 18 80 0.226441 0 241 0.226441 1
gene 1 80 23 0.227865 0 242 0.227865 1
gene 1 6 112 -0.403732 0 380 -0.403732 1
gene 1 112 21 0.327529 0 381 0.327529 1
gene 1 12 43 -0.109162 0 386 -0.109162 1
gene 1 112 20 -0.129892 0 396 -0.129892 1
gene 1 18 43 -0.0832914 0 397 -0.0832914 0
gene 1 10 128 -0.382131 0 440 -0.382131 1
gene 1 128 22 0.596367 0 441 0.596367 1
gene 1 1 112 -0.300072 0 443 -0.300072 1
gene 1 112 112 -0.291371 1 597 -0.291371 1
gene 1 23 23 0.351048 1 623 0.351048 1
gene 1 14 202 -0.111336 0 686 -0.111336 1
gene 1 202 20 0.64591 0 687 0.64591 1
gene 1 3 204 1.332 0 695 1.332 1
gene 1 204 20 0.188493 0 696 0.188493 1
gene 1 4 31 0.00232845 0 710 0.00232845 1
gene 1 16 202 0.946219 0 711 0.946219 1
gene 1 202 23 -0.639713 0 748 -0.639713 1
gene 1 18 227 0.979475 0 783 0.979475 1
gene 1 227 43 0.652447 0 784 0.652447 1
gene 1 128 23 0.228479 0 945 0.228479 1
gene 1 227 20 -0.409576 0 1105 -0.409576 1
genomeend 314
genomestart 589
trait 1 0.44935 0.898126 0.20031 0.90152 0.565025 0.922403 0.552121 0.693884 
node 1 1 1 1 0
node 2 1 1 1 0
node 3 1 1 1 0
node 4 1 1 1 0
node 5 1 1 1 0
node 6 1 1 1 0
node 7 1 1 1 0
node 8 1 1 1 0
node 9 1 1 1 0
node 10 1 1 1 0
node 11 1 1 1 0
node 12 1 1 1 0
node 13 1 1 1 0
node 14 1 1 1 0
node 15 1 1 1 0
node 16 1 1 1 0
node 17 1 1 1 0
node 18 1 1 1 0
node 19 1 1 3 0
node 20 1 0 2 0
node 21 1 0 2 0
node 22 1 0 2 0
node 23 1 0 2 0
node 31 1 0 0 0
node 43 1 0 0 0
node 80 1 0 0 0
node 112 1 0 0 0
node 128 1 0 0 0
node 202 1 0 0 0
node 204 1 0 0 0
node 227 1 0 0 0
gene 1 1 20 -0.236901 0 1 -0.236901 1
gene 1 2 20 0.059543 0 2 0.059543 1
gene 1 3 20 0.298591 0 3 0.298591 1
gene 1 4 20 0.182371 0 4 0.182371 1
gene 1 5 20 0.057914 0 5 0.057914 1
gene 1 6 20 0.681585 0 6 0.681585 1
gene 1 7 20 0.629729 0 7 0.629729 1
gene 1 8 20 -0.477586 0 8 -0.477586 1
gene 1 9 20 1.24032 0 9 1.24032 1
gene 1 10 20 0.0356792 0 10 0.0356792 1
gene 1 11 20 3 0 11 3 1
gene 1 12 20 -0.391034 0 12 -0.391034 1
gene 1 13 20 1.72993 0 13 1.72993 1
gene 1 14 20 0.205538 0 14 0.205538 0
gene 1 15 20 -0.244431 0 15 -0.244431 1
gene 1 16 20 1.60944 0 16 1.60944 1
gene 1 17 20 -0.0664602 0 17 -0.0664602 1
gene 1 18 20 -0.298729 0 18 -0.298729 1
gene 1 19 20 2.2944 0 19 2.2944 1
gene 1 1 21 -1.1278 0 20 -1.1278 1
gene 1 2 21 -0.828769 0 21 -0.828769 1
gene 1 3 21 -0.625327 0 22 -0.625327 1
gene 1 4 21 -0.339083 0 23 -0.339083 1
gene 1 5 21 -0.202123 0 24 -0.202123 1
gene 1 6 21 0.21408 0 25 0.21408 1
gene 1 7 21 1.02721 0 26 1.02721 1
gene 1 8 21 -0.282063 0 27 -0.282063 1
gene 1 9 21 -0.127271 0 28 -0.127271 1
gene 1 10 21 -0.171013 0 29 -0.171013 1
gene 1 11 21 -0.0604252 0 30 -0.0604252 1
gene 1 12 21 1.41602 0 31 1.41602 1
gene 1 13 21 -0.321316 0 32 -0.321316 1
gene 1 14 21 -0.895293 0 33 -0.895293 1
gene 1 15 21 0.926004 0 34 0.926004 1
gene 1 16 21 -1.19337 0 35 -1.19337 1
gene 1 17 21 0.226591 0 36 0.226591 1
gene 1 18 21 0.819444 0 37 0.819444 1
gene 1 19 21 -2.84192 0 38 -2.84192 1
gene 1 1 22 0.374197 0 39 0.374197 1
gene 1 2 22 0.556556 0 40 0.556556 1
gene 1 3 22 -0.332973 0 41 -0.332973 1
gene 1 4 22 0.0598355 0 42 0.0598355 1
gene 1 5 22 -0.35057 0 43 -0.35057 1
gene 1 6 22 -0.0280716 0 44 -0.0280716 1
gene 1 7 22 0.253119 0 45 0.253119 1
gene 1 8 22 0.409671 0 46 0.409671 1
gene 1 9 22 0.39947 0 47 0.39947 1
gene 1 10 22 -0.19874 0 48 -0.19874 0
gene 1 11 22 0.227482 0 49 0.227482 1
gene 1 12 22 -0.214387 0 50 -0.214387 1
gene 1 13 22 0.848451 0 51 0.848451 1
gene 1 14 22 -0.983311 0 52 -0.983311 1
gene 1 15 22 -0.726526 0 53 -0.726526 1
gene 1 16 22 -0.198787 0 54 -0.198787 1
gene 1 17 22 -0.300115 0 55 -0.300115 1
gene 1 18 22 0.130516 0 56 0.130516 1
gene 1 19 22 0.374825 0 57 0.374825 1
gene 1 1 23 -0.400945 0 58 -0.400945 1
gene 1 2 23 0.817342 0 59 0.817342 1
gene 1 3 23 0.077362 0 60 0.077362 1
gene 1 4 23 1.13357 0 61 1.13357 1
gene 1 5 23 -0.560698 0 62 -0.560698 1
gene 1 6 23 0.227626 0 63 0.227626 1
gene 1 7 23 -1.01243 0 64 -1.01243 1
gene 1 8 23 -0.655355 0 65 -0.655355 1
gene 1 9 23 -1.06588 0 66 -1.06588 1
gene 1 10 23 -0.043664 0 67 -0.043664 1
gene 1 11 23 -0.0642925 0 68 -0.0642925 1
gene 1 12 23 -0.592187 0 69 -0.592187 1
gene 1 13 23 -0.407672 0 70 -0.407672 1
gene 1 14 23 -0.238229 0 71 -0.238229 1
gene 1 15 23 0.868796 0 72 0.868796 1
gene 1 16 23 -0.897417 0 73 -0.897417 1
gene 1 17 23 2.45901 0 74 2.45901 1
gene 1 18 23 0.602215 0 75 0.602215 1
gene 1 19 23 0.551758 0 76 0.551758 1
gene 1 20 21 0.246329 0 78 0.246329 1
gene 1 22 23 -0.106001 0 79 -0.106001 1
gene 1 7 31 -0.585554 0 101 -0.585554 1
gene 1 31 23 0.587451 0 102 0.587451 1
gene 1 10 43 -0.370778 0 137 -0.370778 1
gene 1 43 20 0.986918 0 138 0.986918 1
gene 1 1 31 -0.430026 0 197 -0.430026 1
gene 1 18 80 0.552198 0 241 0.552198 1
gene 1 80 23 0.262461 0 242 0.262461 1
gene 1 6 112 0.0454523 0 380 0.0454523 1
gene 1 112 21 0.876853 0 381 0.876853 1
gene 1 12 43 -1.03892 0 386 -1.03892 1
gene 1 112 20 0.849033 0 396 0.849033 1
gene 1 18 43 0.880714 0 397 0.880714 0
gene 1 10 128 0.377846 0 440 0.377846 1
gene 1 128 22 0.491224 0 441 0.491224 1
gene 1 1 112 0.12367 0 443 0.12367 1
gene 1 112 112 0.151668 1 597 0.151668 1
gene 1 23 23 0.00934865 1 623 0.00934865 1
gene 1 14 202 -0.107588 0 686 -0.107588 1
gene 1 202 20 -0.0265388 0 687 -0.0265388 1
gene 1 3 204 1.48972 0 695 1.48972 1
gene 1 204 20 0.354062 0 696 0.354062 1
gene 1 4 31 0.208637 0 710 0.208637 1
gene 1 16 202 0.445203 0 711 0.445203 1
gene 1 202 23 -0.279545 0 748 -0.279545 1
gene 1 18 227 -0.466039 0 783 -0.466039 1
gene 1 227 43 -0.233986 0 784 -0.233986 1
gene 1 128 23 -0.111348 0 945 -0.111348 1
genomeend 589
genomestart 741
trait 1 0.275564 0.833262 0.143296 0.748325 0.34964 0.828569 0.708306 0.683826 
node 1 1 1 1 0
node 2 1 1 1 0
node 3 1 1 1 0
node 4 1 1 1 0
node 5 1 1 1 0
node 6 1 1 1 0
node 7 1 1 1 0
node 8 1 1 1 0
node 9 1 1 1 0
node 10 1 1 1 0
node 11 1 1 1 0
node 12 1 1 1 0
node 13 1 1 1 0
node 14 1 1 1 0
node 15 1 1 1 0
node 16 1 1 1 0
node 17 1 1 1 0
node 18 1 1 1 0
node 19 1 1 3 0
node 20 1 0 2 0
node 21 1 0 2 0
node 22 1 0 2 0
node 23 1 0 2 0
node 31 1 0 0 0
node 43 1 0 0 0
node 80 1 0 0 0
node 112 1 0 0 0
node 117 1 0 0 0
node 128 1 0 0 0
node 141 1 0 0 0
node 149 1 0 0 0
node 191 1 0 0 0
node 202 1 0 0 0
node 204 1 0 0 0
node 208 1 0 0 0
node 219 1 0 0 0
node 224 1 0 0 0
node 227 1 0 0 0
node 236 1 0 0 0
node 238 1 0 0 0
node 257 1 0 0 0
gene 1 1 20 1.38269 0 1 1.38269 1
gene 1 2 20 -0.016949 0 2 -0.016949 1
gene 1 3 20 -0.291242 0 3 -0.291242 1
gene 1 4 20 -0.0636954 0 4 -0.0636954 1
gene 1 5 20 1.05119 0 5 1.05119 1
gene 1 6 20 0.147846 0 6 0.147846 1
gene 1 7 20 -0.781772 0 7 -0.781772 1
gene 1 8 20 -0.444904 0 8 -0.444904 1
gene 1 9 20 0.45205 0 9 0.45205 1
gene 1 10 20 0.231052 0 10 0.231052 1
gene 1 11 20 0.141205 0 11 0.141205 1
gene 1 12 20 0.327716 0 12 0.327716 1
gene 1 13 20 1.70359 0 13 1.70359 1
gene 1 14 20 -0.564262 0 14 -0.564262 0
gene 1 15 20 0.195582 0 15 0.195582 1
gene 1 16 20 0.303655 0 16 0.303655 1
gene 1 17 20 0.307659 0 17 0.307659 1
gene 1 18 20 0.391776 0 18 0.391776 1
gene 1 19 20 1.43557 0 19 1.43557 1
gene 1 1 21 -0.239271 0 20 -0.239271 1
gene 1 2 21 0.053795 0 21 0.053795 1
gene 1 3 21 -0.125888 0 22 -0.125888 1
gene 1 4 21 -0.224749 0 23 -0.224749 1
gene 1 5 21 0.567466 0 24 0.567466 1
gene 1 6 21 0.122911 0 25 0.122911 0
gene 1 7 21 -1.00726 0 26 -1.00726 1
gene 1 8 21 -0.505518 0 27 -0.505518 1
gene 1 9 21 0.634057 0 28 0.634057 1
gene 1 10 21 0.132545 0 29 0.132545 1
gene 1 11 21 -0.199949 0 30 -0.199949 1
gene 1 12 21 0.832721 0 31 0.832721 1
gene 1 13 21 -0.613734 0 32 -0.613734 1
gene 1 14 21 0.280264 0 33 0.280264 1
gene 1 15 21 -2.48752 0 34 -2.48752 1
gene 1 16 21 -0.151513 0 35 -0.151513 1
gene 1 17 21 0.346203 0 36 0.346203 1
gene 1 18 21 0.258207 0 37 0.258207 0
gene 1 19 21 -0.397905 0 38 -0.397905 1
gene 1 1 22 0.380972 0 39 0.380972 1
gene 1 2 22 -0.157104 0 40 -0.157104 1
gene 1 3 22 1.05359 0 41 1.05359 1
gene 1 4 22 -0.107633 0 42 -0.107633 1
gene 1 5 22 -0.524723 0 43 -0.524723 1
gene 1 6 22 0.994505 0 44 0.994505 1
gene 1 7 22 -0.863029 0 45 -0.863029 1
gene 1 8 22 -0.276327 0 46 -0.276327 1
gene 1 9 22 -0.086432 0 47 -0.086432 1
gene 1 10 22 -0.962882 0 48 -0.962882 0
gene 1 11 22 -0.455292 0 49 -0.455292 1
gene 1 12 22 -0.0757391 0 50 -0.0757391 1
gene 1 13 22 0.52092 0 51 0.52092 1
gene 1 14 22 0.0306234 0 52 0.0306234 1
gene 1 15 22 -0.0317632 0 53 -0.0317632 1
gene 1 16 22 0.369891 0 54 0.369891 1
gene 1 17 22 -0.326734 0 55 -0.326734 1
gene 1 18 22 -0.808544 0 56 -0.808544 1
gene 1 19 22 0.401367 0 57 0.401367 1
gene 1 1 23 -0.013055 0 58 -0.013055 1
gene 1 2 23 0.0938088 0 59 0.0938088 0
gene 1 3 23 -0.271509 0 60 -0.271509 1
gene 1 4 23 0.189738 0 61 0.189738 1
gene 1 5 23 -0.151393 0 62 -0.151393 1
gene 1 6 23 -0.120979 0 63 -0.120979 1
gene 1 7 23 0.255442 0 64 0.255442 1
gene 1 8 23 -0.0998365 0 65 -0.0998365 1
gene 1 9 23 -1.71769 0 66 -1.71769 1
gene 1 10 23 -0.211716 0 67 -0.211716 1
gene 1 11 23 0.114208 0 68 0.114208 1
gene 1 12 23 -0.0842944 0 69 -0.0842944 1
gene 1 13 23 -0.951337 0 70 -0.951337 1
gene 1 14 23 -0.47962 0 71 -0.47962 1
gene 1 15 23 0.164643 0 72 0.164643 0
gene 1 16 23 0.0380713 0 73 0.0380713 1
gene 1 17 23 -0.79694 0 74 -0.79694 1
gene 1 18 23 0.0574465 0 75 0.0574465 0
gene 1 19 23 -0.607258 0 76 -0.607258 1
gene 1 20 21 0.743917 0 78 0.743917 1
gene 1 22 23 -0.664346 0 79 -0.664346 1
gene 1 7 31 -0.175968 0 101 -0.175968 1
gene 1 31 23 0.164366 0 102 0.164366 1
gene 1 10 43 -0.118889 0 137 -0.118889 1
gene 1 43 20 0.204326 0 138 0.204326 1
gene 1 1 31 -0.642239 0 197 -0.642239 1
gene 1 18 80 -0.653982 0 241 -0.653982 1
gene 1 80 23 -0.109788 0 242 -0.109788 1
gene 1 6 112 -0.104653 0 380 -0.104653 1
gene 1 112 21 0.265725 0 381 0.265725 1
gene 1 31 112 -0.410401 0 382 -0.410401 1
gene 1 12 43 0.132496 0 386 0.132496 1
gene 1 15 112 -0.857286 0 387 -0.857286 1
gene 1 112 20 -0.664496 0 396 -0.664496 1
gene 1 18 43 0.0454958 0 397 0.0454958 1
gene 1 43 31 0.267308 0 400 0.267308 1
gene 1 15 117 -0.633456 0 403 -0.633456 1
gene 1 117 23 -0.42276 0 404 -0.42276 1
gene 1 22 117 -0.222427 0 423 -0.222427 1
gene 1 10 128 0.461308 0 440 0.461308 1
gene 1 128 22 -0.672227 0 441 -0.672227 1
gene 1 1 112 0.116784 0 443 0.116784 1
gene 1 2 80 -0.228823 0 451 -0.228823 1
gene 1 6 141 -0.0874039 0 497 -0.0874039 1
gene 1 141 20 0.474201 0 498 0.474201 1
gene 1 18 149 0.403111 0 519 0.403111 1
gene 1 149 23 0.213471 0 520 0.213471 1
gene 1 80 80 -0.0632518 1 551 -0.0632518 1
gene 1 112 112 0.32779 1 597 0.32779 1
gene 1 23 23 0.722684 1 623 0.722684 1
gene 1 1 191 1.31153 0 649 1.31153 1
gene 1 191 20 1.23946 0 650 1.23946 1
gene 1 14 202 0.777986 0 686 0.777986 1
gene 1 202 20 0.411413 0 687 0.411413 1
gene 1 20 20 0.21164 1 688 0.21164 1
gene 1 3 204 0.676042 0 695 0.676042 1
gene 1 204 20 0.271971 0 696 0.271971 1
gene 1 8 208 0.052177 0 707 0.052177 1
gene 1 208 21 0.234525 0 708 0.234525 1
gene 1 4 31 -0.0040995 0 710 -0.0040995 1
gene 1 16 202 -0.182661 0 711 -0.182661 1
gene 1 202 23 -0.970596 0 748 -0.970596 1
gene 1 1 219 -0.47667 0 759 -0.47667 1
gene 1 219 23 0.544999 0 760 0.544999 1
gene 1 1 128 -0.158233 0 761 -0.158233 1
gene 1 2 224 -0.182483 0 775 -0.182483 1
gene 1 224 23 -0.554575 0 776 -0.554575 1
gene 1 17 112 0.428071 0 782 0.428071 1
gene 1 18 227 -0.420289 0 783 -0.420289 1
gene 1 227 43 -0.0747856 0 784 -0.0747856 1
gene 1 18 236 -0.0300325 0 808 -0.0300325 1
gene 1 236 21 -0.557789 0 809 -0.557789 1
gene 1 14 238 0.0802341 0 814 0.0802341 1
gene 1 238 21 -0.418939 0 815 -0.418939 1
gene 1 12 80 -0.0756946 0 822 -0.0756946 1
gene 1 202 202 0.35491 1 824 0.35491 1
gene 1 17 257 -0.161323 0 908 -0.161323 1
gene 1 257 22 0.559268 0 909 0.559268 1
gene 1 5 117 -0.006858 0 927 -0.006858 1
gene 1 128 23 -0.268365 0 945 -0.268365 1
gene 1 12 112 0.731304 0 1103 0.731304 1
genomeend 741
genomestart 763
trait 1 0.478549 0.641889 0.740361 0.722286 0.421849 0.783396 0.393057 0.948929 
node 1 1 1 1 0
node 2 1 1 1 0
node 3 1 1 1 0
node 4 1 1 1 0
node 5 1 1 1 0
node 6 1 1 1 0
node 7 1 1 1 0
node 8 1 1 1 0
node 9 1 1 1 0
node 10 1 1 1 0
node 11 1 1 1 0
node 12 1 1 1 0
node 13 1 1 1 0
node 14 1 1 1 0
node 15 1 1 1 0
node 16 1 1 1 0
node 17 1 1 1 0
node 18 1 1 1 0
node 19 1 1 3 0
node 20 1 0 2 0
node 21 1 0 2 0
node 22 1 0 2 0
node 23 1 0 2 0
node 31 1 0 0 0
node 43 1 0 0 0
node 80 1 0 0 0
node 121 1 0 0 0
node 125 1 0 0 0
node 129 1 0 0 0
node 135 1 0 0 0
node 169 1 0 0 0
node 170 1 0 0 0
node 172 1 0 0 0
node 178 1 0 0 0
node 179 1 0 0 0
node 281 1 0 0 0
node 285 1 0 0 0
node 291 1 0 0 0
gene 1 1 20 0.360436 0 1 0.360436 1
gene 1 2 20 1.18029 0 2 1.18029 1
gene 1 3 20 0.746632 0 3 0.746632 1
gene 1 4 20 -0.130064 0 4 -0.130064 1
gene 1 5 20 -1.81407 0 5 -1.81407 1
gene 1 6 20 -0.104064 0 6 -0.104064 1
gene 1 7 20 0.821283 0 7 0.821283 1
gene 1 8 20 0.450035 0 8 0.450035 1
gene 1 9 20 -0.226867 0 9 -0.226867 1
gene 1 10 20 0.0356832 0 10 0.0356832 1
gene 1 11 20 -0.0250369 0 11 -0.0250369 1
gene 1 12 20 1.60197 0 12 1.60197 1
gene 1 13 20 -0.272962 0 13 -0.272962 1
gene 1 14 20 -0.00985958 0 14 -0.00985958 1
gene 1 15 20 -1.19873 0 15 -1.19873 1
gene 1 16 20 0.704963 0 16 0.704963 1
gene 1 17 20 1.26772 0 17 1.26772 1
gene 1 18 20 -0.480232 0 18 -0.480232 1
gene 1 19 20 1.354 0 19 1.354 1
gene 1 1 21 0.338505 0 20 0.338505 0
gene 1 2 21 1.10326 0 21 1.10326 1
gene 1 3 21 -0.366906 0 22 -0.366906 1
gene 1 4 21 0.816972 0 23 0.816972 1
gene 1 5 21 -0.192587 0 24 -0.192587 1
gene 1 6 21 0.6028 0 25 0.6028 1
gene 1 7 21 -1.47544 0 26 -1.47544 1
gene 1 8 21 0.037594 0 27 0.037594 1
gene 1 9 21 -0.309704 0 28 -0.309704 1
gene 1 10 21 -0.17255 0 29 -0.17255 1
gene 1 11 21 -0.444838 0 30 -0.444838 1
gene 1 12 21 0.488451 0 31 0.488451 1
gene 1 13 21 0.315812 0 32 0.315812 1
gene 1 14 21 -0.746658 0 33 -0.746658 1
gene 1 15 21 -0.387821 0 34 -0.387821 1
gene 1 16 21 0.462374 0 35 0.462374 1
gene 1 17 21 1.23059 0 36 1.23059 1
gene 1 18 21 -0.245775 0 37 -0.245775 1
gene 1 19 21 -0.691268 0 38 -0.691268 1
gene 1 1 22 -0.374224 0 39 -0.374224 1
gene 1 2 22 1.28141 0 40 1.28141 1
gene 1 3 22 0.792326 0 41 0.792326 1
gene 1 4 22 0.101593 0 42 0.101593 1
gene 1 5 22 -0.218407 0 43 -0.218407 1
gene 1 6 22 -0.489549 0 44 -0.489549 1
gene 1 7 22 0.0763506 0 45 0.0763506 1
gene 1 8 22 0.202999 0 46 0.202999 1
gene 1 9 22 -0.141233 0 47 -0.141233 1
gene 1 10 22 2.26695 0 48 2.26695 1
gene 1 11 22 0.68563 0 49 0.68563 1
gene 1 12 22 -0.625589 0 50 -0.625589 1
gene 1 13 22 -0.479516 0 51 -0.479516 1
gene 1 14 22 -0.287127 0 52 -0.287127 1
gene 1 15 22 0.604339 0 53 0.604339 1
gene 1 16 22 -0.482147 0 54 -0.482147 1
gene 1 17 22 -0.796832 0 55 -0.796832 1
gene 1 18 22 0.525187 0 56 0.525187 1
gene 1 19 22 0.816609 0 57 0.816609 1
gene 1 1 23 0.409633 0 58 0.409633 1
gene 1 2 23 0.654014 0 59 0.654014 1
gene 1 3 23 -0.767421 0 60 -0.767421 1
gene 1 4 23 1.26157 0 61 1.26157 1
gene 1 5 23 -0.952439 0 62 -0.952439 1
gene 1 6 23 2.88306 0 63 2.88306 1
gene 1 7 23 -0.635447 0 64 -0.635447 1
gene 1 8 23 0.903142 0 65 0.903142 1
gene 1 9 23 -0.586991 0 66 -0.586991 1
gene 1 10 23 0.252647 0 67 0.252647 1
gene 1 11 23 -0.8598 0 68 -0.8598 0
gene 1 12 23 -0.174308 0 69 -0.174308 1
gene 1 13 23 -0.289674 0 70 -0.289674 1
gene 1 14 23 -0.916261 0 71 -0.916261 1
gene 1 15 23 0.319975 0 72 0.319975 1
gene 1 16 23 -0.772319 0 73 -0.772319 1
gene 1 17 23 0.765849 0 74 0.765849 0
gene 1 18 23 -0.157149 0 75 -0.157149 1
gene 1 19 23 -0.536846 0 76 -0.536846 1
gene 1 20 21 -0.738805 0 78 -0.738805 1
gene 1 22 23 0.739587 0 79 0.739587 1
gene 1 7 31 0.613324 0 101 0.613324 1
gene 1 31 23 0.390073 0 102 0.390073 1
gene 1 10 43 0.176285 0 137 0.176285 0
gene 1 43 20 -0.395402 0 138 -0.395402 1
gene 1 1 31 0.00794913 0 197 0.00794913 1
gene 1 18 80 0.247862 0 241 0.247862 1
gene 1 80 23 -0.713283 0 242 -0.713283 1
gene 1 12 43 -0.671879 0 386 -0.671879 1
gene 1 23 23 0.484394 1 407 0.484394 1
gene 1 31 21 -0.438543 0 413 -0.438543 1
gene 1 1 121 -1.03661 0 414 -1.03661 1
gene 1 121 31 -0.349599 0 415 -0.349599 1
gene 1 20 20 1.10722 1 426 1.10722 1
gene 1 11 125 0.378267 0 430 0.378267 1
gene 1 125 23 -1.59633 0 431 -1.59633 1
gene 1 19 125 -0.260696 0 435 -0.260696 1
gene 1 43 21 0.864237 0 438 0.864237 1
gene 1 10 129 0.584715 0 444 0.584715 1
gene 1 129 21 -0.743816 0 445 -0.743816 1
gene 1 2 43 0.218847 0 452 0.218847 1
gene 1 11 43 0.318985 0 462 0.318985 1
gene 1 43 23 -0.985219 0 464 -0.985219 1
gene 1 22 21 0.582942 0 473 0.582942 1
gene 1 13 135 -0.463714 0 475 -0.463714 1
gene 1 135 23 0.061559 0 476 0.061559 1
gene 1 20 22 0.757681 0 492 0.757681 1
gene 1 3 121 0.597844 0 536 0.597844 1
gene 1 121 43 1.06905 0 583 1.06905 1
gene 1 7 169 0.375403 0 584 0.375403 1
gene 1 169 22 0.0880144 0 585 0.0880144 1
gene 1 2 170 0.0584746 0 587 0.0584746 1
gene 1 170 20 -0.0941043 0 588 -0.0941043 1
gene 1 22 172 0.176717 0 595 0.176717 1
gene 1 172 23 0.100836 0 596 0.100836 1
gene 1 10 178 0.319474 0 612 0.319474 1
gene 1 178 43 -0.0437821 0 613 -0.0437821 1
gene 1 2 179 -0.146333 0 614 -0.146333 1
gene 1 179 23 -0.0733838 0 615 -0.0733838 1
gene 1 15 172 0.0271734 0 636 0.0271734 1
gene 1 43 129 0.239937 0 672 0.239937 1
gene 1 16 170 0.260748 0 743 0.260748 1
gene 1 12 135 0.551978 0 746 0.551978 1
gene 1 20 80 1.39464 0 750 1.39464 1
gene 1 12 129 0.271748 0 872 0.271748 1
gene 1 31 179 0.0618468 0 921 0.0618468 1
gene 1 16 135 0.38791 0 975 0.38791 1
gene 1 18 31 -0.442554 0 1011 -0.442554 1
gene 1 178 179 0.858226 0 1022 0.858226 1
gene 1 135 22 -0.32513 0 1072 -0.32513 1
gene 1 179 179 0.0556951 1 1106 0.0556951 1
gene 1 1 281 0.84109 0 1113 0.84109 1
gene 1 281 21 0.0650079 0 1114 0.0650079 1
gene 1 17 285 0.364382 0 1125 0.364382 1
gene 1 285 23 0.19929 0 1126 0.19929 1
gene 1 18 291 1 0 1143 0 1
gene 1 291 31 -0.148345 0 1144 0 1
genomeend 763
genomestart 772
trait 1 0.274226 0.833482 0.13578 0.747818 0.333132 0.833416 0.714737 0.689413 
node 1 1 1 1 0
node 2 1 1 1 0
node 3 1 1 1 0
node 4 1 1 1 0
node 5 1 1 1 0
node 6 1 1 1 0
node 7 1 1 1 0
node 8 1 1 1 0
node 9 1 1 1 0
node 10 1 1 1 0
node 11 1 1 1 0
node 12 1 1 1 0
node 13 1 1 1 0
node 14 1 1 1 0
node 15 1 1 1 0
node 16 1 1 1 0
node 17 1 1 1 0
node 18 1 1 1 0
node 19 1 1 3 0
node 20 1 0 2 0
node 21 1 0 2 0
node 22 1 0 2 0
node 23 1 0 2 0
node 31 1 0 0 0
node 43 1 0 0 0
node 80 1 0 0 0
node 112 1 0 0 0
node 117 1 0 0 0
node 128 1 0 0 0
node 141 1 0 0 0
node 149 1 0 0 0
node 191 1 0 0 0
node 202 1 0 0 0
node 204 1 0 0 0
node 208 1 0 0 0
node 219 1 0 0 0
node 224 1 0 0 0
node 227 1 0 0 0
node 236 1 0 0 0
node 238 1 0 0 0
node 257 1 0 0 0
gene 1 1 20 0.718657 0 1 0.718657 1
gene 1 2 20 0.291347 0 2 0.291347 1
gene 1 3 20 1.00141 0 3 1.00141 1
gene 1 4 20 -0.448497 0 4 -0.448497 1
gene 1 5 20 1.29824 0 5 1.29824 1
gene 1 6 20 0.468377 0 6 0.468377 1
gene 1 7 20 -0.206579 0 7 -0.206579 1
gene 1 8 20 0.0413229 0 8 0.0413229 1
gene 1 9 20 0.602933 0 9 0.602933 1
gene 1 10 20 -0.0973145 0 10 -0.0973145 1
gene 1 11 20 -0.00269964 0 11 -0.00269964 1
gene 1 12 20 0.500558 0 12 0.500558 1
gene 1 13 20 1.70192 0 13 1.70192 1
gene 1 14 20 -0.643571 0 14 -0.643571 0
gene 1 15 20 0.647463 0 15 0.647463 1
gene 1 16 20 0.550243 0 16 0.550243 1
gene 1 17 20 0.602563 0 17 0.602563 1
gene 1 18 20 0.684968 0 18 0.684968 1
gene 1 19 20 1.24885 0 19 1.24885 1
gene 1 1 21 -0.351667 0 20 -0.351667 1
gene 1 2 21 0.397424 0 21 0.397424 1
gene 1 3 21 -0.125888 0 22 -0.125888 1
gene 1 4 21 -0.115198 0 23 -0.115198 1
gene 1 5 21 0.567466 0 24 0.567466 1
gene 1 6 21 0.322428 0 25 0.322428 0
gene 1 7 21 -1.30702 0 26 -1.30702 1
gene 1 8 21 -1.18776 0 27 -1.18776 1
gene 1 9 21 0.926053 0 28 0.926053 1
gene 1 10 21 -0.124356 0 29 -0.124356 1
gene 1 11 21 -0.192876 0 30 -0.192876 1
gene 1 12 21 0.964103 0 31 0.964103 1
gene 1 13 21 -0.00622733 0 32 -0.00622733 1
gene 1 14 21 0.708973 0 33 0.708973 1
gene 1 15 21 -2.12359 0 34 -2.12359 1
gene 1 16 21 -0.334273 0 35 -0.334273 1
gene 1 17 21 0.213062 0 36 0.213062 1
gene 1 18 21 0.246037 0 37 0.246037 0
gene 1 19 21 -0.788482 0 38 -0.788482 1
gene 1 1 22 0.358116 0 39 0.358116 1
gene 1 2 22 -0.4709 0 40 -0.4709 1
gene 1 3 22 -0.185187 0 41 -0.185187 1
gene 1 4 22 0.166181 0 42 0.166181 1
gene 1 5 22 0.445661 0 43 0.445661 1
gene 1 6 22 1.1817 0 44 1.1817 1
gene 1 7 22 -0.958324 0 45 -0.958324 1
gene 1 8 22 -0.749854 0 46 -0.749854 1
gene 1 9 22 0.558545 0 47 0.558545 1
gene 1 10 22 -0.84715 0 48 -0.84715 0
gene 1 11 22 -0.149831 0 49 -0.149831 1
gene 1 12 22 -0.373141 0 50 -0.373141 1
gene 1 13 22 0.0424649 0 51 0.0424649 1
gene 1 14 22 0.502863 0 52 0.502863 1
gene 1 15 22 -0.539028 0 53 -0.539028 1
gene 1 16 22 0.129556 0 54 0.129556 1
gene 1 17 22 0.0120206 0 55 0.0120206 1
gene 1 18 22 -0.602832 0 56 -0.602832 1
gene 1 19 22 0.0865964 0 57 0.0865964 1
gene 1 1 23 -0.281944 0 58 -0.281944 1
gene 1 2 23 0.727684 0 59 0.727684 0
gene 1 3 23 -0.639242 0 60 -0.639242 1
gene 1 4 23 -0.430666 0 61 -0.430666 1
gene 1 5 23 -0.721725 0 62 -0.721725 1
gene 1 6 23 0.294773 0 63 0.294773 1
gene 1 7 23 0.68423 0 64 0.68423 1
gene 1 8 23 0.389121 0 65 0.389121 1
gene 1 9 23 -1.54392 0 66 -1.54392 1
gene 1 10 23 0.024517 0 67 0.024517 1
gene 1 11 23 0.463294 0 68 0.463294 1
gene 1 12 23 0.103051 0 69 0.103051 1
gene 1 13 23 -0.465301 0 70 -0.465301 1
gene 1 14 23 -0.474425 0 71 -0.474425 1
gene 1 15 23 -0.378216 0 72 -0.378216 0
gene 1 16 23 -0.161657 0 73 -0.161657 1
gene 1 17 23 -1.51865 0 74 -1.51865 1
gene 1 18 23 0.311903 0 75 0.311903 0
gene 1 19 23 -0.691936 0 76 -0.691936 1
gene 1 20 21 0.802023 0 78 0.802023 1
gene 1 22 23 -0.292201 0 79 -0.292201 1
gene 1 7 31 0.201244 0 101 0.201244 1
gene 1 31 23 0.0890929 0 102 0.0890929 1
gene 1 10 43 -0.694111 0 137 -0.694111 1
gene 1 43 20 0.07368 0 138 0.07368 1
gene 1 1 31 -0.0726322 0 197 -0.0726322 1
gene 1 18 80 -0.749389 0 241 -0.749389 1
gene 1 80 23 -0.0596399 0 242 -0.0596399 1
gene 1 6 112 -0.104653 0 380 -0.104653 1
gene 1 112 21 0.319357 0 381 0.319357 1
gene 1 31 112 -0.520047 0 382 -0.520047 1
gene 1 12 43 -0.48108 0 386 -0.48108 1
gene 1 15 112 -0.244407 0 387 -0.244407 1
gene 1 112 20 -0.254422 0 396 -0.254422 1
gene 1 18 43 0.239627 0 397 0.239627 1
gene 1 43 31 0.529461 0 400 0.529461 1
gene 1 15 117 -0.850071 0 403 -0.850071 1
gene 1 117 23 -0.143547 0 404 -0.143547 1
gene 1 22 117 -0.580074 0 423 -0.580074 1
gene 1 10 128 0.141861 0 440 0.141861 1
gene 1 128 22 -0.518173 0 441 -0.518173 1
gene 1 1 112 0.360816 0 443 0.360816 1
gene 1 2 80 -0.139304 0 451 -0.139304 1
gene 1 6 141 -0.0362732 0 497 -0.0362732 1
gene 1 141 20 0.514663 0 498 0.514663 1
gene 1 18 149 0.661288 0 519 0.661288 1
gene 1 149 23 -0.260155 0 520 -0.260155 1
gene 1 80 80 -0.0381038 1 551 -0.0381038 1
gene 1 112 112 -0.113577 1 597 -0.113577 1
gene 1 23 23 0.554197 1 623 0.554197 1
gene 1 1 191 1.12486 0 649 1.12486 1
gene 1 191 20 1.067 0 650 1.067 1
gene 1 14 202 0.700447 0 686 0.700447 1
gene 1 202 20 0.725998 0 687 0.725998 1
gene 1 20 20 -0.0415461 1 688 -0.0415461 1
gene 1 3 204 0.892071 0 695 0.892071 1
gene 1 204 20 0.161958 0 696 0.161958 1
gene 1 8 208 -0.27988 0 707 -0.27988 1
gene 1 208 21 -0.0908971 0 708 -0.0908971 1
gene 1 4 31 0.441372 0 710 0.441372 1
gene 1 16 202 -0.0862966 0 711 -0.0862966 1
gene 1 202 23 -0.970596 0 748 -0.970596 1
gene 1 1 219 -0.217655 0 759 -0.217655 1
gene 1 219 23 -0.231739 0 760 -0.231739 1
gene 1 1 128 -0.158233 0 761 -0.158233 1
gene 1 2 224 0.341603 0 775 0.341603 1
gene 1 224 23 -0.496899 0 776 -0.496899 1
gene 1 17 112 0.379249 0 782 0.379249 1
gene 1 18 227 -0.0452111 0 783 -0.0452111 1
gene 1 227 43 0.592423 0 784 0.592423 1
gene 1 18 236 -0.309709 0 808 -0.309709 1
gene 1 236 21 -0.393913 0 809 -0.393913 1
gene 1 14 238 -0.1614 0 814 -0.1614 1
gene 1 238 21 -0.0639544 0 815 -0.0639544 1
gene 1 12 80 -0.244219 0 822 -0.244219 1
gene 1 202 202 0.339364 1 824 0.339364 1
gene 1 17 257 -0.0593055 0 908 -0.0593055 1
gene 1 257 22 0.656449 0 909 0.656449 1
gene 1 5 117 0.259248 0 927 0.259248 1
gene 1 128 23 -0.937608 0 945 -0.937608 1
gene 1 12 112 0.264342 0 1103 0.264342 1
genomeend 772
genomestart 805
trait 1 0.478549 0.641889 0.740361 0.722286 0.421849 0.783396 0.393057 0.948929 
node 1 1 1 1 0
node 2 1 1 1 0
node 3 1 1 1 0
node 4 1 1 1 0
node 5 1 1 1 0
node 6 1 1 1 0
node 7 1 1 1 0
node 8 1 1 1 0
node 9 1 1 1 0
node 10 1 1 1 0
node 11 1 1 1 0
node 12 1 1 1 0
node 13 1 1 1 0
node 14 1 1 1 0
node 15 1 1 1 0
node 16 1 1 1 0
node 17 1 1 1 0
node 18 1 1 1 0
node 19 1 1 3 0
node 20 1 0 2 0
node 21 1 0 2 0
node 22 1 0 2 0
node 23 1 0 2 0
node 31 1 0 0 0
node 43 1 0 0 0
node 80 1 0 0 0
node 121 1 0 0 0
node 125 1 0 0 0
node 129 1 0 0 0
node 135 1 0 0 0
node 169 1 0 0 0
node 170 1 0 0 0
node 172 1 0 0 0
node 178 1 0 0 0
node 179 1 0 0 0
node 281 1 0 0 0
gene 1 1 20 0.452776 0 1 0.452776 1
gene 1 2 20 1.20874 0 2 1.20874 1
gene 1 3 20 0.533989 0 3 0.533989 1
gene 1 4 20 -0.142815 0 4 -0.142815 1
gene 1 5 20 -0.800435 0 5 -0.800435 1
gene 1 6 20 -0.102948 0 6 -0.102948 1
gene 1 7 20 0.0554223 0 7 0.0554223 1
gene 1 8 20 0.565593 0 8 0.565593 1
gene 1 9 20 -0.522207 0 9 -0.522207 1
gene 1 10 20 -0.10412 0 10 -0.10412 1
gene 1 11 20 0.182945 0 11 0.182945 1
gene 1 12 20 -0.632918 0 12 -0.632918 1
gene 1 13 20 1.46578 0 13 1.46578 1
gene 1 14 20 1.06063 0 14 1.06063 1
gene 1 15 20 0.2551 0 15 0.2551 1
gene 1 16 20 0.427718 0 16 0.427718 1
gene 1 17 20 1.13885 0 17 1.13885 1
gene 1 18 20 0.500512 0 18 0.500512 1
gene 1 19 20 1.54972 0 19 1.54972 1
gene 1 1 21 -0.034533 0 20 -0.034533 0
gene 1 2 21 -0.365896 0 21 -0.365896 1
gene 1 3 21 0.492985 0 22 0.492985 1
gene 1 4 21 0.768566 0 23 0.768566 1
gene 1 5 21 0.114439 0 24 0.114439 1
gene 1 6 21 -0.757888 0 25 -0.757888 1
gene 1 7 21 -1.07331 0 26 -1.07331 1
gene 1 8 21 -0.375554 0 27 -0.375554 1
gene 1 9 21 0.0376574 0 28 0.0376574 1
gene 1 10 21 0.0885414 0 29 0.0885414 1
gene 1 11 21 -0.260435 0 30 -0.260435 1
gene 1 12 21 -0.289665 0 31 -0.289665 1
gene 1 13 21 0.217616 0 32 0.217616 1
gene 1 14 21 -1.70299 0 33 -1.70299 1
gene 1 15 21 -0.163977 0 34 -0.163977 1
gene 1 16 21 -0.432278 0 35 -0.432278 1
gene 1 17 21 0.613655 0 36 0.613655 1
gene 1 18 21 0.237772 0 37 0.237772 1
gene 1 19 21 -1.04062 0 38 -1.04062 1
gene 1 1 22 -0.962007 0 39 -0.962007 1
gene 1 2 22 0.512271 0 40 0.512271 1
gene 1 3 22 0.563317 0 41 0.563317 1
gene 1 4 22 -0.266385 0 42 -0.266385 1
gene 1 5 22 0.193538 0 43 0.193538 1
gene 1 6 22 -0.271057 0 44 -0.271057 1
gene 1 7 22 -0.348552 0 45 -0.348552 1
gene 1 8 22 0.557266 0 46 0.557266 1
gene 1 9 22 0.597664 0 47 0.597664 1
gene 1 10 22 0.114266 0 48 0.114266 1
gene 1 11 22 -0.592463 0 49 -0.592463 1
gene 1 12 22 0.0053542 0 50 0.0053542 1
gene 1 13 22 0.33496 0 51 0.33496 1
gene 1 14 22 -0.387769 0 52 -0.387769 1
gene 1 15 22 -0.358236 0 53 -0.358236 1
gene 1 16 22 0.194896 0 54 0.194896 1
gene 1 17 22 -0.630463 0 55 -0.630463 1
gene 1 18 22 0.502116 0 56 0.502116 1
gene 1 19 22 -0.0438336 0 57 -0.0438336 1
gene 1 1 23 0.0740479 0 58 0.0740479 1
gene 1 2 23 0.152907 0 59 0.152907 0
gene 1 3 23 -0.314821 0 60 -0.314821 1
gene 1 4 23 -0.301526 0 61 -0.301526 1
gene 1 5 23 -0.944816 0 62 -0.944816 1
gene 1 6 23 -0.0638541 0 63 -0.0638541 1
gene 1 7 23 -0.0790392 0 64 -0.0790392 1
gene 1 8 23 -0.482599 0 65 -0.482599 1
gene 1 9 23 0.835954 0 66 0.835954 1
gene 1 10 23 -0.788613 0 67 -0.788613 1
gene 1 11 23 -0.420608 0 68 -0.420608 0
gene 1 12 23 -0.016545 0 69 -0.016545 1
gene 1 13 23 -0.0708377 0 70 -0.0708377 1
gene 1 14 23 -0.294729 0 71 -0.294729 1
gene 1 15 23 -0.389041 0 72 -0.389041 1
gene 1 16 23 -0.710857 0 73 -0.710857 1
gene 1 17 23 -0.0681938 0 74 -0.0681938 1
gene 1 18 23 -0.264933 0 75 -0.264933 1
gene 1 19 23 0.0435698 0 76 0.0435698 1
gene 1 20 21 -0.133058 0 78 -0.133058 1
gene 1 22 23 0.126155 0 79 0.126155 1
gene 1 7 31 0.449263 0 101 0.449263 1
gene 1 31 23 -0.366144 0 102 -0.366144 1
gene 1 10 43 -0.0617616 0 137 -0.0617616 0
gene 1 43 20 -1.11861 0 138 -1.11861 1
gene 1 1 31 -0.00182325 0 197 -0.00182325 1
gene 1 18 80 -0.236291 0 241 -0.236291 1
gene 1 80 23 -0.683574 0 242 -0.683574 1
gene 1 12 43 0.476092 0 386 0.476092 1
gene 1 23 23 0.279849 1 407 0.279849 1
gene 1 31 21 -0.238379 0 413 -0.238379 1
gene 1 1 121 -0.429615 0 414 -0.429615 1
gene 1 121 31 0.449436 0 415 0.449436 1
gene 1 20 20 1.83821 1 426 1.83821 1
gene 1 11 125 0.132574 0 430 0.132574 1
gene 1 125 23 -1.72983 0 431 -1.72983 1
gene 1 19 125 -0.348553 0 435 -0.348553 1
gene 1 43 21 1.10579 0 438 1.10579 1
gene 1 10 129 0.372115 0 444 0.372115 1
gene 1 129 21 0.436089 0 445 0.436089 1
gene 1 2 43 -0.0454953 0 452 -0.0454953 1
gene 1 11 43 -0.0130269 0 462 -0.0130269 1
gene 1 43 23 0.0250073 0 464 0.0250073 1
gene 1 22 21 -1.00663 0 473 -1.00663 1
gene 1 13 135 0.359159 0 475 0.359159 1
gene 1 135 23 -0.257974 0 476 -0.257974 1
gene 1 20 22 0.539633 0 492 0.539633 1
gene 1 3 121 0.927335 0 536 0.927335 1
gene 1 121 43 0.244927 0 583 0.244927 1
gene 1 7 169 -0.0194008 0 584 -0.0194008 1
gene 1 169 22 1.73998 0 585 1.73998 1
gene 1 2 170 0.286221 0 587 0.286221 1
gene 1 170 20 -1.08135 0 588 -1.08135 1
gene 1 22 172 -0.0726154 0 595 -0.0726154 1
gene 1 172 23 -0.143258 0 596 -0.143258 1
gene 1 10 178 0.116535 0 612 0.116535 1
gene 1 178 43 -0.420933 0 613 -0.420933 1
gene 1 2 179 1.04478 0 614 1.04478 1
gene 1 179 23 -0.898023 0 615 -0.898023 1
gene 1 15 172 0.77103 0 636 0.77103 1
gene 1 43 129 0.163401 0 672 0.163401 1
gene 1 16 170 0.324069 0 743 0.324069 1
gene 1 12 135 0.0673924 0 746 0.0673924 1
gene 1 20 80 0.16209 0 750 0.16209 1
gene 1 12 129 -0.0450376 0 872 -0.0450376 1
gene 1 31 179 -0.419796 0 921 -0.419796 1
gene 1 16 135 1.7323 0 975 1.7323 1
gene 1 18 31 0.172722 0 1011 0.172722 1
gene 1 178 179 -0.284123 0 1022 -0.284123 1
gene 1 135 22 0.0870119 0 1072 0.0870119 1
gene 1 179 179 -0.572794 1 1106 -0.572794 1
gene 1 1 281 1.5044 0 1113 1.5044 1
gene 1 281 21 -0.518641 0 1114 -0.518641 1
genomeend 805
genomestart 860
trait 1 0.502211 0.913832 0.20043 0.916702 0.564722 0.922718 0.467003 0.667257 
node 1 1 1 1 0
node 2 1 1 1 0
node 3 1 1 1 0
node 4 1 1 1 0
node 5 1 1 1 0
node 6 1 1 1 0
node 7 1 1 1 0
node 8 1 1 1 0
node 9 1 1 1 0
node 10 1 1 1 0
node 11 1 1 1 0
node 12 1 1 1 0
node 13 1 1 1 0
node 14 1 1 1 0
node 15 1 1 1 0
node 16 1 1 1 0
node 17 1 1 1 0
node 18 1 1 1 0
node 19 1 1 3 0
node 20 1 0 2 0
node 21 1 0 2 0
node 22 1 0 2 0
node 23 1 0 2 0
node 31 1 0 0 0
node 43 1 0 0 0
node 80 1 0 0 0
node 112 1 0 0 0
node 128 1 0 0 0
node 202 1 0 0 0
node 204 1 0 0 0
node 227 1 0 0 0
gene 1 1 20 -0.121699 0 1 -0.121699 1
gene 1 2 20 0.270074 0 2 0.270074 1
gene 1 3 20 -1.16098 0 3 -1.16098 1
gene 1 4 20 -0.041722 0 4 -0.041722 1
gene 1 5 20 0.222425 0 5 0.222425 1
gene 1 6 20 0.587696 0 6 0.587696 1
gene 1 7 20 -0.386094 0 7 -0.386094 1
gene 1 8 20 -0.516274 0 8 -0.516274 1
gene 1 9 20 1.16349 0 9 1.16349 1
gene 1 10 20 -0.230238 0 10 -0.230238 1
gene 1 11 20 2.637 0 11 2.637 1
gene 1 12 20 -0.0973901 0 12 -0.0973901 1
gene 1 13 20 1.7025 0 13 1.7025 1
gene 1 14 20 0.489345 0 14 0.489345 1
gene 1 15 20 -0.993946 0 15 -0.993946 1
gene 1 16 20 0.507902 0 16 0.507902 1
gene 1 17 20 0.323104 0 17 0.323104 1
gene 1 18 20 -1.21223 0 18 -1.21223 1
gene 1 19 20 2.29296 0 19 2.29296 1
gene 1 1 21 -1.73388 0 20 -1.73388 1
gene 1 2 21 0.00223002 0 21 0.00223002 1
gene 1 3 21 -0.986744 0 22 -0.986744 1
gene 1 4 21 -0.0104182 0 23 -0.0104182 1
gene 1 5 21 -0.543619 0 24 -0.543619 1
gene 1 6 21 -0.169671 0 25 -0.169671 1
gene 1 7 21 1.25805 0 26 1.25805 1
gene 1 8 21 -0.355159 0 27 -0.355159 1
gene 1 9 21 -0.170199 0 28 -0.170199 1
gene 1 10 21 -0.423232 0 29 -0.423232 1
gene 1 11 21 0.142704 0 30 0.142704 1
gene 1 12 21 1.01608 0 31 1.01608 1
gene 1 13 21 -0.570674 0 32 -0.570674 1
gene 1 14 21 -0.0785279 0 33 -0.0785279 1
gene 1 15 21 1.59835 0 34 1.59835 1
gene 1 16 21 0.352445 0 35 0.352445 1
gene 1 17 21 0.0341756 0 36 0.0341756 1
gene 1 18 21 0.6736 0 37 0.6736 1
gene 1 19 21 0.320943 0 38 0.320943 1
gene 1 1 22 0.574636 0 39 0.574636 1
gene 1 2 22 0.352629 0 40 0.352629 1
gene 1 3 22 -0.231559 0 41 -0.231559 1
gene 1 4 22 0.528156 0 42 0.528156 1
gene 1 5 22 0.811639 0 43 0.811639 1
gene 1 6 22 0.313541 0 44 0.313541 1
gene 1 7 22 0.0634456 0 45 0.0634456 1
gene 1 8 22 -0.694434 0 46 -0.694434 1
gene 1 9 22 -0.471564 0 47 -0.471564 1
gene 1 10 22 0.138338 0 48 0.138338 1
gene 1 11 22 0.0604118 0 49 0.0604118 1
gene 1 12 22 -0.000733285 0 50 -0.000733285 1
gene 1 13 22 0.963891 0 51 0.963891 1
gene 1 14 22 -1.20104 0 52 -1.20104 1
gene 1 15 22 0.541444 0 53 0.541444 1
gene 1 16 22 0.0345341 0 54 0.0345341 1
gene 1 17 22 -0.232026 0 55 -0.232026 1
gene 1 18 22 -0.666396 0 56 -0.666396 1
gene 1 19 22 0.374449 0 57 0.374449 1
gene 1 1 23 -0.22449 0 58 -0.22449 1
gene 1 2 23 -0.00587137 0 59 -0.00587137 1
gene 1 3 23 0.527091 0 60 0.527091 1
gene 1 4 23 0.412265 0 61 0.412265 1
gene 1 5 23 -0.677423 0 62 -0.677423 1
gene 1 6 23 0.0754793 0 63 0.0754793 1
gene 1 7 23 -0.0151404 0 64 -0.0151404 1
gene 1 8 23 -1.1805 0 65 -1.1805 1
gene 1 9 23 -0.250477 0 66 -0.250477 1
gene 1 10 23 -0.139214 0 67 -0.139214 1
gene 1 11 23 0.283217 0 68 0.283217 1
gene 1 12 23 -0.856835 0 69 -0.856835 1
gene 1 13 23 0.456142 0 70 0.456142 1
gene 1 14 23 0.256568 0 71 0.256568 1
gene 1 15 23 0.9119 0 72 0.9119 1
gene 1 16 23 -0.827566 0 73 -0.827566 1
gene 1 17 23 2.13089 0 74 2.13089 1
gene 1 18 23 -0.420895 0 75 -0.420895 1
gene 1 19 23 0.6989 0 76 0.6989 1
gene 1 20 21 0.0991547 0 78 0.0991547 1
gene 1 22 23 0.0473657 0 79 0.0473657 1
gene 1 7 31 -0.543166 0 101 -0.543166 1
gene 1 31 23 0.725197 0 102 0.725197 1
gene 1 10 43 -0.0330322 0 137 -0.0330322 1
gene 1 43 20 0.932306 0 138 0.932306 1
gene 1 1 31 -0.425925 0 197 -0.425925 1
gene 1 18 80 1.16863 0 241 1.16863 1
gene 1 80 23 0.721375 0 242 0.721375 1
gene 1 6 112 -0.69677 0 380 -0.69677 1
gene 1 112 21 0.294973 0 381 0.294973 1
gene 1 12 43 -0.352162 0 386 -0.352162 1
gene 1 112 20 0.433314 0 396 0.433314 1
gene 1 18 43 -0.0939913 0 397 -0.0939913 0
gene 1 10 128 0.533024 0 440 0.533024 1
gene 1 128 22 1.37209 0 441 1.37209 1
gene 1 1 112 -0.0452545 0 443 -0.0452545 1
gene 1 112 112 0.248444 1 597 0.248444 1
gene 1 23 23 0.82614 1 623 0.82614 1
gene 1 14 202 0.169244 0 686 0.169244 1
gene 1 202 20 -0.0604225 0 687 -0.0604225 1
gene 1 3 204 0.859887 0 695 0.859887 1
gene 1 204 20 0.207415 0 696 0.207415 1
gene 1 4 31 0.364222 0 710 0.364222 1
gene 1 16 202 0.348339 0 711 0.348339 1
gene 1 202 23 -0.467964 0 748 -0.467964 1
gene 1 18 227 0.852107 0 783 0.852107 1
gene 1 227 43 -0.0559376 0 784 -0.0559376 1
gene 1 128 23 -0.221604 0 945 -0.221604 1
gene 1 17 112 -1.33781 0 1140 -1.33781 1
genomeend 860
genomestart 896
trait 1 0.475923 0.906021 0.20037 0.909152 0.564873 0.922562 0.509332 0.680498 
node 1 1 1 1 0
node 2 1 1 1 0
node 3 1 1 1 0
node 4 1 1 1 0
node 5 1 1 1 0
node 6 1 1 1 0
node 7 1 1 1 0
node 8 1 1 1 0
node 9 1 1 1 0
node 10 1 1 1 0
node 11 1 1 1 0
node 12 1 1 1 0
node 13 1 1 1 0
node 14 1 1 1 0
node 15 1 1 1 0
node 16 1 1 1 0
node 17 1 1 1 0
node 18 1 1 1 0
node 19 1 1 3 0
node 20 1 0 2 0
node 21 1 0 2 0
node 22 1 0 2 0
node 23 1 0 2 0
node 31 1 0 0 0
node 43 1 0 0 0
node 80 1 0 0 0
node 112 1 0 0 0
node 128 1 0 0 0
node 202 1 0 0 0
node 204 1 0 0 0
node 227 1 0 0 0
gene 1 1 20 0.219018 0 1 0.219018 1
gene 1 2 20 0.6866 0 2 0.6866 1
gene 1 3 20 -0.0981138 0 3 -0.0981138 1
gene 1 4 20 -0.0125016 0 4 -0.0125016 1
gene 1 5 20 -0.591077 0 5 -0.591077 1
gene 1 6 20 0.419915 0 6 0.419915 1
gene 1 7 20 0.107199 0 7 0.107199 1
gene 1 8 20 0.134694 0 8 0.134694 1
gene 1 9 20 1.31009 0 9 1.31009 1
gene 1 10 20 -0.318675 0 10 -0.318675 1
gene 1 11 20 0.382558 0 11 0.382558 1
gene 1 12 20 0.139485 0 12 0.139485 1
gene 1 13 20 -0.306282 0 13 -0.306282 1
gene 1 14 20 1.24225 0 14 1.24225 0
gene 1 15 20 0.0836134 0 15 0.0836134 1
gene 1 16 20 0.220026 0 16 0.220026 1
gene 1 17 20 0.39185 0 17 0.39185 1
gene 1 18 20 0.845999 0 18 0.845999 1
gene 1 19 20 2.35831 0 19 2.35831 1
gene 1 1 21 -1.51107 0 20 -1.51107 1
gene 1 2 21 -0.218303 0 21 -0.218303 1
gene 1 3 21 -0.0748357 0 22 -0.0748357 1
gene 1 4 21 -0.337261 0 23 -0.337261 1
gene 1 5 21 -0.071103 0 24 -0.071103 1
gene 1 6 21 1.36084 0 25 1.36084 1
gene 1 7 21 1.01662 0 26 1.01662 1
gene 1 8 21 -0.146671 0 27 -0.146671 1
gene 1 9 21 -1.3715 0 28 -1.3715 1
gene 1 10 21 -1.68167 0 29 -1.68167 1
gene 1 11 21 -0.869793 0 30 -0.869793 1
gene 1 12 21 1.20425 0 31 1.20425 1
gene 1 13 21 -0.188062 0 32 -0.188062 1
gene 1 14 21 -0.587433 0 33 -0.587433 1
gene 1 15 21 0.857642 0 34 0.857642 1
gene 1 16 21 -0.816334 0 35 -0.816334 1
gene 1 17 21 0.92156 0 36 0.92156 1
gene 1 18 21 1.28666 0 37 1.28666 1
gene 1 19 21 0.21106 0 38 0.21106 1
gene 1 1 22 1.15596 0 39 1.15596 1
gene 1 2 22 0.00183287 0 40 0.00183287 1
gene 1 3 22 -0.420584 0 41 -0.420584 1
gene 1 4 22 -0.286324 0 42 -0.286324 1
gene 1 5 22 0.0460058 0 43 0.0460058 1
gene 1 6 22 0.0267656 0 44 0.0267656 1
gene 1 7 22 -0.399574 0 45 -0.399574 1
gene 1 8 22 0.399047 0 46 0.399047 1
gene 1 9 22 -0.237271 0 47 -0.237271 1
gene 1 10 22 -0.00804411 0 48 -0.00804411 0
gene 1 11 22 0.571765 0 49 0.571765 1
gene 1 12 22 0.376927 0 50 0.376927 1
gene 1 13 22 1.20059 0 51 1.20059 1
gene 1 14 22 -0.132832 0 52 -0.132832 1
gene 1 15 22 0.205233 0 53 0.205233 1
gene 1 16 22 -0.434473 0 54 -0.434473 1
gene 1 17 22 0.220743 0 55 0.220743 1
gene 1 18 22 -0.37507 0 56 -0.37507 1
gene 1 19 22 0.803662 0 57 0.803662 1
gene 1 1 23 -1.18637 0 58 -1.18637 1
gene 1 2 23 0.10234 0 59 0.10234 1
gene 1 3 23 0.197368 0 60 0.197368 1
gene 1 4 23 1.41575 0 61 1.41575 1
gene 1 5 23 0.365637 0 62 0.365637 1
gene 1 6 23 -0.198141 0 63 -0.198141 1
gene 1 7 23 -1.48933 0 64 -1.48933 1
gene 1 8 23 0.715389 0 65 0.715389 1
gene 1 9 23 0.42732 0 66 0.42732 1
gene 1 10 23 0.010313 0 67 0.010313 1
gene 1 11 23 0.349476 0 68 0.349476 1
gene 1 12 23 -0.138934 0 69 -0.138934 1
gene 1 13 23 -0.887355 0 70 -0.887355 1
gene 1 14 23 -0.401798 0 71 -0.401798 1
gene 1 15 23 -0.493695 0 72 -0.493695 1
gene 1 16 23 -1.41374 0 73 -1.41374 1
gene 1 17 23 0.844291 0 74 0.844291 1
gene 1 18 23 0.039832 0 75 0.039832 1
gene 1 19 23 -0.436952 0 76 -0.436952 1
gene 1 20 21 0.801693 0 78 0.801693 1
gene 1 22 23 0.120065 0 79 0.120065 1
gene 1 7 31 0.237881 0 101 0.237881 1
gene 1 31 23 0.273002 0 102 0.273002 1
gene 1 10 43 -0.479422 0 137 -0.479422 1
gene 1 43 20 1.63292 0 138 1.63292 1
gene 1 1 31 -0.528742 0 197 -0.528742 1
gene 1 18 80 0.630316 0 241 0.630316 1
gene 1 80 23 -0.168556 0 242 -0.168556 1
gene 1 6 112 0.236352 0 380 0.236352 1
gene 1 112 21 -0.172149 0 381 -0.172149 1
gene 1 12 43 -0.207314 0 386 -0.207314 1
gene 1 112 20 0.152517 0 396 0.152517 1
gene 1 18 43 1.08421 0 397 1.08421 0
gene 1 10 128 -0.605017 0 440 -0.605017 1
gene 1 128 22 0.578634 0 441 0.578634 1
gene 1 1 112 -0.0386809 0 443 -0.0386809 1
gene 1 112 112 -1.461 1 597 -1.461 1
gene 1 23 23 0.812416 1 623 0.812416 1
gene 1 14 202 0.043999 0 686 0.043999 1
gene 1 202 20 0.478995 0 687 0.478995 1
gene 1 3 204 1.35928 0 695 1.35928 1
gene 1 204 20 -0.436034 0 696 -0.436034 1
gene 1 4 31 0.00232845 0 710 0.00232845 1
gene 1 16 202 0.604874 0 711 0.604874 1
gene 1 202 23 -0.350989 0 748 -0.350989 1
gene 1 18 227 0.404011 0 783 0.404011 1
gene 1 227 43 0.22932 0 784 0.22932 1
gene 1 128 23 -0.375192 0 945 -0.375192 1
gene 1 227 20 -0.189119 0 1105 -0.189119 1
gene 1 17 112 -0.974716 0 1140 -0.974716 1
genomeend 896
genomestart 960
trait 1 0.248391 0.909926 0.2004 0.912927 0.564797 0.961343 0.237872 0.760194 
node 1 1 1 1 0
node 2 1 1 1 0
node 3 1 1 1 0
node 4 1 1 1 0
node 5 1 1 1 0
node 6 1 1 1 0
node 7 1 1 1 0
node 8 1 1 1 0
node 9 1 1 1 0
node 10 1 1 1 0
node 11 1 1 1 0
node 12 1 1 1 0
node 13 1 1 1 0
node 14 1 1 1 0
node 15 1 1 1 0
node 16 1 1 1 0
node 17 1 1 1 0
node 18 1 1 1 0
node 19 1 1 3 0
node 20 1 0 2 0
node 21 1 0 2 0
node 22 1 0 2 0
node 23 1 0 2 0
node 31 1 0 0 0
node 43 1 0 0 0
node 80 1 0 0 0
node 112 1 0 0 0
node 128 1 0 0 0
node 202 1 0 0 0
node 204 1 0 0 0
node 227 1 0 0 0
gene 1 1 20 0.217626 0 1 0.217626 1
gene 1 2 20 -0.115711 0 2 -0.115711 1
gene 1 3 20 -0.0613947 0 3 -0.0613947 1
gene 1 4 20 0.398167 0 4 0.398167 1
gene 1 5 20 -0.0120961 0 5 -0.0120961 1
gene 1 6 20 1.53776 0 6 1.53776 1
gene 1 7 20 1.60257 0 7 1.60257 1
gene 1 8 20 0.0702348 0 8 0.0702348 1
gene 1 9 20 1.38574 0 9 1.38574 1
gene 1 10 20 0.242639 0 10 0.242639 1
gene 1 11 20 1.73922 0 11 1.73922 1
gene 1 12 20 -0.449984 0 12 -0.449984 1
gene 1 13 20 1.32554 0 13 1.32554 1
gene 1 14 20 -0.334082 0 14 -0.334082 0
gene 1 15 20 -1.08594 0 15 -1.08594 1
gene 1 16 20 0.835225 0 16 0.835225 1
gene 1 17 20 0.193874 0 17 0.193874 1
gene 1 18 20 -0.212265 0 18 -0.212265 1
gene 1 19 20 2.31033 0 19 2.31033 1
gene 1 1 21 -1.37905 0 20 -1.37905 1
gene 1 2 21 -0.705317 0 21 -0.705317 1
gene 1 3 21 -0.455095 0 22 -0.455095 1
gene 1 4 21 -0.0916529 0 23 -0.0916529 1
gene 1 5 21 -0.563044 0 24 -0.563044 1
gene 1 6 21 0.223898 0 25 0.223898 1
gene 1 7 21 1.40449 0 26 1.40449 1
gene 1 8 21 0.174457 0 27 0.174457 1
gene 1 9 21 -0.635753 0 28 -0.635753 1
gene 1 10 21 -1.15119 0 29 -1.15119 1
gene 1 11 21 -0.228442 0 30 -0.228442 1
gene 1 12 21 1.58561 0 31 1.58561 1
gene 1 13 21 -0.683647 0 32 -0.683647 1
gene 1 14 21 -0.488517 0 33 -0.488517 1
gene 1 15 21 0.195313 0 34 0.195313 1
gene 1 16 21 -0.295595 0 35 -0.295595 1
gene 1 17 21 -0.0838758 0 36 -0.0838758 1
gene 1 18 21 0.563227 0 37 0.563227 1
gene 1 19 21 -1.44864 0 38 -1.44864 1
gene 1 1 22 0.714805 0 39 0.714805 1
gene 1 2 22 0.409618 0 40 0.409618 1
gene 1 3 22 -1.35646 0 41 -1.35646 1
gene 1 4 22 -0.288493 0 42 -0.288493 1
gene 1 5 22 -0.0468458 0 43 -0.0468458 1
gene 1 6 22 0.212597 0 44 0.212597 1
gene 1 7 22 0.351597 0 45 0.351597 1
gene 1 8 22 -0.450835 0 46 -0.450835 1
gene 1 9 22 -0.131812 0 47 -0.131812 1
gene 1 10 22 -0.316554 0 48 -0.316554 0
gene 1 11 22 -0.144725 0 49 -0.144725 1
gene 1 12 22 -0.598353 0 50 -0.598353 1
gene 1 13 22 0.464948 0 51 0.464948 1
gene 1 14 22 -1.18811 0 52 -1.18811 1
gene 1 15 22 -0.131248 0 53 -0.131248 1
gene 1 16 22 -0.524977 0 54 -0.524977 1
gene 1 17 22 -1.0209 0 55 -1.0209 1
gene 1 18 22 -0.623171 0 56 -0.623171 1
gene 1 19 22 0.57756 0 57 0.57756 1
gene 1 1 23 -0.972866 0 58 -0.972866 1
gene 1 2 23 0.897171 0 59 0.897171 1
gene 1 3 23 0.627331 0 60 0.627331 1
gene 1 4 23 0.825811 0 61 0.825811 1
gene 1 5 23 0.25968 0 62 0.25968 1
gene 1 6 23 0.0472557 0 63 0.0472557 1
gene 1 7 23 -0.642714 0 64 -0.642714 1
gene 1 8 23 -0.283328 0 65 -0.283328 1
gene 1 9 23 0.379393 0 66 0.379393 1
gene 1 10 23 0.390705 0 67 0.390705 1
gene 1 11 23 1.48606 0 68 1.48606 1
gene 1 12 23 -0.0996268 0 69 -0.0996268 1
gene 1 13 23 -0.788074 0 70 -0.788074 1
gene 1 14 23 0.0755072 0 71 0.0755072 1
gene 1 15 23 1.3189 0 72 1.3189 1
gene 1 16 23 -0.701379 0 73 -0.701379 1
gene 1 17 23 0.786899 0 74 0.786899 1
gene 1 18 23 0.506681 0 75 0.506681 1
gene 1 19 23 0.449013 0 76 0.449013 1
gene 1 20 21 -0.108809 0 78 -0.108809 1
gene 1 22 23 -0.109639 0 79 -0.109639 1
gene 1 7 31 0.193584 0 101 0.193584 1
gene 1 31 23 0.84275 0 102 0.84275 1
gene 1 10 43 1.02156 0 137 1.02156 1
gene 1 43 20 1.72628 0 138 1.72628 1
gene 1 1 31 -0.513397 0 197 -0.513397 1
gene 1 18 80 -0.140826 0 241 -0.140826 1
gene 1 80 23 0.292984 0 242 0.292984 1
gene 1 6 112 -0.871025 0 380 -0.871025 1
gene 1 112 21 0.88147 0 381 0.88147 1
gene 1 12 43 0.175911 0 386 0.175911 1
gene 1 112 20 0.31587 0 396 0.31587 1
gene 1 18 43 0.667081 0 397 0.667081 0
gene 1 10 128 0.13866 0 440 0.13866 1
gene 1 128 22 0.986833 0 441 0.986833 1
gene 1 1 112 -0.471106 0 443 -0.471106 1
gene 1 112 112 -0.261237 1 597 -0.261237 1
gene 1 23 23 0.071065 1 623 0.071065 1
gene 1 14 202 0.218176 0 686 0.218176 1
gene 1 202 20 0.367093 0 687 0.367093 1
gene 1 3 204 0.701284 0 695 0.701284 1
gene 1 204 20 0.629839 0 696 0.629839 1
gene 1 4 31 0.179417 0 710 0.179417 1
gene 1 16 202 0.167717 0 711 0.167717 1
gene 1 202 23 0.473993 0 748 0.473993 1
gene 1 18 227 -0.0438331 0 783 -0.0438331 1
gene 1 227 43 0.00672616 0 784 0.00672616 1
gene 1 128 23 0.135806 0 945 0.135806 1
gene 1 227 20 -0.120726 0 1105 -0.120726 1
gene 1 17 112 -0.589672 0 1140 -0.589672 1
genomeend 960
genomestart 972
trait 1 0.478549 0.641889 0.740361 0.722286 0.421849 0.783396 0.393057 0.948929 
node 1 1 1 1 0
node 2 1 1 1 0
node 3 1 1 1 0
node 4 1 1 1 0
node 5 1 1 1 0
node 6 1 1 1 0
node 7 1 1 1 0
node 8 1 1 1 0
node 9 1 1 1 0
node 10 1 1 1 0
node 11 1 1 1 0
node 12 1 1 1 0
node 13 1 1 1 0
node 14 1 1 1 0
node 15 1 1 1 0
node 16 1 1 1 0
node 17 1 1 1 0
node 18 1 1 1 0
node 19 1 1 3 0
node 20 1 0 2 0
node 21 1 0 2 0
node 22 1 0 2 0
node 23 1 0 2 0
node 31 1 0 0 0
node 43 1 0 0 0
node 80 1 0 0 0
node 121 1 0 0 0
node 125 1 0 0 0
node 129 1 0 0 0
node 135 1 0 0 0
node 169 1 0 0 0
node 170 1 0 0 0
node 172 1 0 0 0
node 178 1 0 0 0
node 179 1 0 0 0
node 281 1 0 0 0
node 285 1 0 0 0
gene 1 1 20 0.277476 0 1 0.277476 1
gene 1 2 20 1.28629 0 2 1.28629 1
gene 1 3 20 0.347483 0 3 0.347483 1
gene 1 4 20 -0.00533049 0 4 -0.00533049 1
gene 1 5 20 -1.67421 0 5 -1.67421 1
gene 1 6 20 -0.836116 0 6 -0.836116 1
gene 1 7 20 1.23162 0 7 1.23162 1
gene 1 8 20 0.442191 0 8 0.442191 1
gene 1 9 20 -0.485283 0 9 -0.485283 1
gene 1 10 20 -0.30607 0 10 -0.30607 1
gene 1 11 20 0.0326806 0 11 0.0326806 1
gene 1 12 20 1.66407 0 12 1.66407 1
gene 1 13 20 -0.0144069 0 13 -0.0144069 1
gene 1 14 20 -0.620065 0 14 -0.620065 1
gene 1 15 20 -1.43623 0 15 -1.43623 1
gene 1 16 20 -0.365084 0 16 -0.365084 1
gene 1 17 20 1.16851 0 17 1.16851 1
gene 1 18 20 0.960843 0 18 0.960843 1
gene 1 19 20 1.97125 0 19 1.97125 1
gene 1 1 21 0.243367 0 20 0.243367 0
gene 1 2 21 1.23685 0 21 1.23685 1
gene 1 3 21 0.121554 0 22 0.121554 1
gene 1 4 21 0.504955 0 23 0.504955 1
gene 1 5 21 -0.781986 0 24 -0.781986 1
gene 1 6 21 -0.196459 0 25 -0.196459 1
gene 1 7 21 -0.56872 0 26 -0.56872 1
gene 1 8 21 0.183151 0 27 0.183151 1
gene 1 9 21 0.0300938 0 28 0.0300938 1
gene 1 10 21 0.497267 0 29 0.497267 1
gene 1 11 21 0.653823 0 30 0.653823 1
gene 1 12 21 0.0961242 0 31 0.0961242 1
gene 1 13 21 0.378483 0 32 0.378483 1
gene 1 14 21 -0.595186 0 33 -0.595186 1
gene 1 15 21 -0.0544844 0 34 -0.0544844 1
gene 1 16 21 0.56908 0 35 0.56908 1
gene 1 17 21 1.32613 0 36 1.32613 1
gene 1 18 21 0.203365 0 37 0.203365 1
gene 1 19 21 -1.26571 0 38 -1.26571 1
gene 1 1 22 -0.230889 0 39 -0.230889 1
gene 1 2 22 1.60807 0 40 1.60807 1
gene 1 3 22 -0.124401 0 41 -0.124401 1
gene 1 4 22 -0.70212 0 42 -0.70212 1
gene 1 5 22 -0.481676 0 43 -0.481676 1
gene 1 6 22 -0.427431 0 44 -0.427431 1
gene 1 7 22 -0.100216 0 45 -0.100216 1
gene 1 8 22 -0.0465703 0 46 -0.0465703 1
gene 1 9 22 -0.177824 0 47 -0.177824 1
gene 1 10 22 1.69396 0 48 1.69396 1
gene 1 11 22 -0.53598 0 49 -0.53598 1
gene 1 12 22 -0.645106 0 50 -0.645106 1
gene 1 13 22 -1.09149 0 51 -1.09149 1
gene 1 14 22 -0.856306 0 52 -0.856306 1
gene 1 15 22 0.53554 0 53 0.53554 1
gene 1 16 22 -0.150376 0 54 -0.150376 1
gene 1 17 22 -0.0328665 0 55 -0.0328665 1
gene 1 18 22 -0.63789 0 56 -0.63789 1
gene 1 19 22 0.332814 0 57 0.332814 1
gene 1 1 23 -0.221022 0 58 -0.221022 1
gene 1 2 23 1.25817 0 59 1.25817 0
gene 1 3 23 -1.16481 0 60 -1.16481 1
gene 1 4 23 0.288265 0 61 0.288265 1
gene 1 5 23 -0.600055 0 62 -0.600055 1
gene 1 6 23 2.11044 0 63 2.11044 1
gene 1 7 23 -0.226155 0 64 -0.226155 1
gene 1 8 23 0.641006 0 65 0.641006 1
gene 1 9 23 -0.192693 0 66 -0.192693 1
gene 1 10 23 -0.169686 0 67 -0.169686 1
gene 1 11 23 -0.900627 0 68 -0.900627 0
gene 1 12 23 -0.138367 0 69 -0.138367 1
gene 1 13 23 -0.304211 0 70 -0.304211 1
gene 1 14 23 -0.606678 0 71 -0.606678 1
gene 1 15 23 0.917963 0 72 0.917963 1
gene 1 16 23 -0.13505 0 73 -0.13505 1
gene 1 17 23 0.260405 0 74 0.260405 0
gene 1 18 23 0.388121 0 75 0.388121 1
gene 1 19 23 -1.24364 0 76 -1.24364 1
gene 1 20 21 -0.456955 0 78 -0.456955 1
gene 1 22 23 0.476153 0 79 0.476153 1
gene 1 7 31 1.05699 0 101 1.05699 1
gene 1 31 23 -0.939355 0 102 -0.939355 1
gene 1 10 43 -0.40935 0 137 -0.40935 0
gene 1 43 20 -0.476183 0 138 -0.476183 1
gene 1 1 31 0.384963 0 197 0.384963 1
gene 1 18 80 0.115635 0 241 0.115635 1
gene 1 80 23 -0.0855327 0 242 -0.0855327 1
gene 1 12 43 -0.592141 0 386 -0.592141 1
gene 1 23 23 0.950099 1 407 0.950099 1
gene 1 31 21 -0.270036 0 413 -0.270036 1
gene 1 1 121 -0.683102 0 414 -0.683102 1
gene 1 121 31 -0.401967 0 415 -0.401967 1
gene 1 20 20 1.45012 1 426 1.45012 1
gene 1 11 125 0.310086 0 430 0.310086 1
gene 1 125 23 -0.7359 0 431 -0.7359 1
gene 1 19 125 -1.28405 0 435 -1.28405 1
gene 1 43 21 0.648309 0 438 0.648309 1
gene 1 10 129 -0.473261 0 444 -0.473261 1
gene 1 129 21 0.204786 0 445 0.204786 1
gene 1 2 43 0.79563 0 452 0.79563 1
gene 1 11 43 0.636581 0 462 0.636581 1
gene 1 43 23 -0.585289 0 464 -0.585289 1
gene 1 22 21 -0.320936 0 473 -0.320936 1
gene 1 13 135 -0.153871 0 475 -0.153871 1
gene 1 135 23 0.777923 0 476 0.777923 1
gene 1 20 22 0.582743 0 492 0.582743 1
gene 1 3 121 0.348418 0 536 0.348418 1
gene 1 121 43 0.470647 0 583 0.470647 1
gene 1 7 169 0.778745 0 584 0.778745 1
gene 1 169 22 1.13146 0 585 1.13146 1
gene 1 2 170 0.0223801 0 587 0.0223801 1
gene 1 170 20 0.0251706 0 588 0.0251706 1
gene 1 22 172 0.0777134 0 595 0.0777134 1
gene 1 172 23 0.517754 0 596 0.517754 1
gene 1 10 178 0.24444 0 612 0.24444 1
gene 1 178 43 -0.14272 0 613 -0.14272 1
gene 1 2 179 0.0392927 0 614 0.0392927 1
gene 1 179 23 0.404104 0 615 0.404104 1
gene 1 15 172 -0.282785 0 636 -0.282785 1
gene 1 43 129 0.0135227 0 672 0.0135227 1
gene 1 16 170 -0.21105 0 743 -0.21105 1
gene 1 12 135 0.539746 0 746 0.539746 1
gene 1 20 80 0.72925 0 750 0.72925 1
gene 1 12 129 0.942323 0 872 0.942323 1
gene 1 31 179 0.641733 0 921 0.641733 1
gene 1 16 135 -0.606548 0 975 -0.606548 1
gene 1 18 31 -0.808914 0 1011 -0.808914 1
gene 1 178 179 1.16722 0 1022 1.16722 1
gene 1 135 22 -0.232824 0 1072 -0.232824 1
gene 1 179 179 -1.13845 1 1106 -1.13845 1
gene 1 1 281 0.664783 0 1113 0.664783 1
gene 1 281 21 -0.517761 0 1114 -0.517761 1
gene 1 17 285 0.290125 0 1125 0.290125 1
gene 1 285 23 0.81382 0 1126 0.81382 1
gene 1 2 125 0.786842 0 1141 0.786842 1
gene 1 19 31 0.0225733 0 1187 0.0225733 1
genomeend 972
genomestart 989
trait 1 0.266248 0.873958 0.34238 0.563526 0.336518 0.802351 0.616057 0.737729 
node 1 1 1 1 0
node 2 1 1 1 0
node 3 1 1 1 0
node 4 1 1 1 0
node 5 1 1 1 0
node 6 1 1 1 0
node 7 1 1 1 0
node 8 1 1 1 0
node 9 1 1 1 0
node 10 1 1 1 0
node 11 1 1 1 0
node 12 1 1 1 0
node 13 1 1 1 0
node 14 1 1 1 0
node 15 1 1 1 0
node 16 1 1 1 0
node 17 1 1 1 0
node 18 1 1 1 0
node 19 1 1 3 0
node 20 1 0 2 0
node 21 1 0 2 0
node 22 1 0 2 0
node 23 1 0 2 0
node 31 1 0 0 0
node 43 1 0 0 0
node 80 1 0 0 0
node 112 1 0 0 0
node 117 1 0 0 0
node 128 1 0 0 0
node 141 1 0 0 0
node 149 1 0 0 0
node 191 1 0 0 0
node 202 1 0 0 0
node 204 1 0 0 0
node 208 1 0 0 0
node 219 1 0 0 0
node 224 1 0 0 0
node 227 1 0 0 0
node 236 1 0 0 0
node 238 1 0 0 0
node 257 1 0 0 0
node 299 1 0 0 0
gene 1 1 20 -0.300441 0 1 -0.300441 1
gene 1 2 20 0.294865 0 2 0.294865 1
gene 1 3 20 -0.225589 0 3 -0.225589 1
gene 1 4 20 -0.222113 0 4 -0.222113 1
gene 1 5 20 1.45399 0 5 1.45399 1
gene 1 6 20 -0.394054 0 6 -0.394054 1
gene 1 7 20 -1.24191 0 7 -1.24191 1
gene 1 8 20 -0.623627 0 8 -0.623627 1
gene 1 9 20 0.482436 0 9 0.482436 1
gene 1 10 20 -0.168474 0 10 -0.168474 1
gene 1 11 20 0.690216 0 11 0.690216 1
gene 1 12 20 -0.33201 0 12 -0.33201 1
gene 1 13 20 2.18577 0 13 2.18577 1
gene 1 14 20 0.827915 0 14 0.827915 0
gene 1 15 20 0.731311 0 15 0.731311 1
gene 1 16 20 0.396127 0 16 0.396127 1
gene 1 17 20 -0.0384941 0 17 -0.0384941 1
gene 1 18 20 -0.340938 0 18 -0.340938 1
gene 1 19 20 1.19257 0 19 1.19257 1
gene 1 1 21 0.390508 0 20 0.390508 1
gene 1 2 21 0.344381 0 21 0.344381 1
gene 1 3 21 -0.284957 0 22 -0.284957 1
gene 1 4 21 0.432231 0 23 0.432231 1
gene 1 5 21 -0.318688 0 24 -0.318688 1
gene 1 6 21 0.557855 0 25 0.557855 0
gene 1 7 21 -0.923986 0 26 -0.923986 1
gene 1 8 21 -0.262225 0 27 -0.262225 1
gene 1 9 21 -0.291833 0 28 -0.291833 1
gene 1 10 21 -0.210866 0 29 -0.210866 1
gene 1 11 21 0.0914339 0 30 0.0914339 1
gene 1 12 21 1.44661 0 31 1.44661 1
gene 1 13 21 -0.274539 0 32 -0.274539 1
gene 1 14 21 0.80328 0 33 0.80328 1
gene 1 15 21 -2.76368 0 34 -2.76368 1
gene 1 16 21 -0.0987226 0 35 -0.0987226 1
gene 1 17 21 0.997546 0 36 0.997546 1
gene 1 18 21 -0.0227881 0 37 -0.0227881 0
gene 1 19 21 -0.627958 0 38 -0.627958 1
gene 1 1 22 0.84415 0 39 0.84415 1
gene 1 2 22 0.0796015 0 40 0.0796015 1
gene 1 3 22 -0.174297 0 41 -0.174297 1
gene 1 4 22 0.991336 0 42 0.991336 1
gene 1 5 22 0.11276 0 43 0.11276 1
gene 1 6 22 -0.170206 0 44 -0.170206 1
gene 1 7 22 -0.781918 0 45 -0.781918 1
gene 1 8 22 -0.0281842 0 46 -0.0281842 1
gene 1 9 22 0.000530637 0 47 0.000530637 1
gene 1 10 22 -1.10812 0 48 -1.10812 0
gene 1 11 22 0.579384 0 49 0.579384 1
gene 1 12 22 -0.122515 0 50 -0.122515 1
gene 1 13 22 0.617922 0 51 0.617922 1
gene 1 14 22 -0.600689 0 52 -0.600689 1
gene 1 15 22 0.797192 0 53 0.797192 1
gene 1 16 22 0.255842 0 54 0.255842 1
gene 1 17 22 -1.00926 0 55 -1.00926 1
gene 1 18 22 -0.935335 0 56 -0.935335 1
gene 1 19 22 1.00294 0 57 1.00294 1
gene 1 1 23 -0.385257 0 58 -0.385257 1
gene 1 2 23 -0.248776 0 59 -0.248776 0
gene 1 3 23 -0.32362 0 60 -0.32362 1
gene 1 4 23 0.223403 0 61 0.223403 1
gene 1 5 23 -0.198311 0 62 -0.198311 1
gene 1 6 23 0.124323 0 63 0.124323 1
gene 1 7 23 0.451201 0 64 0.451201 1
gene 1 8 23 -0.313218 0 65 -0.313218 1
gene 1 9 23 -0.876732 0 66 -0.876732 1
gene 1 10 23 -0.286792 0 67 -0.286792 1
gene 1 11 23 -0.1136 0 68 -0.1136 1
gene 1 12 23 0.665843 0 69 0.665843 1
gene 1 13 23 -0.663778 0 70 -0.663778 1
gene 1 14 23 -0.640087 0 71 -0.640087 1
gene 1 15 23 0.167369 0 72 0.167369 0
gene 1 16 23 -0.379492 0 73 -0.379492 1
gene 1 17 23 -0.470529 0 74 -0.470529 1
gene 1 18 23 0.29298 0 75 0.29298 0
gene 1 19 23 -0.842935 0 76 -0.842935 1
gene 1 20 21 0.205295 0 78 0.205295 1
gene 1 22 23 -0.140786 0 79 -0.140786 1
gene 1 7 31 0.130541 0 101 0.130541 1
gene 1 31 23 -0.0530676 0 102 -0.0530676 1
gene 1 10 43 -1.39205 0 137 -1.39205 1
gene 1 43 20 0.288293 0 138 0.288293 1
gene 1 1 31 -0.93049 0 197 -0.93049 1
gene 1 18 80 -0.760388 0 241 -0.760388 1
gene 1 80 23 0.211525 0 242 0.211525 1
gene 1 6 112 -0.539762 0 380 -0.539762 1
gene 1 112 21 0.900956 0 381 0.900956 1
gene 1 31 112 0.1892 0 382 0.1892 1
gene 1 12 43 1.03734 0 386 1.03734 1
gene 1 15 112 -0.755338 0 387 -0.755338 1
gene 1 112 20 -0.768419 0 396 -0.768419 1
gene 1 18 43 -0.28836 0 397 -0.28836 1
gene 1 43 31 0.749359 0 400 0.749359 1
gene 1 15 117 -0.669218 0 403 -0.669218 1
gene 1 117 23 -0.460736 0 404 -0.460736 1
gene 1 22 117 -0.406642 0 423 -0.406642 1
gene 1 10 128 -0.0872874 0 440 -0.0872874 1
gene 1 128 22 0.896341 0 441 0.896341 1
gene 1 1 112 0.217072 0 443 0.217072 1
gene 1 2 80 -0.156406 0 451 -0.156406 1
gene 1 6 141 -0.448323 0 497 -0.448323 1
gene 1 141 20 1.02361 0 498 1.02361 1
gene 1 18 149 0.850128 0 519 0.850128 1
gene 1 149 23 0.298167 0 520 0.298167 1
gene 1 80 80 -0.168068 1 551 -0.168068 1
gene 1 112 112 -0.889793 1 597 -0.889793 1
gene 1 23 23 1.48394 1 623 1.48394 1
gene 1 1 191 0.0879769 0 649 0.0879769 1
gene 1 191 20 2.00521 0 650 2.00521 1
gene 1 14 202 0.686507 0 686 0.686507 1
gene 1 202 20 1.02907 0 687 1.02907 1
gene 1 20 20 0.307789 1 688 0.307789 1
gene 1 3 204 0.347909 0 695 0.347909 1
gene 1 204 20 0.931682 0 696 0.931682 1
gene 1 8 208 0.0235791 0 707 0.0235791 1
gene 1 208 21 0.755101 0 708 0.755101 1
gene 1 4 31 0.0533693 0 710 0.0533693 1
gene 1 16 202 -0.38697 0 711 -0.38697 1
gene 1 202 23 0.542169 0 748 0.542169 1
gene 1 1 219 0.29909 0 759 0.29909 1
gene 1 219 23 -0.281644 0 760 -0.281644 1
gene 1 1 128 0.104818 0 761 0.104818 1
gene 1 2 224 -0.242748 0 775 -0.242748 1
gene 1 224 23 -0.667998 0 776 -0.667998 1
gene 1 17 112 0.299939 0 782 0.299939 1
gene 1 18 227 -0.214235 0 783 -0.214235 1
gene 1 227 43 0.280731 0 784 0.280731 1
gene 1 18 236 -0.259022 0 808 -0.259022 1
gene 1 236 21 -0.0247227 0 809 -0.0247227 1
gene 1 14 238 -0.290423 0 814 -0.290423 1
gene 1 238 21 -0.151065 0 815 -0.151065 1
gene 1 12 80 0.231819 0 822 0.231819 1
gene 1 202 202 0.0621375 1 824 0.0621375 1
gene 1 17 257 -0.0293297 0 908 -0.0293297 1
gene 1 257 22 1.01668 0 909 1.01668 1
gene 1 5 117 -0.27963 0 927 -0.27963 1
gene 1 128 23 0.033163 0 945 0.033163 1
gene 1 219 117 0.178558 0 1101 0.178558 1
gene 1 12 112 0.522343 0 1103 0.522343 1
gene 1 117 117 0.479359 1 1104 0.479359 1
gene 1 4 299 1.85348 0 1172 1.85348 1
gene 1 299 20 0.858501 0 1173 0.858501 1
genomeend 989
genomestart 993
trait 1 0.478549 0.641889 0.740361 0.722286 0.421849 0.783396 0.393057 0.948929 
node 1 1 1 1 0
node 2 1 1 1 0
node 3 1 1 1 0
node 4 1 1 1 0
node 5 1 1 1 0
node 6 1 1 1 0
node 7 1 1 1 0
node 8 1 1 1 0
node 9 1 1 1 0
node 10 1 1 1 0
node 11 1 1 1 0
node 12 1 1 1 0
node 13 1 1 1 0
node 14 1 1 1 0
node 15 1 1 1 0
node 16 1 1 1 0
node 17 1 1 1 0
node 18 1 1 1 0
node 19 1 1 3 0
node 20 1 0 2 0
node 21 1 0 2 0
node 22 1 0 2 0
node 23 1 0 2 0
node 31 1 0 0 0
node 43 1 0 0 0
node 80 1 0 0 0
node 121 1 0 0 0
node 125 1 0 0 0
node 129 1 0 0 0
node 135 1 0 0 0
node 169 1 0 0 0
node 170 1 0 0 0
node 172 1 0 0 0
node 178 1 0 0 0
node 179 1 0 0 0
node 281 1 0 0 0
node 285 1 0 0 0
node 291 1 0 0 0
gene 1 1 20 0.488177 0 1 0.488177 1
gene 1 2 20 0.990854 0 2 0.990854 1
gene 1 3 20 0.773191 0 3 0.773191 1
gene 1 4 20 -0.524383 0 4 -0.524383 1
gene 1 5 20 -1.10195 0 5 -1.10195 1
gene 1 6 20 -0.297024 0 6 -0.297024 1
gene 1 7 20 1.11055 0 7 1.11055 1
gene 1 8 20 0.432924 0 8 0.432924 1
gene 1 9 20 -0.182551 0 9 -0.182551 1
gene 1 10 20 0.191376 0 10 0.191376 1
gene 1 11 20 0.0913689 0 11 0.0913689 1
gene 1 12 20 1.83732 0 12 1.83732 1
gene 1 13 20 -0.170112 0 13 -0.170112 1
gene 1 14 20 -0.307758 0 14 -0.307758 1
gene 1 15 20 -0.384227 0 15 -0.384227 1
gene 1 16 20 0.635731 0 16 0.635731 1
gene 1 17 20 1.34539 0 17 1.34539 1
gene 1 18 20 -0.0867032 0 18 -0.0867032 1
gene 1 19 20 1.09001 0 19 1.09001 1
gene 1 1 21 0.301919 0 20 0.301919 0
gene 1 2 21 0.486252 0 21 0.486252 1
gene 1 3 21 -0.109114 0 22 -0.109114 1
gene 1 4 21 0.68171 0 23 0.68171 1
gene 1 5 21 -0.768372 0 24 -0.768372 1
gene 1 6 21 0.752254 0 25 0.752254 1
gene 1 7 21 -0.658303 0 26 -0.658303 1
gene 1 8 21 -0.208128 0 27 -0.208128 1
gene 1 9 21 -0.581143 0 28 -0.581143 1
gene 1 10 21 0.204273 0 29 0.204273 1
gene 1 11 21 -0.27475 0 30 -0.27475 1
gene 1 12 21 0.34729 0 31 0.34729 1
gene 1 13 21 0.128891 0 32 0.128891 1
gene 1 14 21 -0.887515 0 33 -0.887515 1
gene 1 15 21 -0.801861 0 34 -0.801861 1
gene 1 16 21 -0.383949 0 35 -0.383949 1
gene 1 17 21 1.62297 0 36 1.62297 1
gene 1 18 21 -0.218228 0 37 -0.218228 1
gene 1 19 21 -0.690751 0 38 -0.690751 1
gene 1 1 22 -0.420617 0 39 -0.420617 1
gene 1 2 22 1.30242 0 40 1.30242 1
gene 1 3 22 0.547784 0 41 0.547784 1
gene 1 4 22 -0.545834 0 42 -0.545834 1
gene 1 5 22 -0.0945991 0 43 -0.0945991 1
gene 1 6 22 -0.68192 0 44 -0.68192 1
gene 1 7 22 0.0429891 0 45 0.0429891 1
gene 1 8 22 0.304401 0 46 0.304401 1
gene 1 9 22 0.0822831 0 47 0.0822831 1
gene 1 10 22 -0.230368 0 48 -0.230368 1
gene 1 11 22 0.160885 0 49 0.160885 1
gene 1 12 22 -0.551137 0 50 -0.551137 1
gene 1 13 22 0.0219167 0 51 0.0219167 1
gene 1 14 22 0.0690438 0 52 0.0690438 1
gene 1 15 22 0.0188138 0 53 0.0188138 1
gene 1 16 22 0.018799 0 54 0.018799 1
gene 1 17 22 -0.321414 0 55 -0.321414 1
gene 1 18 22 -0.00754891 0 56 -0.00754891 1
gene 1 19 22 1.18282 0 57 1.18282 1
gene 1 1 23 0.341454 0 58 0.341454 1
gene 1 2 23 0.691872 0 59 0.691872 1
gene 1 3 23 -0.774862 0 60 -0.774862 1
gene 1 4 23 0.898691 0 61 0.898691 1
gene 1 5 23 -0.780897 0 62 -0.780897 1
gene 1 6 23 2.13702 0 63 2.13702 1
gene 1 7 23 0.106879 0 64 0.106879 1
gene 1 8 23 -0.434998 0 65 -0.434998 1
gene 1 9 23 -0.383004 0 66 -0.383004 1
gene 1 10 23 -0.106086 0 67 -0.106086 1
gene 1 11 23 -1.04398 0 68 -1.04398 0
gene 1 12 23 0.215802 0 69 0.215802 1
gene 1 13 23 -0.553571 0 70 -0.553571 1
gene 1 14 23 -0.764941 0 71 -0.764941 1
gene 1 15 23 0.820838 0 72 0.820838 1
gene 1 16 23 0.312336 0 73 0.312336 1
gene 1 17 23 0.603817 0 74 0.603817 0
gene 1 18 23 -0.239326 0 75 -0.239326 1
gene 1 19 23 -0.451341 0 76 -0.451341 1
gene 1 20 21 -0.615298 0 78 -0.615298 1
gene 1 22 23 0.183224 0 79 0.183224 1
gene 1 7 31 0.981806 0 101 0.981806 1
gene 1 31 23 -0.434002 0 102 -0.434002 1
gene 1 10 43 0.168586 0 137 0.168586 0
gene 1 43 20 -0.291724 0 138 -0.291724 1
gene 1 1 31 0.167041 0 197 0.167041 1
gene 1 18 80 -0.0930047 0 241 -0.0930047 1
gene 1 80 23 -0.842361 0 242 -0.842361 1
gene 1 12 43 -0.25796 0 386 -0.25796 1
gene 1 23 23 0.659195 1 407 0.659195 1
gene 1 31 21 0.0311495 0 413 0.0311495 1
gene 1 1 121 -0.701185 0 414 -0.701185 1
gene 1 121 31 -0.701116 0 415 -0.701116 1
gene 1 20 20 1.46923 1 426 1.46923 1
gene 1 11 125 0.462124 0 430 0.462124 1
gene 1 125 23 0.354826 0 431 0.354826 1
gene 1 19 125 -0.679765 0 435 -0.679765 1
gene 1 43 21 1.06436 0 438 1.06436 1
gene 1 10 129 -0.141172 0 444 -0.141172 1
gene 1 129 21 0.101584 0 445 0.101584 1
gene 1 2 43 0.409169 0 452 0.409169 1
gene 1 11 43 0.399718 0 462 0.399718 1
gene 1 43 23 -0.080265 0 464 -0.080265 1
gene 1 22 21 0.329836 0 473 0.329836 1
gene 1 13 135 -0.267174 0 475 -0.267174 1
gene 1 135 23 -0.156771 0 476 -0.156771 1
gene 1 20 22 1.07563 0 492 1.07563 1
gene 1 3 121 -0.328547 0 536 -0.328547 1
gene 1 121 43 0.351459 0 583 0.351459 1
gene 1 7 169 -0.137589 0 584 -0.137589 1
gene 1 169 22 -0.0649929 0 585 -0.0649929 1
gene 1 2 170 -0.158698 0 587 -0.158698 1
gene 1 170 20 -0.646258 0 588 -0.646258 1
gene 1 22 172 0.34269 0 595 0.34269 1
gene 1 172 23 0.199067 0 596 0.199067 1
gene 1 10 178 0.0991031 0 612 0.0991031 1
gene 1 178 43 0.397906 0 613 0.397906 1
gene 1 2 179 -0.129612 0 614 -0.129612 1
gene 1 179 23 -0.125659 0 615 -0.125659 1
gene 1 15 172 -0.0902609 0 636 -0.0902609 1
gene 1 43 129 0.67684 0 672 0.67684 1
gene 1 16 170 0.243039 0 743 0.243039 1
gene 1 12 135 0.799996 0 746 0.799996 1
gene 1 20 80 1.06194 0 750 1.06194 1
gene 1 12 129 0.212212 0 872 0.212212 1
gene 1 31 179 0.468634 0 921 0.468634 1
gene 1 16 135 -0.0277024 0 975 -0.0277024 1
gene 1 18 31 -0.358256 0 1011 -0.358256 1
gene 1 178 179 0.996706 0 1022 0.996706 1
gene 1 135 22 -0.271075 0 1072 -0.271075 1
gene 1 179 179 -0.712886 1 1106 -0.712886 1
gene 1 1 281 -0.487438 0 1113 -0.487438 1
gene 1 281 21 -0.347637 0 1114 -0.347637 1
gene 1 17 285 0.169506 0 1125 0.169506 1
gene 1 285 23 0.691012 0 1126 0.691012 1
gene 1 2 125 -0.436234 0 1141 -0.436234 1
gene 1 18 291 0.776916 0 1143 0.776916 1
gene 1 291 31 0.10524 0 1144 0.10524 1
genomeend 993
genomestart 1028
trait 1 0.486924 0.90929 0.200395 0.912312 0.56481 0.922627 0.491618 0.674957 
node 1 1 1 1 0
node 2 1 1 1 0
node 3 1 1 1 0
node 4 1 1 1 0
node 5 1 1 1 0
node 6 1 1 1 0
node 7 1 1 1 0
node 8 1 1 1 0
node 9 1 1 1 0
node 10 1 1 1 0
node 11 1 1 1 0
node 12 1 1 1 0
node 13 1 1 1 0
node 14 1 1 1 0
node 15 1 1 1 0
node 16 1 1 1 0
node 17 1 1 1 0
node 18 1 1 1 0
node 19 1 1 3 0
node 20 1 0 2 0
node 21 1 0 2 0
node 22 1 0 2 0
node 23 1 0 2 0
node 31 1 0 0 0
node 43 1 0 0 0
node 80 1 0 0 0
node 112 1 0 0 0
node 128 1 0 0 0
node 202 1 0 0 0
node 204 1 0 0 0
node 227 1 0 0 0
gene 1 1 20 -0.440834 0 1 -0.440834 1
gene 1 2 20 0.614738 0 2 0.614738 1
gene 1 3 20 -1.16098 0 3 -1.16098 1
gene 1 4 20 0.463813 0 4 0.463813 1
gene 1 5 20 0.270697 0 5 0.270697 1
gene 1 6 20 0.383109 0 6 0.383109 1
gene 1 7 20 0.524667 0 7 0.524667 1
gene 1 8 20 -0.286381 0 8 -0.286381 1
gene 1 9 20 0.148395 0 9 0.148395 1
gene 1 10 20 -0.723279 0 10 -0.723279 1
gene 1 11 20 1.5598 0 11 1.5598 1
gene 1 12 20 -0.143097 0 12 -0.143097 1
gene 1 13 20 1.65273 0 13 1.65273 1
gene 1 14 20 -0.892082 0 14 -0.892082 0
gene 1 15 20 0.334216 0 15 0.334216 1
gene 1 16 20 0.858216 0 16 0.858216 1
gene 1 17 20 0.082036 0 17 0.082036 1
gene 1 18 20 -0.336221 0 18 -0.336221 1
gene 1 19 20 2.57458 0 19 2.57458 1
gene 1 1 21 0.402548 0 20 0.402548 1
gene 1 2 21 -0.0731718 0 21 -0.0731718 1
gene 1 3 21 -0.784945 0 22 -0.784945 1
gene 1 4 21 -0.079415 0 23 -0.079415 1
gene 1 5 21 0.197271 0 24 0.197271 1
gene 1 6 21 -0.633786 0 25 -0.633786 1
gene 1 7 21 1.47676 0 26 1.47676 1
gene 1 8 21 -0.280926 0 27 -0.280926 1
gene 1 9 21 0.0753955 0 28 0.0753955 1
gene 1 10 21 -1.07904 0 29 -1.07904 1
gene 1 11 21 -0.330892 0 30 -0.330892 1
gene 1 12 21 0.740808 0 31 0.740808 1
gene 1 13 21 -1.23735 0 32 -1.23735 1
gene 1 14 21 0.432654 0 33 0.432654 1
gene 1 15 21 -1.8795 0 34 -1.8795 1
gene 1 16 21 0.509469 0 35 0.509469 1
gene 1 17 21 0.238619 0 36 0.238619 1
gene 1 18 21 0.345045 0 37 0.345045 1
gene 1 19 21 0.221571 0 38 0.221571 1
gene 1 1 22 0.830856 0 39 0.830856 1
gene 1 2 22 -0.349334 0 40 -0.349334 1
gene 1 3 22 -0.0514017 0 41 -0.0514017 1
gene 1 4 22 0.750521 0 42 0.750521 1
gene 1 5 22 0.945063 0 43 0.945063 1
gene 1 6 22 -0.994636 0 44 -0.994636 1
gene 1 7 22 0.107939 0 45 0.107939 1
gene 1 8 22 -0.946214 0 46 -0.946214 1
gene 1 9 22 -0.122529 0 47 -0.122529 1
gene 1 10 22 0.314347 0 48 0.314347 0
gene 1 11 22 0.0604118 0 49 0.0604118 1
gene 1 12 22 0.61299 0 50 0.61299 1
gene 1 13 22 -0.327808 0 51 -0.327808 1
gene 1 14 22 -0.405979 0 52 -0.405979 1
gene 1 15 22 0.0481624 0 53 0.0481624 1
gene 1 16 22 0.232275 0 54 0.232275 1
gene 1 17 22 -0.146365 0 55 -0.146365 1
gene 1 18 22 -0.974546 0 56 -0.974546 1
gene 1 19 22 0.353236 0 57 0.353236 1
gene 1 1 23 -0.301273 0 58 -0.301273 1
gene 1 2 23 0.220498 0 59 0.220498 1
gene 1 3 23 0.0862739 0 60 0.0862739 1
gene 1 4 23 -0.0867843 0 61 -0.0867843 1
gene 1 5 23 -0.677423 0 62 -0.677423 1
gene 1 6 23 0.0754793 0 63 0.0754793 1
gene 1 7 23 -0.141398 0 64 -0.141398 1
gene 1 8 23 0.209869 0 65 0.209869 1
gene 1 9 23 0.0740433 0 66 0.0740433 1
gene 1 10 23 0.917839 0 67 0.917839 1
gene 1 11 23 0.586802 0 68 0.586802 1
gene 1 12 23 -0.0600677 0 69 -0.0600677 1
gene 1 13 23 -0.263905 0 70 -0.263905 1
gene 1 14 23 -1.00067 0 71 -1.00067 1
gene 1 15 23 1.21147 0 72 1.21147 1
gene 1 16 23 -1.01766 0 73 -1.01766 1
gene 1 17 23 0.710988 0 74 0.710988 1
gene 1 18 23 -0.386616 0 75 -0.386616 1
gene 1 19 23 0.616103 0 76 0.616103 1
gene 1 20 21 1.16302 0 78 1.16302 1
gene 1 22 23 -0.0632425 0 79 -0.0632425 1
gene 1 7 31 -0.543166 0 101 -0.543166 1
gene 1 31 23 0.507913 0 102 0.507913 1
gene 1 10 43 -0.0293146 0 137 -0.0293146 1
gene 1 43 20 0.718225 0 138 0.718225 1
gene 1 1 31 -0.425925 0 197 -0.425925 1
gene 1 18 80 0.424163 0 241 0.424163 1
gene 1 80 23 0.360031 0 242 0.360031 1
gene 1 6 112 -0.638132 0 380 -0.638132 1
gene 1 112 21 0.379235 0 381 0.379235 1
gene 1 12 43 -0.0133275 0 386 -0.0133275 1
gene 1 112 20 0.398115 0 396 0.398115 1
gene 1 18 43 0.13764 0 397 0.13764 0
gene 1 10 128 0.814182 0 440 0.814182 1
gene 1 128 22 1.19055 0 441 1.19055 1
gene 1 1 112 0.479258 0 443 0.479258 1
gene 1 112 112 -0.26434 1 597 -0.26434 1
gene 1 23 23 0.652568 1 623 0.652568 1
gene 1 14 202 0.393148 0 686 0.393148 1
gene 1 202 20 0.552631 0 687 0.552631 1
gene 1 3 204 0.968859 0 695 0.968859 1
gene 1 204 20 0.137884 0 696 0.137884 1
gene 1 4 31 -0.0329758 0 710 -0.0329758 1
gene 1 16 202 0.490376 0 711 0.490376 1
gene 1 202 23 0.269975 0 748 0.269975 1
gene 1 18 227 -0.183969 0 783 -0.183969 1
gene 1 227 43 0.172261 0 784 0.172261 1
gene 1 128 23 0.228479 0 945 0.228479 1
gene 1 227 20 -0.216743 0 1105 -0.216743 1
gene 1 17 112 -1.33781 0 1140 -1.33781 1
gene 1 204 204 -0.0236687 1 1161 -0.0236687 1
genomeend 1028
genomestart 1032
trait 1 0.478549 0.641889 0.740361 0.722286 0.421849 0.783396 0.393057 0.948929 
node 1 1 1 1 0
node 2 1 1 1 0
node 3 1 1 1 0
node 4 1 1 1 0
node 5 1 1 1 0
node 6 1 1 1 0
node 7 1 1 1 0
node 8 1 1 1 0
node 9 1 1 1 0
node 10 1 1 1 0
node 11 1 1 1 0
node 12 1 1 1 0
node 13 1 1 1 0
node 14 1 1 1 0
node 15 1 1 1 0
node 16 1 1 1 0
node 17 1 1 1 0
node 18 1 1 1 0
node 19 1 1 3 0
node 20 1 0 2 0
node 21 1 0 2 0
node 22 1 0 2 0
node 23 1 0 2 0
node 31 1 0 0 0
node 43 1 0 0 0
node 80 1 0 0 0
node 121 1 0 0 0
node 125 1 0 0 0
node 129 1 0 0 0
node 135 1 0 0 0
node 169 1 0 0 0
node 170 1 0 0 0
node 172 1 0 0 0
node 178 1 0 0 0
node 179 1 0 0 0
node 281 1 0 0 0
node 285 1 0 0 0
node 291 1 0 0 0
gene 1 1 20 0.699338 0 1 0.699338 1
gene 1 2 20 1.1701 0 2 1.1701 1
gene 1 3 20 -0.0959598 0 3 -0.0959598 1
gene 1 4 20 -0.223063 0 4 -0.223063 1
gene 1 5 20 -1.10691 0 5 -1.10691 1
gene 1 6 20 -0.323886 0 6 -0.323886 1
gene 1 7 20 0.68323 0 7 0.68323 1
gene 1 8 20 0.590142 0 8 0.590142 1
gene 1 9 20 -0.425239 0 9 -0.425239 1
gene 1 10 20 -0.0884971 0 10 -0.0884971 1
gene 1 11 20 -0.169819 0 11 -0.169819 1
gene 1 12 20 1.13437 0 12 1.13437 1
gene 1 13 20 0.56951 0 13 0.56951 1
gene 1 14 20 0.15548 0 14 0.15548 1
gene 1 15 20 -0.792985 0 15 -0.792985 1
gene 1 16 20 0.0659478 0 16 0.0659478 1
gene 1 17 20 1.37913 0 17 1.37913 1
gene 1 18 20 0.362337 0 18 0.362337 1
gene 1 19 20 1.7199 0 19 1.7199 1
gene 1 1 21 0.223937 0 20 0.223937 1
gene 1 2 21 0.627872 0 21 0.627872 1
gene 1 3 21 0.227289 0 22 0.227289 1
gene 1 4 21 1.01232 0 23 1.01232 1
gene 1 5 21 -0.501593 0 24 -0.501593 1
gene 1 6 21 -0.0127492 0 25 -0.0127492 1
gene 1 7 21 -0.974891 0 26 -0.974891 1
gene 1 8 21 -0.293012 0 27 -0.293012 1
gene 1 9 21 0.146952 0 28 0.146952 1
gene 1 10 21 0.514772 0 29 0.514772 1
gene 1 11 21 0.0268724 0 30 0.0268724 1
gene 1 12 21 0.250613 0 31 0.250613 1
gene 1 13 21 0.209817 0 32 0.209817 1
gene 1 14 21 -0.694148 0 33 -0.694148 1
gene 1 15 21 -0.432316 0 34 -0.432316 1
gene 1 16 21 0.287167 0 35 0.287167 1
gene 1 17 21 1.159 0 36 1.159 1
gene 1 18 21 0.0648624 0 37 0.0648624 1
gene 1 19 21 -1.10264 0 38 -1.10264 1
gene 1 1 22 -0.598152 0 39 -0.598152 1
gene 1 2 22 1.1489 0 40 1.1489 1
gene 1 3 22 0.59097 0 41 0.59097 1
gene 1 4 22 -0.229947 0 42 -0.229947 1
gene 1 5 22 -0.274991 0 43 -0.274991 1
gene 1 6 22 -0.375763 0 44 -0.375763 1
gene 1 7 22 -0.424785 0 45 -0.424785 1
gene 1 8 22 0.107329 0 46 0.107329 1
gene 1 9 22 0.0175173 0 47 0.0175173 1
gene 1 10 22 1.30922 0 48 1.30922 1
gene 1 11 22 0.207305 0 49 0.207305 1
gene 1 12 22 -0.496225 0 50 -0.496225 1
gene 1 13 22 -0.15385 0 51 -0.15385 1
gene 1 14 22 -0.52271 0 52 -0.52271 1
gene 1 15 22 0.0128168 0 53 0.0128168 1
gene 1 16 22 -0.208414 0 54 -0.208414 1
gene 1 17 22 -0.743064 0 55 -0.743064 1
gene 1 18 22 -0.411666 0 56 -0.411666 1
gene 1 19 22 0.39171 0 57 0.39171 1
gene 1 1 23 -0.182522 0 58 -0.182522 1
gene 1 2 23 0.805363 0 59 0.805363 1
gene 1 3 23 -0.661712 0 60 -0.661712 1
gene 1 4 23 0.54606 0 61 0.54606 1
gene 1 5 23 -0.715308 0 62 -0.715308 1
gene 1 6 23 0.995038 0 63 0.995038 1
gene 1 7 23 -0.237258 0 64 -0.237258 1
gene 1 8 23 0.887556 0 65 0.887556 1
gene 1 9 23 -0.247956 0 66 -0.247956 1
gene 1 10 23 -0.247387 0 67 -0.247387 1
gene 1 11 23 -0.516055 0 68 -0.516055 0
gene 1 12 23 -0.0972254 0 69 -0.0972254 1
gene 1 13 23 -0.324544 0 70 -0.324544 1
gene 1 14 23 -0.676322 0 71 -0.676322 1
gene 1 15 23 0.0614984 0 72 0.0614984 1
gene 1 16 23 -0.413107 0 73 -0.413107 1
gene 1 17 23 0.275532 0 74 0.275532 0
gene 1 18 23 -0.213364 0 75 -0.213364 1
gene 1 19 23 -0.499389 0 76 -0.499389 1
gene 1 20 21 -0.339882 0 78 -0.339882 1
gene 1 22 23 -0.157956 0 79 -0.157956 1
gene 1 7 31 0.420657 0 101 0.420657 1
gene 1 31 23 -0.602505 0 102 -0.602505 1
gene 1 10 43 -0.0794848 0 137 -0.0794848 0
gene 1 43 20 -0.590277 0 138 -0.590277 1
gene 1 1 31 -0.20385 0 197 -0.20385 1
gene 1 18 80 0.347871 0 241 0.347871 1
gene 1 80 23 0.0128055 0 242 0.0128055 1
gene 1 12 43 -0.0262705 0 386 -0.0262705 1
gene 1 23 23 0.336966 1 407 0.336966 1
gene 1 31 21 -0.0526056 0 413 -0.0526056 1
gene 1 1 121 -0.139355 0 414 -0.139355 1
gene 1 121 31 0.132319 0 415 0.132319 1
gene 1 20 20 1.13867 1 426 1.13867 1
gene 1 11 125 0.365429 0 430 0.365429 1
gene 1 125 23 -1.51576 0 431 -1.51576 1
gene 1 19 125 -0.704217 0 435 -0.704217 1
gene 1 43 21 0.744122 0 438 0.744122 1
gene 1 10 129 0.195133 0 444 0.195133 1
gene 1 129 21 0.325636 0 445 0.325636 1
gene 1 2 43 0.215849 0 452 0.215849 1
gene 1 11 43 0.136674 0 462 0.136674 1
gene 1 43 23 -0.397354 0 464 -0.397354 1
gene 1 22 21 -0.187766 0 473 -0.187766 1
gene 1 13 135 -0.0197725 0 475 -0.0197725 1
gene 1 135 23 0.107198 0 476 0.107198 1
gene 1 20 22 0.357755 0 492 0.357755 1
gene 1 3 121 -0.131784 0 536 -0.131784 1
gene 1 121 43 0.627717 0 583 0.627717 1
gene 1 7 169 0.430072 0 584 0.430072 1
gene 1 169 22 1.42481 0 585 1.42481 1
gene 1 2 170 0.132791 0 587 0.132791 1
gene 1 170 20 -0.468243 0 588 -0.468243 1
gene 1 22 172 0.248675 0 595 0.248675 1
gene 1 172 23 -0.0973488 0 596 -0.0973488 1
gene 1 10 178 -0.260576 0 612 -0.260576 1
gene 1 178 43 -0.0655589 0 613 -0.0655589 1
gene 1 2 179 0.190694 0 614 0.190694 1
gene 1 179 23 -0.261103 0 615 -0.261103 1
gene 1 15 172 0.196558 0 636 0.196558 1
gene 1 43 129 0.269405 0 672 0.269405 1
gene 1 16 170 -0.34302 0 743 -0.34302 1
gene 1 12 135 0.313937 0 746 0.313937 1
gene 1 20 80 0.816048 0 750 0.816048 1
gene 1 12 129 0.0396462 0 872 0.0396462 1
gene 1 31 179 0.060881 0 921 0.060881 1
gene 1 16 135 0.354421 0 975 0.354421 1
gene 1 18 31 -0.193 0 1011 -0.193 1
gene 1 178 179 0.71135 0 1022 0.71135 1
gene 1 135 22 -0.149086 0 1072 -0.149086 1
gene 1 179 179 -0.724593 1 1106 -0.724593 1
gene 1 1 281 0.883466 0 1113 0.883466 1
gene 1 281 21 -0.0781568 0 1114 -0.0781568 1
gene 1 17 285 0.64179 0 1125 0.64179 1
gene 1 285 23 0.341171 0 1126 0.341171 1
gene 1 2 125 0.786842 0 1141 0.786842 1
gene 1 18 291 1 0 1143 1 1
gene 1 291 31 0.0509236 0 1144 0.0509236 1
genomeend 1032
genomestart 1034
trait 1 0.266248 0.873958 0.34238 0.563526 0.336518 0.802351 0.616057 0.737729 
node 1 1 1 1 0
node 2 1 1 1 0
node 3 1 1 1 0
node 4 1 1 1 0
node 5 1 1 1 0
node 6 1 1 1 0
node 7 1 1 1 0
node 8 1 1 1 0
node 9 1 1 1 0
node 10 1 1 1 0
node 11 1 1 1 0
node 12 1 1 1 0
node 13 1 1 1 0
node 14 1 1 1 0
node 15 1 1 1 0
node 16 1 1 1 0
node 17 1 1 1 0
node 18 1 1 1 0
node 19 1 1 3 0
node 20 1 0 2 0
node 21 1 0 2 0
node 22 1 0 2 0
node 23 1 0 2 0
node 31 1 0 0 0
node 43 1 0 0 0
node 80 1 0 0 0
node 112 1 0 0 0
node 117 1 0 0 0
node 128 1 0 0 0
node 141 1 0 0 0
node 149 1 0 0 0
node 191 1 0 0 0
node 202 1 0 0 0
node 204 1 0 0 0
node 208 1 0 0 0
node 219 1 0 0 0
node 224 1 0 0 0
node 227 1 0 0 0
node 236 1 0 0 0
node 238 1 0 0 0
node 257 1 0 0 0
node 299 1 0 0 0
gene 1 1 20 0.0104249 0 1 0.0104249 1
gene 1 2 20 -0.0220288 0 2 -0.0220288 1
gene 1 3 20 -0.619887 0 3 -0.619887 1
gene 1 4 20 -0.419579 0 4 -0.419579 1
gene 1 5 20 1.51783 0 5 1.51783 1
gene 1 6 20 0.0899054 0 6 0.0899054 1
gene 1 7 20 -1.68515 0 7 -1.68515 1
gene 1 8 20 -1.0814 0 8 -1.0814 1
gene 1 9 20 0.236629 0 9 0.236629 1
gene 1 10 20 -0.598613 0 10 -0.598613 1
gene 1 11 20 0.746569 0 11 0.746569 1
gene 1 12 20 -0.257929 0 12 -0.257929 1
gene 1 13 20 1.86713 0 13 1.86713 1
gene 1 14 20 0.814183 0 14 0.814183 0
gene 1 15 20 0.759131 0 15 0.759131 1
gene 1 16 20 -0.0119215 0 16 -0.0119215 1
gene 1 17 20 -0.47842 0 17 -0.47842 1
gene 1 18 20 -0.528783 0 18 -0.528783 1
gene 1 19 20 1.38911 0 19 1.38911 1
gene 1 1 21 0.459387 0 20 0.459387 1
gene 1 2 21 -0.0164252 0 21 -0.0164252 1
gene 1 3 21 0.0579706 0 22 0.0579706 1
gene 1 4 21 0.571808 0 23 0.571808 1
gene 1 5 21 0.0141636 0 24 0.0141636 1
gene 1 6 21 0.496765 0 25 0.496765 0
gene 1 7 21 -0.92237 0 26 -0.92237 1
gene 1 8 21 0.224987 0 27 0.224987 1
gene 1 9 21 -0.756737 0 28 -0.756737 1
gene 1 10 21 -0.262716 0 29 -0.262716 1
gene 1 11 21 0.221717 0 30 0.221717 1
gene 1 12 21 1.19418 0 31 1.19418 1
gene 1 13 21 -0.181719 0 32 -0.181719 1
gene 1 14 21 0.404338 0 33 0.404338 1
gene 1 15 21 -3 0 34 -3 1
gene 1 16 21 -0.321209 0 35 -0.321209 1
gene 1 17 21 1.22586 0 36 1.22586 1
gene 1 18 21 0.237336 0 37 0.237336 0
gene 1 19 21 -0.374112 0 38 -0.374112 1
gene 1 1 22 0.853597 0 39 0.853597 1
gene 1 2 22 -0.171617 0 40 -0.171617 1
gene 1 3 22 -0.508977 0 41 -0.508977 1
gene 1 4 22 0.830328 0 42 0.830328 1
gene 1 5 22 0.156299 0 43 0.156299 1
gene 1 6 22 0.16733 0 44 0.16733 1
gene 1 7 22 -1.00878 0 45 -1.00878 1
gene 1 8 22 -0.0428119 0 46 -0.0428119 1
gene 1 9 22 -0.29607 0 47 -0.29607 1
gene 1 10 22 -0.760161 0 48 -0.760161 0
gene 1 11 22 0.612943 0 49 0.612943 1
gene 1 12 22 0.100742 0 50 0.100742 1
gene 1 13 22 0.416506 0 51 0.416506 1
gene 1 14 22 -0.180861 0 52 -0.180861 1
gene 1 15 22 0.683724 0 53 0.683724 1
gene 1 16 22 0.571727 0 54 0.571727 1
gene 1 17 22 -0.607361 0 55 -0.607361 1
gene 1 18 22 -1.13366 0 56 -1.13366 1
gene 1 19 22 0.841877 0 57 0.841877 1
gene 1 1 23 -0.601358 0 58 -0.601358 1
gene 1 2 23 -0.331906 0 59 -0.331906 0
gene 1 3 23 -0.27515 0 60 -0.27515 1
gene 1 4 23 -0.16535 0 61 -0.16535 1
gene 1 5 23 -0.368575 0 62 -0.368575 1
gene 1 6 23 0.262263 0 63 0.262263 1
gene 1 7 23 0.554223 0 64 0.554223 1
gene 1 8 23 -0.7461 0 65 -0.7461 1
gene 1 9 23 -0.800616 0 66 -0.800616 1
gene 1 10 23 -0.0175919 0 67 -0.0175919 1
gene 1 11 23 -0.571194 0 68 -0.571194 1
gene 1 12 23 0.941942 0 69 0.941942 1
gene 1 13 23 -0.733876 0 70 -0.733876 1
gene 1 14 23 -0.460996 0 71 -0.460996 1
gene 1 15 23 -0.0390023 0 72 -0.0390023 0
gene 1 16 23 -0.827042 0 73 -0.827042 1
gene 1 17 23 -0.845633 0 74 -0.845633 1
gene 1 18 23 0.687431 0 75 0.687431 0
gene 1 19 23 -0.848995 0 76 -0.848995 1
gene 1 20 21 -0.00948685 0 78 -0.00948685 1
gene 1 22 23 -0.539263 0 79 -0.539263 1
gene 1 7 31 0.514367 0 101 0.514367 1
gene 1 31 23 -0.120951 0 102 -0.120951 1
gene 1 10 43 -1.37282 0 137 -1.37282 1
gene 1 43 20 -0.142588 0 138 -0.142588 1
gene 1 1 31 -1.21466 0 197 -1.21466 1
gene 1 18 80 -0.471901 0 241 -0.471901 1
gene 1 80 23 -0.0758603 0 242 -0.0758603 1
gene 1 6 112 -0.532354 0 380 -0.532354 1
gene 1 112 21 0.544005 0 381 0.544005 1
gene 1 31 112 0.348244 0 382 0.348244 1
gene 1 12 43 0.857949 0 386 0.857949 1
gene 1 15 112 -1.2158 0 387 -1.2158 1
gene 1 112 20 -1.09328 0 396 -1.09328 1
gene 1 18 43 -0.142433 0 397 -0.142433 1
gene 1 43 31 1.20373 0 400 1.20373 1
gene 1 15 117 -0.572193 0 403 -0.572193 1
gene 1 117 23 -0.139287 0 404 -0.139287 1
gene 1 22 117 -0.567579 0 423 -0.567579 1
gene 1 10 128 0.238506 0 440 0.238506 1
gene 1 128 22 0.644372 0 441 0.644372 1
gene 1 1 112 0.512467 0 443 0.512467 1
gene 1 2 80 0.140641 0 451 0.140641 1
gene 1 6 141 -0.560068 0 497 -0.560068 1
gene 1 141 20 0.658519 0 498 0.658519 1
gene 1 18 149 0.35464 0 519 0.35464 1
gene 1 149 23 0.350761 0 520 0.350761 1
gene 1 80 80 0.0625802 1 551 0.0625802 1
gene 1 112 112 -0.985118 1 597 -0.985118 1
gene 1 23 23 1.33597 1 623 1.33597 1
gene 1 1 191 0.347987 0 649 0.347987 1
gene 1 191 20 2.38336 0 650 2.38336 1
gene 1 14 202 0.552646 0 686 0.552646 1
gene 1 202 20 0.959726 0 687 0.959726 1
gene 1 20 20 -0.132592 1 688 -0.132592 1
gene 1 3 204 0.388149 0 695 0.388149 1
gene 1 204 20 0.920536 0 696 0.920536 1
gene 1 8 208 0.436335 0 707 0.436335 1
gene 1 208 21 0.484203 0 708 0.484203 1
gene 1 4 31 0.231998 0 710 0.231998 1
gene 1 16 202 0.280244 0 711 0.280244 1
gene 1 202 23 0.648569 0 748 0.648569 1
gene 1 1 219 0.44083 0 759 0.44083 1
gene 1 219 23 -0.281644 0 760 -0.281644 1
gene 1 1 128 -0.438155 0 761 -0.438155 1
gene 1 2 224 -0.244278 0 775 -0.244278 1
gene 1 224 23 0.201738 0 776 0.201738 1
gene 1 17 112 0.138362 0 782 0.138362 1
gene 1 18 227 -0.214235 0 783 -0.214235 1
gene 1 227 43 -0.0984142 0 784 -0.0984142 1
gene 1 18 236 -0.0603774 0 808 -0.0603774 1
gene 1 236 21 0.170306 0 809 0.170306 1
gene 1 14 238 -0.290423 0 814 -0.290423 1
gene 1 238 21 0.177168 0 815 0.177168 1
gene 1 12 80 0.231819 0 822 0.231819 1
gene 1 202 202 0.0621375 1 824 0.0621375 1
gene 1 17 257 -0.372512 0 908 -0.372512 1
gene 1 257 22 1.24783 0 909 1.24783 1
gene 1 5 117 -0.27963 0 927 -0.27963 1
gene 1 128 23 0.342927 0 945 0.342927 1
gene 1 219 117 0.178558 0 1101 0.178558 1
gene 1 12 112 0.490007 0 1103 0.490007 1
gene 1 117 117 0.043677 1 1104 0.043677 1
gene 1 4 299 -0.435478 0 1172 -0.435478 1
gene 1 299 20 0.614179 0 1173 0.614179 1
genomeend 1034
genomestart 1050
trait 1 0.27456 0.833427 0.137659 0.747945 0.337259 0.832205 0.71313 0.688016 
node 1 1 1 1 0
node 2 1 1 1 0
node 3 1 1 1 0
node 4 1 1 1 0
node 5 1 1 1 0
node 6 1 1 1 0
node 7 1 1 1 0
node 8 1 1 1 0
node 9 1 1 1 0
node 10 1 1 1 0
node 11 1 1 1 0
node 12 1 1 1 0
node 13 1 1 1 0
node 14 1 1 1 0
node 15 1 1 1 0
node 16 1 1 1 0
node 17 1 1 1 0
node 18 1 1 1 0
node 19 1 1 3 0
node 20 1 0 2 0
node 21 1 0 2 0
node 22 1 0 2 0
node 23 1 0 2 0
node 31 1 0 0 0
node 43 1 0 0 0
node 80 1 0 0 0
node 112 1 0 0 0
node 117 1 0 0 0
node 128 1 0 0 0
node 141 1 0 0 0
node 149 1 0 0 0
node 191 1 0 0 0
node 202 1 0 0 0
node 204 1 0 0 0
node 208 1 0 0 0
node 219 1 0 0 0
node 224 1 0 0 0
node 227 1 0 0 0
node 236 1 0 0 0
node 238 1 0 0 0
node 257 1 0 0 0
gene 1 1 20 0.370464 0 1 0.370464 1
gene 1 2 20 0.11997 0 2 0.11997 1
gene 1 3 20 0.354994 0 3 0.354994 1
gene 1 4 20 -0.0638881 0 4 -0.0638881 1
gene 1 5 20 1.06359 0 5 1.06359 1
gene 1 6 20 0.207213 0 6 0.207213 1
gene 1 7 20 -0.771952 0 7 -0.771952 1
gene 1 8 20 -0.471989 0 8 -0.471989 1
gene 1 9 20 0.506702 0 9 0.506702 1
gene 1 10 20 0.0609502 0 10 0.0609502 1
gene 1 11 20 -0.17419 0 11 -0.17419 1
gene 1 12 20 0.605065 0 12 0.605065 1
gene 1 13 20 1.72846 0 13 1.72846 1
gene 1 14 20 -0.389141 0 14 -0.389141 1
gene 1 15 20 0.17222 0 15 0.17222 1
gene 1 16 20 0.583096 0 16 0.583096 1
gene 1 17 20 0.354035 0 17 0.354035 1
gene 1 18 20 0.225655 0 18 0.225655 1
gene 1 19 20 1.23666 0 19 1.23666 1
gene 1 1 21 -0.166068 0 20 -0.166068 1
gene 1 2 21 0.197699 0 21 0.197699 1
gene 1 3 21 0.0886255 0 22 0.0886255 1
gene 1 4 21 -0.119529 0 23 -0.119529 1
gene 1 5 21 0.606804 0 24 0.606804 1
gene 1 6 21 0.172501 0 25 0.172501 0
gene 1 7 21 -1.23986 0 26 -1.23986 1
gene 1 8 21 -0.516434 0 27 -0.516434 1
gene 1 9 21 0.59075 0 28 0.59075 1
gene 1 10 21 -0.146119 0 29 -0.146119 1
gene 1 11 21 -0.0211359 0 30 -0.0211359 1
gene 1 12 21 0.718252 0 31 0.718252 1
gene 1 13 21 -0.284705 0 32 -0.284705 1
gene 1 14 21 0.664808 0 33 0.664808 1
gene 1 15 21 -2.39654 0 34 -2.39654 1
gene 1 16 21 0.00964709 0 35 0.00964709 1
gene 1 17 21 0.363886 0 36 0.363886 1
gene 1 18 21 0.429942 0 37 0.429942 0
gene 1 19 21 -0.591187 0 38 -0.591187 1
gene 1 1 22 0.316501 0 39 0.316501 1
gene 1 2 22 -0.384288 0 40 -0.384288 1
gene 1 3 22 0.860225 0 41 0.860225 1
gene 1 4 22 -0.112449 0 42 -0.112449 1
gene 1 5 22 -0.166267 0 43 -0.166267 1
gene 1 6 22 0.813601 0 44 0.813601 1
gene 1 7 22 -1.11976 0 45 -1.11976 1
gene 1 8 22 -0.609406 0 46 -0.609406 1
gene 1 9 22 0.00200483 0 47 0.00200483 1
gene 1 10 22 -1.16161 0 48 -1.16161 0
gene 1 11 22 -0.56738 0 49 -0.56738 1
gene 1 12 22 -0.324872 0 50 -0.324872 1
gene 1 13 22 0.230392 0 51 0.230392 1
gene 1 14 22 0.216576 0 52 0.216576 1
gene 1 15 22 -0.400109 0 53 -0.400109 1
gene 1 16 22 0.312651 0 54 0.312651 1
gene 1 17 22 -0.258274 0 55 -0.258274 1
gene 1 18 22 -0.729604 0 56 -0.729604 1
gene 1 19 22 0.0959027 0 57 0.0959027 1
gene 1 1 23 0.12416 0 58 0.12416 1
gene 1 2 23 0.294425 0 59 0.294425 0
gene 1 3 23 -0.30604 0 60 -0.30604 1
gene 1 4 23 -0.0511924 0 61 -0.0511924 1
gene 1 5 23 -0.0553205 0 62 -0.0553205 1
gene 1 6 23 -0.076614 0 63 -0.076614 1
gene 1 7 23 0.358255 0 64 0.358255 1
gene 1 8 23 0.147836 0 65 0.147836 1
gene 1 9 23 -1.67425 0 66 -1.67425 1
gene 1 10 23 -0.120511 0 67 -0.120511 1
gene 1 11 23 0.201479 0 68 0.201479 1
gene 1 12 23 0.124329 0 69 0.124329 1
gene 1 13 23 -0.999701 0 70 -0.999701 1
gene 1 14 23 -0.552594 0 71 -0.552594 1
gene 1 15 23 -0.120441 0 72 -0.120441 0
gene 1 16 23 0.000274111 0 73 0.000274111 1
gene 1 17 23 -0.571218 0 74 -0.571218 1
gene 1 18 23 0.121061 0 75 0.121061 0
gene 1 19 23 -0.220971 0 76 -0.220971 1
gene 1 20 21 0.825321 0 78 0.825321 1
gene 1 22 23 -0.57131 0 79 -0.57131 1
gene 1 7 31 -0.324759 0 101 -0.324759 1
gene 1 31 23 -0.0431091 0 102 -0.0431091 1
gene 1 10 43 -0.169118 0 137 -0.169118 1
gene 1 43 20 0.263065 0 138 0.263065 1
gene 1 1 31 0.0877064 0 197 0.0877064 1
gene 1 18 80 -0.415274 0 241 -0.415274 1
gene 1 80 23 -0.334012 0 242 -0.334012 1
gene 1 6 112 -0.205473 0 380 -0.205473 1
gene 1 112 21 0.50665 0 381 0.50665 1
gene 1 31 112 -0.437812 0 382 -0.437812 1
gene 1 12 43 -0.0615557 0 386 -0.0615557 1
gene 1 15 112 -0.0594652 0 387 -0.0594652 1
gene 1 112 20 -0.56616 0 396 -0.56616 1
gene 1 18 43 0.154156 0 397 0.154156 1
gene 1 43 31 0.166799 0 400 0.166799 1
gene 1 15 117 -0.547409 0 403 -0.547409 1
gene 1 117 23 -0.341974 0 404 -0.341974 1
gene 1 22 117 -0.311839 0 423 -0.311839 1
gene 1 10 128 0.27128 0 440 0.27128 1
gene 1 128 22 -0.431407 0 441 -0.431407 1
gene 1 1 112 0.0767677 0 443 0.0767677 1
gene 1 2 80 -0.00663261 0 451 -0.00663261 1
gene 1 6 141 0.118649 0 497 0.118649 1
gene 1 141 20 0.528298 0 498 0.528298 1
gene 1 18 149 0.703835 0 519 0.703835 1
gene 1 149 23 -0.0584687 0 520 -0.0584687 1
gene 1 80 80 -0.0636991 1 551 -0.0636991 1
gene 1 112 112 -0.00266152 1 597 -0.00266152 1
gene 1 23 23 0.396068 1 623 0.396068 1
gene 1 1 191 1.10744 0 649 1.10744 1
gene 1 191 20 1.16845 0 650 1.16845 1
gene 1 14 202 0.372739 0 686 0.372739 1
gene 1 202 20 0.354691 0 687 0.354691 1
gene 1 20 20 0.148343 1 688 0.148343 1
gene 1 3 204 0.901766 0 695 0.901766 1
gene 1 204 20 0.0511583 0 696 0.0511583 1
gene 1 8 208 -0.0196936 0 707 -0.0196936 1
gene 1 208 21 0.153169 0 708 0.153169 1
gene 1 4 31 -0.0852829 0 710 -0.0852829 1
gene 1 16 202 -0.21853 0 711 -0.21853 1
gene 1 202 23 -1.00163 0 748 -1.00163 1
gene 1 1 219 -0.351028 0 759 -0.351028 1
gene 1 219 23 0.00438181 0 760 0.00438181 1
gene 1 1 128 -0.196842 0 761 -0.196842 1
gene 1 2 224 0.0497104 0 775 0.0497104 1
gene 1 224 23 -0.553343 0 776 -0.553343 1
gene 1 17 112 0.636669 0 782 0.636669 1
gene 1 18 227 -0.255596 0 783 -0.255596 1
gene 1 227 43 0.00699172 0 784 0.00699172 1
gene 1 18 236 -0.25564 0 808 -0.25564 1
gene 1 236 21 -0.31687 0 809 -0.31687 1
gene 1 14 238 0.0666468 0 814 0.0666468 1
gene 1 238 21 0.034871 0 815 0.034871 1
gene 1 12 80 0.138977 0 822 0.138977 1
gene 1 202 202 0.252693 1 824 0.252693 1
gene 1 17 257 -0.1386 0 908 -0.1386 1
gene 1 257 22 0.775954 0 909 0.775954 1
gene 1 5 117 0.0989797 0 927 0.0989797 1
gene 1 128 23 -0.575763 0 945 -0.575763 1
gene 1 12 112 0.188678 0 1103 0.188678 1
genomeend 1050
genomestart 1051
trait 1 0.258106 0.912813 0.200422 0.915717 0.564742 0.961401 0.222229 0.7553 
node 1 1 1 1 0
node 2 1 1 1 0
node 3 1 1 1 0
node 4 1 1 1 0
node 5 1 1 1 0
node 6 1 1 1 0
node 7 1 1 1 0
node 8 1 1 1 0
node 9 1 1 1 0
node 10 1 1 1 0
node 11 1 1 1 0
node 12 1 1 1 0
node 13 1 1 1 0
node 14 1 1 1 0
node 15 1 1 1 0
node 16 1 1 1 0
node 17 1 1 1 0
node 18 1 1 1 0
node 19 1 1 3 0
node 20 1 0 2 0
node 21 1 0 2 0
node 22 1 0 2 0
node 23 1 0 2 0
node 31 1 0 0 0
node 43 1 0 0 0
node 80 1 0 0 0
node 112 1 0 0 0
node 128 1 0 0 0
node 202 1 0 0 0
node 204 1 0 0 0
node 227 1 0 0 0
gene 1 1 20 0.33778 0 1 0.33778 1
gene 1 2 20 0.688516 0 2 0.688516 1
gene 1 3 20 -0.628018 0 3 -0.628018 1
gene 1 4 20 1.56743 0 4 1.56743 1
gene 1 5 20 -0.482372 0 5 -0.482372 1
gene 1 6 20 0.921831 0 6 0.921831 1
gene 1 7 20 1.42371 0 7 1.42371 1
gene 1 8 20 0.269949 0 8 0.269949 1
gene 1 9 20 0.570678 0 9 0.570678 1
gene 1 10 20 0.0269613 0 10 0.0269613 1
gene 1 11 20 1.87943 0 11 1.87943 1
gene 1 12 20 -0.260177 0 12 -0.260177 1
gene 1 13 20 0.587482 0 13 0.587482 1
gene 1 14 20 -0.279427 0 14 -0.279427 0
gene 1 15 20 -1.01299 0 15 -1.01299 1
gene 1 16 20 2.07586 0 16 2.07586 1
gene 1 17 20 0.407634 0 17 0.407634 1
gene 1 18 20 -0.111855 0 18 -0.111855 1
gene 1 19 20 2.16297 0 19 2.16297 1
gene 1 1 21 -0.329629 0 20 -0.329629 1
gene 1 2 21 -1.20283 0 21 -1.20283 1
gene 1 3 21 -0.89738 0 22 -0.89738 1
gene 1 4 21 0.17118 0 23 0.17118 1
gene 1 5 21 -0.00195467 0 24 -0.00195467 1
gene 1 6 21 0.543471 0 25 0.543471 1
gene 1 7 21 0.882325 0 26 0.882325 1
gene 1 8 21 -0.3574 0 27 -0.3574 1
gene 1 9 21 -1.75066 0 28 -1.75066 1
gene 1 10 21 -1.29091 0 29 -1.29091 1
gene 1 11 21 -0.582785 0 30 -0.582785 1
gene 1 12 21 0.581109 0 31 0.581109 1
gene 1 13 21 -0.796565 0 32 -0.796565 1
gene 1 14 21 -0.844434 0 33 -0.844434 1
gene 1 15 21 -0.897262 0 34 -0.897262 1
gene 1 16 21 -0.384436 0 35 -0.384436 1
gene 1 17 21 -0.210756 0 36 -0.210756 1
gene 1 18 21 0.0839302 0 37 0.0839302 1
gene 1 19 21 -0.53885 0 38 -0.53885 1
gene 1 1 22 1.32115 0 39 1.32115 1
gene 1 2 22 1.00947 0 40 1.00947 1
gene 1 3 22 -1.73584 0 41 -1.73584 1
gene 1 4 22 -0.52617 0 42 -0.52617 1
gene 1 5 22 -0.0848144 0 43 -0.0848144 1
gene 1 6 22 0.379808 0 44 0.379808 1
gene 1 7 22 0.7111 0 45 0.7111 1
gene 1 8 22 -0.523539 0 46 -0.523539 1
gene 1 9 22 0.256128 0 47 0.256128 1
gene 1 10 22 -0.229655 0 48 -0.229655 0
gene 1 11 22 -0.303851 0 49 -0.303851 1
gene 1 12 22 0.176145 0 50 0.176145 1
gene 1 13 22 0.346412 0 51 0.346412 1
gene 1 14 22 -0.725725 0 52 -0.725725 1
gene 1 15 22 0.320015 0 53 0.320015 1
gene 1 16 22 -1.31634 0 54 -1.31634 1
gene 1 17 22 -0.417468 0 55 -0.417468 1
gene 1 18 22 -0.168441 0 56 -0.168441 1
gene 1 19 22 0.268646 0 57 0.268646 1
gene 1 1 23 -0.577522 0 58 -0.577522 1
gene 1 2 23 0.674984 0 59 0.674984 1
gene 1 3 23 0.782763 0 60 0.782763 1
gene 1 4 23 1.96927 0 61 1.96927 1
gene 1 5 23 0.16304 0 62 0.16304 1
gene 1 6 23 -0.263465 0 63 -0.263465 1
gene 1 7 23 0.13773 0 64 0.13773 1
gene 1 8 23 -0.52998 0 65 -0.52998 1
gene 1 9 23 -0.155206 0 66 -0.155206 1
gene 1 10 23 0.768485 0 67 0.768485 1
gene 1 11 23 1.60689 0 68 1.60689 1
gene 1 12 23 -0.696517 0 69 -0.696517 1
gene 1 13 23 0.420619 0 70 0.420619 1
gene 1 14 23 0.358224 0 71 0.358224 1
gene 1 15 23 -0.0016267 0 72 -0.0016267 1
gene 1 16 23 -1.1301 0 73 -1.1301 1
gene 1 17 23 0.996862 0 74 0.996862 1
gene 1 18 23 0.266217 0 75 0.266217 1
gene 1 19 23 0.0621477 0 76 0.0621477 1
gene 1 20 21 -0.84365 0 78 -0.84365 1
gene 1 22 23 -0.589073 0 79 -0.589073 1
gene 1 7 31 -0.658461 0 101 -0.658461 1
gene 1 31 23 1.20539 0 102 1.20539 1
gene 1 10 43 -0.700994 0 137 -0.700994 1
gene 1 43 20 1.7076 0 138 1.7076 1
gene 1 1 31 0.463757 0 197 0.463757 1
gene 1 18 80 0.855416 0 241 0.855416 1
gene 1 80 23 0.329414 0 242 0.329414 1
gene 1 6 112 -0.462175 0 380 -0.462175 1
gene 1 112 21 1.42041 0 381 1.42041 1
gene 1 12 43 -0.932622 0 386 -0.932622 1
gene 1 112 20 0.425589 0 396 0.425589 1
gene 1 18 43 -0.100232 0 397 -0.100232 0
gene 1 10 128 0.756909 0 440 0.756909 1
gene 1 128 22 0.401547 0 441 0.401547 1
gene 1 1 112 0.1292 0 443 0.1292 1
gene 1 112 112 -0.990933 1 597 -0.990933 1
gene 1 23 23 0.179494 1 623 0.179494 1
gene 1 14 202 -0.507817 0 686 -0.507817 1
gene 1 202 20 0.246868 0 687 0.246868 1
gene 1 3 204 -0.396644 0 695 -0.396644 1
gene 1 204 20 0.410913 0 696 0.410913 1
gene 1 4 31 0.719075 0 710 0.719075 1
gene 1 16 202 0.383618 0 711 0.383618 1
gene 1 202 23 0.000816611 0 748 0.000816611 1
