genomestart 1359
trait 1 0 0.463637 0.108007 0 0.112842 0.0408744 0.470235 0.210896 
node 1 1 1 1 0
node 2 1 1 1 0
node 3 1 1 1 0
node 4 1 1 1 0
node 5 1 1 1 0
node 6 1 1 1 0
node 7 1 1 1 0
node 8 1 1 1 0
node 9 1 1 1 0
node 10 1 1 1 0
node 11 1 1 1 0
node 12 1 1 1 0
node 13 1 1 1 0
node 14 1 1 1 0
node 15 1 1 1 0
node 16 1 1 1 0
node 17 1 1 1 0
node 18 1 1 1 0
node 19 1 1 3 0
node 20 1 0 2 0
node 21 1 0 2 0
node 22 1 0 2 0
node 23 1 0 2 0
node 24 1 0 0 0
node 26 1 0 0 0
node 39 1 0 0 0
node 49 1 0 0 0
gene 1 1 20 -0.0670626 0 1 -0.0670626 1
gene 1 2 20 0.0129334 0 2 0.0129334 1
gene 1 3 20 0.0827704 0 3 0.0827704 1
gene 1 4 20 0.125992 0 4 0.125992 1
gene 1 5 20 0.935103 0 5 0.935103 1
gene 1 6 20 0.0232477 0 6 0.0232477 1
gene 1 7 20 0.583671 0 7 0.583671 1
gene 1 8 20 -0.0273319 0 8 -0.0273319 1
gene 1 9 20 -0.152431 0 9 -0.152431 1
gene 1 10 20 -0.435038 0 10 -0.435038 1
gene 1 11 20 0.343597 0 11 0.343597 1
gene 1 12 20 -0.89433 0 12 -0.89433 1
gene 1 13 20 -1.98217 0 13 -1.98217 1
gene 1 14 20 -0.450083 0 14 -0.450083 0
gene 1 15 20 0.0893994 0 15 0.0893994 1
gene 1 16 20 -1.04839 0 16 -1.04839 1
gene 1 17 20 -0.900926 0 17 -0.900926 1
gene 1 18 20 1.36764 0 18 1.36764 1
gene 1 19 20 0.27126 0 19 0.27126 1
gene 1 1 21 -0.975599 0 20 -0.975599 1
gene 1 2 21 1.77036 0 21 1.77036 1
gene 1 3 21 -0.104893 0 22 -0.104893 0
gene 1 4 21 -0.121521 0 23 -0.121521 1
gene 1 5 21 -0.314715 0 24 -0.314715 1
gene 1 6 21 0.391302 0 25 0.391302 1
gene 1 7 21 -0.473687 0 26 -0.473687 1
gene 1 8 21 -0.335395 0 27 -0.335395 1
gene 1 9 21 -0.336558 0 28 -0.336558 1
gene 1 10 21 0.215336 0 29 0.215336 1
gene 1 11 21 -0.249481 0 30 -0.249481 1
gene 1 12 21 -0.247005 0 31 -0.247005 1
gene 1 13 21 -0.061494 0 32 -0.061494 1
gene 1 14 21 0.172768 0 33 0.172768 1
gene 1 15 21 0.211288 0 34 0.211288 1
gene 1 16 21 0.0943 0 35 0.0943 1
gene 1 17 21 0.194053 0 36 0.194053 1
gene 1 18 21 0.437403 0 37 0.437403 1
gene 1 19 21 -0.0271637 0 38 -0.0271637 1
gene 1 1 22 -0.46386 0 39 -0.46386 1
gene 1 2 22 0.0798316 0 40 0.0798316 1
gene 1 3 22 -0.341933 0 41 -0.341933 1
gene 1 4 22 0.924645 0 42 0.924645 1
gene 1 5 22 0.301073 0 43 0.301073 1
gene 1 6 22 0.0218552 0 44 0.0218552 1
gene 1 7 22 0.333965 0 45 0.333965 1
gene 1 8 22 -0.81893 0 46 -0.81893 1
gene 1 9 22 0.518826 0 47 0.518826 1
gene 1 10 22 -0.740607 0 48 -0.740607 1
gene 1 11 22 0.0997536 0 49 0.0997536 1
gene 1 12 22 -0.226617 0 50 -0.226617 1
gene 1 13 22 -0.414958 0 51 -0.414958 1
gene 1 14 22 0.588716 0 52 0.588716 1
gene 1 15 22 1.06327 0 53 1.06327 1
gene 1 16 22 0.922484 0 54 0.922484 1
gene 1 17 22 -0.222694 0 55 -0.222694 1
gene 1 18 22 -0.727981 0 56 -0.727981 1
gene 1 19 22 0.212269 0 57 0.212269 1
gene 1 1 23 0.793518 0 58 0.793518 1
gene 1 2 23 -0.284193 0 59 -0.284193 1
gene 1 3 23 -0.426395 0 60 -0.426395 1
gene 1 4 23 0.21111 0 61 0.21111 1
gene 1 5 23 -0.0915231 0 62 -0.0915231 1
gene 1 6 23 -0.118496 0 63 -0.118496 1
gene 1 7 23 0.833978 0 64 0.833978 1
gene 1 8 23 -0.456836 0 65 -0.456836 1
gene 1 9 23 0.169018 0 66 0.169018 1
gene 1 10 23 0.618921 0 67 0.618921 1
gene 1 11 23 -0.333616 0 68 -0.333616 1
gene 1 12 23 0.72911 0 69 0.72911 1
gene 1 13 23 -0.40708 0 70 -0.40708 1
gene 1 14 23 -0.0341833 0 71 -0.0341833 1
gene 1 15 23 -0.431051 0 72 -0.431051 1
gene 1 16 23 0.187498 0 73 0.187498 1
gene 1 17 23 0.369603 0 74 0.369603 1
gene 1 18 23 -0.144831 0 75 -0.144831 1
gene 1 19 23 0.112797 0 76 0.112797 1
gene 1 4 24 0.288149 0 77 0.288149 1
gene 1 24 20 -0.667464 0 78 -0.667464 1
gene 1 3 26 -0.245003 0 81 -0.245003 1
gene 1 26 21 0.641817 0 82 0.641817 1
gene 1 22 26 0.31266 0 105 0.31266 1
gene 1 9 39 0.273947 0 121 0.273947 1
gene 1 39 21 -0.394873 0 122 -0.394873 1
gene 1 16 26 0.059419 0 139 0.059419 1
gene 1 22 39 0.170063 0 146 0.170063 1
gene 1 23 26 -0.496844 0 147 -0.496844 1
gene 1 14 49 0.00498815 0 164 0.00498815 1
gene 1 49 20 -0.189575 0 165 -0.189575 1
gene 1 17 26 -0.0714092 0 177 -0.0714092 1
gene 1 26 26 -0.731305 1 178 -0.731305 1
genomeend 1359
genomestart 1372
trait 1 0 0.00203655 0.357196 0 0 0.235403 0.370191 0.186208 
node 1 1 1 1 0
node 2 1 1 1 0
node 3 1 1 1 0
node 4 1 1 1 0
node 5 1 1 1 0
node 6 1 1 1 0
node 7 1 1 1 0
node 8 1 1 1 0
node 9 1 1 1 0
node 10 1 1 1 0
node 11 1 1 1 0
node 12 1 1 1 0
node 13 1 1 1 0
node 14 1 1 1 0
node 15 1 1 1 0
node 16 1 1 1 0
node 17 1 1 1 0
node 18 1 1 1 0
node 19 1 1 3 0
node 20 1 0 2 0
node 21 1 0 2 0
node 22 1 0 2 0
node 23 1 0 2 0
node 26 1 0 0 0
node 27 1 0 0 0
node 30 1 0 0 0
node 31 1 0 0 0
node 38 1 0 0 0
gene 1 1 20 0.131109 0 1 0.131109 1
gene 1 2 20 -0.049668 0 2 -0.049668 1
gene 1 3 20 1.58593 0 3 1.58593 1
gene 1 4 20 -0.371363 0 4 -0.371363 1
gene 1 5 20 0.372141 0 5 0.372141 1
gene 1 6 20 -0.560569 0 6 -0.560569 1
gene 1 7 20 0.428936 0 7 0.428936 1
gene 1 8 20 0.688845 0 8 0.688845 1
gene 1 9 20 -0.207401 0 9 -0.207401 0
gene 1 10 20 -1.03307 0 10 -1.03307 1
gene 1 11 20 -0.280048 0 11 -0.280048 1
gene 1 12 20 0.0962296 0 12 0.0962296 1
gene 1 13 20 -0.489489 0 13 -0.489489 1
gene 1 14 20 0.121567 0 14 0.121567 1
gene 1 15 20 0.14923 0 15 0.14923 1
gene 1 16 20 -0.168968 0 16 -0.168968 1
gene 1 17 20 0.057447 0 17 0.057447 1
gene 1 18 20 -0.487741 0 18 -0.487741 1
gene 1 19 20 -1.25917 0 19 -1.25917 1
gene 1 1 21 0.467831 0 20 0.467831 1
gene 1 2 21 0.400939 0 21 0.400939 1
gene 1 3 21 0.769014 0 22 0.769014 0
gene 1 4 21 -0.383965 0 23 -0.383965 1
gene 1 5 21 0.0461706 0 24 0.0461706 1
gene 1 6 21 -0.0310827 0 25 -0.0310827 1
gene 1 7 21 0.312661 0 26 0.312661 1
gene 1 8 21 -0.73256 0 27 -0.73256 1
gene 1 9 21 -0.492813 0 28 -0.492813 1
gene 1 10 21 0.812889 0 29 0.812889 1
gene 1 11 21 0.759382 0 30 0.759382 1
gene 1 12 21 1.24491 0 31 1.24491 1
gene 1 13 21 0.138429 0 32 0.138429 1
gene 1 14 21 0.699594 0 33 0.699594 1
gene 1 15 21 -0.16064 0 34 -0.16064 1
gene 1 16 21 -0.343142 0 35 -0.343142 1
gene 1 17 21 0.0259796 0 36 0.0259796 1
gene 1 18 21 -0.429512 0 37 -0.429512 1
gene 1 19 21 0.11767 0 38 0.11767 1
gene 1 1 22 -0.846744 0 39 -0.846744 1
gene 1 2 22 -1.18074 0 40 -1.18074 1
gene 1 3 22 -0.175093 0 41 -0.175093 1
gene 1 4 22 -0.248987 0 42 -0.248987 1
gene 1 5 22 1.31813 0 43 1.31813 1
gene 1 6 22 0.192306 0 44 0.192306 0
gene 1 7 22 -0.363954 0 45 -0.363954 1
gene 1 8 22 1.04469 0 46 1.04469 1
gene 1 9 22 -0.13838 0 47 -0.13838 1
gene 1 10 22 -0.898316 0 48 -0.898316 1
gene 1 11 22 0.719415 0 49 0.719415 1
gene 1 12 22 -0.75997 0 50 -0.75997 1
gene 1 13 22 -1.30645 0 51 -1.30645 1
gene 1 14 22 0.787228 0 52 0.787228 1
gene 1 15 22 0.23123 0 53 0.23123 1
gene 1 16 22 0.920154 0 54 0.920154 1
gene 1 17 22 1.69426 0 55 1.69426 1
gene 1 18 22 1.83692 0 56 1.83692 1
gene 1 19 22 0.735166 0 57 0.735166 1
gene 1 1 23 -0.0787589 0 58 -0.0787589 1
gene 1 2 23 -0.407398 0 59 -0.407398 1
gene 1 3 23 -1.35286 0 60 -1.35286 0
gene 1 4 23 -0.0312192 0 61 -0.0312192 1
gene 1 5 23 0.83771 0 62 0.83771 1
gene 1 6 23 -0.384785 0 63 -0.384785 1
gene 1 7 23 0.425802 0 64 0.425802 1
gene 1 8 23 0.0299211 0 65 0.0299211 1
gene 1 9 23 0.374856 0 66 0.374856 1
gene 1 10 23 0.9242 0 67 0.9242 1
gene 1 11 23 -0.126626 0 68 -0.126626 1
gene 1 12 23 0.220632 0 69 0.220632 1
gene 1 13 23 0.210456 0 70 0.210456 1
gene 1 14 23 -0.324519 0 71 -0.324519 1
gene 1 15 23 -0.4868 0 72 -0.4868 1
gene 1 16 23 -0.132702 0 73 -0.132702 1
gene 1 17 23 -0.281367 0 74 -0.281367 1
gene 1 18 23 -0.0357302 0 75 -0.0357302 1
gene 1 19 23 -0.39404 0 76 -0.39404 1
gene 1 3 26 0.42495 0 81 0.42495 1
gene 1 26 21 -0.885671 0 82 -0.885671 1
gene 1 22 20 0.0113371 0 83 0.0113371 1
gene 1 3 27 -0.690086 0 84 -0.690086 1
gene 1 27 23 0.147344 0 85 0.147344 1
gene 1 9 30 0.0940091 0 93 0.0940091 1
gene 1 30 20 0.133813 0 94 0.133813 1
gene 1 6 31 0.0439588 0 98 0.0439588 1
gene 1 31 22 -1.14405 0 99 -1.14405 1
gene 1 21 23 0.00240295 0 101 0.00240295 1
gene 1 23 22 0.42228 0 104 0.42228 1
gene 1 16 38 -0.432221 0 119 -0.432221 1
gene 1 38 23 0.291467 0 120 0.291467 1
gene 1 14 27 0.670912 0 130 0.670912 1
gene 1 10 27 -0.222702 0 159 -0.222702 1
gene 1 1 31 -0.0322842 0 160 -0.0322842 1
genomeend 1372
genomestart 1428
trait 1 0 0.00204986 0.382617 0 0 0.309031 0.355551 0.198905 
node 1 1 1 1 0
node 2 1 1 1 0
node 3 1 1 1 0
node 4 1 1 1 0
node 5 1 1 1 0
node 6 1 1 1 0
node 7 1 1 1 0
node 8 1 1 1 0
node 9 1 1 1 0
node 10 1 1 1 0
node 11 1 1 1 0
node 12 1 1 1 0
node 13 1 1 1 0
node 14 1 1 1 0
node 15 1 1 1 0
node 16 1 1 1 0
node 17 1 1 1 0
node 18 1 1 1 0
node 19 1 1 3 0
node 20 1 0 2 0
node 21 1 0 2 0
node 22 1 0 2 0
node 23 1 0 2 0
node 26 1 0 0 0
node 27 1 0 0 0
node 30 1 0 0 0
node 31 1 0 0 0
node 38 1 0 0 0
gene 1 1 20 1.48231 0 1 1.48231 1
gene 1 2 20 0.480302 0 2 0.480302 1
gene 1 3 20 1.28827 0 3 1.28827 1
gene 1 4 20 -0.211067 0 4 -0.211067 1
gene 1 5 20 0.486963 0 5 0.486963 1
gene 1 6 20 0.498453 0 6 0.498453 1
gene 1 7 20 -0.58879 0 7 -0.58879 1
gene 1 8 20 0.14427 0 8 0.14427 1
gene 1 9 20 0.0832354 0 9 0.0832354 0
gene 1 10 20 0.263713 0 10 0.263713 1
gene 1 11 20 0.114326 0 11 0.114326 1
gene 1 12 20 -0.0174825 0 12 -0.0174825 1
gene 1 13 20 -0.457136 0 13 -0.457136 1
gene 1 14 20 -0.377041 0 14 -0.377041 1
gene 1 15 20 0.127208 0 15 0.127208 1
gene 1 16 20 -0.67676 0 16 -0.67676 1
gene 1 17 20 -0.320202 0 17 -0.320202 1
gene 1 18 20 -0.126246 0 18 -0.126246 1
gene 1 19 20 -1.73228 0 19 -1.73228 1
gene 1 1 21 -0.377583 0 20 -0.377583 1
gene 1 2 21 0.025192 0 21 0.025192 1
gene 1 3 21 0.451903 0 22 0.451903 1
gene 1 4 21 -0.795927 0 23 -0.795927 1
gene 1 5 21 -0.0202664 0 24 -0.0202664 1
gene 1 6 21 -0.395443 0 25 -0.395443 1
gene 1 7 21 -0.409673 0 26 -0.409673 1
gene 1 8 21 -0.832577 0 27 -0.832577 1
gene 1 9 21 0.118859 0 28 0.118859 1
gene 1 10 21 0.15716 0 29 0.15716 1
gene 1 11 21 -0.684248 0 30 -0.684248 1
gene 1 12 21 0.85627 0 31 0.85627 1
gene 1 13 21 0.336714 0 32 0.336714 1
gene 1 14 21 0.804455 0 33 0.804455 1
gene 1 15 21 -0.00976346 0 34 -0.00976346 1
gene 1 16 21 -0.484853 0 35 -0.484853 1
gene 1 17 21 -0.361852 0 36 -0.361852 1
gene 1 18 21 0.319869 0 37 0.319869 1
gene 1 19 21 -0.0758243 0 38 -0.0758243 1
gene 1 1 22 -0.481137 0 39 -0.481137 1
gene 1 2 22 -1.19272 0 40 -1.19272 1
gene 1 3 22 -0.68464 0 41 -0.68464 1
gene 1 4 22 -0.285337 0 42 -0.285337 1
gene 1 5 22 0.682249 0 43 0.682249 1
gene 1 6 22 0.23169 0 44 0.23169 0
gene 1 7 22 -0.34672 0 45 -0.34672 1
gene 1 8 22 1.29171 0 46 1.29171 1
gene 1 9 22 0.382529 0 47 0.382529 1
gene 1 10 22 -0.173215 0 48 -0.173215 1
gene 1 11 22 0.0390534 0 49 0.0390534 1
gene 1 12 22 0.313109 0 50 0.313109 1
gene 1 13 22 -0.60667 0 51 -0.60667 1
gene 1 14 22 0.452806 0 52 0.452806 1
gene 1 15 22 -0.204901 0 53 -0.204901 1
gene 1 16 22 0.630061 0 54 0.630061 1
gene 1 17 22 1.51964 0 55 1.51964 1
gene 1 18 22 1.43208 0 56 1.43208 1
gene 1 19 22 0.153744 0 57 0.153744 1
gene 1 1 23 0.524574 0 58 0.524574 1
gene 1 2 23 0.0146055 0 59 0.0146055 1
gene 1 3 23 -0.259829 0 60 -0.259829 0
gene 1 4 23 0.413956 0 61 0.413956 1
gene 1 5 23 0.123237 0 62 0.123237 1
gene 1 6 23 -0.646146 0 63 -0.646146 1
gene 1 7 23 0.475445 0 64 0.475445 1
gene 1 8 23 0.421351 0 65 0.421351 1
gene 1 9 23 0.247181 0 66 0.247181 1
gene 1 10 23 -0.195505 0 67 -0.195505 1
gene 1 11 23 0.90176 0 68 0.90176 1
gene 1 12 23 0.645063 0 69 0.645063 1
gene 1 13 23 0.31626 0 70 0.31626 1
gene 1 14 23 -0.213104 0 71 -0.213104 1
gene 1 15 23 1.42445 0 72 1.42445 1
gene 1 16 23 -0.237752 0 73 -0.237752 1
gene 1 17 23 0.453604 0 74 0.453604 1
gene 1 18 23 -0.495156 0 75 -0.495156 1
gene 1 19 23 -0.036469 0 76 -0.036469 1
gene 1 3 26 -0.213359 0 81 -0.213359 1
gene 1 26 21 -0.531204 0 82 -0.531204 1
gene 1 22 20 -0.801265 0 83 -0.801265 1
gene 1 3 27 -0.74773 0 84 -0.74773 1
gene 1 27 23 -0.512465 0 85 -0.512465 1
gene 1 9 30 0.212202 0 93 0.212202 1
gene 1 30 20 0.0660318 0 94 0.0660318 1
gene 1 6 31 0.669728 0 98 0.669728 1
gene 1 31 22 -0.498666 0 99 -0.498666 1
gene 1 21 23 -0.0175063 0 101 -0.0175063 1
gene 1 23 22 0.703651 0 104 0.703651 1
gene 1 16 38 0.0103203 0 119 0.0103203 1
gene 1 38 23 -0.237708 0 120 -0.237708 1
gene 1 14 27 0.628651 0 130 0.628651 1
gene 1 10 27 -0.157046 0 159 -0.157046 1
gene 1 1 31 -0.320617 0 160 -0.320617 1
genomeend 1428
genomestart 1430
trait 1 0 0.00204986 0.382617 0 0 0.309031 0.355551 0.198905 
node 1 1 1 1 0
node 2 1 1 1 0
node 3 1 1 1 0
node 4 1 1 1 0
node 5 1 1 1 0
node 6 1 1 1 0
node 7 1 1 1 0
node 8 1 1 1 0
node 9 1 1 1 0
node 10 1 1 1 0
node 11 1 1 1 0
node 12 1 1 1 0
node 13 1 1 1 0
node 14 1 1 1 0
node 15 1 1 1 0
node 16 1 1 1 0
node 17 1 1 1 0
node 18 1 1 1 0
node 19 1 1 3 0
node 20 1 0 2 0
node 21 1 0 2 0
node 22 1 0 2 0
node 23 1 0 2 0
node 26 1 0 0 0
node 27 1 0 0 0
node 30 1 0 0 0
node 31 1 0 0 0
node 38 1 0 0 0
gene 1 1 20 0.624868 0 1 0.624868 1
gene 1 2 20 0.38111 0 2 0.38111 1
gene 1 3 20 1.85542 0 3 1.85542 1
gene 1 4 20 -0.278081 0 4 -0.278081 1
gene 1 5 20 0.925295 0 5 0.925295 1
gene 1 6 20 -0.74628 0 6 -0.74628 1
gene 1 7 20 -0.599019 0 7 -0.599019 1
gene 1 8 20 0.476341 0 8 0.476341 1
gene 1 9 20 0.249031 0 9 0.249031 0
gene 1 10 20 -1.02424 0 10 -1.02424 1
gene 1 11 20 -0.74857 0 11 -0.74857 1
gene 1 12 20 -0.0794861 0 12 -0.0794861 1
gene 1 13 20 -0.0280764 0 13 -0.0280764 1
gene 1 14 20 -0.138686 0 14 -0.138686 1
gene 1 15 20 -0.274548 0 15 -0.274548 1
gene 1 16 20 -0.638489 0 16 -0.638489 1
gene 1 17 20 0.171447 0 17 0.171447 1
gene 1 18 20 -0.0323349 0 18 -0.0323349 1
gene 1 19 20 -0.195639 0 19 -0.195639 1
gene 1 1 21 0.498029 0 20 0.498029 1
gene 1 2 21 0.45706 0 21 0.45706 1
gene 1 3 21 0.108459 0 22 0.108459 1
gene 1 4 21 -0.974675 0 23 -0.974675 1
gene 1 5 21 -0.481272 0 24 -0.481272 1
gene 1 6 21 -0.528729 0 25 -0.528729 1
gene 1 7 21 -0.0273397 0 26 -0.0273397 1
gene 1 8 21 -0.685409 0 27 -0.685409 1
gene 1 9 21 -0.153687 0 28 -0.153687 1
gene 1 10 21 -0.0167233 0 29 -0.0167233 1
gene 1 11 21 -0.674928 0 30 -0.674928 1
gene 1 12 21 0.363626 0 31 0.363626 1
gene 1 13 21 -0.154028 0 32 -0.154028 1
gene 1 14 21 0.340413 0 33 0.340413 1
gene 1 15 21 -0.212711 0 34 -0.212711 1
gene 1 16 21 -0.490263 0 35 -0.490263 1
gene 1 17 21 0.104321 0 36 0.104321 1
gene 1 18 21 0.461661 0 37 0.461661 1
gene 1 19 21 0.332625 0 38 0.332625 1
gene 1 1 22 -0.481137 0 39 -0.481137 1
gene 1 2 22 -0.75321 0 40 -0.75321 1
gene 1 3 22 -0.174597 0 41 -0.174597 1
gene 1 4 22 0.162526 0 42 0.162526 1
gene 1 5 22 0.724524 0 43 0.724524 1
gene 1 6 22 0.467947 0 44 0.467947 0
gene 1 7 22 -0.0572814 0 45 -0.0572814 1
gene 1 8 22 0.838751 0 46 0.838751 1
gene 1 9 22 0.709292 0 47 0.709292 1
gene 1 10 22 0.155741 0 48 0.155741 1
gene 1 11 22 -0.341992 0 49 -0.341992 1
gene 1 12 22 0.0226722 0 50 0.0226722 1
gene 1 13 22 -1.34158 0 51 -1.34158 1
gene 1 14 22 -0.172771 0 52 -0.172771 1
gene 1 15 22 -0.348594 0 53 -0.348594 1
gene 1 16 22 1.09146 0 54 1.09146 1
gene 1 17 22 0.95869 0 55 0.95869 1
gene 1 18 22 1.88137 0 56 1.88137 1
gene 1 19 22 0.0167617 0 57 0.0167617 1
gene 1 1 23 0.0758884 0 58 0.0758884 1
gene 1 2 23 -0.556972 0 59 -0.556972 1
gene 1 3 23 -0.801184 0 60 -0.801184 0
gene 1 4 23 0.490065 0 61 0.490065 1
gene 1 5 23 0.110336 0 62 0.110336 1
gene 1 6 23 0.0348421 0 63 0.0348421 1
gene 1 7 23 0.47962 0 64 0.47962 1
gene 1 8 23 0.254588 0 65 0.254588 1
gene 1 9 23 0.74549 0 66 0.74549 1
gene 1 10 23 0.022611 0 67 0.022611 1
gene 1 11 23 0.17752 0 68 0.17752 1
gene 1 12 23 -0.278504 0 69 -0.278504 1
gene 1 13 23 0.325594 0 70 0.325594 1
gene 1 14 23 -1.14713 0 71 -1.14713 1
gene 1 15 23 1.3217 0 72 1.3217 1
gene 1 16 23 0.0661084 0 73 0.0661084 1
gene 1 17 23 -0.59406 0 74 -0.59406 1
gene 1 18 23 -0.481199 0 75 -0.481199 1
gene 1 19 23 -0.770113 0 76 -0.770113 1
gene 1 3 26 -0.584995 0 81 -0.584995 1
gene 1 26 21 -0.283509 0 82 -0.283509 1
gene 1 22 20 -0.63967 0 83 -0.63967 1
gene 1 3 27 0.182203 0 84 0.182203 1
gene 1 27 23 -0.346852 0 85 -0.346852 1
gene 1 9 30 0.34287 0 93 0.34287 1
gene 1 30 20 0.156278 0 94 0.156278 1
gene 1 6 31 0.279997 0 98 0.279997 1
gene 1 31 22 -0.164866 0 99 -0.164866 1
gene 1 21 23 0.00240295 0 101 0.00240295 1
gene 1 23 22 0.936639 0 104 0.936639 1
gene 1 16 38 0.917563 0 119 0.917563 1
gene 1 38 23 0.123422 0 120 0.123422 1
gene 1 14 27 -0.161265 0 130 -0.161265 1
gene 1 10 27 -0.477158 0 159 -0.477158 1
gene 1 1 31 -0.35782 0 160 -0.35782 1
genomeend 1430
genomestart 1431
trait 1 0 0.00203988 0.554667 0 0 0.226421 0.256467 0.206103 
node 1 1 1 1 0
node 2 1 1 1 0
node 3 1 1 1 0
node 4 1 1 1 0
node 5 1 1 1 0
node 6 1 1 1 0
node 7 1 1 1 0
node 8 1 1 1 0
node 9 1 1 1 0
node 10 1 1 1 0
node 11 1 1 1 0
node 12 1 1 1 0
node 13 1 1 1 0
node 14 1 1 1 0
node 15 1 1 1 0
node 16 1 1 1 0
node 17 1 1 1 0
node 18 1 1 1 0
node 19 1 1 3 0
node 20 1 0 2 0
node 21 1 0 2 0
node 22 1 0 2 0
node 23 1 0 2 0
node 26 1 0 0 0
node 27 1 0 0 0
node 30 1 0 0 0
node 31 1 0 0 0
node 38 1 0 0 0
gene 1 1 20 -0.47189 0 1 -0.47189 1
gene 1 2 20 0.869613 0 2 0.869613 1
gene 1 3 20 0.322564 0 3 0.322564 1
gene 1 4 20 0.0889034 0 4 0.0889034 1
gene 1 5 20 0.312287 0 5 0.312287 1
gene 1 6 20 0.0726817 0 6 0.0726817 1
gene 1 7 20 -1.31269 0 7 -1.31269 1
gene 1 8 20 0.12121 0 8 0.12121 1
gene 1 9 20 -0.419379 0 9 -0.419379 0
gene 1 10 20 -0.186401 0 10 -0.186401 1
gene 1 11 20 0.0421698 0 11 0.0421698 1
gene 1 12 20 0.411422 0 12 0.411422 1
gene 1 13 20 -0.036979 0 13 -0.036979 1
gene 1 14 20 -0.449234 0 14 -0.449234 1
gene 1 15 20 -0.382583 0 15 -0.382583 1
gene 1 16 20 0.667567 0 16 0.667567 1
gene 1 17 20 -0.619714 0 17 -0.619714 1
gene 1 18 20 0.300922 0 18 0.300922 1
gene 1 19 20 -1.01166 0 19 -1.01166 1
gene 1 1 21 0.388912 0 20 0.388912 1
gene 1 2 21 -0.278144 0 21 -0.278144 1
gene 1 3 21 0.30885 0 22 0.30885 0
gene 1 4 21 -0.59597 0 23 -0.59597 1
gene 1 5 21 -0.0933818 0 24 -0.0933818 1
gene 1 6 21 -0.165734 0 25 -0.165734 1
gene 1 7 21 0.102984 0 26 0.102984 1
gene 1 8 21 0.291019 0 27 0.291019 1
gene 1 9 21 -0.221535 0 28 -0.221535 1
gene 1 10 21 1.82182 0 29 1.82182 1
gene 1 11 21 -0.10823 0 30 -0.10823 1
gene 1 12 21 1.07041 0 31 1.07041 1
gene 1 13 21 0.168495 0 32 0.168495 1
gene 1 14 21 0.162063 0 33 0.162063 1
gene 1 15 21 0.11413 0 34 0.11413 1
gene 1 16 21 -0.0877315 0 35 -0.0877315 1
gene 1 17 21 -0.753537 0 36 -0.753537 1
gene 1 18 21 0.475952 0 37 0.475952 1
gene 1 19 21 -0.713349 0 38 -0.713349 1
gene 1 1 22 -0.823491 0 39 -0.823491 1
gene 1 2 22 -0.124993 0 40 -0.124993 1
gene 1 3 22 -0.55128 0 41 -0.55128 1
gene 1 4 22 -0.0136844 0 42 -0.0136844 1
gene 1 5 22 0.392554 0 43 0.392554 1
gene 1 6 22 -0.30835 0 44 -0.30835 0
gene 1 7 22 -0.532387 0 45 -0.532387 1
gene 1 8 22 0.448237 0 46 0.448237 1
gene 1 9 22 -0.278222 0 47 -0.278222 1
gene 1 10 22 -0.796983 0 48 -0.796983 1
gene 1 11 22 0.74027 0 49 0.74027 1
gene 1 12 22 -0.34276 0 50 -0.34276 1
gene 1 13 22 -0.833496 0 51 -0.833496 1
gene 1 14 22 -0.289807 0 52 -0.289807 1
gene 1 15 22 0.683602 0 53 0.683602 1
gene 1 16 22 0.267232 0 54 0.267232 1
gene 1 17 22 -0.0654289 0 55 -0.0654289 1
gene 1 18 22 1.76242 0 56 1.76242 1
gene 1 19 22 0.335985 0 57 0.335985 1
gene 1 1 23 0.0025388 0 58 0.0025388 1
gene 1 2 23 0.296296 0 59 0.296296 1
gene 1 3 23 0.224403 0 60 0.224403 0
gene 1 4 23 -0.761856 0 61 -0.761856 1
gene 1 5 23 -0.692904 0 62 -0.692904 1
gene 1 6 23 0.0113341 0 63 0.0113341 1
gene 1 7 23 0.074362 0 64 0.074362 1
gene 1 8 23 -0.0552164 0 65 -0.0552164 1
gene 1 9 23 -0.249345 0 66 -0.249345 1
gene 1 10 23 -0.058387 0 67 -0.058387 1
gene 1 11 23 0.322109 0 68 0.322109 1
gene 1 12 23 0.24906 0 69 0.24906 1
gene 1 13 23 -0.499413 0 70 -0.499413 1
gene 1 14 23 -0.790664 0 71 -0.790664 1
gene 1 15 23 0.784651 0 72 0.784651 1
gene 1 16 23 -0.113905 0 73 -0.113905 0
gene 1 17 23 0.554032 0 74 0.554032 1
gene 1 18 23 -0.206641 0 75 -0.206641 1
gene 1 19 23 0.0766579 0 76 0.0766579 1
gene 1 3 26 -0.365116 0 81 -0.365116 1
gene 1 26 21 -0.275835 0 82 -0.275835 1
gene 1 22 20 0.371081 0 83 0.371081 1
gene 1 3 27 0.0880564 0 84 0.0880564 1
gene 1 27 23 -0.129179 0 85 -0.129179 1
gene 1 9 30 -0.240398 0 93 -0.240398 1
gene 1 30 20 0.447384 0 94 0.447384 1
gene 1 6 31 -0.466676 0 98 -0.466676 1
gene 1 31 22 0.7187 0 99 0.7187 1
gene 1 21 23 -0.653995 0 101 -0.653995 1
gene 1 23 22 1.56686 0 104 1.56686 1
gene 1 16 38 0.31684 0 119 0.31684 1
gene 1 38 23 -0.448298 0 120 -0.448298 1
gene 1 14 27 0.378237 0 130 0.378237 1
gene 1 10 27 0.537333 0 159 0.537333 1
gene 1 1 31 -0.590189 0 160 -0.590189 1
genomeend 1431
genomestart 1434
trait 1 0 0.231819 0.118425 0 0.0923001 0.0428208 0.247861 0.105448 
node 1 1 1 1 0
node 2 1 1 1 0
node 3 1 1 1 0
node 4 1 1 1 0
node 5 1 1 1 0
node 6 1 1 1 0
node 7 1 1 1 0
node 8 1 1 1 0
node 9 1 1 1 0
node 10 1 1 1 0
node 11 1 1 1 0
node 12 1 1 1 0
node 13 1 1 1 0
node 14 1 1 1 0
node 15 1 1 1 0
node 16 1 1 1 0
node 17 1 1 1 0
node 18 1 1 1 0
node 19 1 1 3 0
node 20 1 0 2 0
node 21 1 0 2 0
node 22 1 0 2 0
node 23 1 0 2 0
node 24 1 0 0 0
node 26 1 0 0 0
node 39 1 0 0 0
node 49 1 0 0 0
gene 1 1 20 -0.322934 0 1 -0.322934 1
gene 1 2 20 0.134578 0 2 0.134578 1
gene 1 3 20 -0.472684 0 3 -0.472684 1
gene 1 4 20 0.117623 0 4 0.117623 1
gene 1 5 20 1.62295 0 5 1.62295 1
gene 1 6 20 0.56982 0 6 0.56982 1
gene 1 7 20 -0.078482 0 7 -0.078482 1
gene 1 8 20 0.715267 0 8 0.715267 1
gene 1 9 20 0.236014 0 9 0.236014 1
gene 1 10 20 1.17386 0 10 1.17386 1
gene 1 11 20 0.271692 0 11 0.271692 1
gene 1 12 20 -1.39833 0 12 -1.39833 1
gene 1 13 20 -3 0 13 -3 1
gene 1 14 20 0.0812268 0 14 0.0812268 0
gene 1 15 20 0.149892 0 15 0.149892 1
gene 1 16 20 -1.45111 0 16 -1.45111 1
gene 1 17 20 0.293725 0 17 0.293725 1
gene 1 18 20 1.05068 0 18 1.05068 1
gene 1 19 20 -1.00735 0 19 -1.00735 1
gene 1 1 21 -1.36755 0 20 -1.36755 1
gene 1 2 21 -0.142781 0 21 -0.142781 1
gene 1 3 21 0.183941 0 22 0.183941 1
gene 1 4 21 1.38409 0 23 1.38409 1
gene 1 5 21 -1.82894 0 24 -1.82894 1
gene 1 6 21 0.36977 0 25 0.36977 1
gene 1 7 21 0.308197 0 26 0.308197 1
gene 1 8 21 -0.771993 0 27 -0.771993 1
gene 1 9 21 -0.262542 0 28 -0.262542 1
gene 1 10 21 0.936516 0 29 0.936516 1
gene 1 11 21 -0.355739 0 30 -0.355739 1
gene 1 12 21 0.483959 0 31 0.483959 1
gene 1 13 21 0.264908 0 32 0.264908 1
gene 1 14 21 -0.391441 0 33 -0.391441 1
gene 1 15 21 0.424034 0 34 0.424034 1
gene 1 16 21 -0.194608 0 35 -0.194608 1
gene 1 17 21 0.203467 0 36 0.203467 1
gene 1 18 21 -0.0991445 0 37 -0.0991445 1
gene 1 19 21 -0.120897 0 38 -0.120897 1
gene 1 1 22 -0.104901 0 39 -0.104901 1
gene 1 2 22 -0.963065 0 40 -0.963065 1
gene 1 3 22 0.446472 0 41 0.446472 1
gene 1 4 22 1.12191 0 42 1.12191 1
gene 1 5 22 0.281279 0 43 0.281279 1
gene 1 6 22 -0.0702887 0 44 -0.0702887 1
gene 1 7 22 0.461803 0 45 0.461803 1
gene 1 8 22 -0.323327 0 46 -0.323327 1
gene 1 9 22 -0.537658 0 47 -0.537658 1
gene 1 10 22 -0.796792 0 48 -0.796792 1
gene 1 11 22 0.489459 0 49 0.489459 1
gene 1 12 22 0.248848 0 50 0.248848 1
gene 1 13 22 0.0351482 0 51 0.0351482 1
gene 1 14 22 0.122893 0 52 0.122893 1
gene 1 15 22 1.12883 0 53 1.12883 1
gene 1 16 22 0.537506 0 54 0.537506 1
gene 1 17 22 0.0632681 0 55 0.0632681 1
gene 1 18 22 -0.195379 0 56 -0.195379 1
gene 1 19 22 0.238873 0 57 0.238873 1
gene 1 1 23 1.10202 0 58 1.10202 1
gene 1 2 23 -0.735909 0 59 -0.735909 1
gene 1 3 23 -0.511569 0 60 -0.511569 1
gene 1 4 23 -0.814009 0 61 -0.814009 1
gene 1 5 23 0.0135414 0 62 0.0135414 1
gene 1 6 23 -0.158736 0 63 -0.158736 1
gene 1 7 23 -0.114963 0 64 -0.114963 1
gene 1 8 23 0.0290387 0 65 0.0290387 1
gene 1 9 23 -0.45786 0 66 -0.45786 1
gene 1 10 23 0.0615517 0 67 0.0615517 1
gene 1 11 23 -0.263297 0 68 -0.263297 1
gene 1 12 23 -0.403553 0 69 -0.403553 1
gene 1 13 23 0.08388 0 70 0.08388 1
gene 1 14 23 -0.0213072 0 71 -0.0213072 1
gene 1 15 23 -0.0689106 0 72 -0.0689106 1
gene 1 16 23 -0.304843 0 73 -0.304843 1
gene 1 17 23 0.608129 0 74 0.608129 1
gene 1 18 23 -0.256593 0 75 -0.256593 1
gene 1 19 23 -1.0084 0 76 -1.0084 1
gene 1 4 24 0.434264 0 77 0.434264 1
gene 1 24 20 -1.57061 0 78 -1.57061 1
gene 1 3 26 -0.830636 0 81 -0.830636 1
gene 1 26 21 -0.126942 0 82 -0.126942 1
gene 1 22 26 0.137722 0 105 0.137722 1
gene 1 9 39 -1.89741 0 121 -1.89741 1
gene 1 39 21 -0.661493 0 122 -0.661493 1
gene 1 16 26 -0.128084 0 139 -0.128084 1
gene 1 22 39 0.264052 0 146 0.264052 1
gene 1 23 26 -0.847374 0 147 -0.847374 1
gene 1 14 49 0.472163 0 164 0.472163 1
gene 1 49 20 -0.644264 0 165 -0.644264 1
gene 1 17 26 0.644479 0 177 0.644479 1
gene 1 26 26 -0.329093 1 178 -0.329093 1
genomeend 1434
genomestart 1435
trait 1 0 0.197771 0.106296 0 0.16258 0.041361 0.136249 0.0527241 
node 1 1 1 1 0
node 2 1 1 1 0
node 3 1 1 1 0
node 4 1 1 1 0
node 5 1 1 1 0
node 6 1 1 1 0
node 7 1 1 1 0
node 8 1 1 1 0
node 9 1 1 1 0
node 10 1 1 1 0
node 11 1 1 1 0
node 12 1 1 1 0
node 13 1 1 1 0
node 14 1 1 1 0
node 15 1 1 1 0
node 16 1 1 1 0
node 17 1 1 1 0
node 18 1 1 1 0
node 19 1 1 3 0
node 20 1 0 2 0
node 21 1 0 2 0
node 22 1 0 2 0
node 23 1 0 2 0
node 24 1 0 0 0
node 26 1 0 0 0
node 39 1 0 0 0
node 49 1 0 0 0
gene 1 1 20 0.350028 0 1 0.350028 1
gene 1 2 20 0.384521 0 2 0.384521 1
gene 1 3 20 -0.146143 0 3 -0.146143 1
gene 1 4 20 -0.243278 0 4 -0.243278 1
gene 1 5 20 0.471791 0 5 0.471791 1
gene 1 6 20 -0.444826 0 6 -0.444826 1
gene 1 7 20 0.549987 0 7 0.549987 1
gene 1 8 20 0.416864 0 8 0.416864 1
gene 1 9 20 0.192674 0 9 0.192674 1
gene 1 10 20 -0.0065931 0 10 -0.0065931 1
gene 1 11 20 -0.418722 0 11 -0.418722 1
gene 1 12 20 -0.405285 0 12 -0.405285 1
gene 1 13 20 -2.12867 0 13 -2.12867 1
gene 1 14 20 -0.0227591 0 14 -0.0227591 0
gene 1 15 20 -0.457084 0 15 -0.457084 1
gene 1 16 20 0.0852045 0 16 0.0852045 1
gene 1 17 20 -0.439258 0 17 -0.439258 1
gene 1 18 20 0.503765 0 18 0.503765 1
gene 1 19 20 -0.945309 0 19 -0.945309 1
gene 1 1 21 -0.645815 0 20 -0.645815 1
gene 1 2 21 1.63502 0 21 1.63502 1
gene 1 3 21 0.420545 0 22 0.420545 0
gene 1 4 21 0.994151 0 23 0.994151 1
gene 1 5 21 -1.33318 0 24 -1.33318 1
gene 1 6 21 0.44544 0 25 0.44544 1
gene 1 7 21 -0.0542707 0 26 -0.0542707 1
gene 1 8 21 -0.520223 0 27 -0.520223 1
gene 1 9 21 -1.2866 0 28 -1.2866 1
gene 1 10 21 1.71311 0 29 1.71311 1
gene 1 11 21 0.564188 0 30 0.564188 1
gene 1 12 21 -0.455267 0 31 -0.455267 1
gene 1 13 21 -0.131156 0 32 -0.131156 1
gene 1 14 21 0.229483 0 33 0.229483 1
gene 1 15 21 0.656152 0 34 0.656152 1
gene 1 16 21 0.109688 0 35 0.109688 1
gene 1 17 21 -0.0714843 0 36 -0.0714843 1
gene 1 18 21 0.352209 0 37 0.352209 1
gene 1 19 21 -0.0862476 0 38 -0.0862476 1
gene 1 1 22 -0.617473 0 39 -0.617473 1
gene 1 2 22 -0.360593 0 40 -0.360593 1
gene 1 3 22 -0.0495645 0 41 -0.0495645 1
gene 1 4 22 0.96339 0 42 0.96339 1
gene 1 5 22 0.340888 0 43 0.340888 1
gene 1 6 22 0.154138 0 44 0.154138 1
gene 1 7 22 0.103031 0 45 0.103031 1
gene 1 8 22 -0.607132 0 46 -0.607132 1
gene 1 9 22 0.187023 0 47 0.187023 1
gene 1 10 22 -1.00773 0 48 -1.00773 1
gene 1 11 22 -0.765671 0 49 -0.765671 1
gene 1 12 22 0.567923 0 50 0.567923 1
gene 1 13 22 0.112258 0 51 0.112258 1
gene 1 14 22 0.0362912 0 52 0.0362912 1
gene 1 15 22 1.06757 0 53 1.06757 1
gene 1 16 22 0.560341 0 54 0.560341 1
gene 1 17 22 -0.497191 0 55 -0.497191 1
gene 1 18 22 -1.04977 0 56 -1.04977 1
gene 1 19 22 -0.489544 0 57 -0.489544 1
gene 1 1 23 0.858078 0 58 0.858078 1
gene 1 2 23 -0.284874 0 59 -0.284874 1
gene 1 3 23 0.426009 0 60 0.426009 1
gene 1 4 23 -0.521703 0 61 -0.521703 1
gene 1 5 23 0.155189 0 62 0.155189 1
gene 1 6 23 0.0264968 0 63 0.0264968 1
gene 1 7 23 0.13891 0 64 0.13891 1
gene 1 8 23 -0.497488 0 65 -0.497488 1
gene 1 9 23 0.222213 0 66 0.222213 1
gene 1 10 23 0.257082 0 67 0.257082 1
gene 1 11 23 0.0790442 0 68 0.0790442 1
gene 1 12 23 0.425425 0 69 0.425425 1
gene 1 13 23 -0.0718537 0 70 -0.0718537 1
gene 1 14 23 0.195316 0 71 0.195316 1
gene 1 15 23 -0.485605 0 72 -0.485605 1
gene 1 16 23 -0.181339 0 73 -0.181339 1
gene 1 17 23 0.196549 0 74 0.196549 1
gene 1 18 23 0.0116882 0 75 0.0116882 1
gene 1 19 23 -0.424827 0 76 -0.424827 1
gene 1 4 24 0.0574681 0 77 0.0574681 1
gene 1 24 20 -1.24664 0 78 -1.24664 1
gene 1 3 26 -0.88742 0 81 -0.88742 1
gene 1 26 21 0.395525 0 82 0.395525 1
gene 1 22 26 0.26874 0 105 0.26874 1
gene 1 9 39 -0.985092 0 121 -0.985092 1
gene 1 39 21 -0.430634 0 122 -0.430634 1
gene 1 16 26 0.186802 0 139 0.186802 1
gene 1 22 39 0.0542782 0 146 0.0542782 1
gene 1 23 26 -1.21482 0 147 -1.21482 1
gene 1 14 49 0.160677 0 164 0.160677 1
gene 1 49 20 -0.453668 0 165 -0.453668 1
gene 1 17 26 0.247682 0 177 0.247682 1
gene 1 26 26 -0.403489 1 178 -0.403489 1
genomeend 1435
genomestart 1442
trait 1 0 0.201101 0.290803 0 0.869566 0 0 0 
node 1 1 1 1 0
node 2 1 1 1 0
node 3 1 1 1 0
node 4 1 1 1 0
node 5 1 1 1 0
node 6 1 1 1 0
node 7 1 1 1 0
node 8 1 1 1 0
node 9 1 1 1 0
node 10 1 1 1 0
node 11 1 1 1 0
node 12 1 1 1 0
node 13 1 1 1 0
node 14 1 1 1 0
node 15 1 1 1 0
node 16 1 1 1 0
node 17 1 1 1 0
node 18 1 1 1 0
node 19 1 1 3 0
node 20 1 0 2 0
node 21 1 0 2 0
node 22 1 0 2 0
node 23 1 0 2 0
node 25 1 0 0 0
node 26 1 0 0 0
node 43 1 0 0 0
gene 1 1 20 0.697667 0 1 0.697667 1
gene 1 2 20 -0.0748371 0 2 -0.0748371 1
gene 1 3 20 -1.03283 0 3 -1.03283 1
gene 1 4 20 0.211306 0 4 0.211306 1
gene 1 5 20 -0.148677 0 5 -0.148677 1
gene 1 6 20 0.206384 0 6 0.206384 1
gene 1 7 20 -0.210927 0 7 -0.210927 1
gene 1 8 20 -0.4145 0 8 -0.4145 1
gene 1 9 20 -1.07744 0 9 -1.07744 1
gene 1 10 20 -1.26411 0 10 -1.26411 1
gene 1 11 20 0.58723 0 11 0.58723 1
gene 1 12 20 -1.28371 0 12 -1.28371 1
gene 1 13 20 -0.00287567 0 13 -0.00287567 1
gene 1 14 20 -0.150077 0 14 -0.150077 1
gene 1 15 20 -0.490897 0 15 -0.490897 1
gene 1 16 20 -0.843097 0 16 -0.843097 1
gene 1 17 20 0.0796223 0 17 0.0796223 1
gene 1 18 20 -0.0985658 0 18 -0.0985658 1
gene 1 19 20 0.0594293 0 19 0.0594293 1
gene 1 1 21 0.186013 0 20 0.186013 1
gene 1 2 21 1.0235 0 21 1.0235 1
gene 1 3 21 -0.683523 0 22 -0.683523 1
gene 1 4 21 0.598073 0 23 0.598073 1
gene 1 5 21 1.10646 0 24 1.10646 1
gene 1 6 21 -0.408245 0 25 -0.408245 1
gene 1 7 21 -0.41637 0 26 -0.41637 1
gene 1 8 21 -0.487236 0 27 -0.487236 1
gene 1 9 21 0.292831 0 28 0.292831 1
gene 1 10 21 -0.597724 0 29 -0.597724 1
gene 1 11 21 -0.0386147 0 30 -0.0386147 1
gene 1 12 21 0.163275 0 31 0.163275 1
gene 1 13 21 -0.568747 0 32 -0.568747 1
gene 1 14 21 -0.43341 0 33 -0.43341 1
gene 1 15 21 -0.646403 0 34 -0.646403 1
gene 1 16 21 0.224612 0 35 0.224612 1
gene 1 17 21 0.357201 0 36 0.357201 1
gene 1 18 21 0.751018 0 37 0.751018 1
gene 1 19 21 -0.435822 0 38 -0.435822 1
gene 1 1 22 -0.528014 0 39 -0.528014 1
gene 1 2 22 -1.0494 0 40 -1.0494 1
gene 1 3 22 -0.512034 0 41 -0.512034 1
gene 1 4 22 1.09735 0 42 1.09735 1
gene 1 5 22 0.294737 0 43 0.294737 1
gene 1 6 22 2.67179 0 44 2.67179 1
gene 1 7 22 -1.37297 0 45 -1.37297 1
gene 1 8 22 -1.52607 0 46 -1.52607 1
gene 1 9 22 -1.00076 0 47 -1.00076 1
gene 1 10 22 -1.95367 0 48 -1.95367 1
gene 1 11 22 -0.186453 0 49 -0.186453 1
gene 1 12 22 0.346762 0 50 0.346762 1
gene 1 13 22 1.13175 0 51 1.13175 1
gene 1 14 22 -0.728058 0 52 -0.728058 1
gene 1 15 22 0.270941 0 53 0.270941 1
gene 1 16 22 0.0829298 0 54 0.0829298 1
gene 1 17 22 0.312834 0 55 0.312834 1
gene 1 18 22 0.323502 0 56 0.323502 1
gene 1 19 22 0.420622 0 57 0.420622 1
gene 1 1 23 -0.14134 0 58 -0.14134 1
gene 1 2 23 -0.366015 0 59 -0.366015 1
gene 1 3 23 0.952127 0 60 0.952127 1
gene 1 4 23 -1.04966 0 61 -1.04966 1
gene 1 5 23 -0.486684 0 62 -0.486684 1
gene 1 6 23 -0.683762 0 63 -0.683762 1
gene 1 7 23 -0.345408 0 64 -0.345408 1
gene 1 8 23 -0.082217 0 65 -0.082217 1
gene 1 9 23 -0.373015 0 66 -0.373015 1
gene 1 10 23 0.325403 0 67 0.325403 1
gene 1 11 23 -0.101023 0 68 -0.101023 1
gene 1 12 23 -0.042907 0 69 -0.042907 1
gene 1 13 23 0.29593 0 70 0.29593 1
gene 1 14 23 -0.0187442 0 71 -0.0187442 1
gene 1 15 23 0.0552253 0 72 0.0552253 1
gene 1 16 23 0.264424 0 73 0.264424 1
gene 1 17 23 -0.489374 0 74 -0.489374 1
gene 1 18 23 -0.306576 0 75 -0.306576 1
gene 1 19 23 -0.570254 0 76 -0.570254 1
gene 1 18 25 -0.566256 0 79 -0.566256 1
gene 1 25 22 0.400213 0 80 0.400213 1
gene 1 3 26 -0.47345 0 81 -0.47345 1
gene 1 26 21 0.172012 0 82 0.172012 1
gene 1 22 21 -0.218434 0 91 -0.218434 1
gene 1 26 20 0.160711 0 96 0.160711 1
gene 1 9 43 -0.00287972 0 134 -0.00287972 1
gene 1 43 22 0.0488519 0 135 0.0488519 1
gene 1 4 25 0.377783 0 148 0.377783 1
gene 1 43 21 -0.662283 0 183 -0.662283 1
genomeend 1442
genomestart 1443
trait 1 0 0.231819 0.118425 0 0.0923001 0.0428208 0.247861 0.105448 
node 1 1 1 1 0
node 2 1 1 1 0
node 3 1 1 1 0
node 4 1 1 1 0
node 5 1 1 1 0
node 6 1 1 1 0
node 7 1 1 1 0
node 8 1 1 1 0
node 9 1 1 1 0
node 10 1 1 1 0
node 11 1 1 1 0
node 12 1 1 1 0
node 13 1 1 1 0
node 14 1 1 1 0
node 15 1 1 1 0
node 16 1 1 1 0
node 17 1 1 1 0
node 18 1 1 1 0
node 19 1 1 3 0
node 20 1 0 2 0
node 21 1 0 2 0
node 22 1 0 2 0
node 23 1 0 2 0
node 24 1 0 0 0
node 26 1 0 0 0
node 39 1 0 0 0
node 49 1 0 0 0
gene 1 1 20 -0.523129 0 1 -0.523129 1
gene 1 2 20 0.517567 0 2 0.517567 1
gene 1 3 20 0.463949 0 3 0.463949 1
gene 1 4 20 0.312705 0 4 0.312705 1
gene 1 5 20 0.797903 0 5 0.797903 1
gene 1 6 20 -0.306116 0 6 -0.306116 1
gene 1 7 20 -0.00179302 0 7 -0.00179302 1
gene 1 8 20 0.541737 0 8 0.541737 1
gene 1 9 20 -0.123043 0 9 -0.123043 1
gene 1 10 20 0.335553 0 10 0.335553 1
gene 1 11 20 0.0516573 0 11 0.0516573 1
gene 1 12 20 -1.15766 0 12 -1.15766 1
gene 1 13 20 -2.49108 0 13 -2.49108 1
gene 1 14 20 -0.830312 0 14 -0.830312 0
gene 1 15 20 -0.327315 0 15 -0.327315 1
gene 1 16 20 -0.830638 0 16 -0.830638 1
gene 1 17 20 -1.06895 0 17 -1.06895 1
gene 1 18 20 1.34241 0 18 1.34241 1
gene 1 19 20 -0.527562 0 19 -0.527562 1
gene 1 1 21 -0.60499 0 20 -0.60499 1
gene 1 2 21 1.97799 0 21 1.97799 1
gene 1 3 21 0.169233 0 22 0.169233 1
gene 1 4 21 0.649459 0 23 0.649459 1
gene 1 5 21 -0.784944 0 24 -0.784944 1
gene 1 6 21 1.11831 0 25 1.11831 1
gene 1 7 21 -0.655702 0 26 -0.655702 1
gene 1 8 21 -0.217746 0 27 -0.217746 1
gene 1 9 21 -1.09689 0 28 -1.09689 1
gene 1 10 21 0.958368 0 29 0.958368 1
gene 1 11 21 0.249563 0 30 0.249563 1
gene 1 12 21 -0.200939 0 31 -0.200939 1
gene 1 13 21 0.0137863 0 32 0.0137863 1
gene 1 14 21 0.309166 0 33 0.309166 1
gene 1 15 21 0.229521 0 34 0.229521 1
gene 1 16 21 -0.0506532 0 35 -0.0506532 1
gene 1 17 21 0.0650119 0 36 0.0650119 1
gene 1 18 21 0.534114 0 37 0.534114 1
gene 1 19 21 -0.115407 0 38 -0.115407 1
gene 1 1 22 -0.696706 0 39 -0.696706 1
gene 1 2 22 -0.373901 0 40 -0.373901 1
gene 1 3 22 -0.0518629 0 41 -0.0518629 1
gene 1 4 22 0.874216 0 42 0.874216 1
gene 1 5 22 -0.403647 0 43 -0.403647 1
gene 1 6 22 -0.52944 0 44 -0.52944 1
gene 1 7 22 0.0614697 0 45 0.0614697 1
gene 1 8 22 -0.369101 0 46 -0.369101 1
gene 1 9 22 0.46187 0 47 0.46187 1
gene 1 10 22 -0.947139 0 48 -0.947139 1
gene 1 11 22 -0.0181917 0 49 -0.0181917 1
gene 1 12 22 0.106588 0 50 0.106588 1
gene 1 13 22 -0.385039 0 51 -0.385039 1
gene 1 14 22 0.582974 0 52 0.582974 1
gene 1 15 22 0.97202 0 53 0.97202 1
gene 1 16 22 0.64395 0 54 0.64395 1
gene 1 17 22 -0.0450673 0 55 -0.0450673 1
gene 1 18 22 -0.638333 0 56 -0.638333 1
gene 1 19 22 0.287149 0 57 0.287149 1
gene 1 1 23 0.977501 0 58 0.977501 1
gene 1 2 23 -0.63922 0 59 -0.63922 1
gene 1 3 23 -0.0923074 0 60 -0.0923074 1
gene 1 4 23 -0.074028 0 61 -0.074028 1
gene 1 5 23 0.0170234 0 62 0.0170234 1
gene 1 6 23 -0.38096 0 63 -0.38096 1
gene 1 7 23 0.777598 0 64 0.777598 1
gene 1 8 23 -0.162993 0 65 -0.162993 1
gene 1 9 23 -0.122249 0 66 -0.122249 1
gene 1 10 23 0.547725 0 67 0.547725 1
gene 1 11 23 -0.0274811 0 68 -0.0274811 1
gene 1 12 23 0.56114 0 69 0.56114 1
gene 1 13 23 -0.00724622 0 70 -0.00724622 1
gene 1 14 23 0.0535875 0 71 0.0535875 1
gene 1 15 23 -0.335523 0 72 -0.335523 1
gene 1 16 23 0.22556 0 73 0.22556 1
gene 1 17 23 0.0100937 0 74 0.0100937 1
gene 1 18 23 -0.0805498 0 75 -0.0805498 1
gene 1 19 23 0.17486 0 76 0.17486 1
gene 1 4 24 0.101521 0 77 0.101521 1
gene 1 24 20 -0.968296 0 78 -0.968296 1
gene 1 3 26 -0.185336 0 81 -0.185336 1
gene 1 26 21 0.276761 0 82 0.276761 1
gene 1 22 26 1.12529 0 105 1.12529 1
gene 1 9 39 -0.23708 0 121 -0.23708 1
gene 1 39 21 -0.752988 0 122 -0.752988 1
gene 1 16 26 -0.491792 0 139 -0.491792 1
gene 1 22 39 -0.145008 0 146 -0.145008 1
gene 1 23 26 -0.496844 0 147 -0.496844 1
gene 1 14 49 0.455875 0 164 0.455875 1
gene 1 49 20 -0.202888 0 165 -0.202888 1
gene 1 17 26 -0.108413 0 177 -0.108413 1
gene 1 26 26 -0.776493 1 178 -0.776493 1
genomeend 1443
genomestart 1447
trait 1 0 0.412566 0.0890392 0 0.216108 0.0372249 0.302052 0.13181 
node 1 1 1 1 0
node 2 1 1 1 0
node 3 1 1 1 0
node 4 1 1 1 0
node 5 1 1 1 0
node 6 1 1 1 0
node 7 1 1 1 0
node 8 1 1 1 0
node 9 1 1 1 0
node 10 1 1 1 0
node 11 1 1 1 0
node 12 1 1 1 0
node 13 1 1 1 0
node 14 1 1 1 0
node 15 1 1 1 0
node 16 1 1 1 0
node 17 1 1 1 0
node 18 1 1 1 0
node 19 1 1 3 0
node 20 1 0 2 0
node 21 1 0 2 0
node 22 1 0 2 0
node 23 1 0 2 0
node 24 1 0 0 0
node 26 1 0 0 0
node 39 1 0 0 0
node 49 1 0 0 0
gene 1 1 20 -1.00997 0 1 -1.00997 1
gene 1 2 20 -0.657571 0 2 -0.657571 1
gene 1 3 20 0.454324 0 3 0.454324 1
gene 1 4 20 0.0402801 0 4 0.0402801 1
gene 1 5 20 0.935103 0 5 0.935103 1
gene 1 6 20 0.365438 0 6 0.365438 1
gene 1 7 20 0.748788 0 7 0.748788 1
gene 1 8 20 -0.0273319 0 8 -0.0273319 1
gene 1 9 20 0.228038 0 9 0.228038 1
gene 1 10 20 -0.350706 0 10 -0.350706 1
gene 1 11 20 -0.408981 0 11 -0.408981 1
gene 1 12 20 -1.18856 0 12 -1.18856 1
gene 1 13 20 -1.53661 0 13 -1.53661 1
gene 1 14 20 -0.591935 0 14 -0.591935 0
gene 1 15 20 -0.00809623 0 15 -0.00809623 1
gene 1 16 20 0.0708813 0 16 0.0708813 1
gene 1 17 20 -0.00167418 0 17 -0.00167418 1
gene 1 18 20 1.36764 0 18 1.36764 1
gene 1 19 20 -0.751639 0 19 -0.751639 1
gene 1 1 21 -1.2193 0 20 -1.2193 1
gene 1 2 21 1.44225 0 21 1.44225 1
gene 1 3 21 -0.788055 0 22 -0.788055 0
gene 1 4 21 0.47031 0 23 0.47031 1
gene 1 5 21 -0.117674 0 24 -0.117674 1
gene 1 6 21 0.370845 0 25 0.370845 1
gene 1 7 21 0.681938 0 26 0.681938 1
gene 1 8 21 0.0363656 0 27 0.0363656 1
gene 1 9 21 -0.226684 0 28 -0.226684 1
gene 1 10 21 0.688894 0 29 0.688894 1
gene 1 11 21 -0.249481 0 30 -0.249481 1
gene 1 12 21 -0.362077 0 31 -0.362077 1
gene 1 13 21 0.351442 0 32 0.351442 1
gene 1 14 21 -0.370305 0 33 -0.370305 1
gene 1 15 21 0.84917 0 34 0.84917 1
gene 1 16 21 0.374923 0 35 0.374923 1
gene 1 17 21 -0.112339 0 36 -0.112339 1
gene 1 18 21 0.798659 0 37 0.798659 1
gene 1 19 21 -0.247846 0 38 -0.247846 1
gene 1 1 22 -0.260008 0 39 -0.260008 1
gene 1 2 22 0.0798316 0 40 0.0798316 1
gene 1 3 22 -0.634582 0 41 -0.634582 1
gene 1 4 22 0.306723 0 42 0.306723 1
gene 1 5 22 0.473974 0 43 0.473974 1
gene 1 6 22 0.288045 0 44 0.288045 1
gene 1 7 22 -0.874164 0 45 -0.874164 1
gene 1 8 22 -1.07081 0 46 -1.07081 1
gene 1 9 22 0.0797822 0 47 0.0797822 1
gene 1 10 22 0.0926498 0 48 0.0926498 1
gene 1 11 22 -1.00124 0 49 -1.00124 1
gene 1 12 22 -0.226617 0 50 -0.226617 1
gene 1 13 22 0.882079 0 51 0.882079 1
gene 1 14 22 0.547673 0 52 0.547673 1
gene 1 15 22 1.93366 0 53 1.93366 1
gene 1 16 22 0.254125 0 54 0.254125 1
gene 1 17 22 -0.141819 0 55 -0.141819 1
gene 1 18 22 0.311101 0 56 0.311101 1
gene 1 19 22 0.833325 0 57 0.833325 1
gene 1 1 23 0.502208 0 58 0.502208 1
gene 1 2 23 -0.637741 0 59 -0.637741 1
gene 1 3 23 0.044608 0 60 0.044608 1
gene 1 4 23 0.130177 0 61 0.130177 1
gene 1 5 23 0.294485 0 62 0.294485 1
gene 1 6 23 -0.516358 0 63 -0.516358 1
gene 1 7 23 -0.0138912 0 64 -0.0138912 1
gene 1 8 23 -0.925141 0 65 -0.925141 1
gene 1 9 23 0.0632008 0 66 0.0632008 1
gene 1 10 23 0.618921 0 67 0.618921 1
gene 1 11 23 -0.64437 0 68 -0.64437 1
gene 1 12 23 0.31879 0 69 0.31879 1
gene 1 13 23 0.4549 0 70 0.4549 1
gene 1 14 23 0.0599113 0 71 0.0599113 1
gene 1 15 23 -0.386294 0 72 -0.386294 1
gene 1 16 23 0.0358921 0 73 0.0358921 1
gene 1 17 23 -0.349476 0 74 -0.349476 1
gene 1 18 23 0.081455 0 75 0.081455 1
gene 1 19 23 0.00352944 0 76 0.00352944 1
gene 1 4 24 0.510509 0 77 0.510509 1
gene 1 24 20 0.0603316 0 78 0.0603316 1
gene 1 3 26 -0.113782 0 81 -0.113782 1
gene 1 26 21 -0.424343 0 82 -0.424343 1
gene 1 22 26 -0.383532 0 105 -0.383532 1
gene 1 9 39 -0.565601 0 121 -0.565601 1
gene 1 39 21 -0.211634 0 122 -0.211634 1
gene 1 16 26 0.177054 0 139 0.177054 1
gene 1 22 39 -0.0612397 0 146 -0.0612397 1
gene 1 23 26 0.808828 0 147 0.808828 1
gene 1 14 49 -0.0514012 0 164 -0.0514012 1
gene 1 49 20 0.219327 0 165 0.219327 1
gene 1 17 26 -0.133109 0 177 -0.133109 1
gene 1 26 26 -0.885368 1 178 -0.885368 1
genomeend 1447
genomestart 1449
trait 1 0 0.201101 0.290803 0 0.869566 0 0 0 
node 1 1 1 1 0
node 2 1 1 1 0
node 3 1 1 1 0
node 4 1 1 1 0
node 5 1 1 1 0
node 6 1 1 1 0
node 7 1 1 1 0
node 8 1 1 1 0
node 9 1 1 1 0
node 10 1 1 1 0
node 11 1 1 1 0
node 12 1 1 1 0
node 13 1 1 1 0
node 14 1 1 1 0
node 15 1 1 1 0
node 16 1 1 1 0
node 17 1 1 1 0
node 18 1 1 1 0
node 19 1 1 3 0
node 20 1 0 2 0
node 21 1 0 2 0
node 22 1 0 2 0
node 23 1 0 2 0
node 25 1 0 0 0
node 26 1 0 0 0
node 43 1 0 0 0
gene 1 1 20 1.4205 0 1 1.4205 1
gene 1 2 20 0.41566 0 2 0.41566 1
gene 1 3 20 -0.529964 0 3 -0.529964 1
gene 1 4 20 0.510712 0 4 0.510712 1
gene 1 5 20 0.308765 0 5 0.308765 1
gene 1 6 20 -0.150527 0 6 -0.150527 1
gene 1 7 20 0.172433 0 7 0.172433 1
gene 1 8 20 -0.0894684 0 8 -0.0894684 1
gene 1 9 20 -0.246468 0 9 -0.246468 1
gene 1 10 20 0.232311 0 10 0.232311 1
gene 1 11 20 0.814983 0 11 0.814983 1
gene 1 12 20 -1.18452 0 12 -1.18452 1
gene 1 13 20 0.531064 0 13 0.531064 1
gene 1 14 20 -0.705006 0 14 -0.705006 1
gene 1 15 20 -0.328621 0 15 -0.328621 1
gene 1 16 20 0.314734 0 16 0.314734 1
gene 1 17 20 0.756241 0 17 0.756241 1
gene 1 18 20 -0.608277 0 18 -0.608277 1
gene 1 19 20 0.452926 0 19 0.452926 1
gene 1 1 21 0.980269 0 20 0.980269 1
gene 1 2 21 1.51958 0 21 1.51958 1
gene 1 3 21 -0.939139 0 22 -0.939139 1
gene 1 4 21 -0.138322 0 23 -0.138322 1
gene 1 5 21 1.18244 0 24 1.18244 1
gene 1 6 21 0.0507508 0 25 0.0507508 1
gene 1 7 21 0.263639 0 26 0.263639 1
gene 1 8 21 -0.421045 0 27 -0.421045 1
gene 1 9 21 0.322501 0 28 0.322501 1
gene 1 10 21 -0.747938 0 29 -0.747938 1
gene 1 11 21 -0.207492 0 30 -0.207492 1
gene 1 12 21 -0.455481 0 31 -0.455481 1
gene 1 13 21 -0.772548 0 32 -0.772548 1
gene 1 14 21 -0.401299 0 33 -0.401299 1
gene 1 15 21 -0.0643067 0 34 -0.0643067 1
gene 1 16 21 0.269716 0 35 0.269716 1
gene 1 17 21 0.573053 0 36 0.573053 1
gene 1 18 21 0.0408659 0 37 0.0408659 1
gene 1 19 21 -0.275707 0 38 -0.275707 1
gene 1 1 22 -1.33699 0 39 -1.33699 1
gene 1 2 22 -0.0848578 0 40 -0.0848578 1
gene 1 3 22 0.13364 0 41 0.13364 1
gene 1 4 22 0.0340388 0 42 0.0340388 1
gene 1 5 22 0.406928 0 43 0.406928 1
gene 1 6 22 1.93635 0 44 1.93635 1
gene 1 7 22 -1.45432 0 45 -1.45432 1
gene 1 8 22 -0.431562 0 46 -0.431562 1
gene 1 9 22 -0.556456 0 47 -0.556456 1
gene 1 10 22 -1.46619 0 48 -1.46619 1
gene 1 11 22 -0.0421399 0 49 -0.0421399 1
gene 1 12 22 -0.17213 0 50 -0.17213 1
gene 1 13 22 0.316882 0 51 0.316882 1
gene 1 14 22 -0.0629271 0 52 -0.0629271 1
gene 1 15 22 -0.889069 0 53 -0.889069 1
gene 1 16 22 -0.376677 0 54 -0.376677 1
gene 1 17 22 0.969724 0 55 0.969724 1
gene 1 18 22 0.520779 0 56 0.520779 1
gene 1 19 22 0.445639 0 57 0.445639 1
gene 1 1 23 0.131388 0 58 0.131388 1
gene 1 2 23 0.340814 0 59 0.340814 1
gene 1 3 23 0.681216 0 60 0.681216 1
gene 1 4 23 -0.702673 0 61 -0.702673 1
gene 1 5 23 -0.971135 0 62 -0.971135 1
gene 1 6 23 -1.15772 0 63 -1.15772 1
gene 1 7 23 -0.825953 0 64 -0.825953 1
gene 1 8 23 0.0782918 0 65 0.0782918 1
gene 1 9 23 -0.1085 0 66 -0.1085 1
gene 1 10 23 0.200326 0 67 0.200326 1
gene 1 11 23 -1.10144 0 68 -1.10144 1
gene 1 12 23 0.553541 0 69 0.553541 1
gene 1 13 23 -0.463505 0 70 -0.463505 1
gene 1 14 23 -0.192978 0 71 -0.192978 1
gene 1 15 23 -0.296944 0 72 -0.296944 1
gene 1 16 23 0.188291 0 73 0.188291 1
gene 1 17 23 -0.0957821 0 74 -0.0957821 1
gene 1 18 23 -0.827375 0 75 -0.827375 1
gene 1 19 23 0.136905 0 76 0.136905 1
gene 1 18 25 0.0793635 0 79 0.0793635 1
gene 1 25 22 0.314673 0 80 0.314673 1
gene 1 3 26 -0.338347 0 81 -0.338347 1
gene 1 26 21 -0.193043 0 82 -0.193043 1
gene 1 22 21 -0.320913 0 91 -0.320913 1
gene 1 26 20 -0.561576 0 96 -0.561576 1
gene 1 9 43 0.248211 0 134 0.248211 1
gene 1 43 22 0.13272 0 135 0.13272 1
gene 1 4 25 0.307952 0 148 0.307952 1
gene 1 43 21 -0.470242 0 183 -0.470242 1
genomeend 1449
genomestart 1451
trait 1 0.750092 0.947308 0.511175 0.130962 0.869566 0.245387 0 0 
node 1 1 1 1 0
node 2 1 1 1 0
node 3 1 1 1 0
node 4 1 1 1 0
node 5 1 1 1 0
node 6 1 1 1 0
node 7 1 1 1 0
node 8 1 1 1 0
node 9 1 1 1 0
node 10 1 1 1 0
node 11 1 1 1 0
node 12 1 1 1 0
node 13 1 1 1 0
node 14 1 1 1 0
node 15 1 1 1 0
node 16 1 1 1 0
node 17 1 1 1 0
node 18 1 1 1 0
node 19 1 1 3 0
node 20 1 0 2 0
node 21 1 0 2 0
node 22 1 0 2 0
node 23 1 0 2 0
node 25 1 0 0 0
node 26 1 0 0 0
node 43 1 0 0 0
gene 1 1 20 1.20153 0 1 1.20153 1
gene 1 2 20 -0.249681 0 2 -0.249681 1
gene 1 3 20 -1.12803 0 3 -1.12803 1
gene 1 4 20 0.327155 0 4 0.327155 1
gene 1 5 20 -0.0782783 0 5 -0.0782783 1
gene 1 6 20 -0.04152 0 6 -0.04152 1
gene 1 7 20 -0.018865 0 7 -0.018865 1
gene 1 8 20 0.402939 0 8 0.402939 1
gene 1 9 20 -1.52836 0 9 -1.52836 1
gene 1 10 20 -0.910491 0 10 -0.910491 1
gene 1 11 20 0.165861 0 11 0.165861 1
gene 1 12 20 -1.51542 0 12 -1.51542 1
gene 1 13 20 0.445298 0 13 0.445298 1
gene 1 14 20 0.244643 0 14 0.244643 1
gene 1 15 20 0.676403 0 15 0.676403 1
gene 1 16 20 0.0662506 0 16 0.0662506 1
gene 1 17 20 0.0979209 0 17 0.0979209 1
gene 1 18 20 0.438721 0 18 0.438721 1
gene 1 19 20 0.373177 0 19 0.373177 1
gene 1 1 21 1.05053 0 20 1.05053 1
gene 1 2 21 0.942843 0 21 0.942843 1
gene 1 3 21 -0.123174 0 22 -0.123174 1
gene 1 4 21 1.16676 0 23 1.16676 1
gene 1 5 21 0.678249 0 24 0.678249 1
gene 1 6 21 -0.42148 0 25 -0.42148 1
gene 1 7 21 -0.273237 0 26 -0.273237 1
gene 1 8 21 -0.675153 0 27 -0.675153 1
gene 1 9 21 0.578051 0 28 0.578051 1
gene 1 10 21 -0.740454 0 29 -0.740454 1
gene 1 11 21 -0.524128 0 30 -0.524128 1
gene 1 12 21 0.0708477 0 31 0.0708477 1
gene 1 13 21 -0.137061 0 32 -0.137061 1
gene 1 14 21 -0.0777193 0 33 -0.0777193 1
gene 1 15 21 -0.460513 0 34 -0.460513 1
gene 1 16 21 0.511665 0 35 0.511665 1
gene 1 17 21 -0.236761 0 36 -0.236761 1
gene 1 18 21 0.566056 0 37 0.566056 1
gene 1 19 21 -0.564534 0 38 -0.564534 1
gene 1 1 22 -1.48955 0 39 -1.48955 1
gene 1 2 22 -0.262471 0 40 -0.262471 1
gene 1 3 22 -0.627347 0 41 -0.627347 1
gene 1 4 22 0.3902 0 42 0.3902 1
gene 1 5 22 -0.336124 0 43 -0.336124 1
gene 1 6 22 2.03017 0 44 2.03017 1
gene 1 7 22 -1.15416 0 45 -1.15416 1
gene 1 8 22 -0.505981 0 46 -0.505981 1
gene 1 9 22 -0.11089 0 47 -0.11089 1
gene 1 10 22 -1.48714 0 48 -1.48714 1
gene 1 11 22 -0.228884 0 49 -0.228884 1
gene 1 12 22 0.370271 0 50 0.370271 1
gene 1 13 22 0.408549 0 51 0.408549 1
gene 1 14 22 0.217333 0 52 0.217333 1
gene 1 15 22 -0.38332 0 53 -0.38332 1
gene 1 16 22 -0.73347 0 54 -0.73347 1
gene 1 17 22 0.928029 0 55 0.928029 1
gene 1 18 22 0.99474 0 56 0.99474 1
gene 1 19 22 0.0120864 0 57 0.0120864 1
gene 1 1 23 0.289441 0 58 0.289441 1
gene 1 2 23 0.874823 0 59 0.874823 1
gene 1 3 23 0.838952 0 60 0.838952 1
gene 1 4 23 -0.978342 0 61 -0.978342 1
gene 1 5 23 -0.223185 0 62 -0.223185 1
gene 1 6 23 -0.306432 0 63 -0.306432 1
gene 1 7 23 -0.779629 0 64 -0.779629 1
gene 1 8 23 -0.167032 0 65 -0.167032 1
gene 1 9 23 -0.581915 0 66 -0.581915 1
gene 1 10 23 0.0296064 0 67 0.0296064 1
gene 1 11 23 -0.398075 0 68 -0.398075 1
gene 1 12 23 0.245717 0 69 0.245717 1
gene 1 13 23 -0.204856 0 70 -0.204856 1
gene 1 14 23 0.100404 0 71 0.100404 1
gene 1 15 23 0.325279 0 72 0.325279 1
gene 1 16 23 -0.411611 0 73 -0.411611 1
gene 1 17 23 0.512623 0 74 0.512623 1
gene 1 18 23 0.125141 0 75 0.125141 1
gene 1 19 23 0.118813 0 76 0.118813 1
gene 1 18 25 -0.19348 0 79 -0.19348 1
gene 1 25 22 0.181608 0 80 0.181608 1
gene 1 3 26 -0.533379 0 81 -0.533379 1
gene 1 26 21 -0.171567 0 82 -0.171567 1
gene 1 22 21 -0.210958 0 91 -0.210958 1
gene 1 26 20 -0.807852 0 96 -0.807852 1
gene 1 9 43 -0.151717 0 134 -0.151717 1
gene 1 43 22 -0.0703316 0 135 -0.0703316 1
gene 1 4 25 0.624769 0 148 0.624769 1
gene 1 43 21 -0.0725101 0 183 -0.0725101 1
genomeend 1451
genomestart 1452
trait 1 0 0.00200826 0.373992 0 0 0.212505 0.360518 0.192193 
node 1 1 1 1 0
node 2 1 1 1 0
node 3 1 1 1 0
node 4 1 1 1 0
node 5 1 1 1 0
node 6 1 1 1 0
node 7 1 1 1 0
node 8 1 1 1 0
node 9 1 1 1 0
node 10 1 1 1 0
node 11 1 1 1 0
node 12 1 1 1 0
node 13 1 1 1 0
node 14 1 1 1 0
node 15 1 1 1 0
node 16 1 1 1 0
node 17 1 1 1 0
node 18 1 1 1 0
node 19 1 1 3 0
node 20 1 0 2 0
node 21 1 0 2 0
node 22 1 0 2 0
node 23 1 0 2 0
node 26 1 0 0 0
node 27 1 0 0 0
node 30 1 0 0 0
node 31 1 0 0 0
node 38 1 0 0 0
gene 1 1 20 -0.129506 0 1 -0.129506 1
gene 1 2 20 0.266483 0 2 0.266483 1
gene 1 3 20 1.10758 0 3 1.10758 1
gene 1 4 20 0.089396 0 4 0.089396 1
gene 1 5 20 0.767967 0 5 0.767967 1
gene 1 6 20 -0.912307 0 6 -0.912307 1
gene 1 7 20 -0.139073 0 7 -0.139073 1
gene 1 8 20 1.18005 0 8 1.18005 1
gene 1 9 20 0.228134 0 9 0.228134 0
gene 1 10 20 -1.95217 0 10 -1.95217 1
gene 1 11 20 -0.475295 0 11 -0.475295 1
gene 1 12 20 0.732265 0 12 0.732265 1
gene 1 13 20 0.159701 0 13 0.159701 1
gene 1 14 20 -1.29308 0 14 -1.29308 1
gene 1 15 20 0.109634 0 15 0.109634 1
gene 1 16 20 -0.617493 0 16 -0.617493 1
gene 1 17 20 0.125973 0 17 0.125973 1
gene 1 18 20 0.398142 0 18 0.398142 1
gene 1 19 20 0.0274365 0 19 0.0274365 1
gene 1 1 21 -0.083751 0 20 -0.083751 1
gene 1 2 21 0.379619 0 21 0.379619 1
gene 1 3 21 -0.29336 0 22 -0.29336 0
gene 1 4 21 -0.509916 0 23 -0.509916 1
gene 1 5 21 1.18135 0 24 1.18135 1
gene 1 6 21 -0.211991 0 25 -0.211991 1
gene 1 7 21 -0.0870826 0 26 -0.0870826 1
gene 1 8 21 0.218387 0 27 0.218387 1
gene 1 9 21 -0.416908 0 28 -0.416908 1
gene 1 10 21 0.188884 0 29 0.188884 1
gene 1 11 21 0.280916 0 30 0.280916 1
gene 1 12 21 0.419174 0 31 0.419174 1
gene 1 13 21 0.0883121 0 32 0.0883121 1
gene 1 14 21 -0.365694 0 33 -0.365694 1
gene 1 15 21 -0.333833 0 34 -0.333833 1
gene 1 16 21 0.47168 0 35 0.47168 1
gene 1 17 21 -0.122031 0 36 -0.122031 1
gene 1 18 21 0.167281 0 37 0.167281 1
gene 1 19 21 -0.663922 0 38 -0.663922 1
gene 1 1 22 0.0943802 0 39 0.0943802 1
gene 1 2 22 -0.705414 0 40 -0.705414 1
gene 1 3 22 -0.399687 0 41 -0.399687 1
gene 1 4 22 0.0719438 0 42 0.0719438 1
gene 1 5 22 1.14859 0 43 1.14859 1
gene 1 6 22 0.0682728 0 44 0.0682728 0
gene 1 7 22 0.119252 0 45 0.119252 1
gene 1 8 22 1.05023 0 46 1.05023 1
gene 1 9 22 0.498551 0 47 0.498551 1
gene 1 10 22 -0.0452388 0 48 -0.0452388 1
gene 1 11 22 0.672651 0 49 0.672651 1
gene 1 12 22 0.295392 0 50 0.295392 1
gene 1 13 22 -0.465919 0 51 -0.465919 1
gene 1 14 22 1.21034 0 52 1.21034 1
gene 1 15 22 -0.316214 0 53 -0.316214 1
gene 1 16 22 0.114868 0 54 0.114868 1
gene 1 17 22 -0.493865 0 55 -0.493865 1
gene 1 18 22 0.00891063 0 56 0.00891063 1
gene 1 19 22 0.682577 0 57 0.682577 1
gene 1 1 23 -0.233817 0 58 -0.233817 1
gene 1 2 23 -0.143169 0 59 -0.143169 1
gene 1 3 23 -0.807738 0 60 -0.807738 0
gene 1 4 23 0.28309 0 61 0.28309 1
gene 1 5 23 0.230137 0 62 0.230137 1
gene 1 6 23 0.290945 0 63 0.290945 1
gene 1 7 23 0.0873224 0 64 0.0873224 1
gene 1 8 23 0.832576 0 65 0.832576 1
gene 1 9 23 -0.507979 0 66 -0.507979 1
gene 1 10 23 0.65344 0 67 0.65344 1
gene 1 11 23 -0.244727 0 68 -0.244727 1
gene 1 12 23 -0.0338633 0 69 -0.0338633 1
gene 1 13 23 0.429174 0 70 0.429174 1
gene 1 14 23 -0.0594412 0 71 -0.0594412 1
gene 1 15 23 -0.137805 0 72 -0.137805 1
gene 1 16 23 0.439662 0 73 0.439662 0
gene 1 17 23 -0.330011 0 74 -0.330011 1
gene 1 18 23 -0.265536 0 75 -0.265536 1
gene 1 19 23 0.112383 0 76 0.112383 1
gene 1 3 26 0.0206387 0 81 0.0206387 1
gene 1 26 21 -0.550714 0 82 -0.550714 1
gene 1 22 20 -0.715711 0 83 -0.715711 1
gene 1 3 27 0.169275 0 84 0.169275 1
gene 1 27 23 0.644492 0 85 0.644492 1
gene 1 9 30 0.175415 0 93 0.175415 1
gene 1 30 20 -0.366197 0 94 -0.366197 1
gene 1 6 31 0.84854 0 98 0.84854 1
gene 1 31 22 0.119426 0 99 0.119426 1
gene 1 21 23 -0.28182 0 101 -0.28182 1
gene 1 23 22 0.430717 0 104 0.430717 1
gene 1 16 38 0.207173 0 119 0.207173 1
gene 1 38 23 -0.629205 0 120 -0.629205 1
gene 1 14 27 0.529242 0 130 0.529242 1
gene 1 10 27 -0.425802 0 159 -0.425802 1
gene 1 1 31 -0.320854 0 160 -0.320854 1
genomeend 1452
genomestart 1459
trait 1 0 0 0 0 0 0 0.761482 0 
node 1 1 1 1 0
node 2 1 1 1 0
node 3 1 1 1 0
node 4 1 1 1 0
node 5 1 1 1 0
node 6 1 1 1 0
node 7 1 1 1 0
node 8 1 1 1 0
node 9 1 1 1 0
node 10 1 1 1 0
node 11 1 1 1 0
node 12 1 1 1 0
node 13 1 1 1 0
node 14 1 1 1 0
node 15 1 1 1 0
node 16 1 1 1 0
node 17 1 1 1 0
node 18 1 1 1 0
node 19 1 1 3 0
node 20 1 0 2 0
node 21 1 0 2 0
node 22 1 0 2 0
node 23 1 0 2 0
node 27 1 0 0 0
node 30 1 0 0 0
node 42 1 0 0 0
gene 1 1 20 -0.0755793 0 1 -0.0755793 1
gene 1 2 20 -0.0519452 0 2 -0.0519452 1
gene 1 3 20 1.24957 0 3 1.24957 1
gene 1 4 20 -1.28992 0 4 -1.28992 1
gene 1 5 20 1.07174 0 5 1.07174 1
gene 1 6 20 0.367615 0 6 0.367615 1
gene 1 7 20 0.363039 0 7 0.363039 1
gene 1 8 20 -0.157237 0 8 -0.157237 1
gene 1 9 20 -1.36768 0 9 -1.36768 1
gene 1 10 20 0.686833 0 10 0.686833 1
gene 1 11 20 -0.412033 0 11 -0.412033 1
gene 1 12 20 -0.110317 0 12 -0.110317 1
gene 1 13 20 0.151204 0 13 0.151204 1
gene 1 14 20 -0.430405 0 14 -0.430405 1
gene 1 15 20 0.150845 0 15 0.150845 1
gene 1 16 20 0.076409 0 16 0.076409 1
gene 1 17 20 0.0340277 0 17 0.0340277 1
gene 1 18 20 -0.0952738 0 18 -0.0952738 1
gene 1 19 20 -2.45193 0 19 -2.45193 1
gene 1 1 21 -0.12128 0 20 -0.12128 1
gene 1 2 21 0.923506 0 21 0.923506 1
gene 1 3 21 0.435041 0 22 0.435041 1
gene 1 4 21 -0.870331 0 23 -0.870331 1
gene 1 5 21 1.30043 0 24 1.30043 1
gene 1 6 21 0.4528 0 25 0.4528 1
gene 1 7 21 0.225606 0 26 0.225606 1
gene 1 8 21 -0.13572 0 27 -0.13572 1
gene 1 9 21 -0.31109 0 28 -0.31109 1
gene 1 10 21 -0.202145 0 29 -0.202145 1
gene 1 11 21 -0.260614 0 30 -0.260614 1
gene 1 12 21 -0.0777737 0 31 -0.0777737 1
gene 1 13 21 0.111445 0 32 0.111445 1
gene 1 14 21 0.218857 0 33 0.218857 1
gene 1 15 21 -1.62498 0 34 -1.62498 1
gene 1 16 21 0.376378 0 35 0.376378 1
gene 1 17 21 0.908956 0 36 0.908956 1
gene 1 18 21 -0.306545 0 37 -0.306545 1
gene 1 19 21 -1.21848 0 38 -1.21848 1
gene 1 1 22 -0.271576 0 39 -0.271576 1
gene 1 2 22 1.3764 0 40 1.3764 1
gene 1 3 22 -0.428136 0 41 -0.428136 0
gene 1 4 22 0.456021 0 42 0.456021 1
gene 1 5 22 0.0451052 0 43 0.0451052 1
gene 1 6 22 -1.98534 0 44 -1.98534 1
gene 1 7 22 0.488301 0 45 0.488301 1
gene 1 8 22 -0.0613974 0 46 -0.0613974 1
gene 1 9 22 1.18457 0 47 1.18457 1
gene 1 10 22 -0.635514 0 48 -0.635514 1
gene 1 11 22 0.195868 0 49 0.195868 1
gene 1 12 22 -0.0508508 0 50 -0.0508508 1
gene 1 13 22 0.0730558 0 51 0.0730558 1
gene 1 14 22 -0.94923 0 52 -0.94923 1
gene 1 15 22 1.8476 0 53 1.8476 1
gene 1 16 22 -3 0 54 -3 1
gene 1 17 22 0.0288444 0 55 0.0288444 1
gene 1 18 22 0.186631 0 56 0.186631 1
gene 1 19 22 0.452504 0 57 0.452504 1
gene 1 1 23 -0.44152 0 58 -0.44152 1
gene 1 2 23 0.632133 0 59 0.632133 1
gene 1 3 23 -0.063231 0 60 -0.063231 0
gene 1 4 23 0.0745875 0 61 0.0745875 1
gene 1 5 23 -0.744068 0 62 -0.744068 1
gene 1 6 23 0.245541 0 63 0.245541 1
gene 1 7 23 0.567167 0 64 0.567167 1
gene 1 8 23 -2.07041 0 65 -2.07041 1
gene 1 9 23 0.124884 0 66 0.124884 1
gene 1 10 23 -1.99575 0 67 -1.99575 1
gene 1 11 23 0.203295 0 68 0.203295 1
gene 1 12 23 0.418368 0 69 0.418368 1
gene 1 13 23 -0.443567 0 70 -0.443567 1
gene 1 14 23 0.310189 0 71 0.310189 1
gene 1 15 23 -0.164099 0 72 -0.164099 1
gene 1 16 23 0.186054 0 73 0.186054 1
gene 1 17 23 0.868571 0 74 0.868571 1
gene 1 18 23 -0.87274 0 75 -0.87274 1
gene 1 19 23 -0.407846 0 76 -0.407846 1
gene 1 22 20 0.335634 0 83 0.335634 1
gene 1 3 27 0.23523 0 84 0.23523 1
gene 1 27 23 -0.169899 0 85 -0.169899 1
gene 1 9 30 0.00208548 0 93 0.00208548 1
gene 1 30 20 -0.32207 0 94 -0.32207 1
gene 1 12 27 0.0204283 0 131 0.0204283 1
gene 1 3 42 0.413042 0 132 0.413042 1
gene 1 42 22 -0.900577 0 133 -0.900577 1
gene 1 2 42 -1.36921 0 152 -1.36921 1
gene 1 16 27 0.562892 0 157 0.562892 1
genomeend 1459
genomestart 1461
trait 1 0 0.214795 0.11236 0 0.12744 0.0420909 0.192055 0.0790862 
node 1 1 1 1 0
node 2 1 1 1 0
node 3 1 1 1 0
node 4 1 1 1 0
node 5 1 1 1 0
node 6 1 1 1 0
node 7 1 1 1 0
node 8 1 1 1 0
node 9 1 1 1 0
node 10 1 1 1 0
node 11 1 1 1 0
node 12 1 1 1 0
node 13 1 1 1 0
node 14 1 1 1 0
node 15 1 1 1 0
node 16 1 1 1 0
node 17 1 1 1 0
node 18 1 1 1 0
node 19 1 1 3 0
node 20 1 0 2 0
node 21 1 0 2 0
node 22 1 0 2 0
node 23 1 0 2 0
node 24 1 0 0 0
node 26 1 0 0 0
node 39 1 0 0 0
node 49 1 0 0 0
gene 1 1 20 0.431046 0 1 0.431046 1
gene 1 2 20 0.384521 0 2 0.384521 1
gene 1 3 20 0.0827704 0 3 0.0827704 1
gene 1 4 20 -0.243278 0 4 -0.243278 1
gene 1 5 20 1.13193 0 5 1.13193 1
gene 1 6 20 0.133642 0 6 0.133642 1
gene 1 7 20 0.424398 0 7 0.424398 1
gene 1 8 20 0.416864 0 8 0.416864 1
gene 1 9 20 0.192674 0 9 0.192674 1
gene 1 10 20 1.17386 0 10 1.17386 1
gene 1 11 20 -0.189863 0 11 -0.189863 1
gene 1 12 20 -0.405285 0 12 -0.405285 1
gene 1 13 20 -2.12867 0 13 -2.12867 1
gene 1 14 20 -0.0227591 0 14 -0.0227591 0
gene 1 15 20 -0.291407 0 15 -0.291407 1
gene 1 16 20 0.0852045 0 16 0.0852045 1
gene 1 17 20 -0.73116 0 17 -0.73116 1
gene 1 18 20 0.503765 0 18 0.503765 1
gene 1 19 20 -1.46723 0 19 -1.46723 1
gene 1 1 21 -0.645815 0 20 -0.645815 1
gene 1 2 21 1.97603 0 21 1.97603 1
gene 1 3 21 0.420545 0 22 0.420545 0
gene 1 4 21 1.22442 0 23 1.22442 1
gene 1 5 21 -1.33318 0 24 -1.33318 1
gene 1 6 21 0.44544 0 25 0.44544 1
gene 1 7 21 -0.213134 0 26 -0.213134 1
gene 1 8 21 -0.447223 0 27 -0.447223 1
gene 1 9 21 -1.88794 0 28 -1.88794 1
gene 1 10 21 1.71311 0 29 1.71311 1
gene 1 11 21 0.564188 0 30 0.564188 1
gene 1 12 21 -0.455267 0 31 -0.455267 1
gene 1 13 21 0.23554 0 32 0.23554 1
gene 1 14 21 -0.36223 0 33 -0.36223 1
gene 1 15 21 0.656152 0 34 0.656152 1
gene 1 16 21 0.0943 0 35 0.0943 1
gene 1 17 21 -0.0714843 0 36 -0.0714843 1
gene 1 18 21 0.352209 0 37 0.352209 1
gene 1 19 21 0.223744 0 38 0.223744 1
gene 1 1 22 -0.617473 0 39 -0.617473 1
gene 1 2 22 -0.843927 0 40 -0.843927 1
gene 1 3 22 0.125539 0 41 0.125539 1
gene 1 4 22 0.96339 0 42 0.96339 1
gene 1 5 22 0.340888 0 43 0.340888 1
gene 1 6 22 -0.174597 0 44 -0.174597 1
gene 1 7 22 0.506837 0 45 0.506837 1
gene 1 8 22 -0.607132 0 46 -0.607132 1
gene 1 9 22 0.187023 0 47 0.187023 1
gene 1 10 22 -1.00773 0 48 -1.00773 1
gene 1 11 22 -0.406862 0 49 -0.406862 1
gene 1 12 22 0.218861 0 50 0.218861 1
gene 1 13 22 0.0351482 0 51 0.0351482 1
gene 1 14 22 0.395918 0 52 0.395918 1
gene 1 15 22 1.06757 0 53 1.06757 1
gene 1 16 22 0.560341 0 54 0.560341 1
gene 1 17 22 -0.497191 0 55 -0.497191 1
gene 1 18 22 -0.638775 0 56 -0.638775 1
gene 1 19 22 -0.142322 0 57 -0.142322 1
gene 1 1 23 0.642204 0 58 0.642204 1
gene 1 2 23 -0.416478 0 59 -0.416478 1
gene 1 3 23 0.426009 0 60 0.426009 1
gene 1 4 23 -0.521703 0 61 -0.521703 1
gene 1 5 23 0.155189 0 62 0.155189 1
gene 1 6 23 -0.261427 0 63 -0.261427 1
gene 1 7 23 0.269165 0 64 0.269165 1
gene 1 8 23 -0.497488 0 65 -0.497488 1
gene 1 9 23 0.222213 0 66 0.222213 1
gene 1 10 23 0.407641 0 67 0.407641 1
gene 1 11 23 0.0790442 0 68 0.0790442 1
gene 1 12 23 0.425425 0 69 0.425425 1
gene 1 13 23 0.0967639 0 70 0.0967639 1
gene 1 14 23 0.195316 0 71 0.195316 1
gene 1 15 23 -0.133359 0 72 -0.133359 1
gene 1 16 23 -0.181339 0 73 -0.181339 1
gene 1 17 23 0.196549 0 74 0.196549 1
gene 1 18 23 -0.376797 0 75 -0.376797 1
gene 1 19 23 -0.854941 0 76 -0.854941 1
gene 1 4 24 0.288149 0 77 0.288149 1
gene 1 24 20 -1.51876 0 78 -1.51876 1
gene 1 3 26 -0.693805 0 81 -0.693805 1
gene 1 26 21 0.395525 0 82 0.395525 1
gene 1 22 26 0.142835 0 105 0.142835 1
gene 1 9 39 -1.69272 0 121 -1.69272 1
gene 1 39 21 -0.394873 0 122 -0.394873 1
gene 1 16 26 -0.128084 0 139 -0.128084 1
gene 1 22 39 0.0542782 0 146 0.0542782 1
gene 1 23 26 -1.21482 0 147 -1.21482 1
gene 1 14 49 0.160677 0 164 0.160677 1
gene 1 49 20 -0.453668 0 165 -0.453668 1
gene 1 17 26 0.247682 0 177 0.247682 1
gene 1 26 26 -0.403489 1 178 -0.403489 1
genomeend 1461
genomestart 1462
trait 1 0 0.197771 1 0 0.279239 0 0.106137 0.0527241 
node 1 1 1 1 0
node 2 1 1 1 0
node 3 1 1 1 0
node 4 1 1 1 0
node 5 1 1 1 0
node 6 1 1 1 0
node 7 1 1 1 0
node 8 1 1 1 0
node 9 1 1 1 0
node 10 1 1 1 0
node 11 1 1 1 0
node 12 1 1 1 0
node 13 1 1 1 0
node 14 1 1 1 0
node 15 1 1 1 0
node 16 1 1 1 0
node 17 1 1 1 0
node 18 1 1 1 0
node 19 1 1 3 0
node 20 1 0 2 0
node 21 1 0 2 0
node 22 1 0 2 0
node 23 1 0 2 0
node 24 1 0 0 0
node 26 1 0 0 0
node 39 1 0 0 0
node 49 1 0 0 0
gene 1 1 20 0.790969 0 1 0.790969 1
gene 1 2 20 0.74141 0 2 0.74141 1
gene 1 3 20 0.294386 0 3 0.294386 1
gene 1 4 20 -0.353037 0 4 -0.353037 1
gene 1 5 20 0.768724 0 5 0.768724 1
gene 1 6 20 -0.855376 0 6 -0.855376 1
gene 1 7 20 0.527817 0 7 0.527817 1
gene 1 8 20 0.70569 0 8 0.70569 1
gene 1 9 20 0.563028 0 9 0.563028 1
gene 1 10 20 -0.195908 0 10 -0.195908 1
gene 1 11 20 -0.750461 0 11 -0.750461 1
gene 1 12 20 -0.410786 0 12 -0.410786 1
gene 1 13 20 -1.66534 0 13 -1.66534 1
gene 1 14 20 0.0121873 0 14 0.0121873 0
gene 1 15 20 -0.620071 0 15 -0.620071 1
gene 1 16 20 -0.139069 0 16 -0.139069 1
gene 1 17 20 -0.121809 0 17 -0.121809 1
gene 1 18 20 0.543843 0 18 0.543843 1
gene 1 19 20 -0.639336 0 19 -0.639336 1
gene 1 1 21 -0.629777 0 20 -0.629777 1
gene 1 2 21 1.9602 0 21 1.9602 1
gene 1 3 21 0.75319 0 22 0.75319 0
gene 1 4 21 0.824414 0 23 0.824414 1
gene 1 5 21 -0.874512 0 24 -0.874512 1
gene 1 6 21 0.555182 0 25 0.555182 1
gene 1 7 21 0.20364 0 26 0.20364 1
gene 1 8 21 -0.0547239 0 27 -0.0547239 1
gene 1 9 21 -1.40178 0 28 -1.40178 1
gene 1 10 21 1.38623 0 29 1.38623 1
gene 1 11 21 0.554455 0 30 0.554455 1
gene 1 12 21 -0.141488 0 31 -0.141488 1
gene 1 13 21 0.229781 0 32 0.229781 1
gene 1 14 21 0.653018 0 33 0.653018 1
gene 1 15 21 1.07596 0 34 1.07596 1
gene 1 16 21 0.493479 0 35 0.493479 1
gene 1 17 21 -0.482625 0 36 -0.482625 1
gene 1 18 21 0.305799 0 37 0.305799 1
gene 1 19 21 0.0809863 0 38 0.0809863 1
gene 1 1 22 -0.935572 0 39 -0.935572 1
gene 1 2 22 -0.530613 0 40 -0.530613 1
gene 1 3 22 -0.436873 0 41 -0.436873 1
gene 1 4 22 0.722695 0 42 0.722695 1
gene 1 5 22 -0.102716 0 43 -0.102716 1
gene 1 6 22 -0.318929 0 44 -0.318929 1
gene 1 7 22 0.166957 0 45 0.166957 1
gene 1 8 22 -0.9427 0 46 -0.9427 1
gene 1 9 22 0.554969 0 47 0.554969 1
gene 1 10 22 -1.31339 0 48 -1.31339 1
gene 1 11 22 -0.545121 0 49 -0.545121 1
gene 1 12 22 0.595665 0 50 0.595665 1
gene 1 13 22 0.224626 0 51 0.224626 1
gene 1 14 22 0.410975 0 52 0.410975 1
gene 1 15 22 0.740132 0 53 0.740132 1
gene 1 16 22 0.620063 0 54 0.620063 1
gene 1 17 22 -0.811029 0 55 -0.811029 1
gene 1 18 22 -0.905355 0 56 -0.905355 1
gene 1 19 22 -0.786812 0 57 -0.786812 1
gene 1 1 23 0.511842 0 58 0.511842 1
gene 1 2 23 -0.399798 0 59 -0.399798 1
gene 1 3 23 0.657675 0 60 0.657675 1
gene 1 4 23 -0.870875 0 61 -0.870875 1
gene 1 5 23 0.452348 0 62 0.452348 1
gene 1 6 23 -0.364178 0 63 -0.364178 1
gene 1 7 23 0.522029 0 64 0.522029 1
gene 1 8 23 -0.995245 0 65 -0.995245 1
gene 1 9 23 -0.136817 0 66 -0.136817 1
gene 1 10 23 -0.219073 0 67 -0.219073 1
gene 1 11 23 -0.0163529 0 68 -0.0163529 1
gene 1 12 23 0.724246 0 69 0.724246 1
gene 1 13 23 -0.322076 0 70 -0.322076 1
gene 1 14 23 0.52729 0 71 0.52729 1
gene 1 15 23 -0.0568966 0 72 -0.0568966 1
gene 1 16 23 -0.09128 0 73 -0.09128 1
gene 1 17 23 0.367388 0 74 0.367388 1
gene 1 18 23 0.0116882 0 75 0.0116882 1
gene 1 19 23 -0.673839 0 76 -0.673839 1
gene 1 4 24 0.0574681 0 77 0.0574681 1
gene 1 24 20 -1.24664 0 78 -1.24664 1
gene 1 3 26 -0.448594 0 81 -0.448594 1
gene 1 26 21 0.230068 0 82 0.230068 1
gene 1 22 26 -0.107301 0 105 -0.107301 1
gene 1 9 39 0.23891 0 121 0.23891 1
gene 1 39 21 -0.181067 0 122 -0.181067 1
gene 1 16 26 0.12122 0 139 0.12122 1
gene 1 22 39 0.0542782 0 146 0.0542782 1
gene 1 23 26 -0.815309 0 147 -0.815309 1
gene 1 14 49 0.41664 0 164 0.41664 1
gene 1 49 20 -0.696246 0 165 -0.696246 1
gene 1 17 26 0.730596 0 177 0.730596 1
gene 1 26 26 -0.0218818 1 178 -0.0218818 1
genomeend 1462
genomestart 1464
trait 1 0 0.201101 0.290803 0 0.869566 0 0 0 
node 1 1 1 1 0
node 2 1 1 1 0
node 3 1 1 1 0
node 4 1 1 1 0
node 5 1 1 1 0
node 6 1 1 1 0
node 7 1 1 1 0
node 8 1 1 1 0
node 9 1 1 1 0
node 10 1 1 1 0
node 11 1 1 1 0
node 12 1 1 1 0
node 13 1 1 1 0
node 14 1 1 1 0
node 15 1 1 1 0
node 16 1 1 1 0
node 17 1 1 1 0
node 18 1 1 1 0
node 19 1 1 3 0
node 20 1 0 2 0
node 21 1 0 2 0
node 22 1 0 2 0
node 23 1 0 2 0
node 25 1 0 0 0
node 26 1 0 0 0
node 43 1 0 0 0
gene 1 1 20 0.849461 0 1 0.849461 1
gene 1 2 20 -0.369294 0 2 -0.369294 1
gene 1 3 20 -1.11743 0 3 -1.11743 1
gene 1 4 20 0.574081 0 4 0.574081 1
gene 1 5 20 0.008617 0 5 0.008617 1
gene 1 6 20 0.6247 0 6 0.6247 1
gene 1 7 20 0.194628 0 7 0.194628 1
gene 1 8 20 0.370562 0 8 0.370562 1
gene 1 9 20 -1.6519 0 9 -1.6519 1
gene 1 10 20 -1.1396 0 10 -1.1396 1
gene 1 11 20 0.427192 0 11 0.427192 1
gene 1 12 20 -0.34808 0 12 -0.34808 1
gene 1 13 20 0.411022 0 13 0.411022 1
gene 1 14 20 -0.0838366 0 14 -0.0838366 1
gene 1 15 20 0.845678 0 15 0.845678 1
gene 1 16 20 -0.60603 0 16 -0.60603 1
gene 1 17 20 -0.381468 0 17 -0.381468 1
gene 1 18 20 -0.237079 0 18 -0.237079 1
gene 1 19 20 0.517667 0 19 0.517667 1
gene 1 1 21 1.00905 0 20 1.00905 1
gene 1 2 21 1.65124 0 21 1.65124 1
gene 1 3 21 0.0411869 0 22 0.0411869 1
gene 1 4 21 1.46705 0 23 1.46705 1
gene 1 5 21 1.44379 0 24 1.44379 1
gene 1 6 21 0.154359 0 25 0.154359 1
gene 1 7 21 -1.00645 0 26 -1.00645 1
gene 1 8 21 0.0631427 0 27 0.0631427 1
gene 1 9 21 -0.189783 0 28 -0.189783 1
gene 1 10 21 -0.365833 0 29 -0.365833 1
gene 1 11 21 0.183483 0 30 0.183483 1
gene 1 12 21 0.109189 0 31 0.109189 1
gene 1 13 21 0.254109 0 32 0.254109 1
gene 1 14 21 0.229173 0 33 0.229173 1
gene 1 15 21 -0.450536 0 34 -0.450536 1
gene 1 16 21 0.285693 0 35 0.285693 1
gene 1 17 21 0.0136985 0 36 0.0136985 1
gene 1 18 21 0.593861 0 37 0.593861 1
gene 1 19 21 -0.0518458 0 38 -0.0518458 1
gene 1 1 22 -1.42639 0 39 -1.42639 1
gene 1 2 22 0.214468 0 40 0.214468 1
gene 1 3 22 0.238581 0 41 0.238581 1
gene 1 4 22 0.376196 0 42 0.376196 1
gene 1 5 22 -0.180053 0 43 -0.180053 1
gene 1 6 22 -0.368873 0 44 -0.368873 1
gene 1 7 22 -0.734761 0 45 -0.734761 1
gene 1 8 22 -1.48111 0 46 -1.48111 1
gene 1 9 22 -0.865297 0 47 -0.865297 1
gene 1 10 22 -0.230066 0 48 -0.230066 1
gene 1 11 22 0.0995963 0 49 0.0995963 1
gene 1 12 22 0.431922 0 50 0.431922 1
gene 1 13 22 0.410574 0 51 0.410574 1
gene 1 14 22 -0.0420181 0 52 -0.0420181 1
gene 1 15 22 -0.432589 0 53 -0.432589 1
gene 1 16 22 0.75899 0 54 0.75899 1
gene 1 17 22 -0.248536 0 55 -0.248536 1
gene 1 18 22 1.05444 0 56 1.05444 1
gene 1 19 22 -0.0513021 0 57 -0.0513021 1
gene 1 1 23 -0.16054 0 58 -0.16054 1
gene 1 2 23 0.321832 0 59 0.321832 1
gene 1 3 23 -0.300814 0 60 -0.300814 1
gene 1 4 23 -1.54772 0 61 -1.54772 1
gene 1 5 23 -0.18188 0 62 -0.18188 1
gene 1 6 23 0.238394 0 63 0.238394 1
gene 1 7 23 -1.35811 0 64 -1.35811 1
gene 1 8 23 0.35745 0 65 0.35745 1
gene 1 9 23 0.00117711 0 66 0.00117711 1
gene 1 10 23 0.139648 0 67 0.139648 1
gene 1 11 23 -0.521639 0 68 -0.521639 1
gene 1 12 23 0.235853 0 69 0.235853 1
gene 1 13 23 -0.29205 0 70 -0.29205 1
gene 1 14 23 -0.755401 0 71 -0.755401 1
gene 1 15 23 -0.581826 0 72 -0.581826 1
gene 1 16 23 -0.11547 0 73 -0.11547 1
gene 1 17 23 0.422867 0 74 0.422867 1
gene 1 18 23 -0.498415 0 75 -0.498415 1
gene 1 19 23 -0.0845996 0 76 -0.0845996 1
gene 1 18 25 0.109444 0 79 0.109444 1
gene 1 25 22 0.556367 0 80 0.556367 1
gene 1 3 26 -0.304056 0 81 -0.304056 1
gene 1 26 21 0.478027 0 82 0.478027 1
gene 1 22 21 -0.372859 0 91 -0.372859 1
gene 1 26 20 0.301841 0 96 0.301841 1
gene 1 9 43 0.42454 0 134 0.42454 1
gene 1 43 22 0.299404 0 135 0.299404 1
gene 1 4 25 0.258489 0 148 0.258489 1
gene 1 43 21 -0.953523 0 183 -0.953523 1
genomeend 1464
genomestart 1467
trait 1 0 0.337587 0.085579 0 0.246113 0.0369816 0.190653 0.0790862 
node 1 1 1 1 0
node 2 1 1 1 0
node 3 1 1 1 0
node 4 1 1 1 0
node 5 1 1 1 0
node 6 1 1 1 0
node 7 1 1 1 0
node 8 1 1 1 0
node 9 1 1 1 0
node 10 1 1 1 0
node 11 1 1 1 0
node 12 1 1 1 0
node 13 1 1 1 0
node 14 1 1 1 0
node 15 1 1 1 0
node 16 1 1 1 0
node 17 1 1 1 0
node 18 1 1 1 0
node 19 1 1 3 0
node 20 1 0 2 0
node 21 1 0 2 0
node 22 1 0 2 0
node 23 1 0 2 0
node 24 1 0 0 0
node 26 1 0 0 0
node 39 1 0 0 0
node 49 1 0 0 0
gene 1 1 20 0.16832 0 1 0.16832 1
gene 1 2 20 0.157598 0 2 0.157598 1
gene 1 3 20 -0.294679 0 3 -0.294679 1
gene 1 4 20 0.540428 0 4 0.540428 1
gene 1 5 20 0.329291 0 5 0.329291 1
gene 1 6 20 -0.417987 0 6 -0.417987 1
gene 1 7 20 -0.101403 0 7 -0.101403 1
gene 1 8 20 0.070484 0 8 0.070484 1
gene 1 9 20 0.208048 0 9 0.208048 1
gene 1 10 20 -0.341919 0 10 -0.341919 1
gene 1 11 20 -0.443071 0 11 -0.443071 1
gene 1 12 20 -0.202248 0 12 -0.202248 1
gene 1 13 20 -1.14563 0 13 -1.14563 1
gene 1 14 20 0.0608775 0 14 0.0608775 1
gene 1 15 20 -0.367052 0 15 -0.367052 1
gene 1 16 20 -0.552747 0 16 -0.552747 1
gene 1 17 20 -0.0434466 0 17 -0.0434466 1
gene 1 18 20 0.851107 0 18 0.851107 1
gene 1 19 20 -0.30679 0 19 -0.30679 1
gene 1 1 21 -1.23677 0 20 -1.23677 1
gene 1 2 21 0.00578922 0 21 0.00578922 1
gene 1 3 21 -0.100715 0 22 -0.100715 0
gene 1 4 21 -0.352233 0 23 -0.352233 1
gene 1 5 21 -0.0642488 0 24 -0.0642488 1
gene 1 6 21 0.270173 0 25 0.270173 1
gene 1 7 21 0.38502 0 26 0.38502 1
gene 1 8 21 -0.413794 0 27 -0.413794 1
gene 1 9 21 -1.15512 0 28 -1.15512 1
gene 1 10 21 0.22702 0 29 0.22702 1
gene 1 11 21 -0.00516272 0 30 -0.00516272 1
gene 1 12 21 -0.178621 0 31 -0.178621 1
gene 1 13 21 -1.12137 0 32 -1.12137 1
gene 1 14 21 0.38491 0 33 0.38491 1
gene 1 15 21 0.34945 0 34 0.34945 1
gene 1 16 21 0.0688925 0 35 0.0688925 1
gene 1 17 21 -0.508969 0 36 -0.508969 1
gene 1 18 21 0.282746 0 37 0.282746 1
gene 1 19 21 -0.220767 0 38 -0.220767 1
gene 1 1 22 -0.208466 0 39 -0.208466 1
gene 1 2 22 -0.367653 0 40 -0.367653 1
gene 1 3 22 -0.641486 0 41 -0.641486 1
gene 1 4 22 -0.604347 0 42 -0.604347 1
gene 1 5 22 -0.124456 0 43 -0.124456 1
gene 1 6 22 -0.36493 0 44 -0.36493 1
gene 1 7 22 -0.239663 0 45 -0.239663 1
gene 1 8 22 -0.85069 0 46 -0.85069 1
gene 1 9 22 0.266339 0 47 0.266339 1
gene 1 10 22 -0.974413 0 48 -0.974413 1
gene 1 11 22 -0.344141 0 49 -0.344141 1
gene 1 12 22 -1.20849 0 50 -1.20849 1
gene 1 13 22 -0.0621948 0 51 -0.0621948 1
gene 1 14 22 0.837211 0 52 0.837211 1
gene 1 15 22 1.38833 0 53 1.38833 1
gene 1 16 22 0.296051 0 54 0.296051 1
gene 1 17 22 -0.205235 0 55 -0.205235 1
gene 1 18 22 -0.603111 0 56 -0.603111 1
gene 1 19 22 0.289532 0 57 0.289532 1
gene 1 1 23 0.355883 0 58 0.355883 1
gene 1 2 23 -0.245246 0 59 -0.245246 1
gene 1 3 23 -0.57681 0 60 -0.57681 1
gene 1 4 23 0.564705 0 61 0.564705 1
gene 1 5 23 -0.116033 0 62 -0.116033 1
gene 1 6 23 -0.838527 0 63 -0.838527 1
gene 1 7 23 0.453113 0 64 0.453113 1
gene 1 8 23 0.829306 0 65 0.829306 1
gene 1 9 23 0.470004 0 66 0.470004 1
gene 1 10 23 -0.100869 0 67 -0.100869 1
gene 1 11 23 0.380439 0 68 0.380439 1
gene 1 12 23 0.741492 0 69 0.741492 1
gene 1 13 23 -0.368147 0 70 -0.368147 1
gene 1 14 23 0.0814665 0 71 0.0814665 1
gene 1 15 23 -0.387963 0 72 -0.387963 1
gene 1 16 23 0.150966 0 73 0.150966 1
gene 1 17 23 0.388765 0 74 0.388765 1
gene 1 18 23 -0.519641 0 75 -0.519641 1
gene 1 19 23 -0.298357 0 76 -0.298357 1
gene 1 4 24 -0.0133574 0 77 -0.0133574 1
gene 1 24 20 -0.0499008 0 78 -0.0499008 1
gene 1 3 26 -0.162447 0 81 -0.162447 1
gene 1 26 21 0.530836 0 82 0.530836 1
gene 1 22 26 -0.27952 0 105 -0.27952 1
gene 1 9 39 -0.382509 0 121 -0.382509 1
gene 1 39 21 0.00558424 0 122 0.00558424 1
gene 1 16 26 -0.021352 0 139 -0.021352 1
gene 1 22 39 -0.351807 0 146 -0.351807 1
gene 1 23 26 -0.0449478 0 147 -0.0449478 1
gene 1 14 49 0.112931 0 164 0.112931 1
gene 1 49 20 0.656631 0 165 0.656631 1
gene 1 17 26 0.0294846 0 177 0.0294846 1
gene 1 26 26 -0.469314 1 178 -0.469314 1
genomeend 1467
genomestart 1469
trait 1 0 0.201101 0.290803 0 0.869566 0 0 0 
node 1 1 1 1 0
node 2 1 1 1 0
node 3 1 1 1 0
node 4 1 1 1 0
node 5 1 1 1 0
node 6 1 1 1 0
node 7 1 1 1 0
node 8 1 1 1 0
node 9 1 1 1 0
node 10 1 1 1 0
node 11 1 1 1 0
node 12 1 1 1 0
node 13 1 1 1 0
node 14 1 1 1 0
node 15 1 1 1 0
node 16 1 1 1 0
node 17 1 1 1 0
node 18 1 1 1 0
node 19 1 1 3 0
node 20 1 0 2 0
node 21 1 0 2 0
node 22 1 0 2 0
node 23 1 0 2 0
node 25 1 0 0 0
node 26 1 0 0 0
node 43 1 0 0 0
gene 1 1 20 0.915936 0 1 0.915936 1
gene 1 2 20 -0.00970162 0 2 -0.00970162 1
gene 1 3 20 -0.178222 0 3 -0.178222 1
gene 1 4 20 0.814424 0 4 0.814424 1
gene 1 5 20 0.362178 0 5 0.362178 1
gene 1 6 20 -0.489717 0 6 -0.489717 1
gene 1 7 20 0.348916 0 7 0.348916 1
gene 1 8 20 0.18031 0 8 0.18031 1
gene 1 9 20 -1.72535 0 9 -1.72535 1
gene 1 10 20 -1.52239 0 10 -1.52239 1
gene 1 11 20 -0.00827555 0 11 -0.00827555 1
gene 1 12 20 -1.13611 0 12 -1.13611 1
gene 1 13 20 0.736295 0 13 0.736295 1
gene 1 14 20 -0.511675 0 14 -0.511675 1
gene 1 15 20 0.610419 0 15 0.610419 1
gene 1 16 20 -0.512606 0 16 -0.512606 1
gene 1 17 20 -0.21197 0 17 -0.21197 1
gene 1 18 20 -0.37602 0 18 -0.37602 1
gene 1 19 20 0.0965109 0 19 0.0965109 1
gene 1 1 21 0.512041 0 20 0.512041 1
gene 1 2 21 1.08624 0 21 1.08624 1
gene 1 3 21 -0.523983 0 22 -0.523983 1
gene 1 4 21 1.3004 0 23 1.3004 1
gene 1 5 21 0.839333 0 24 0.839333 1
gene 1 6 21 -0.0103324 0 25 -0.0103324 1
gene 1 7 21 -0.11928 0 26 -0.11928 1
gene 1 8 21 -0.332683 0 27 -0.332683 1
gene 1 9 21 -0.396066 0 28 -0.396066 1
gene 1 10 21 0.00696742 0 29 0.00696742 1
gene 1 11 21 -0.493018 0 30 -0.493018 1
gene 1 12 21 0.374858 0 31 0.374858 1
gene 1 13 21 -1.11163 0 32 -1.11163 1
gene 1 14 21 -0.542305 0 33 -0.542305 1
gene 1 15 21 -0.502975 0 34 -0.502975 1
gene 1 16 21 0.690805 0 35 0.690805 1
gene 1 17 21 0.248884 0 36 0.248884 1
gene 1 18 21 0.841416 0 37 0.841416 1
gene 1 19 21 -0.255817 0 38 -0.255817 1
gene 1 1 22 -1.32935 0 39 -1.32935 1
gene 1 2 22 0.0389182 0 40 0.0389182 1
gene 1 3 22 -0.0947756 0 41 -0.0947756 1
gene 1 4 22 1.29319 0 42 1.29319 1
gene 1 5 22 0.528698 0 43 0.528698 1
gene 1 6 22 2.59475 0 44 2.59475 1
gene 1 7 22 -0.630234 0 45 -0.630234 1
gene 1 8 22 -0.793858 0 46 -0.793858 1
gene 1 9 22 -0.367085 0 47 -0.367085 1
gene 1 10 22 -1.37437 0 48 -1.37437 1
gene 1 11 22 -0.514312 0 49 -0.514312 1
gene 1 12 22 1.04294 0 50 1.04294 1
gene 1 13 22 0.711049 0 51 0.711049 1
gene 1 14 22 -0.305911 0 52 -0.305911 1
gene 1 15 22 -0.415914 0 53 -0.415914 1
gene 1 16 22 0.364563 0 54 0.364563 1
gene 1 17 22 0.991943 0 55 0.991943 1
gene 1 18 22 1.36301 0 56 1.36301 1
gene 1 19 22 0.0807183 0 57 0.0807183 1
gene 1 1 23 -0.0896197 0 58 -0.0896197 1
gene 1 2 23 0.674875 0 59 0.674875 1
gene 1 3 23 0.515602 0 60 0.515602 1
gene 1 4 23 -0.72458 0 61 -0.72458 1
gene 1 5 23 -0.514213 0 62 -0.514213 1
gene 1 6 23 -0.702752 0 63 -0.702752 1
gene 1 7 23 -0.907633 0 64 -0.907633 1
gene 1 8 23 0.534046 0 65 0.534046 1
gene 1 9 23 0.113527 0 66 0.113527 1
gene 1 10 23 0.801387 0 67 0.801387 1
gene 1 11 23 -0.658581 0 68 -0.658581 1
gene 1 12 23 0.982151 0 69 0.982151 1
gene 1 13 23 0.185058 0 70 0.185058 1
gene 1 14 23 -0.0887297 0 71 -0.0887297 1
gene 1 15 23 -0.358122 0 72 -0.358122 1
gene 1 16 23 0.337409 0 73 0.337409 1
gene 1 17 23 0.0301431 0 74 0.0301431 1
gene 1 18 23 0.06453 0 75 0.06453 1
gene 1 19 23 -0.372913 0 76 -0.372913 1
gene 1 18 25 -0.244641 0 79 -0.244641 1
gene 1 25 22 0.468899 0 80 0.468899 1
gene 1 3 26 -0.896141 0 81 -0.896141 1
gene 1 26 21 0.137904 0 82 0.137904 1
gene 1 22 21 -0.299181 0 91 -0.299181 1
gene 1 26 20 -0.353956 0 96 -0.353956 1
gene 1 9 43 -0.248588 0 134 -0.248588 1
gene 1 43 22 -0.0400862 0 135 -0.0400862 1
gene 1 4 25 0.283494 0 148 0.283494 1
gene 1 43 21 0.0776084 0 183 0.0776084 1
genomeend 1469
genomestart 1470
trait 1 0 0.296656 0.0942482 0 0.205838 0.0381981 0.190865 0.0790862 
node 1 1 1 1 0
node 2 1 1 1 0
node 3 1 1 1 0
node 4 1 1 1 0
node 5 1 1 1 0
node 6 1 1 1 0
node 7 1 1 1 0
node 8 1 1 1 0
node 9 1 1 1 0
node 10 1 1 1 0
node 11 1 1 1 0
node 12 1 1 1 0
node 13 1 1 1 0
node 14 1 1 1 0
node 15 1 1 1 0
node 16 1 1 1 0
node 17 1 1 1 0
node 18 1 1 1 0
node 19 1 1 3 0
node 20 1 0 2 0
node 21 1 0 2 0
node 22 1 0 2 0
node 23 1 0 2 0
node 24 1 0 0 0
node 26 1 0 0 0
node 39 1 0 0 0
node 49 1 0 0 0
gene 1 1 20 -0.882276 0 1 -0.882276 1
gene 1 2 20 0.0110856 0 2 0.0110856 1
gene 1 3 20 0.105039 0 3 0.105039 1
gene 1 4 20 0.460234 0 4 0.460234 1
gene 1 5 20 -0.416394 0 5 -0.416394 1
gene 1 6 20 -0.411525 0 6 -0.411525 1
gene 1 7 20 0.433066 0 7 0.433066 1
gene 1 8 20 0.214232 0 8 0.214232 1
gene 1 9 20 0.246152 0 9 0.246152 1
gene 1 10 20 0.435023 0 10 0.435023 1
gene 1 11 20 -0.034212 0 11 -0.034212 1
gene 1 12 20 0.454697 0 12 0.454697 1
gene 1 13 20 -2.06071 0 13 -2.06071 1
gene 1 14 20 -0.571006 0 14 -0.571006 1
gene 1 15 20 -0.192133 0 15 -0.192133 1
gene 1 16 20 -0.768875 0 16 -0.768875 1
gene 1 17 20 0.415788 0 17 0.415788 1
gene 1 18 20 -0.18319 0 18 -0.18319 1
gene 1 19 20 -1.20503 0 19 -1.20503 1
gene 1 1 21 -1.00341 0 20 -1.00341 1
gene 1 2 21 0.40856 0 21 0.40856 1
gene 1 3 21 -0.483052 0 22 -0.483052 0
gene 1 4 21 0.804675 0 23 0.804675 1
gene 1 5 21 -0.203104 0 24 -0.203104 1
gene 1 6 21 0.130623 0 25 0.130623 1
gene 1 7 21 0.316606 0 26 0.316606 1
gene 1 8 21 -0.601061 0 27 -0.601061 1
gene 1 9 21 -0.222523 0 28 -0.222523 1
gene 1 10 21 -0.0301657 0 29 -0.0301657 1
gene 1 11 21 0.00842619 0 30 0.00842619 1
gene 1 12 21 0.334629 0 31 0.334629 1
gene 1 13 21 -0.163106 0 32 -0.163106 1
gene 1 14 21 -0.731086 0 33 -0.731086 1
gene 1 15 21 0.477497 0 34 0.477497 1
gene 1 16 21 0.251785 0 35 0.251785 1
gene 1 17 21 0.255501 0 36 0.255501 1
gene 1 18 21 0.0343937 0 37 0.0343937 1
gene 1 19 21 -0.150536 0 38 -0.150536 1
gene 1 1 22 -0.00255793 0 39 -0.00255793 1
gene 1 2 22 0.311313 0 40 0.311313 1
gene 1 3 22 -0.282436 0 41 -0.282436 1
gene 1 4 22 -0.267434 0 42 -0.267434 1
gene 1 5 22 0.424617 0 43 0.424617 1
gene 1 6 22 -0.199684 0 44 -0.199684 1
gene 1 7 22 0.0636133 0 45 0.0636133 1
gene 1 8 22 0.150556 0 46 0.150556 1
gene 1 9 22 0.339893 0 47 0.339893 1
gene 1 10 22 0.352011 0 48 0.352011 1
gene 1 11 22 -0.237518 0 49 -0.237518 1
gene 1 12 22 -0.0836893 0 50 -0.0836893 1
gene 1 13 22 0.248723 0 51 0.248723 1
gene 1 14 22 0.102173 0 52 0.102173 1
gene 1 15 22 1.23599 0 53 1.23599 1
gene 1 16 22 0.459825 0 54 0.459825 1
gene 1 17 22 -0.259109 0 55 -0.259109 1
gene 1 18 22 0.274275 0 56 0.274275 1
gene 1 19 22 0.0541464 0 57 0.0541464 1
gene 1 1 23 0.990203 0 58 0.990203 1
gene 1 2 23 -0.905185 0 59 -0.905185 1
gene 1 3 23 -0.741681 0 60 -0.741681 1
gene 1 4 23 0.162331 0 61 0.162331 1
gene 1 5 23 0.113497 0 62 0.113497 1
gene 1 6 23 -0.0652329 0 63 -0.0652329 1
gene 1 7 23 0.418252 0 64 0.418252 1
gene 1 8 23 0.359912 0 65 0.359912 1
gene 1 9 23 -0.317858 0 66 -0.317858 1
gene 1 10 23 0.292729 0 67 0.292729 1
gene 1 11 23 0.153903 0 68 0.153903 1
gene 1 12 23 0.329847 0 69 0.329847 1
gene 1 13 23 -0.317681 0 70 -0.317681 1
gene 1 14 23 -0.00974595 0 71 -0.00974595 1
gene 1 15 23 -0.266775 0 72 -0.266775 1
gene 1 16 23 0.262717 0 73 0.262717 1
gene 1 17 23 0.553737 0 74 0.553737 1
gene 1 18 23 0.0696732 0 75 0.0696732 1
gene 1 19 23 -0.262193 0 76 -0.262193 1
gene 1 4 24 0.303102 0 77 0.303102 1
gene 1 24 20 -0.254465 0 78 -0.254465 1
gene 1 3 26 -0.12968 0 81 -0.12968 1
gene 1 26 21 -0.106765 0 82 -0.106765 1
gene 1 22 26 0.0306842 0 105 0.0306842 1
gene 1 9 39 -1.75674 0 121 -1.75674 1
gene 1 39 21 -0.441812 0 122 -0.441812 1
gene 1 16 26 0.332853 0 139 0.332853 1
gene 1 22 39 0.190673 0 146 0.190673 1
gene 1 23 26 -0.167722 0 147 -0.167722 1
gene 1 14 49 0.192225 0 164 0.192225 1
gene 1 49 20 -0.205868 0 165 -0.205868 1
gene 1 17 26 0.0999202 0 177 0.0999202 1
gene 1 26 26 -0.77245 1 178 -0.77245 1
genomeend 1470
genomestart 1474
trait 1 0 0.0020432 0.369906 0 0 0.272217 0.362871 0.192557 
node 1 1 1 1 0
node 2 1 1 1 0
node 3 1 1 1 0
node 4 1 1 1 0
node 5 1 1 1 0
node 6 1 1 1 0
node 7 1 1 1 0
node 8 1 1 1 0
node 9 1 1 1 0
node 10 1 1 1 0
node 11 1 1 1 0
node 12 1 1 1 0
node 13 1 1 1 0
node 14 1 1 1 0
node 15 1 1 1 0
node 16 1 1 1 0
node 17 1 1 1 0
node 18 1 1 1 0
node 19 1 1 3 0
node 20 1 0 2 0
node 21 1 0 2 0
node 22 1 0 2 0
node 23 1 0 2 0
node 26 1 0 0 0
node 27 1 0 0 0
node 30 1 0 0 0
node 31 1 0 0 0
node 38 1 0 0 0
gene 1 1 20 1.39946 0 1 1.39946 1
gene 1 2 20 0.516375 0 2 0.516375 1
gene 1 3 20 1.35905 0 3 1.35905 1
gene 1 4 20 -0.285607 0 4 -0.285607 1
gene 1 5 20 0.862809 0 5 0.862809 1
gene 1 6 20 -0.872708 0 6 -0.872708 1
gene 1 7 20 0.471906 0 7 0.471906 1
gene 1 8 20 0.887902 0 8 0.887902 1
gene 1 9 20 -0.0350004 0 9 -0.0350004 0
gene 1 10 20 -0.605812 0 10 -0.605812 1
gene 1 11 20 0.159993 0 11 0.159993 1
gene 1 12 20 -0.484883 0 12 -0.484883 1
gene 1 13 20 -0.811155 0 13 -0.811155 1
gene 1 14 20 0.0823793 0 14 0.0823793 1
gene 1 15 20 0.0519746 0 15 0.0519746 1
gene 1 16 20 -0.377962 0 16 -0.377962 1
gene 1 17 20 -0.229099 0 17 -0.229099 1
gene 1 18 20 -0.0712176 0 18 -0.0712176 1
gene 1 19 20 -1.66911 0 19 -1.66911 1
gene 1 1 21 -0.504247 0 20 -0.504247 1
gene 1 2 21 0.494883 0 21 0.494883 1
gene 1 3 21 -0.00350972 0 22 -0.00350972 0
gene 1 4 21 -0.697351 0 23 -0.697351 1
gene 1 5 21 0.329964 0 24 0.329964 1
gene 1 6 21 -0.592845 0 25 -0.592845 1
gene 1 7 21 -0.183934 0 26 -0.183934 1
gene 1 8 21 -0.973599 0 27 -0.973599 1
gene 1 9 21 0.122674 0 28 0.122674 1
gene 1 10 21 0.25126 0 29 0.25126 1
gene 1 11 21 -0.353385 0 30 -0.353385 1
gene 1 12 21 0.868119 0 31 0.868119 1
gene 1 13 21 0.241663 0 32 0.241663 1
gene 1 14 21 0.510059 0 33 0.510059 1
gene 1 15 21 -0.512208 0 34 -0.512208 1
gene 1 16 21 -0.317061 0 35 -0.317061 1
gene 1 17 21 -0.0874483 0 36 -0.0874483 1
gene 1 18 21 0.344498 0 37 0.344498 1
gene 1 19 21 0.381258 0 38 0.381258 1
gene 1 1 22 -0.449859 0 39 -0.449859 1
gene 1 2 22 -0.961273 0 40 -0.961273 1
gene 1 3 22 -0.0622196 0 41 -0.0622196 1
gene 1 4 22 0.214965 0 42 0.214965 1
gene 1 5 22 1.58047 0 43 1.58047 1
gene 1 6 22 0.410569 0 44 0.410569 0
gene 1 7 22 -0.320771 0 45 -0.320771 1
gene 1 8 22 1.24772 0 46 1.24772 1
gene 1 9 22 -0.500296 0 47 -0.500296 1
gene 1 10 22 -0.592772 0 48 -0.592772 1
gene 1 11 22 -0.256757 0 49 -0.256757 1
gene 1 12 22 -1.03441 0 50 -1.03441 1
gene 1 13 22 -0.992914 0 51 -0.992914 1
gene 1 14 22 0.633597 0 52 0.633597 1
gene 1 15 22 0.191386 0 53 0.191386 1
gene 1 16 22 0.554989 0 54 0.554989 1
gene 1 17 22 2.17132 0 55 2.17132 1
gene 1 18 22 1.40758 0 56 1.40758 1
gene 1 19 22 -0.111088 0 57 -0.111088 1
gene 1 1 23 0.651423 0 58 0.651423 1
gene 1 2 23 -0.0904944 0 59 -0.0904944 1
gene 1 3 23 -0.150064 0 60 -0.150064 0
gene 1 4 23 0.70036 0 61 0.70036 1
gene 1 5 23 0.387055 0 62 0.387055 1
gene 1 6 23 -0.528713 0 63 -0.528713 1
gene 1 7 23 0.178576 0 64 0.178576 1
gene 1 8 23 -0.404751 0 65 -0.404751 1
gene 1 9 23 0.241565 0 66 0.241565 1
gene 1 10 23 -0.621875 0 67 -0.621875 1
gene 1 11 23 -0.364036 0 68 -0.364036 1
gene 1 12 23 -0.108723 0 69 -0.108723 1
gene 1 13 23 -0.0043139 0 70 -0.0043139 1
gene 1 14 23 -0.403808 0 71 -0.403808 1
gene 1 15 23 -0.827379 0 72 -0.827379 1
gene 1 16 23 -0.0395215 0 73 -0.0395215 1
gene 1 17 23 -0.0090434 0 74 -0.0090434 1
gene 1 18 23 -0.495156 0 75 -0.495156 1
gene 1 19 23 -0.39404 0 76 -0.39404 1
gene 1 3 26 -0.213359 0 81 -0.213359 1
gene 1 26 21 -0.457813 0 82 -0.457813 1
gene 1 22 20 -0.113255 0 83 -0.113255 1
gene 1 3 27 -0.292621 0 84 -0.292621 1
gene 1 27 23 0.435887 0 85 0.435887 1
gene 1 9 30 0.0940091 0 93 0.0940091 1
gene 1 30 20 0.0462284 0 94 0.0462284 1
gene 1 6 31 0.669728 0 98 0.669728 1
gene 1 31 22 -0.0515179 0 99 -0.0515179 1
gene 1 21 23 0.00240295 0 101 0.00240295 1
gene 1 23 22 0.434348 0 104 0.434348 1
gene 1 16 38 -0.432221 0 119 -0.432221 1
gene 1 38 23 0.291467 0 120 0.291467 1
gene 1 14 27 0.670912 0 130 0.670912 1
gene 1 10 27 -0.186502 0 159 -0.186502 1
gene 1 1 31 -0.445572 0 160 -0.445572 1
genomeend 1474
genomestart 1477
trait 1 0 0 0 0 0 0 0.761482 0 
node 1 1 1 1 0
node 2 1 1 1 0
node 3 1 1 1 0
node 4 1 1 1 0
node 5 1 1 1 0
node 6 1 1 1 0
node 7 1 1 1 0
node 8 1 1 1 0
node 9 1 1 1 0
node 10 1 1 1 0
node 11 1 1 1 0
node 12 1 1 1 0
node 13 1 1 1 0
node 14 1 1 1 0
node 15 1 1 1 0
node 16 1 1 1 0
node 17 1 1 1 0
node 18 1 1 1 0
node 19 1 1 3 0
node 20 1 0 2 0
node 21 1 0 2 0
node 22 1 0 2 0
node 23 1 0 2 0
node 27 1 0 0 0
node 30 1 0 0 0
node 42 1 0 0 0
node 55 1 0 0 0
gene 1 1 20 0.262831 0 1 0.262831 1
gene 1 2 20 0.971699 0 2 0.971699 1
gene 1 3 20 0.983641 0 3 0.983641 1
gene 1 4 20 -1.50718 0 4 -1.50718 1
gene 1 5 20 1.31798 0 5 1.31798 1
gene 1 6 20 -0.104272 0 6 -0.104272 1
gene 1 7 20 0.541314 0 7 0.541314 1
gene 1 8 20 -0.362913 0 8 -0.362913 1
gene 1 9 20 -0.697884 0 9 -0.697884 1
gene 1 10 20 0.629033 0 10 0.629033 1
gene 1 11 20 -0.486938 0 11 -0.486938 1
gene 1 12 20 -0.381391 0 12 -0.381391 1
gene 1 13 20 0.296919 0 13 0.296919 1
gene 1 14 20 -1.15643 0 14 -1.15643 1
gene 1 15 20 0.228187 0 15 0.228187 1
gene 1 16 20 -0.397827 0 16 -0.397827 1
gene 1 17 20 -0.0646256 0 17 -0.0646256 1
gene 1 18 20 0.206147 0 18 0.206147 1
gene 1 19 20 -2.3002 0 19 -2.3002 1
gene 1 1 21 -0.120089 0 20 -0.120089 1
gene 1 2 21 1.08666 0 21 1.08666 1
gene 1 3 21 -0.123522 0 22 -0.123522 1
gene 1 4 21 -1.2856 0 23 -1.2856 1
gene 1 5 21 0.508911 0 24 0.508911 1
gene 1 6 21 0.408214 0 25 0.408214 1
gene 1 7 21 -0.435148 0 26 -0.435148 1
gene 1 8 21 0.0613437 0 27 0.0613437 1
gene 1 9 21 0.200306 0 28 0.200306 1
gene 1 10 21 -0.468853 0 29 -0.468853 1
gene 1 11 21 0.0944227 0 30 0.0944227 1
gene 1 12 21 0.0650747 0 31 0.0650747 1
gene 1 13 21 0.797456 0 32 0.797456 1
gene 1 14 21 0.0474117 0 33 0.0474117 1
gene 1 15 21 -1.47358 0 34 -1.47358 1
gene 1 16 21 -0.836444 0 35 -0.836444 1
gene 1 17 21 0.127946 0 36 0.127946 1
gene 1 18 21 0.0727934 0 37 0.0727934 1
gene 1 19 21 -0.495051 0 38 -0.495051 1
gene 1 1 22 -1.00613 0 39 -1.00613 1
gene 1 2 22 0.717685 0 40 0.717685 1
gene 1 3 22 -0.299256 0 41 -0.299256 0
gene 1 4 22 0.467939 0 42 0.467939 1
gene 1 5 22 0.0766574 0 43 0.0766574 1
gene 1 6 22 -1.36405 0 44 -1.36405 1
gene 1 7 22 0.486134 0 45 0.486134 1
gene 1 8 22 -0.190458 0 46 -0.190458 1
gene 1 9 22 1.11488 0 47 1.11488 1
gene 1 10 22 -0.786393 0 48 -0.786393 1
gene 1 11 22 0.104895 0 49 0.104895 1
gene 1 12 22 -0.0634735 0 50 -0.0634735 1
gene 1 13 22 -0.476966 0 51 -0.476966 1
gene 1 14 22 -0.316468 0 52 -0.316468 1
gene 1 15 22 1.94443 0 53 1.94443 1
gene 1 16 22 -3 0 54 -3 1
gene 1 17 22 -0.117663 0 55 -0.117663 1
gene 1 18 22 0.737227 0 56 0.737227 1
gene 1 19 22 -0.157299 0 57 -0.157299 1
gene 1 1 23 0.514032 0 58 0.514032 1
gene 1 2 23 0.618158 0 59 0.618158 1
gene 1 3 23 0.136155 0 60 0.136155 0
gene 1 4 23 -0.431338 0 61 -0.431338 1
gene 1 5 23 -0.0962483 0 62 -0.0962483 1
gene 1 6 23 0.105013 0 63 0.105013 1
gene 1 7 23 0.129495 0 64 0.129495 1
gene 1 8 23 -1.59713 0 65 -1.59713 1
gene 1 9 23 0.28904 0 66 0.28904 1
gene 1 10 23 -1.3565 0 67 -1.3565 1
gene 1 11 23 -0.722537 0 68 -0.722537 1
gene 1 12 23 -0.381596 0 69 -0.381596 1
gene 1 13 23 0.211795 0 70 0.211795 1
gene 1 14 23 0.0148472 0 71 0.0148472 1
gene 1 15 23 0.297386 0 72 0.297386 1
gene 1 16 23 0.22222 0 73 0.22222 1
gene 1 17 23 1.16336 0 74 1.16336 1
gene 1 18 23 -0.578128 0 75 -0.578128 1
gene 1 19 23 -0.417382 0 76 -0.417382 1
gene 1 22 20 0.332715 0 83 0.332715 1
gene 1 3 27 0.017734 0 84 0.017734 1
gene 1 27 23 0.000646169 0 85 0.000646169 1
gene 1 9 30 0.244918 0 93 0.244918 1
gene 1 30 20 -0.206063 0 94 -0.206063 1
gene 1 21 22 -0.838063 0 95 0 1
gene 1 12 27 0.0275627 0 131 0.0275627 1
gene 1 3 42 0.573335 0 132 0.573335 1
gene 1 42 22 -0.615528 0 133 -0.615528 1
gene 1 2 42 -0.63021 0 152 -0.63021 1
gene 1 16 27 0.412873 0 157 0.412873 1
gene 1 5 55 0.677412 0 189 0.677412 1
gene 1 55 21 0.163781 0 190 0.163781 1
genomeend 1477
genomestart 1478
trait 1 0 0.197771 0.106296 0 0.16258 0.041361 0.136249 0.0527241 
node 1 1 1 1 0
node 2 1 1 1 0
node 3 1 1 1 0
node 4 1 1 1 0
node 5 1 1 1 0
node 6 1 1 1 0
node 7 1 1 1 0
node 8 1 1 1 0
node 9 1 1 1 0
node 10 1 1 1 0
node 11 1 1 1 0
node 12 1 1 1 0
node 13 1 1 1 0
node 14 1 1 1 0
node 15 1 1 1 0
node 16 1 1 1 0
node 17 1 1 1 0
node 18 1 1 1 0
node 19 1 1 3 0
node 20 1 0 2 0
node 21 1 0 2 0
node 22 1 0 2 0
node 23 1 0 2 0
node 24 1 0 0 0
node 26 1 0 0 0
node 39 1 0 0 0
node 49 1 0 0 0
gene 1 1 20 0.0206306 0 1 0.0206306 1
gene 1 2 20 0.0108024 0 2 0.0108024 1
gene 1 3 20 -0.160441 0 3 -0.160441 1
gene 1 4 20 -0.657105 0 4 -0.657105 1
gene 1 5 20 0.240507 0 5 0.240507 1
gene 1 6 20 -0.0540469 0 6 -0.0540469 1
gene 1 7 20 0.623913 0 7 0.623913 1
gene 1 8 20 0.131435 0 8 0.131435 1
gene 1 9 20 0.53789 0 9 0.53789 1
gene 1 10 20 -0.413465 0 10 -0.413465 1
gene 1 11 20 -0.379229 0 11 -0.379229 1
gene 1 12 20 0.0159815 0 12 0.0159815 1
gene 1 13 20 -2.30093 0 13 -2.30093 1
gene 1 14 20 -0.115517 0 14 -0.115517 0
gene 1 15 20 -0.0381622 0 15 -0.0381622 1
gene 1 16 20 -0.128544 0 16 -0.128544 1
gene 1 17 20 -0.0577376 0 17 -0.0577376 1
gene 1 18 20 0.439192 0 18 0.439192 1
gene 1 19 20 -0.777782 0 19 -0.777782 1
gene 1 1 21 -0.92731 0 20 -0.92731 1
gene 1 2 21 1.40823 0 21 1.40823 1
gene 1 3 21 0.605692 0 22 0.605692 0
gene 1 4 21 1.30243 0 23 1.30243 1
gene 1 5 21 -0.974135 0 24 -0.974135 1
gene 1 6 21 0.392298 0 25 0.392298 1
gene 1 7 21 0.365498 0 26 0.365498 1
gene 1 8 21 -0.138333 0 27 -0.138333 1
gene 1 9 21 -0.987253 0 28 -0.987253 1
gene 1 10 21 1.38875 0 29 1.38875 1
gene 1 11 21 0.760063 0 30 0.760063 1
gene 1 12 21 -0.608591 0 31 -0.608591 1
gene 1 13 21 -0.449988 0 32 -0.449988 1
gene 1 14 21 0.664665 0 33 0.664665 1
gene 1 15 21 1.06754 0 34 1.06754 1
gene 1 16 21 -0.103188 0 35 -0.103188 1
gene 1 17 21 0.269956 0 36 0.269956 1
gene 1 18 21 -0.0843479 0 37 -0.0843479 1
gene 1 19 21 0.033471 0 38 0.033471 1
gene 1 1 22 -0.139106 0 39 -0.139106 1
gene 1 2 22 -0.100579 0 40 -0.100579 1
gene 1 3 22 -0.187506 0 41 -0.187506 1
gene 1 4 22 1.46093 0 42 1.46093 1
gene 1 5 22 0.840301 0 43 0.840301 1
gene 1 6 22 -0.268927 0 44 -0.268927 1
gene 1 7 22 0.199774 0 45 0.199774 1
gene 1 8 22 -0.399982 0 46 -0.399982 1
gene 1 9 22 0.160448 0 47 0.160448 1
gene 1 10 22 -1.42807 0 48 -1.42807 1
gene 1 11 22 -0.552382 0 49 -0.552382 1
gene 1 12 22 0.456108 0 50 0.456108 1
gene 1 13 22 -0.176909 0 51 -0.176909 1
gene 1 14 22 0.0746412 0 52 0.0746412 1
gene 1 15 22 0.931623 0 53 0.931623 1
gene 1 16 22 0.256984 0 54 0.256984 1
gene 1 17 22 -0.204412 0 55 -0.204412 1
gene 1 18 22 -1.28196 0 56 -1.28196 1
gene 1 19 22 -0.170756 0 57 -0.170756 1
gene 1 1 23 1.06411 0 58 1.06411 1
gene 1 2 23 0.0635016 0 59 0.0635016 1
gene 1 3 23 0.31259 0 60 0.31259 1
gene 1 4 23 -0.834885 0 61 -0.834885 1
gene 1 5 23 0.180775 0 62 0.180775 1
gene 1 6 23 -0.163766 0 63 -0.163766 1
gene 1 7 23 0.323233 0 64 0.323233 1
gene 1 8 23 -0.519948 0 65 -0.519948 1
gene 1 9 23 0.695321 0 66 0.695321 1
gene 1 10 23 0.215553 0 67 0.215553 1
gene 1 11 23 -0.141061 0 68 -0.141061 1
gene 1 12 23 0.200646 0 69 0.200646 1
gene 1 13 23 0.212686 0 70 0.212686 1
gene 1 14 23 0.606742 0 71 0.606742 1
gene 1 15 23 -0.742287 0 72 -0.742287 1
gene 1 16 23 0.110842 0 73 0.110842 1
gene 1 17 23 -0.133671 0 74 -0.133671 1
gene 1 18 23 -0.485234 0 75 -0.485234 1
gene 1 19 23 -0.206234 0 76 -0.206234 1
gene 1 4 24 0.0574681 0 77 0.0574681 1
gene 1 24 20 -1.24664 0 78 -1.24664 1
gene 1 3 26 -0.88742 0 81 -0.88742 1
gene 1 26 21 0.342084 0 82 0.342084 1
gene 1 22 26 0.382836 0 105 0.382836 1
gene 1 9 39 -0.985092 0 121 -0.985092 1
gene 1 39 21 -0.0283167 0 122 -0.0283167 1
gene 1 16 26 0.0391622 0 139 0.0391622 1
gene 1 22 39 0.0542782 0 146 0.0542782 1
gene 1 23 26 -1.21482 0 147 -1.21482 1
gene 1 14 49 0.357891 0 164 0.357891 1
gene 1 49 20 -0.912475 0 165 -0.912475 1
gene 1 17 26 0.484573 0 177 0.484573 1
gene 1 26 26 0.0662819 1 178 0.0662819 1
genomeend 1478
genomestart 1480
trait 1 0 0.231819 0.118425 0 0.0923001 0.0428208 0.247861 0.105448 
node 1 1 1 1 0
node 2 1 1 1 0
node 3 1 1 1 0
node 4 1 1 1 0
node 5 1 1 1 0
node 6 1 1 1 0
node 7 1 1 1 0
node 8 1 1 1 0
node 9 1 1 1 0
node 10 1 1 1 0
node 11 1 1 1 0
node 12 1 1 1 0
node 13 1 1 1 0
node 14 1 1 1 0
node 15 1 1 1 0
node 16 1 1 1 0
node 17 1 1 1 0
node 18 1 1 1 0
node 19 1 1 3 0
node 20 1 0 2 0
node 21 1 0 2 0
node 22 1 0 2 0
node 23 1 0 2 0
node 24 1 0 0 0
node 26 1 0 0 0
node 39 1 0 0 0
node 49 1 0 0 0
gene 1 1 20 -0.423032 0 1 -0.423032 1
gene 1 2 20 0.326073 0 2 0.326073 1
gene 1 3 20 -0.00436737 0 3 -0.00436737 1
gene 1 4 20 0.215164 0 4 0.215164 1
gene 1 5 20 1.21043 0 5 1.21043 1
gene 1 6 20 0.131852 0 6 0.131852 1
gene 1 7 20 -0.0401375 0 7 -0.0401375 1
gene 1 8 20 0.628502 0 8 0.628502 1
gene 1 9 20 0.0564855 0 9 0.0564855 1
gene 1 10 20 0.754706 0 10 0.754706 1
gene 1 11 20 0.161675 0 11 0.161675 1
gene 1 12 20 -1.278 0 12 -1.278 1
gene 1 13 20 -2.74554 0 13 -2.74554 1
gene 1 14 20 -0.374543 0 14 -0.374543 0
gene 1 15 20 -0.0887119 0 15 -0.0887119 1
gene 1 16 20 -1.14087 0 16 -1.14087 1
gene 1 17 20 -0.387611 0 17 -0.387611 1
gene 1 18 20 1.19655 0 18 1.19655 1
gene 1 19 20 -0.767455 0 19 -0.767455 1
gene 1 1 21 -0.986268 0 20 -0.986268 1
gene 1 2 21 0.917606 0 21 0.917606 1
gene 1 3 21 0.176587 0 22 0.176587 1
gene 1 4 21 1.01678 0 23 1.01678 1
gene 1 5 21 -1.30694 0 24 -1.30694 1
gene 1 6 21 0.74404 0 25 0.74404 1
gene 1 7 21 -0.173753 0 26 -0.173753 1
gene 1 8 21 -0.494869 0 27 -0.494869 1
gene 1 9 21 -0.679715 0 28 -0.679715 1
gene 1 10 21 0.947442 0 29 0.947442 1
gene 1 11 21 -0.0530879 0 30 -0.0530879 1
gene 1 12 21 0.14151 0 31 0.14151 1
gene 1 13 21 0.139347 0 32 0.139347 1
gene 1 14 21 -0.0411374 0 33 -0.0411374 1
gene 1 15 21 0.326778 0 34 0.326778 1
gene 1 16 21 -0.122631 0 35 -0.122631 1
gene 1 17 21 0.134239 0 36 0.134239 1
gene 1 18 21 0.217485 0 37 0.217485 1
gene 1 19 21 -0.118152 0 38 -0.118152 1
gene 1 1 22 -0.400803 0 39 -0.400803 1
gene 1 2 22 -0.668483 0 40 -0.668483 1
gene 1 3 22 0.197305 0 41 0.197305 1
gene 1 4 22 0.998061 0 42 0.998061 1
gene 1 5 22 -0.0611841 0 43 -0.0611841 1
gene 1 6 22 -0.299864 0 44 -0.299864 1
gene 1 7 22 0.261637 0 45 0.261637 1
gene 1 8 22 -0.346214 0 46 -0.346214 1
gene 1 9 22 -0.0378941 0 47 -0.0378941 1
gene 1 10 22 -0.871966 0 48 -0.871966 1
gene 1 11 22 0.235634 0 49 0.235634 1
gene 1 12 22 0.177718 0 50 0.177718 1
gene 1 13 22 -0.174945 0 51 -0.174945 1
gene 1 14 22 0.352934 0 52 0.352934 1
gene 1 15 22 1.05043 0 53 1.05043 1
gene 1 16 22 0.590728 0 54 0.590728 1
gene 1 17 22 0.00910036 0 55 0.00910036 1
gene 1 18 22 -0.416856 0 56 -0.416856 1
gene 1 19 22 0.263011 0 57 0.263011 1
gene 1 1 23 1.03976 0 58 1.03976 1
gene 1 2 23 -0.687565 0 59 -0.687565 1
gene 1 3 23 -0.301938 0 60 -0.301938 1
gene 1 4 23 -0.444019 0 61 -0.444019 1
gene 1 5 23 0.0152824 0 62 0.0152824 1
gene 1 6 23 -0.269848 0 63 -0.269848 1
gene 1 7 23 0.331317 0 64 0.331317 1
gene 1 8 23 -0.066977 0 65 -0.066977 1
gene 1 9 23 -0.290054 0 66 -0.290054 1
gene 1 10 23 0.304638 0 67 0.304638 1
gene 1 11 23 -0.145389 0 68 -0.145389 1
gene 1 12 23 0.0787934 0 69 0.0787934 1
gene 1 13 23 0.0383169 0 70 0.0383169 1
gene 1 14 23 0.0161401 0 71 0.0161401 1
gene 1 15 23 -0.202217 0 72 -0.202217 1
gene 1 16 23 -0.0396413 0 73 -0.0396413 1
gene 1 17 23 0.309111 0 74 0.309111 1
gene 1 18 23 -0.168571 0 75 -0.168571 1
gene 1 19 23 -0.416771 0 76 -0.416771 1
gene 1 4 24 0.267892 0 77 0.267892 1
gene 1 24 20 -1.26945 0 78 -1.26945 1
gene 1 3 26 -0.507986 0 81 -0.507986 1
gene 1 26 21 0.0749098 0 82 0.0749098 1
gene 1 22 26 0.631507 0 105 0.631507 1
gene 1 9 39 -1.06724 0 121 -1.06724 1
gene 1 39 21 -0.707241 0 122 -0.707241 1
gene 1 16 26 -0.309938 0 139 -0.309938 1
gene 1 22 39 0.0595217 0 146 0.0595217 1
gene 1 23 26 -0.672109 0 147 -0.672109 1
gene 1 14 49 0.464019 0 164 0.464019 1
gene 1 49 20 -0.423576 0 165 -0.423576 1
gene 1 17 26 0.268033 0 177 0.268033 1
gene 1 26 26 -0.552793 1 178 -0.552793 1
genomeend 1480
genomestart 1484
trait 1 0 0.231819 0.118425 0 0.0923001 0.0428208 0.247861 0.105448 
node 1 1 1 1 0
node 2 1 1 1 0
node 3 1 1 1 0
node 4 1 1 1 0
node 5 1 1 1 0
node 6 1 1 1 0
node 7 1 1 1 0
node 8 1 1 1 0
node 9 1 1 1 0
node 10 1 1 1 0
node 11 1 1 1 0
node 12 1 1 1 0
node 13 1 1 1 0
node 14 1 1 1 0
node 15 1 1 1 0
node 16 1 1 1 0
node 17 1 1 1 0
node 18 1 1 1 0
node 19 1 1 3 0
node 20 1 0 2 0
node 21 1 0 2 0
node 22 1 0 2 0
node 23 1 0 2 0
node 24 1 0 0 0
node 26 1 0 0 0
node 39 1 0 0 0
node 49 1 0 0 0
gene 1 1 20 -0.402014 0 1 -0.402014 1
gene 1 2 20 0.0591084 0 2 0.0591084 1
gene 1 3 20 0.164124 0 3 0.164124 1
gene 1 4 20 -0.192359 0 4 -0.192359 1
gene 1 5 20 1.9753 0 5 1.9753 1
gene 1 6 20 0.433656 0 6 0.433656 1
gene 1 7 20 -0.0875066 0 7 -0.0875066 1
gene 1 8 20 0.83586 0 8 0.83586 1
gene 1 9 20 0.601403 0 9 0.601403 1
gene 1 10 20 0.123261 0 10 0.123261 1
gene 1 11 20 0.0758711 0 11 0.0758711 1
gene 1 12 20 -1.85992 0 12 -1.85992 1
gene 1 13 20 -2.60702 0 13 -2.60702 1
gene 1 14 20 -0.276439 0 14 -0.276439 0
gene 1 15 20 0.00232632 0 15 0.00232632 1
gene 1 16 20 0.272274 0 16 0.272274 1
gene 1 17 20 0.466683 0 17 0.466683 1
gene 1 18 20 0.824199 0 18 0.824199 1
gene 1 19 20 -0.549667 0 19 -0.549667 1
gene 1 1 21 -0.914872 0 20 -0.914872 1
gene 1 2 21 -0.412368 0 21 -0.412368 1
gene 1 3 21 0.369285 0 22 0.369285 1
gene 1 4 21 1.16963 0 23 1.16963 1
gene 1 5 21 -0.127442 0 24 -0.127442 1
gene 1 6 21 0.259192 0 25 0.259192 1
gene 1 7 21 -0.334765 0 26 -0.334765 1
gene 1 8 21 -1.24301 0 27 -1.24301 1
gene 1 9 21 -0.738959 0 28 -0.738959 1
gene 1 10 21 1.38206 0 29 1.38206 1
gene 1 11 21 0.0578924 0 30 0.0578924 1
gene 1 12 21 0.373866 0 31 0.373866 1
gene 1 13 21 0.264908 0 32 0.264908 1
gene 1 14 21 -0.743447 0 33 -0.743447 1
gene 1 15 21 0.424034 0 34 0.424034 1
gene 1 16 21 0.460284 0 35 0.460284 1
gene 1 17 21 -0.463569 0 36 -0.463569 1
gene 1 18 21 0.0604019 0 37 0.0604019 1
gene 1 19 21 -0.0413401 0 38 -0.0413401 1
gene 1 1 22 -0.409609 0 39 -0.409609 1
gene 1 2 22 0.110094 0 40 0.110094 1
gene 1 3 22 -0.0434871 0 41 -0.0434871 1
gene 1 4 22 1.33515 0 42 1.33515 1
gene 1 5 22 0.320322 0 43 0.320322 1
gene 1 6 22 0.325133 0 44 0.325133 1
gene 1 7 22 0.751147 0 45 0.751147 1
gene 1 8 22 -0.19095 0 46 -0.19095 1
gene 1 9 22 -0.250945 0 47 -0.250945 1
gene 1 10 22 -0.813876 0 48 -0.813876 1
gene 1 11 22 0.0116023 0 49 0.0116023 1
gene 1 12 22 0.452027 0 50 0.452027 1
gene 1 13 22 -0.163058 0 51 -0.163058 1
gene 1 14 22 0.122893 0 52 0.122893 1
gene 1 15 22 -0.276417 0 53 -0.276417 1
gene 1 16 22 0.0801802 0 54 0.0801802 1
gene 1 17 22 0.322142 0 55 0.322142 1
gene 1 18 22 -0.499542 0 56 -0.499542 1
gene 1 19 22 0.446284 0 57 0.446284 1
gene 1 1 23 -0.297516 0 58 -0.297516 1
gene 1 2 23 -0.620253 0 59 -0.620253 1
gene 1 3 23 -0.46696 0 60 -0.46696 1
gene 1 4 23 0.422925 0 61 0.422925 1
gene 1 5 23 0.0135414 0 62 0.0135414 1
gene 1 6 23 -0.443754 0 63 -0.443754 1
gene 1 7 23 0.257596 0 64 0.257596 1
gene 1 8 23 0.0290387 0 65 0.0290387 1
gene 1 9 23 -0.515711 0 66 -0.515711 1
gene 1 10 23 0.0912834 0 67 0.0912834 1
gene 1 11 23 -0.337459 0 68 -0.337459 1
gene 1 12 23 -0.637482 0 69 -0.637482 1
gene 1 13 23 0.195895 0 70 0.195895 1
gene 1 14 23 -0.292073 0 71 -0.292073 1
gene 1 15 23 0.188026 0 72 0.188026 1
gene 1 16 23 -0.572704 0 73 -0.572704 1
gene 1 17 23 0.256866 0 74 0.256866 1
gene 1 18 23 -0.699177 0 75 -0.699177 1
gene 1 19 23 -1.48639 0 76 -1.48639 1
gene 1 4 24 0.190428 0 77 0.190428 1
gene 1 24 20 -1.35885 0 78 -1.35885 1
gene 1 3 26 -0.726604 0 81 -0.726604 1
gene 1 26 21 -0.377912 0 82 -0.377912 1
gene 1 22 26 -0.240668 0 105 -0.240668 1
gene 1 9 39 -1.49635 0 121 -1.49635 1
gene 1 39 21 -0.681698 0 122 -0.681698 1
gene 1 16 26 -0.124042 0 139 -0.124042 1
gene 1 22 39 0.264052 0 146 0.264052 1
gene 1 23 26 -1.05643 0 147 -1.05643 1
gene 1 14 49 0.05202 0 164 0.05202 1
gene 1 49 20 -1.12399 0 165 -1.12399 1
gene 1 17 26 0.391145 0 177 0.391145 1
gene 1 26 26 0.110141 1 178 0.110141 1
genomeend 1484
genomestart 1486
trait 1 0 0.201101 0.290803 0 0.869566 0 0 0 
node 1 1 1 1 0
node 2 1 1 1 0
node 3 1 1 1 0
node 4 1 1 1 0
node 5 1 1 1 0
node 6 1 1 1 0
node 7 1 1 1 0
node 8 1 1 1 0
node 9 1 1 1 0
node 10 1 1 1 0
node 11 1 1 1 0
node 12 1 1 1 0
node 13 1 1 1 0
node 14 1 1 1 0
node 15 1 1 1 0
node 16 1 1 1 0
node 17 1 1 1 0
node 18 1 1 1 0
node 19 1 1 3 0
node 20 1 0 2 0
node 21 1 0 2 0
node 22 1 0 2 0
node 23 1 0 2 0
node 25 1 0 0 0
node 26 1 0 0 0
node 43 1 0 0 0
gene 1 1 20 1.4205 0 1 1.4205 1
gene 1 2 20 0.41566 0 2 0.41566 1
gene 1 3 20 -0.529964 0 3 -0.529964 1
gene 1 4 20 0.510712 0 4 0.510712 1
gene 1 5 20 0.308765 0 5 0.308765 1
gene 1 6 20 -0.150527 0 6 -0.150527 1
gene 1 7 20 0.172433 0 7 0.172433 1
gene 1 8 20 -0.0894684 0 8 -0.0894684 1
gene 1 9 20 -0.246468 0 9 -0.246468 1
gene 1 10 20 0.232311 0 10 0.232311 1
gene 1 11 20 0.814983 0 11 0.814983 1
gene 1 12 20 -1.18452 0 12 -1.18452 1
gene 1 13 20 0.531064 0 13 0.531064 1
gene 1 14 20 -0.705006 0 14 -0.705006 1
gene 1 15 20 -0.328621 0 15 -0.328621 1
gene 1 16 20 0.314734 0 16 0.314734 1
gene 1 17 20 0.756241 0 17 0.756241 1
gene 1 18 20 -0.608277 0 18 -0.608277 1
gene 1 19 20 0.452926 0 19 0.452926 1
