genomestart 2170
trait 1 0.721477 0.396898 0 0.0411165 0.0700443 0.0108799 0.332339 0.00563039 
node 1 1 1 1 0
node 2 1 1 1 0
node 3 1 1 1 0
node 4 1 1 1 0
node 5 1 1 1 0
node 6 1 1 1 0
node 7 1 1 1 0
node 8 1 1 1 0
node 9 1 1 1 0
node 10 1 1 1 0
node 11 1 1 1 0
node 12 1 1 1 0
node 13 1 1 1 0
node 14 1 1 1 0
node 15 1 1 1 0
node 16 1 1 1 0
node 17 1 1 1 0
node 18 1 1 1 0
node 19 1 1 3 0
node 20 1 0 2 0
node 21 1 0 2 0
node 22 1 0 2 0
node 23 1 0 2 0
node 30 1 0 0 0
node 37 1 0 0 0
node 40 1 0 0 0
node 50 1 0 0 0
node 58 1 0 0 0
node 60 1 0 0 0
gene 1 1 20 -0.851279 0 1 -0.851279 1
gene 1 2 20 0.422769 0 2 0.422769 1
gene 1 3 20 0.325291 0 3 0.325291 1
gene 1 4 20 0.270148 0 4 0.270148 1
gene 1 5 20 1.78194 0 5 1.78194 1
gene 1 6 20 0.358221 0 6 0.358221 1
gene 1 7 20 0.928375 0 7 0.928375 1
gene 1 8 20 -0.118852 0 8 -0.118852 1
gene 1 9 20 0.87463 0 9 0.87463 0
gene 1 10 20 -0.254987 0 10 -0.254987 1
gene 1 11 20 1.03147 0 11 1.03147 1
gene 1 12 20 0.0424503 0 12 0.0424503 1
gene 1 13 20 -1.46851 0 13 -1.46851 1
gene 1 14 20 -0.779763 0 14 -0.779763 1
gene 1 15 20 -0.904173 0 15 -0.904173 1
gene 1 16 20 2.18086 0 16 2.18086 1
gene 1 17 20 1.48209 0 17 1.48209 1
gene 1 18 20 0.157385 0 18 0.157385 1
gene 1 19 20 1.55404 0 19 1.55404 1
gene 1 1 21 0.741151 0 20 0.741151 1
gene 1 2 21 0.264733 0 21 0.264733 1
gene 1 3 21 -0.429867 0 22 -0.429867 1
gene 1 4 21 1.03953 0 23 1.03953 1
gene 1 5 21 -0.618246 0 24 -0.618246 1
gene 1 6 21 0.0569822 0 25 0.0569822 1
gene 1 7 21 0.10412 0 26 0.10412 1
gene 1 8 21 0.15572 0 27 0.15572 1
gene 1 9 21 -0.526107 0 28 -0.526107 1
gene 1 10 21 -0.668332 0 29 -0.668332 1
gene 1 11 21 -0.75205 0 30 -0.75205 1
gene 1 12 21 0.389673 0 31 0.389673 1
gene 1 13 21 -0.488277 0 32 -0.488277 1
gene 1 14 21 -0.978236 0 33 -0.978236 1
gene 1 15 21 -0.268133 0 34 -0.268133 1
gene 1 16 21 -0.151324 0 35 -0.151324 1
gene 1 17 21 -0.0882734 0 36 -0.0882734 1
gene 1 18 21 -1.55692 0 37 -1.55692 1
gene 1 19 21 0.223243 0 38 0.223243 1
gene 1 1 22 0.465988 0 39 0.465988 1
gene 1 2 22 0.412607 0 40 0.412607 0
gene 1 3 22 0.0862976 0 41 0.0862976 1
gene 1 4 22 -0.293875 0 42 -0.293875 1
gene 1 5 22 0.02163 0 43 0.02163 1
gene 1 6 22 -0.393597 0 44 -0.393597 1
gene 1 7 22 -1.08959 0 45 -1.08959 1
gene 1 8 22 0.499043 0 46 0.499043 1
gene 1 9 22 0.353395 0 47 0.353395 1
gene 1 10 22 -0.144319 0 48 -0.144319 1
gene 1 11 22 -0.177035 0 49 -0.177035 0
gene 1 12 22 0.147565 0 50 0.147565 1
gene 1 13 22 -0.10077 0 51 -0.10077 1
gene 1 14 22 -0.213238 0 52 -0.213238 1
gene 1 15 22 0.205456 0 53 0.205456 1
gene 1 16 22 0.559013 0 54 0.559013 0
gene 1 17 22 -0.179321 0 55 -0.179321 1
gene 1 18 22 -0.751401 0 56 -0.751401 1
gene 1 19 22 -0.108756 0 57 -0.108756 1
gene 1 1 23 0.30735 0 58 0.30735 1
gene 1 2 23 0.440734 0 59 0.440734 1
gene 1 3 23 0.352843 0 60 0.352843 1
gene 1 4 23 -0.33077 0 61 -0.33077 1
gene 1 5 23 1.00104 0 62 1.00104 1
gene 1 6 23 -0.465837 0 63 -0.465837 1
gene 1 7 23 0.32548 0 64 0.32548 1
gene 1 8 23 0.523754 0 65 0.523754 1
gene 1 9 23 -0.066318 0 66 -0.066318 1
gene 1 10 23 -0.110896 0 67 -0.110896 1
gene 1 11 23 -0.266248 0 68 -0.266248 1
gene 1 12 23 -0.262283 0 69 -0.262283 1
gene 1 13 23 -0.441527 0 70 -0.441527 1
gene 1 14 23 0.196975 0 71 0.196975 1
gene 1 15 23 0.240106 0 72 0.240106 1
gene 1 16 23 -0.369925 0 73 -0.369925 1
gene 1 17 23 -0.884999 0 74 -0.884999 1
gene 1 18 23 -0.304779 0 75 -0.304779 1
gene 1 19 23 -0.888919 0 76 -0.888919 1
gene 1 21 22 0.590366 0 77 0.590366 1
gene 1 22 23 0.295007 0 87 0.295007 1
gene 1 2 30 0.500899 0 103 0.500899 1
gene 1 30 22 0.487014 0 104 0.487014 1
gene 1 15 30 -1.90726 0 117 -1.90726 1
gene 1 16 37 0.282114 0 124 0.282114 1
gene 1 37 22 0.617166 0 125 0.617166 1
gene 1 22 22 0.143665 1 128 0.143665 1
gene 1 14 40 1.53912 0 132 1.53912 1
gene 1 40 23 0.315189 0 133 0.315189 1
gene 1 10 40 -0.600381 0 140 -0.600381 1
gene 1 17 50 -0.137892 0 174 -0.137892 1
gene 1 50 20 0.661158 0 175 0.661158 1
gene 1 9 58 1 0 197 0 1
gene 1 58 20 0.0826542 0 198 0 1
gene 1 17 40 0.336112 0 200 0.336112 1
gene 1 11 60 0.649986 0 206 0.649986 1
gene 1 60 22 0.194772 0 207 0.194772 1
genomeend 2170
genomestart 2227
trait 1 0.744563 0.699674 0.389219 0.0164466 0.0685104 0.00435196 0.163761 0.00225215 
node 1 1 1 1 0
node 2 1 1 1 0
node 3 1 1 1 0
node 4 1 1 1 0
node 5 1 1 1 0
node 6 1 1 1 0
node 7 1 1 1 0
node 8 1 1 1 0
node 9 1 1 1 0
node 10 1 1 1 0
node 11 1 1 1 0
node 12 1 1 1 0
node 13 1 1 1 0
node 14 1 1 1 0
node 15 1 1 1 0
node 16 1 1 1 0
node 17 1 1 1 0
node 18 1 1 1 0
node 19 1 1 3 0
node 20 1 0 2 0
node 21 1 0 2 0
node 22 1 0 2 0
node 23 1 0 2 0
node 30 1 0 0 0
node 37 1 0 0 0
node 40 1 0 0 0
node 50 1 0 0 0
node 58 1 0 0 0
node 60 1 0 0 0
gene 1 1 20 -0.25107 0 1 -0.25107 1
gene 1 2 20 0.230083 0 2 0.230083 1
gene 1 3 20 -0.517885 0 3 -0.517885 1
gene 1 4 20 0.29029 0 4 0.29029 1
gene 1 5 20 1.84784 0 5 1.84784 1
gene 1 6 20 0.225084 0 6 0.225084 1
gene 1 7 20 0.483135 0 7 0.483135 1
gene 1 8 20 0.331336 0 8 0.331336 1
gene 1 9 20 0.976037 0 9 0.976037 0
gene 1 10 20 -0.282203 0 10 -0.282203 1
gene 1 11 20 0.423709 0 11 0.423709 1
gene 1 12 20 0.0102533 0 12 0.0102533 1
gene 1 13 20 -1.80327 0 13 -1.80327 1
gene 1 14 20 -0.820068 0 14 -0.820068 1
gene 1 15 20 -0.444356 0 15 -0.444356 1
gene 1 16 20 2.01829 0 16 2.01829 1
gene 1 17 20 1.55307 0 17 1.55307 1
gene 1 18 20 -0.0235196 0 18 -0.0235196 1
gene 1 19 20 1.6547 0 19 1.6547 1
gene 1 1 21 0.98565 0 20 0.98565 1
gene 1 2 21 0.209651 0 21 0.209651 1
gene 1 3 21 0.335815 0 22 0.335815 1
gene 1 4 21 0.98093 0 23 0.98093 1
gene 1 5 21 -0.652323 0 24 -0.652323 1
gene 1 6 21 0.109658 0 25 0.109658 1
gene 1 7 21 0.188262 0 26 0.188262 1
gene 1 8 21 0.109604 0 27 0.109604 1
gene 1 9 21 -0.19325 0 28 -0.19325 1
gene 1 10 21 -0.812868 0 29 -0.812868 1
gene 1 11 21 -1.21909 0 30 -1.21909 1
gene 1 12 21 0.397447 0 31 0.397447 1
gene 1 13 21 -0.435311 0 32 -0.435311 1
gene 1 14 21 -1.44367 0 33 -1.44367 1
gene 1 15 21 -0.273363 0 34 -0.273363 1
gene 1 16 21 -0.153895 0 35 -0.153895 1
gene 1 17 21 -0.14511 0 36 -0.14511 1
gene 1 18 21 -0.956063 0 37 -0.956063 1
gene 1 19 21 0.245392 0 38 0.245392 1
gene 1 1 22 -0.325527 0 39 -0.325527 1
gene 1 2 22 0.412751 0 40 0.412751 0
gene 1 3 22 0.0703318 0 41 0.0703318 1
gene 1 4 22 -0.386702 0 42 -0.386702 1
gene 1 5 22 0.104366 0 43 0.104366 1
gene 1 6 22 -0.37052 0 44 -0.37052 1
gene 1 7 22 -0.730484 0 45 -0.730484 1
gene 1 8 22 0.927452 0 46 0.927452 1
gene 1 9 22 0.0907033 0 47 0.0907033 1
gene 1 10 22 -0.151861 0 48 -0.151861 1
gene 1 11 22 -0.205397 0 49 -0.205397 1
gene 1 12 22 0.0208494 0 50 0.0208494 1
gene 1 13 22 -0.440952 0 51 -0.440952 1
gene 1 14 22 -0.272367 0 52 -0.272367 1
gene 1 15 22 -0.171898 0 53 -0.171898 1
gene 1 16 22 0.385825 0 54 0.385825 0
gene 1 17 22 0.0988214 0 55 0.0988214 1
gene 1 18 22 -0.35709 0 56 -0.35709 1
gene 1 19 22 0.553297 0 57 0.553297 1
gene 1 1 23 1.10588 0 58 1.10588 1
gene 1 2 23 0.483826 0 59 0.483826 1
gene 1 3 23 0.179034 0 60 0.179034 1
gene 1 4 23 -0.374004 0 61 -0.374004 1
gene 1 5 23 0.926048 0 62 0.926048 1
gene 1 6 23 -0.453119 0 63 -0.453119 1
gene 1 7 23 0.300774 0 64 0.300774 1
gene 1 8 23 0.396026 0 65 0.396026 1
gene 1 9 23 -0.0852989 0 66 -0.0852989 1
gene 1 10 23 -0.0573604 0 67 -0.0573604 1
gene 1 11 23 -0.219093 0 68 -0.219093 1
gene 1 12 23 -0.347634 0 69 -0.347634 1
gene 1 13 23 -0.327761 0 70 -0.327761 1
gene 1 14 23 0.154976 0 71 0.154976 1
gene 1 15 23 0.266736 0 72 0.266736 1
gene 1 16 23 -0.356948 0 73 -0.356948 1
gene 1 17 23 -0.950376 0 74 -0.950376 1
gene 1 18 23 -0.231206 0 75 -0.231206 1
gene 1 19 23 -0.595732 0 76 -0.595732 1
gene 1 21 22 0.497509 0 77 0.497509 1
gene 1 22 23 0.152839 0 87 0.152839 1
gene 1 2 30 0.460604 0 103 0.460604 1
gene 1 30 22 0.41407 0 104 0.41407 1
gene 1 15 30 -1.23372 0 117 -1.23372 1
gene 1 16 37 0.406736 0 124 0.406736 1
gene 1 37 22 -0.101648 0 125 -0.140438 1
gene 1 22 22 0.54497 1 128 0.54497 1
gene 1 14 40 1.20877 0 132 1.20877 1
gene 1 40 23 0.250815 0 133 0.250815 1
gene 1 16 30 0.0794554 0 135 0 1
gene 1 10 40 -0.568416 0 140 -0.568416 1
gene 1 17 50 -0.0184204 0 174 -0.14342 1
gene 1 50 20 0.429322 0 175 0.0879771 1
gene 1 4 40 0.410798 0 181 0.410798 1
gene 1 9 58 1 0 197 0 1
gene 1 58 20 0.0826542 0 198 0 1
gene 1 17 40 0.336112 0 200 0.336112 1
gene 1 11 60 1 0 206 0 1
gene 1 60 22 -0.0872699 0 207 0 1
genomeend 2227
genomestart 2260
trait 1 0.839495 0.447148 0 0.0164466 0.0669764 0.00435196 0.452751 0.00225215 
node 1 1 1 1 0
node 2 1 1 1 0
node 3 1 1 1 0
node 4 1 1 1 0
node 5 1 1 1 0
node 6 1 1 1 0
node 7 1 1 1 0
node 8 1 1 1 0
node 9 1 1 1 0
node 10 1 1 1 0
node 11 1 1 1 0
node 12 1 1 1 0
node 13 1 1 1 0
node 14 1 1 1 0
node 15 1 1 1 0
node 16 1 1 1 0
node 17 1 1 1 0
node 18 1 1 1 0
node 19 1 1 3 0
node 20 1 0 2 0
node 21 1 0 2 0
node 22 1 0 2 0
node 23 1 0 2 0
node 30 1 0 0 0
node 37 1 0 0 0
node 40 1 0 0 0
node 50 1 0 0 0
node 58 1 0 0 0
node 60 1 0 0 0
gene 1 1 20 -0.212618 0 1 -0.212618 1
gene 1 2 20 0.279831 0 2 0.279831 1
gene 1 3 20 -0.4584 0 3 -0.4584 1
gene 1 4 20 0.270772 0 4 0.270772 1
gene 1 5 20 1.79253 0 5 1.79253 1
gene 1 6 20 0.336549 0 6 0.336549 1
gene 1 7 20 0.498402 0 7 0.498402 1
gene 1 8 20 0.335201 0 8 0.335201 1
gene 1 9 20 1.09294 0 9 1.09294 1
gene 1 10 20 -0.250234 0 10 -0.250234 1
gene 1 11 20 0.383761 0 11 0.383761 1
gene 1 12 20 -0.152379 0 12 -0.152379 1
gene 1 13 20 -1.56081 0 13 -1.56081 1
gene 1 14 20 -1.06352 0 14 -1.06352 1
gene 1 15 20 -0.492917 0 15 -0.492917 1
gene 1 16 20 1.98315 0 16 1.98315 1
gene 1 17 20 1.68181 0 17 1.68181 1
gene 1 18 20 -0.0327214 0 18 -0.0327214 1
gene 1 19 20 1.79094 0 19 1.79094 1
gene 1 1 21 1.16457 0 20 1.16457 1
gene 1 2 21 -0.151632 0 21 -0.151632 1
gene 1 3 21 0.279552 0 22 0.279552 1
gene 1 4 21 1.05393 0 23 1.05393 1
gene 1 5 21 -0.725056 0 24 -0.725056 1
gene 1 6 21 0.22549 0 25 0.22549 1
gene 1 7 21 0.317505 0 26 0.317505 1
gene 1 8 21 0.655104 0 27 0.655104 1
gene 1 9 21 -0.0702013 0 28 -0.0702013 1
gene 1 10 21 -0.775281 0 29 -0.775281 1
gene 1 11 21 -1.06029 0 30 -1.06029 1
gene 1 12 21 0.574112 0 31 0.574112 1
gene 1 13 21 -0.634602 0 32 -0.634602 1
gene 1 14 21 -1.35798 0 33 -1.35798 1
gene 1 15 21 0.157612 0 34 0.157612 1
gene 1 16 21 -0.140566 0 35 -0.140566 1
gene 1 17 21 -0.32326 0 36 -0.32326 1
gene 1 18 21 -1.1231 0 37 -1.1231 1
gene 1 19 21 0.2874 0 38 0.2874 1
gene 1 1 22 -0.292813 0 39 -0.292813 1
gene 1 2 22 0.342617 0 40 0.342617 0
gene 1 3 22 0.0740759 0 41 0.0740759 1
gene 1 4 22 -0.675944 0 42 -0.675944 1
gene 1 5 22 0.291889 0 43 0.291889 1
gene 1 6 22 -0.429083 0 44 -0.429083 1
gene 1 7 22 -0.520402 0 45 -0.520402 1
gene 1 8 22 0.873771 0 46 0.873771 1
gene 1 9 22 -0.0151558 0 47 -0.0151558 1
gene 1 10 22 -0.0865043 0 48 -0.0865043 1
gene 1 11 22 0.141856 0 49 0.141856 0
gene 1 12 22 -0.0248197 0 50 -0.0248197 1
gene 1 13 22 -0.399726 0 51 -0.399726 1
gene 1 14 22 -0.514065 0 52 -0.514065 1
gene 1 15 22 -0.390302 0 53 -0.390302 1
gene 1 16 22 0.31257 0 54 0.31257 0
gene 1 17 22 0.431756 0 55 0.431756 1
gene 1 18 22 -0.355154 0 56 -0.355154 1
gene 1 19 22 0.525321 0 57 0.525321 1
gene 1 1 23 1.14189 0 58 1.14189 1
gene 1 2 23 0.518827 0 59 0.518827 1
gene 1 3 23 0.204955 0 60 0.204955 1
gene 1 4 23 -0.537677 0 61 -0.537677 1
gene 1 5 23 0.568007 0 62 0.568007 1
gene 1 6 23 -0.582309 0 63 -0.582309 1
gene 1 7 23 0.46981 0 64 0.46981 1
gene 1 8 23 0.430835 0 65 0.430835 1
gene 1 9 23 -0.107545 0 66 -0.107545 1
gene 1 10 23 0.0475773 0 67 0.0475773 1
gene 1 11 23 -0.122984 0 68 -0.122984 1
gene 1 12 23 -0.751653 0 69 -0.751653 1
gene 1 13 23 -0.310777 0 70 -0.310777 1
gene 1 14 23 0.24091 0 71 0.24091 1
gene 1 15 23 0.198447 0 72 0.198447 1
gene 1 16 23 -0.58946 0 73 -0.58946 1
gene 1 17 23 -1.03213 0 74 -1.03213 1
gene 1 18 23 -0.169852 0 75 -0.169852 1
gene 1 19 23 -0.625699 0 76 -0.625699 1
gene 1 21 22 0.340158 0 77 0.340158 1
gene 1 22 23 0.264875 0 87 0.264875 1
gene 1 2 30 0.46992 0 103 0.46992 1
gene 1 30 22 0.740802 0 104 0.740802 1
gene 1 15 30 -1.13232 0 117 -1.13232 1
gene 1 16 37 0.405048 0 124 0.405048 1
gene 1 37 22 -0.0360106 0 125 -0.104971 1
gene 1 22 22 0.466187 1 128 0.466187 1
gene 1 14 40 1.1296 0 132 1.1296 1
gene 1 40 23 0.205334 0 133 0.205334 1
gene 1 10 40 -0.909055 0 140 -0.909055 1
gene 1 17 50 -0.137892 0 174 -0.137892 1
gene 1 50 20 0.455127 0 175 0 1
gene 1 9 58 1 0 197 0 1
gene 1 58 20 0.0826542 0 198 0 1
gene 1 17 40 0.336112 0 200 0.336112 1
gene 1 11 60 1 0 206 0 1
gene 1 60 22 -0.0872699 0 207 0 1
genomeend 2260
genomestart 2325
trait 1 0.780486 0.422023 0 0.0287816 0.0685104 0.00761593 0.392545 0.00394127 
node 1 1 1 1 0
node 2 1 1 1 0
node 3 1 1 1 0
node 4 1 1 1 0
node 5 1 1 1 0
node 6 1 1 1 0
node 7 1 1 1 0
node 8 1 1 1 0
node 9 1 1 1 0
node 10 1 1 1 0
node 11 1 1 1 0
node 12 1 1 1 0
node 13 1 1 1 0
node 14 1 1 1 0
node 15 1 1 1 0
node 16 1 1 1 0
node 17 1 1 1 0
node 18 1 1 1 0
node 19 1 1 3 0
node 20 1 0 2 0
node 21 1 0 2 0
node 22 1 0 2 0
node 23 1 0 2 0
node 30 1 0 0 0
node 37 1 0 0 0
node 40 1 0 0 0
node 50 1 0 0 0
node 58 1 0 0 0
node 60 1 0 0 0
gene 1 1 20 -0.478864 0 1 -0.478864 1
gene 1 2 20 0.716963 0 2 0.716963 1
gene 1 3 20 0.157834 0 3 0.157834 1
gene 1 4 20 -0.0456496 0 4 -0.0456496 1
gene 1 5 20 1.94075 0 5 1.94075 1
gene 1 6 20 0.731168 0 6 0.731168 1
gene 1 7 20 1.11862 0 7 1.11862 1
gene 1 8 20 -0.499075 0 8 -0.499075 1
gene 1 9 20 1.14408 0 9 1.14408 1
gene 1 10 20 0.102116 0 10 0.102116 1
gene 1 11 20 -0.0517841 0 11 -0.0517841 1
gene 1 12 20 0.109017 0 12 0.109017 1
gene 1 13 20 -1.31095 0 13 -1.31095 1
gene 1 14 20 -0.735757 0 14 -0.735757 1
gene 1 15 20 -0.63525 0 15 -0.63525 1
gene 1 16 20 1.90427 0 16 1.90427 1
gene 1 17 20 1.37219 0 17 1.37219 1
gene 1 18 20 0.443265 0 18 0.443265 1
gene 1 19 20 2.23973 0 19 2.23973 1
gene 1 1 21 0.941355 0 20 0.941355 1
gene 1 2 21 0.744613 0 21 0.744613 1
gene 1 3 21 0.770704 0 22 0.770704 1
gene 1 4 21 1.4334 0 23 1.4334 1
gene 1 5 21 -0.401267 0 24 -0.401267 1
gene 1 6 21 0.20867 0 25 0.20867 1
gene 1 7 21 -0.129405 0 26 -0.129405 1
gene 1 8 21 -0.26092 0 27 -0.26092 1
gene 1 9 21 0.0294818 0 28 0.0294818 1
gene 1 10 21 -0.49266 0 29 -0.49266 1
gene 1 11 21 -0.633864 0 30 -0.633864 1
gene 1 12 21 0.741601 0 31 0.741601 1
gene 1 13 21 -0.931859 0 32 -0.931859 1
gene 1 14 21 -1.11399 0 33 -1.11399 1
gene 1 15 21 0.622455 0 34 0.622455 1
gene 1 16 21 -0.212681 0 35 -0.212681 1
gene 1 17 21 -0.356802 0 36 -0.356802 1
gene 1 18 21 -1.53166 0 37 -1.53166 1
gene 1 19 21 0.363055 0 38 0.363055 1
gene 1 1 22 -0.42704 0 39 -0.42704 1
gene 1 2 22 0.456412 0 40 0.456412 0
gene 1 3 22 0.249124 0 41 0.249124 1
gene 1 4 22 -0.577893 0 42 -0.577893 1
gene 1 5 22 0.356568 0 43 0.356568 1
gene 1 6 22 -0.658542 0 44 -0.658542 1
gene 1 7 22 -0.151031 0 45 -0.151031 1
gene 1 8 22 0.751555 0 46 0.751555 1
gene 1 9 22 0.360738 0 47 0.360738 1
gene 1 10 22 -0.302054 0 48 -0.302054 1
gene 1 11 22 -0.146309 0 49 -0.146309 0
gene 1 12 22 0.0425773 0 50 0.0425773 1
gene 1 13 22 0.204311 0 51 0.204311 1
gene 1 14 22 0.0650144 0 52 0.0650144 1
gene 1 15 22 -0.0633027 0 53 -0.0633027 1
gene 1 16 22 0.819917 0 54 0.819917 0
gene 1 17 22 0.893639 0 55 0.893639 1
gene 1 18 22 -0.28462 0 56 -0.28462 1
gene 1 19 22 0.533424 0 57 0.533424 1
gene 1 1 23 1.52038 0 58 1.52038 1
gene 1 2 23 0.627172 0 59 0.627172 1
gene 1 3 23 0.0747815 0 60 0.0747815 1
gene 1 4 23 -0.812098 0 61 -0.812098 1
gene 1 5 23 1.26344 0 62 1.26344 1
gene 1 6 23 -0.512641 0 63 -0.512641 1
gene 1 7 23 0.519582 0 64 0.519582 1
gene 1 8 23 0.391069 0 65 0.391069 1
gene 1 9 23 -0.444118 0 66 -0.444118 1
gene 1 10 23 -0.127137 0 67 -0.127137 1
gene 1 11 23 -0.186538 0 68 -0.186538 1
gene 1 12 23 -0.733195 0 69 -0.733195 1
gene 1 13 23 -0.50561 0 70 -0.50561 1
gene 1 14 23 0.0170347 0 71 0.0170347 1
gene 1 15 23 0.561687 0 72 0.561687 1
gene 1 16 23 -0.538769 0 73 -0.538769 1
gene 1 17 23 -0.53718 0 74 -0.53718 1
gene 1 18 23 -0.162598 0 75 -0.162598 1
gene 1 19 23 -0.541954 0 76 -0.541954 1
gene 1 21 22 0.590366 0 77 0.590366 1
gene 1 22 23 0.264875 0 87 0.264875 1
gene 1 2 30 0.291838 0 103 0.291838 1
gene 1 30 22 -0.144687 0 104 -0.144687 1
gene 1 15 30 -1.13232 0 117 -1.13232 1
gene 1 16 37 0.405048 0 124 0.405048 1
gene 1 37 22 0.617166 0 125 0.617166 1
gene 1 22 22 0.30545 1 128 0.30545 1
gene 1 14 40 1.5102 0 132 1.5102 1
gene 1 40 23 0.205334 0 133 0.205334 1
gene 1 10 40 -0.541293 0 140 -0.541293 1
gene 1 17 50 -0.137892 0 174 -0.137892 1
gene 1 50 20 -0.0280782 0 175 -0.0280782 1
gene 1 9 58 0.803502 0 197 0.803502 1
gene 1 58 20 0.0826542 0 198 0.0826542 1
gene 1 17 40 -0.0151453 0 200 -0.0151453 1
gene 1 11 60 1 0 206 1 1
gene 1 60 22 -0.0872699 0 207 -0.0872699 1
genomeend 2325
genomestart 2326
trait 1 0.815891 0.44347 0 0.00822331 0.0659538 0.00217598 0.428669 0.00112608 
node 1 1 1 1 0
node 2 1 1 1 0
node 3 1 1 1 0
node 4 1 1 1 0
node 5 1 1 1 0
node 6 1 1 1 0
node 7 1 1 1 0
node 8 1 1 1 0
node 9 1 1 1 0
node 10 1 1 1 0
node 11 1 1 1 0
node 12 1 1 1 0
node 13 1 1 1 0
node 14 1 1 1 0
node 15 1 1 1 0
node 16 1 1 1 0
node 17 1 1 1 0
node 18 1 1 1 0
node 19 1 1 3 0
node 20 1 0 2 0
node 21 1 0 2 0
node 22 1 0 2 0
node 23 1 0 2 0
node 30 1 0 0 0
node 37 1 0 0 0
node 40 1 0 0 0
node 50 1 0 0 0
node 58 1 0 0 0
gene 1 1 20 -0.349791 0 1 -0.349791 1
gene 1 2 20 0.149519 0 2 0.149519 1
gene 1 3 20 -0.617468 0 3 -0.617468 1
gene 1 4 20 0.357452 0 4 0.357452 1
gene 1 5 20 0.31584 0 5 0.31584 1
gene 1 6 20 0.13329 0 6 0.13329 1
gene 1 7 20 0.600523 0 7 0.600523 1
gene 1 8 20 -0.153702 0 8 -0.153702 1
gene 1 9 20 0.944635 0 9 0.944635 0
gene 1 10 20 -0.524554 0 10 -0.524554 1
gene 1 11 20 0.32092 0 11 0.32092 1
gene 1 12 20 0.0320734 0 12 0.0320734 1
gene 1 13 20 -0.94682 0 13 -0.94682 1
gene 1 14 20 -0.591869 0 14 -0.591869 1
gene 1 15 20 -0.674005 0 15 -0.674005 1
gene 1 16 20 2.25545 0 16 2.25545 1
gene 1 17 20 1.3737 0 17 1.3737 1
gene 1 18 20 0.188398 0 18 0.188398 1
gene 1 19 20 1.6277 0 19 1.6277 1
gene 1 1 21 1.42576 0 20 1.42576 1
gene 1 2 21 0.128835 0 21 0.128835 1
gene 1 3 21 0.599588 0 22 0.599588 1
gene 1 4 21 1.15012 0 23 1.15012 1
gene 1 5 21 -0.781542 0 24 -0.781542 1
gene 1 6 21 0.0470486 0 25 0.0470486 1
gene 1 7 21 0.299037 0 26 0.299037 1
gene 1 8 21 0.633478 0 27 0.633478 1
gene 1 9 21 -0.334906 0 28 -0.334906 1
gene 1 10 21 -0.80223 0 29 -0.80223 1
gene 1 11 21 -1.54901 0 30 -1.54901 1
gene 1 12 21 0.615021 0 31 0.615021 1
gene 1 13 21 -0.507828 0 32 -0.507828 1
gene 1 14 21 -1.29478 0 33 -1.29478 1
gene 1 15 21 0.220821 0 34 0.220821 1
gene 1 16 21 0.0115183 0 35 0.0115183 1
gene 1 17 21 -0.24072 0 36 -0.24072 1
gene 1 18 21 -0.191311 0 37 -0.191311 1
gene 1 19 21 0.133501 0 38 0.133501 1
gene 1 1 22 0.0626066 0 39 0.0626066 1
gene 1 2 22 0.188348 0 40 0.188348 0
gene 1 3 22 -0.146048 0 41 -0.146048 1
gene 1 4 22 -0.319891 0 42 -0.319891 1
gene 1 5 22 0.335215 0 43 0.335215 1
gene 1 6 22 0.014856 0 44 0.014856 1
gene 1 7 22 -0.186629 0 45 -0.186629 1
gene 1 8 22 1.20032 0 46 1.20032 1
gene 1 9 22 0.257816 0 47 0.257816 1
gene 1 10 22 -0.260868 0 48 -0.260868 1
gene 1 11 22 0.106747 0 49 0.106747 1
gene 1 12 22 -0.359851 0 50 -0.359851 1
gene 1 13 22 -0.500804 0 51 -0.500804 1
gene 1 14 22 -0.370642 0 52 -0.370642 1
gene 1 15 22 -0.594551 0 53 -0.594551 1
gene 1 16 22 0.185977 0 54 0.185977 0
gene 1 17 22 -0.0827459 0 55 -0.0827459 1
gene 1 18 22 -0.523832 0 56 -0.523832 1
gene 1 19 22 0.634126 0 57 0.634126 1
gene 1 1 23 0.688939 0 58 0.688939 1
gene 1 2 23 0.920821 0 59 0.920821 1
gene 1 3 23 -0.0593017 0 60 -0.0593017 1
gene 1 4 23 -0.443586 0 61 -0.443586 1
gene 1 5 23 0.848898 0 62 0.848898 1
gene 1 6 23 -1.01509 0 63 -1.01509 1
gene 1 7 23 -0.17047 0 64 -0.17047 1
gene 1 8 23 0.358725 0 65 0.358725 1
gene 1 9 23 0.0281245 0 66 0.0281245 1
gene 1 10 23 0.100073 0 67 0.100073 1
gene 1 11 23 0.00588379 0 68 0.00588379 1
gene 1 12 23 -0.665831 0 69 -0.665831 1
gene 1 13 23 -0.24853 0 70 -0.24853 1
gene 1 14 23 0.22989 0 71 0.22989 1
gene 1 15 23 0.325725 0 72 0.325725 1
gene 1 16 23 -0.68457 0 73 -0.68457 1
gene 1 17 23 -1.19677 0 74 -1.19677 1
gene 1 18 23 -0.278452 0 75 -0.278452 1
gene 1 19 23 -0.768435 0 76 -0.768435 1
gene 1 21 22 0.303186 0 77 0.303186 1
gene 1 22 23 0.306709 0 87 0.306709 1
gene 1 2 30 0.608282 0 103 0.608282 1
gene 1 30 22 0.712547 0 104 0.712547 1
gene 1 15 30 -1.15141 0 117 -1.15141 1
gene 1 16 37 0.391671 0 124 0.391671 1
gene 1 37 22 0.270181 0 125 0.270181 1
gene 1 22 22 0.243938 1 128 0.243938 1
gene 1 14 40 1.25497 0 132 1.25497 1
gene 1 40 23 0.00338557 0 133 0.00338557 1
gene 1 10 40 -0.541339 0 140 -0.541339 1
gene 1 17 50 1 0 174 1 1
gene 1 50 20 -0.162925 0 175 -0.162925 1
gene 1 9 58 1 0 197 0 1
gene 1 58 20 0.0826542 0 198 0 1
gene 1 17 40 -0.0637604 0 200 -0.0637604 1
gene 1 2 40 0.147088 0 249 0.147088 1
genomeend 2326
genomestart 2333
trait 1 0.754263 0.56215 0.194609 0.0143908 0.0674877 0.00380796 0.269724 0.00197064 
node 1 1 1 1 0
node 2 1 1 1 0
node 3 1 1 1 0
node 4 1 1 1 0
node 5 1 1 1 0
node 6 1 1 1 0
node 7 1 1 1 0
node 8 1 1 1 0
node 9 1 1 1 0
node 10 1 1 1 0
node 11 1 1 1 0
node 12 1 1 1 0
node 13 1 1 1 0
node 14 1 1 1 0
node 15 1 1 1 0
node 16 1 1 1 0
node 17 1 1 1 0
node 18 1 1 1 0
node 19 1 1 3 0
node 20 1 0 2 0
node 21 1 0 2 0
node 22 1 0 2 0
node 23 1 0 2 0
node 30 1 0 0 0
node 37 1 0 0 0
node 40 1 0 0 0
node 50 1 0 0 0
node 58 1 0 0 0
node 60 1 0 0 0
gene 1 1 20 -0.25107 0 1 -0.25107 1
gene 1 2 20 0.0887641 0 2 0.0887641 1
gene 1 3 20 -0.351923 0 3 -0.351923 1
gene 1 4 20 0.491411 0 4 0.491411 1
gene 1 5 20 1.84784 0 5 1.84784 1
gene 1 6 20 0.225084 0 6 0.225084 1
gene 1 7 20 0.483135 0 7 0.483135 1
gene 1 8 20 0.331336 0 8 0.331336 1
gene 1 9 20 0.976037 0 9 0.976037 0
gene 1 10 20 -0.378666 0 10 -0.378666 1
gene 1 11 20 0.423709 0 11 0.423709 1
gene 1 12 20 0.0102533 0 12 0.0102533 1
gene 1 13 20 -1.80327 0 13 -1.80327 1
gene 1 14 20 -0.771138 0 14 -0.771138 1
gene 1 15 20 -0.422616 0 15 -0.422616 1
gene 1 16 20 2.01829 0 16 2.01829 1
gene 1 17 20 1.55307 0 17 1.55307 1
gene 1 18 20 -0.0235196 0 18 -0.0235196 1
gene 1 19 20 1.93828 0 19 1.93828 1
gene 1 1 21 1.38672 0 20 1.38672 1
gene 1 2 21 0.146978 0 21 0.146978 1
gene 1 3 21 0.283119 0 22 0.283119 1
gene 1 4 21 0.98093 0 23 0.98093 1
gene 1 5 21 -0.733782 0 24 -0.733782 1
gene 1 6 21 0.00927179 0 25 0.00927179 1
gene 1 7 21 0.188262 0 26 0.188262 1
gene 1 8 21 0.109604 0 27 0.109604 1
gene 1 9 21 -0.19325 0 28 -0.19325 1
gene 1 10 21 -0.653277 0 29 -0.653277 1
gene 1 11 21 -1.21909 0 30 -1.21909 1
gene 1 12 21 0.575085 0 31 0.575085 1
gene 1 13 21 -0.435311 0 32 -0.435311 1
gene 1 14 21 -1.44367 0 33 -1.44367 1
gene 1 15 21 -0.273363 0 34 -0.273363 1
gene 1 16 21 -0.0482423 0 35 -0.0482423 1
gene 1 17 21 -0.106402 0 36 -0.106402 1
gene 1 18 21 -0.956063 0 37 -0.956063 1
gene 1 19 21 0.069405 0 38 0.069405 1
gene 1 1 22 -0.310615 0 39 -0.310615 1
gene 1 2 22 0.525917 0 40 0.525917 0
gene 1 3 22 -0.136568 0 41 -0.136568 1
gene 1 4 22 -0.386702 0 42 -0.386702 1
gene 1 5 22 0.104366 0 43 0.104366 1
gene 1 6 22 -0.37052 0 44 -0.37052 1
gene 1 7 22 -0.671888 0 45 -0.671888 1
gene 1 8 22 0.927452 0 46 0.927452 1
gene 1 9 22 0.108449 0 47 0.108449 1
gene 1 10 22 -0.151861 0 48 -0.151861 1
gene 1 11 22 -0.137499 0 49 -0.137499 0
gene 1 12 22 0.286538 0 50 0.286538 1
gene 1 13 22 -0.440952 0 51 -0.440952 1
gene 1 14 22 -0.184801 0 52 -0.184801 1
gene 1 15 22 -0.171898 0 53 -0.171898 1
gene 1 16 22 0.51821 0 54 0.51821 0
gene 1 17 22 0.0988214 0 55 0.0988214 1
gene 1 18 22 -0.35709 0 56 -0.35709 1
gene 1 19 22 0.591495 0 57 0.591495 1
gene 1 1 23 1.0703 0 58 1.0703 1
gene 1 2 23 0.483826 0 59 0.483826 1
gene 1 3 23 0.264584 0 60 0.264584 1
gene 1 4 23 -0.388686 0 61 -0.388686 1
gene 1 5 23 0.926048 0 62 0.926048 1
gene 1 6 23 -0.453119 0 63 -0.453119 1
gene 1 7 23 0.39371 0 64 0.39371 1
gene 1 8 23 0.396026 0 65 0.396026 1
gene 1 9 23 -0.0852989 0 66 -0.0852989 1
gene 1 10 23 -0.0573604 0 67 -0.0573604 1
gene 1 11 23 -0.128128 0 68 -0.128128 1
gene 1 12 23 -0.426663 0 69 -0.426663 1
gene 1 13 23 -0.423963 0 70 -0.423963 1
gene 1 14 23 0.455437 0 71 0.455437 1
gene 1 15 23 0.266736 0 72 0.266736 1
gene 1 16 23 -0.356948 0 73 -0.356948 1
gene 1 17 23 -0.950376 0 74 -0.950376 1
gene 1 18 23 -0.145511 0 75 -0.145511 1
gene 1 19 23 -0.645542 0 76 -0.645542 1
gene 1 21 22 0.497509 0 77 0.497509 1
gene 1 22 23 0.215553 0 87 0.215553 1
gene 1 2 30 0.460604 0 103 0.460604 1
gene 1 30 22 0.41407 0 104 0.41407 1
gene 1 15 30 -1.23372 0 117 -1.23372 1
gene 1 16 37 0.413081 0 124 0.413081 1
gene 1 37 22 -0.101648 0 125 -0.140438 1
gene 1 22 22 0.476426 1 128 0.476426 1
gene 1 14 40 1.20877 0 132 1.20877 1
gene 1 40 23 0.300416 0 133 0.300416 1
gene 1 16 30 0.181209 0 135 0.181209 1
gene 1 10 40 -0.568416 0 140 -0.568416 1
gene 1 17 37 -0.315706 0 150 0 1
gene 1 17 50 -0.137892 0 174 -0.137892 1
gene 1 50 20 0.429322 0 175 0.0879771 1
gene 1 4 40 0.410798 0 181 0.410798 1
gene 1 9 58 1 0 197 0 1
gene 1 58 20 0.0826542 0 198 0 1
gene 1 17 40 0.501235 0 200 0.501235 1
gene 1 11 60 1 0 206 0 1
gene 1 60 22 -0.0872699 0 207 0 1
gene 1 18 50 0.451786 0 221 0.451786 1
genomeend 2333
genomestart 2339
trait 1 0.721477 0.396898 0 0.0411165 0.0700443 0.0108799 0.332339 0.00563039 
node 1 1 1 1 0
node 2 1 1 1 0
node 3 1 1 1 0
node 4 1 1 1 0
node 5 1 1 1 0
node 6 1 1 1 0
node 7 1 1 1 0
node 8 1 1 1 0
node 9 1 1 1 0
node 10 1 1 1 0
node 11 1 1 1 0
node 12 1 1 1 0
node 13 1 1 1 0
node 14 1 1 1 0
node 15 1 1 1 0
node 16 1 1 1 0
node 17 1 1 1 0
node 18 1 1 1 0
node 19 1 1 3 0
node 20 1 0 2 0
node 21 1 0 2 0
node 22 1 0 2 0
node 23 1 0 2 0
node 30 1 0 0 0
node 37 1 0 0 0
node 40 1 0 0 0
node 50 1 0 0 0
node 58 1 0 0 0
node 60 1 0 0 0
gene 1 1 20 -0.851279 0 1 -0.851279 1
gene 1 2 20 0.422769 0 2 0.422769 1
gene 1 3 20 0.325291 0 3 0.325291 1
gene 1 4 20 0.270148 0 4 0.270148 1
gene 1 5 20 1.78194 0 5 1.78194 1
gene 1 6 20 0.358221 0 6 0.358221 1
gene 1 7 20 0.928375 0 7 0.928375 1
gene 1 8 20 -0.118852 0 8 -0.118852 1
gene 1 9 20 0.87463 0 9 0.87463 0
gene 1 10 20 -0.254987 0 10 -0.254987 1
gene 1 11 20 1.03147 0 11 1.03147 1
gene 1 12 20 0.0424503 0 12 0.0424503 1
gene 1 13 20 -1.46851 0 13 -1.46851 1
gene 1 14 20 -0.779763 0 14 -0.779763 1
gene 1 15 20 -0.904173 0 15 -0.904173 1
gene 1 16 20 2.18086 0 16 2.18086 1
gene 1 17 20 1.48209 0 17 1.48209 1
gene 1 18 20 0.157385 0 18 0.157385 1
gene 1 19 20 1.55404 0 19 1.55404 1
gene 1 1 21 0.741151 0 20 0.741151 1
gene 1 2 21 0.264733 0 21 0.264733 1
gene 1 3 21 -0.429867 0 22 -0.429867 1
gene 1 4 21 1.03953 0 23 1.03953 1
gene 1 5 21 -0.618246 0 24 -0.618246 1
gene 1 6 21 0.0569822 0 25 0.0569822 1
gene 1 7 21 0.10412 0 26 0.10412 1
gene 1 8 21 0.15572 0 27 0.15572 1
gene 1 9 21 -0.526107 0 28 -0.526107 1
gene 1 10 21 -0.668332 0 29 -0.668332 1
gene 1 11 21 -0.75205 0 30 -0.75205 1
gene 1 12 21 0.389673 0 31 0.389673 1
gene 1 13 21 -0.488277 0 32 -0.488277 1
gene 1 14 21 -0.978236 0 33 -0.978236 1
gene 1 15 21 -0.268133 0 34 -0.268133 1
gene 1 16 21 -0.151324 0 35 -0.151324 1
gene 1 17 21 -0.0882734 0 36 -0.0882734 1
gene 1 18 21 -1.55692 0 37 -1.55692 1
gene 1 19 21 0.223243 0 38 0.223243 1
gene 1 1 22 0.465988 0 39 0.465988 1
gene 1 2 22 0.412607 0 40 0.412607 0
gene 1 3 22 0.0862976 0 41 0.0862976 1
gene 1 4 22 -0.293875 0 42 -0.293875 1
gene 1 5 22 0.02163 0 43 0.02163 1
gene 1 6 22 -0.393597 0 44 -0.393597 1
gene 1 7 22 -1.08959 0 45 -1.08959 1
gene 1 8 22 0.499043 0 46 0.499043 1
gene 1 9 22 0.353395 0 47 0.353395 1
gene 1 10 22 -0.144319 0 48 -0.144319 1
gene 1 11 22 -0.177035 0 49 -0.177035 0
gene 1 12 22 0.147565 0 50 0.147565 1
gene 1 13 22 -0.10077 0 51 -0.10077 1
gene 1 14 22 -0.213238 0 52 -0.213238 1
gene 1 15 22 0.205456 0 53 0.205456 1
gene 1 16 22 0.559013 0 54 0.559013 0
gene 1 17 22 -0.179321 0 55 -0.179321 1
gene 1 18 22 -0.751401 0 56 -0.751401 1
gene 1 19 22 -0.108756 0 57 -0.108756 1
gene 1 1 23 0.30735 0 58 0.30735 1
gene 1 2 23 0.440734 0 59 0.440734 1
gene 1 3 23 0.352843 0 60 0.352843 1
gene 1 4 23 -0.33077 0 61 -0.33077 1
gene 1 5 23 1.00104 0 62 1.00104 1
gene 1 6 23 -0.465837 0 63 -0.465837 1
gene 1 7 23 0.32548 0 64 0.32548 1
gene 1 8 23 0.523754 0 65 0.523754 1
gene 1 9 23 -0.066318 0 66 -0.066318 1
gene 1 10 23 -0.110896 0 67 -0.110896 1
gene 1 11 23 -0.266248 0 68 -0.266248 1
gene 1 12 23 -0.262283 0 69 -0.262283 1
gene 1 13 23 -0.441527 0 70 -0.441527 1
gene 1 14 23 0.196975 0 71 0.196975 1
gene 1 15 23 0.240106 0 72 0.240106 1
gene 1 16 23 -0.369925 0 73 -0.369925 1
gene 1 17 23 -0.884999 0 74 -0.884999 1
gene 1 18 23 -0.304779 0 75 -0.304779 1
gene 1 19 23 -0.888919 0 76 -0.888919 1
gene 1 21 22 0.590366 0 77 0.590366 1
gene 1 22 23 0.295007 0 87 0.295007 1
gene 1 2 30 0.500899 0 103 0.500899 1
gene 1 30 22 0.487014 0 104 0.487014 1
gene 1 15 30 -1.90726 0 117 -1.90726 1
gene 1 16 37 0.282114 0 124 0.282114 1
gene 1 37 22 0.617166 0 125 0.617166 1
gene 1 22 22 0.143665 1 128 0.143665 1
gene 1 14 40 1.53912 0 132 1.53912 1
gene 1 40 23 0.315189 0 133 0.315189 1
gene 1 10 40 -0.600381 0 140 -0.600381 1
gene 1 17 50 -0.137892 0 174 -0.137892 1
gene 1 50 20 0.661158 0 175 0.661158 1
gene 1 9 58 1 0 197 0 1
gene 1 58 20 0.0826542 0 198 0 1
gene 1 17 40 0.336112 0 200 0.336112 1
gene 1 11 60 0.649986 0 206 0.649986 1
gene 1 60 22 0.194772 0 207 0.194772 1
genomeend 2339
genomestart 2372
trait 1 0.792029 0.573411 0.194609 0.0164466 0.0677434 0.00435196 0.308256 0.00225215 
node 1 1 1 1 0
node 2 1 1 1 0
node 3 1 1 1 0
node 4 1 1 1 0
node 5 1 1 1 0
node 6 1 1 1 0
node 7 1 1 1 0
node 8 1 1 1 0
node 9 1 1 1 0
node 10 1 1 1 0
node 11 1 1 1 0
node 12 1 1 1 0
node 13 1 1 1 0
node 14 1 1 1 0
node 15 1 1 1 0
node 16 1 1 1 0
node 17 1 1 1 0
node 18 1 1 1 0
node 19 1 1 3 0
node 20 1 0 2 0
node 21 1 0 2 0
node 22 1 0 2 0
node 23 1 0 2 0
node 30 1 0 0 0
node 37 1 0 0 0
node 40 1 0 0 0
node 50 1 0 0 0
node 58 1 0 0 0
node 60 1 0 0 0
node 74 1 0 0 0
gene 1 1 20 -0.25107 0 1 -0.25107 1
gene 1 2 20 0.279831 0 2 0.279831 1
gene 1 3 20 -0.517885 0 3 -0.517885 1
gene 1 4 20 0.270772 0 4 0.270772 1
gene 1 5 20 1.84784 0 5 1.84784 1
gene 1 6 20 0.336549 0 6 0.336549 1
gene 1 7 20 0.483135 0 7 0.483135 1
gene 1 8 20 0.335201 0 8 0.335201 1
gene 1 9 20 0.976037 0 9 0.976037 0
gene 1 10 20 -0.282203 0 10 -0.282203 1
gene 1 11 20 0.383761 0 11 0.383761 1
gene 1 12 20 0.0102533 0 12 0.0102533 1
gene 1 13 20 -1.80327 0 13 -1.80327 1
gene 1 14 20 -1.06352 0 14 -1.06352 1
gene 1 15 20 -0.492917 0 15 -0.492917 1
gene 1 16 20 1.98315 0 16 1.98315 1
gene 1 17 20 1.68181 0 17 1.68181 1
gene 1 18 20 -0.0235196 0 18 -0.0235196 1
gene 1 19 20 1.79094 0 19 1.79094 1
gene 1 1 21 0.98565 0 20 0.98565 1
gene 1 2 21 0.209651 0 21 0.209651 1
gene 1 3 21 0.279552 0 22 0.279552 1
gene 1 4 21 0.98093 0 23 0.98093 1
gene 1 5 21 -0.652323 0 24 -0.652323 1
gene 1 6 21 0.109658 0 25 0.109658 1
gene 1 7 21 0.317505 0 26 0.317505 1
gene 1 8 21 0.655104 0 27 0.655104 1
gene 1 9 21 -0.0702013 0 28 -0.0702013 1
gene 1 10 21 -0.775281 0 29 -0.775281 1
gene 1 11 21 -1.21909 0 30 -1.21909 1
gene 1 12 21 0.574112 0 31 0.574112 1
gene 1 13 21 -0.634602 0 32 -0.634602 1
gene 1 14 21 -1.44367 0 33 -1.44367 1
gene 1 15 21 0.157612 0 34 0.157612 1
gene 1 16 21 -0.140566 0 35 -0.140566 1
gene 1 17 21 -0.32326 0 36 -0.32326 1
gene 1 18 21 -0.956063 0 37 -0.956063 1
gene 1 19 21 0.245392 0 38 0.245392 1
gene 1 1 22 -0.292813 0 39 -0.292813 1
gene 1 2 22 0.342617 0 40 0.342617 0
gene 1 3 22 0.0740759 0 41 0.0740759 1
gene 1 4 22 -0.675944 0 42 -0.675944 1
gene 1 5 22 0.291889 0 43 0.291889 1
gene 1 6 22 -0.37052 0 44 -0.37052 1
gene 1 7 22 -0.520402 0 45 -0.520402 1
gene 1 8 22 0.873771 0 46 0.873771 1
gene 1 9 22 -0.0151558 0 47 -0.0151558 1
gene 1 10 22 -0.0865043 0 48 -0.0865043 1
gene 1 11 22 0.141856 0 49 0.141856 0
gene 1 12 22 -0.0248197 0 50 -0.0248197 1
gene 1 13 22 -0.440952 0 51 -0.440952 1
gene 1 14 22 -0.272367 0 52 -0.272367 1
gene 1 15 22 -0.171898 0 53 -0.171898 1
gene 1 16 22 0.385825 0 54 0.385825 0
gene 1 17 22 0.0988214 0 55 0.0988214 1
gene 1 18 22 -0.355154 0 56 -0.355154 1
gene 1 19 22 0.553297 0 57 0.553297 1
gene 1 1 23 1.14189 0 58 1.14189 1
gene 1 2 23 0.483826 0 59 0.483826 1
gene 1 3 23 0.179034 0 60 0.179034 1
gene 1 4 23 -0.537677 0 61 -0.537677 1
gene 1 5 23 0.568007 0 62 0.568007 1
gene 1 6 23 -0.582309 0 63 -0.582309 1
gene 1 7 23 0.46981 0 64 0.46981 1
gene 1 8 23 0.396026 0 65 0.396026 1
gene 1 9 23 -0.107545 0 66 -0.107545 1
gene 1 10 23 -0.0573604 0 67 -0.0573604 1
gene 1 11 23 -0.219093 0 68 -0.219093 1
gene 1 12 23 -0.751653 0 69 -0.751653 1
gene 1 13 23 -0.327761 0 70 -0.327761 1
gene 1 14 23 0.154976 0 71 0.154976 1
gene 1 15 23 0.266736 0 72 0.266736 1
gene 1 16 23 -0.58946 0 73 -0.58946 1
gene 1 17 23 -1.03213 0 74 -1.03213 1
gene 1 18 23 -0.231206 0 75 -0.231206 1
gene 1 19 23 -0.595732 0 76 -0.595732 1
gene 1 21 22 0.497509 0 77 0.497509 1
gene 1 22 23 0.152839 0 87 0.152839 1
gene 1 2 30 0.460604 0 103 0.460604 1
gene 1 30 22 0.41407 0 104 0.41407 1
gene 1 15 30 -1.23372 0 117 -1.23372 1
gene 1 16 37 0.405048 0 124 0.405048 1
gene 1 37 22 -0.101648 0 125 -0.140438 1
gene 1 22 22 0.466187 1 128 0.466187 1
gene 1 14 40 1.1296 0 132 1.1296 0
gene 1 40 23 0.250815 0 133 0.250815 1
gene 1 16 30 0.0794554 0 135 0 1
gene 1 10 40 -0.909055 0 140 -0.909055 1
gene 1 17 50 -0.137892 0 174 -0.137892 1
gene 1 50 20 0.429322 0 175 0.0879771 1
gene 1 4 40 0.410798 0 181 0.410798 1
gene 1 9 58 1 0 197 0 1
gene 1 58 20 0.0826542 0 198 0 1
gene 1 17 40 0.336112 0 200 0.336112 1
gene 1 11 60 1 0 206 0 1
gene 1 60 22 -0.0872699 0 207 0 1
gene 1 14 74 1 0 251 0 1
gene 1 74 40 0.338879 0 252 0 1
genomeend 2372
genomestart 2374
trait 1 0.796879 0.504649 0.0973047 0.0154187 0.0672321 0.00407996 0.361238 0.00211139 
node 1 1 1 1 0
node 2 1 1 1 0
node 3 1 1 1 0
node 4 1 1 1 0
node 5 1 1 1 0
node 6 1 1 1 0
node 7 1 1 1 0
node 8 1 1 1 0
node 9 1 1 1 0
node 10 1 1 1 0
node 11 1 1 1 0
node 12 1 1 1 0
node 13 1 1 1 0
node 14 1 1 1 0
node 15 1 1 1 0
node 16 1 1 1 0
node 17 1 1 1 0
node 18 1 1 1 0
node 19 1 1 3 0
node 20 1 0 2 0
node 21 1 0 2 0
node 22 1 0 2 0
node 23 1 0 2 0
node 30 1 0 0 0
node 37 1 0 0 0
node 40 1 0 0 0
node 50 1 0 0 0
node 58 1 0 0 0
node 60 1 0 0 0
node 75 1 0 0 0
gene 1 1 20 -0.25107 0 1 -0.25107 1
gene 1 2 20 0.279831 0 2 0.279831 1
gene 1 3 20 -0.4584 0 3 -0.4584 1
gene 1 4 20 0.270772 0 4 0.270772 1
gene 1 5 20 1.79253 0 5 1.79253 1
gene 1 6 20 0.336549 0 6 0.336549 1
gene 1 7 20 0.483135 0 7 0.483135 1
gene 1 8 20 0.331336 0 8 0.331336 1
gene 1 9 20 0.976037 0 9 0.976037 0
gene 1 10 20 -0.378666 0 10 -0.378666 1
gene 1 11 20 0.383761 0 11 0.383761 1
gene 1 12 20 0.0102533 0 12 0.0102533 1
gene 1 13 20 -1.56081 0 13 -1.56081 1
gene 1 14 20 -0.771138 0 14 -0.771138 1
gene 1 15 20 -0.492917 0 15 -0.492917 1
gene 1 16 20 2.01829 0 16 2.01829 1
gene 1 17 20 1.55307 0 17 1.55307 1
gene 1 18 20 -0.0235196 0 18 -0.0235196 1
gene 1 19 20 1.93828 0 19 1.93828 1
gene 1 1 21 1.38672 0 20 1.38672 1
gene 1 2 21 -0.151632 0 21 -0.151632 1
gene 1 3 21 0.279552 0 22 0.279552 1
gene 1 4 21 0.98093 0 23 0.98093 1
gene 1 5 21 -0.733782 0 24 -0.733782 1
gene 1 6 21 0.00927179 0 25 0.00927179 1
gene 1 7 21 0.188262 0 26 0.188262 0
gene 1 8 21 0.109604 0 27 0.109604 1
gene 1 9 21 -0.19325 0 28 -0.19325 1
gene 1 10 21 -0.653277 0 29 -0.653277 1
gene 1 11 21 -1.21909 0 30 -1.21909 1
gene 1 12 21 0.574112 0 31 0.574112 1
gene 1 13 21 -0.634602 0 32 -0.634602 1
gene 1 14 21 -1.35798 0 33 -1.35798 1
gene 1 15 21 -0.273363 0 34 -0.273363 1
gene 1 16 21 -0.140566 0 35 -0.140566 1
gene 1 17 21 -0.106402 0 36 -0.106402 1
gene 1 18 21 -0.956063 0 37 -0.956063 1
gene 1 19 21 0.069405 0 38 0.069405 1
gene 1 1 22 -0.292813 0 39 -0.292813 1
gene 1 2 22 0.525917 0 40 0.525917 0
gene 1 3 22 -0.136568 0 41 -0.136568 1
gene 1 4 22 -0.386702 0 42 -0.386702 1
gene 1 5 22 0.104366 0 43 0.104366 1
gene 1 6 22 -0.37052 0 44 -0.37052 1
gene 1 7 22 -0.671888 0 45 -0.671888 1
gene 1 8 22 0.927452 0 46 0.927452 1
gene 1 9 22 -0.0151558 0 47 -0.0151558 1
gene 1 10 22 -0.151861 0 48 -0.151861 1
gene 1 11 22 0.141856 0 49 0.141856 0
gene 1 12 22 0.286538 0 50 0.286538 1
gene 1 13 22 -0.440952 0 51 -0.440952 1
gene 1 14 22 -0.184801 0 52 -0.184801 1
gene 1 15 22 -0.390302 0 53 -0.390302 1
gene 1 16 22 0.51821 0 54 0.51821 0
gene 1 17 22 0.0988214 0 55 0.0988214 1
gene 1 18 22 -0.35709 0 56 -0.35709 1
gene 1 19 22 0.591495 0 57 0.591495 1
gene 1 1 23 1.0703 0 58 1.0703 1
gene 1 2 23 0.518827 0 59 0.518827 1
gene 1 3 23 0.204955 0 60 0.204955 1
gene 1 4 23 -0.388686 0 61 -0.388686 1
gene 1 5 23 0.926048 0 62 0.926048 1
gene 1 6 23 -0.453119 0 63 -0.453119 1
gene 1 7 23 0.46981 0 64 0.46981 1
gene 1 8 23 0.396026 0 65 0.396026 1
gene 1 9 23 -0.107545 0 66 -0.107545 1
gene 1 10 23 0.0475773 0 67 0.0475773 1
gene 1 11 23 -0.122984 0 68 -0.122984 1
gene 1 12 23 -0.426663 0 69 -0.426663 1
gene 1 13 23 -0.310777 0 70 -0.310777 1
gene 1 14 23 0.24091 0 71 0.24091 1
gene 1 15 23 0.198447 0 72 0.198447 1
gene 1 16 23 -0.356948 0 73 -0.356948 1
gene 1 17 23 -1.03213 0 74 -1.03213 1
gene 1 18 23 -0.169852 0 75 -0.169852 1
gene 1 19 23 -0.645542 0 76 -0.645542 1
gene 1 21 22 0.497509 0 77 0.497509 1
gene 1 22 23 0.215553 0 87 0.215553 1
gene 1 2 30 0.460604 0 103 0.460604 1
gene 1 30 22 0.41407 0 104 0.41407 1
gene 1 15 30 -1.23372 0 117 -1.23372 1
gene 1 16 37 0.413081 0 124 0.413081 1
gene 1 37 22 -0.101648 0 125 -0.140438 1
gene 1 22 22 0.476426 1 128 0.476426 1
gene 1 14 40 1.20877 0 132 1.20877 1
gene 1 40 23 0.205334 0 133 0.205334 1
gene 1 16 30 0.181209 0 135 0.181209 1
gene 1 10 40 -0.909055 0 140 -0.909055 1
gene 1 17 37 -0.315706 0 150 0 1
gene 1 17 50 -0.137892 0 174 -0.137892 1
gene 1 50 20 0.455127 0 175 0 1
gene 1 4 40 0.410798 0 181 0.410798 1
gene 1 9 58 1 0 197 0 1
gene 1 58 20 0.0826542 0 198 0 1
gene 1 17 40 0.501235 0 200 0.501235 1
gene 1 11 60 1 0 206 0 1
gene 1 60 22 -0.0872699 0 207 0 1
gene 1 18 50 0.451786 0 221 0.451786 1
gene 1 7 75 1 0 253 0 1
gene 1 75 21 0.0564785 0 254 0 1
genomeend 2374
genomestart 2378
trait 1 0.749413 0.630912 0.291914 0.0154187 0.0679991 0.00407996 0.216743 0.00211139 
node 1 1 1 1 0
node 2 1 1 1 0
node 3 1 1 1 0
node 4 1 1 1 0
node 5 1 1 1 0
node 6 1 1 1 0
node 7 1 1 1 0
node 8 1 1 1 0
node 9 1 1 1 0
node 10 1 1 1 0
node 11 1 1 1 0
node 12 1 1 1 0
node 13 1 1 1 0
node 14 1 1 1 0
node 15 1 1 1 0
node 16 1 1 1 0
node 17 1 1 1 0
node 18 1 1 1 0
node 19 1 1 3 0
node 20 1 0 2 0
node 21 1 0 2 0
node 22 1 0 2 0
node 23 1 0 2 0
node 30 1 0 0 0
node 37 1 0 0 0
node 40 1 0 0 0
node 50 1 0 0 0
node 58 1 0 0 0
node 60 1 0 0 0
gene 1 1 20 -0.0534752 0 1 -0.0534752 1
gene 1 2 20 -0.290563 0 2 -0.290563 1
gene 1 3 20 -0.884931 0 3 -0.884931 1
gene 1 4 20 0.305728 0 4 0.305728 1
gene 1 5 20 1.54558 0 5 1.54558 1
gene 1 6 20 0.222635 0 6 0.222635 1
gene 1 7 20 -0.0141294 0 7 -0.0141294 1
gene 1 8 20 0.627965 0 8 0.627965 1
gene 1 9 20 0.729068 0 9 0.729068 0
gene 1 10 20 -0.504951 0 10 -0.504951 1
gene 1 11 20 0.601646 0 11 0.601646 1
gene 1 12 20 -0.433954 0 12 -0.433954 1
gene 1 13 20 -1.68765 0 13 -1.68765 1
gene 1 14 20 -1.20277 0 14 -1.20277 1
gene 1 15 20 0.0515968 0 15 0.0515968 1
gene 1 16 20 2.0208 0 16 2.0208 1
gene 1 17 20 1.32119 0 17 1.32119 1
gene 1 18 20 -0.209678 0 18 -0.209678 1
gene 1 19 20 1.80698 0 19 1.80698 1
gene 1 1 21 1.26348 0 20 1.26348 1
gene 1 2 21 0.599995 0 21 0.599995 1
gene 1 3 21 0.256957 0 22 0.256957 1
gene 1 4 21 1.17351 0 23 1.17351 1
gene 1 5 21 -0.952327 0 24 -0.952327 1
gene 1 6 21 0.126594 0 25 0.126594 1
gene 1 7 21 -0.0873258 0 26 -0.0873258 1
gene 1 8 21 -0.199216 0 27 -0.199216 1
gene 1 9 21 0.293862 0 28 0.293862 1
gene 1 10 21 -0.585751 0 29 -0.585751 1
gene 1 11 21 -1.25043 0 30 -1.25043 1
gene 1 12 21 0.909199 0 31 0.909199 1
gene 1 13 21 -0.844779 0 32 -0.844779 1
gene 1 14 21 -1.15166 0 33 -1.15166 1
gene 1 15 21 -0.247898 0 34 -0.247898 1
gene 1 16 21 -0.106819 0 35 -0.106819 1
gene 1 17 21 0.0157062 0 36 0.0157062 1
gene 1 18 21 -1.44049 0 37 -1.44049 1
gene 1 19 21 -0.0732996 0 38 -0.0732996 1
gene 1 1 22 -0.206502 0 39 -0.206502 1
gene 1 2 22 -0.0024013 0 40 -0.0024013 0
gene 1 3 22 -0.0278074 0 41 -0.0278074 1
gene 1 4 22 -0.604949 0 42 -0.604949 1
gene 1 5 22 -0.0852678 0 43 -0.0852678 1
gene 1 6 22 -0.0253965 0 44 -0.0253965 1
gene 1 7 22 -0.356935 0 45 -0.356935 1
gene 1 8 22 0.740566 0 46 0.740566 1
gene 1 9 22 -0.0474289 0 47 -0.0474289 1
gene 1 10 22 0.218572 0 48 0.218572 1
gene 1 11 22 0.114021 0 49 0.114021 0
gene 1 12 22 -0.329656 0 50 -0.329656 1
gene 1 13 22 -0.161568 0 51 -0.161568 1
gene 1 14 22 0.00308358 0 52 0.00308358 1
gene 1 15 22 0.0642469 0 53 0.0642469 1
gene 1 16 22 0.0362103 0 54 0.0362103 0
gene 1 17 22 0.24975 0 55 0.24975 1
gene 1 18 22 -0.813022 0 56 -0.813022 1
gene 1 19 22 0.911405 0 57 0.911405 1
gene 1 1 23 1.1132 0 58 1.1132 1
gene 1 2 23 0.372425 0 59 0.372425 1
gene 1 3 23 0.263511 0 60 0.263511 1
gene 1 4 23 -0.850672 0 61 -0.850672 1
gene 1 5 23 0.547441 0 62 0.547441 1
gene 1 6 23 -0.440434 0 63 -0.440434 1
gene 1 7 23 0.602572 0 64 0.602572 1
gene 1 8 23 0.845086 0 65 0.845086 1
gene 1 9 23 -0.401897 0 66 -0.401897 1
gene 1 10 23 0.334891 0 67 0.334891 1
gene 1 11 23 -0.0314255 0 68 -0.0314255 1
gene 1 12 23 0.0116525 0 69 0.0116525 1
gene 1 13 23 0.0323153 0 70 0.0323153 1
gene 1 14 23 0.695424 0 71 0.695424 1
gene 1 15 23 0.0619147 0 72 0.0619147 1
gene 1 16 23 -0.399183 0 73 -0.399183 1
gene 1 17 23 -0.495311 0 74 -0.495311 1
gene 1 18 23 0.309068 0 75 0.309068 1
gene 1 19 23 -0.81798 0 76 -0.81798 1
gene 1 21 22 0.983782 0 77 0.983782 1
gene 1 22 23 0.461763 0 87 0.461763 1
gene 1 2 30 0.0317223 0 103 0.0317223 1
gene 1 30 22 -0.439298 0 104 -0.439298 1
gene 1 15 30 -1.16692 0 117 -1.16692 1
gene 1 16 37 -0.0229605 0 124 -0.0229605 1
gene 1 37 22 -0.101648 0 125 -0.101648 1
gene 1 22 22 0.0225694 1 128 0.0225694 1
gene 1 14 40 1.29732 0 132 1.29732 1
gene 1 40 23 -0.0710744 0 133 -0.0710744 1
gene 1 16 30 -0.0766461 0 135 -0.0766461 1
gene 1 10 40 -0.270039 0 140 -0.270039 1
gene 1 17 37 -0.738175 0 150 -0.738175 1
gene 1 17 50 -0.14585 0 174 -0.14585 1
gene 1 50 20 0.080517 0 175 0.080517 1
gene 1 4 40 -0.0590524 0 181 -0.0590524 1
gene 1 9 58 1 0 197 1 1
gene 1 58 20 -0.487167 0 198 -0.487167 1
gene 1 17 40 -0.117139 0 200 -0.117139 1
gene 1 11 60 -0.370439 0 206 -0.370439 1
gene 1 60 22 0.406949 0 207 0.406949 1
gene 1 18 50 0.232785 0 221 0.232785 1
genomeend 2378
genomestart 2392
trait 1 0.744563 0.699674 0.389219 0.0164466 0.0685104 0.00435196 0.163761 0.00225215 
node 1 1 1 1 0
node 2 1 1 1 0
node 3 1 1 1 0
node 4 1 1 1 0
node 5 1 1 1 0
node 6 1 1 1 0
node 7 1 1 1 0
node 8 1 1 1 0
node 9 1 1 1 0
node 10 1 1 1 0
node 11 1 1 1 0
node 12 1 1 1 0
node 13 1 1 1 0
node 14 1 1 1 0
node 15 1 1 1 0
node 16 1 1 1 0
node 17 1 1 1 0
node 18 1 1 1 0
node 19 1 1 3 0
node 20 1 0 2 0
node 21 1 0 2 0
node 22 1 0 2 0
node 23 1 0 2 0
node 30 1 0 0 0
node 37 1 0 0 0
node 40 1 0 0 0
node 50 1 0 0 0
node 58 1 0 0 0
node 60 1 0 0 0
gene 1 1 20 -0.25107 0 1 -0.25107 1
gene 1 2 20 0.230083 0 2 0.230083 1
gene 1 3 20 -0.517885 0 3 -0.517885 1
gene 1 4 20 0.29029 0 4 0.29029 1
gene 1 5 20 1.84784 0 5 1.84784 1
gene 1 6 20 0.225084 0 6 0.225084 1
gene 1 7 20 0.483135 0 7 0.483135 1
gene 1 8 20 0.331336 0 8 0.331336 1
gene 1 9 20 0.976037 0 9 0.976037 0
gene 1 10 20 -0.282203 0 10 -0.282203 1
gene 1 11 20 0.423709 0 11 0.423709 1
gene 1 12 20 0.0102533 0 12 0.0102533 1
gene 1 13 20 -1.80327 0 13 -1.80327 1
gene 1 14 20 -0.820068 0 14 -0.820068 1
gene 1 15 20 -0.444356 0 15 -0.444356 1
gene 1 16 20 2.01829 0 16 2.01829 1
gene 1 17 20 1.55307 0 17 1.55307 1
gene 1 18 20 -0.0235196 0 18 -0.0235196 1
gene 1 19 20 1.6547 0 19 1.6547 1
gene 1 1 21 0.98565 0 20 0.98565 1
gene 1 2 21 0.209651 0 21 0.209651 1
gene 1 3 21 0.335815 0 22 0.335815 1
gene 1 4 21 0.98093 0 23 0.98093 1
gene 1 5 21 -0.652323 0 24 -0.652323 1
gene 1 6 21 0.109658 0 25 0.109658 1
gene 1 7 21 0.188262 0 26 0.188262 1
gene 1 8 21 0.109604 0 27 0.109604 1
gene 1 9 21 -0.19325 0 28 -0.19325 1
gene 1 10 21 -0.812868 0 29 -0.812868 1
gene 1 11 21 -1.21909 0 30 -1.21909 1
gene 1 12 21 0.397447 0 31 0.397447 1
gene 1 13 21 -0.435311 0 32 -0.435311 1
gene 1 14 21 -1.44367 0 33 -1.44367 1
gene 1 15 21 -0.273363 0 34 -0.273363 1
gene 1 16 21 -0.153895 0 35 -0.153895 1
gene 1 17 21 -0.14511 0 36 -0.14511 1
gene 1 18 21 -0.956063 0 37 -0.956063 1
gene 1 19 21 0.245392 0 38 0.245392 1
gene 1 1 22 -0.325527 0 39 -0.325527 1
gene 1 2 22 0.412751 0 40 0.412751 0
gene 1 3 22 0.0703318 0 41 0.0703318 1
gene 1 4 22 -0.386702 0 42 -0.386702 1
gene 1 5 22 0.104366 0 43 0.104366 1
gene 1 6 22 -0.37052 0 44 -0.37052 1
gene 1 7 22 -0.730484 0 45 -0.730484 1
gene 1 8 22 0.927452 0 46 0.927452 1
gene 1 9 22 0.0907033 0 47 0.0907033 1
gene 1 10 22 -0.151861 0 48 -0.151861 1
gene 1 11 22 -0.205397 0 49 -0.205397 1
gene 1 12 22 0.0208494 0 50 0.0208494 1
gene 1 13 22 -0.440952 0 51 -0.440952 1
gene 1 14 22 -0.272367 0 52 -0.272367 1
gene 1 15 22 -0.171898 0 53 -0.171898 1
gene 1 16 22 0.385825 0 54 0.385825 0
gene 1 17 22 0.0988214 0 55 0.0988214 1
gene 1 18 22 -0.35709 0 56 -0.35709 1
gene 1 19 22 0.553297 0 57 0.553297 1
gene 1 1 23 1.10588 0 58 1.10588 1
gene 1 2 23 0.483826 0 59 0.483826 1
gene 1 3 23 0.179034 0 60 0.179034 1
gene 1 4 23 -0.374004 0 61 -0.374004 1
gene 1 5 23 0.926048 0 62 0.926048 1
gene 1 6 23 -0.453119 0 63 -0.453119 1
gene 1 7 23 0.300774 0 64 0.300774 1
gene 1 8 23 0.396026 0 65 0.396026 1
gene 1 9 23 -0.0852989 0 66 -0.0852989 1
gene 1 10 23 -0.0573604 0 67 -0.0573604 1
gene 1 11 23 -0.219093 0 68 -0.219093 1
gene 1 12 23 -0.347634 0 69 -0.347634 1
gene 1 13 23 -0.327761 0 70 -0.327761 1
gene 1 14 23 0.154976 0 71 0.154976 1
gene 1 15 23 0.266736 0 72 0.266736 1
gene 1 16 23 -0.356948 0 73 -0.356948 1
gene 1 17 23 -0.950376 0 74 -0.950376 1
gene 1 18 23 -0.231206 0 75 -0.231206 1
gene 1 19 23 -0.595732 0 76 -0.595732 1
gene 1 21 22 0.497509 0 77 0.497509 1
gene 1 22 23 0.152839 0 87 0.152839 1
gene 1 2 30 0.460604 0 103 0.460604 1
gene 1 30 22 0.41407 0 104 0.41407 1
gene 1 15 30 -1.23372 0 117 -1.23372 1
gene 1 16 37 0.406736 0 124 0.406736 1
gene 1 37 22 -0.101648 0 125 -0.140438 1
gene 1 22 22 0.54497 1 128 0.54497 1
gene 1 14 40 1.20877 0 132 1.20877 1
gene 1 40 23 0.250815 0 133 0.250815 1
gene 1 16 30 0.0794554 0 135 0 1
gene 1 10 40 -0.568416 0 140 -0.568416 1
gene 1 17 50 -0.0184204 0 174 -0.14342 1
gene 1 50 20 0.429322 0 175 0.0879771 1
gene 1 4 40 0.410798 0 181 0.410798 1
gene 1 9 58 1 0 197 0 1
gene 1 58 20 0.0826542 0 198 0 1
gene 1 17 40 0.336112 0 200 0.336112 1
gene 1 11 60 1 0 206 0 1
gene 1 60 22 -0.0872699 0 207 0 1
genomeend 2392
genomestart 2394
trait 1 0.327693 0.384407 0.192982 0.112436 0.614058 0.00326397 0.617819 0.00168912 
node 1 1 1 1 0
node 2 1 1 1 0
node 3 1 1 1 0
node 4 1 1 1 0
node 5 1 1 1 0
node 6 1 1 1 0
node 7 1 1 1 0
node 8 1 1 1 0
node 9 1 1 1 0
node 10 1 1 1 0
node 11 1 1 1 0
node 12 1 1 1 0
node 13 1 1 1 0
node 14 1 1 1 0
node 15 1 1 1 0
node 16 1 1 1 0
node 17 1 1 1 0
node 18 1 1 1 0
node 19 1 1 3 0
node 20 1 0 2 0
node 21 1 0 2 0
node 22 1 0 2 0
node 23 1 0 2 0
node 30 1 0 0 0
node 37 1 0 0 0
node 40 1 0 0 0
node 50 1 0 0 0
node 58 1 0 0 0
node 63 1 0 0 0
gene 1 1 20 -0.503262 0 1 -0.503262 1
gene 1 2 20 -0.324468 0 2 -0.324468 1
gene 1 3 20 0.4158 0 3 0.4158 1
gene 1 4 20 0.32653 0 4 0.32653 1
gene 1 5 20 2.17202 0 5 2.17202 1
gene 1 6 20 -0.425155 0 6 -0.425155 1
gene 1 7 20 0.880407 0 7 0.880407 1
gene 1 8 20 0.151438 0 8 0.151438 1
gene 1 9 20 1.00278 0 9 1.00278 0
gene 1 10 20 -0.300853 0 10 -0.300853 1
gene 1 11 20 0.30493 0 11 0.30493 1
gene 1 12 20 0.0518031 0 12 0.0518031 1
gene 1 13 20 -1.86244 0 13 -1.86244 1
gene 1 14 20 -1.20164 0 14 -1.20164 1
gene 1 15 20 0.324245 0 15 0.324245 1
gene 1 16 20 2.3328 0 16 2.3328 1
gene 1 17 20 0.0688443 0 17 0.0688443 0
gene 1 18 20 0.0272039 0 18 0.0272039 1
gene 1 19 20 1.87457 0 19 1.87457 1
gene 1 1 21 -0.00953788 0 20 -0.00953788 1
gene 1 2 21 0.528627 0 21 0.528627 1
gene 1 3 21 -0.231755 0 22 -0.231755 1
gene 1 4 21 1.62022 0 23 1.62022 1
gene 1 5 21 -0.125668 0 24 -0.125668 1
gene 1 6 21 0.348131 0 25 0.348131 1
gene 1 7 21 -0.0306784 0 26 -0.0306784 1
gene 1 8 21 0.311656 0 27 0.311656 1
gene 1 9 21 -0.344686 0 28 -0.344686 1
gene 1 10 21 -1.60397 0 29 -1.60397 1
gene 1 11 21 -1.21489 0 30 -1.21489 1
gene 1 12 21 0.553212 0 31 0.553212 1
gene 1 13 21 -0.280144 0 32 -0.280144 1
gene 1 14 21 -0.403069 0 33 -0.403069 1
gene 1 15 21 -0.275962 0 34 -0.275962 1
gene 1 16 21 -0.59774 0 35 -0.59774 1
gene 1 17 21 -0.0221591 0 36 -0.0221591 1
gene 1 18 21 -0.881123 0 37 -0.881123 1
gene 1 19 21 0.378025 0 38 0.378025 1
gene 1 1 22 -0.974838 0 39 -0.974838 1
gene 1 2 22 0.282728 0 40 0.282728 0
gene 1 3 22 -0.319494 0 41 -0.319494 1
gene 1 4 22 0.137189 0 42 0.137189 1
gene 1 5 22 -0.790464 0 43 -0.790464 1
gene 1 6 22 0.12868 0 44 0.12868 1
gene 1 7 22 -0.13951 0 45 -0.13951 1
gene 1 8 22 -0.409089 0 46 -0.409089 0
gene 1 9 22 -0.216127 0 47 -0.216127 1
gene 1 10 22 0.592292 0 48 0.592292 1
gene 1 11 22 -0.073501 0 49 -0.073501 1
gene 1 12 22 0.487565 0 50 0.487565 1
gene 1 13 22 -0.504623 0 51 -0.504623 1
gene 1 14 22 -0.327883 0 52 -0.327883 1
gene 1 15 22 -0.0819577 0 53 -0.0819577 1
gene 1 16 22 0.168121 0 54 0.168121 0
gene 1 17 22 0.000472814 0 55 0.000472814 1
gene 1 18 22 -0.864437 0 56 -0.864437 1
gene 1 19 22 1.06643 0 57 1.06643 1
gene 1 1 23 0.32198 0 58 0.32198 1
gene 1 2 23 0.461993 0 59 0.461993 1
gene 1 3 23 -0.298018 0 60 -0.298018 1
gene 1 4 23 -0.381739 0 61 -0.381739 1
gene 1 5 23 -0.0306963 0 62 -0.0306963 1
gene 1 6 23 -0.322028 0 63 -0.322028 1
gene 1 7 23 0.744858 0 64 0.744858 1
gene 1 8 23 0.852621 0 65 0.852621 1
gene 1 9 23 -1.07201 0 66 -1.07201 1
gene 1 10 23 -0.0194732 0 67 -0.0194732 1
gene 1 11 23 0.0519754 0 68 0.0519754 1
gene 1 12 23 -0.113558 0 69 -0.113558 1
gene 1 13 23 -0.283001 0 70 -0.283001 1
gene 1 14 23 0.274688 0 71 0.274688 1
gene 1 15 23 1.35401 0 72 1.35401 1
gene 1 16 23 -0.0208988 0 73 -0.0208988 1
gene 1 17 23 -1.75607 0 74 -1.75607 1
gene 1 18 23 -0.109604 0 75 -0.109604 1
gene 1 19 23 -1.0693 0 76 -1.0693 1
gene 1 21 22 0.814375 0 77 0.814375 1
gene 1 22 23 0.553191 0 87 0.553191 1
gene 1 2 30 0.25739 0 103 0.25739 1
gene 1 30 22 0.236002 0 104 0.236002 1
gene 1 15 30 -1.02342 0 117 -1.02342 1
gene 1 16 37 0.439029 0 124 0.439029 1
gene 1 37 22 -0.199946 0 125 -0.199946 1
gene 1 22 22 0.115674 1 128 0.115674 1
gene 1 17 30 -0.0615948 0 129 -0.0615948 1
gene 1 14 40 1.11684 0 132 1.11684 1
gene 1 40 23 0.0490737 0 133 0.0490737 1
gene 1 16 30 0.453315 0 135 0.453315 1
gene 1 10 40 0.0570928 0 140 0.0570928 1
gene 1 17 50 0.570913 0 174 0.570913 1
gene 1 50 20 0.169991 0 175 0.169991 1
gene 1 4 40 0.437172 0 181 0.437172 1
gene 1 9 58 1.08671 0 197 1.08671 1
gene 1 58 20 -0.179302 0 198 -0.179302 1
gene 1 8 63 0.0251368 0 215 0.0251368 1
gene 1 63 22 0.319631 0 216 0.319631 1
gene 1 18 50 0.84942 0 221 0.84942 1
gene 1 18 63 0.330238 0 240 0.330238 1
gene 1 40 30 0.435435 0 250 0.435435 1
genomeend 2394
genomestart 2395
trait 1 0.61172 0.377205 0 0.00822331 0.0659538 0.00217598 0.220355 0.00112608 
node 1 1 1 1 0
node 2 1 1 1 0
node 3 1 1 1 0
node 4 1 1 1 0
node 5 1 1 1 0
node 6 1 1 1 0
node 7 1 1 1 0
node 8 1 1 1 0
node 9 1 1 1 0
node 10 1 1 1 0
node 11 1 1 1 0
node 12 1 1 1 0
node 13 1 1 1 0
node 14 1 1 1 0
node 15 1 1 1 0
node 16 1 1 1 0
node 17 1 1 1 0
node 18 1 1 1 0
node 19 1 1 3 0
node 20 1 0 2 0
node 21 1 0 2 0
node 22 1 0 2 0
node 23 1 0 2 0
node 30 1 0 0 0
node 37 1 0 0 0
node 40 1 0 0 0
node 50 1 0 0 0
node 58 1 0 0 0
node 63 1 0 0 0
node 73 1 0 0 0
gene 1 1 20 0.0635361 0 1 0.0635361 1
gene 1 2 20 -0.16798 0 2 -0.16798 1
gene 1 3 20 -0.539341 0 3 -0.539341 1
gene 1 4 20 0.397004 0 4 0.397004 1
gene 1 5 20 0.0793479 0 5 0.0793479 1
gene 1 6 20 0.0750933 0 6 0.0750933 1
gene 1 7 20 0.979073 0 7 0.979073 1
gene 1 8 20 0.458886 0 8 0.458886 1
gene 1 9 20 1.01685 0 9 1.01685 1
gene 1 10 20 0.0721951 0 10 0.0721951 1
gene 1 11 20 0.414142 0 11 0.414142 1
gene 1 12 20 0.0956647 0 12 0.0956647 1
gene 1 13 20 -1.76707 0 13 -1.76707 1
gene 1 14 20 -0.0673642 0 14 -0.0673642 0
gene 1 15 20 -0.842753 0 15 -0.842753 1
gene 1 16 20 2.25559 0 16 2.25559 1
gene 1 17 20 1.50095 0 17 1.50095 1
gene 1 18 20 0.303895 0 18 0.303895 1
gene 1 19 20 2.06901 0 19 2.06901 1
gene 1 1 21 1.34542 0 20 1.34542 1
gene 1 2 21 0.322467 0 21 0.322467 1
gene 1 3 21 0.437301 0 22 0.437301 1
gene 1 4 21 0.895329 0 23 0.895329 1
gene 1 5 21 0.203167 0 24 0.203167 1
gene 1 6 21 0.357957 0 25 0.357957 1
gene 1 7 21 0.15322 0 26 0.15322 1
gene 1 8 21 0.272884 0 27 0.272884 1
gene 1 9 21 -0.108414 0 28 -0.108414 1
gene 1 10 21 -1.01174 0 29 -1.01174 1
gene 1 11 21 -0.501538 0 30 -0.501538 1
gene 1 12 21 0.467313 0 31 0.467313 1
gene 1 13 21 0.211226 0 32 0.211226 1
gene 1 14 21 -0.201165 0 33 -0.201165 1
gene 1 15 21 0.505733 0 34 0.505733 1
gene 1 16 21 -0.217699 0 35 -0.217699 1
gene 1 17 21 0.327243 0 36 0.327243 1
gene 1 18 21 -0.55014 0 37 -0.55014 1
gene 1 19 21 -0.172307 0 38 -0.172307 1
gene 1 1 22 -0.331376 0 39 -0.331376 1
gene 1 2 22 -0.0679724 0 40 -0.0679724 0
gene 1 3 22 0.227139 0 41 0.227139 1
gene 1 4 22 -0.702224 0 42 -0.702224 1
gene 1 5 22 0.446613 0 43 0.446613 1
gene 1 6 22 -0.191642 0 44 -0.191642 1
gene 1 7 22 -0.64644 0 45 -0.64644 1
gene 1 8 22 0.618564 0 46 0.618564 0
gene 1 9 22 0.575097 0 47 0.575097 1
gene 1 10 22 0.652873 0 48 0.652873 1
gene 1 11 22 0.241186 0 49 0.241186 1
gene 1 12 22 -0.256329 0 50 -0.256329 1
gene 1 13 22 -0.788727 0 51 -0.788727 1
gene 1 14 22 0.175519 0 52 0.175519 1
gene 1 15 22 -0.110883 0 53 -0.110883 1
gene 1 16 22 -0.0377811 0 54 -0.0377811 1
gene 1 17 22 -0.389421 0 55 -0.389421 1
gene 1 18 22 -0.511856 0 56 -0.511856 1
gene 1 19 22 0.699568 0 57 0.699568 1
gene 1 1 23 1.44844 0 58 1.44844 1
gene 1 2 23 0.838813 0 59 0.838813 1
gene 1 3 23 0.367247 0 60 0.367247 1
gene 1 4 23 -0.922787 0 61 -0.922787 1
gene 1 5 23 0.24168 0 62 0.24168 1
gene 1 6 23 -0.251796 0 63 -0.251796 1
gene 1 7 23 -0.279059 0 64 -0.279059 1
gene 1 8 23 0.106328 0 65 0.106328 1
gene 1 9 23 -0.469249 0 66 -0.469249 1
gene 1 10 23 0.0829641 0 67 0.0829641 1
gene 1 11 23 -0.433567 0 68 -0.433567 1
gene 1 12 23 0.0705175 0 69 0.0705175 1
gene 1 13 23 0.0229728 0 70 0.0229728 1
gene 1 14 23 0.448133 0 71 0.448133 1
gene 1 15 23 0.0715163 0 72 0.0715163 1
gene 1 16 23 -0.341369 0 73 -0.341369 1
gene 1 17 23 0.212043 0 74 0.212043 1
gene 1 18 23 0.466342 0 75 0.466342 1
gene 1 19 23 -0.132539 0 76 -0.132539 1
gene 1 21 22 0.450625 0 77 0.450625 1
gene 1 22 23 -0.295789 0 87 -0.295789 1
gene 1 2 30 0.560966 0 103 0.560966 1
gene 1 30 22 0.351753 0 104 0.351753 1
gene 1 15 30 -0.728845 0 117 -0.728845 1
gene 1 16 37 1.16297 0 124 1.16297 1
gene 1 37 22 -0.334471 0 125 -0.334471 1
gene 1 22 22 0.499507 1 128 0.499507 1
gene 1 14 40 1.16067 0 132 1.16067 1
gene 1 40 23 0.508808 0 133 0.508808 1
gene 1 16 30 0.0794554 0 135 0.0794554 1
gene 1 10 40 0.689204 0 140 0.689204 1
gene 1 17 50 -0.710244 0 174 -0.710244 1
gene 1 50 20 0.0555899 0 175 0.0555899 1
gene 1 4 40 0.341005 0 181 0.341005 1
gene 1 9 58 -0.00528527 0 197 -0.00528527 1
gene 1 58 20 0.328306 0 198 0.328306 1
gene 1 8 63 0.056699 0 215 0.056699 1
gene 1 63 22 0.536934 0 216 0.536934 1
gene 1 14 73 0.221573 0 246 0.221573 1
gene 1 73 20 -0.23852 0 247 -0.23852 1
genomeend 2395
genomestart 2398
trait 1 0.721477 0.416809 0 0 0.0649311 0 0.332339 0 
node 1 1 1 1 0
node 2 1 1 1 0
node 3 1 1 1 0
node 4 1 1 1 0
node 5 1 1 1 0
node 6 1 1 1 0
node 7 1 1 1 0
node 8 1 1 1 0
node 9 1 1 1 0
node 10 1 1 1 0
node 11 1 1 1 0
node 12 1 1 1 0
node 13 1 1 1 0
node 14 1 1 1 0
node 15 1 1 1 0
node 16 1 1 1 0
node 17 1 1 1 0
node 18 1 1 1 0
node 19 1 1 3 0
node 20 1 0 2 0
node 21 1 0 2 0
node 22 1 0 2 0
node 23 1 0 2 0
node 30 1 0 0 0
node 37 1 0 0 0
node 40 1 0 0 0
node 50 1 0 0 0
gene 1 1 20 0.450679 0 1 0.450679 1
gene 1 2 20 0.21621 0 2 0.21621 1
gene 1 3 20 -1.14607 0 3 -1.14607 1
gene 1 4 20 0.543066 0 4 0.543066 1
gene 1 5 20 1.73327 0 5 1.73327 1
gene 1 6 20 -0.46065 0 6 -0.46065 1
gene 1 7 20 0.335737 0 7 0.335737 1
gene 1 8 20 -0.169301 0 8 -0.169301 1
gene 1 9 20 0.465079 0 9 0.465079 1
gene 1 10 20 -0.331841 0 10 -0.331841 1
gene 1 11 20 0.325663 0 11 0.325663 1
gene 1 12 20 0.0694131 0 12 0.0694131 1
gene 1 13 20 -1.79631 0 13 -1.79631 1
gene 1 14 20 -0.344063 0 14 -0.344063 1
gene 1 15 20 -0.357516 0 15 -0.357516 1
gene 1 16 20 2.58705 0 16 2.58705 1
gene 1 17 20 2.03047 0 17 2.03047 0
gene 1 18 20 -0.85578 0 18 -0.85578 1
gene 1 19 20 1.31213 0 19 1.31213 1
gene 1 1 21 1.69757 0 20 1.69757 1
gene 1 2 21 0.567557 0 21 0.567557 1
gene 1 3 21 0.359422 0 22 0.359422 1
gene 1 4 21 1.10446 0 23 1.10446 1
gene 1 5 21 -0.375331 0 24 -0.375331 1
gene 1 6 21 -0.368068 0 25 -0.368068 1
gene 1 7 21 0.40161 0 26 0.40161 1
gene 1 8 21 1.05664 0 27 1.05664 1
gene 1 9 21 0.469146 0 28 0.469146 1
gene 1 10 21 -0.186671 0 29 -0.186671 1
gene 1 11 21 -0.998227 0 30 -0.998227 1
gene 1 12 21 0.33591 0 31 0.33591 1
gene 1 13 21 0.210467 0 32 0.210467 1
gene 1 14 21 0.255717 0 33 0.255717 1
gene 1 15 21 -0.736718 0 34 -0.736718 1
gene 1 16 21 -0.39541 0 35 -0.39541 1
gene 1 17 21 0.157478 0 36 0.157478 1
gene 1 18 21 -0.892824 0 37 -0.892824 1
gene 1 19 21 0.118452 0 38 0.118452 1
gene 1 1 22 -0.0647552 0 39 -0.0647552 1
gene 1 2 22 0.708288 0 40 0.708288 0
gene 1 3 22 0.0262527 0 41 0.0262527 1
gene 1 4 22 -0.295685 0 42 -0.295685 1
gene 1 5 22 0.0384635 0 43 0.0384635 1
gene 1 6 22 -0.910745 0 44 -0.910745 1
gene 1 7 22 -1.49584 0 45 -1.49584 1
gene 1 8 22 -0.358966 0 46 -0.358966 1
gene 1 9 22 -0.297241 0 47 -0.297241 1
gene 1 10 22 0.0210205 0 48 0.0210205 1
gene 1 11 22 -0.510197 0 49 -0.510197 1
gene 1 12 22 0.358869 0 50 0.358869 1
gene 1 13 22 0.1871 0 51 0.1871 1
gene 1 14 22 -0.928896 0 52 -0.928896 1
gene 1 15 22 -0.0765314 0 53 -0.0765314 1
gene 1 16 22 -0.00334515 0 54 -0.00334515 1
gene 1 17 22 0.662279 0 55 0.662279 1
gene 1 18 22 -0.710753 0 56 -0.710753 1
gene 1 19 22 -0.12063 0 57 -0.12063 1
gene 1 1 23 1.00969 0 58 1.00969 1
gene 1 2 23 0.932363 0 59 0.932363 1
gene 1 3 23 -0.110355 0 60 -0.110355 1
gene 1 4 23 0.0858333 0 61 0.0858333 1
gene 1 5 23 0.581326 0 62 0.581326 1
gene 1 6 23 -0.49906 0 63 -0.49906 1
gene 1 7 23 0.389649 0 64 0.389649 1
gene 1 8 23 0.878806 0 65 0.878806 1
gene 1 9 23 0.565386 0 66 0.565386 1
gene 1 10 23 0.0617623 0 67 0.0617623 1
gene 1 11 23 -0.473182 0 68 -0.473182 1
gene 1 12 23 -0.0845556 0 69 -0.0845556 1
gene 1 13 23 -0.644179 0 70 -0.644179 1
gene 1 14 23 0.909347 0 71 0.909347 1
gene 1 15 23 -0.138733 0 72 -0.138733 1
gene 1 16 23 -0.450335 0 73 -0.450335 1
gene 1 17 23 0.460167 0 74 0.460167 1
gene 1 18 23 -0.229585 0 75 -0.229585 1
gene 1 19 23 -0.519091 0 76 -0.519091 1
gene 1 21 22 -0.0698347 0 77 -0.0698347 1
gene 1 22 23 -0.128217 0 87 -0.128217 1
gene 1 2 30 0.162736 0 103 0.162736 1
gene 1 30 22 0.682551 0 104 0.682551 1
gene 1 15 30 -0.31069 0 117 -0.31069 1
gene 1 16 37 0.8802 0 124 0.8802 1
gene 1 37 22 -0.146579 0 125 -0.146579 1
gene 1 22 22 0.486666 1 128 0.486666 1
gene 1 14 40 0.637114 0 132 0.637114 1
gene 1 40 23 -0.726399 0 133 -0.726399 1
gene 1 16 30 0.817313 0 135 0.817313 1
gene 1 10 40 -0.512636 0 140 -0.512636 1
gene 1 17 50 -0.208693 0 174 -0.208693 1
gene 1 50 20 -0.0906786 0 175 -0.0906786 1
gene 1 4 40 0.27668 0 181 0.27668 1
gene 1 17 40 0.336112 0 200 0.336112 1
genomeend 2398
genomestart 2401
trait 1 0.767375 0.492086 0.0973047 0.0215862 0.0679991 0.00571195 0.331135 0.00295595 
node 1 1 1 1 0
node 2 1 1 1 0
node 3 1 1 1 0
node 4 1 1 1 0
node 5 1 1 1 0
node 6 1 1 1 0
node 7 1 1 1 0
node 8 1 1 1 0
node 9 1 1 1 0
node 10 1 1 1 0
node 11 1 1 1 0
node 12 1 1 1 0
node 13 1 1 1 0
node 14 1 1 1 0
node 15 1 1 1 0
node 16 1 1 1 0
node 17 1 1 1 0
node 18 1 1 1 0
node 19 1 1 3 0
node 20 1 0 2 0
node 21 1 0 2 0
node 22 1 0 2 0
node 23 1 0 2 0
node 30 1 0 0 0
node 37 1 0 0 0
node 40 1 0 0 0
node 50 1 0 0 0
node 58 1 0 0 0
node 60 1 0 0 0
gene 1 1 20 -0.364967 0 1 -0.364967 1
gene 1 2 20 0.402863 0 2 0.402863 1
gene 1 3 20 -0.0970446 0 3 -0.0970446 1
gene 1 4 20 0.222881 0 4 0.222881 1
gene 1 5 20 1.8943 0 5 1.8943 1
gene 1 6 20 0.478126 0 6 0.478126 1
gene 1 7 20 0.800876 0 7 0.800876 1
gene 1 8 20 -0.0838696 0 8 -0.0838696 1
gene 1 9 20 1.06006 0 9 1.06006 1
gene 1 10 20 -0.138275 0 10 -0.138275 1
gene 1 11 20 0.185962 0 11 0.185962 1
gene 1 12 20 0.0596352 0 12 0.0596352 1
gene 1 13 20 -1.55711 0 13 -1.55711 1
gene 1 14 20 -0.753448 0 14 -0.753448 1
gene 1 15 20 -0.528933 0 15 -0.528933 1
gene 1 16 20 1.96128 0 16 1.96128 1
gene 1 17 20 1.46263 0 17 1.46263 1
gene 1 18 20 0.209873 0 18 0.209873 1
gene 1 19 20 2.08901 0 19 2.08901 1
gene 1 1 21 1.16404 0 20 1.16404 1
gene 1 2 21 0.445796 0 21 0.445796 1
gene 1 3 21 0.526912 0 22 0.526912 1
gene 1 4 21 1.20716 0 23 1.20716 1
gene 1 5 21 -0.567524 0 24 -0.567524 1
gene 1 6 21 0.108971 0 25 0.108971 1
gene 1 7 21 0.0294282 0 26 0.0294282 1
gene 1 8 21 -0.075658 0 27 -0.075658 1
gene 1 9 21 -0.081884 0 28 -0.081884 1
gene 1 10 21 -0.572968 0 29 -0.572968 1
gene 1 11 21 -0.926475 0 30 -0.926475 1
gene 1 12 21 0.658343 0 31 0.658343 1
gene 1 13 21 -0.683585 0 32 -0.683585 1
gene 1 14 21 -1.27883 0 33 -1.27883 1
gene 1 15 21 0.174546 0 34 0.174546 1
gene 1 16 21 -0.130462 0 35 -0.130462 1
gene 1 17 21 -0.231602 0 36 -0.231602 1
gene 1 18 21 -1.24386 0 37 -1.24386 1
gene 1 19 21 0.21623 0 38 0.21623 1
gene 1 1 22 -0.368828 0 39 -0.368828 1
gene 1 2 22 0.491164 0 40 0.491164 0
gene 1 3 22 0.056278 0 41 0.056278 1
gene 1 4 22 -0.482297 0 42 -0.482297 1
gene 1 5 22 0.230467 0 43 0.230467 1
gene 1 6 22 -0.514531 0 44 -0.514531 1
gene 1 7 22 -0.41146 0 45 -0.41146 1
gene 1 8 22 0.839504 0 46 0.839504 1
gene 1 9 22 0.234593 0 47 0.234593 1
gene 1 10 22 -0.226957 0 48 -0.226957 1
gene 1 11 22 -0.141904 0 49 -0.141904 0
gene 1 12 22 0.164558 0 50 0.164558 1
gene 1 13 22 -0.11832 0 51 -0.11832 1
gene 1 14 22 -0.0598935 0 52 -0.0598935 1
gene 1 15 22 -0.1176 0 53 -0.1176 1
gene 1 16 22 0.669063 0 54 0.669063 0
gene 1 17 22 0.49623 0 55 0.49623 1
gene 1 18 22 -0.320855 0 56 -0.320855 1
gene 1 19 22 0.56246 0 57 0.56246 1
gene 1 1 23 1.29534 0 58 1.29534 1
gene 1 2 23 0.555499 0 59 0.555499 1
gene 1 3 23 0.169683 0 60 0.169683 1
gene 1 4 23 -0.600392 0 61 -0.600392 1
gene 1 5 23 1.09474 0 62 1.09474 1
gene 1 6 23 -0.48288 0 63 -0.48288 1
gene 1 7 23 0.456646 0 64 0.456646 1
gene 1 8 23 0.393547 0 65 0.393547 1
gene 1 9 23 -0.264708 0 66 -0.264708 1
gene 1 10 23 -0.0922486 0 67 -0.0922486 1
gene 1 11 23 -0.157333 0 68 -0.157333 1
gene 1 12 23 -0.579929 0 69 -0.579929 1
gene 1 13 23 -0.464787 0 70 -0.464787 1
gene 1 14 23 0.236236 0 71 0.236236 1
gene 1 15 23 0.414212 0 72 0.414212 1
gene 1 16 23 -0.447858 0 73 -0.447858 1
gene 1 17 23 -0.743778 0 74 -0.743778 1
gene 1 18 23 -0.154055 0 75 -0.154055 1
gene 1 19 23 -0.593748 0 76 -0.593748 1
gene 1 21 22 0.543938 0 77 0.543938 1
gene 1 22 23 0.240214 0 87 0.240214 1
gene 1 2 30 0.376221 0 103 0.376221 1
gene 1 30 22 0.134691 0 104 0.134691 1
gene 1 15 30 -1.18302 0 117 -1.18302 1
gene 1 16 37 0.409065 0 124 0.409065 1
gene 1 37 22 0.257759 0 125 0.238364 1
gene 1 22 22 0.390938 1 128 0.390938 1
gene 1 14 40 1.35949 0 132 1.35949 1
gene 1 40 23 0.252875 0 133 0.252875 1
gene 1 16 30 0.181209 0 135 0.181209 1
gene 1 10 40 -0.554855 0 140 -0.554855 1
gene 1 17 37 -0.315706 0 150 0 1
gene 1 17 50 -0.137892 0 174 -0.137892 1
gene 1 50 20 0.200622 0 175 0.0299495 1
gene 1 4 40 0.410798 0 181 0.410798 1
gene 1 9 58 0.901751 0 197 0.401751 1
gene 1 58 20 0.0826542 0 198 0.0413271 1
gene 1 17 40 0.243045 0 200 0.243045 1
gene 1 11 60 1 0 206 0.5 1
gene 1 60 22 -0.0872699 0 207 -0.043635 1
gene 1 18 50 0.451786 0 221 0.451786 1
gene 1 30 58 -0.346693 0 255 -0.346693 1
genomeend 2401
genomestart 2402
trait 1 0.469706 0.380806 0.143097 0.209795 0.049721 0.00271997 0.234805 0.0014076 
node 1 1 1 1 0
node 2 1 1 1 0
node 3 1 1 1 0
node 4 1 1 1 0
node 5 1 1 1 0
node 6 1 1 1 0
node 7 1 1 1 0
node 8 1 1 1 0
node 9 1 1 1 0
node 10 1 1 1 0
node 11 1 1 1 0
node 12 1 1 1 0
node 13 1 1 1 0
node 14 1 1 1 0
node 15 1 1 1 0
node 16 1 1 1 0
node 17 1 1 1 0
node 18 1 1 1 0
node 19 1 1 3 0
node 20 1 0 2 0
node 21 1 0 2 0
node 22 1 0 2 0
node 23 1 0 2 0
node 30 1 0 0 0
node 37 1 0 0 0
node 40 1 0 0 0
node 50 1 0 0 0
node 58 1 0 0 0
node 63 1 0 0 0
node 73 1 0 0 0
gene 1 1 20 -0.35498 0 1 -0.35498 1
gene 1 2 20 -0.00249902 0 2 -0.00249902 1
gene 1 3 20 -0.579031 0 3 -0.579031 1
gene 1 4 20 0.322493 0 4 0.322493 1
gene 1 5 20 1.84982 0 5 1.84982 1
gene 1 6 20 -0.113841 0 6 -0.113841 1
gene 1 7 20 0.910798 0 7 0.910798 1
gene 1 8 20 0.2829 0 8 0.2829 1
gene 1 9 20 0.989372 0 9 0.989372 0
gene 1 10 20 -0.0342071 0 10 -0.0342071 1
gene 1 11 20 0.449358 0 11 0.449358 1
gene 1 12 20 -0.0909871 0 12 -0.0909871 1
gene 1 13 20 -1.80166 0 13 -1.80166 1
gene 1 14 20 -0.80996 0 14 -0.80996 1
gene 1 15 20 -0.312688 0 15 -0.312688 1
gene 1 16 20 2.21948 0 16 2.21948 1
gene 1 17 20 1.45341 0 17 1.45341 1
gene 1 18 20 -0.290412 0 18 -0.290412 1
gene 1 19 20 1.87279 0 19 1.87279 1
gene 1 1 21 0.990887 0 20 0.990887 1
gene 1 2 21 0.435218 0 21 0.435218 1
gene 1 3 21 0.710034 0 22 0.710034 1
gene 1 4 21 1.14886 0 23 1.14886 1
gene 1 5 21 -0.580609 0 24 -0.580609 1
gene 1 6 21 0.116127 0 25 0.116127 1
gene 1 7 21 0.0539007 0 26 0.0539007 1
gene 1 8 21 -0.0198453 0 27 -0.0198453 1
gene 1 9 21 -0.22655 0 28 -0.22655 1
gene 1 10 21 -1.33509 0 29 -1.33509 1
gene 1 11 21 -1.18049 0 30 -1.18049 1
gene 1 12 21 0.403643 0 31 0.403643 1
gene 1 13 21 -0.086236 0 32 -0.086236 1
gene 1 14 21 -1.45786 0 33 -1.45786 1
gene 1 15 21 -0.105595 0 34 -0.105595 1
gene 1 16 21 -0.200329 0 35 -0.200329 1
gene 1 17 21 0.124577 0 36 0.124577 1
gene 1 18 21 -0.715631 0 37 -0.715631 1
gene 1 19 21 0.104889 0 38 0.104889 1
gene 1 1 22 -0.637243 0 39 -0.637243 1
gene 1 2 22 0.10911 0 40 0.10911 0
gene 1 3 22 -0.0711503 0 41 -0.0711503 1
gene 1 4 22 -0.29943 0 42 -0.29943 1
gene 1 5 22 -0.0237584 0 43 -0.0237584 1
gene 1 6 22 -0.616672 0 44 -0.616672 1
gene 1 7 22 -0.56998 0 45 -0.56998 1
gene 1 8 22 0.965857 0 46 0.965857 0
gene 1 9 22 -0.0431374 0 47 -0.0431374 1
gene 1 10 22 0.201702 0 48 0.201702 1
gene 1 11 22 -0.262865 0 49 -0.262865 1
gene 1 12 22 0.0288233 0 50 0.0288233 1
gene 1 13 22 -0.793666 0 51 -0.793666 1
gene 1 14 22 -0.209962 0 52 -0.209962 1
gene 1 15 22 -0.0226007 0 53 -0.0226007 1
gene 1 16 22 0.158264 0 54 0.158264 0
gene 1 17 22 -0.185829 0 55 -0.185829 1
gene 1 18 22 -0.411223 0 56 -0.411223 1
gene 1 19 22 0.721017 0 57 0.721017 1
gene 1 1 23 1.1878 0 58 1.1878 1
gene 1 2 23 0.721111 0 59 0.721111 1
gene 1 3 23 0.179556 0 60 0.179556 1
gene 1 4 23 -0.461655 0 61 -0.461655 1
gene 1 5 23 0.347095 0 62 0.347095 1
gene 1 6 23 -0.545303 0 63 -0.545303 1
gene 1 7 23 0.35008 0 64 0.35008 1
gene 1 8 23 0.418294 0 65 0.418294 1
gene 1 9 23 -0.440446 0 66 -0.440446 1
gene 1 10 23 -0.0213524 0 67 -0.0213524 1
gene 1 11 23 -0.297136 0 68 -0.297136 1
gene 1 12 23 -0.121611 0 69 -0.121611 1
gene 1 13 23 -0.246052 0 70 -0.246052 1
gene 1 14 23 0.301238 0 71 0.301238 1
gene 1 15 23 0.600291 0 72 0.600291 1
gene 1 16 23 -0.21926 0 73 -0.21926 1
gene 1 17 23 -1.20133 0 74 -1.20133 1
gene 1 18 23 -0.117135 0 75 -0.117135 1
gene 1 19 23 -0.659967 0 76 -0.659967 1
gene 1 21 22 0.548262 0 77 0.548262 1
gene 1 22 23 0.176351 0 87 0.176351 1
gene 1 2 30 0.251558 0 103 0.251558 1
gene 1 30 22 0.229907 0 104 0.229907 1
gene 1 15 30 -1.20294 0 117 -1.20294 1
gene 1 16 37 0.646618 0 124 0.646618 1
gene 1 37 22 0.11743 0 125 0.0944429 1
gene 1 22 22 0.430319 1 128 0.430319 1
gene 1 17 30 0.810496 0 129 0 1
gene 1 14 40 1.06746 0 132 1.06746 1
gene 1 40 23 0.417933 0 133 0.417933 1
gene 1 16 30 0.0794554 0 135 0 1
gene 1 10 40 0.338349 0 140 0.338349 1
gene 1 17 50 -0.0305663 0 174 -0.0305663 1
gene 1 50 20 0.254237 0 175 0.254237 1
gene 1 4 40 0.58503 0 181 0.58503 1
gene 1 9 58 1 0 197 0.5 1
gene 1 58 20 0.0285456 0 198 -0.0127816 1
gene 1 8 63 0.23182 0 215 0.23182 1
gene 1 63 22 0.362938 0 216 0.362938 1
gene 1 18 50 0.432231 0 221 0.432231 1
gene 1 18 63 0.183482 0 240 0.183482 1
gene 1 14 73 1 0 246 0 1
gene 1 73 20 -0.23852 0 247 0 1
genomeend 2402
genomestart 2417
trait 1 1 0.377205 0 0.00822331 0.0659538 0.562536 0 0.00112608 
node 1 1 1 1 0
node 2 1 1 1 0
node 3 1 1 1 0
node 4 1 1 1 0
node 5 1 1 1 0
node 6 1 1 1 0
node 7 1 1 1 0
node 8 1 1 1 0
node 9 1 1 1 0
node 10 1 1 1 0
node 11 1 1 1 0
node 12 1 1 1 0
node 13 1 1 1 0
node 14 1 1 1 0
node 15 1 1 1 0
node 16 1 1 1 0
node 17 1 1 1 0
node 18 1 1 1 0
node 19 1 1 3 0
node 20 1 0 2 0
node 21 1 0 2 0
node 22 1 0 2 0
node 23 1 0 2 0
node 30 1 0 0 0
node 37 1 0 0 0
node 40 1 0 0 0
node 50 1 0 0 0
node 58 1 0 0 0
node 63 1 0 0 0
node 73 1 0 0 0
gene 1 1 20 -0.0107058 0 1 -0.0107058 1
gene 1 2 20 0.271095 0 2 0.271095 1
gene 1 3 20 -0.804684 0 3 -0.804684 1
gene 1 4 20 -0.0528532 0 4 -0.0528532 1
gene 1 5 20 1.32075 0 5 1.32075 1
gene 1 6 20 -0.304624 0 6 -0.304624 1
gene 1 7 20 0.888027 0 7 0.888027 1
gene 1 8 20 -0.219428 0 8 -0.219428 1
gene 1 9 20 0.58028 0 9 0.58028 1
gene 1 10 20 0.0732967 0 10 0.0732967 1
gene 1 11 20 0.2172 0 11 0.2172 1
gene 1 12 20 -0.624054 0 12 -0.624054 1
gene 1 13 20 -1.80408 0 13 -1.80408 1
gene 1 14 20 -0.467213 0 14 -0.467213 0
gene 1 15 20 -0.451194 0 15 -0.451194 1
gene 1 16 20 2.05434 0 16 2.05434 1
gene 1 17 20 1.48203 0 17 1.48203 1
gene 1 18 20 -0.195457 0 18 -0.195457 1
gene 1 19 20 2.24764 0 19 2.24764 1
gene 1 1 21 1.31693 0 20 1.31693 1
gene 1 2 21 0.292131 0 21 0.292131 1
gene 1 3 21 1.07006 0 22 1.07006 1
gene 1 4 21 1.40713 0 23 1.40713 1
gene 1 5 21 -0.851582 0 24 -0.851582 1
gene 1 6 21 0.189327 0 25 0.189327 1
gene 1 7 21 0.278238 0 26 0.278238 1
gene 1 8 21 0.248358 0 27 0.248358 1
gene 1 9 21 -0.446875 0 28 -0.446875 1
gene 1 10 21 -0.927493 0 29 -0.927493 1
gene 1 11 21 -0.561893 0 30 -0.561893 1
gene 1 12 21 0.811901 0 31 0.811901 1
gene 1 13 21 -0.639405 0 32 -0.639405 1
gene 1 14 21 -1.63819 0 33 -1.63819 1
gene 1 15 21 -0.434539 0 34 -0.434539 1
gene 1 16 21 -0.210038 0 35 -0.210038 1
gene 1 17 21 0.219796 0 36 0.219796 1
gene 1 18 21 -0.285587 0 37 -0.285587 1
gene 1 19 21 0.0098996 0 38 0.0098996 1
gene 1 1 22 -0.256961 0 39 -0.256961 1
gene 1 2 22 0.391307 0 40 0.391307 0
gene 1 3 22 0.298223 0 41 0.298223 1
gene 1 4 22 -0.510021 0 42 -0.510021 1
gene 1 5 22 -0.0489941 0 43 -0.0489941 1
gene 1 6 22 0.21817 0 44 0.21817 1
gene 1 7 22 -0.673719 0 45 -0.673719 1
gene 1 8 22 0.97971 0 46 0.97971 0
gene 1 9 22 0.556956 0 47 0.556956 1
gene 1 10 22 0.528414 0 48 0.528414 1
gene 1 11 22 -0.0976477 0 49 -0.0976477 1
gene 1 12 22 0.0380188 0 50 0.0380188 1
gene 1 13 22 0.225789 0 51 0.225789 1
gene 1 14 22 -0.420741 0 52 -0.420741 1
gene 1 15 22 -0.453634 0 53 -0.453634 1
gene 1 16 22 -0.0164845 0 54 -0.0164845 1
gene 1 17 22 -0.83164 0 55 -0.83164 1
gene 1 18 22 0.0774757 0 56 0.0774757 1
gene 1 19 22 0.118569 0 57 0.118569 1
gene 1 1 23 0.106637 0 58 0.106637 1
gene 1 2 23 0.859567 0 59 0.859567 1
gene 1 3 23 -0.222554 0 60 -0.222554 1
gene 1 4 23 -0.903252 0 61 -0.903252 1
gene 1 5 23 0.54706 0 62 0.54706 1
gene 1 6 23 -0.0352459 0 63 -0.0352459 1
gene 1 7 23 0.246537 0 64 0.246537 1
gene 1 8 23 0.575828 0 65 0.575828 1
gene 1 9 23 -0.496811 0 66 -0.496811 1
gene 1 10 23 0.139563 0 67 0.139563 1
gene 1 11 23 -0.109389 0 68 -0.109389 1
gene 1 12 23 -0.186522 0 69 -0.186522 1
gene 1 13 23 -0.483884 0 70 -0.483884 1
gene 1 14 23 -0.249122 0 71 -0.249122 1
gene 1 15 23 0.253538 0 72 0.253538 1
gene 1 16 23 -0.658478 0 73 -0.658478 1
gene 1 17 23 -1.43483 0 74 -1.43483 1
gene 1 18 23 -0.262551 0 75 -0.262551 1
gene 1 19 23 -0.734229 0 76 -0.734229 1
gene 1 21 22 0.776232 0 77 0.776232 1
gene 1 22 23 -0.392221 0 87 -0.392221 1
gene 1 2 30 0.211684 0 103 0.211684 1
gene 1 30 22 0.490212 0 104 0.490212 1
gene 1 15 30 -1.54604 0 117 -1.54604 1
gene 1 16 37 0.54866 0 124 0.54866 1
gene 1 37 22 0.824982 0 125 0.824982 1
gene 1 22 22 0.742032 1 128 0.742032 1
gene 1 14 40 0.993868 0 132 0.993868 1
gene 1 40 23 0.957274 0 133 0.957274 1
gene 1 16 30 0.492339 0 135 0.492339 1
gene 1 10 40 -0.0501191 0 140 -0.0501191 1
gene 1 17 50 -0.541586 0 174 -0.541586 1
gene 1 50 20 0.214943 0 175 0.214943 1
gene 1 4 40 0.498699 0 181 0.498699 1
gene 1 9 58 0.10269 0 197 0.10269 1
gene 1 58 20 0.100972 0 198 0.100972 1
gene 1 8 63 0.038924 0 215 0.038924 1
gene 1 63 22 -0.173194 0 216 -0.173194 1
gene 1 14 73 0.732466 0 246 0.732466 1
gene 1 73 20 -0.570917 0 247 -0.570917 1
genomeend 2417
genomestart 2427
trait 1 0.839495 0.447148 0 0.0164466 0.0669764 0.00435196 0.452751 0.00225215 
node 1 1 1 1 0
node 2 1 1 1 0
node 3 1 1 1 0
node 4 1 1 1 0
node 5 1 1 1 0
node 6 1 1 1 0
node 7 1 1 1 0
node 8 1 1 1 0
node 9 1 1 1 0
node 10 1 1 1 0
node 11 1 1 1 0
node 12 1 1 1 0
node 13 1 1 1 0
node 14 1 1 1 0
node 15 1 1 1 0
node 16 1 1 1 0
node 17 1 1 1 0
node 18 1 1 1 0
node 19 1 1 3 0
node 20 1 0 2 0
node 21 1 0 2 0
node 22 1 0 2 0
node 23 1 0 2 0
node 30 1 0 0 0
node 37 1 0 0 0
node 40 1 0 0 0
node 49 1 0 0 0
node 50 1 0 0 0
node 58 1 0 0 0
node 60 1 0 0 0
gene 1 1 20 -0.212618 0 1 -0.212618 1
gene 1 2 20 0.279831 0 2 0.279831 1
gene 1 3 20 -0.4584 0 3 -0.4584 1
gene 1 4 20 0.270772 0 4 0.270772 1
gene 1 5 20 1.79253 0 5 1.79253 1
gene 1 6 20 0.336549 0 6 0.336549 1
gene 1 7 20 0.498402 0 7 0.498402 1
gene 1 8 20 0.335201 0 8 0.335201 1
gene 1 9 20 1.09294 0 9 1.09294 1
gene 1 10 20 -0.250234 0 10 -0.250234 1
gene 1 11 20 0.383761 0 11 0.383761 1
gene 1 12 20 -0.152379 0 12 -0.152379 1
gene 1 13 20 -1.56081 0 13 -1.56081 1
gene 1 14 20 -1.06352 0 14 -1.06352 1
gene 1 15 20 -0.492917 0 15 -0.492917 1
gene 1 16 20 1.98315 0 16 1.98315 1
gene 1 17 20 1.68181 0 17 1.68181 1
gene 1 18 20 -0.0327214 0 18 -0.0327214 1
gene 1 19 20 1.79094 0 19 1.79094 1
gene 1 1 21 1.16457 0 20 1.16457 1
gene 1 2 21 -0.151632 0 21 -0.151632 1
gene 1 3 21 0.279552 0 22 0.279552 1
gene 1 4 21 1.05393 0 23 1.05393 1
gene 1 5 21 -0.725056 0 24 -0.725056 1
gene 1 6 21 0.22549 0 25 0.22549 1
gene 1 7 21 0.317505 0 26 0.317505 1
gene 1 8 21 0.655104 0 27 0.655104 1
gene 1 9 21 -0.0702013 0 28 -0.0702013 1
gene 1 10 21 -0.775281 0 29 -0.775281 1
gene 1 11 21 -1.06029 0 30 -1.06029 1
gene 1 12 21 0.574112 0 31 0.574112 1
gene 1 13 21 -0.634602 0 32 -0.634602 1
gene 1 14 21 -1.35798 0 33 -1.35798 1
gene 1 15 21 0.157612 0 34 0.157612 1
gene 1 16 21 -0.140566 0 35 -0.140566 1
gene 1 17 21 -0.32326 0 36 -0.32326 1
gene 1 18 21 -1.1231 0 37 -1.1231 1
gene 1 19 21 0.2874 0 38 0.2874 1
gene 1 1 22 -0.292813 0 39 -0.292813 1
gene 1 2 22 0.342617 0 40 0.342617 0
gene 1 3 22 0.0740759 0 41 0.0740759 1
gene 1 4 22 -0.675944 0 42 -0.675944 1
gene 1 5 22 0.291889 0 43 0.291889 1
gene 1 6 22 -0.429083 0 44 -0.429083 1
gene 1 7 22 -0.520402 0 45 -0.520402 1
gene 1 8 22 0.873771 0 46 0.873771 1
gene 1 9 22 -0.0151558 0 47 -0.0151558 1
gene 1 10 22 -0.0865043 0 48 -0.0865043 1
gene 1 11 22 0.141856 0 49 0.141856 0
gene 1 12 22 -0.0248197 0 50 -0.0248197 1
gene 1 13 22 -0.399726 0 51 -0.399726 1
gene 1 14 22 -0.514065 0 52 -0.514065 1
gene 1 15 22 -0.390302 0 53 -0.390302 1
gene 1 16 22 0.31257 0 54 0.31257 0
gene 1 17 22 0.431756 0 55 0.431756 1
gene 1 18 22 -0.355154 0 56 -0.355154 1
gene 1 19 22 0.525321 0 57 0.525321 1
gene 1 1 23 1.14189 0 58 1.14189 1
gene 1 2 23 0.518827 0 59 0.518827 1
gene 1 3 23 0.204955 0 60 0.204955 1
gene 1 4 23 -0.537677 0 61 -0.537677 1
gene 1 5 23 0.568007 0 62 0.568007 1
gene 1 6 23 -0.582309 0 63 -0.582309 1
gene 1 7 23 0.46981 0 64 0.46981 1
gene 1 8 23 0.430835 0 65 0.430835 1
gene 1 9 23 -0.107545 0 66 -0.107545 1
gene 1 10 23 0.0475773 0 67 0.0475773 1
gene 1 11 23 -0.122984 0 68 -0.122984 1
gene 1 12 23 -0.751653 0 69 -0.751653 1
gene 1 13 23 -0.310777 0 70 -0.310777 1
gene 1 14 23 0.24091 0 71 0.24091 1
gene 1 15 23 0.198447 0 72 0.198447 1
gene 1 16 23 -0.58946 0 73 -0.58946 1
gene 1 17 23 -1.03213 0 74 -1.03213 1
gene 1 18 23 -0.169852 0 75 -0.169852 1
gene 1 19 23 -0.625699 0 76 -0.625699 1
gene 1 21 22 0.340158 0 77 0.340158 0
gene 1 22 23 0.264875 0 87 0.264875 1
gene 1 2 30 0.46992 0 103 0.46992 1
gene 1 30 22 0.740802 0 104 0.740802 1
gene 1 15 30 -1.13232 0 117 -1.13232 1
gene 1 16 37 0.405048 0 124 0.405048 1
gene 1 37 22 -0.0360106 0 125 -0.104971 1
gene 1 22 22 0.466187 1 128 0.466187 1
gene 1 14 40 1.1296 0 132 1.1296 1
gene 1 40 23 0.205334 0 133 0.205334 1
gene 1 10 40 -0.909055 0 140 -0.909055 1
gene 1 17 37 -0.315706 0 150 0 1
gene 1 21 49 1 0 170 0 1
gene 1 49 22 0.102048 0 171 0 1
gene 1 17 50 -0.137892 0 174 -0.137892 1
gene 1 50 20 0.455127 0 175 0 1
gene 1 9 58 1 0 197 0 1
gene 1 58 20 0.0826542 0 198 0 1
gene 1 17 40 0.336112 0 200 0.336112 1
gene 1 11 60 1 0 206 0 1
gene 1 60 22 -0.0872699 0 207 0 1
genomeend 2427
genomestart 2428
trait 1 0.768296 0.636542 0.291914 0.0164466 0.0681269 0.00435196 0.236009 0.00225215 
node 1 1 1 1 0
node 2 1 1 1 0
node 3 1 1 1 0
node 4 1 1 1 0
node 5 1 1 1 0
node 6 1 1 1 0
node 7 1 1 1 0
node 8 1 1 1 0
node 9 1 1 1 0
node 10 1 1 1 0
node 11 1 1 1 0
node 12 1 1 1 0
node 13 1 1 1 0
node 14 1 1 1 0
node 15 1 1 1 0
node 16 1 1 1 0
node 17 1 1 1 0
node 18 1 1 1 0
node 19 1 1 3 0
node 20 1 0 2 0
node 21 1 0 2 0
node 22 1 0 2 0
node 23 1 0 2 0
node 30 1 0 0 0
node 37 1 0 0 0
node 40 1 0 0 0
node 50 1 0 0 0
node 58 1 0 0 0
node 60 1 0 0 0
node 74 1 0 0 0
node 76 1 0 0 0
gene 1 1 20 -0.25107 0 1 -0.25107 1
gene 1 2 20 0.254957 0 2 0.254957 1
gene 1 3 20 -0.517885 0 3 -0.517885 1
gene 1 4 20 0.280531 0 4 0.280531 1
gene 1 5 20 1.84784 0 5 1.84784 1
gene 1 6 20 0.280817 0 6 0.280817 1
gene 1 7 20 0.483135 0 7 0.483135 1
gene 1 8 20 0.333269 0 8 0.333269 1
gene 1 9 20 0.976037 0 9 0.976037 1
gene 1 10 20 -0.282203 0 10 -0.282203 1
gene 1 11 20 0.403735 0 11 0.403735 1
gene 1 12 20 0.0102533 0 12 0.0102533 1
gene 1 13 20 -1.80327 0 13 -1.80327 1
gene 1 14 20 -0.941794 0 14 -0.941794 1
gene 1 15 20 -0.468637 0 15 -0.468637 1
gene 1 16 20 2.00072 0 16 2.00072 1
gene 1 17 20 1.61744 0 17 1.61744 1
gene 1 18 20 -0.0235196 0 18 -0.0235196 1
gene 1 19 20 1.72282 0 19 1.72282 1
gene 1 1 21 0.98565 0 20 0.98565 1
gene 1 2 21 0.209651 0 21 0.209651 1
gene 1 3 21 0.307684 0 22 0.307684 1
gene 1 4 21 0.98093 0 23 0.98093 1
gene 1 5 21 -0.652323 0 24 -0.652323 1
gene 1 6 21 0.109658 0 25 0.109658 1
gene 1 7 21 0.252883 0 26 0.252883 1
gene 1 8 21 0.382354 0 27 0.382354 1
gene 1 9 21 -0.131726 0 28 -0.131726 1
gene 1 10 21 -0.794074 0 29 -0.794074 1
gene 1 11 21 -1.21909 0 30 -1.21909 1
gene 1 12 21 0.48578 0 31 0.48578 1
gene 1 13 21 -0.534956 0 32 -0.534956 1
gene 1 14 21 -1.44367 0 33 -1.44367 1
gene 1 15 21 -0.0578755 0 34 -0.0578755 1
gene 1 16 21 -0.14723 0 35 -0.14723 1
gene 1 17 21 -0.234185 0 36 -0.234185 1
gene 1 18 21 -0.956063 0 37 -0.956063 1
gene 1 19 21 0.245392 0 38 0.245392 1
gene 1 1 22 -0.30917 0 39 -0.30917 1
gene 1 2 22 0.377684 0 40 0.377684 1
gene 1 3 22 0.0722038 0 41 0.0722038 1
gene 1 4 22 -0.531323 0 42 -0.531323 1
gene 1 5 22 0.198128 0 43 0.198128 1
gene 1 6 22 -0.37052 0 44 -0.37052 1
gene 1 7 22 -0.625443 0 45 -0.625443 1
gene 1 8 22 0.900611 0 46 0.900611 1
gene 1 9 22 0.0377738 0 47 0.0377738 1
gene 1 10 22 -0.119183 0 48 -0.119183 1
gene 1 11 22 -0.0317703 0 49 -0.0317703 0
gene 1 12 22 -0.00198516 0 50 -0.00198516 1
gene 1 13 22 -0.440952 0 51 -0.440952 1
gene 1 14 22 -0.272367 0 52 -0.272367 1
gene 1 15 22 -0.171898 0 53 -0.171898 1
gene 1 16 22 0.385825 0 54 0.385825 0
gene 1 17 22 0.0988214 0 55 0.0988214 1
gene 1 18 22 -0.356122 0 56 -0.356122 1
gene 1 19 22 0.553297 0 57 0.553297 1
gene 1 1 23 1.12389 0 58 1.12389 1
gene 1 2 23 0.483826 0 59 0.483826 1
gene 1 3 23 0.179034 0 60 0.179034 1
gene 1 4 23 -0.45584 0 61 -0.45584 1
gene 1 5 23 0.747027 0 62 0.747027 1
gene 1 6 23 -0.517714 0 63 -0.517714 1
gene 1 7 23 0.385292 0 64 0.385292 1
gene 1 8 23 0.396026 0 65 0.396026 1
gene 1 9 23 -0.0964219 0 66 -0.0964219 1
gene 1 10 23 -0.0573604 0 67 -0.0573604 1
gene 1 11 23 -0.219093 0 68 -0.219093 1
gene 1 12 23 -0.549643 0 69 -0.549643 1
gene 1 13 23 -0.327761 0 70 -0.327761 1
gene 1 14 23 0.154976 0 71 0.154976 1
gene 1 15 23 0.266736 0 72 0.266736 1
gene 1 16 23 -0.473204 0 73 -0.473204 1
gene 1 17 23 -0.991251 0 74 -0.991251 1
gene 1 18 23 -0.231206 0 75 -0.231206 1
gene 1 19 23 -0.595732 0 76 -0.595732 1
gene 1 21 22 0.497509 0 77 0.497509 1
gene 1 22 23 0.152839 0 87 0.152839 1
gene 1 2 30 0.460604 0 103 0.460604 1
gene 1 30 22 0.41407 0 104 0.41407 1
gene 1 15 30 -1.23372 0 117 -1.23372 1
gene 1 16 37 0.405892 0 124 0.405892 1
gene 1 37 22 -0.101648 0 125 -0.140438 1
gene 1 22 22 0.505579 1 128 0.505579 1
gene 1 14 40 1.16918 0 132 1.16918 1
gene 1 40 23 0.250815 0 133 0.250815 1
gene 1 16 30 0.0794554 0 135 0 1
gene 1 10 40 -0.738736 0 140 -0.738736 1
gene 1 17 50 -0.0781562 0 174 -0.140656 1
gene 1 50 20 0.429322 0 175 0.0879771 1
gene 1 4 40 0.410798 0 181 0.410798 1
gene 1 9 58 1 0 197 0 1
gene 1 58 20 0.0826542 0 198 0 0
gene 1 17 40 0.336112 0 200 0.336112 1
gene 1 11 60 1 0 206 0 1
gene 1 60 22 -0.0872699 0 207 0 1
gene 1 14 74 1 0 251 0 1
gene 1 74 40 0.338879 0 252 0 1
gene 1 58 76 1 0 256 0 1
gene 1 76 20 0.0247963 0 257 0 1
genomeend 2428
genomestart 2438
trait 1 0.744426 0.444492 0.0486523 0.0313514 0.0690217 0.00829592 0.331737 0.00429317 
node 1 1 1 1 0
node 2 1 1 1 0
node 3 1 1 1 0
node 4 1 1 1 0
node 5 1 1 1 0
node 6 1 1 1 0
node 7 1 1 1 0
node 8 1 1 1 0
node 9 1 1 1 0
node 10 1 1 1 0
node 11 1 1 1 0
node 12 1 1 1 0
node 13 1 1 1 0
node 14 1 1 1 0
node 15 1 1 1 0
node 16 1 1 1 0
node 17 1 1 1 0
node 18 1 1 1 0
node 19 1 1 3 0
node 20 1 0 2 0
node 21 1 0 2 0
node 22 1 0 2 0
node 23 1 0 2 0
node 30 1 0 0 0
node 37 1 0 0 0
node 40 1 0 0 0
node 50 1 0 0 0
node 58 1 0 0 0
node 60 1 0 0 0
gene 1 1 20 -0.608123 0 1 -0.608123 1
gene 1 2 20 0.412816 0 2 0.412816 1
gene 1 3 20 0.114123 0 3 0.114123 1
gene 1 4 20 0.246514 0 4 0.246514 1
gene 1 5 20 1.83812 0 5 1.83812 1
gene 1 6 20 0.418174 0 6 0.418174 1
gene 1 7 20 0.864625 0 7 0.864625 1
gene 1 8 20 -0.101361 0 8 -0.101361 1
gene 1 9 20 0.967345 0 9 0.967345 1
gene 1 10 20 -0.196631 0 10 -0.196631 1
gene 1 11 20 0.608716 0 11 0.608716 1
gene 1 12 20 0.0510427 0 12 0.0510427 1
gene 1 13 20 -1.51281 0 13 -1.51281 1
gene 1 14 20 -0.766605 0 14 -0.766605 1
gene 1 15 20 -0.716553 0 15 -0.716553 1
gene 1 16 20 2.07107 0 16 2.07107 1
gene 1 17 20 1.47236 0 17 1.47236 1
gene 1 18 20 0.183629 0 18 0.183629 1
gene 1 19 20 1.82152 0 19 1.82152 1
gene 1 1 21 0.952594 0 20 0.952594 1
gene 1 2 21 0.355264 0 21 0.355264 1
gene 1 3 21 0.0485223 0 22 0.0485223 1
gene 1 4 21 1.12335 0 23 1.12335 1
gene 1 5 21 -0.592885 0 24 -0.592885 1
gene 1 6 21 0.0829766 0 25 0.0829766 1
gene 1 7 21 0.0667741 0 26 0.0667741 1
gene 1 8 21 0.040031 0 27 0.040031 1
gene 1 9 21 -0.303996 0 28 -0.303996 1
gene 1 10 21 -0.62065 0 29 -0.62065 1
gene 1 11 21 -0.839262 0 30 -0.839262 1
gene 1 12 21 0.524008 0 31 0.524008 1
gene 1 13 21 -0.585931 0 32 -0.585931 1
gene 1 14 21 -1.12853 0 33 -1.12853 1
gene 1 15 21 -0.0467936 0 34 -0.0467936 1
gene 1 16 21 -0.140893 0 35 -0.140893 1
gene 1 17 21 -0.159938 0 36 -0.159938 1
gene 1 18 21 -1.40039 0 37 -1.40039 1
gene 1 19 21 0.219736 0 38 0.219736 1
gene 1 1 22 0.0485802 0 39 0.0485802 1
gene 1 2 22 0.451886 0 40 0.451886 0
gene 1 3 22 0.0712878 0 41 0.0712878 1
gene 1 4 22 -0.388086 0 42 -0.388086 1
gene 1 5 22 0.126049 0 43 0.126049 1
gene 1 6 22 -0.454064 0 44 -0.454064 1
gene 1 7 22 -0.750527 0 45 -0.750527 1
gene 1 8 22 0.669273 0 46 0.669273 1
gene 1 9 22 0.293994 0 47 0.293994 1
gene 1 10 22 -0.185638 0 48 -0.185638 1
gene 1 11 22 -0.159469 0 49 -0.159469 0
gene 1 12 22 0.156061 0 50 0.156061 1
gene 1 13 22 -0.109545 0 51 -0.109545 1
gene 1 14 22 -0.136566 0 52 -0.136566 1
gene 1 15 22 0.0439278 0 53 0.0439278 1
gene 1 16 22 0.614038 0 54 0.614038 0
gene 1 17 22 0.158454 0 55 0.158454 1
gene 1 18 22 -0.536128 0 56 -0.536128 1
gene 1 19 22 0.226852 0 57 0.226852 1
gene 1 1 23 0.801345 0 58 0.801345 1
gene 1 2 23 0.498117 0 59 0.498117 1
gene 1 3 23 0.261263 0 60 0.261263 1
gene 1 4 23 -0.465581 0 61 -0.465581 1
gene 1 5 23 1.04789 0 62 1.04789 1
gene 1 6 23 -0.474358 0 63 -0.474358 1
gene 1 7 23 0.391063 0 64 0.391063 1
gene 1 8 23 0.458651 0 65 0.458651 1
gene 1 9 23 -0.165513 0 66 -0.165513 1
gene 1 10 23 -0.101572 0 67 -0.101572 1
gene 1 11 23 -0.21179 0 68 -0.21179 1
gene 1 12 23 -0.421106 0 69 -0.421106 1
gene 1 13 23 -0.453157 0 70 -0.453157 1
gene 1 14 23 0.216605 0 71 0.216605 1
gene 1 15 23 0.327159 0 72 0.327159 1
gene 1 16 23 -0.408892 0 73 -0.408892 1
gene 1 17 23 -0.814388 0 74 -0.814388 1
gene 1 18 23 -0.229417 0 75 -0.229417 1
gene 1 19 23 -0.741334 0 76 -0.741334 1
gene 1 21 22 0.567152 0 77 0.567152 1
gene 1 22 23 0.267611 0 87 0.267611 1
gene 1 2 30 0.43856 0 103 0.43856 1
gene 1 30 22 0.310853 0 104 0.310853 1
gene 1 15 30 -1.54514 0 117 -1.54514 1
gene 1 16 37 0.345589 0 124 0.345589 1
gene 1 37 22 0.437463 0 125 0.427765 1
gene 1 22 22 0.267302 1 128 0.267302 1
gene 1 14 40 1.4493 0 132 1.4493 1
gene 1 40 23 0.284032 0 133 0.284032 1
gene 1 16 30 0.181209 0 135 0.181209 1
gene 1 10 40 -0.577618 0 140 -0.577618 1
gene 1 17 37 -0.315706 0 150 0 1
gene 1 17 50 -0.137892 0 174 -0.137892 1
gene 1 50 20 0.43089 0 175 0.345554 1
gene 1 4 40 0.410798 0 181 0.410798 1
gene 1 9 58 0.950875 0 197 0.200875 1
gene 1 58 20 0.0826542 0 198 0.0206636 1
gene 1 17 40 0.289579 0 200 0.289579 1
gene 1 11 60 0.824993 0 206 0.574993 1
gene 1 60 22 0.0537511 0 207 0.0755686 1
gene 1 18 50 0.451786 0 221 0.451786 1
gene 1 30 58 -0.346693 0 255 -0.346693 1
genomeend 2438
genomestart 2459
trait 1 0.768296 0.636542 0.291914 0.0164466 0.0681269 0.00435196 0.236009 0.00225215 
node 1 1 1 1 0
node 2 1 1 1 0
node 3 1 1 1 0
node 4 1 1 1 0
node 5 1 1 1 0
node 6 1 1 1 0
node 7 1 1 1 0
node 8 1 1 1 0
node 9 1 1 1 0
node 10 1 1 1 0
node 11 1 1 1 0
node 12 1 1 1 0
node 13 1 1 1 0
node 14 1 1 1 0
node 15 1 1 1 0
node 16 1 1 1 0
node 17 1 1 1 0
node 18 1 1 1 0
node 19 1 1 3 0
node 20 1 0 2 0
node 21 1 0 2 0
node 22 1 0 2 0
node 23 1 0 2 0
node 30 1 0 0 0
node 37 1 0 0 0
node 40 1 0 0 0
node 50 1 0 0 0
node 58 1 0 0 0
node 60 1 0 0 0
node 74 1 0 0 0
node 76 1 0 0 0
gene 1 1 20 -0.25107 0 1 -0.25107 1
gene 1 2 20 0.254957 0 2 0.254957 1
gene 1 3 20 -0.517885 0 3 -0.517885 1
gene 1 4 20 0.280531 0 4 0.280531 1
gene 1 5 20 1.84784 0 5 1.84784 1
gene 1 6 20 0.280817 0 6 0.280817 1
gene 1 7 20 0.483135 0 7 0.483135 1
gene 1 8 20 0.333269 0 8 0.333269 1
gene 1 9 20 0.976037 0 9 0.976037 1
gene 1 10 20 -0.282203 0 10 -0.282203 1
gene 1 11 20 0.403735 0 11 0.403735 1
gene 1 12 20 0.0102533 0 12 0.0102533 1
gene 1 13 20 -1.80327 0 13 -1.80327 1
gene 1 14 20 -0.941794 0 14 -0.941794 1
gene 1 15 20 -0.468637 0 15 -0.468637 1
gene 1 16 20 2.00072 0 16 2.00072 1
gene 1 17 20 1.61744 0 17 1.61744 1
gene 1 18 20 -0.0235196 0 18 -0.0235196 1
gene 1 19 20 1.72282 0 19 1.72282 1
gene 1 1 21 0.98565 0 20 0.98565 1
gene 1 2 21 0.209651 0 21 0.209651 1
gene 1 3 21 0.307684 0 22 0.307684 1
gene 1 4 21 0.98093 0 23 0.98093 1
gene 1 5 21 -0.652323 0 24 -0.652323 1
gene 1 6 21 0.109658 0 25 0.109658 1
gene 1 7 21 0.252883 0 26 0.252883 1
gene 1 8 21 0.382354 0 27 0.382354 1
gene 1 9 21 -0.131726 0 28 -0.131726 1
gene 1 10 21 -0.794074 0 29 -0.794074 1
gene 1 11 21 -1.21909 0 30 -1.21909 1
gene 1 12 21 0.48578 0 31 0.48578 1
gene 1 13 21 -0.534956 0 32 -0.534956 1
gene 1 14 21 -1.44367 0 33 -1.44367 1
gene 1 15 21 -0.0578755 0 34 -0.0578755 1
gene 1 16 21 -0.14723 0 35 -0.14723 1
gene 1 17 21 -0.234185 0 36 -0.234185 1
gene 1 18 21 -0.956063 0 37 -0.956063 1
gene 1 19 21 0.245392 0 38 0.245392 1
gene 1 1 22 -0.30917 0 39 -0.30917 1
gene 1 2 22 0.377684 0 40 0.377684 1
gene 1 3 22 0.0722038 0 41 0.0722038 1
gene 1 4 22 -0.531323 0 42 -0.531323 1
gene 1 5 22 0.198128 0 43 0.198128 1
gene 1 6 22 -0.37052 0 44 -0.37052 1
gene 1 7 22 -0.625443 0 45 -0.625443 1
gene 1 8 22 0.900611 0 46 0.900611 1
gene 1 9 22 0.0377738 0 47 0.0377738 1
gene 1 10 22 -0.119183 0 48 -0.119183 1
gene 1 11 22 -0.0317703 0 49 -0.0317703 0
gene 1 12 22 -0.00198516 0 50 -0.00198516 1
gene 1 13 22 -0.440952 0 51 -0.440952 1
gene 1 14 22 -0.272367 0 52 -0.272367 1
gene 1 15 22 -0.171898 0 53 -0.171898 1
gene 1 16 22 0.385825 0 54 0.385825 0
gene 1 17 22 0.0988214 0 55 0.0988214 1
gene 1 18 22 -0.356122 0 56 -0.356122 1
gene 1 19 22 0.553297 0 57 0.553297 1
gene 1 1 23 1.12389 0 58 1.12389 1
gene 1 2 23 0.483826 0 59 0.483826 1
gene 1 3 23 0.179034 0 60 0.179034 1
gene 1 4 23 -0.45584 0 61 -0.45584 1
gene 1 5 23 0.747027 0 62 0.747027 1
gene 1 6 23 -0.517714 0 63 -0.517714 1
gene 1 7 23 0.385292 0 64 0.385292 1
gene 1 8 23 0.396026 0 65 0.396026 1
gene 1 9 23 -0.0964219 0 66 -0.0964219 1
gene 1 10 23 -0.0573604 0 67 -0.0573604 1
gene 1 11 23 -0.219093 0 68 -0.219093 1
gene 1 12 23 -0.549643 0 69 -0.549643 1
gene 1 13 23 -0.327761 0 70 -0.327761 1
gene 1 14 23 0.154976 0 71 0.154976 1
gene 1 15 23 0.266736 0 72 0.266736 1
gene 1 16 23 -0.473204 0 73 -0.473204 1
gene 1 17 23 -0.991251 0 74 -0.991251 1
gene 1 18 23 -0.231206 0 75 -0.231206 1
gene 1 19 23 -0.595732 0 76 -0.595732 1
gene 1 21 22 0.497509 0 77 0.497509 1
gene 1 22 23 0.152839 0 87 0.152839 1
gene 1 2 30 0.460604 0 103 0.460604 1
gene 1 30 22 0.41407 0 104 0.41407 1
gene 1 15 30 -1.23372 0 117 -1.23372 1
gene 1 16 37 0.405892 0 124 0.405892 1
gene 1 37 22 -0.101648 0 125 -0.140438 1
gene 1 22 22 0.505579 1 128 0.505579 1
gene 1 14 40 1.16918 0 132 1.16918 1
gene 1 40 23 0.250815 0 133 0.250815 1
gene 1 16 30 0.0794554 0 135 0 1
gene 1 10 40 -0.738736 0 140 -0.738736 1
gene 1 17 50 -0.0781562 0 174 -0.140656 1
gene 1 50 20 0.429322 0 175 0.0879771 1
gene 1 4 40 0.410798 0 181 0.410798 1
gene 1 9 58 1 0 197 0 1
gene 1 58 20 0.0826542 0 198 0 0
gene 1 17 40 0.336112 0 200 0.336112 1
gene 1 11 60 1 0 206 0 1
gene 1 60 22 -0.0872699 0 207 0 1
gene 1 14 74 1 0 251 0 1
gene 1 74 40 0.338879 0 252 0 1
gene 1 58 76 1 0 256 0 1
gene 1 76 20 0.0247963 0 257 0 1
genomeend 2459
genomestart 2471
trait 1 0.755969 0.59588 0.243262 0.0190164 0.0682547 0.00503195 0.247448 0.00260405 
node 1 1 1 1 0
node 2 1 1 1 0
node 3 1 1 1 0
node 4 1 1 1 0
node 5 1 1 1 0
node 6 1 1 1 0
node 7 1 1 1 0
node 8 1 1 1 0
node 9 1 1 1 0
node 10 1 1 1 0
node 11 1 1 1 0
node 12 1 1 1 0
node 13 1 1 1 0
node 14 1 1 1 0
node 15 1 1 1 0
node 16 1 1 1 0
node 17 1 1 1 0
node 18 1 1 1 0
node 19 1 1 3 0
node 20 1 0 2 0
node 21 1 0 2 0
node 22 1 0 2 0
node 23 1 0 2 0
node 30 1 0 0 0
node 37 1 0 0 0
node 40 1 0 0 0
node 50 1 0 0 0
node 58 1 0 0 0
node 60 1 0 0 0
gene 1 1 20 -0.25107 0 1 -0.25107 1
gene 1 2 20 0.402863 0 2 0.402863 1
gene 1 3 20 -0.0970446 0 3 -0.0970446 1
gene 1 4 20 0.29029 0 4 0.29029 1
gene 1 5 20 1.84784 0 5 1.84784 1
gene 1 6 20 0.478126 0 6 0.478126 1
gene 1 7 20 0.800876 0 7 0.800876 1
gene 1 8 20 0.331336 0 8 0.331336 1
gene 1 9 20 1.06006 0 9 1.06006 0
gene 1 10 20 -0.138275 0 10 -0.138275 1
gene 1 11 20 0.423709 0 11 0.423709 1
gene 1 12 20 0.0596352 0 12 0.0596352 1
gene 1 13 20 -1.55711 0 13 -1.55711 1
gene 1 14 20 -0.820068 0 14 -0.820068 1
gene 1 15 20 -0.528933 0 15 -0.528933 1
gene 1 16 20 2.01829 0 16 2.01829 1
gene 1 17 20 1.46263 0 17 1.46263 1
gene 1 18 20 -0.0235196 0 18 -0.0235196 1
gene 1 19 20 1.6547 0 19 1.6547 1
gene 1 1 21 1.16404 0 20 1.16404 1
gene 1 2 21 0.209651 0 21 0.209651 1
gene 1 3 21 0.526912 0 22 0.526912 1
gene 1 4 21 1.20716 0 23 1.20716 1
gene 1 5 21 -0.652323 0 24 -0.652323 1
gene 1 6 21 0.109658 0 25 0.109658 1
gene 1 7 21 0.0294282 0 26 0.0294282 1
gene 1 8 21 -0.075658 0 27 -0.075658 1
gene 1 9 21 -0.081884 0 28 -0.081884 1
gene 1 10 21 -0.572968 0 29 -0.572968 1
gene 1 11 21 -1.21909 0 30 -1.21909 1
gene 1 12 21 0.397447 0 31 0.397447 1
gene 1 13 21 -0.435311 0 32 -0.435311 1
gene 1 14 21 -1.27883 0 33 -1.27883 1
gene 1 15 21 0.174546 0 34 0.174546 1
gene 1 16 21 -0.153895 0 35 -0.153895 1
gene 1 17 21 -0.231602 0 36 -0.231602 1
gene 1 18 21 -0.956063 0 37 -0.956063 1
gene 1 19 21 0.21623 0 38 0.21623 1
gene 1 1 22 -0.325527 0 39 -0.325527 1
gene 1 2 22 0.412751 0 40 0.412751 0
gene 1 3 22 0.056278 0 41 0.056278 1
gene 1 4 22 -0.482297 0 42 -0.482297 1
gene 1 5 22 0.104366 0 43 0.104366 1
gene 1 6 22 -0.514531 0 44 -0.514531 1
gene 1 7 22 -0.41146 0 45 -0.41146 1
gene 1 8 22 0.927452 0 46 0.927452 1
gene 1 9 22 0.234593 0 47 0.234593 1
gene 1 10 22 -0.226957 0 48 -0.226957 1
gene 1 11 22 -0.205397 0 49 -0.205397 1
gene 1 12 22 0.0208494 0 50 0.0208494 1
gene 1 13 22 -0.11832 0 51 -0.11832 1
gene 1 14 22 -0.0598935 0 52 -0.0598935 1
gene 1 15 22 -0.171898 0 53 -0.171898 1
gene 1 16 22 0.385825 0 54 0.385825 0
gene 1 17 22 0.0988214 0 55 0.0988214 1
gene 1 18 22 -0.35709 0 56 -0.35709 1
gene 1 19 22 0.56246 0 57 0.56246 1
gene 1 1 23 1.10588 0 58 1.10588 1
gene 1 2 23 0.555499 0 59 0.555499 1
gene 1 3 23 0.179034 0 60 0.179034 1
gene 1 4 23 -0.600392 0 61 -0.600392 1
gene 1 5 23 0.926048 0 62 0.926048 1
gene 1 6 23 -0.453119 0 63 -0.453119 1
gene 1 7 23 0.456646 0 64 0.456646 1
gene 1 8 23 0.393547 0 65 0.393547 1
gene 1 9 23 -0.0852989 0 66 -0.0852989 1
gene 1 10 23 -0.0573604 0 67 -0.0573604 1
gene 1 11 23 -0.219093 0 68 -0.219093 1
gene 1 12 23 -0.347634 0 69 -0.347634 1
gene 1 13 23 -0.327761 0 70 -0.327761 1
gene 1 14 23 0.154976 0 71 0.154976 1
gene 1 15 23 0.266736 0 72 0.266736 1
gene 1 16 23 -0.356948 0 73 -0.356948 1
gene 1 17 23 -0.743778 0 74 -0.743778 1
gene 1 18 23 -0.154055 0 75 -0.154055 1
gene 1 19 23 -0.593748 0 76 -0.593748 1
gene 1 21 22 0.543938 0 77 0.543938 1
gene 1 22 23 0.152839 0 87 0.152839 1
gene 1 2 30 0.460604 0 103 0.460604 1
gene 1 30 22 0.41407 0 104 0.41407 1
gene 1 15 30 -1.18302 0 117 -1.18302 1
gene 1 16 37 0.409065 0 124 0.409065 1
gene 1 37 22 -0.101648 0 125 -0.140438 1
gene 1 22 22 0.390938 1 128 0.390938 1
gene 1 14 40 1.20877 0 132 1.20877 1
gene 1 40 23 0.250815 0 133 0.250815 1
gene 1 16 30 0.181209 0 135 0.181209 1
gene 1 10 40 -0.568416 0 140 -0.568416 1
gene 1 17 37 -0.315706 0 150 0 1
gene 1 17 50 -0.137892 0 174 -0.137892 1
gene 1 50 20 0.200622 0 175 0.0299495 1
gene 1 4 40 0.410798 0 181 0.410798 1
gene 1 9 58 1 0 197 0 1
gene 1 58 20 0.0826542 0 198 0 1
gene 1 17 40 0.243045 0 200 0.243045 1
gene 1 11 60 1 0 206 0.5 1
gene 1 60 22 -0.0872699 0 207 -0.043635 1
gene 1 18 50 0.451786 0 221 0.451786 1
gene 1 30 58 -0.346693 0 255 -0.346693 1
genomeend 2471
genomestart 2477
trait 1 0.745343 0.42621 0.0243262 0.0331502 0.0691495 0.00877192 0.344681 0.0045395 
node 1 1 1 1 0
node 2 1 1 1 0
node 3 1 1 1 0
node 4 1 1 1 0
node 5 1 1 1 0
node 6 1 1 1 0
node 7 1 1 1 0
node 8 1 1 1 0
node 9 1 1 1 0
node 10 1 1 1 0
node 11 1 1 1 0
node 12 1 1 1 0
node 13 1 1 1 0
node 14 1 1 1 0
node 15 1 1 1 0
node 16 1 1 1 0
node 17 1 1 1 0
node 18 1 1 1 0
node 19 1 1 3 0
node 20 1 0 2 0
node 21 1 0 2 0
node 22 1 0 2 0
node 23 1 0 2 0
node 30 1 0 0 0
node 37 1 0 0 0
node 40 1 0 0 0
node 50 1 0 0 0
node 58 1 0 0 0
node 60 1 0 0 0
gene 1 1 20 -0.47137 0 1 -0.47137 1
gene 1 2 20 0.516271 0 2 0.516271 1
gene 1 3 20 0.399573 0 3 0.399573 1
gene 1 4 20 -0.0982227 0 4 -0.0982227 1
gene 1 5 20 1.97166 0 5 1.97166 1
gene 1 6 20 0.907162 0 6 0.907162 1
gene 1 7 20 0.66008 0 7 0.66008 1
gene 1 8 20 0.656194 0 8 0.656194 1
gene 1 9 20 1.08117 0 9 1.08117 1
gene 1 10 20 0.0807257 0 10 0.0807257 1
gene 1 11 20 0.302384 0 11 0.302384 1
gene 1 12 20 0.522524 0 12 0.522524 1
gene 1 13 20 -1.47833 0 13 -1.47833 1
gene 1 14 20 -0.608582 0 14 -0.608582 1
gene 1 15 20 0.0101814 0 15 0.0101814 1
gene 1 16 20 1.94538 0 16 1.94538 1
gene 1 17 20 1.52534 0 17 1.52534 1
gene 1 18 20 0.16771 0 18 0.16771 1
gene 1 19 20 1.84597 0 19 1.84597 1
gene 1 1 21 0.131744 0 20 0.131744 1
gene 1 2 21 -0.234745 0 21 -0.234745 1
gene 1 3 21 0.0485223 0 22 0.0485223 1
gene 1 4 21 1.46476 0 23 1.46476 1
gene 1 5 21 -0.652635 0 24 -0.652635 1
gene 1 6 21 -0.321563 0 25 -0.321563 1
gene 1 7 21 0.325004 0 26 0.325004 1
gene 1 8 21 -0.0711687 0 27 -0.0711687 1
gene 1 9 21 -0.210389 0 28 -0.210389 1
gene 1 10 21 -0.0807919 0 29 -0.0807919 1
gene 1 11 21 -1.11011 0 30 -1.11011 1
gene 1 12 21 0.492069 0 31 0.492069 1
gene 1 13 21 -0.596404 0 32 -0.596404 1
gene 1 14 21 -1.02251 0 33 -1.02251 1
gene 1 15 21 -0.453301 0 34 -0.453301 1
gene 1 16 21 0.171283 0 35 0.171283 1
gene 1 17 21 -0.286258 0 36 -0.286258 1
gene 1 18 21 -0.61089 0 37 -0.61089 1
gene 1 19 21 -0.0681651 0 38 -0.0681651 1
gene 1 1 22 -0.299935 0 39 -0.299935 1
gene 1 2 22 0.660787 0 40 0.660787 0
gene 1 3 22 0.0153887 0 41 0.0153887 1
gene 1 4 22 -0.762662 0 42 -0.762662 1
gene 1 5 22 -0.436495 0 43 -0.436495 1
gene 1 6 22 0.329026 0 44 0.329026 1
gene 1 7 22 -0.236415 0 45 -0.236415 1
gene 1 8 22 0.620582 0 46 0.620582 1
gene 1 9 22 -0.0132182 0 47 -0.0132182 1
gene 1 10 22 -0.593555 0 48 -0.593555 1
gene 1 11 22 -0.188334 0 49 -0.188334 0
gene 1 12 22 -0.0199878 0 50 -0.0199878 1
gene 1 13 22 0.208226 0 51 0.208226 1
gene 1 14 22 0.155287 0 52 0.155287 1
gene 1 15 22 0.195342 0 53 0.195342 1
gene 1 16 22 0.94634 0 54 0.94634 0
gene 1 17 22 -0.469372 0 55 -0.469372 1
gene 1 18 22 -0.150767 0 56 -0.150767 1
gene 1 19 22 -0.0352309 0 57 -0.0352309 1
gene 1 1 23 1.01176 0 58 1.01176 1
gene 1 2 23 0.426533 0 59 0.426533 1
gene 1 3 23 0.533377 0 60 0.533377 1
gene 1 4 23 -0.715386 0 61 -0.715386 1
gene 1 5 23 0.495326 0 62 0.495326 1
gene 1 6 23 -0.269015 0 63 -0.269015 1
gene 1 7 23 0.824124 0 64 0.824124 1
gene 1 8 23 0.687489 0 65 0.687489 1
gene 1 9 23 -0.509936 0 66 -0.509936 1
gene 1 10 23 -0.150997 0 67 -0.150997 1
gene 1 11 23 -0.0354461 0 68 -0.0354461 1
gene 1 12 23 -0.579665 0 69 -0.579665 1
gene 1 13 23 0.271932 0 70 0.271932 1
gene 1 14 23 0.584729 0 71 0.584729 1
gene 1 15 23 0.199006 0 72 0.199006 1
gene 1 16 23 -0.393475 0 73 -0.393475 1
gene 1 17 23 -0.765511 0 74 -0.765511 1
gene 1 18 23 0.209895 0 75 0.209895 1
gene 1 19 23 -0.741334 0 76 -0.741334 1
gene 1 21 22 -0.283009 0 77 -0.283009 1
gene 1 22 23 0.0611561 0 87 0.0611561 1
gene 1 2 30 1.27772 0 103 1.27772 1
gene 1 30 22 -0.364023 0 104 -0.364023 1
gene 1 15 30 -1.13685 0 117 -1.13685 1
gene 1 16 37 0.763475 0 124 0.763475 1
gene 1 37 22 0.53047 0 125 0.53047 1
gene 1 22 22 -0.0754075 1 128 -0.0754075 1
gene 1 14 40 2.21205 0 132 2.21205 1
gene 1 40 23 -0.701978 0 133 -0.701978 1
gene 1 16 30 0.181209 0 135 0.181209 1
gene 1 10 40 -0.228762 0 140 -0.228762 1
gene 1 17 37 -0.315706 0 150 -0.315706 1
gene 1 17 50 -0.325269 0 174 -0.325269 1
gene 1 50 20 0.593462 0 175 0.593462 1
gene 1 4 40 -0.30859 0 181 -0.30859 1
gene 1 9 58 0.990184 0 197 0.990184 1
gene 1 58 20 -0.168445 0 198 -0.168445 1
gene 1 17 40 0.0761476 0 200 0.0761476 1
gene 1 11 60 -0.308491 0 206 -0.308491 1
gene 1 60 22 0.459336 0 207 0.459336 1
gene 1 18 50 0.401445 0 221 0.401445 1
gene 1 30 58 -0.724967 0 255 -0.724967 1
genomeend 2477
genomestart 2478
trait 1 0.768296 0.636542 0.291914 0.0164466 0.0681269 0.00435196 0.236009 0.00225215 
node 1 1 1 1 0
node 2 1 1 1 0
node 3 1 1 1 0
node 4 1 1 1 0
node 5 1 1 1 0
node 6 1 1 1 0
node 7 1 1 1 0
node 8 1 1 1 0
node 9 1 1 1 0
node 10 1 1 1 0
node 11 1 1 1 0
node 12 1 1 1 0
node 13 1 1 1 0
node 14 1 1 1 0
node 15 1 1 1 0
node 16 1 1 1 0
node 17 1 1 1 0
node 18 1 1 1 0
node 19 1 1 3 0
node 20 1 0 2 0
node 21 1 0 2 0
node 22 1 0 2 0
node 23 1 0 2 0
node 30 1 0 0 0
node 37 1 0 0 0
node 40 1 0 0 0
node 50 1 0 0 0
node 58 1 0 0 0
node 60 1 0 0 0
node 74 1 0 0 0
node 76 1 0 0 0
gene 1 1 20 0.220508 0 1 0.220508 1
gene 1 2 20 -0.145141 0 2 -0.145141 1
gene 1 3 20 -0.0609979 0 3 -0.0609979 1
gene 1 4 20 -0.2129 0 4 -0.2129 1
gene 1 5 20 1.58027 0 5 1.58027 1
gene 1 6 20 -0.0386533 0 6 -0.0386533 1
gene 1 7 20 0.358614 0 7 0.358614 1
gene 1 8 20 0.172958 0 8 0.172958 1
gene 1 9 20 1.38819 0 9 1.38819 1
gene 1 10 20 -0.658402 0 10 -0.658402 1
gene 1 11 20 0.441669 0 11 0.441669 1
gene 1 12 20 0.247451 0 12 0.247451 1
gene 1 13 20 -1.63109 0 13 -1.63109 1
gene 1 14 20 -0.717211 0 14 -0.717211 1
gene 1 15 20 -0.376913 0 15 -0.376913 1
gene 1 16 20 1.55154 0 16 1.55154 1
gene 1 17 20 1.60798 0 17 1.60798 1
gene 1 18 20 -0.32304 0 18 -0.32304 1
gene 1 19 20 1.89179 0 19 1.89179 1
gene 1 1 21 0.557117 0 20 0.557117 1
gene 1 2 21 0.418858 0 21 0.418858 1
gene 1 3 21 0.414164 0 22 0.414164 1
gene 1 4 21 1.15576 0 23 1.15576 1
gene 1 5 21 -0.388563 0 24 -0.388563 1
gene 1 6 21 0.550492 0 25 0.550492 1
gene 1 7 21 0.349852 0 26 0.349852 1
gene 1 8 21 0.847439 0 27 0.847439 1
gene 1 9 21 0.31598 0 28 0.31598 1
gene 1 10 21 -0.320778 0 29 -0.320778 1
gene 1 11 21 -1.11064 0 30 -1.11064 1
gene 1 12 21 0.29507 0 31 0.29507 1
gene 1 13 21 -0.879854 0 32 -0.879854 1
gene 1 14 21 -1.57483 0 33 -1.57483 1
gene 1 15 21 -0.164245 0 34 -0.164245 1
gene 1 16 21 -0.427548 0 35 -0.427548 1
