genomestart 40056
trait 1 0.362534 0.445503 0.430762 0.34481 0.878293 0.662694 0.988434 0.537854 
node 1 1 1 1 0
node 2 1 1 1 0
node 3 1 1 1 0
node 4 1 1 1 0
node 5 1 1 1 0
node 6 1 1 1 0
node 7 1 1 1 0
node 8 1 1 1 0
node 9 1 1 1 0
node 10 1 1 1 0
node 11 1 1 1 0
node 12 1 1 1 0
node 13 1 1 1 0
node 14 1 1 1 0
node 15 1 1 1 0
node 16 1 1 1 0
node 17 1 1 1 0
node 18 1 1 1 0
node 19 1 1 3 0
node 20 1 0 2 0
node 21 1 0 2 0
node 22 1 0 2 0
node 23 1 0 2 0
node 24 1 0 0 0
node 26 1 0 0 0
node 27 1 0 0 0
node 29 1 0 0 0
node 31 1 0 0 0
node 32 1 0 0 0
node 37 1 0 0 0
node 43 1 0 0 0
node 46 1 0 0 0
node 49 1 0 0 0
node 51 1 0 0 0
node 62 1 0 0 0
node 66 1 0 0 0
node 69 1 0 0 0
node 73 1 0 0 0
node 79 1 0 0 0
node 81 1 0 0 0
node 99 1 0 0 0
node 101 1 0 0 0
node 109 1 0 0 0
node 123 1 0 0 0
node 125 1 0 0 0
node 127 1 0 0 0
node 135 1 0 0 0
node 142 1 0 0 0
node 146 1 0 0 0
node 155 1 0 0 0
node 167 1 0 0 0
node 194 1 0 0 0
node 251 1 0 0 0
gene 1 1 20 1.19985 0 1 1.19985 1
gene 1 2 20 -0.228665 0 2 -0.228665 1
gene 1 3 20 0.144247 0 3 0.144247 0
gene 1 4 20 0.168756 0 4 0.168756 1
gene 1 5 20 0.564782 0 5 0.564782 1
gene 1 6 20 -0.206613 0 6 -0.206613 0
gene 1 7 20 0.338543 0 7 0.338543 1
gene 1 8 20 0.0861938 0 8 0.0861938 1
gene 1 9 20 1.9821 0 9 1.9821 1
gene 1 10 20 0.786808 0 10 0.786808 1
gene 1 11 20 0.733073 0 11 0.733073 1
gene 1 12 20 1.74774 0 12 1.74774 1
gene 1 13 20 -0.0608265 0 13 -0.0608265 1
gene 1 14 20 -0.636601 0 14 -0.636601 1
gene 1 15 20 0.398684 0 15 0.398684 1
gene 1 16 20 -0.67967 0 16 -0.67967 1
gene 1 17 20 -0.158517 0 17 -0.158517 1
gene 1 18 20 -0.615959 0 18 -0.615959 1
gene 1 19 20 0.807113 0 19 0.807113 1
gene 1 1 21 -1.62891 0 20 -1.62891 1
gene 1 2 21 -1.16242 0 21 -1.16242 1
gene 1 3 21 -0.126784 0 22 -0.126784 1
gene 1 4 21 -1.01912 0 23 -1.01912 1
gene 1 5 21 -0.227937 0 24 -0.227937 1
gene 1 6 21 1.64992 0 25 1.64992 1
gene 1 7 21 -0.566482 0 26 -0.566482 1
gene 1 8 21 0.354039 0 27 0.354039 1
gene 1 9 21 -0.288598 0 28 -0.288598 1
gene 1 10 21 -0.180559 0 29 -0.180559 1
gene 1 11 21 1.11741 0 30 1.11741 1
gene 1 12 21 -0.764982 0 31 -0.764982 1
gene 1 13 21 0.395489 0 32 0.395489 1
gene 1 14 21 -1.17775 0 33 -1.17775 1
gene 1 15 21 0.694315 0 34 0.694315 1
gene 1 16 21 1.16625 0 35 1.16625 1
gene 1 17 21 1.37502 0 36 1.37502 1
gene 1 18 21 1.47711 0 37 1.47711 1
gene 1 19 21 -0.748752 0 38 -0.748752 1
gene 1 1 22 1.34474 0 39 1.34474 1
gene 1 2 22 0.327944 0 40 0.327944 1
gene 1 3 22 1.11749 0 41 1.11749 1
gene 1 4 22 -0.739698 0 42 -0.739698 1
gene 1 5 22 0.315308 0 43 0.315308 1
gene 1 6 22 1.78671 0 44 1.78671 1
gene 1 7 22 0.624772 0 45 0.624772 1
gene 1 8 22 -1.01563 0 46 -1.01563 1
gene 1 9 22 -0.00648937 0 47 -0.00648937 1
gene 1 10 22 0.260657 0 48 0.260657 1
gene 1 11 22 0.567421 0 49 0.567421 1
gene 1 12 22 -0.317642 0 50 -0.317642 1
gene 1 13 22 -0.281749 0 51 -0.281749 1
gene 1 14 22 -1.32559 0 52 -1.32559 0
gene 1 15 22 -0.22263 0 53 -0.22263 1
gene 1 16 22 -0.0755428 0 54 -0.0755428 1
gene 1 17 22 0.793187 0 55 0.793187 1
gene 1 18 22 0.0683787 0 56 0.0683787 1
gene 1 19 22 1.36271 0 57 1.36271 1
gene 1 1 23 -0.483396 0 58 -0.483396 1
gene 1 2 23 -0.689761 0 59 -0.689761 1
gene 1 3 23 0.0257275 0 60 0.0257275 1
gene 1 4 23 -0.144039 0 61 -0.144039 1
gene 1 5 23 0.394888 0 62 0.394888 1
gene 1 6 23 -0.534201 0 63 -0.534201 1
gene 1 7 23 -0.337084 0 64 -0.337084 1
gene 1 8 23 0.227878 0 65 0.227878 1
gene 1 9 23 -0.663509 0 66 -0.663509 1
gene 1 10 23 1.08216 0 67 1.08216 1
gene 1 11 23 -0.380952 0 68 -0.380952 1
gene 1 12 23 1.24619 0 69 1.24619 1
gene 1 13 23 0.559586 0 70 0.559586 1
gene 1 14 23 0.273783 0 71 0.273783 1
gene 1 15 23 2.12813 0 72 2.12813 1
gene 1 16 23 0.454371 0 73 0.454371 1
gene 1 17 23 1.01336 0 74 1.01336 1
gene 1 18 23 0.531403 0 75 0.531403 1
gene 1 19 23 -0.80899 0 76 -0.80899 1
gene 1 20 21 -1.27864 0 77 -1.27864 1
gene 1 1 24 -0.986353 0 78 -0.986353 1
gene 1 24 23 -0.0553021 0 79 -0.0553021 1
gene 1 16 26 0.137741 0 86 0.137741 1
gene 1 26 23 -0.571114 0 87 -0.571114 1
gene 1 14 27 0.298278 0 88 0.298278 1
gene 1 27 22 0.354951 0 89 0.354951 1
gene 1 1 27 0.294152 0 98 0.294152 1
gene 1 26 21 -0.627003 0 100 -0.627003 1
gene 1 23 21 1.27749 0 102 1.27749 1
gene 1 23 22 -0.656967 0 104 -0.656967 1
gene 1 6 26 1.87625 0 105 1.87625 1
gene 1 27 27 -0.688231 1 110 -0.688231 1
gene 1 15 26 0.590629 0 112 0.590629 1
gene 1 15 29 -0.72686 0 113 -0.72686 1
gene 1 29 21 -0.770594 0 114 -0.770594 1
gene 1 24 31 -1.16144 0 120 -1.16144 1
gene 1 31 23 -0.715397 0 121 -0.715397 1
gene 1 1 32 -0.497041 0 122 -0.497041 1
gene 1 32 20 -0.884276 0 123 -0.884276 1
gene 1 12 37 1.28876 0 141 1.28876 1
gene 1 37 20 2.47979 0 142 2.47979 1
gene 1 13 43 0.13306 0 156 0.13306 1
gene 1 43 20 -0.946063 0 157 -0.946063 1
gene 1 16 46 0.406501 0 169 0.406501 1
gene 1 46 20 0.565876 0 170 0.565876 1
gene 1 17 49 -0.0474609 0 176 -0.0474609 1
gene 1 49 23 0.771293 0 177 0.771293 1
gene 1 14 51 0.440275 0 181 0.440275 1
gene 1 51 21 0.122573 0 182 0.122573 1
gene 1 13 26 0.73072 0 205 0.73072 1
gene 1 24 26 -1.59746 0 212 -1.59746 1
gene 1 13 62 0.645744 0 221 0.645744 1
gene 1 62 21 -0.0779865 0 222 -0.0779865 1
gene 1 26 32 -0.737941 0 228 -0.737941 1
gene 1 3 66 2.63936 0 232 2.63936 1
gene 1 66 22 0.615219 0 233 0.615219 1
gene 1 20 69 -1.14756 0 247 -1.14756 1
gene 1 69 21 0.821213 0 248 0.821213 1
gene 1 4 26 -1.87259 0 254 -1.87259 1
gene 1 17 31 0.576427 0 257 0.576427 1
gene 1 14 69 -0.897448 0 265 -0.897448 1
gene 1 24 49 -0.0329433 0 269 -0.0329433 1
gene 1 4 73 0.607892 0 274 0.607892 1
gene 1 73 23 0.485223 0 275 0.485223 1
gene 1 24 22 -0.571654 0 297 -0.571654 1
gene 1 13 79 -0.0787231 0 304 -0.0787231 1
gene 1 79 62 1.081 0 305 1.081 1
gene 1 24 81 0.803726 0 326 0.803726 1
gene 1 81 26 -0.575653 0 327 -0.575653 1
gene 1 11 43 0.784199 0 344 0.784199 1
gene 1 43 46 0.879295 0 349 0.879295 1
gene 1 18 26 -0.0611875 0 350 -0.0611875 0
gene 1 31 31 -0.925948 1 358 -0.925948 1
gene 1 16 62 -0.130065 0 379 -0.130065 0
gene 1 3 99 0.105482 0 420 0.105482 1
gene 1 99 20 0.333995 0 421 0.333995 1
gene 1 31 101 -0.411815 1 425 -0.411815 1
gene 1 101 31 0.00879575 0 426 0.00879575 1
gene 1 12 109 0.24139 0 472 0.24139 1
gene 1 109 21 0.796547 0 473 0.796547 1
gene 1 18 123 -0.391072 0 554 -0.391072 1
gene 1 123 26 0.330898 0 555 0.330898 1
gene 1 31 49 -1.11916 0 567 -1.11916 1
gene 1 24 125 0.806474 0 573 0.806474 1
gene 1 125 22 -0.316826 0 574 -0.316826 1
gene 1 6 49 -0.761203 0 584 -0.761203 1
gene 1 31 22 1.33445 0 587 1.33445 1
gene 1 6 109 -0.129653 0 589 -0.129653 1
gene 1 2 127 -0.0496418 0 595 -0.0496418 1
gene 1 127 20 -0.88425 0 596 -0.88425 1
gene 1 5 49 -0.258332 0 634 -0.258332 1
gene 1 13 69 -1.30156 0 636 -1.30156 1
gene 1 5 109 -0.582142 0 653 -0.582142 1
gene 1 11 135 -0.273411 0 654 -0.273411 1
gene 1 135 20 1.83179 0 655 1.83179 1
gene 1 16 99 -0.014514 0 665 -0.014514 1
gene 1 127 51 1.17627 0 670 1.17627 1
gene 1 16 142 -0.536928 0 719 -0.536928 1
gene 1 142 62 -0.279044 0 720 -0.279044 1
gene 1 127 127 -0.221028 1 721 -0.221028 1
gene 1 127 24 -0.0916647 0 730 -0.0916647 1
gene 1 11 146 0.311956 0 751 0.311956 1
gene 1 146 43 -0.375857 0 752 -0.375857 1
gene 1 6 155 -0.588031 0 817 -0.588031 1
gene 1 155 20 0.556049 0 818 0.556049 1
gene 1 7 69 -0.255589 0 834 -0.255589 1
gene 1 127 62 0.089434 0 861 0.089434 1
gene 1 66 167 0.424206 0 898 0.424206 1
gene 1 167 22 0.0115307 0 899 0.0115307 1
gene 1 123 123 0.275832 1 918 0.275832 1
gene 1 24 123 -0.39319 0 945 -0.39319 1
gene 1 17 123 -0.184251 0 1051 -0.184251 1
gene 1 135 69 -0.00270847 0 1059 -0.00270847 1
gene 1 101 21 -0.306934 0 1084 -0.306934 1
gene 1 37 101 -0.425381 0 1091 -0.425381 1
gene 1 99 123 0.611082 0 1095 0.611082 1
gene 1 17 194 -0.0604392 0 1101 -0.0604392 1
gene 1 194 123 0.000881135 0 1102 0.000881135 1
gene 1 1 101 1.21654 0 1108 1.21654 1
gene 1 109 66 -0.596007 0 1134 -0.596007 1
gene 1 8 66 0.291003 0 1183 0.291003 1
gene 1 109 109 0.267374 1 1212 0.267374 1
gene 1 2 125 -0.0277272 0 1235 -0.0277272 1
gene 1 109 142 0.875796 0 1245 0.875796 1
gene 1 31 69 -0.0217163 0 1246 -0.0217163 1
gene 1 13 123 0.106019 0 1472 0.106019 1
gene 1 125 43 -0.378514 0 1475 -0.378514 1
gene 1 31 167 0.271759 0 1480 0.271759 1
gene 1 142 142 -0.179685 1 1502 -0.179685 1
gene 1 66 37 0.558149 0 1514 0.558149 1
gene 1 37 37 0.224639 1 1645 0.224639 1
gene 1 43 32 0.305983 0 1651 0.305983 1
gene 1 14 135 -0.00129271 0 1701 -0.00129271 1
gene 1 125 251 0.0251223 0 1736 0.0251223 1
gene 1 251 43 1.09233 0 1737 1.09233 1
gene 1 24 79 -0.113367 0 1759 -0.113367 1
genomeend 40056
genomestart 40151
trait 1 0.524162 0.0484471 0.763715 0.19955 0.897823 0.180492 0.615916 0.179435 
node 1 1 1 1 0
node 2 1 1 1 0
node 3 1 1 1 0
node 4 1 1 1 0
node 5 1 1 1 0
node 6 1 1 1 0
node 7 1 1 1 0
node 8 1 1 1 0
node 9 1 1 1 0
node 10 1 1 1 0
node 11 1 1 1 0
node 12 1 1 1 0
node 13 1 1 1 0
node 14 1 1 1 0
node 15 1 1 1 0
node 16 1 1 1 0
node 17 1 1 1 0
node 18 1 1 1 0
node 19 1 1 3 0
node 20 1 0 2 0
node 21 1 0 2 0
node 22 1 0 2 0
node 23 1 0 2 0
node 24 1 0 0 0
node 26 1 0 0 0
node 27 1 0 0 0
node 31 1 0 0 0
node 32 1 0 0 0
node 37 1 0 0 0
node 43 1 0 0 0
node 46 1 0 0 0
node 49 1 0 0 0
node 51 1 0 0 0
node 62 1 0 0 0
node 66 1 0 0 0
node 69 1 0 0 0
node 79 1 0 0 0
node 81 1 0 0 0
node 99 1 0 0 0
node 101 1 0 0 0
node 109 1 0 0 0
node 123 1 0 0 0
node 125 1 0 0 0
node 127 1 0 0 0
node 135 1 0 0 0
node 142 1 0 0 0
node 146 1 0 0 0
node 155 1 0 0 0
node 167 1 0 0 0
node 185 1 0 0 0
node 194 1 0 0 0
node 230 1 0 0 0
node 245 1 0 0 0
gene 1 1 20 0.288288 0 1 0.288288 1
gene 1 2 20 0.432728 0 2 0.432728 1
gene 1 3 20 0.12243 0 3 0.12243 0
gene 1 4 20 -1.30755 0 4 -1.30755 1
gene 1 5 20 1.51906 0 5 1.51906 1
gene 1 6 20 0.279355 0 6 0.279355 0
gene 1 7 20 0.814252 0 7 0.814252 1
gene 1 8 20 -0.172773 0 8 -0.172773 1
gene 1 9 20 -0.626866 0 9 -0.626866 1
gene 1 10 20 -0.436453 0 10 -0.436453 1
gene 1 11 20 0.318985 0 11 0.318985 1
gene 1 12 20 -0.244207 0 12 -0.244207 1
gene 1 13 20 0.306822 0 13 0.306822 1
gene 1 14 20 -0.418873 0 14 -0.418873 1
gene 1 15 20 -0.261064 0 15 -0.261064 1
gene 1 16 20 0.966422 0 16 0.966422 1
gene 1 17 20 -0.407938 0 17 -0.407938 1
gene 1 18 20 -2.11894 0 18 -2.11894 1
gene 1 19 20 -0.0861742 0 19 -0.0861742 1
gene 1 1 21 -0.785837 0 20 -0.785837 1
gene 1 2 21 -1.33334 0 21 -1.33334 1
gene 1 3 21 0.0167953 0 22 0.0167953 1
gene 1 4 21 0.071483 0 23 0.071483 1
gene 1 5 21 -0.0326134 0 24 -0.0326134 1
gene 1 6 21 3 0 25 3 1
gene 1 7 21 -0.544599 0 26 -0.544599 1
gene 1 8 21 0.172218 0 27 0.172218 1
gene 1 9 21 -0.617432 0 28 -0.617432 1
gene 1 10 21 -2.88063 0 29 -2.88063 1
gene 1 11 21 -0.402295 0 30 -0.402295 1
gene 1 12 21 -0.642041 0 31 -0.642041 1
gene 1 13 21 0.0899701 0 32 0.0899701 1
gene 1 14 21 -0.895693 0 33 -0.895693 1
gene 1 15 21 -0.549779 0 34 -0.549779 1
gene 1 16 21 0.0852635 0 35 0.0852635 1
gene 1 17 21 0.0210179 0 36 0.0210179 1
gene 1 18 21 -0.342724 0 37 -0.342724 1
gene 1 19 21 -1.24298 0 38 -1.24298 1
gene 1 1 22 0.310502 0 39 0.310502 1
gene 1 2 22 -0.0561952 0 40 -0.0561952 1
gene 1 3 22 0.0327989 0 41 0.0327989 1
gene 1 4 22 0.277613 0 42 0.277613 1
gene 1 5 22 -0.575466 0 43 -0.575466 1
gene 1 6 22 0.0909236 0 44 0.0909236 1
gene 1 7 22 0.467238 0 45 0.467238 1
gene 1 8 22 0.714384 0 46 0.714384 1
gene 1 9 22 -1.52903 0 47 -1.52903 1
gene 1 10 22 -0.0895531 0 48 -0.0895531 1
gene 1 11 22 -0.243632 0 49 -0.243632 1
gene 1 12 22 0.721701 0 50 0.721701 1
gene 1 13 22 0.640913 0 51 0.640913 1
gene 1 14 22 0.861108 0 52 0.861108 0
gene 1 15 22 -0.602429 0 53 -0.602429 1
gene 1 16 22 0.842205 0 54 0.842205 1
gene 1 17 22 0.220302 0 55 0.220302 1
gene 1 18 22 0.817977 0 56 0.817977 1
gene 1 19 22 -1.15422 0 57 -1.15422 1
gene 1 1 23 -0.360647 0 58 -0.360647 1
gene 1 2 23 -0.537288 0 59 -0.537288 1
gene 1 3 23 -1.46892 0 60 -1.46892 1
gene 1 4 23 0.116229 0 61 0.116229 1
gene 1 5 23 1.46653 0 62 1.46653 1
gene 1 6 23 0.508352 0 63 0.508352 1
gene 1 7 23 2.21713 0 64 2.21713 1
gene 1 8 23 -0.336527 0 65 -0.336527 1
gene 1 9 23 0.259098 0 66 0.259098 1
gene 1 10 23 0.438753 0 67 0.438753 1
gene 1 11 23 -1.09561 0 68 -1.09561 1
gene 1 12 23 1.68479 0 69 1.68479 1
gene 1 13 23 -0.376446 0 70 -0.376446 1
gene 1 14 23 0.165339 0 71 0.165339 1
gene 1 15 23 1.98096 0 72 1.98096 1
gene 1 16 23 1.15329 0 73 1.15329 1
gene 1 17 23 -0.202798 0 74 -0.202798 1
gene 1 18 23 0.176375 0 75 0.176375 1
gene 1 19 23 0.201627 0 76 0.201627 1
gene 1 20 21 1.69794 0 77 1.69794 1
gene 1 1 24 0.743816 0 78 0.743816 1
gene 1 24 23 -0.0424909 0 79 -0.0424909 1
gene 1 16 26 0.486438 0 86 0.486438 1
gene 1 26 23 -0.0544513 0 87 -0.0544513 1
gene 1 14 27 1.57766 0 88 1.57766 1
gene 1 27 22 -0.311682 0 89 -0.311682 1
gene 1 1 27 0.245551 0 98 0.245551 1
gene 1 26 21 0.0820705 0 100 0.0820705 1
gene 1 23 21 0.205047 0 102 0.205047 1
gene 1 23 22 0.95293 0 104 0.95293 1
gene 1 6 26 -0.306659 0 105 -0.306659 1
gene 1 27 27 -0.437409 1 110 -0.437409 1
gene 1 24 31 -0.3652 0 120 -0.3652 1
gene 1 31 23 -1.94452 0 121 -1.94452 1
gene 1 1 32 1.83514 0 122 1.83514 1
gene 1 32 20 -0.108041 0 123 -0.108041 1
gene 1 12 37 0.26349 0 141 0.26349 1
gene 1 37 20 3 0 142 3 1
gene 1 13 43 0.464241 0 156 0.464241 1
gene 1 43 20 0.397459 0 157 0.397459 1
gene 1 16 46 0.0933102 0 169 0.0933102 1
gene 1 46 20 -0.0202178 0 170 -0.0202178 1
gene 1 17 49 1.0734 0 176 1.0734 1
gene 1 49 23 -0.706202 0 177 -0.706202 1
gene 1 14 51 0.0768461 0 181 0.0768461 1
gene 1 51 21 0.366454 0 182 0.366454 1
gene 1 13 26 0.164663 0 205 0.164663 1
gene 1 24 26 -0.95886 0 212 -0.95886 1
gene 1 13 62 -1.72037 0 221 -1.72037 0
gene 1 62 21 -1.6688 0 222 -1.6688 1
gene 1 26 32 0.0630393 0 228 0.0630393 1
gene 1 3 66 -0.86565 0 232 -0.86565 1
gene 1 66 22 1.94738 0 233 1.94738 1
gene 1 20 69 0.692666 0 247 0.692666 1
gene 1 69 21 -0.460499 0 248 -0.460499 1
gene 1 4 26 0.305825 0 254 0.305825 1
gene 1 17 31 -0.555777 0 257 -0.555777 1
gene 1 14 69 0.707521 0 265 0.707521 1
gene 1 24 49 0.792479 0 269 0.792479 1
gene 1 24 22 0.492327 0 297 0.492327 1
gene 1 13 79 -0.0846478 0 304 -0.0846478 1
gene 1 79 62 2.53081 0 305 2.53081 1
gene 1 24 81 -0.348496 0 326 -0.348496 1
gene 1 81 26 -0.0258923 0 327 -0.0258923 1
gene 1 11 43 0.20833 0 344 0.20833 1
gene 1 43 46 0.376994 0 349 0.376994 1
gene 1 18 26 -0.139915 0 350 -0.139915 0
gene 1 31 31 0.0843954 1 358 0.0843954 1
gene 1 16 62 -1.4153 0 379 -1.4153 0
gene 1 3 99 -1.14934 0 420 -1.14934 1
gene 1 99 20 -0.392276 0 421 -0.392276 1
gene 1 31 101 0.222876 1 425 0.222876 1
gene 1 101 31 0.578325 0 426 0.578325 1
gene 1 12 109 1.48834 0 472 1.48834 1
gene 1 109 21 1.14937 0 473 1.14937 1
gene 1 12 51 -0.129606 0 486 -0.129606 1
gene 1 18 123 -0.381871 0 554 -0.381871 1
gene 1 123 26 0.235449 0 555 0.235449 1
gene 1 31 49 -0.60393 0 567 -0.60393 1
gene 1 24 125 0.231672 0 573 0.231672 1
gene 1 125 22 0.580901 0 574 0.580901 1
gene 1 6 49 -0.1601 0 584 -0.1601 1
gene 1 31 22 -0.814903 0 587 -0.814903 1
gene 1 6 109 -0.212716 0 589 -0.212716 1
gene 1 2 127 -3 0 595 -3 1
gene 1 127 20 1.23161 0 596 1.23161 1
gene 1 5 49 -0.354644 0 634 -0.354644 1
gene 1 13 69 0.104989 0 636 0.104989 1
gene 1 5 109 0.341462 0 653 0.341462 1
gene 1 11 135 -1.52814 0 654 -1.52814 1
gene 1 135 20 -0.711566 0 655 -0.711566 1
gene 1 16 99 0.223652 0 665 0.223652 1
gene 1 127 51 0.764216 0 670 0.764216 1
gene 1 16 142 -0.352747 0 719 -0.352747 1
gene 1 142 62 -0.226975 0 720 -0.226975 1
gene 1 127 127 -0.920394 1 721 -0.920394 1
gene 1 127 24 -0.0953704 0 730 -0.0953704 1
gene 1 11 146 -0.177768 0 751 -0.177768 1
gene 1 146 43 0.816768 0 752 0.816768 1
gene 1 3 127 0.0815543 0 793 0.0815543 1
gene 1 6 155 -0.920585 0 817 -0.920585 0
gene 1 155 20 0.448733 0 818 0.448733 1
gene 1 7 69 0.956892 0 834 0.956892 1
gene 1 127 62 0.47249 0 861 0.47249 1
gene 1 66 167 0.947616 0 898 0.947616 1
gene 1 167 22 -0.333969 0 899 -0.333969 1
gene 1 123 123 -0.147882 1 918 -0.147882 1
gene 1 24 123 0.73777 0 945 0.73777 1
gene 1 127 185 0.039704 0 996 0.039704 1
gene 1 185 20 0.594557 0 997 0.594557 1
gene 1 17 123 -0.945677 0 1051 -0.945677 1
gene 1 135 69 -0.531957 0 1059 -0.531957 1
gene 1 109 127 0.330867 0 1062 0.330867 1
gene 1 101 21 -0.43002 0 1084 -0.43002 1
gene 1 37 101 -0.51972 0 1091 -0.51972 1
gene 1 99 123 -0.420104 0 1095 -0.420104 1
gene 1 17 194 -0.476998 0 1101 -0.476998 1
gene 1 194 123 -0.214822 0 1102 -0.214822 1
gene 1 1 101 0.62118 0 1108 0.62118 1
gene 1 11 66 0.512393 0 1128 0.512393 1
gene 1 109 66 -0.0355261 0 1134 -0.0355261 1
gene 1 8 66 -0.273068 0 1183 -0.273068 1
gene 1 109 109 0.854827 1 1212 0.854827 1
gene 1 2 125 0.947479 0 1235 0.947479 1
gene 1 109 142 -0.198311 0 1245 -0.198311 1
gene 1 125 43 0.076341 0 1475 0.076341 1
gene 1 31 167 0.47647 0 1480 0.47647 1
gene 1 18 142 -0.416049 0 1495 -0.416049 1
gene 1 66 37 -0.504238 0 1514 -0.504238 1
gene 1 125 62 0.325925 0 1520 0.325925 1
gene 1 6 230 -0.187606 0 1555 -0.187606 1
gene 1 230 155 -0.720117 0 1556 -0.720117 1
gene 1 51 194 -0.438505 0 1638 -0.438505 1
gene 1 8 127 -0.394952 0 1640 -0.394952 1
gene 1 230 245 -0.249726 0 1676 -0.249726 1
gene 1 245 155 0.508045 0 1677 0.508045 1
gene 1 146 230 0.00370047 0 1720 0.00370047 1
gene 1 10 167 -0.697807 0 1772 -0.697807 1
genomeend 40151
genomestart 40226
trait 1 0.284066 0 0.127035 0.94713 0.90223 0.763915 0.278507 0.137695 
node 1 1 1 1 0
node 2 1 1 1 0
node 3 1 1 1 0
node 4 1 1 1 0
node 5 1 1 1 0
node 6 1 1 1 0
node 7 1 1 1 0
node 8 1 1 1 0
node 9 1 1 1 0
node 10 1 1 1 0
node 11 1 1 1 0
node 12 1 1 1 0
node 13 1 1 1 0
node 14 1 1 1 0
node 15 1 1 1 0
node 16 1 1 1 0
node 17 1 1 1 0
node 18 1 1 1 0
node 19 1 1 3 0
node 20 1 0 2 0
node 21 1 0 2 0
node 22 1 0 2 0
node 23 1 0 2 0
node 24 1 0 0 0
node 26 1 0 0 0
node 27 1 0 0 0
node 29 1 0 0 0
node 31 1 0 0 0
node 32 1 0 0 0
node 37 1 0 0 0
node 43 1 0 0 0
node 46 1 0 0 0
node 49 1 0 0 0
node 51 1 0 0 0
node 62 1 0 0 0
node 66 1 0 0 0
node 69 1 0 0 0
node 73 1 0 0 0
node 79 1 0 0 0
node 81 1 0 0 0
node 96 1 0 0 0
node 98 1 0 0 0
node 99 1 0 0 0
node 101 1 0 0 0
node 109 1 0 0 0
node 123 1 0 0 0
node 125 1 0 0 0
node 127 1 0 0 0
node 135 1 0 0 0
node 142 1 0 0 0
node 146 1 0 0 0
node 149 1 0 0 0
node 152 1 0 0 0
node 155 1 0 0 0
node 167 1 0 0 0
node 194 1 0 0 0
node 198 1 0 0 0
node 202 1 0 0 0
node 231 1 0 0 0
gene 1 1 20 0.503425 0 1 0.503425 1
gene 1 2 20 -0.683266 0 2 -0.683266 1
gene 1 3 20 1.12545 0 3 1.12545 1
gene 1 4 20 -0.281764 0 4 -0.281764 1
gene 1 5 20 -0.279691 0 5 -0.279691 1
gene 1 6 20 0.0848126 0 6 0.0848126 0
gene 1 7 20 -0.181075 0 7 -0.181075 1
gene 1 8 20 0.069346 0 8 0.069346 1
gene 1 9 20 -0.176561 0 9 -0.176561 1
gene 1 10 20 -0.397115 0 10 -0.397115 1
gene 1 11 20 0.902596 0 11 0.902596 1
gene 1 12 20 0.00429582 0 12 0.00429582 1
gene 1 13 20 1.07655 0 13 1.07655 1
gene 1 14 20 -0.739297 0 14 -0.739297 1
gene 1 15 20 -0.0442701 0 15 -0.0442701 1
gene 1 16 20 0.38826 0 16 0.38826 1
gene 1 17 20 2.6007 0 17 2.6007 1
gene 1 18 20 0.888113 0 18 0.888113 1
gene 1 19 20 0.240751 0 19 0.240751 1
gene 1 1 21 -0.724021 0 20 -0.724021 1
gene 1 2 21 -0.460632 0 21 -0.460632 1
gene 1 3 21 -0.100668 0 22 -0.100668 1
gene 1 4 21 -0.179174 0 23 -0.179174 1
gene 1 5 21 0.102427 0 24 0.102427 1
gene 1 6 21 0.765417 0 25 0.765417 1
gene 1 7 21 0.684895 0 26 0.684895 1
gene 1 8 21 -1.1119 0 27 -1.1119 1
gene 1 9 21 0.211005 0 28 0.211005 1
gene 1 10 21 0.182965 0 29 0.182965 1
gene 1 11 21 0.714114 0 30 0.714114 1
gene 1 12 21 0.341034 0 31 0.341034 1
gene 1 13 21 0.551472 0 32 0.551472 1
gene 1 14 21 -1.54011 0 33 -1.54011 1
gene 1 15 21 -1.52756 0 34 -1.52756 1
gene 1 16 21 0.682862 0 35 0.682862 1
gene 1 17 21 -0.537375 0 36 -0.537375 1
gene 1 18 21 2.28281 0 37 2.28281 1
gene 1 19 21 -0.719677 0 38 -0.719677 1
gene 1 1 22 0.0159412 0 39 0.0159412 1
gene 1 2 22 0.208237 0 40 0.208237 1
gene 1 3 22 0.446729 0 41 0.446729 1
gene 1 4 22 0.286342 0 42 0.286342 1
gene 1 5 22 -0.0769293 0 43 -0.0769293 1
gene 1 6 22 0.402336 0 44 0.402336 1
gene 1 7 22 -0.107321 0 45 -0.107321 1
gene 1 8 22 -0.467251 0 46 -0.467251 1
gene 1 9 22 0.383119 0 47 0.383119 1
gene 1 10 22 0.866641 0 48 0.866641 1
gene 1 11 22 0.200332 0 49 0.200332 1
gene 1 12 22 0.94464 0 50 0.94464 1
gene 1 13 22 -0.152795 0 51 -0.152795 1
gene 1 14 22 0.129559 0 52 0.129559 1
gene 1 15 22 -0.595326 0 53 -0.595326 1
gene 1 16 22 0.409127 0 54 0.409127 1
gene 1 17 22 0.80446 0 55 0.80446 1
gene 1 18 22 0.102696 0 56 0.102696 1
gene 1 19 22 -0.0879989 0 57 -0.0879989 1
gene 1 1 23 -0.819102 0 58 -0.819102 1
gene 1 2 23 -0.102977 0 59 -0.102977 1
gene 1 3 23 0.481617 0 60 0.481617 1
gene 1 4 23 0.195987 0 61 0.195987 1
gene 1 5 23 -0.0482182 0 62 -0.0482182 1
gene 1 6 23 0.453179 0 63 0.453179 1
gene 1 7 23 -0.528959 0 64 -0.528959 1
gene 1 8 23 -0.384938 0 65 -0.384938 1
gene 1 9 23 -0.102779 0 66 -0.102779 1
gene 1 10 23 0.728504 0 67 0.728504 1
gene 1 11 23 0.61071 0 68 0.61071 1
gene 1 12 23 0.0909268 0 69 0.0909268 1
gene 1 13 23 1.34733 0 70 1.34733 1
gene 1 14 23 0.682057 0 71 0.682057 1
gene 1 15 23 0.307157 0 72 0.307157 1
gene 1 16 23 0.295966 0 73 0.295966 1
gene 1 17 23 -0.449322 0 74 -0.449322 1
gene 1 18 23 -0.212414 0 75 -0.212414 1
gene 1 19 23 -0.206124 0 76 -0.206124 1
gene 1 20 21 0.0639653 0 77 0.0639653 1
gene 1 1 24 -0.0359586 0 78 -0.0359586 1
gene 1 24 23 0.160331 0 79 0.160331 1
gene 1 16 26 -0.232996 0 86 -0.232996 1
gene 1 26 23 0.990632 0 87 0.990632 1
gene 1 14 27 0.221932 0 88 0.221932 1
gene 1 27 22 -0.166203 0 89 -0.166203 1
gene 1 1 27 1.17765 0 98 1.17765 1
gene 1 26 21 0.0941176 0 100 0.0941176 1
gene 1 23 21 -0.330051 0 102 -0.330051 1
gene 1 23 22 -0.26347 0 104 -0.26347 1
gene 1 6 26 -1.25883 0 105 -1.25883 1
gene 1 27 27 0.115979 1 110 0.115979 1
gene 1 15 26 -0.466279 0 112 -0.466279 1
gene 1 15 29 0.454927 0 113 0.454927 1
gene 1 29 21 1.25193 0 114 1.25193 1
gene 1 24 31 -0.479261 0 120 -0.479261 1
gene 1 31 23 0.174625 0 121 0.174625 1
gene 1 1 32 -0.343073 0 122 -0.343073 1
gene 1 32 20 -0.356868 0 123 -0.356868 1
gene 1 12 37 -0.503081 0 141 -0.503081 1
gene 1 37 20 2.66127 0 142 2.66127 1
gene 1 13 43 1.0641 0 156 1.0641 1
gene 1 43 20 0.536378 0 157 0.536378 1
gene 1 16 46 0.552921 0 169 0.552921 1
gene 1 46 20 -0.216269 0 170 -0.216269 1
gene 1 17 49 0.835534 0 176 0.835534 1
gene 1 49 23 0.793103 0 177 0.793103 1
gene 1 14 51 -0.897049 0 181 -0.897049 1
gene 1 51 21 0.228453 0 182 0.228453 1
gene 1 13 26 0.0267023 0 205 0.0267023 1
gene 1 24 26 0.115411 0 212 0.115411 1
gene 1 13 62 0.471295 0 221 0.471295 1
gene 1 62 21 -2.06867 0 222 -2.06867 1
gene 1 26 32 -0.0753702 0 228 -0.0753702 1
gene 1 3 66 0.687863 0 232 0.687863 1
gene 1 66 22 0.00646397 0 233 0.00646397 1
gene 1 20 69 -0.154448 0 247 -0.154448 1
gene 1 69 21 0.677467 0 248 0.677467 1
gene 1 4 26 -0.734622 0 254 -0.734622 1
gene 1 17 31 -0.959539 0 257 -0.959539 1
gene 1 14 69 0.387777 0 265 0.387777 1
gene 1 24 49 0.422297 0 269 0.422297 1
gene 1 4 73 1.81089 0 274 1.81089 1
gene 1 73 23 -0.789179 0 275 -0.789179 1
gene 1 24 22 1.26281 0 297 1.26281 1
gene 1 13 79 -0.614075 0 304 -0.614075 1
gene 1 79 62 -0.190194 0 305 -0.190194 1
gene 1 24 81 -0.206698 0 326 -0.206698 1
gene 1 81 26 -1.78216 0 327 -1.78216 1
gene 1 11 43 0.445081 0 344 0.445081 1
gene 1 43 46 -0.184217 0 349 -0.184217 1
gene 1 18 26 -0.0580247 0 350 -0.0580247 1
gene 1 49 69 1.74189 0 355 1.74189 1
gene 1 31 31 0.829623 1 358 0.829623 1
gene 1 5 27 -0.496231 0 371 -0.496231 1
gene 1 16 62 1.02922 0 379 1.02922 0
gene 1 13 96 -0.170924 0 403 -0.170924 1
gene 1 96 23 0.819233 0 404 0.819233 1
gene 1 18 98 0.656927 0 414 0.656927 1
gene 1 98 23 -0.616026 0 415 -0.616026 1
gene 1 3 99 0.259644 0 420 0.259644 0
gene 1 99 20 0.979785 0 421 0.979785 1
gene 1 31 101 -0.30238 1 425 -0.30238 1
gene 1 101 31 -0.286133 0 426 -0.286133 1
gene 1 29 24 -0.420657 0 460 -0.420657 1
gene 1 12 109 -0.266996 0 472 -0.266996 1
gene 1 109 21 -0.358318 0 473 -0.358318 1
gene 1 18 123 -0.419804 0 554 -0.419804 1
gene 1 123 26 -0.388351 0 555 -0.388351 1
gene 1 31 49 -0.232538 0 567 -0.232538 1
gene 1 24 125 0.0812124 0 573 0.0812124 1
gene 1 125 22 0.981638 0 574 0.981638 1
gene 1 6 49 -0.297084 0 584 -0.297084 1
gene 1 31 22 -0.246639 0 587 -0.246639 1
gene 1 6 109 0.375996 0 589 0.375996 1
gene 1 2 127 0.0907877 0 595 0.0907877 1
gene 1 127 20 -0.427641 0 596 -0.427641 1
gene 1 5 49 -0.523472 0 634 -0.523472 1
gene 1 13 69 -1.03507 0 636 -1.03507 1
gene 1 5 109 0.000607435 0 653 0.000607435 1
gene 1 11 135 0.0310258 0 654 0.0310258 1
gene 1 135 20 0.972047 0 655 0.972047 1
gene 1 16 99 -0.0549421 0 665 -0.0549421 1
gene 1 127 51 0.656167 0 670 0.656167 1
gene 1 16 142 -0.593156 0 719 -0.593156 1
gene 1 142 62 -1.14251 0 720 -1.14251 1
gene 1 127 127 -2.10564 1 721 -2.10564 1
gene 1 127 24 -0.251262 0 730 -0.251262 1
gene 1 16 51 -0.143451 0 750 -0.143451 1
gene 1 11 146 -0.256513 0 751 -0.256513 1
gene 1 146 43 0.304952 0 752 0.304952 1
gene 1 18 149 0.144808 0 770 0.144808 1
gene 1 149 123 -0.486878 0 771 -0.486878 1
gene 1 12 152 1.13048 0 799 1.13048 1
gene 1 152 37 0.167472 0 800 0.167472 1
gene 1 6 155 0.599955 0 817 0.599955 1
gene 1 155 20 0.437909 0 818 0.437909 1
gene 1 7 69 -0.713202 0 834 -0.713202 1
gene 1 127 62 -0.387186 0 861 -0.387186 1
gene 1 66 167 -0.678324 0 898 -0.678324 1
gene 1 167 22 -0.835948 0 899 -0.835948 1
gene 1 123 123 0.460735 1 918 0.460735 1
gene 1 24 123 -0.353028 0 945 -0.353028 1
gene 1 17 123 -0.963986 0 1051 -0.963986 1
gene 1 135 69 -0.447747 0 1059 -0.447747 1
gene 1 101 21 0.0147131 0 1084 0.0147131 1
gene 1 37 101 0.911324 0 1091 0.911324 1
gene 1 99 123 0.0388169 0 1095 0.0388169 1
gene 1 17 194 -0.287875 0 1101 -0.287875 1
gene 1 194 123 -0.474445 0 1102 -0.474445 1
gene 1 1 101 -0.135988 0 1108 -0.135988 1
gene 1 109 66 -0.0835489 0 1134 -0.0835489 1
gene 1 101 198 -0.617202 0 1140 -0.617202 1
gene 1 198 21 0.431454 0 1141 0.431454 1
gene 1 27 69 -1.09812 0 1157 -1.09812 1
gene 1 8 66 -0.0348811 0 1183 -0.0348811 1
gene 1 3 202 -0.445264 0 1198 -0.445264 1
gene 1 202 99 -0.180584 0 1199 -0.180584 1
gene 1 109 109 0.390281 1 1212 0.390281 1
gene 1 2 125 -0.385643 0 1235 -0.385643 1
gene 1 109 142 -0.24637 0 1245 -0.24637 1
gene 1 31 69 0.563505 0 1246 0.563505 1
gene 1 127 125 -0.554951 0 1450 -0.554951 1
gene 1 13 123 0.300018 0 1472 0.300018 1
gene 1 125 43 -0.0399006 0 1475 -0.0399006 1
gene 1 31 167 0.562352 0 1480 0.562352 1
gene 1 142 142 0.537265 1 1502 0.537265 1
gene 1 66 37 0.243719 0 1514 0.243719 1
gene 1 3 69 0.217839 0 1552 0.217839 1
gene 1 8 231 0.0625848 0 1557 0.0625848 1
gene 1 231 66 0.142842 0 1558 0.142842 1
gene 1 22 231 0.370344 1 1592 0.370344 1
gene 1 142 101 0.71405 0 1599 0.71405 1
gene 1 96 69 0.891646 0 1679 0.891646 1
gene 1 79 26 0.215008 0 1771 0.215008 1
genomeend 40226
genomestart 40282
trait 1 0.524162 0.0484471 0.763715 0.19955 0.897823 0.180492 0.615916 0.179435 
node 1 1 1 1 0
node 2 1 1 1 0
node 3 1 1 1 0
node 4 1 1 1 0
node 5 1 1 1 0
node 6 1 1 1 0
node 7 1 1 1 0
node 8 1 1 1 0
node 9 1 1 1 0
node 10 1 1 1 0
node 11 1 1 1 0
node 12 1 1 1 0
node 13 1 1 1 0
node 14 1 1 1 0
node 15 1 1 1 0
node 16 1 1 1 0
node 17 1 1 1 0
node 18 1 1 1 0
node 19 1 1 3 0
node 20 1 0 2 0
node 21 1 0 2 0
node 22 1 0 2 0
node 23 1 0 2 0
node 24 1 0 0 0
node 26 1 0 0 0
node 27 1 0 0 0
node 31 1 0 0 0
node 32 1 0 0 0
node 37 1 0 0 0
node 43 1 0 0 0
node 46 1 0 0 0
node 49 1 0 0 0
node 51 1 0 0 0
node 62 1 0 0 0
node 66 1 0 0 0
node 69 1 0 0 0
node 79 1 0 0 0
node 81 1 0 0 0
node 99 1 0 0 0
node 101 1 0 0 0
node 109 1 0 0 0
node 123 1 0 0 0
node 125 1 0 0 0
node 127 1 0 0 0
node 135 1 0 0 0
node 142 1 0 0 0
node 146 1 0 0 0
node 155 1 0 0 0
node 167 1 0 0 0
node 185 1 0 0 0
node 194 1 0 0 0
node 230 1 0 0 0
node 245 1 0 0 0
gene 1 1 20 -0.28441 0 1 -0.28441 1
gene 1 2 20 0.432728 0 2 0.432728 1
gene 1 3 20 0.387611 0 3 0.387611 0
gene 1 4 20 -0.0995732 0 4 -0.0995732 1
gene 1 5 20 1.51906 0 5 1.51906 1
gene 1 6 20 0.33304 0 6 0.33304 0
gene 1 7 20 0.758831 0 7 0.758831 1
gene 1 8 20 -0.424364 0 8 -0.424364 1
gene 1 9 20 -1.073 0 9 -1.073 1
gene 1 10 20 -0.436453 0 10 -0.436453 1
gene 1 11 20 0.0184438 0 11 0.0184438 1
gene 1 12 20 -0.278245 0 12 -0.278245 1
gene 1 13 20 0.24713 0 13 0.24713 1
gene 1 14 20 -0.344028 0 14 -0.344028 1
gene 1 15 20 0.172615 0 15 0.172615 1
gene 1 16 20 0.966422 0 16 0.966422 1
gene 1 17 20 7.18783e-06 0 17 7.18783e-06 1
gene 1 18 20 -2.27672 0 18 -2.27672 1
gene 1 19 20 -0.0349618 0 19 -0.0349618 1
gene 1 1 21 0.00816049 0 20 0.00816049 1
gene 1 2 21 -1.33334 0 21 -1.33334 1
gene 1 3 21 -0.0404046 0 22 -0.0404046 1
gene 1 4 21 0.071483 0 23 0.071483 1
gene 1 5 21 -0.0244527 0 24 -0.0244527 1
gene 1 6 21 3 0 25 3 1
gene 1 7 21 -0.195582 0 26 -0.195582 1
gene 1 8 21 -0.260329 0 27 -0.260329 1
gene 1 9 21 -1.02323 0 28 -1.02323 1
gene 1 10 21 -2.96718 0 29 -2.96718 1
gene 1 11 21 -0.015347 0 30 -0.015347 1
gene 1 12 21 -0.423861 0 31 -0.423861 1
gene 1 13 21 0.55141 0 32 0.55141 1
gene 1 14 21 -0.501185 0 33 -0.501185 1
gene 1 15 21 -0.112113 0 34 -0.112113 1
gene 1 16 21 0.166983 0 35 0.166983 1
gene 1 17 21 0.489064 0 36 0.489064 1
gene 1 18 21 -0.316701 0 37 -0.316701 1
gene 1 19 21 -0.0717704 0 38 -0.0717704 1
gene 1 1 22 0.310502 0 39 0.310502 1
gene 1 2 22 -0.333343 0 40 -0.333343 1
gene 1 3 22 -0.205123 0 41 -0.205123 1
gene 1 4 22 0.626874 0 42 0.626874 1
gene 1 5 22 -0.13122 0 43 -0.13122 1
gene 1 6 22 0.0909236 0 44 0.0909236 1
gene 1 7 22 0.582757 0 45 0.582757 1
gene 1 8 22 0.398961 0 46 0.398961 1
gene 1 9 22 -1.67385 0 47 -1.67385 1
gene 1 10 22 -0.207773 0 48 -0.207773 1
gene 1 11 22 -0.0034374 0 49 -0.0034374 1
gene 1 12 22 1.03921 0 50 1.03921 1
gene 1 13 22 0.290907 0 51 0.290907 1
gene 1 14 22 0.902638 0 52 0.902638 0
gene 1 15 22 -0.968256 0 53 -0.968256 1
gene 1 16 22 1.33904 0 54 1.33904 1
gene 1 17 22 -0.159164 0 55 -0.159164 1
gene 1 18 22 0.817977 0 56 0.817977 1
gene 1 19 22 -1.04022 0 57 -1.04022 1
gene 1 1 23 -0.396699 0 58 -0.396699 1
gene 1 2 23 -0.28525 0 59 -0.28525 1
gene 1 3 23 0.0283456 0 60 0.0283456 1
gene 1 4 23 0.225775 0 61 0.225775 1
gene 1 5 23 1.46653 0 62 1.46653 1
gene 1 6 23 0.261465 0 63 0.261465 1
gene 1 7 23 2.21713 0 64 2.21713 1
gene 1 8 23 -0.0822978 0 65 -0.0822978 1
gene 1 9 23 -0.0918607 0 66 -0.0918607 1
gene 1 10 23 0.258328 0 67 0.258328 1
gene 1 11 23 -1.57728 0 68 -1.57728 1
gene 1 12 23 0.370123 0 69 0.370123 1
gene 1 13 23 -0.130119 0 70 -0.130119 1
gene 1 14 23 0.167955 0 71 0.167955 1
gene 1 15 23 2.18502 0 72 2.18502 1
gene 1 16 23 1.45797 0 73 1.45797 1
gene 1 17 23 -0.249949 0 74 -0.249949 1
gene 1 18 23 0.259815 0 75 0.259815 1
gene 1 19 23 0.383161 0 76 0.383161 1
gene 1 20 21 1.74025 0 77 1.74025 1
gene 1 1 24 0.683677 0 78 0.683677 1
gene 1 24 23 0.0643737 0 79 0.0643737 1
gene 1 16 26 0.105163 0 86 0.105163 1
gene 1 26 23 -0.182754 0 87 -0.182754 1
gene 1 14 27 1.10534 0 88 1.10534 1
gene 1 27 22 0.172968 0 89 0.172968 1
gene 1 1 27 0.245551 0 98 0.245551 1
gene 1 26 21 -0.258268 0 100 -0.258268 1
gene 1 23 21 0.0576673 0 102 0.0576673 1
gene 1 23 22 1.10679 0 104 1.10679 1
gene 1 6 26 -0.262089 0 105 -0.262089 1
gene 1 27 27 -0.183212 1 110 -0.183212 1
gene 1 24 31 -0.655106 0 120 -0.655106 1
gene 1 31 23 -0.432566 0 121 -0.432566 1
gene 1 1 32 2.20304 0 122 2.20304 1
gene 1 32 20 -0.550742 0 123 -0.550742 1
gene 1 12 37 0.437438 0 141 0.437438 1
gene 1 37 20 2.95949 0 142 2.95949 1
gene 1 13 43 0.130954 0 156 0.130954 1
gene 1 43 20 0.573023 0 157 0.573023 1
gene 1 16 46 0.101415 0 169 0.101415 1
gene 1 46 20 -0.280585 0 170 -0.280585 1
gene 1 17 49 1.4807 0 176 1.4807 1
gene 1 49 23 -0.518577 0 177 -0.518577 1
gene 1 14 51 -0.325923 0 181 -0.325923 1
gene 1 51 21 0.0673042 0 182 0.0673042 1
gene 1 13 26 0.42767 0 205 0.42767 1
gene 1 24 26 0.311223 0 212 0.311223 1
gene 1 13 62 -1.33069 0 221 -1.33069 0
gene 1 62 21 -2.13601 0 222 -2.13601 1
gene 1 26 32 -0.0407278 0 228 -0.0407278 1
gene 1 3 66 -1.08095 0 232 -1.08095 1
gene 1 66 22 -0.15664 0 233 -0.15664 1
gene 1 20 69 0.862532 0 247 0.862532 1
gene 1 69 21 -0.843626 0 248 -0.843626 1
gene 1 4 26 0.228967 0 254 0.228967 1
gene 1 17 31 -0.671132 0 257 -0.671132 1
gene 1 14 69 -0.0996138 0 265 -0.0996138 1
gene 1 24 49 0.497475 0 269 0.497475 1
gene 1 24 22 0.492327 0 297 0.492327 1
gene 1 13 79 -0.0482439 0 304 -0.0482439 1
gene 1 79 62 2.74851 0 305 2.74851 1
gene 1 24 81 -0.263552 0 326 -0.263552 1
gene 1 81 26 -0.0258923 0 327 -0.0258923 1
gene 1 11 43 0.418638 0 344 0.418638 1
gene 1 43 46 0.375546 0 349 0.375546 1
gene 1 18 26 -0.415459 0 350 -0.415459 0
gene 1 31 31 0.424914 1 358 0.424914 1
gene 1 16 62 -1.7687 0 379 -1.7687 0
gene 1 3 99 -0.790688 0 420 -0.790688 1
gene 1 99 20 -0.78861 0 421 -0.78861 1
gene 1 31 101 0.220374 1 425 0.220374 1
gene 1 101 31 0.814268 0 426 0.814268 1
gene 1 12 109 0.137259 0 472 0.137259 1
gene 1 109 21 0.249396 0 473 0.249396 1
gene 1 12 51 -0.129606 0 486 -0.129606 1
gene 1 18 123 -0.213851 0 554 -0.213851 1
gene 1 123 26 0.065264 0 555 0.065264 1
gene 1 31 49 -0.60393 0 567 -0.60393 1
gene 1 24 125 0.398086 0 573 0.398086 1
gene 1 125 22 0.253836 0 574 0.253836 1
gene 1 6 49 -0.452813 0 584 -0.452813 1
gene 1 31 22 -1.07461 0 587 -1.07461 1
gene 1 6 109 -0.221578 0 589 -0.221578 1
gene 1 2 127 -2.90601 0 595 -2.90601 1
gene 1 127 20 0.790705 0 596 0.790705 1
gene 1 5 49 -0.354644 0 634 -0.354644 1
gene 1 13 69 0.0338747 0 636 0.0338747 1
gene 1 5 109 0.0347321 0 653 0.0347321 1
gene 1 11 135 -1.39825 0 654 -1.39825 1
gene 1 135 20 -0.711566 0 655 -0.711566 1
gene 1 16 99 0.223652 0 665 0.223652 1
gene 1 127 51 0.110917 0 670 0.110917 1
gene 1 16 142 -0.352747 0 719 -0.352747 1
gene 1 142 62 0.0383432 0 720 0.0383432 1
gene 1 127 127 -0.920394 1 721 -0.920394 1
gene 1 127 24 0.0811578 0 730 0.0811578 1
gene 1 11 146 -0.177768 0 751 -0.177768 1
gene 1 146 43 0.676066 0 752 0.676066 1
gene 1 3 127 0.286237 0 793 0.286237 1
gene 1 6 155 -0.331968 0 817 -0.331968 0
gene 1 155 20 0.149197 0 818 0.149197 1
gene 1 7 69 1.07197 0 834 1.07197 1
gene 1 127 62 0.47249 0 861 0.47249 1
gene 1 66 167 0.922832 0 898 0.922832 1
gene 1 167 22 -0.413912 0 899 -0.413912 1
gene 1 123 123 -0.48333 1 918 -0.48333 1
gene 1 24 123 1.02855 0 945 1.02855 1
gene 1 127 185 -0.323906 0 996 -0.323906 1
gene 1 185 20 0.478444 0 997 0.478444 1
gene 1 17 123 -0.572897 0 1051 -0.572897 1
gene 1 135 69 -0.258281 0 1059 -0.258281 1
gene 1 109 127 0.157352 0 1062 0.157352 1
gene 1 101 21 -0.44188 0 1084 -0.44188 1
gene 1 37 101 -0.593834 0 1091 -0.593834 1
gene 1 99 123 -0.118758 0 1095 -0.118758 1
gene 1 17 194 -0.0348299 0 1101 -0.0348299 1
gene 1 194 123 -0.435592 0 1102 -0.435592 1
gene 1 1 101 0.280593 0 1108 0.280593 1
gene 1 11 66 0.404988 0 1128 0.404988 1
gene 1 109 66 -0.0355261 0 1134 -0.0355261 1
gene 1 8 66 -0.14817 0 1183 -0.14817 1
gene 1 109 109 1.25277 1 1212 1.25277 1
gene 1 2 125 1.224 0 1235 1.224 1
gene 1 109 142 -0.152898 0 1245 -0.152898 1
gene 1 125 43 -0.220704 0 1475 -0.220704 1
gene 1 31 167 0.270333 0 1480 0.270333 1
gene 1 18 142 0.0420037 0 1495 0.0420037 1
gene 1 66 37 -0.472826 0 1514 -0.472826 1
gene 1 125 62 0.396114 0 1520 0.396114 1
gene 1 6 230 0.310642 0 1555 0.310642 1
gene 1 230 155 -1.01157 0 1556 -1.01157 1
gene 1 51 194 -0.834785 0 1638 -0.834785 1
gene 1 8 127 -0.248593 0 1640 -0.248593 1
gene 1 230 245 -0.249726 0 1676 -0.249726 1
gene 1 245 155 0.405069 0 1677 0.405069 1
gene 1 146 230 0.295207 0 1720 0.295207 1
gene 1 10 167 -0.549738 0 1772 -0.549738 1
genomeend 40282
genomestart 40328
trait 1 0.611911 0.557935 0.174721 0.440834 0.916284 0.457533 0.983455 0.62038 
node 1 1 1 1 0
node 2 1 1 1 0
node 3 1 1 1 0
node 4 1 1 1 0
node 5 1 1 1 0
node 6 1 1 1 0
node 7 1 1 1 0
node 8 1 1 1 0
node 9 1 1 1 0
node 10 1 1 1 0
node 11 1 1 1 0
node 12 1 1 1 0
node 13 1 1 1 0
node 14 1 1 1 0
node 15 1 1 1 0
node 16 1 1 1 0
node 17 1 1 1 0
node 18 1 1 1 0
node 19 1 1 3 0
node 20 1 0 2 0
node 21 1 0 2 0
node 22 1 0 2 0
node 23 1 0 2 0
node 24 1 0 0 0
node 26 1 0 0 0
node 27 1 0 0 0
node 29 1 0 0 0
node 31 1 0 0 0
node 32 1 0 0 0
node 37 1 0 0 0
node 43 1 0 0 0
node 46 1 0 0 0
node 49 1 0 0 0
node 51 1 0 0 0
node 62 1 0 0 0
node 66 1 0 0 0
node 69 1 0 0 0
node 73 1 0 0 0
node 79 1 0 0 0
node 81 1 0 0 0
node 99 1 0 0 0
node 101 1 0 0 0
node 109 1 0 0 0
node 123 1 0 0 0
node 125 1 0 0 0
node 127 1 0 0 0
node 135 1 0 0 0
node 142 1 0 0 0
node 146 1 0 0 0
node 155 1 0 0 0
node 167 1 0 0 0
node 194 1 0 0 0
node 251 1 0 0 0
gene 1 1 20 1.48679 0 1 1.48679 1
gene 1 2 20 -0.228665 0 2 -0.228665 1
gene 1 3 20 0.0699107 0 3 0.0699107 0
gene 1 4 20 0.168756 0 4 0.168756 1
gene 1 5 20 0.183177 0 5 0.183177 1
gene 1 6 20 -0.206613 0 6 -0.206613 0
gene 1 7 20 -0.280512 0 7 -0.280512 1
gene 1 8 20 0.226814 0 8 0.226814 1
gene 1 9 20 1.82007 0 9 1.82007 1
gene 1 10 20 0.561964 0 10 0.561964 1
gene 1 11 20 0.154799 0 11 0.154799 1
gene 1 12 20 1.04628 0 12 1.04628 1
gene 1 13 20 -0.0325292 0 13 -0.0325292 1
gene 1 14 20 -0.281877 0 14 -0.281877 1
gene 1 15 20 0.641491 0 15 0.641491 1
gene 1 16 20 -0.176236 0 16 -0.176236 1
gene 1 17 20 -0.158517 0 17 -0.158517 1
gene 1 18 20 -0.430126 0 18 -0.430126 1
gene 1 19 20 1.03053 0 19 1.03053 1
gene 1 1 21 -1.62891 0 20 -1.62891 1
gene 1 2 21 -1.16242 0 21 -1.16242 1
gene 1 3 21 0.252285 0 22 0.252285 1
gene 1 4 21 -0.536803 0 23 -0.536803 1
gene 1 5 21 -0.527605 0 24 -0.527605 1
gene 1 6 21 2.40113 0 25 2.40113 1
gene 1 7 21 -0.438867 0 26 -0.438867 1
gene 1 8 21 1.20127 0 27 1.20127 1
gene 1 9 21 0.267477 0 28 0.267477 1
gene 1 10 21 0.044399 0 29 0.044399 1
gene 1 11 21 0.887792 0 30 0.887792 1
gene 1 12 21 -0.764982 0 31 -0.764982 1
gene 1 13 21 -0.119345 0 32 -0.119345 1
gene 1 14 21 -1.09873 0 33 -1.09873 1
gene 1 15 21 0.0232279 0 34 0.0232279 1
gene 1 16 21 1.16625 0 35 1.16625 1
gene 1 17 21 1.37502 0 36 1.37502 1
gene 1 18 21 0.967591 0 37 0.967591 1
gene 1 19 21 -0.17506 0 38 -0.17506 1
gene 1 1 22 1.34474 0 39 1.34474 1
gene 1 2 22 -0.0793215 0 40 -0.0793215 1
gene 1 3 22 0.881605 0 41 0.881605 1
gene 1 4 22 -0.533919 0 42 -0.533919 1
gene 1 5 22 0.563928 0 43 0.563928 1
gene 1 6 22 1.50769 0 44 1.50769 1
gene 1 7 22 0.0905773 0 45 0.0905773 1
gene 1 8 22 -0.838848 0 46 -0.838848 1
gene 1 9 22 0.252684 0 47 0.252684 1
gene 1 10 22 0.260657 0 48 0.260657 1
gene 1 11 22 0.10545 0 49 0.10545 1
gene 1 12 22 -0.145144 0 50 -0.145144 1
gene 1 13 22 -0.281749 0 51 -0.281749 1
gene 1 14 22 -0.632436 0 52 -0.632436 0
gene 1 15 22 -0.31538 0 53 -0.31538 1
gene 1 16 22 -0.328412 0 54 -0.328412 1
gene 1 17 22 0.166265 0 55 0.166265 1
gene 1 18 22 0.0683787 0 56 0.0683787 1
gene 1 19 22 1.51161 0 57 1.51161 1
gene 1 1 23 -0.376006 0 58 -0.376006 1
gene 1 2 23 -1.1648 0 59 -1.1648 1
gene 1 3 23 0.493008 0 60 0.493008 1
gene 1 4 23 0.142406 0 61 0.142406 1
gene 1 5 23 0.535253 0 62 0.535253 1
gene 1 6 23 -0.205399 0 63 -0.205399 1
gene 1 7 23 -0.124942 0 64 -0.124942 1
gene 1 8 23 0.485971 0 65 0.485971 1
gene 1 9 23 -0.663509 0 66 -0.663509 1
gene 1 10 23 1.08216 0 67 1.08216 1
gene 1 11 23 0.191398 0 68 0.191398 1
gene 1 12 23 0.635867 0 69 0.635867 1
gene 1 13 23 0.865587 0 70 0.865587 1
gene 1 14 23 0.877721 0 71 0.877721 1
gene 1 15 23 1.84671 0 72 1.84671 1
gene 1 16 23 0.829808 0 73 0.829808 1
gene 1 17 23 0.772525 0 74 0.772525 1
gene 1 18 23 0.166194 0 75 0.166194 1
gene 1 19 23 -0.80899 0 76 -0.80899 1
gene 1 20 21 -2.15688 0 77 -2.15688 1
gene 1 1 24 -1.15219 0 78 -1.15219 1
gene 1 24 23 0.00903658 0 79 0.00903658 1
gene 1 16 26 0.13862 0 86 0.13862 1
gene 1 26 23 -0.340733 0 87 -0.340733 1
gene 1 14 27 -0.0240379 0 88 -0.0240379 1
gene 1 27 22 0.354951 0 89 0.354951 1
gene 1 1 27 -0.232385 0 98 -0.232385 1
gene 1 26 21 -0.627003 0 100 -0.627003 1
gene 1 23 21 2.07708 0 102 2.07708 1
gene 1 23 22 -0.78745 0 104 -0.78745 1
gene 1 6 26 1.68712 0 105 1.68712 1
gene 1 27 27 -0.744669 1 110 -0.744669 1
gene 1 15 26 0.590629 0 112 0.590629 1
gene 1 15 29 -0.814619 0 113 -0.814619 1
gene 1 29 21 -0.770594 0 114 -0.770594 1
gene 1 24 31 -0.828268 0 120 -0.828268 1
gene 1 31 23 -1.15668 0 121 -1.15668 1
gene 1 1 32 -0.497041 0 122 -0.497041 1
gene 1 32 20 -1.24866 0 123 -1.24866 1
gene 1 12 37 1.81423 0 141 1.81423 1
gene 1 37 20 2.69665 0 142 2.69665 1
gene 1 13 43 0.13306 0 156 0.13306 1
gene 1 43 20 -0.657102 0 157 -0.657102 1
gene 1 16 46 0.178488 0 169 0.178488 1
gene 1 46 20 0.190423 0 170 0.190423 1
gene 1 17 49 0.127739 0 176 0.127739 1
gene 1 49 23 0.14134 0 177 0.14134 1
gene 1 14 51 0.440275 0 181 0.440275 1
gene 1 51 21 0.122573 0 182 0.122573 1
gene 1 13 26 0.406524 0 205 0.406524 1
gene 1 24 26 -1.74029 0 212 -1.74029 1
gene 1 13 62 1.83063 0 221 1.83063 1
gene 1 62 21 -0.0779865 0 222 -0.0779865 1
gene 1 26 32 -0.0975057 0 228 -0.0975057 1
gene 1 3 66 2.75082 0 232 2.75082 1
gene 1 66 22 0.615219 0 233 0.615219 1
gene 1 20 69 -0.976955 0 247 -0.976955 1
gene 1 69 21 1.08032 0 248 1.08032 1
gene 1 4 26 -1.62472 0 254 -1.62472 1
gene 1 17 31 0.576427 0 257 0.576427 1
gene 1 14 69 -0.8817 0 265 -0.8817 1
gene 1 24 49 -0.503715 0 269 -0.503715 1
gene 1 4 73 0.251587 0 274 0.251587 1
gene 1 73 23 0.485223 0 275 0.485223 1
gene 1 24 22 -0.571654 0 297 -0.571654 1
gene 1 13 79 -0.338763 0 304 -0.338763 1
gene 1 79 62 0.217421 0 305 0.217421 1
gene 1 24 81 0.257951 0 326 0.257951 1
gene 1 81 26 -1.4255 0 327 -1.4255 1
gene 1 11 43 1.47814 0 344 1.47814 1
gene 1 43 46 0.0271868 0 349 0.0271868 1
gene 1 18 26 -0.215502 0 350 -0.215502 0
gene 1 31 31 -0.580135 1 358 -0.580135 1
gene 1 16 62 0.983048 0 379 0.983048 0
gene 1 3 99 -0.11645 0 420 -0.11645 1
gene 1 99 20 0.333995 0 421 0.333995 1
gene 1 31 101 -0.162191 1 425 -0.162191 1
gene 1 101 31 -0.612019 0 426 -0.612019 1
gene 1 12 109 0.306146 0 472 0.306146 1
gene 1 109 21 1.26193 0 473 1.26193 1
gene 1 18 123 -0.743153 0 554 -0.743153 1
gene 1 123 26 0.0430816 0 555 0.0430816 1
gene 1 31 49 -1.76403 0 567 -1.76403 1
gene 1 24 125 0.7694 0 573 0.7694 1
gene 1 125 22 0.0422041 0 574 0.0422041 1
gene 1 6 49 -0.322592 0 584 -0.322592 1
gene 1 31 22 1.10214 0 587 1.10214 1
gene 1 6 109 -0.129653 0 589 -0.129653 1
gene 1 2 127 -0.469166 0 595 -0.469166 1
gene 1 127 20 -0.88425 0 596 -0.88425 1
gene 1 5 49 -0.0523332 0 634 -0.0523332 1
gene 1 13 69 -1.30156 0 636 -1.30156 1
gene 1 5 109 -0.513756 0 653 -0.513756 1
gene 1 11 135 0.0472875 0 654 0.0472875 1
gene 1 135 20 1.90251 0 655 1.90251 1
gene 1 16 99 -0.014514 0 665 -0.014514 1
gene 1 127 51 1.94076 0 670 1.94076 1
gene 1 16 142 -0.239798 0 719 -0.239798 1
gene 1 142 62 0.173693 0 720 0.173693 1
gene 1 127 127 -0.192045 1 721 -0.192045 1
gene 1 127 24 0.307564 0 730 0.307564 1
gene 1 11 146 0.178019 0 751 0.178019 1
gene 1 146 43 -0.414002 0 752 -0.414002 1
gene 1 6 155 -0.298231 0 817 -0.298231 1
gene 1 155 20 0.216416 0 818 0.216416 1
gene 1 7 69 -0.227166 0 834 -0.227166 1
gene 1 127 62 0.0240789 0 861 0.0240789 1
gene 1 66 167 0.424206 0 898 0.424206 1
gene 1 167 22 0.0115307 0 899 0.0115307 1
gene 1 123 123 0.240762 1 918 0.240762 1
gene 1 24 123 0.272038 0 945 0.272038 1
gene 1 17 123 0.0928253 0 1051 0.0928253 1
gene 1 135 69 -0.00270847 0 1059 -0.00270847 1
gene 1 101 21 -0.306934 0 1084 -0.306934 1
gene 1 37 101 -0.172163 0 1091 -0.172163 1
gene 1 99 123 0.78899 0 1095 0.78899 1
gene 1 17 194 0.454076 0 1101 0.454076 1
gene 1 194 123 0.527089 0 1102 0.527089 1
gene 1 1 101 1.21654 0 1108 1.21654 1
gene 1 109 66 -0.091824 0 1134 -0.091824 1
gene 1 8 66 0.291003 0 1183 0.291003 1
gene 1 109 109 0.278334 1 1212 0.278334 1
gene 1 2 125 -0.0277272 0 1235 -0.0277272 1
gene 1 109 142 0.930542 0 1245 0.930542 1
gene 1 31 69 0.283263 0 1246 0.283263 1
gene 1 13 123 0.106019 0 1472 0.106019 1
gene 1 125 43 -0.378514 0 1475 -0.378514 1
gene 1 31 167 0.271759 0 1480 0.271759 1
gene 1 142 142 -0.297109 1 1502 -0.297109 1
gene 1 66 37 0.558149 0 1514 0.558149 1
gene 1 37 37 -0.248206 1 1645 -0.248206 1
gene 1 43 32 -0.143866 0 1651 -0.143866 1
gene 1 14 135 -0.311678 0 1701 -0.311678 1
gene 1 125 251 -0.00956039 0 1736 -0.00956039 1
gene 1 251 43 0.569365 0 1737 0.569365 1
gene 1 24 79 -0.409676 0 1759 -0.409676 1
genomeend 40328
genomestart 40333
trait 1 0.537033 0.042713 0.763715 0.173796 0.893656 0.154707 0.615916 0.164041 
node 1 1 1 1 0
node 2 1 1 1 0
node 3 1 1 1 0
node 4 1 1 1 0
node 5 1 1 1 0
node 6 1 1 1 0
node 7 1 1 1 0
node 8 1 1 1 0
node 9 1 1 1 0
node 10 1 1 1 0
node 11 1 1 1 0
node 12 1 1 1 0
node 13 1 1 1 0
node 14 1 1 1 0
node 15 1 1 1 0
node 16 1 1 1 0
node 17 1 1 1 0
node 18 1 1 1 0
node 19 1 1 3 0
node 20 1 0 2 0
node 21 1 0 2 0
node 22 1 0 2 0
node 23 1 0 2 0
node 24 1 0 0 0
node 26 1 0 0 0
node 27 1 0 0 0
node 31 1 0 0 0
node 32 1 0 0 0
node 37 1 0 0 0
node 43 1 0 0 0
node 46 1 0 0 0
node 49 1 0 0 0
node 51 1 0 0 0
node 62 1 0 0 0
node 66 1 0 0 0
node 69 1 0 0 0
node 79 1 0 0 0
node 81 1 0 0 0
node 99 1 0 0 0
node 101 1 0 0 0
node 109 1 0 0 0
node 123 1 0 0 0
node 125 1 0 0 0
node 127 1 0 0 0
node 135 1 0 0 0
node 142 1 0 0 0
node 146 1 0 0 0
node 155 1 0 0 0
node 167 1 0 0 0
node 185 1 0 0 0
node 194 1 0 0 0
node 230 1 0 0 0
node 245 1 0 0 0
gene 1 1 20 0.000260231 0 1 0.000260231 1
gene 1 2 20 0.920254 0 2 0.920254 1
gene 1 3 20 0.830812 0 3 0.830812 0
gene 1 4 20 -1.52727 0 4 -1.52727 1
gene 1 5 20 0.811358 0 5 0.811358 1
gene 1 6 20 0.0559685 0 6 0.0559685 0
gene 1 7 20 1.17566 0 7 1.17566 1
gene 1 8 20 -0.122585 0 8 -0.122585 1
gene 1 9 20 -0.466081 0 9 -0.466081 1
gene 1 10 20 -0.0458783 0 10 -0.0458783 1
gene 1 11 20 0.119641 0 11 0.119641 1
gene 1 12 20 -0.0190058 0 12 -0.0190058 1
gene 1 13 20 -0.810302 0 13 -0.810302 1
gene 1 14 20 -0.581843 0 14 -0.581843 1
gene 1 15 20 0.408882 0 15 0.408882 1
gene 1 16 20 1.05847 0 16 1.05847 1
gene 1 17 20 0.30275 0 17 0.30275 1
gene 1 18 20 -2.27439 0 18 -2.27439 1
gene 1 19 20 0.441601 0 19 0.441601 1
gene 1 1 21 -2.14099 0 20 -2.14099 1
gene 1 2 21 -0.530363 0 21 -0.530363 1
gene 1 3 21 -0.110867 0 22 -0.110867 1
gene 1 4 21 -0.406768 0 23 -0.406768 1
gene 1 5 21 0.133564 0 24 0.133564 1
gene 1 6 21 3 0 25 3 1
gene 1 7 21 0.358361 0 26 0.358361 1
gene 1 8 21 0.253658 0 27 0.253658 1
gene 1 9 21 0.0331632 0 28 0.0331632 1
gene 1 10 21 -2.50756 0 29 -2.50756 1
gene 1 11 21 -0.0880981 0 30 -0.0880981 1
gene 1 12 21 -0.490369 0 31 -0.490369 1
gene 1 13 21 0.330108 0 32 0.330108 1
gene 1 14 21 -0.43793 0 33 -0.43793 1
gene 1 15 21 -1.10988 0 34 -1.10988 1
gene 1 16 21 -0.340163 0 35 -0.340163 1
gene 1 17 21 -0.176768 0 36 -0.176768 1
gene 1 18 21 -0.366573 0 37 -0.366573 1
gene 1 19 21 -1.3479 0 38 -1.3479 1
gene 1 1 22 -0.181926 0 39 -0.181926 1
gene 1 2 22 -0.0477891 0 40 -0.0477891 1
gene 1 3 22 0.40078 0 41 0.40078 1
gene 1 4 22 0.545088 0 42 0.545088 1
gene 1 5 22 -0.504165 0 43 -0.504165 1
gene 1 6 22 -0.636795 0 44 -0.636795 1
gene 1 7 22 0.642591 0 45 0.642591 1
gene 1 8 22 1.04935 0 46 1.04935 1
gene 1 9 22 -1.70194 0 47 -1.70194 1
gene 1 10 22 -0.756468 0 48 -0.756468 1
gene 1 11 22 -0.296124 0 49 -0.296124 1
gene 1 12 22 0.36568 0 50 0.36568 1
gene 1 13 22 0.663445 0 51 0.663445 1
gene 1 14 22 -0.088569 0 52 -0.088569 1
gene 1 15 22 -0.78113 0 53 -0.78113 1
gene 1 16 22 0.545618 0 54 0.545618 1
gene 1 17 22 0.341771 0 55 0.341771 1
gene 1 18 22 0.75507 0 56 0.75507 1
gene 1 19 22 -1.68533 0 57 -1.68533 1
gene 1 1 23 0.0674485 0 58 0.0674485 1
gene 1 2 23 0.34336 0 59 0.34336 1
gene 1 3 23 -1.24926 0 60 -1.24926 1
gene 1 4 23 0.467921 0 61 0.467921 1
gene 1 5 23 0.519627 0 62 0.519627 1
gene 1 6 23 -0.122277 0 63 -0.122277 1
gene 1 7 23 1.95196 0 64 1.95196 1
gene 1 8 23 -0.157132 0 65 -0.157132 1
gene 1 9 23 0.244558 0 66 0.244558 1
gene 1 10 23 -0.107189 0 67 -0.107189 1
gene 1 11 23 -1.24815 0 68 -1.24815 1
gene 1 12 23 0.433157 0 69 0.433157 1
gene 1 13 23 -0.664889 0 70 -0.664889 1
gene 1 14 23 0.0798 0 71 0.0798 1
gene 1 15 23 1.51818 0 72 1.51818 1
gene 1 16 23 0.441402 0 73 0.441402 1
gene 1 17 23 -0.426918 0 74 -0.426918 1
gene 1 18 23 -0.0556314 0 75 -0.0556314 1
gene 1 19 23 -0.340081 0 76 -0.340081 1
gene 1 20 21 1.89929 0 77 1.89929 1
gene 1 1 24 0.188879 0 78 0.188879 1
gene 1 24 23 0.421413 0 79 0.421413 1
gene 1 16 26 -0.0904975 0 86 -0.0904975 1
gene 1 26 23 -0.478457 0 87 -0.478457 1
gene 1 14 27 0.417224 0 88 0.417224 1
gene 1 27 22 -0.194204 0 89 -0.194204 1
gene 1 1 27 0.285505 0 98 0.285505 1
gene 1 26 21 0.19867 0 100 0.19867 1
gene 1 23 21 -0.136036 0 102 -0.136036 1
gene 1 23 22 0.783618 0 104 0.783618 1
gene 1 6 26 0.184864 0 105 0.184864 1
gene 1 27 27 0.204082 1 110 0.204082 1
gene 1 24 31 0.0127072 0 120 0.0127072 1
gene 1 31 23 -0.140954 0 121 -0.140954 1
gene 1 1 32 0.769354 0 122 0.769354 1
gene 1 32 20 -0.403824 0 123 -0.403824 1
gene 1 12 37 -0.137183 0 141 -0.137183 1
gene 1 37 20 3 0 142 3 1
gene 1 13 43 -0.276213 0 156 -0.276213 1
gene 1 43 20 0.700439 0 157 0.700439 1
gene 1 16 46 -0.67984 0 169 -0.67984 1
gene 1 46 20 0.31192 0 170 0.31192 1
gene 1 17 49 0.237457 0 176 0.237457 1
gene 1 49 23 -0.0368632 0 177 -0.0368632 1
gene 1 14 51 0.369027 0 181 0.369027 1
gene 1 51 21 1.34562 0 182 1.34562 1
gene 1 13 26 -0.324766 0 205 -0.324766 1
gene 1 24 26 -0.196196 0 212 -0.196196 1
gene 1 13 62 -0.815397 0 221 -0.815397 0
gene 1 62 21 -1.85597 0 222 -1.85597 1
gene 1 26 32 -0.812059 0 228 -0.812059 1
gene 1 3 66 -1.00121 0 232 -1.00121 1
gene 1 66 22 1.0685 0 233 1.0685 1
gene 1 20 69 1.17309 0 247 1.17309 1
gene 1 69 21 -0.196383 0 248 -0.196383 1
gene 1 4 26 0.662135 0 254 0.662135 1
gene 1 17 31 -0.791051 0 257 -0.791051 1
gene 1 14 69 -0.00877664 0 265 -0.00877664 1
gene 1 24 49 0.438083 0 269 0.438083 1
gene 1 24 22 0.21132 0 297 0.21132 1
gene 1 13 79 0.0140083 0 304 0.0140083 1
gene 1 79 62 2.37402 0 305 2.37402 1
gene 1 24 81 0.3418 0 326 0.3418 1
gene 1 81 26 -0.0732541 0 327 -0.0732541 1
gene 1 11 43 0.730909 0 344 0.730909 1
gene 1 43 46 0.180638 0 349 0.180638 1
gene 1 18 26 0.571815 0 350 0.571815 0
gene 1 31 31 -0.148096 1 358 -0.148096 1
gene 1 16 62 -0.0596202 0 379 -0.0596202 0
gene 1 3 99 -1.68153 0 420 -1.68153 1
gene 1 99 20 -0.513849 0 421 -0.513849 1
gene 1 31 101 0.341535 1 425 0.341535 1
gene 1 101 31 -1.37951 0 426 -1.37951 1
gene 1 12 109 1.26924 0 472 1.26924 1
gene 1 109 21 0.99654 0 473 0.99654 1
gene 1 12 51 0.56077 0 486 0.56077 1
gene 1 18 123 0.124545 0 554 0.124545 1
gene 1 123 26 0.697075 0 555 0.697075 1
gene 1 31 49 -0.167189 0 567 -0.167189 1
gene 1 24 125 0.43721 0 573 0.43721 1
gene 1 125 22 0.541156 0 574 0.541156 1
gene 1 6 49 -1.10495 0 584 -1.10495 1
gene 1 31 22 -0.513078 0 587 -0.513078 1
gene 1 6 109 0.97425 0 589 0.97425 1
gene 1 2 127 -3 0 595 -3 1
gene 1 127 20 0.820805 0 596 0.820805 1
gene 1 5 49 -0.096391 0 634 -0.096391 1
gene 1 13 69 -0.895005 0 636 -0.895005 1
gene 1 5 109 0.521206 0 653 0.521206 1
gene 1 11 135 -1.66427 0 654 -1.66427 1
gene 1 135 20 -0.867276 0 655 -0.867276 1
gene 1 16 99 0.402807 0 665 0.402807 1
gene 1 127 51 0.619494 0 670 0.619494 1
gene 1 16 142 0.00727846 0 719 0.00727846 1
gene 1 142 62 0.22217 0 720 0.22217 1
gene 1 127 127 -0.521762 1 721 -0.521762 1
gene 1 127 24 -0.177946 0 730 -0.177946 1
gene 1 11 146 0.378388 0 751 0.378388 1
gene 1 146 43 0.560327 0 752 0.560327 1
gene 1 3 127 0.0218411 0 793 0.0218411 1
gene 1 6 155 0.0206622 0 817 0.0206622 0
gene 1 155 20 0.391525 0 818 0.391525 1
gene 1 7 69 0.156225 0 834 0.156225 1
gene 1 127 62 -0.0276916 0 861 -0.0276916 1
gene 1 66 167 0.186501 0 898 0.186501 1
gene 1 167 22 -0.0893307 0 899 -0.0893307 1
gene 1 123 123 -0.214741 1 918 -0.214741 1
gene 1 24 123 0.246723 0 945 0.246723 1
gene 1 127 185 -0.327887 0 996 -0.327887 1
gene 1 185 20 0.32997 0 997 0.32997 1
gene 1 17 123 0.396594 0 1051 0.396594 1
gene 1 135 69 -0.201517 0 1059 -0.201517 1
gene 1 109 127 -0.44739 0 1062 -0.44739 1
gene 1 101 21 -0.147594 0 1084 -0.147594 1
gene 1 37 101 0.0644216 0 1091 0.0644216 1
gene 1 99 123 0.346304 0 1095 0.346304 1
gene 1 17 194 0.146308 0 1101 0.146308 1
gene 1 194 123 -0.742553 0 1102 -0.742553 1
gene 1 1 101 0.241291 0 1108 0.241291 1
gene 1 11 66 0.451114 0 1128 0.451114 1
gene 1 109 66 -0.0305607 0 1134 -0.0305607 1
gene 1 8 66 -0.0956364 0 1183 -0.0956364 1
gene 1 109 109 1.72757 1 1212 1.72757 1
gene 1 2 125 1.16627 0 1235 1.16627 1
gene 1 109 142 -0.0329189 0 1245 -0.0329189 1
gene 1 125 43 -0.0822514 0 1475 -0.0822514 1
gene 1 31 167 -0.103837 0 1480 -0.103837 1
gene 1 18 142 0.154293 0 1495 0.154293 1
gene 1 66 37 -0.440606 0 1514 -0.440606 1
gene 1 125 62 0.159149 0 1520 0.159149 1
gene 1 6 230 -0.525033 0 1555 -0.525033 1
gene 1 230 155 -0.414849 0 1556 -0.414849 1
gene 1 51 194 -0.492381 0 1638 -0.492381 1
gene 1 8 127 0.0785526 0 1640 0.0785526 1
gene 1 230 245 0.00435764 0 1676 0.00435764 1
gene 1 245 155 0.31435 0 1677 0.31435 1
gene 1 146 230 0.135938 0 1720 0.135938 1
gene 1 10 167 -0.300468 0 1772 -0.300468 1
gene 1 230 20 0.797212 0 1787 0.797212 1
genomeend 40333
genomestart 40370
trait 1 0.271628 0 0.164987 0.942724 0.926673 0.73382 0.278507 0.16134 
node 1 1 1 1 0
node 2 1 1 1 0
node 3 1 1 1 0
node 4 1 1 1 0
node 5 1 1 1 0
node 6 1 1 1 0
node 7 1 1 1 0
node 8 1 1 1 0
node 9 1 1 1 0
node 10 1 1 1 0
node 11 1 1 1 0
node 12 1 1 1 0
node 13 1 1 1 0
node 14 1 1 1 0
node 15 1 1 1 0
node 16 1 1 1 0
node 17 1 1 1 0
node 18 1 1 1 0
node 19 1 1 3 0
node 20 1 0 2 0
node 21 1 0 2 0
node 22 1 0 2 0
node 23 1 0 2 0
node 24 1 0 0 0
node 26 1 0 0 0
node 27 1 0 0 0
node 29 1 0 0 0
node 31 1 0 0 0
node 32 1 0 0 0
node 37 1 0 0 0
node 43 1 0 0 0
node 46 1 0 0 0
node 49 1 0 0 0
node 51 1 0 0 0
node 62 1 0 0 0
node 66 1 0 0 0
node 69 1 0 0 0
node 73 1 0 0 0
node 79 1 0 0 0
node 81 1 0 0 0
node 96 1 0 0 0
node 98 1 0 0 0
node 99 1 0 0 0
node 101 1 0 0 0
node 109 1 0 0 0
node 123 1 0 0 0
node 125 1 0 0 0
node 127 1 0 0 0
node 135 1 0 0 0
node 142 1 0 0 0
node 146 1 0 0 0
node 148 1 0 0 0
node 149 1 0 0 0
node 152 1 0 0 0
node 155 1 0 0 0
node 167 1 0 0 0
node 194 1 0 0 0
node 198 1 0 0 0
node 202 1 0 0 0
node 231 1 0 0 0
gene 1 1 20 1.01343 0 1 1.01343 1
gene 1 2 20 0.240354 0 2 0.240354 1
gene 1 3 20 0.417154 0 3 0.417154 1
gene 1 4 20 -0.644212 0 4 -0.644212 1
gene 1 5 20 -0.0182401 0 5 -0.0182401 1
gene 1 6 20 0.602507 0 6 0.602507 0
gene 1 7 20 0.46437 0 7 0.46437 1
gene 1 8 20 0.256884 0 8 0.256884 1
gene 1 9 20 0.112639 0 9 0.112639 1
gene 1 10 20 -0.0169649 0 10 -0.0169649 1
gene 1 11 20 0.186515 0 11 0.186515 1
gene 1 12 20 0.0595401 0 12 0.0595401 1
gene 1 13 20 0.555531 0 13 0.555531 1
gene 1 14 20 -0.0789384 0 14 -0.0789384 1
gene 1 15 20 -0.549678 0 15 -0.549678 1
gene 1 16 20 0.989141 0 16 0.989141 1
gene 1 17 20 1.76356 0 17 1.76356 1
gene 1 18 20 0.597158 0 18 0.597158 1
gene 1 19 20 -1.0398 0 19 -1.0398 1
gene 1 1 21 -1.07279 0 20 -1.07279 1
gene 1 2 21 0.257695 0 21 0.257695 1
gene 1 3 21 -0.311591 0 22 -0.311591 1
gene 1 4 21 -0.420083 0 23 -0.420083 1
gene 1 5 21 1.28084 0 24 1.28084 1
gene 1 6 21 0.644147 0 25 0.644147 1
gene 1 7 21 0.520907 0 26 0.520907 1
gene 1 8 21 -0.228827 0 27 -0.228827 1
gene 1 9 21 1.17759 0 28 1.17759 1
gene 1 10 21 -0.516263 0 29 -0.516263 1
gene 1 11 21 0.352497 0 30 0.352497 1
gene 1 12 21 0.0485708 0 31 0.0485708 1
gene 1 13 21 1.69972 0 32 1.69972 1
gene 1 14 21 -2.08466 0 33 -2.08466 1
gene 1 15 21 -1.23783 0 34 -1.23783 1
gene 1 16 21 0.185605 0 35 0.185605 1
gene 1 17 21 -0.731287 0 36 -0.731287 1
gene 1 18 21 0.466539 0 37 0.466539 1
gene 1 19 21 -0.375064 0 38 -0.375064 1
gene 1 1 22 0.241015 0 39 0.241015 1
gene 1 2 22 0.159 0 40 0.159 1
gene 1 3 22 0.525711 0 41 0.525711 1
gene 1 4 22 0.165205 0 42 0.165205 1
gene 1 5 22 -0.0869576 0 43 -0.0869576 1
gene 1 6 22 -0.852973 0 44 -0.852973 1
gene 1 7 22 0.219124 0 45 0.219124 1
gene 1 8 22 -0.439426 0 46 -0.439426 1
gene 1 9 22 0.0757467 0 47 0.0757467 1
gene 1 10 22 1.3916 0 48 1.3916 1
gene 1 11 22 0.57854 0 49 0.57854 1
gene 1 12 22 -0.0111422 0 50 -0.0111422 1
gene 1 13 22 -0.176354 0 51 -0.176354 1
gene 1 14 22 -0.105235 0 52 -0.105235 1
gene 1 15 22 -1.02519 0 53 -1.02519 1
gene 1 16 22 0.54677 0 54 0.54677 1
gene 1 17 22 0.0258958 0 55 0.0258958 1
gene 1 18 22 0.239624 0 56 0.239624 1
gene 1 19 22 0.0240603 0 57 0.0240603 1
gene 1 1 23 -1.37761 0 58 -1.37761 1
gene 1 2 23 -0.703546 0 59 -0.703546 1
gene 1 3 23 -0.287321 0 60 -0.287321 1
gene 1 4 23 0.39799 0 61 0.39799 1
gene 1 5 23 -0.142677 0 62 -0.142677 1
gene 1 6 23 -0.114431 0 63 -0.114431 1
gene 1 7 23 0.601206 0 64 0.601206 1
gene 1 8 23 -0.490493 0 65 -0.490493 1
gene 1 9 23 -0.485643 0 66 -0.485643 1
gene 1 10 23 0.329436 0 67 0.329436 1
gene 1 11 23 1.05985 0 68 1.05985 1
gene 1 12 23 0.733212 0 69 0.733212 1
gene 1 13 23 0.718583 0 70 0.718583 1
gene 1 14 23 0.0879265 0 71 0.0879265 1
gene 1 15 23 0.612603 0 72 0.612603 1
gene 1 16 23 -0.443512 0 73 -0.443512 1
gene 1 17 23 -0.761162 0 74 -0.761162 1
gene 1 18 23 0.323598 0 75 0.323598 0
gene 1 19 23 -0.193975 0 76 -0.193975 1
gene 1 20 21 -0.580066 0 77 -0.580066 1
gene 1 1 24 -0.764586 0 78 -0.764586 1
gene 1 24 23 -0.156352 0 79 -0.156352 1
gene 1 16 26 -0.0832227 0 86 -0.0832227 1
gene 1 26 23 0.632263 0 87 0.632263 1
gene 1 14 27 1.18252 0 88 1.18252 1
gene 1 27 22 0.683639 0 89 0.683639 1
gene 1 1 27 -0.338678 0 98 -0.338678 1
gene 1 26 21 0.539657 0 100 0.539657 1
gene 1 23 21 -0.761175 0 102 -0.761175 1
gene 1 23 22 -0.723701 0 104 -0.723701 1
gene 1 6 26 -0.845902 0 105 -0.845902 1
gene 1 27 27 0.31547 1 110 0.31547 1
gene 1 15 26 -0.652439 0 112 -0.652439 1
gene 1 15 29 0.240182 0 113 0.240182 0
gene 1 29 21 1.34245 0 114 1.34245 1
gene 1 24 31 -0.344894 0 120 -0.344894 1
gene 1 31 23 -0.29035 0 121 -0.29035 1
gene 1 1 32 -0.183614 0 122 -0.183614 1
gene 1 32 20 -0.280299 0 123 -0.280299 1
gene 1 12 37 -0.326716 0 141 -0.326716 1
gene 1 37 20 3 0 142 3 1
gene 1 13 43 0.672182 0 156 0.672182 1
gene 1 43 20 0.194342 0 157 0.194342 1
gene 1 16 46 0.754458 0 169 0.754458 1
gene 1 46 20 0.487318 0 170 0.487318 1
gene 1 17 49 -0.92856 0 176 -0.92856 1
gene 1 49 23 0.722074 0 177 0.722074 1
gene 1 14 51 0.0181064 0 181 0.0181064 1
gene 1 51 21 0.0374551 0 182 0.0374551 1
gene 1 13 26 -0.337219 0 205 -0.337219 1
gene 1 24 26 0.348849 0 212 0.348849 1
gene 1 13 62 1.22813 0 221 1.22813 1
gene 1 62 21 -0.900798 0 222 -0.900798 1
gene 1 26 32 0.012367 0 228 0.012367 1
gene 1 3 66 0.959465 0 232 0.959465 1
gene 1 66 22 -0.475545 0 233 -0.475545 1
gene 1 20 69 -0.0800414 0 247 -0.0800414 1
gene 1 69 21 0.858351 0 248 0.858351 1
gene 1 4 26 -0.0168955 0 254 -0.0168955 1
gene 1 17 31 -0.276473 0 257 -0.276473 1
gene 1 14 69 -0.440259 0 265 -0.440259 1
gene 1 24 49 -0.129776 0 269 -0.129776 1
gene 1 4 73 0.744319 0 274 0.744319 1
gene 1 73 23 -0.407608 0 275 -0.407608 1
gene 1 24 22 0.408519 0 297 0.408519 1
gene 1 13 79 -1.23967 0 304 -1.23967 1
gene 1 79 62 -0.52089 0 305 -0.52089 1
gene 1 24 81 0.127034 0 326 0.127034 1
gene 1 81 26 -2.3096 0 327 -2.3096 1
gene 1 11 43 0.280513 0 344 0.280513 1
gene 1 43 46 -0.46017 0 349 -0.46017 1
gene 1 18 26 -0.479987 0 350 -0.479987 1
gene 1 49 69 0.835097 0 355 0.835097 1
gene 1 31 31 0.12689 1 358 0.12689 1
gene 1 5 27 -0.550485 0 371 -0.550485 1
gene 1 16 62 0.36083 0 379 0.36083 1
gene 1 13 96 0.307581 0 403 0.307581 1
gene 1 96 23 0.332779 0 404 0.332779 1
gene 1 18 98 0.172989 0 414 0.172989 1
gene 1 98 23 -0.837172 0 415 -0.837172 1
gene 1 3 99 0.18476 0 420 0.18476 0
gene 1 99 20 0.588724 0 421 0.588724 1
gene 1 31 101 -0.0952019 1 425 -0.0952019 1
gene 1 101 31 -0.0268786 0 426 -0.0268786 1
gene 1 29 24 -0.0254083 0 460 -0.0254083 1
gene 1 12 109 0.88757 0 472 0.88757 1
gene 1 109 21 -0.203124 0 473 -0.203124 1
gene 1 18 123 0.370581 0 554 0.370581 1
gene 1 123 26 -0.961592 0 555 -0.961592 1
gene 1 31 49 -0.237232 0 567 -0.237232 1
gene 1 24 125 0.519589 0 573 0.519589 1
gene 1 125 22 2.25743 0 574 2.25743 1
gene 1 6 49 -0.111236 0 584 -0.111236 1
gene 1 31 22 0.80818 0 587 0.80818 1
gene 1 6 109 0.521478 0 589 0.521478 1
gene 1 2 127 1.45015 0 595 1.45015 1
gene 1 127 20 0.124264 0 596 0.124264 1
gene 1 5 49 -0.736204 0 634 -0.736204 1
gene 1 13 69 -1.53076 0 636 -1.53076 1
gene 1 5 109 0.57873 0 653 0.57873 1
gene 1 11 135 0.159844 0 654 0.159844 1
gene 1 135 20 -0.487869 0 655 -0.487869 1
gene 1 16 99 0.571532 0 665 0.571532 1
gene 1 127 51 1.18789 0 670 1.18789 1
gene 1 16 142 -0.621418 0 719 -0.621418 1
gene 1 142 62 -0.526064 0 720 -0.526064 1
gene 1 127 127 -1.74511 1 721 -1.74511 1
gene 1 127 24 -0.596595 0 730 -0.596595 1
gene 1 16 51 -0.58348 0 750 -0.58348 1
gene 1 11 146 0.406287 0 751 0.406287 1
gene 1 146 43 0.887944 0 752 0.887944 1
gene 1 15 148 0.0733161 0 764 0.0733161 1
gene 1 148 29 -0.0694679 0 765 -0.0694679 1
gene 1 18 149 0.575632 0 770 0.575632 1
gene 1 149 123 -0.591024 0 771 -0.591024 1
gene 1 12 152 0.163 0 799 0.163 1
gene 1 152 37 -0.263929 0 800 -0.263929 1
gene 1 6 155 0.112794 0 817 0.112794 1
gene 1 155 20 0.429656 0 818 0.429656 1
gene 1 7 69 -0.157997 0 834 -0.157997 1
gene 1 127 62 -0.974008 0 861 -0.974008 1
gene 1 66 167 -0.0833269 0 898 -0.0833269 1
gene 1 167 22 -0.450483 0 899 -0.450483 1
gene 1 123 123 -0.204669 1 918 -0.204669 1
gene 1 24 123 -0.363621 0 945 -0.363621 1
gene 1 17 123 -0.55354 0 1051 -0.55354 1
gene 1 135 69 -0.17377 0 1059 -0.17377 1
gene 1 101 21 -0.392708 0 1084 -0.392708 1
gene 1 37 101 0.776395 0 1091 0.776395 1
gene 1 99 123 -0.107022 0 1095 -0.107022 1
gene 1 17 194 0.0730994 0 1101 0.0730994 1
gene 1 194 123 0.659648 0 1102 0.659648 1
gene 1 1 101 0.568152 0 1108 0.568152 1
gene 1 109 66 0.189524 0 1134 0.189524 1
gene 1 101 198 -0.320226 0 1140 -0.320226 1
gene 1 198 21 0.969957 0 1141 0.969957 1
gene 1 27 69 -1.16603 0 1157 -1.16603 1
gene 1 8 66 -0.133603 0 1183 -0.133603 1
gene 1 3 202 0.623247 0 1198 0.623247 1
gene 1 202 99 -0.486243 0 1199 -0.486243 1
gene 1 109 109 0.204085 1 1212 0.204085 1
gene 1 2 125 -0.654908 0 1235 -0.654908 1
gene 1 109 142 0.367598 0 1245 0.367598 1
gene 1 31 69 0.445448 0 1246 0.445448 1
gene 1 127 125 -0.212806 0 1450 -0.212806 1
gene 1 13 123 0.00500682 0 1472 0.00500682 1
gene 1 125 43 -0.149602 0 1475 -0.149602 1
gene 1 31 167 0.109648 0 1480 0.109648 1
gene 1 142 142 -0.18034 1 1502 -0.18034 1
gene 1 66 37 -0.208682 0 1514 -0.208682 1
gene 1 3 69 -0.663623 0 1552 -0.663623 1
gene 1 8 231 -0.196287 0 1557 -0.196287 1
gene 1 231 66 0.297914 0 1558 0.297914 1
gene 1 22 231 -0.802239 1 1592 -0.802239 1
gene 1 142 101 -0.289037 0 1599 -0.289037 1
gene 1 96 69 0.437635 0 1679 0.437635 1
gene 1 79 26 0.244592 0 1771 0.244592 1
genomeend 40370
genomestart 40451
trait 1 0.0695253 0 0 0.635038 0.693071 0 1 0.207289 
node 1 1 1 1 0
node 2 1 1 1 0
node 3 1 1 1 0
node 4 1 1 1 0
node 5 1 1 1 0
node 6 1 1 1 0
node 7 1 1 1 0
node 8 1 1 1 0
node 9 1 1 1 0
node 10 1 1 1 0
node 11 1 1 1 0
node 12 1 1 1 0
node 13 1 1 1 0
node 14 1 1 1 0
node 15 1 1 1 0
node 16 1 1 1 0
node 17 1 1 1 0
node 18 1 1 1 0
node 19 1 1 3 0
node 20 1 0 2 0
node 21 1 0 2 0
node 22 1 0 2 0
node 23 1 0 2 0
node 24 1 0 0 0
node 26 1 0 0 0
node 27 1 0 0 0
node 29 1 0 0 0
node 31 1 0 0 0
node 32 1 0 0 0
node 37 1 0 0 0
node 43 1 0 0 0
node 46 1 0 0 0
node 49 1 0 0 0
node 51 1 0 0 0
node 62 1 0 0 0
node 66 1 0 0 0
node 69 1 0 0 0
node 70 1 0 0 0
node 73 1 0 0 0
node 79 1 0 0 0
node 81 1 0 0 0
node 99 1 0 0 0
node 101 1 0 0 0
node 103 1 0 0 0
node 109 1 0 0 0
node 120 1 0 0 0
node 123 1 0 0 0
node 125 1 0 0 0
node 127 1 0 0 0
node 135 1 0 0 0
node 142 1 0 0 0
node 146 1 0 0 0
node 155 1 0 0 0
node 167 1 0 0 0
node 193 1 0 0 0
node 194 1 0 0 0
node 225 1 0 0 0
node 248 1 0 0 0
node 257 1 0 0 0
gene 1 1 20 0.269259 0 1 0.269259 1
gene 1 2 20 -0.217924 0 2 -0.217924 1
gene 1 3 20 -0.2879 0 3 -0.2879 1
gene 1 4 20 -0.227571 0 4 -0.227571 1
gene 1 5 20 0.766209 0 5 0.766209 1
gene 1 6 20 0.368765 0 6 0.368765 1
gene 1 7 20 0.36976 0 7 0.36976 1
gene 1 8 20 -0.467868 0 8 -0.467868 1
gene 1 9 20 3 0 9 3 1
gene 1 10 20 -0.235656 0 10 -0.235656 1
gene 1 11 20 0.0795584 0 11 0.0795584 1
gene 1 12 20 -0.586951 0 12 -0.586951 1
gene 1 13 20 0.232657 0 13 0.232657 1
gene 1 14 20 -0.786176 0 14 -0.786176 1
gene 1 15 20 -0.511343 0 15 -0.511343 1
gene 1 16 20 -0.383645 0 16 -0.383645 1
gene 1 17 20 -0.262294 0 17 -0.262294 1
gene 1 18 20 -0.742007 0 18 -0.742007 1
gene 1 19 20 -0.757809 0 19 -0.757809 1
gene 1 1 21 -0.338622 0 20 -0.338622 1
gene 1 2 21 -0.569371 0 21 -0.569371 1
gene 1 3 21 -0.257809 0 22 -0.257809 1
gene 1 4 21 -1.02263 0 23 -1.02263 1
gene 1 5 21 0.0173721 0 24 0.0173721 1
gene 1 6 21 0.504453 0 25 0.504453 1
gene 1 7 21 0.490829 0 26 0.490829 1
gene 1 8 21 2.37813 0 27 2.37813 1
gene 1 9 21 -0.243567 0 28 -0.243567 1
gene 1 10 21 0.699607 0 29 0.699607 1
gene 1 11 21 2.16001 0 30 2.16001 1
gene 1 12 21 -0.496901 0 31 -0.496901 1
gene 1 13 21 -0.0829857 0 32 -0.0829857 1
gene 1 14 21 -2.96368 0 33 -2.96368 1
gene 1 15 21 0.791198 0 34 0.791198 1
gene 1 16 21 1.39169 0 35 1.39169 1
gene 1 17 21 0.398098 0 36 0.398098 1
gene 1 18 21 -0.345085 0 37 -0.345085 1
gene 1 19 21 -0.00581378 0 38 -0.00581378 1
gene 1 1 22 -0.00104777 0 39 -0.00104777 1
gene 1 2 22 -0.127618 0 40 -0.127618 1
gene 1 3 22 -0.127582 0 41 -0.127582 1
gene 1 4 22 -0.284828 0 42 -0.284828 1
gene 1 5 22 0.590729 0 43 0.590729 1
gene 1 6 22 -0.967928 0 44 -0.967928 1
gene 1 7 22 1.00653 0 45 1.00653 1
gene 1 8 22 -1.39785 0 46 -1.39785 1
gene 1 9 22 -0.263192 0 47 -0.263192 1
gene 1 10 22 -0.129458 0 48 -0.129458 1
gene 1 11 22 0.398782 0 49 0.398782 1
gene 1 12 22 -0.054174 0 50 -0.054174 1
gene 1 13 22 -0.408679 0 51 -0.408679 1
gene 1 14 22 0.091989 0 52 0.091989 1
gene 1 15 22 -0.225834 0 53 -0.225834 1
gene 1 16 22 1.36842 0 54 1.36842 1
gene 1 17 22 -1.33034 0 55 -1.33034 1
gene 1 18 22 0.666083 0 56 0.666083 1
gene 1 19 22 0.143817 0 57 0.143817 1
gene 1 1 23 0.140495 0 58 0.140495 1
gene 1 2 23 -0.277675 0 59 -0.277675 1
gene 1 3 23 0.526466 0 60 0.526466 1
gene 1 4 23 0.647499 0 61 0.647499 1
gene 1 5 23 1.1744 0 62 1.1744 1
gene 1 6 23 0.690854 0 63 0.690854 1
gene 1 7 23 -0.0573265 0 64 -0.0573265 1
gene 1 8 23 0.0652538 0 65 0.0652538 1
gene 1 9 23 -1.03705 0 66 -1.03705 1
gene 1 10 23 -0.477619 0 67 -0.477619 1
gene 1 11 23 -0.112751 0 68 -0.112751 1
gene 1 12 23 -0.237041 0 69 -0.237041 1
gene 1 13 23 0.339404 0 70 0.339404 1
gene 1 14 23 -1.43015 0 71 -1.43015 1
gene 1 15 23 1.02918 0 72 1.02918 1
gene 1 16 23 -0.0957398 0 73 -0.0957398 1
gene 1 17 23 0.178032 0 74 0.178032 1
gene 1 18 23 -0.419029 0 75 -0.419029 1
gene 1 19 23 -0.00644546 0 76 -0.00644546 1
gene 1 20 21 -0.665362 0 77 -0.665362 1
gene 1 1 24 -1.02039 0 78 -1.02039 1
gene 1 24 23 -0.640113 0 79 -0.640113 1
gene 1 16 26 0.329303 0 86 0.329303 1
gene 1 26 23 0.360017 0 87 0.360017 1
gene 1 14 27 0.766054 0 88 0.766054 1
gene 1 27 22 0.0086127 0 89 0.0086127 1
gene 1 1 27 -0.325198 0 98 -0.325198 1
gene 1 26 21 0.751479 0 100 0.751479 1
gene 1 23 21 1.85546 0 102 1.85546 1
gene 1 23 22 0.0346894 0 104 0.0346894 1
gene 1 6 26 1.67171 0 105 1.67171 1
gene 1 27 27 0.147435 1 110 0.147435 1
gene 1 15 26 0.134633 0 112 0.134633 1
gene 1 15 29 0.808039 0 113 0.808039 1
gene 1 29 21 0.472987 0 114 0.472987 1
gene 1 24 31 0.757194 0 120 0.757194 1
gene 1 31 23 0.380472 0 121 0.380472 1
gene 1 1 32 0.859974 0 122 0.859974 1
gene 1 32 20 -0.162681 0 123 -0.162681 1
gene 1 12 37 0.926156 0 141 0.926156 1
gene 1 37 20 2.06829 0 142 2.06829 1
gene 1 13 43 -0.765074 0 156 -0.765074 1
gene 1 43 20 1.7043 0 157 1.7043 1
gene 1 16 46 -0.596938 0 169 -0.596938 1
gene 1 46 20 0.125229 0 170 0.125229 1
gene 1 17 49 -1.39321 0 176 -1.39321 1
gene 1 49 23 0.342947 0 177 0.342947 1
gene 1 14 51 0.463106 0 181 0.463106 1
gene 1 51 21 -0.392139 0 182 -0.392139 1
gene 1 13 26 0.279072 0 205 0.279072 1
gene 1 24 26 -0.539309 0 212 -0.539309 1
gene 1 13 62 1.9739 0 221 1.9739 1
gene 1 62 21 0.203263 0 222 0.203263 1
gene 1 26 32 0.665221 0 228 0.665221 1
gene 1 3 66 -0.508028 0 232 -0.508028 1
gene 1 66 22 -1.85298 0 233 -1.85298 1
gene 1 20 69 1.24199 0 247 1.24199 1
gene 1 69 21 -0.0218035 0 248 -0.0218035 1
gene 1 5 70 0.633095 0 249 0.633095 1
gene 1 70 22 0.260588 0 250 0.260588 1
gene 1 4 26 0.479116 0 254 0.479116 1
gene 1 17 31 -0.237063 0 257 -0.237063 1
gene 1 14 69 -2.92958 0 265 -2.92958 1
gene 1 24 49 0.613494 0 269 0.613494 1
gene 1 4 73 -1.07444 0 274 -1.07444 1
gene 1 73 23 0.924842 0 275 0.924842 1
gene 1 18 69 -0.636383 0 287 -0.636383 0
gene 1 24 22 0.27135 0 297 0.27135 1
gene 1 13 79 2.22685 0 304 2.22685 1
gene 1 79 62 0.498522 0 305 0.498522 1
gene 1 24 81 -2.07523 0 326 -2.07523 1
gene 1 81 26 0.543312 0 327 0.543312 1
gene 1 11 43 -0.148931 0 344 -0.148931 1
gene 1 43 46 0.41912 0 349 0.41912 1
gene 1 18 26 -0.0714863 0 350 -0.0714863 1
gene 1 31 31 0.272527 1 358 0.272527 1
gene 1 16 62 -1.97619 0 379 -1.97619 1
gene 1 3 99 -1.41449 0 420 -1.41449 1
gene 1 99 20 -0.210605 0 421 -0.210605 1
gene 1 31 101 1.59524 1 425 1.59524 1
gene 1 101 31 0.315712 0 426 0.315712 1
gene 1 12 103 0.36873 0 434 0.36873 1
gene 1 103 22 -0.131416 0 435 -0.131416 1
gene 1 12 109 -0.428802 0 472 -0.428802 1
gene 1 109 21 0.545499 0 473 0.545499 1
gene 1 9 24 0.536391 0 521 0.536391 1
gene 1 26 120 0.202505 0 536 0.202505 1
gene 1 120 21 -0.733062 0 537 -0.733062 1
gene 1 18 123 -0.751165 0 554 -0.751165 1
gene 1 123 26 -0.673063 0 555 -0.673063 1
gene 1 31 49 1.35209 0 567 1.35209 1
gene 1 24 125 0.180236 0 573 0.180236 1
gene 1 125 22 -0.0786247 0 574 -0.0786247 1
gene 1 6 49 2.35001 0 584 2.35001 1
gene 1 31 22 1.05798 0 587 1.05798 1
gene 1 6 109 0.764227 0 589 0.764227 1
gene 1 2 127 -0.115429 0 595 -0.115429 1
gene 1 127 20 1.95813 0 596 1.95813 1
gene 1 5 49 -0.284167 0 634 -0.284167 1
gene 1 13 69 0.0890423 0 636 0.0890423 1
gene 1 5 109 -0.783864 0 653 -0.783864 1
gene 1 11 135 0.299224 0 654 0.299224 1
gene 1 135 20 0.419375 0 655 0.419375 1
gene 1 16 99 0.260708 0 665 0.260708 1
gene 1 127 51 0.774234 0 670 0.774234 1
gene 1 16 142 0.199075 0 719 0.199075 1
gene 1 142 62 0.738631 0 720 0.738631 1
gene 1 127 127 -0.912403 1 721 -0.912403 1
gene 1 127 24 0.32304 0 730 0.32304 1
gene 1 11 146 0.24142 0 751 0.24142 1
gene 1 146 43 0.844445 0 752 0.844445 1
gene 1 6 155 -0.668679 0 817 -0.668679 1
gene 1 155 20 0.0696735 0 818 0.0696735 1
gene 1 7 69 -0.44275 0 834 -0.44275 1
gene 1 127 62 0.207773 0 861 0.207773 1
gene 1 66 167 0.427723 0 898 0.427723 1
gene 1 167 22 0.556197 0 899 0.556197 1
gene 1 123 123 0.553393 1 918 0.553393 1
gene 1 24 123 -0.233429 0 945 -0.233429 1
gene 1 17 123 0.319937 0 1051 0.319937 1
gene 1 135 69 1.13682 0 1059 1.13682 1
gene 1 101 21 -0.066321 0 1084 -0.066321 1
gene 1 127 193 -0.0751746 0 1089 -0.0751746 1
gene 1 193 62 -0.687592 0 1090 -0.687592 1
gene 1 37 101 -0.251199 0 1091 -0.251199 1
gene 1 99 123 1.12345 0 1095 1.12345 1
gene 1 4 99 -0.194026 0 1100 -0.194026 1
gene 1 17 194 0.494534 0 1101 0.494534 1
gene 1 194 123 0.115624 0 1102 0.115624 1
gene 1 1 101 0.824959 0 1108 0.824959 1
gene 1 109 66 -1.0853 0 1134 -1.0853 1
gene 1 8 66 0.0957813 0 1183 0.0957813 1
gene 1 109 109 -0.264551 1 1212 -0.264551 1
gene 1 2 125 0.468432 0 1235 0.468432 1
gene 1 109 142 0.268347 0 1245 0.268347 1
gene 1 31 69 0.0118406 0 1246 0.0118406 1
gene 1 2 49 -0.460377 0 1410 -0.460377 1
gene 1 37 225 -0.281654 0 1429 -0.281654 1
gene 1 225 101 0.391477 0 1430 0.391477 1
gene 1 127 125 -0.12112 0 1450 -0.12112 1
gene 1 13 123 -0.436213 0 1472 -0.436213 1
gene 1 125 43 -0.219517 0 1475 -0.219517 1
gene 1 31 167 -0.0229251 0 1480 -0.0229251 1
gene 1 142 142 1.28833 1 1502 1.28833 1
gene 1 66 37 0.164759 0 1514 0.164759 1
gene 1 142 101 -0.254179 0 1599 -0.254179 1
gene 1 142 51 -0.45064 0 1660 -0.45064 1
gene 1 37 248 0.169954 0 1692 0.169954 1
gene 1 248 225 0.0651079 0 1693 0.0651079 1
gene 1 194 32 -0.493311 0 1734 -0.493311 1
gene 1 24 99 1.00719 0 1746 1.00719 1
gene 1 10 142 0.336454 0 1782 0.336454 1
gene 1 37 123 -0.896976 0 1793 -0.896976 1
gene 1 18 257 -0.352773 0 1798 -0.352773 1
gene 1 257 69 -0.483769 0 1799 -0.483769 1
gene 1 73 99 -0.443433 0 1814 -0.443433 1
genomeend 40451
genomestart 40453
trait 1 0.0695253 0 0 0.635038 0.693071 0 1 0.207289 
node 1 1 1 1 0
node 2 1 1 1 0
node 3 1 1 1 0
node 4 1 1 1 0
node 5 1 1 1 0
node 6 1 1 1 0
node 7 1 1 1 0
node 8 1 1 1 0
node 9 1 1 1 0
node 10 1 1 1 0
node 11 1 1 1 0
node 12 1 1 1 0
node 13 1 1 1 0
node 14 1 1 1 0
node 15 1 1 1 0
node 16 1 1 1 0
node 17 1 1 1 0
node 18 1 1 1 0
node 19 1 1 3 0
node 20 1 0 2 0
node 21 1 0 2 0
node 22 1 0 2 0
node 23 1 0 2 0
node 24 1 0 0 0
node 26 1 0 0 0
node 27 1 0 0 0
node 29 1 0 0 0
node 31 1 0 0 0
node 32 1 0 0 0
node 37 1 0 0 0
node 43 1 0 0 0
node 46 1 0 0 0
node 49 1 0 0 0
node 51 1 0 0 0
node 62 1 0 0 0
node 66 1 0 0 0
node 69 1 0 0 0
node 70 1 0 0 0
node 73 1 0 0 0
node 79 1 0 0 0
node 81 1 0 0 0
node 99 1 0 0 0
node 101 1 0 0 0
node 103 1 0 0 0
node 109 1 0 0 0
node 120 1 0 0 0
node 123 1 0 0 0
node 125 1 0 0 0
node 127 1 0 0 0
node 135 1 0 0 0
node 142 1 0 0 0
node 146 1 0 0 0
node 155 1 0 0 0
node 167 1 0 0 0
node 193 1 0 0 0
node 194 1 0 0 0
node 225 1 0 0 0
node 248 1 0 0 0
node 257 1 0 0 0
gene 1 1 20 0.16258 0 1 0.16258 1
gene 1 2 20 -0.512524 0 2 -0.512524 1
gene 1 3 20 -0.0217951 0 3 -0.0217951 1
gene 1 4 20 0.188557 0 4 0.188557 1
gene 1 5 20 1.26574 0 5 1.26574 1
gene 1 6 20 0.0495855 0 6 0.0495855 1
gene 1 7 20 0.732268 0 7 0.732268 1
gene 1 8 20 -0.232894 0 8 -0.232894 1
gene 1 9 20 3 0 9 3 1
gene 1 10 20 -0.482987 0 10 -0.482987 1
gene 1 11 20 0.142654 0 11 0.142654 1
gene 1 12 20 -0.666431 0 12 -0.666431 1
gene 1 13 20 0.185394 0 13 0.185394 1
gene 1 14 20 -0.8902 0 14 -0.8902 1
gene 1 15 20 -0.354715 0 15 -0.354715 1
gene 1 16 20 0.0804182 0 16 0.0804182 1
gene 1 17 20 -0.53093 0 17 -0.53093 1
gene 1 18 20 -0.418842 0 18 -0.418842 1
gene 1 19 20 -0.286352 0 19 -0.286352 1
gene 1 1 21 -0.703703 0 20 -0.703703 1
gene 1 2 21 -0.566546 0 21 -0.566546 1
gene 1 3 21 0.120922 0 22 0.120922 1
gene 1 4 21 -0.888843 0 23 -0.888843 1
gene 1 5 21 -0.366937 0 24 -0.366937 1
gene 1 6 21 0.309789 0 25 0.309789 1
gene 1 7 21 0.153275 0 26 0.153275 1
gene 1 8 21 2.1509 0 27 2.1509 1
gene 1 9 21 -0.0366155 0 28 -0.0366155 1
gene 1 10 21 0.831924 0 29 0.831924 1
gene 1 11 21 1.99525 0 30 1.99525 1
gene 1 12 21 -0.207786 0 31 -0.207786 1
gene 1 13 21 -0.539844 0 32 -0.539844 1
gene 1 14 21 -3 0 33 -3 1
gene 1 15 21 0.524783 0 34 0.524783 1
gene 1 16 21 1.83331 0 35 1.83331 1
gene 1 17 21 0.155979 0 36 0.155979 1
gene 1 18 21 -0.27725 0 37 -0.27725 1
gene 1 19 21 -0.288982 0 38 -0.288982 1
gene 1 1 22 0.131145 0 39 0.131145 1
gene 1 2 22 -0.55299 0 40 -0.55299 1
gene 1 3 22 -0.611197 0 41 -0.611197 0
gene 1 4 22 -0.185244 0 42 -0.185244 1
gene 1 5 22 0.542417 0 43 0.542417 1
gene 1 6 22 -0.794042 0 44 -0.794042 1
gene 1 7 22 0.572709 0 45 0.572709 1
gene 1 8 22 -0.91643 0 46 -0.91643 1
gene 1 9 22 -0.702532 0 47 -0.702532 1
gene 1 10 22 -0.41298 0 48 -0.41298 1
gene 1 11 22 0.691215 0 49 0.691215 1
gene 1 12 22 -0.416809 0 50 -0.416809 1
gene 1 13 22 -0.347846 0 51 -0.347846 1
gene 1 14 22 -0.0810007 0 52 -0.0810007 1
gene 1 15 22 0.0226318 0 53 0.0226318 1
gene 1 16 22 1.11974 0 54 1.11974 1
gene 1 17 22 -1.67994 0 55 -1.67994 1
gene 1 18 22 0.765776 0 56 0.765776 1
gene 1 19 22 0.218369 0 57 0.218369 1
gene 1 1 23 0.146329 0 58 0.146329 1
gene 1 2 23 -0.0148409 0 59 -0.0148409 1
gene 1 3 23 0.722124 0 60 0.722124 1
gene 1 4 23 1.06244 0 61 1.06244 1
gene 1 5 23 0.9505 0 62 0.9505 1
gene 1 6 23 0.584032 0 63 0.584032 1
gene 1 7 23 -0.490653 0 64 -0.490653 1
gene 1 8 23 0.129625 0 65 0.129625 1
gene 1 9 23 -0.874561 0 66 -0.874561 1
gene 1 10 23 -0.799327 0 67 -0.799327 1
gene 1 11 23 0.347542 0 68 0.347542 1
gene 1 12 23 -0.416454 0 69 -0.416454 1
gene 1 13 23 -0.107005 0 70 -0.107005 1
gene 1 14 23 -1.83504 0 71 -1.83504 1
gene 1 15 23 0.809597 0 72 0.809597 1
gene 1 16 23 -0.0303764 0 73 -0.0303764 1
gene 1 17 23 0.553724 0 74 0.553724 1
gene 1 18 23 -0.854949 0 75 -0.854949 1
gene 1 19 23 -0.294814 0 76 -0.294814 1
gene 1 20 21 -0.513052 0 77 -0.513052 1
gene 1 1 24 -1.44695 0 78 -1.44695 1
gene 1 24 23 -0.754911 0 79 -0.754911 1
gene 1 16 26 0.708644 0 86 0.708644 1
gene 1 26 23 0.746959 0 87 0.746959 1
gene 1 14 27 0.657563 0 88 0.657563 1
gene 1 27 22 -0.215921 0 89 -0.215921 1
gene 1 1 27 -0.709075 0 98 -0.709075 1
gene 1 26 21 0.447791 0 100 0.447791 1
gene 1 23 21 1.96645 0 102 1.96645 1
gene 1 23 22 -0.0042566 0 104 -0.0042566 1
gene 1 6 26 1.26252 0 105 1.26252 1
gene 1 27 27 0.528041 1 110 0.528041 1
gene 1 15 26 0.0275904 0 112 0.0275904 1
gene 1 15 29 0.686063 0 113 0.686063 1
gene 1 29 21 0.485226 0 114 0.485226 1
gene 1 24 31 0.317255 0 120 0.317255 1
gene 1 31 23 0.372714 0 121 0.372714 1
gene 1 1 32 0.727116 0 122 0.727116 1
gene 1 32 20 -0.478504 0 123 -0.478504 1
gene 1 12 37 0.56971 0 141 0.56971 1
gene 1 37 20 1.6192 0 142 1.6192 1
gene 1 13 43 -0.568275 0 156 -0.568275 1
gene 1 43 20 1.28029 0 157 1.28029 1
gene 1 16 46 -1.04298 0 169 -1.04298 1
gene 1 46 20 -0.0752865 0 170 -0.0752865 1
gene 1 17 49 -1.20823 0 176 -1.20823 1
gene 1 49 23 -0.0183748 0 177 -0.0183748 1
gene 1 14 51 0.540039 0 181 0.540039 1
gene 1 51 21 -0.651141 0 182 -0.651141 1
gene 1 13 26 -0.00912352 0 205 -0.00912352 1
gene 1 24 26 -0.615689 0 212 -0.615689 1
gene 1 13 62 1.82906 0 221 1.82906 1
gene 1 62 21 0.195199 0 222 0.195199 1
gene 1 26 32 0.433423 0 228 0.433423 1
gene 1 3 66 -0.260458 0 232 -0.260458 1
gene 1 66 22 -1.50214 0 233 -1.50214 1
gene 1 20 69 1.56624 0 247 1.56624 1
gene 1 69 21 -0.504746 0 248 -0.504746 1
gene 1 5 70 0.935659 0 249 0.935659 1
gene 1 70 22 0.487997 0 250 0.487997 1
gene 1 4 26 0.183761 0 254 0.183761 1
gene 1 17 31 -0.122172 0 257 -0.122172 1
gene 1 14 69 -2.54175 0 265 -2.54175 1
gene 1 24 49 0.8385 0 269 0.8385 1
gene 1 4 73 -0.685136 0 274 -0.685136 1
gene 1 73 23 0.989657 0 275 0.989657 1
gene 1 18 69 -0.424998 0 287 -0.424998 0
gene 1 24 22 0.0771509 0 297 0.0771509 1
gene 1 13 79 2.5912 0 304 2.5912 1
gene 1 79 62 0.13706 0 305 0.13706 1
gene 1 24 81 -2.22687 0 326 -2.22687 1
gene 1 81 26 0.531976 0 327 0.531976 1
gene 1 11 43 -0.48457 0 344 -0.48457 1
gene 1 43 46 0.086874 0 349 0.086874 1
gene 1 18 26 -0.407265 0 350 -0.407265 1
gene 1 31 31 0.368498 1 358 0.368498 1
gene 1 16 62 -1.5215 0 379 -1.5215 1
gene 1 3 99 -1.41793 0 420 -1.41793 1
gene 1 99 20 -0.366256 0 421 -0.366256 1
gene 1 31 101 1.81962 1 425 1.81962 1
gene 1 101 31 0.036014 0 426 0.036014 1
gene 1 12 103 0.711603 0 434 0.711603 1
gene 1 103 22 0.299606 0 435 0.299606 1
gene 1 12 109 -0.549691 0 472 -0.549691 1
gene 1 109 21 0.476615 0 473 0.476615 1
gene 1 9 24 0.707714 0 521 0.707714 1
gene 1 26 120 -0.169395 0 536 -0.169395 1
gene 1 120 21 -0.612383 0 537 -0.612383 1
gene 1 18 123 -0.540175 0 554 -0.540175 1
gene 1 123 26 -0.319206 0 555 -0.319206 1
gene 1 31 49 1.71456 0 567 1.71456 1
gene 1 24 125 -0.265189 0 573 -0.265189 1
gene 1 125 22 0.398527 0 574 0.398527 1
gene 1 6 49 2.36208 0 584 2.36208 1
gene 1 31 22 1.04011 0 587 1.04011 1
gene 1 6 109 0.855434 0 589 0.855434 1
gene 1 2 127 0.029181 0 595 0.029181 1
gene 1 127 20 1.97446 0 596 1.97446 1
gene 1 5 49 -0.742877 0 634 -0.742877 1
gene 1 13 69 0.463694 0 636 0.463694 1
gene 1 5 109 -0.626814 0 653 -0.626814 1
gene 1 11 135 -0.154525 0 654 -0.154525 1
gene 1 135 20 0.540895 0 655 0.540895 1
gene 1 16 99 0.187785 0 665 0.187785 1
gene 1 127 51 0.625061 0 670 0.625061 1
gene 1 16 142 0.100286 0 719 0.100286 1
gene 1 142 62 0.853453 0 720 0.853453 1
gene 1 127 127 -1.03746 1 721 -1.03746 1
gene 1 127 24 0.176713 0 730 0.176713 1
gene 1 11 146 0.600193 0 751 0.600193 1
gene 1 146 43 0.361867 0 752 0.361867 1
gene 1 6 155 -0.404902 0 817 -0.404902 1
gene 1 155 20 -0.0830309 0 818 -0.0830309 1
gene 1 7 69 -0.44275 0 834 -0.44275 1
gene 1 127 62 -0.144103 0 861 -0.144103 1
gene 1 66 167 0.856541 0 898 0.856541 1
gene 1 167 22 0.556197 0 899 0.556197 1
gene 1 123 123 0.405632 1 918 0.405632 1
gene 1 24 123 0.179803 0 945 0.179803 1
gene 1 17 123 0.319937 0 1051 0.319937 1
gene 1 135 69 1.6214 0 1059 1.6214 1
gene 1 101 21 -0.510252 0 1084 -0.510252 1
gene 1 127 193 0.296223 0 1089 0.296223 1
gene 1 193 62 -1.12161 0 1090 -1.12161 1
gene 1 37 101 0.147564 0 1091 0.147564 1
gene 1 99 123 0.814149 0 1095 0.814149 1
gene 1 4 99 -0.194026 0 1100 -0.194026 1
gene 1 17 194 0.494534 0 1101 0.494534 1
gene 1 194 123 -0.00793327 0 1102 -0.00793327 1
gene 1 1 101 0.915967 0 1108 0.915967 1
gene 1 109 66 -0.704505 0 1134 -0.704505 1
gene 1 8 66 -0.292644 0 1183 -0.292644 1
gene 1 109 109 0.440036 1 1212 0.440036 1
gene 1 2 125 0.726881 0 1235 0.726881 1
gene 1 109 142 -0.251906 0 1245 -0.251906 1
gene 1 31 69 0.0118406 0 1246 0.0118406 1
gene 1 2 49 -0.460377 0 1410 -0.460377 1
gene 1 37 225 0.105702 0 1429 0.105702 1
gene 1 225 101 0.391477 0 1430 0.391477 1
gene 1 127 125 -0.12112 0 1450 -0.12112 1
gene 1 13 123 -0.436213 0 1472 -0.436213 1
gene 1 125 43 0.129008 0 1475 0.129008 1
gene 1 31 167 -0.129433 0 1480 -0.129433 1
gene 1 142 142 1.74045 1 1502 1.74045 1
gene 1 66 37 0.597774 0 1514 0.597774 1
gene 1 142 101 -0.0962637 0 1599 -0.0962637 1
gene 1 142 51 -0.45064 0 1660 -0.45064 1
gene 1 37 248 0.462867 0 1692 0.462867 1
gene 1 248 225 0.405358 0 1693 0.405358 1
gene 1 194 32 -0.967987 0 1734 -0.967987 1
gene 1 24 99 1.00719 0 1746 1.00719 1
gene 1 10 142 0.388357 0 1782 0.388357 1
gene 1 37 123 -0.935244 0 1793 -0.935244 1
gene 1 18 257 0.227576 0 1798 0.227576 1
gene 1 257 69 -0.943614 0 1799 -0.943614 1
genomeend 40453
genomestart 40466
trait 1 0.537033 0.042713 0.763715 0.173796 1 0 0.615916 0.164041 
node 1 1 1 1 0
node 2 1 1 1 0
node 3 1 1 1 0
node 4 1 1 1 0
node 5 1 1 1 0
node 6 1 1 1 0
node 7 1 1 1 0
node 8 1 1 1 0
node 9 1 1 1 0
node 10 1 1 1 0
node 11 1 1 1 0
node 12 1 1 1 0
node 13 1 1 1 0
node 14 1 1 1 0
node 15 1 1 1 0
node 16 1 1 1 0
node 17 1 1 1 0
node 18 1 1 1 0
node 19 1 1 3 0
node 20 1 0 2 0
node 21 1 0 2 0
node 22 1 0 2 0
node 23 1 0 2 0
node 24 1 0 0 0
node 26 1 0 0 0
node 27 1 0 0 0
node 31 1 0 0 0
node 32 1 0 0 0
node 37 1 0 0 0
node 43 1 0 0 0
node 46 1 0 0 0
node 49 1 0 0 0
node 51 1 0 0 0
node 62 1 0 0 0
node 66 1 0 0 0
node 69 1 0 0 0
node 79 1 0 0 0
node 81 1 0 0 0
node 99 1 0 0 0
node 101 1 0 0 0
node 109 1 0 0 0
node 123 1 0 0 0
node 125 1 0 0 0
node 127 1 0 0 0
node 135 1 0 0 0
node 142 1 0 0 0
node 146 1 0 0 0
node 155 1 0 0 0
node 167 1 0 0 0
node 185 1 0 0 0
node 194 1 0 0 0
node 230 1 0 0 0
node 245 1 0 0 0
gene 1 1 20 -0.391034 0 1 -0.391034 1
gene 1 2 20 0.931027 0 2 0.931027 1
gene 1 3 20 1.04803 0 3 1.04803 0
gene 1 4 20 -1.32102 0 4 -1.32102 1
gene 1 5 20 1.03221 0 5 1.03221 1
gene 1 6 20 -0.391868 0 6 -0.391868 0
gene 1 7 20 1.02953 0 7 1.02953 1
gene 1 8 20 -0.283714 0 8 -0.283714 1
gene 1 9 20 -0.0877228 0 9 -0.0877228 1
gene 1 10 20 -0.135702 0 10 -0.135702 1
gene 1 11 20 0.460174 0 11 0.460174 1
gene 1 12 20 -0.15339 0 12 -0.15339 1
gene 1 13 20 -0.595339 0 13 -0.595339 1
gene 1 14 20 -0.308003 0 14 -0.308003 1
gene 1 15 20 0.284923 0 15 0.284923 1
gene 1 16 20 0.635969 0 16 0.635969 1
gene 1 17 20 0.161781 0 17 0.161781 1
gene 1 18 20 -2.55616 0 18 -2.55616 1
gene 1 19 20 0.10688 0 19 0.10688 1
gene 1 1 21 -1.69633 0 20 -1.69633 1
gene 1 2 21 -1.00406 0 21 -1.00406 1
gene 1 3 21 -0.448835 0 22 -0.448835 1
gene 1 4 21 -0.878732 0 23 -0.878732 1
gene 1 5 21 0.411607 0 24 0.411607 1
gene 1 6 21 2.59997 0 25 2.59997 1
gene 1 7 21 0.133907 0 26 0.133907 1
gene 1 8 21 -0.115987 0 27 -0.115987 1
gene 1 9 21 -0.214633 0 28 -0.214633 1
gene 1 10 21 -2.15543 0 29 -2.15543 1
gene 1 11 21 0.373324 0 30 0.373324 1
gene 1 12 21 -0.0284722 0 31 -0.0284722 1
gene 1 13 21 0.637857 0 32 0.637857 1
gene 1 14 21 0.00246649 0 33 0.00246649 1
gene 1 15 21 -1.49307 0 34 -1.49307 1
gene 1 16 21 -0.304871 0 35 -0.304871 1
gene 1 17 21 0.203756 0 36 0.203756 1
gene 1 18 21 -0.794663 0 37 -0.794663 1
gene 1 19 21 -1.33732 0 38 -1.33732 1
gene 1 1 22 -0.362429 0 39 -0.362429 1
gene 1 2 22 -0.121369 0 40 -0.121369 1
gene 1 3 22 0.0353591 0 41 0.0353591 1
gene 1 4 22 0.960384 0 42 0.960384 1
gene 1 5 22 -0.575046 0 43 -0.575046 1
gene 1 6 22 -0.145289 0 44 -0.145289 1
gene 1 7 22 0.57515 0 45 0.57515 1
gene 1 8 22 0.879012 0 46 0.879012 1
gene 1 9 22 -1.98315 0 47 -1.98315 1
gene 1 10 22 -1.05955 0 48 -1.05955 1
gene 1 11 22 -0.495338 0 49 -0.495338 1
gene 1 12 22 0.302379 0 50 0.302379 1
gene 1 13 22 1.13977 0 51 1.13977 1
gene 1 14 22 -0.105977 0 52 -0.105977 1
gene 1 15 22 -0.808616 0 53 -0.808616 1
gene 1 16 22 0.893829 0 54 0.893829 1
gene 1 17 22 0.799711 0 55 0.799711 1
gene 1 18 22 0.620729 0 56 0.620729 1
gene 1 19 22 -1.53073 0 57 -1.53073 1
gene 1 1 23 0.360834 0 58 0.360834 1
gene 1 2 23 0.197882 0 59 0.197882 1
gene 1 3 23 -1.38825 0 60 -1.38825 1
gene 1 4 23 0.812264 0 61 0.812264 1
gene 1 5 23 1.01176 0 62 1.01176 1
gene 1 6 23 -0.154619 0 63 -0.154619 1
gene 1 7 23 1.75265 0 64 1.75265 1
gene 1 8 23 -0.655701 0 65 -0.655701 1
gene 1 9 23 0.707992 0 66 0.707992 1
gene 1 10 23 -0.310231 0 67 -0.310231 1
gene 1 11 23 -1.44684 0 68 -1.44684 1
gene 1 12 23 0.504057 0 69 0.504057 1
gene 1 13 23 -1.15423 0 70 -1.15423 1
gene 1 14 23 0.247467 0 71 0.247467 1
gene 1 15 23 1.8518 0 72 1.8518 1
gene 1 16 23 0.627955 0 73 0.627955 1
gene 1 17 23 -0.158889 0 74 -0.158889 1
gene 1 18 23 0.24641 0 75 0.24641 1
gene 1 19 23 -0.440982 0 76 -0.440982 1
gene 1 20 21 2.20577 0 77 2.20577 1
gene 1 1 24 0.263196 0 78 0.263196 1
gene 1 24 23 0.350654 0 79 0.350654 1
gene 1 16 26 -0.329763 0 86 -0.329763 1
gene 1 26 23 -0.934898 0 87 -0.934898 1
gene 1 14 27 -0.0152831 0 88 -0.0152831 1
gene 1 27 22 -0.349292 0 89 -0.349292 1
gene 1 1 27 0.0843982 0 98 0.0843982 1
gene 1 26 21 -0.0076731 0 100 -0.0076731 1
gene 1 23 21 -0.154419 0 102 -0.154419 1
gene 1 23 22 0.574483 0 104 0.574483 1
gene 1 6 26 -0.0848538 0 105 -0.0848538 1
gene 1 27 27 -0.00787823 1 110 -0.00787823 1
gene 1 24 31 0.125231 0 120 0.125231 1
gene 1 31 23 -0.179225 0 121 -0.179225 1
gene 1 1 32 1.01805 0 122 1.01805 1
gene 1 32 20 -0.228186 0 123 -0.228186 1
gene 1 12 37 -0.134256 0 141 -0.134256 1
gene 1 37 20 3 0 142 3 1
gene 1 13 43 -0.627077 0 156 -0.627077 1
gene 1 43 20 0.837437 0 157 0.837437 1
gene 1 16 46 -1.11651 0 169 -1.11651 1
gene 1 46 20 0.493514 0 170 0.493514 1
gene 1 17 49 0.621337 0 176 0.621337 1
gene 1 49 23 -0.534221 0 177 -0.534221 1
gene 1 14 51 0.748029 0 181 0.748029 1
gene 1 51 21 0.907098 0 182 0.907098 1
gene 1 13 26 -0.702504 0 205 -0.702504 1
gene 1 24 26 0.180703 0 212 0.180703 1
gene 1 13 62 -0.591356 0 221 -0.591356 0
gene 1 62 21 -1.9994 0 222 -1.9994 1
gene 1 26 32 -1.09118 0 228 -1.09118 1
gene 1 3 66 -1.1348 0 232 -1.1348 1
gene 1 66 22 1.37954 0 233 1.37954 1
gene 1 20 69 0.758697 0 247 0.758697 1
gene 1 69 21 0.22571 0 248 0.22571 1
gene 1 4 26 0.617488 0 254 0.617488 1
gene 1 17 31 -1.18749 0 257 -1.18749 1
gene 1 14 69 0.238095 0 265 0.238095 1
gene 1 24 49 0.0686257 0 269 0.0686257 1
gene 1 24 22 0.592766 0 297 0.592766 1
gene 1 13 79 -0.351977 0 304 -0.351977 1
gene 1 79 62 2.03698 0 305 2.03698 1
gene 1 24 81 0.570796 0 326 0.570796 1
gene 1 81 26 -0.313594 0 327 -0.313594 1
gene 1 11 43 0.276774 0 344 0.276774 1
gene 1 43 46 0.245925 0 349 0.245925 1
gene 1 18 26 0.595951 0 350 0.595951 0
gene 1 31 31 -0.557658 1 358 -0.557658 1
gene 1 16 62 0.228735 0 379 0.228735 0
gene 1 3 99 -1.70572 0 420 -1.70572 1
gene 1 99 20 -0.339401 0 421 -0.339401 1
gene 1 31 101 -0.102112 1 425 -0.102112 1
gene 1 101 31 -1.50418 0 426 -1.50418 1
gene 1 12 109 1.56373 0 472 1.56373 1
gene 1 109 21 0.674977 0 473 0.674977 1
gene 1 12 51 1.02477 0 486 1.02477 1
gene 1 18 123 0.0591148 0 554 0.0591148 1
gene 1 123 26 0.822297 0 555 0.822297 1
gene 1 31 49 -0.500022 0 567 -0.500022 1
gene 1 24 125 0.748818 0 573 0.748818 1
gene 1 125 22 0.0857658 0 574 0.0857658 1
gene 1 6 49 -1.42006 0 584 -1.42006 1
gene 1 31 22 -0.759176 0 587 -0.759176 1
gene 1 6 109 1.45357 0 589 1.45357 1
gene 1 2 127 -2.56447 0 595 -2.56447 1
gene 1 127 20 0.837377 0 596 0.837377 1
gene 1 5 49 0.174486 0 634 0.174486 1
gene 1 13 69 -1.14839 0 636 -1.14839 1
gene 1 5 109 0.994253 0 653 0.994253 1
gene 1 11 135 -1.3747 0 654 -1.3747 1
gene 1 135 20 -1.00749 0 655 -1.00749 1
gene 1 16 99 0.0720182 0 665 0.0720182 1
gene 1 127 51 0.319372 0 670 0.319372 1
gene 1 16 142 -0.391901 0 719 -0.391901 1
gene 1 142 62 0.103358 0 720 0.103358 1
gene 1 127 127 -0.631525 1 721 -0.631525 1
gene 1 127 24 -0.431632 0 730 -0.431632 1
gene 1 11 146 -0.112464 0 751 -0.112464 1
gene 1 146 43 0.922479 0 752 0.922479 1
gene 1 3 127 0.00358514 0 793 0.00358514 1
gene 1 6 155 -0.0522265 0 817 -0.0522265 0
gene 1 155 20 0.66156 0 818 0.66156 1
gene 1 7 69 -0.0133318 0 834 -0.0133318 1
gene 1 127 62 -0.0276916 0 861 -0.0276916 1
gene 1 66 167 0.583519 0 898 0.583519 1
gene 1 167 22 0.352606 0 899 0.352606 1
gene 1 123 123 0.19448 1 918 0.19448 1
gene 1 24 123 0.246723 0 945 0.246723 1
gene 1 127 185 -0.747745 0 996 -0.747745 1
gene 1 185 20 -0.447254 0 997 -0.447254 1
gene 1 17 123 0.255222 0 1051 0.255222 1
gene 1 135 69 -0.201517 0 1059 -0.201517 1
gene 1 109 127 0.0508791 0 1062 0.0508791 1
gene 1 101 21 -0.394302 0 1084 -0.394302 1
gene 1 37 101 -0.447162 0 1091 -0.447162 1
gene 1 99 123 -0.10795 0 1095 -0.10795 1
gene 1 17 194 0.574683 0 1101 0.574683 1
gene 1 194 123 -1.0669 0 1102 -1.0669 1
gene 1 1 101 0.354381 0 1108 0.354381 1
gene 1 11 66 -0.263067 0 1128 -0.263067 1
gene 1 109 66 -0.0305607 0 1134 -0.0305607 1
gene 1 8 66 0.272666 0 1183 0.272666 1
gene 1 109 109 1.49796 1 1212 1.49796 1
gene 1 2 125 0.0604297 0 1235 0.0604297 1
gene 1 109 142 -0.457129 0 1245 -0.457129 1
gene 1 125 43 -0.0515509 0 1475 -0.0515509 1
gene 1 31 167 0.121567 0 1480 0.121567 1
gene 1 18 142 -0.0704915 0 1495 -0.0704915 1
gene 1 66 37 -0.649087 0 1514 -0.649087 1
gene 1 125 62 0.283907 0 1520 0.283907 1
gene 1 6 230 -0.966665 0 1555 -0.966665 1
gene 1 230 155 0.369959 0 1556 0.369959 1
gene 1 51 194 -0.0381631 0 1638 -0.0381631 1
gene 1 8 127 -0.121858 0 1640 -0.121858 1
gene 1 230 245 0.182416 0 1676 0.182416 1
gene 1 245 155 -0.130367 0 1677 -0.130367 1
gene 1 146 230 -0.034042 0 1720 -0.034042 1
gene 1 10 167 -0.780458 0 1772 -0.780458 1
gene 1 230 20 0.797212 0 1787 0.797212 1
genomeend 40466
genomestart 40487
trait 1 0.362534 0.445503 0.430762 0.34481 0.878293 0.662694 0.988434 0.537854 
node 1 1 1 1 0
node 2 1 1 1 0
node 3 1 1 1 0
node 4 1 1 1 0
node 5 1 1 1 0
node 6 1 1 1 0
node 7 1 1 1 0
node 8 1 1 1 0
node 9 1 1 1 0
node 10 1 1 1 0
node 11 1 1 1 0
node 12 1 1 1 0
node 13 1 1 1 0
node 14 1 1 1 0
node 15 1 1 1 0
node 16 1 1 1 0
node 17 1 1 1 0
node 18 1 1 1 0
node 19 1 1 3 0
node 20 1 0 2 0
node 21 1 0 2 0
node 22 1 0 2 0
node 23 1 0 2 0
node 24 1 0 0 0
node 26 1 0 0 0
node 27 1 0 0 0
node 29 1 0 0 0
node 31 1 0 0 0
node 32 1 0 0 0
node 37 1 0 0 0
node 43 1 0 0 0
node 46 1 0 0 0
node 49 1 0 0 0
node 51 1 0 0 0
node 62 1 0 0 0
node 66 1 0 0 0
node 69 1 0 0 0
node 73 1 0 0 0
node 79 1 0 0 0
node 81 1 0 0 0
node 99 1 0 0 0
node 101 1 0 0 0
node 109 1 0 0 0
node 123 1 0 0 0
node 125 1 0 0 0
node 127 1 0 0 0
node 135 1 0 0 0
node 142 1 0 0 0
node 146 1 0 0 0
node 155 1 0 0 0
node 167 1 0 0 0
node 194 1 0 0 0
node 251 1 0 0 0
gene 1 1 20 1.34094 0 1 1.34094 1
gene 1 2 20 0.563975 0 2 0.563975 1
gene 1 3 20 -0.0656317 0 3 -0.0656317 0
gene 1 4 20 -0.661418 0 4 -0.661418 1
gene 1 5 20 0.666371 0 5 0.666371 1
gene 1 6 20 0.076877 0 6 0.076877 0
gene 1 7 20 -0.0547316 0 7 -0.0547316 1
gene 1 8 20 0.166371 0 8 0.166371 1
gene 1 9 20 1.96524 0 9 1.96524 1
gene 1 10 20 0.30129 0 10 0.30129 1
gene 1 11 20 1.01557 0 11 1.01557 1
gene 1 12 20 1.60612 0 12 1.60612 1
gene 1 13 20 0.0796876 0 13 0.0796876 1
gene 1 14 20 -0.692404 0 14 -0.692404 1
gene 1 15 20 0.306551 0 15 0.306551 1
gene 1 16 20 -0.806712 0 16 -0.806712 1
gene 1 17 20 -0.593568 0 17 -0.593568 1
gene 1 18 20 -0.415817 0 18 -0.415817 1
gene 1 19 20 1.16979 0 19 1.16979 1
gene 1 1 21 -2.29772 0 20 -2.29772 1
gene 1 2 21 -1.12677 0 21 -1.12677 1
gene 1 3 21 -0.308285 0 22 -0.308285 1
gene 1 4 21 -1.11012 0 23 -1.11012 1
gene 1 5 21 -0.285905 0 24 -0.285905 1
gene 1 6 21 2.09618 0 25 2.09618 1
gene 1 7 21 -0.707116 0 26 -0.707116 1
gene 1 8 21 0.460967 0 27 0.460967 1
gene 1 9 21 0.0194764 0 28 0.0194764 1
gene 1 10 21 -0.694301 0 29 -0.694301 1
gene 1 11 21 1.09938 0 30 1.09938 1
gene 1 12 21 -0.81493 0 31 -0.81493 1
gene 1 13 21 0.194682 0 32 0.194682 1
gene 1 14 21 -0.806637 0 33 -0.806637 1
gene 1 15 21 0.763622 0 34 0.763622 1
gene 1 16 21 1.33382 0 35 1.33382 1
gene 1 17 21 1.23857 0 36 1.23857 1
gene 1 18 21 1.15962 0 37 1.15962 1
gene 1 19 21 -0.845208 0 38 -0.845208 1
gene 1 1 22 1.26639 0 39 1.26639 1
gene 1 2 22 0.255366 0 40 0.255366 1
gene 1 3 22 1.16656 0 41 1.16656 1
gene 1 4 22 -0.953239 0 42 -0.953239 1
gene 1 5 22 -0.0687379 0 43 -0.0687379 1
gene 1 6 22 1.8492 0 44 1.8492 1
gene 1 7 22 0.55984 0 45 0.55984 1
gene 1 8 22 -1.21493 0 46 -1.21493 1
gene 1 9 22 -0.47372 0 47 -0.47372 1
gene 1 10 22 0.196655 0 48 0.196655 1
gene 1 11 22 0.967095 0 49 0.967095 1
gene 1 12 22 -0.252229 0 50 -0.252229 1
gene 1 13 22 -0.87117 0 51 -0.87117 1
gene 1 14 22 -1.5637 0 52 -1.5637 0
gene 1 15 22 -0.600275 0 53 -0.600275 1
gene 1 16 22 -0.255027 0 54 -0.255027 1
gene 1 17 22 0.654209 0 55 0.654209 1
gene 1 18 22 0.408072 0 56 0.408072 1
gene 1 19 22 1.31455 0 57 1.31455 1
gene 1 1 23 -0.313024 0 58 -0.313024 1
gene 1 2 23 -1.07289 0 59 -1.07289 1
gene 1 3 23 0.167388 0 60 0.167388 1
gene 1 4 23 0.0539456 0 61 0.0539456 1
gene 1 5 23 0.295882 0 62 0.295882 1
gene 1 6 23 -0.147211 0 63 -0.147211 1
gene 1 7 23 -0.29952 0 64 -0.29952 1
gene 1 8 23 0.200634 0 65 0.200634 1
gene 1 9 23 -0.466423 0 66 -0.466423 1
gene 1 10 23 0.823925 0 67 0.823925 1
gene 1 11 23 -0.279658 0 68 -0.279658 1
gene 1 12 23 0.784776 0 69 0.784776 1
gene 1 13 23 1.08708 0 70 1.08708 1
gene 1 14 23 1.11998 0 71 1.11998 1
gene 1 15 23 2.68633 0 72 2.68633 1
gene 1 16 23 0.628116 0 73 0.628116 1
gene 1 17 23 1.68357 0 74 1.68357 1
gene 1 18 23 0.226821 0 75 0.226821 1
gene 1 19 23 -1.16941 0 76 -1.16941 1
gene 1 20 21 -1.38828 0 77 -1.38828 1
gene 1 1 24 -0.614187 0 78 -0.614187 1
gene 1 24 23 -0.525964 0 79 -0.525964 1
gene 1 16 26 0.30466 0 86 0.30466 1
gene 1 26 23 -0.59164 0 87 -0.59164 1
gene 1 14 27 0.281021 0 88 0.281021 1
gene 1 27 22 0.273767 0 89 0.273767 1
gene 1 1 27 0.847765 0 98 0.847765 1
gene 1 26 21 -0.554866 0 100 -0.554866 1
gene 1 23 21 1.71097 0 102 1.71097 1
gene 1 23 22 0.152268 0 104 0.152268 1
gene 1 6 26 2.05053 0 105 2.05053 1
gene 1 27 27 -1.00152 1 110 -1.00152 1
gene 1 15 26 0.850272 0 112 0.850272 1
gene 1 15 29 -0.617542 0 113 -0.617542 1
gene 1 29 21 -1.10199 0 114 -1.10199 1
gene 1 24 31 -0.892443 0 120 -0.892443 1
gene 1 31 23 -0.367484 0 121 -0.367484 1
gene 1 1 32 -0.112449 0 122 -0.112449 1
gene 1 32 20 -1.0447 0 123 -1.0447 1
gene 1 12 37 1.56578 0 141 1.56578 1
gene 1 37 20 3 0 142 3 1
gene 1 13 43 0.157409 0 156 0.157409 1
gene 1 43 20 -0.74746 0 157 -0.74746 1
gene 1 16 46 0.802691 0 169 0.802691 1
gene 1 46 20 0.720681 0 170 0.720681 1
gene 1 17 49 -0.432219 0 176 -0.432219 1
gene 1 49 23 1.17953 0 177 1.17953 1
gene 1 14 51 0.0288264 0 181 0.0288264 1
gene 1 51 21 -0.463793 0 182 -0.463793 1
gene 1 13 26 0.585695 0 205 0.585695 1
gene 1 24 26 -2.34101 0 212 -2.34101 1
gene 1 13 62 0.499422 0 221 0.499422 1
gene 1 62 21 0.0763849 0 222 0.0763849 1
gene 1 26 32 -1.29076 0 228 -1.29076 1
gene 1 3 66 2.24549 0 232 2.24549 1
gene 1 66 22 1.25192 0 233 1.25192 1
gene 1 20 69 -1.40247 0 247 -1.40247 1
gene 1 69 21 1.54176 0 248 1.54176 1
gene 1 4 26 -2.05763 0 254 -2.05763 1
gene 1 17 31 0.105389 0 257 0.105389 1
gene 1 14 69 -0.887623 0 265 -0.887623 1
gene 1 24 49 0.0292227 0 269 0.0292227 1
gene 1 4 73 0.28284 0 274 0.28284 1
gene 1 73 23 1.15438 0 275 1.15438 1
gene 1 24 22 -0.903966 0 297 -0.903966 1
gene 1 13 79 -0.53827 0 304 -0.53827 1
gene 1 79 62 0.790926 0 305 0.790926 1
gene 1 24 81 0.761619 0 326 0.761619 1
gene 1 81 26 -0.422825 0 327 -0.422825 1
gene 1 11 43 1.46534 0 344 1.46534 1
gene 1 43 46 1.24282 0 349 1.24282 1
gene 1 18 26 0.0168076 0 350 0.0168076 0
gene 1 31 31 -0.477479 1 358 -0.477479 1
gene 1 16 62 0.198593 0 379 0.198593 0
gene 1 3 99 0.165999 0 420 0.165999 1
gene 1 99 20 0.383676 0 421 0.383676 1
gene 1 31 101 -0.332607 1 425 -0.332607 1
gene 1 101 31 0.358493 0 426 0.358493 1
gene 1 12 109 0.181743 0 472 0.181743 1
gene 1 109 21 0.644275 0 473 0.644275 1
gene 1 18 123 -0.383448 0 554 -0.383448 1
gene 1 123 26 0.458483 0 555 0.458483 1
gene 1 31 49 -1.55691 0 567 -1.55691 1
gene 1 24 125 1.15934 0 573 1.15934 1
gene 1 125 22 0.102286 0 574 0.102286 1
gene 1 6 49 -0.405276 0 584 -0.405276 1
gene 1 31 22 1.44747 0 587 1.44747 1
gene 1 6 109 -0.425212 0 589 -0.425212 1
gene 1 2 127 -0.302417 0 595 -0.302417 1
gene 1 127 20 -0.591936 0 596 -0.591936 1
gene 1 5 49 -0.405515 0 634 -0.405515 1
gene 1 13 69 -1.68622 0 636 -1.68622 1
gene 1 5 109 -0.695059 0 653 -0.695059 1
gene 1 11 135 -0.494872 0 654 -0.494872 1
gene 1 135 20 2.32466 0 655 2.32466 1
gene 1 16 99 -0.660242 0 665 -0.660242 1
gene 1 127 51 0.94027 0 670 0.94027 1
gene 1 16 142 -0.451016 0 719 -0.451016 1
gene 1 142 62 -0.00549683 0 720 -0.00549683 1
gene 1 127 127 -0.221028 1 721 -0.221028 1
gene 1 127 24 -0.334586 0 730 -0.334586 1
gene 1 11 146 0.292496 0 751 0.292496 1
gene 1 146 43 0.0541274 0 752 0.0541274 1
gene 1 6 155 -0.0884169 0 817 -0.0884169 1
gene 1 155 20 -0.215178 0 818 -0.215178 1
gene 1 7 69 -0.489038 0 834 -0.489038 1
gene 1 127 62 0.193114 0 861 0.193114 1
gene 1 66 167 0.582177 0 898 0.582177 1
gene 1 167 22 -0.142638 0 899 -0.142638 1
gene 1 123 123 0.275832 1 918 0.275832 1
gene 1 24 123 0.160083 0 945 0.160083 1
gene 1 17 123 -0.00703116 0 1051 -0.00703116 1
gene 1 135 69 0.3822 0 1059 0.3822 1
gene 1 101 21 -0.326628 0 1084 -0.326628 1
gene 1 37 101 -0.425381 0 1091 -0.425381 1
gene 1 99 123 1.01141 0 1095 1.01141 1
gene 1 17 194 -0.205299 0 1101 -0.205299 1
gene 1 194 123 -0.0844212 0 1102 -0.0844212 1
gene 1 1 101 1.21654 0 1108 1.21654 1
gene 1 109 66 -1.07712 0 1134 -1.07712 1
gene 1 8 66 0.291003 0 1183 0.291003 1
gene 1 109 109 0.267374 1 1212 0.267374 1
gene 1 2 125 0.138752 0 1235 0.138752 1
gene 1 109 142 1.36071 0 1245 1.36071 1
gene 1 31 69 -0.202058 0 1246 -0.202058 1
gene 1 13 123 0.362229 0 1472 0.362229 1
gene 1 125 43 -0.378514 0 1475 -0.378514 1
gene 1 31 167 0.296023 0 1480 0.296023 1
gene 1 142 142 0.25692 1 1502 0.25692 1
gene 1 66 37 0.0606908 0 1514 0.0606908 1
gene 1 37 37 0.224639 1 1645 0.224639 1
gene 1 43 32 -0.256782 0 1651 -0.256782 1
gene 1 14 135 0.244868 0 1701 0.244868 1
gene 1 125 251 0.00834574 0 1736 0.00834574 1
gene 1 251 43 1.09233 0 1737 1.09233 1
gene 1 24 79 -0.288561 0 1759 -0.288561 1
genomeend 40487
genomestart 40494
trait 1 0.277847 0 0.146011 0.944927 0.914451 0.748868 0.278507 0.149518 
node 1 1 1 1 0
node 2 1 1 1 0
node 3 1 1 1 0
node 4 1 1 1 0
node 5 1 1 1 0
node 6 1 1 1 0
node 7 1 1 1 0
node 8 1 1 1 0
node 9 1 1 1 0
node 10 1 1 1 0
node 11 1 1 1 0
node 12 1 1 1 0
node 13 1 1 1 0
node 14 1 1 1 0
node 15 1 1 1 0
node 16 1 1 1 0
node 17 1 1 1 0
node 18 1 1 1 0
node 19 1 1 3 0
node 20 1 0 2 0
node 21 1 0 2 0
node 22 1 0 2 0
node 23 1 0 2 0
node 24 1 0 0 0
node 26 1 0 0 0
node 27 1 0 0 0
node 29 1 0 0 0
node 31 1 0 0 0
node 32 1 0 0 0
node 37 1 0 0 0
node 43 1 0 0 0
node 46 1 0 0 0
node 49 1 0 0 0
node 51 1 0 0 0
node 62 1 0 0 0
node 66 1 0 0 0
node 69 1 0 0 0
node 73 1 0 0 0
node 79 1 0 0 0
node 81 1 0 0 0
node 96 1 0 0 0
node 98 1 0 0 0
node 99 1 0 0 0
node 101 1 0 0 0
node 109 1 0 0 0
node 123 1 0 0 0
node 125 1 0 0 0
node 127 1 0 0 0
node 135 1 0 0 0
node 142 1 0 0 0
node 146 1 0 0 0
node 148 1 0 0 0
node 149 1 0 0 0
node 152 1 0 0 0
node 155 1 0 0 0
node 167 1 0 0 0
node 194 1 0 0 0
node 198 1 0 0 0
node 202 1 0 0 0
node 231 1 0 0 0
gene 1 1 20 0.328432 0 1 0.328432 1
gene 1 2 20 0.240354 0 2 0.240354 1
gene 1 3 20 0.907087 0 3 0.907087 1
gene 1 4 20 -0.644212 0 4 -0.644212 1
gene 1 5 20 -0.287536 0 5 -0.287536 1
gene 1 6 20 -0.0286482 0 6 -0.0286482 0
gene 1 7 20 0.46437 0 7 0.46437 1
gene 1 8 20 0.160861 0 8 0.160861 1
gene 1 9 20 -0.176561 0 9 -0.176561 1
gene 1 10 20 -0.397115 0 10 -0.397115 1
gene 1 11 20 -0.0561131 0 11 -0.0561131 1
gene 1 12 20 -0.362043 0 12 -0.362043 1
gene 1 13 20 0.359518 0 13 0.359518 1
gene 1 14 20 -0.256537 0 14 -0.256537 1
gene 1 15 20 -0.647054 0 15 -0.647054 1
gene 1 16 20 1.16075 0 16 1.16075 1
gene 1 17 20 0.306587 0 17 0.306587 1
gene 1 18 20 1.05343 0 18 1.05343 1
gene 1 19 20 -0.0793684 0 19 -0.0793684 1
gene 1 1 21 -0.57404 0 20 -0.57404 1
gene 1 2 21 -0.421911 0 21 -0.421911 1
gene 1 3 21 -0.406351 0 22 -0.406351 1
gene 1 4 21 -0.0861759 0 23 -0.0861759 1
gene 1 5 21 1.48896 0 24 1.48896 1
gene 1 6 21 0.0945237 0 25 0.0945237 1
