genomestart 3371
trait 1 0.32032 0.278479 0.865266 0.559233 0.0192476 0.619203 0.276017 0.377288 
node 1 1 1 1 0
node 2 1 1 1 0
node 3 1 1 1 0
node 4 1 1 1 0
node 5 1 1 1 0
node 6 1 1 1 0
node 7 1 1 1 0
node 8 1 1 1 0
node 9 1 1 1 0
node 10 1 1 1 0
node 11 1 1 1 0
node 12 1 1 1 0
node 13 1 1 1 0
node 14 1 1 1 0
node 15 1 1 1 0
node 16 1 1 1 0
node 17 1 1 1 0
node 18 1 1 1 0
node 19 1 1 3 0
node 20 1 0 2 0
node 21 1 0 2 0
node 22 1 0 2 0
node 23 1 0 2 0
node 28 1 0 0 0
node 35 1 0 0 0
node 36 1 0 0 0
node 68 1 0 0 0
node 72 1 0 0 0
node 75 1 0 0 0
gene 1 1 20 -0.135417 0 1 -0.135417 1
gene 1 2 20 -0.886154 0 2 -0.886154 1
gene 1 3 20 0.107758 0 3 0.107758 1
gene 1 4 20 0.348642 0 4 0.348642 1
gene 1 5 20 -0.0989943 0 5 -0.0989943 1
gene 1 6 20 -0.180593 0 6 -0.180593 1
gene 1 7 20 1.38592 0 7 1.38592 1
gene 1 8 20 -0.405681 0 8 -0.405681 1
gene 1 9 20 -0.490314 0 9 -0.490314 1
gene 1 10 20 -0.366834 0 10 -0.366834 1
gene 1 11 20 -1.17537 0 11 -1.17537 1
gene 1 12 20 0.726607 0 12 0.726607 1
gene 1 13 20 0.125341 0 13 0.125341 1
gene 1 14 20 0.0680015 0 14 0.0680015 0
gene 1 15 20 0.161873 0 15 0.161873 1
gene 1 16 20 -0.439027 0 16 -0.439027 1
gene 1 17 20 0.285098 0 17 0.285098 1
gene 1 18 20 0.555063 0 18 0.555063 1
gene 1 19 20 0.66099 0 19 0.66099 1
gene 1 1 21 0.0137537 0 20 0.0137537 1
gene 1 2 21 0.114068 0 21 0.114068 1
gene 1 3 21 -0.00508378 0 22 -0.00508378 1
gene 1 4 21 0.228309 0 23 0.228309 1
gene 1 5 21 0.465091 0 24 0.465091 1
gene 1 6 21 -0.368426 0 25 -0.368426 1
gene 1 7 21 0.787535 0 26 0.787535 1
gene 1 8 21 0.489087 0 27 0.489087 1
gene 1 9 21 -0.93339 0 28 -0.93339 1
gene 1 10 21 -0.477191 0 29 -0.477191 1
gene 1 11 21 -0.237886 0 30 -0.237886 1
gene 1 12 21 0.417995 0 31 0.417995 1
gene 1 13 21 -0.638451 0 32 -0.638451 1
gene 1 14 21 -0.0916857 0 33 -0.0916857 1
gene 1 15 21 -0.845358 0 34 -0.845358 1
gene 1 16 21 0.43919 0 35 0.43919 1
gene 1 17 21 0.243266 0 36 0.243266 1
gene 1 18 21 -0.204925 0 37 -0.204925 1
gene 1 19 21 0.15296 0 38 0.15296 1
gene 1 1 22 -0.729194 0 39 -0.729194 1
gene 1 2 22 -1.32217 0 40 -1.32217 1
gene 1 3 22 -0.0756621 0 41 -0.0756621 1
gene 1 4 22 0.763688 0 42 0.763688 1
gene 1 5 22 -0.26439 0 43 -0.26439 1
gene 1 6 22 0.215826 0 44 0.215826 1
gene 1 7 22 -1.01029 0 45 -1.01029 1
gene 1 8 22 1.06524 0 46 1.06524 1
gene 1 9 22 -0.369871 0 47 -0.369871 1
gene 1 10 22 0.243503 0 48 0.243503 1
gene 1 11 22 -0.379176 0 49 -0.379176 1
gene 1 12 22 1.02259 0 50 1.02259 1
gene 1 13 22 0.0972782 0 51 0.0972782 1
gene 1 14 22 0.704022 0 52 0.704022 1
gene 1 15 22 -0.0889655 0 53 -0.0889655 1
gene 1 16 22 0.0956511 0 54 0.0956511 1
gene 1 17 22 -0.24665 0 55 -0.24665 1
gene 1 18 22 -0.831804 0 56 -0.831804 1
gene 1 19 22 1.3348 0 57 1.3348 1
gene 1 1 23 -0.0813243 0 58 -0.0813243 1
gene 1 2 23 0.305467 0 59 0.305467 1
gene 1 3 23 0.283583 0 60 0.283583 1
gene 1 4 23 0.929766 0 61 0.929766 1
gene 1 5 23 0.732171 0 62 0.732171 1
gene 1 6 23 -0.818098 0 63 -0.818098 1
gene 1 7 23 -0.680378 0 64 -0.680378 1
gene 1 8 23 -0.214274 0 65 -0.214274 1
gene 1 9 23 -0.249213 0 66 -0.249213 1
gene 1 10 23 0.282289 0 67 0.282289 1
gene 1 11 23 0.319924 0 68 0.319924 1
gene 1 12 23 -0.245798 0 69 -0.245798 1
gene 1 13 23 2.44562 0 70 2.44562 1
gene 1 14 23 -0.322058 0 71 -0.322058 1
gene 1 15 23 -0.522688 0 72 -0.522688 0
gene 1 16 23 -0.730102 0 73 -0.730102 1
gene 1 17 23 0.5104 0 74 0.5104 1
gene 1 18 23 1.36904 0 75 1.36904 1
gene 1 19 23 -0.069942 0 76 -0.069942 1
gene 1 21 20 -0.433553 0 78 -0.433553 1
gene 1 22 22 0.119877 1 83 0.119877 1
gene 1 10 28 -0.704095 0 92 -0.704095 1
gene 1 28 20 0.235826 0 93 0.235826 1
gene 1 20 22 -0.311961 0 118 -0.311961 1
gene 1 3 35 -0.388558 0 129 -0.388558 1
gene 1 35 20 0.0211722 0 130 0.0211722 1
gene 1 1 36 -0.187775 0 131 -0.187775 1
gene 1 36 20 0.433896 0 132 0.433896 1
gene 1 23 23 -0.634448 1 206 -0.634448 1
gene 1 6 35 -0.217541 0 233 -0.217541 1
gene 1 14 68 0.516859 0 261 0.516859 1
gene 1 68 20 -0.0740585 0 262 -0.0740585 1
gene 1 4 28 0.12356 0 265 0.12356 1
gene 1 15 36 -0.33774 0 273 -0.33774 1
gene 1 12 72 1.47364 0 283 1.47364 1
gene 1 72 20 0.0816179 0 284 0.0816179 1
gene 1 15 75 1.03968 0 290 1.03968 1
gene 1 75 23 0.219785 0 291 0.219785 1
genomeend 3371
genomestart 3381
trait 1 0.0664388 0 0.0173618 0.0984813 0.0591982 0.0151492 0.111203 0.475322 
node 1 1 1 1 0
node 2 1 1 1 0
node 3 1 1 1 0
node 4 1 1 1 0
node 5 1 1 1 0
node 6 1 1 1 0
node 7 1 1 1 0
node 8 1 1 1 0
node 9 1 1 1 0
node 10 1 1 1 0
node 11 1 1 1 0
node 12 1 1 1 0
node 13 1 1 1 0
node 14 1 1 1 0
node 15 1 1 1 0
node 16 1 1 1 0
node 17 1 1 1 0
node 18 1 1 1 0
node 19 1 1 3 0
node 20 1 0 2 0
node 21 1 0 2 0
node 22 1 0 2 0
node 23 1 0 2 0
node 26 1 0 0 0
node 37 1 0 0 0
node 40 1 0 0 0
node 53 1 0 0 0
node 58 1 0 0 0
gene 1 1 20 0.432543 0 1 0.432543 1
gene 1 2 20 -0.736052 0 2 -0.736052 1
gene 1 3 20 0.185314 0 3 0.185314 1
gene 1 4 20 0.625601 0 4 0.625601 1
gene 1 5 20 -0.672066 0 5 -0.672066 1
gene 1 6 20 0.166503 0 6 0.166503 1
gene 1 7 20 0.375568 0 7 0.375568 1
gene 1 8 20 -0.0235543 0 8 -0.0235543 1
gene 1 9 20 0.297816 0 9 0.297816 1
gene 1 10 20 0.702299 0 10 0.702299 1
gene 1 11 20 -0.496876 0 11 -0.496876 1
gene 1 12 20 -0.257534 0 12 -0.257534 1
gene 1 13 20 0.271032 0 13 0.271032 1
gene 1 14 20 0.306348 0 14 0.306348 1
gene 1 15 20 0.654262 0 15 0.654262 1
gene 1 16 20 0.226608 0 16 0.226608 1
gene 1 17 20 -0.11707 0 17 -0.11707 1
gene 1 18 20 0.624335 0 18 0.624335 1
gene 1 19 20 0.287964 0 19 0.287964 1
gene 1 1 21 0.193315 0 20 0.193315 1
gene 1 2 21 -0.756403 0 21 -0.756403 1
gene 1 3 21 0.0870245 0 22 0.0870245 1
gene 1 4 21 0.054218 0 23 0.054218 1
gene 1 5 21 -0.0756606 0 24 -0.0756606 1
gene 1 6 21 -1.18403 0 25 -1.18403 1
gene 1 7 21 0.526927 0 26 0.526927 1
gene 1 8 21 -0.256705 0 27 -0.256705 1
gene 1 9 21 0.479845 0 28 0.479845 1
gene 1 10 21 0.244509 0 29 0.244509 1
gene 1 11 21 -0.374751 0 30 -0.374751 1
gene 1 12 21 -1.24316 0 31 -1.24316 1
gene 1 13 21 -0.437963 0 32 -0.437963 1
gene 1 14 21 0.47567 0 33 0.47567 1
gene 1 15 21 -0.478299 0 34 -0.478299 1
gene 1 16 21 -0.356641 0 35 -0.356641 1
gene 1 17 21 -0.848121 0 36 -0.848121 1
gene 1 18 21 -0.992577 0 37 -0.992577 1
gene 1 19 21 -0.129595 0 38 -0.129595 1
gene 1 1 22 1.19096 0 39 1.19096 1
gene 1 2 22 1.74511 0 40 1.74511 1
gene 1 3 22 0.484471 0 41 0.484471 1
gene 1 4 22 -0.316041 0 42 -0.316041 1
gene 1 5 22 0.434366 0 43 0.434366 1
gene 1 6 22 -0.188456 0 44 -0.188456 1
gene 1 7 22 0.0308781 0 45 0.0308781 1
gene 1 8 22 -0.363553 0 46 -0.363553 1
gene 1 9 22 0.00930611 0 47 0.00930611 1
gene 1 10 22 0.483716 0 48 0.483716 1
gene 1 11 22 -0.342544 0 49 -0.342544 1
gene 1 12 22 0.0368723 0 50 0.0368723 0
gene 1 13 22 0.164643 0 51 0.164643 1
gene 1 14 22 -0.912146 0 52 -0.912146 1
gene 1 15 22 0.320568 0 53 0.320568 1
gene 1 16 22 0.400335 0 54 0.400335 1
gene 1 17 22 -0.00980214 0 55 -0.00980214 1
gene 1 18 22 -0.0232727 0 56 -0.0232727 1
gene 1 19 22 2.35632 0 57 2.35632 1
gene 1 1 23 -0.00347064 0 58 -0.00347064 1
gene 1 2 23 0.000846319 0 59 0.000846319 1
gene 1 3 23 0.14707 0 60 0.14707 0
gene 1 4 23 -0.663519 0 61 -0.663519 1
gene 1 5 23 1.09904 0 62 1.09904 1
gene 1 6 23 -1.07606 0 63 -1.07606 1
gene 1 7 23 0.0926213 0 64 0.0926213 1
gene 1 8 23 -0.513342 0 65 -0.513342 1
gene 1 9 23 -0.208628 0 66 -0.208628 1
gene 1 10 23 0.275134 0 67 0.275134 1
gene 1 11 23 0.584604 0 68 0.584604 1
gene 1 12 23 0.284042 0 69 0.284042 1
gene 1 13 23 0.200084 0 70 0.200084 1
gene 1 14 23 0.400081 0 71 0.400081 1
gene 1 15 23 0.0654054 0 72 0.0654054 1
gene 1 16 23 -0.262975 0 73 -0.262975 1
gene 1 17 23 0.257952 0 74 0.257952 1
gene 1 18 23 -0.297035 0 75 -0.297035 1
gene 1 19 23 -0.0211581 0 76 -0.0211581 1
gene 1 13 26 -0.124783 0 84 -0.124783 1
gene 1 26 21 0.822662 0 85 0.822662 1
gene 1 9 26 -0.033763 0 121 -0.033763 1
gene 1 12 37 -0.223989 0 133 -0.223989 1
gene 1 37 22 0.0222479 0 134 0.0222479 1
gene 1 14 26 0.340106 0 140 0.340106 1
gene 1 3 40 0.336601 0 151 0.336601 1
gene 1 40 23 0.181815 0 152 0.181815 1
gene 1 1 37 0.0749091 0 176 0.0749091 1
gene 1 37 23 -0.295606 0 195 -0.295606 1
gene 1 14 53 0.354212 0 202 0.354212 1
gene 1 53 21 0.736602 0 203 0.736602 1
gene 1 5 58 0.255023 0 218 0.255023 1
gene 1 58 20 -0.294456 0 219 -0.294456 1
gene 1 15 26 0.0404837 0 238 0.0404837 1
gene 1 14 40 0.289802 0 289 0.289802 1
genomeend 3381
genomestart 3384
trait 1 0.470286 0.284976 0.703207 0.263628 0.0261958 0.786438 0.22375 0.308297 
node 1 1 1 1 0
node 2 1 1 1 0
node 3 1 1 1 0
node 4 1 1 1 0
node 5 1 1 1 0
node 6 1 1 1 0
node 7 1 1 1 0
node 8 1 1 1 0
node 9 1 1 1 0
node 10 1 1 1 0
node 11 1 1 1 0
node 12 1 1 1 0
node 13 1 1 1 0
node 14 1 1 1 0
node 15 1 1 1 0
node 16 1 1 1 0
node 17 1 1 1 0
node 18 1 1 1 0
node 19 1 1 3 0
node 20 1 0 2 0
node 21 1 0 2 0
node 22 1 0 2 0
node 23 1 0 2 0
node 28 1 0 0 0
node 35 1 0 0 0
node 36 1 0 0 0
node 68 1 0 0 0
node 72 1 0 0 0
node 75 1 0 0 0
gene 1 1 20 0.312146 0 1 0.312146 0
gene 1 2 20 -1.03645 0 2 -1.03645 1
gene 1 3 20 -0.00102695 0 3 -0.00102695 1
gene 1 4 20 -0.419943 0 4 -0.419943 1
gene 1 5 20 0.496058 0 5 0.496058 1
gene 1 6 20 0.180752 0 6 0.180752 1
gene 1 7 20 2.38439 0 7 2.38439 1
gene 1 8 20 0.457291 0 8 0.457291 1
gene 1 9 20 -0.145535 0 9 -0.145535 1
gene 1 10 20 -0.393236 0 10 -0.393236 1
gene 1 11 20 0.416592 0 11 0.416592 1
gene 1 12 20 1.14415 0 12 1.14415 1
gene 1 13 20 -0.689973 0 13 -0.689973 1
gene 1 14 20 0.349039 0 14 0.349039 0
gene 1 15 20 -0.576011 0 15 -0.576011 1
gene 1 16 20 0.0719163 0 16 0.0719163 1
gene 1 17 20 0.181857 0 17 0.181857 1
gene 1 18 20 -0.619344 0 18 -0.619344 1
gene 1 19 20 0.432524 0 19 0.432524 1
gene 1 1 21 -0.259933 0 20 -0.259933 1
gene 1 2 21 -0.841972 0 21 -0.841972 1
gene 1 3 21 -1.96702 0 22 -1.96702 1
gene 1 4 21 0.31168 0 23 0.31168 1
gene 1 5 21 -0.09371 0 24 -0.09371 1
gene 1 6 21 -0.0494637 0 25 -0.0494637 1
gene 1 7 21 0.13824 0 26 0.13824 1
gene 1 8 21 0.638799 0 27 0.638799 1
gene 1 9 21 0.0921827 0 28 0.0921827 1
gene 1 10 21 0.534863 0 29 0.534863 1
gene 1 11 21 -1.27732 0 30 -1.27732 1
gene 1 12 21 -0.0874013 0 31 -0.0874013 1
gene 1 13 21 -0.0209892 0 32 -0.0209892 1
gene 1 14 21 -0.29228 0 33 -0.29228 1
gene 1 15 21 -0.256511 0 34 -0.256511 1
gene 1 16 21 0.341659 0 35 0.341659 1
gene 1 17 21 -0.185931 0 36 -0.185931 1
gene 1 18 21 -0.748361 0 37 -0.748361 1
gene 1 19 21 -0.0724031 0 38 -0.0724031 1
gene 1 1 22 0.0585876 0 39 0.0585876 1
gene 1 2 22 -2.40795 0 40 -2.40795 1
gene 1 3 22 0.123253 0 41 0.123253 1
gene 1 4 22 -0.658063 0 42 -0.658063 1
gene 1 5 22 0.416617 0 43 0.416617 1
gene 1 6 22 0.167489 0 44 0.167489 1
gene 1 7 22 0.0756449 0 45 0.0756449 1
gene 1 8 22 2.63814 0 46 2.63814 1
gene 1 9 22 0.104776 0 47 0.104776 1
gene 1 10 22 -0.254855 0 48 -0.254855 1
gene 1 11 22 -0.445243 0 49 -0.445243 1
gene 1 12 22 0.278656 0 50 0.278656 1
gene 1 13 22 0.207492 0 51 0.207492 1
gene 1 14 22 0.753182 0 52 0.753182 1
gene 1 15 22 0.283411 0 53 0.283411 1
gene 1 16 22 -0.601481 0 54 -0.601481 1
gene 1 17 22 -0.15087 0 55 -0.15087 1
gene 1 18 22 0.0155752 0 56 0.0155752 1
gene 1 19 22 1.55252 0 57 1.55252 1
gene 1 1 23 0.346334 0 58 0.346334 1
gene 1 2 23 -0.0839745 0 59 -0.0839745 1
gene 1 3 23 -0.702118 0 60 -0.702118 1
gene 1 4 23 0.680124 0 61 0.680124 1
gene 1 5 23 0.213584 0 62 0.213584 1
gene 1 6 23 1.3249 0 63 1.3249 1
gene 1 7 23 -0.698469 0 64 -0.698469 1
gene 1 8 23 -0.926586 0 65 -0.926586 1
gene 1 9 23 0.0267473 0 66 0.0267473 1
gene 1 10 23 0.476203 0 67 0.476203 1
gene 1 11 23 -0.0228841 0 68 -0.0228841 1
gene 1 12 23 -0.9978 0 69 -0.9978 1
gene 1 13 23 -0.278894 0 70 -0.278894 1
gene 1 14 23 -0.471096 0 71 -0.471096 1
gene 1 15 23 -0.698162 0 72 -0.698162 0
gene 1 16 23 0.204198 0 73 0.204198 1
gene 1 17 23 -0.405733 0 74 -0.405733 1
gene 1 18 23 0.474818 0 75 0.474818 1
gene 1 19 23 0.0937102 0 76 0.0937102 1
gene 1 21 20 -0.552675 0 78 -0.552675 1
gene 1 22 22 -0.181444 1 83 -0.181444 1
gene 1 10 28 0.255903 0 92 0.255903 1
gene 1 28 20 0.683311 0 93 0.683311 1
gene 1 20 22 -0.209381 0 118 -0.209381 1
gene 1 3 35 -0.208181 0 129 -0.208181 1
gene 1 35 20 0.907033 0 130 0.907033 1
gene 1 1 36 -0.302922 0 131 -0.302922 1
gene 1 36 20 -0.157478 0 132 -0.157478 1
gene 1 23 23 0.195779 1 206 0.195779 1
gene 1 6 35 0.742035 0 233 0.742035 1
gene 1 14 68 -0.058015 0 261 -0.058015 1
gene 1 68 20 -0.971947 0 262 -0.971947 1
gene 1 4 28 0.156859 0 265 0.156859 1
gene 1 15 36 1.03078 0 273 1.03078 1
gene 1 12 72 1.25472 0 283 1.25472 1
gene 1 72 20 0.177454 0 284 0.177454 1
gene 1 15 75 0.121884 0 290 0.121884 1
gene 1 75 23 -0.477405 0 291 -0.477405 1
genomeend 3384
genomestart 3418
trait 1 0.395303 0.281727 0.784237 0.41143 0.0227217 0.702821 0.249883 0.342792 
node 1 1 1 1 0
node 2 1 1 1 0
node 3 1 1 1 0
node 4 1 1 1 0
node 5 1 1 1 0
node 6 1 1 1 0
node 7 1 1 1 0
node 8 1 1 1 0
node 9 1 1 1 0
node 10 1 1 1 0
node 11 1 1 1 0
node 12 1 1 1 0
node 13 1 1 1 0
node 14 1 1 1 0
node 15 1 1 1 0
node 16 1 1 1 0
node 17 1 1 1 0
node 18 1 1 1 0
node 19 1 1 3 0
node 20 1 0 2 0
node 21 1 0 2 0
node 22 1 0 2 0
node 23 1 0 2 0
node 28 1 0 0 0
node 35 1 0 0 0
node 36 1 0 0 0
node 68 1 0 0 0
node 72 1 0 0 0
node 75 1 0 0 0
gene 1 1 20 0.484333 0 1 0.484333 0
gene 1 2 20 -0.961994 0 2 -0.961994 1
gene 1 3 20 -0.267952 0 3 -0.267952 1
gene 1 4 20 0.070648 0 4 0.070648 1
gene 1 5 20 -0.704246 0 5 -0.704246 1
gene 1 6 20 0.0222725 0 6 0.0222725 1
gene 1 7 20 -0.354698 0 7 -0.354698 1
gene 1 8 20 0.00771676 0 8 0.00771676 1
gene 1 9 20 -0.247643 0 9 -0.247643 1
gene 1 10 20 -0.0367327 0 10 -0.0367327 1
gene 1 11 20 -0.125176 0 11 -0.125176 1
gene 1 12 20 -0.336328 0 12 -0.336328 1
gene 1 13 20 -0.598538 0 13 -0.598538 1
gene 1 14 20 -0.426811 0 14 -0.426811 0
gene 1 15 20 0.27651 0 15 0.27651 1
gene 1 16 20 -0.0238903 0 16 -0.0238903 1
gene 1 17 20 0.874056 0 17 0.874056 1
gene 1 18 20 -0.175386 0 18 -0.175386 1
gene 1 19 20 0.66099 0 19 0.66099 1
gene 1 1 21 0.211972 0 20 0.211972 1
gene 1 2 21 -0.814906 0 21 -0.814906 1
gene 1 3 21 0.475682 0 22 0.475682 1
gene 1 4 21 -0.0485439 0 23 -0.0485439 1
gene 1 5 21 0.165008 0 24 0.165008 1
gene 1 6 21 -0.0466912 0 25 -0.0466912 1
gene 1 7 21 -0.523257 0 26 -0.523257 1
gene 1 8 21 0.757502 0 27 0.757502 1
gene 1 9 21 -1.08815 0 28 -1.08815 1
gene 1 10 21 -0.218659 0 29 -0.218659 1
gene 1 11 21 -1.04662 0 30 -1.04662 1
gene 1 12 21 0.197537 0 31 0.197537 1
gene 1 13 21 0.287798 0 32 0.287798 1
gene 1 14 21 0.18626 0 33 0.18626 1
gene 1 15 21 -0.651299 0 34 -0.651299 1
gene 1 16 21 0.170942 0 35 0.170942 1
gene 1 17 21 -0.326759 0 36 -0.326759 1
gene 1 18 21 0.125998 0 37 0.125998 1
gene 1 19 21 -0.138552 0 38 -0.138552 1
gene 1 1 22 0.40987 0 39 0.40987 1
gene 1 2 22 -0.290334 0 40 -0.290334 1
gene 1 3 22 -0.265633 0 41 -0.265633 1
gene 1 4 22 1.18973 0 42 1.18973 1
gene 1 5 22 0.0938181 0 43 0.0938181 1
gene 1 6 22 -0.134176 0 44 -0.134176 1
gene 1 7 22 -1.37609 0 45 -1.37609 1
gene 1 8 22 2.34534 0 46 2.34534 1
gene 1 9 22 1.18839 0 47 1.18839 1
gene 1 10 22 0.68903 0 48 0.68903 1
gene 1 11 22 0.0354419 0 49 0.0354419 1
gene 1 12 22 1.28929 0 50 1.28929 1
gene 1 13 22 0.226835 0 51 0.226835 1
gene 1 14 22 0.683843 0 52 0.683843 1
gene 1 15 22 0.686911 0 53 0.686911 1
gene 1 16 22 0.0921816 0 54 0.0921816 1
gene 1 17 22 0.409232 0 55 0.409232 1
gene 1 18 22 -0.794607 0 56 -0.794607 1
gene 1 19 22 2.28757 0 57 2.28757 1
gene 1 1 23 0.0174561 0 58 0.0174561 1
gene 1 2 23 0.382457 0 59 0.382457 1
gene 1 3 23 0.265595 0 60 0.265595 1
gene 1 4 23 0.929766 0 61 0.929766 1
gene 1 5 23 1.03648 0 62 1.03648 1
gene 1 6 23 1.01942 0 63 1.01942 1
gene 1 7 23 -0.633664 0 64 -0.633664 1
gene 1 8 23 -0.471284 0 65 -0.471284 1
gene 1 9 23 0.0479383 0 66 0.0479383 1
gene 1 10 23 0.210413 0 67 0.210413 1
gene 1 11 23 0.287664 0 68 0.287664 1
gene 1 12 23 -1.17897 0 69 -1.17897 1
gene 1 13 23 -0.335011 0 70 -0.335011 1
gene 1 14 23 -0.722344 0 71 -0.722344 1
gene 1 15 23 -0.816692 0 72 -0.816692 0
gene 1 16 23 -0.500054 0 73 -0.500054 1
gene 1 17 23 0.923106 0 74 0.923106 1
gene 1 18 23 0.318948 0 75 0.318948 1
gene 1 19 23 -0.0146572 0 76 -0.0146572 1
gene 1 21 20 -0.791011 0 78 -0.791011 1
gene 1 22 22 -0.0860517 1 83 -0.0860517 1
gene 1 10 28 -0.462224 0 92 -0.462224 1
gene 1 28 20 -0.170321 0 93 -0.170321 1
gene 1 20 22 -0.475059 0 118 -0.475059 1
gene 1 3 35 -0.169807 0 129 -0.169807 1
gene 1 35 20 -0.108971 0 130 -0.108971 1
gene 1 1 36 0.307591 0 131 0.307591 1
gene 1 36 20 -0.0189986 0 132 -0.0189986 1
gene 1 23 23 -0.991246 1 206 -0.991246 1
gene 1 6 35 -0.577983 0 233 -0.577983 1
gene 1 14 68 -0.193064 0 261 -0.193064 1
gene 1 68 20 -0.439422 0 262 -0.439422 1
gene 1 4 28 -0.259302 0 265 -0.259302 1
gene 1 15 36 1.07485 0 273 1.07485 1
gene 1 12 72 0.126793 0 283 0.126793 1
gene 1 72 20 0.304745 0 284 0.304745 1
gene 1 15 75 0.960904 0 290 0.960904 1
gene 1 75 23 0.153081 0 291 0.153081 1
genomeend 3418
genomestart 3431
trait 1 0.306475 0.280645 0.811247 0.551238 0.0213855 0.615178 0.258594 0.354291 
node 1 1 1 1 0
node 2 1 1 1 0
node 3 1 1 1 0
node 4 1 1 1 0
node 5 1 1 1 0
node 6 1 1 1 0
node 7 1 1 1 0
node 8 1 1 1 0
node 9 1 1 1 0
node 10 1 1 1 0
node 11 1 1 1 0
node 12 1 1 1 0
node 13 1 1 1 0
node 14 1 1 1 0
node 15 1 1 1 0
node 16 1 1 1 0
node 17 1 1 1 0
node 18 1 1 1 0
node 19 1 1 3 0
node 20 1 0 2 0
node 21 1 0 2 0
node 22 1 0 2 0
node 23 1 0 2 0
node 28 1 0 0 0
node 35 1 0 0 0
node 36 1 0 0 0
node 68 1 0 0 0
node 72 1 0 0 0
node 75 1 0 0 0
gene 1 1 20 0.0117695 0 1 0.0117695 0
gene 1 2 20 -1.31273 0 2 -1.31273 1
gene 1 3 20 1.80189 0 3 1.80189 1
gene 1 4 20 0.024241 0 4 0.024241 1
gene 1 5 20 0.0380977 0 5 0.0380977 1
gene 1 6 20 0.131539 0 6 0.131539 1
gene 1 7 20 1.21108 0 7 1.21108 1
gene 1 8 20 0.463749 0 8 0.463749 1
gene 1 9 20 0.867814 0 9 0.867814 1
gene 1 10 20 -0.0838777 0 10 -0.0838777 1
gene 1 11 20 -0.767926 0 11 -0.767926 1
gene 1 12 20 0.563317 0 12 0.563317 1
gene 1 13 20 0.322765 0 13 0.322765 1
gene 1 14 20 0.254049 0 14 0.254049 0
gene 1 15 20 -0.105125 0 15 -0.105125 1
gene 1 16 20 -0.117836 0 16 -0.117836 1
gene 1 17 20 0.697668 0 17 0.697668 1
gene 1 18 20 0.904285 0 18 0.904285 1
gene 1 19 20 0.302844 0 19 0.302844 1
gene 1 1 21 0.963008 0 20 0.963008 1
gene 1 2 21 -0.0249343 0 21 -0.0249343 1
gene 1 3 21 0.84777 0 22 0.84777 1
gene 1 4 21 0.416382 0 23 0.416382 1
gene 1 5 21 -0.499168 0 24 -0.499168 1
gene 1 6 21 -0.0233693 0 25 -0.0233693 1
gene 1 7 21 0.805815 0 26 0.805815 1
gene 1 8 21 0.551236 0 27 0.551236 1
gene 1 9 21 1.11603 0 28 1.11603 1
gene 1 10 21 -0.00553441 0 29 -0.00553441 1
gene 1 11 21 -1.27724 0 30 -1.27724 1
gene 1 12 21 0.619173 0 31 0.619173 1
gene 1 13 21 -0.163884 0 32 -0.163884 1
gene 1 14 21 0.188768 0 33 0.188768 1
gene 1 15 21 -0.184106 0 34 -0.184106 1
gene 1 16 21 -0.898801 0 35 -0.898801 1
gene 1 17 21 -0.629796 0 36 -0.629796 1
gene 1 18 21 0.0133484 0 37 0.0133484 1
gene 1 19 21 0.18064 0 38 0.18064 1
gene 1 1 22 0.378441 0 39 0.378441 1
gene 1 2 22 -1.60201 0 40 -1.60201 1
gene 1 3 22 -0.964565 0 41 -0.964565 1
gene 1 4 22 -0.564591 0 42 -0.564591 1
gene 1 5 22 0.183078 0 43 0.183078 1
gene 1 6 22 0.651291 0 44 0.651291 1
gene 1 7 22 -1.54629 0 45 -1.54629 1
gene 1 8 22 1.27969 0 46 1.27969 1
gene 1 9 22 -0.54922 0 47 -0.54922 1
gene 1 10 22 0.678603 0 48 0.678603 1
gene 1 11 22 -0.192124 0 49 -0.192124 1
gene 1 12 22 -0.517025 0 50 -0.517025 1
gene 1 13 22 0.554405 0 51 0.554405 1
gene 1 14 22 -0.0097001 0 52 -0.0097001 1
gene 1 15 22 -0.271458 0 53 -0.271458 1
gene 1 16 22 -0.588899 0 54 -0.588899 1
gene 1 17 22 1.40942 0 55 1.40942 1
gene 1 18 22 -0.566204 0 56 -0.566204 1
gene 1 19 22 1.85505 0 57 1.85505 1
gene 1 1 23 0.146186 0 58 0.146186 1
gene 1 2 23 -0.0610164 0 59 -0.0610164 1
gene 1 3 23 -0.0529849 0 60 -0.0529849 1
gene 1 4 23 0.887934 0 61 0.887934 1
gene 1 5 23 0.0170192 0 62 0.0170192 1
gene 1 6 23 -0.437721 0 63 -0.437721 1
gene 1 7 23 -0.646926 0 64 -0.646926 1
gene 1 8 23 -0.44375 0 65 -0.44375 1
gene 1 9 23 0.446534 0 66 0.446534 1
gene 1 10 23 0.402846 0 67 0.402846 1
gene 1 11 23 -0.0854386 0 68 -0.0854386 1
gene 1 12 23 -0.113565 0 69 -0.113565 1
gene 1 13 23 1.90547 0 70 1.90547 1
gene 1 14 23 -0.664163 0 71 -0.664163 1
gene 1 15 23 -0.743992 0 72 -0.743992 0
gene 1 16 23 -1.423 0 73 -1.423 1
gene 1 17 23 0.15398 0 74 0.15398 1
gene 1 18 23 0.696137 0 75 0.696137 1
gene 1 19 23 -0.662473 0 76 -0.662473 1
gene 1 21 20 -0.168851 0 78 -0.168851 1
gene 1 22 22 0.238917 1 83 0.238917 1
gene 1 10 28 0.00926774 0 92 0.00926774 1
gene 1 28 20 0.962774 0 93 0.962774 1
gene 1 20 22 -0.587427 0 118 -0.587427 1
gene 1 3 35 0.0415693 0 129 0.0415693 1
gene 1 35 20 -0.268027 0 130 -0.268027 1
gene 1 1 36 0.0251615 0 131 0.0251615 1
gene 1 36 20 0.357937 0 132 0.357937 1
gene 1 23 23 -0.154167 1 206 -0.154167 1
gene 1 6 35 0.285559 0 233 0.285559 1
gene 1 14 68 0.0557594 0 261 0.0557594 1
gene 1 68 20 -0.0883864 0 262 -0.0883864 1
gene 1 4 28 0.454212 0 265 0.454212 1
gene 1 15 36 -0.443468 0 273 -0.443468 1
gene 1 12 72 -0.187091 0 283 -0.187091 1
gene 1 72 20 0.35053 0 284 0.35053 1
gene 1 15 75 -0.34386 0 290 -0.34386 1
gene 1 75 23 -0.348155 0 291 -0.348155 1
gene 1 35 21 -0.869713 0 311 -0.869713 1
genomeend 3431
genomestart 3446
trait 1 0.987652 0.612187 0.0425671 0.149363 0.307464 1 0 0.583443 
node 1 1 1 1 0
node 2 1 1 1 0
node 3 1 1 1 0
node 4 1 1 1 0
node 5 1 1 1 0
node 6 1 1 1 0
node 7 1 1 1 0
node 8 1 1 1 0
node 9 1 1 1 0
node 10 1 1 1 0
node 11 1 1 1 0
node 12 1 1 1 0
node 13 1 1 1 0
node 14 1 1 1 0
node 15 1 1 1 0
node 16 1 1 1 0
node 17 1 1 1 0
node 18 1 1 1 0
node 19 1 1 3 0
node 20 1 0 2 0
node 21 1 0 2 0
node 22 1 0 2 0
node 23 1 0 2 0
node 26 1 0 0 0
node 32 1 0 0 0
node 34 1 0 0 0
gene 1 1 20 0.37265 0 1 0.37265 1
gene 1 2 20 0.352802 0 2 0.352802 1
gene 1 3 20 -1.07035 0 3 -1.07035 1
gene 1 4 20 -0.816962 0 4 -0.816962 1
gene 1 5 20 0.327084 0 5 0.327084 1
gene 1 6 20 2.47993 0 6 2.47993 1
gene 1 7 20 -1.13445 0 7 -1.13445 1
gene 1 8 20 1.65388 0 8 1.65388 1
gene 1 9 20 -0.594125 0 9 -0.594125 1
gene 1 10 20 0.774984 0 10 0.774984 1
gene 1 11 20 1.045 0 11 1.045 1
gene 1 12 20 0.889545 0 12 0.889545 1
gene 1 13 20 -0.0561207 0 13 -0.0561207 1
gene 1 14 20 -1.98838 0 14 -1.98838 1
gene 1 15 20 -0.54411 0 15 -0.54411 1
gene 1 16 20 1.2217 0 16 1.2217 1
gene 1 17 20 -0.649126 0 17 -0.649126 1
gene 1 18 20 0.218283 0 18 0.218283 1
gene 1 19 20 0.308821 0 19 0.308821 1
gene 1 1 21 -1.46527 0 20 -1.46527 1
gene 1 2 21 -0.0664862 0 21 -0.0664862 1
gene 1 3 21 0.99898 0 22 0.99898 1
gene 1 4 21 -0.479048 0 23 -0.479048 1
gene 1 5 21 -0.475788 0 24 -0.475788 1
gene 1 6 21 -1.26747 0 25 -1.26747 1
gene 1 7 21 -1.40777 0 26 -1.40777 1
gene 1 8 21 0.255139 0 27 0.255139 1
gene 1 9 21 -0.913505 0 28 -0.913505 1
gene 1 10 21 -0.271366 0 29 -0.271366 1
gene 1 11 21 -0.611257 0 30 -0.611257 1
gene 1 12 21 1.70905 0 31 1.70905 1
gene 1 13 21 -0.754455 0 32 -0.754455 1
gene 1 14 21 -0.435531 0 33 -0.435531 1
gene 1 15 21 1.31353 0 34 1.31353 1
gene 1 16 21 -0.379996 0 35 -0.379996 1
gene 1 17 21 0.51657 0 36 0.51657 1
gene 1 18 21 0.398567 0 37 0.398567 1
gene 1 19 21 0.473567 0 38 0.473567 1
gene 1 1 22 -1.70956 0 39 -1.70956 1
gene 1 2 22 -1.8262 0 40 -1.8262 1
gene 1 3 22 -0.51059 0 41 -0.51059 1
gene 1 4 22 -0.944837 0 42 -0.944837 1
gene 1 5 22 0.225081 0 43 0.225081 1
gene 1 6 22 2.14798 0 44 2.14798 1
gene 1 7 22 -0.456318 0 45 -0.456318 1
gene 1 8 22 0.368757 0 46 0.368757 1
gene 1 9 22 -0.302052 0 47 -0.302052 1
gene 1 10 22 0.601514 0 48 0.601514 1
gene 1 11 22 0.83447 0 49 0.83447 1
gene 1 12 22 -0.952737 0 50 -0.952737 1
gene 1 13 22 0.214482 0 51 0.214482 1
gene 1 14 22 -0.323248 0 52 -0.323248 1
gene 1 15 22 0.40158 0 53 0.40158 1
gene 1 16 22 0.917931 0 54 0.917931 1
gene 1 17 22 0.925698 0 55 0.925698 1
gene 1 18 22 0.00365962 0 56 0.00365962 1
gene 1 19 22 0.316952 0 57 0.316952 1
gene 1 1 23 -0.70157 0 58 -0.70157 1
gene 1 2 23 -0.15164 0 59 -0.15164 1
gene 1 3 23 -0.255826 0 60 -0.255826 1
gene 1 4 23 0.460276 0 61 0.460276 1
gene 1 5 23 -0.24407 0 62 -0.24407 1
gene 1 6 23 1.69212 0 63 1.69212 1
gene 1 7 23 -1.64777 0 64 -1.64777 1
gene 1 8 23 1.21214 0 65 1.21214 1
gene 1 9 23 0.258939 0 66 0.258939 1
gene 1 10 23 0.456566 0 67 0.456566 1
gene 1 11 23 0.0304027 0 68 0.0304027 1
gene 1 12 23 1.26309 0 69 1.26309 1
gene 1 13 23 -0.0441895 0 70 -0.0441895 1
gene 1 14 23 0.592344 0 71 0.592344 1
gene 1 15 23 -0.57817 0 72 -0.57817 1
gene 1 16 23 0.700582 0 73 0.700582 1
gene 1 17 23 -0.161638 0 74 -0.161638 1
gene 1 18 23 0.129652 0 75 0.129652 1
gene 1 19 23 -0.649657 0 76 -0.649657 1
gene 1 13 26 -0.0394962 0 84 -0.0394962 1
gene 1 26 21 0.276703 0 85 0.276703 1
gene 1 5 32 0.245207 0 101 0.245207 1
gene 1 32 21 -0.148776 0 102 -0.148776 1
gene 1 18 34 1.01187 0 114 1.01187 1
gene 1 34 20 0.218775 0 115 0.218775 1
gene 1 10 34 0.59765 0 136 0.59765 1
gene 1 19 26 -0.449853 0 143 -0.449853 1
gene 1 8 32 -0.944626 0 149 -0.944626 1
gene 1 34 26 -0.324226 0 221 -0.324226 1
genomeend 3446
genomestart 3452
trait 1 0.0664361 0 0.00335052 0.0984745 0.0546202 0.0151481 0.0944551 0.47677 
node 1 1 1 1 0
node 2 1 1 1 0
node 3 1 1 1 0
node 4 1 1 1 0
node 5 1 1 1 0
node 6 1 1 1 0
node 7 1 1 1 0
node 8 1 1 1 0
node 9 1 1 1 0
node 10 1 1 1 0
node 11 1 1 1 0
node 12 1 1 1 0
node 13 1 1 1 0
node 14 1 1 1 0
node 15 1 1 1 0
node 16 1 1 1 0
node 17 1 1 1 0
node 18 1 1 1 0
node 19 1 1 3 0
node 20 1 0 2 0
node 21 1 0 2 0
node 22 1 0 2 0
node 23 1 0 2 0
node 26 1 0 0 0
node 37 1 0 0 0
node 40 1 0 0 0
node 53 1 0 0 0
node 58 1 0 0 0
gene 1 1 20 0.509298 0 1 0.509298 1
gene 1 2 20 0.119966 0 2 0.119966 1
gene 1 3 20 0.227668 0 3 0.227668 1
gene 1 4 20 0.278505 0 4 0.278505 1
gene 1 5 20 0.18924 0 5 0.18924 1
gene 1 6 20 0.631294 0 6 0.631294 1
gene 1 7 20 -0.429251 0 7 -0.429251 1
gene 1 8 20 -0.228111 0 8 -0.228111 1
gene 1 9 20 0.303437 0 9 0.303437 1
gene 1 10 20 0.732033 0 10 0.732033 1
gene 1 11 20 -0.236204 0 11 -0.236204 1
gene 1 12 20 -0.616862 0 12 -0.616862 1
gene 1 13 20 0.55569 0 13 0.55569 1
gene 1 14 20 -0.269691 0 14 -0.269691 1
gene 1 15 20 0.337848 0 15 0.337848 1
gene 1 16 20 -0.563676 0 16 -0.563676 1
gene 1 17 20 0.470019 0 17 0.470019 1
gene 1 18 20 0.506745 0 18 0.506745 1
gene 1 19 20 -0.00676861 0 19 -0.00676861 1
gene 1 1 21 0.223616 0 20 0.223616 1
gene 1 2 21 -0.384489 0 21 -0.384489 1
gene 1 3 21 0.0891934 0 22 0.0891934 1
gene 1 4 21 -0.13534 0 23 -0.13534 1
gene 1 5 21 0.096295 0 24 0.096295 1
gene 1 6 21 -0.813132 0 25 -0.813132 1
gene 1 7 21 1.09518 0 26 1.09518 1
gene 1 8 21 -0.0687941 0 27 -0.0687941 1
gene 1 9 21 0.630572 0 28 0.630572 1
gene 1 10 21 -0.645578 0 29 -0.645578 1
gene 1 11 21 0.612467 0 30 0.612467 1
gene 1 12 21 -0.812349 0 31 -0.812349 1
gene 1 13 21 -0.667939 0 32 -0.667939 0
gene 1 14 21 0.264988 0 33 0.264988 1
gene 1 15 21 0.22173 0 34 0.22173 1
gene 1 16 21 0.133946 0 35 0.133946 1
gene 1 17 21 -0.267946 0 36 -0.267946 1
gene 1 18 21 -0.273212 0 37 -0.273212 1
gene 1 19 21 -0.472059 0 38 -0.472059 1
gene 1 1 22 0.0812354 0 39 0.0812354 1
gene 1 2 22 1.45542 0 40 1.45542 1
gene 1 3 22 -0.509107 0 41 -0.509107 1
gene 1 4 22 -0.413682 0 42 -0.413682 1
gene 1 5 22 -0.223852 0 43 -0.223852 1
gene 1 6 22 0.290166 0 44 0.290166 1
gene 1 7 22 -0.764872 0 45 -0.764872 1
gene 1 8 22 -0.346051 0 46 -0.346051 1
gene 1 9 22 -0.759642 0 47 -0.759642 1
gene 1 10 22 0.165141 0 48 0.165141 1
gene 1 11 22 0.207509 0 49 0.207509 1
gene 1 12 22 -0.087808 0 50 -0.087808 1
gene 1 13 22 0.260707 0 51 0.260707 1
gene 1 14 22 -0.52073 0 52 -0.52073 1
gene 1 15 22 -0.139466 0 53 -0.139466 1
gene 1 16 22 0.710279 0 54 0.710279 1
gene 1 17 22 0.0687983 0 55 0.0687983 1
gene 1 18 22 0.782962 0 56 0.782962 1
gene 1 19 22 1.88253 0 57 1.88253 1
gene 1 1 23 -0.338475 0 58 -0.338475 1
gene 1 2 23 -0.0105548 0 59 -0.0105548 1
gene 1 3 23 -0.0965729 0 60 -0.0965729 0
gene 1 4 23 -0.243659 0 61 -0.243659 1
gene 1 5 23 0.743586 0 62 0.743586 1
gene 1 6 23 -1.54014 0 63 -1.54014 1
gene 1 7 23 -0.703879 0 64 -0.703879 1
gene 1 8 23 -0.11493 0 65 -0.11493 1
gene 1 9 23 -0.217803 0 66 -0.217803 1
gene 1 10 23 -0.269168 0 67 -0.269168 1
gene 1 11 23 0.403602 0 68 0.403602 1
gene 1 12 23 1.05692 0 69 1.05692 1
gene 1 13 23 -0.453609 0 70 -0.453609 1
gene 1 14 23 1.23621 0 71 1.23621 1
gene 1 15 23 -0.117558 0 72 -0.117558 1
gene 1 16 23 -0.229213 0 73 -0.229213 1
gene 1 17 23 -0.486576 0 74 -0.486576 1
gene 1 18 23 -0.0198869 0 75 -0.0198869 1
gene 1 19 23 0.961242 0 76 0.961242 1
gene 1 13 26 0.0943689 0 84 0.0943689 1
gene 1 26 21 -0.165223 0 85 -0.165223 1
gene 1 9 26 -0.0411641 0 121 -0.0411641 1
gene 1 12 37 -0.0587811 0 133 -0.0587811 1
gene 1 37 22 -0.0900284 0 134 -0.0900284 1
gene 1 14 26 0.696162 0 140 0.696162 1
gene 1 3 40 0.437499 0 151 0.437499 1
gene 1 40 23 0.271319 0 152 0.271319 1
gene 1 1 37 -0.477049 0 176 -0.477049 1
gene 1 37 23 1.14971 0 195 1.14971 1
gene 1 14 53 0.726852 0 202 0.726852 1
gene 1 53 21 0.133142 0 203 0.133142 1
gene 1 5 58 0.290018 0 218 0.290018 1
gene 1 58 20 0.157684 0 219 0.157684 1
gene 1 15 26 -0.115242 0 238 -0.115242 1
gene 1 14 40 0.320441 0 289 0.320441 1
genomeend 3452
genomestart 3455
trait 1 0 0.562699 0.981247 0.690849 0.698559 0.804396 0.345753 0.0698541 
node 1 1 1 1 0
node 2 1 1 1 0
node 3 1 1 1 0
node 4 1 1 1 0
node 5 1 1 1 0
node 6 1 1 1 0
node 7 1 1 1 0
node 8 1 1 1 0
node 9 1 1 1 0
node 10 1 1 1 0
node 11 1 1 1 0
node 12 1 1 1 0
node 13 1 1 1 0
node 14 1 1 1 0
node 15 1 1 1 0
node 16 1 1 1 0
node 17 1 1 1 0
node 18 1 1 1 0
node 19 1 1 3 0
node 20 1 0 2 0
node 21 1 0 2 0
node 22 1 0 2 0
node 23 1 0 2 0
node 25 1 0 0 0
node 27 1 0 0 0
node 54 1 0 0 0
node 69 1 0 0 0
node 78 1 0 0 0
gene 1 1 20 0.0742248 0 1 0.0742248 1
gene 1 2 20 -0.957547 0 2 -0.957547 1
gene 1 3 20 -0.19497 0 3 -0.19497 1
gene 1 4 20 0.00892294 0 4 0.00892294 1
gene 1 5 20 -0.37015 0 5 -0.37015 1
gene 1 6 20 0.703245 0 6 0.703245 1
gene 1 7 20 -0.603048 0 7 -0.603048 1
gene 1 8 20 -0.480754 0 8 -0.480754 1
gene 1 9 20 -0.161302 0 9 -0.161302 1
gene 1 10 20 0.155601 0 10 0.155601 1
gene 1 11 20 -0.312013 0 11 -0.312013 1
gene 1 12 20 0.85157 0 12 0.85157 1
gene 1 13 20 0.226768 0 13 0.226768 1
gene 1 14 20 -0.868944 0 14 -0.868944 1
gene 1 15 20 -0.0346223 0 15 -0.0346223 1
gene 1 16 20 -0.624944 0 16 -0.624944 1
gene 1 17 20 0.0805322 0 17 0.0805322 1
gene 1 18 20 -0.761253 0 18 -0.761253 1
gene 1 19 20 -0.0573457 0 19 -0.0573457 1
gene 1 1 21 -0.426569 0 20 -0.426569 1
gene 1 2 21 1.15845 0 21 1.15845 1
gene 1 3 21 -1.06337 0 22 -1.06337 1
gene 1 4 21 0.456441 0 23 0.456441 0
gene 1 5 21 -0.137348 0 24 -0.137348 1
gene 1 6 21 -1.83146 0 25 -1.83146 1
gene 1 7 21 -0.18384 0 26 -0.18384 1
gene 1 8 21 0.332288 0 27 0.332288 1
gene 1 9 21 -0.253113 0 28 -0.253113 1
gene 1 10 21 -1.20884 0 29 -1.20884 1
gene 1 11 21 0.407271 0 30 0.407271 1
gene 1 12 21 0.0628658 0 31 0.0628658 1
gene 1 13 21 -0.266869 0 32 -0.266869 1
gene 1 14 21 -0.285672 0 33 -0.285672 1
gene 1 15 21 0.234764 0 34 0.234764 1
gene 1 16 21 0.963348 0 35 0.963348 1
gene 1 17 21 -1.2666 0 36 -1.2666 1
gene 1 18 21 -0.933279 0 37 -0.933279 1
gene 1 19 21 0.176125 0 38 0.176125 1
gene 1 1 22 -0.0434008 0 39 -0.0434008 1
gene 1 2 22 -0.36789 0 40 -0.36789 1
gene 1 3 22 -0.0984163 0 41 -0.0984163 1
gene 1 4 22 -0.647869 0 42 -0.647869 1
gene 1 5 22 0.544744 0 43 0.544744 1
gene 1 6 22 0.313112 0 44 0.313112 1
gene 1 7 22 -0.91598 0 45 -0.91598 1
gene 1 8 22 0.202864 0 46 0.202864 1
gene 1 9 22 0.447876 0 47 0.447876 1
gene 1 10 22 -0.504711 0 48 -0.504711 1
gene 1 11 22 0.16595 0 49 0.16595 1
gene 1 12 22 0.234797 0 50 0.234797 1
gene 1 13 22 0.332022 0 51 0.332022 1
gene 1 14 22 0.0426992 0 52 0.0426992 1
gene 1 15 22 -0.457628 0 53 -0.457628 1
gene 1 16 22 0.109035 0 54 0.109035 1
gene 1 17 22 -2.09958 0 55 -2.09958 1
gene 1 18 22 -0.474815 0 56 -0.474815 1
gene 1 19 22 0.417277 0 57 0.417277 1
gene 1 1 23 -0.0729218 0 58 -0.0729218 1
gene 1 2 23 -0.743004 0 59 -0.743004 1
gene 1 3 23 -0.537302 0 60 -0.537302 1
gene 1 4 23 0.213173 0 61 0.213173 1
gene 1 5 23 -0.0128568 0 62 -0.0128568 1
gene 1 6 23 -0.190747 0 63 -0.190747 1
gene 1 7 23 -0.268383 0 64 -0.268383 1
gene 1 8 23 -0.42566 0 65 -0.42566 1
gene 1 9 23 -0.0559694 0 66 -0.0559694 1
gene 1 10 23 -0.213221 0 67 -0.213221 1
gene 1 11 23 -0.45435 0 68 -0.45435 1
gene 1 12 23 -0.771136 0 69 -0.771136 1
gene 1 13 23 1.02435 0 70 1.02435 1
gene 1 14 23 -1.08453 0 71 -1.08453 1
gene 1 15 23 -0.5267 0 72 -0.5267 1
gene 1 16 23 0.115742 0 73 0.115742 1
gene 1 17 23 -0.0801528 0 74 -0.0801528 1
gene 1 18 23 1.74019 0 75 1.74019 1
gene 1 19 23 0.362419 0 76 0.362419 1
gene 1 23 22 -0.699199 0 77 -0.699199 1
gene 1 4 25 -0.0732491 0 81 -0.0732491 1
gene 1 25 21 0.932587 0 82 0.932587 1
gene 1 6 27 -0.87409 0 86 -0.87409 1
gene 1 27 22 0.293115 0 87 0.293115 1
gene 1 7 27 0.104591 0 89 0.104591 1
gene 1 11 27 -0.394845 0 109 -0.394845 1
gene 1 27 27 0.170261 1 113 0.170261 1
gene 1 20 21 0.395236 0 138 0.395236 1
gene 1 22 22 1.08618 1 139 1.08618 1
gene 1 14 27 0.321211 0 145 0.321211 1
gene 1 25 20 -0.440101 0 157 -0.440101 1
gene 1 22 20 -0.665935 0 169 -0.665935 1
gene 1 25 25 0.911843 1 191 0.911843 1
gene 1 2 25 0.510161 0 200 0.510161 1
gene 1 15 27 -0.222681 0 201 -0.222681 1
gene 1 3 54 0.364577 0 209 0.364577 1
gene 1 54 21 0.143253 0 210 0.143253 1
gene 1 1 54 0.765172 0 220 0.765172 1
gene 1 11 69 0.392864 0 271 0.392864 1
gene 1 69 20 0.207122 0 272 0.207122 1
gene 1 11 78 0.0265462 0 306 0.0265462 1
gene 1 78 69 0.105593 0 307 0.105593 1
genomeend 3455
genomestart 3456
trait 1 0.0664358 0 0.00167526 0.0984737 0.0540571 0.015148 0.0924551 0.47692 
node 1 1 1 1 0
node 2 1 1 1 0
node 3 1 1 1 0
node 4 1 1 1 0
node 5 1 1 1 0
node 6 1 1 1 0
node 7 1 1 1 0
node 8 1 1 1 0
node 9 1 1 1 0
node 10 1 1 1 0
node 11 1 1 1 0
node 12 1 1 1 0
node 13 1 1 1 0
node 14 1 1 1 0
node 15 1 1 1 0
node 16 1 1 1 0
node 17 1 1 1 0
node 18 1 1 1 0
node 19 1 1 3 0
node 20 1 0 2 0
node 21 1 0 2 0
node 22 1 0 2 0
node 23 1 0 2 0
node 26 1 0 0 0
node 37 1 0 0 0
node 40 1 0 0 0
node 53 1 0 0 0
node 58 1 0 0 0
node 73 1 0 0 0
gene 1 1 20 1.1413 0 1 1.1413 1
gene 1 2 20 0.178082 0 2 0.178082 1
gene 1 3 20 -0.173279 0 3 -0.173279 1
gene 1 4 20 0.427563 0 4 0.427563 1
gene 1 5 20 -0.11834 0 5 -0.11834 1
gene 1 6 20 0.687793 0 6 0.687793 1
gene 1 7 20 -0.175974 0 7 -0.175974 1
gene 1 8 20 -0.357907 0 8 -0.357907 1
gene 1 9 20 0.612364 0 9 0.612364 1
gene 1 10 20 0.279138 0 10 0.279138 1
gene 1 11 20 -0.182861 0 11 -0.182861 1
gene 1 12 20 -0.280567 0 12 -0.280567 1
gene 1 13 20 0.655984 0 13 0.655984 1
gene 1 14 20 -0.446556 0 14 -0.446556 1
gene 1 15 20 0.448694 0 15 0.448694 1
gene 1 16 20 -0.528001 0 16 -0.528001 1
gene 1 17 20 0.518833 0 17 0.518833 1
gene 1 18 20 0.684007 0 18 0.684007 1
gene 1 19 20 0.299432 0 19 0.299432 1
gene 1 1 21 -0.44368 0 20 -0.44368 1
gene 1 2 21 -0.361335 0 21 -0.361335 1
gene 1 3 21 0.880918 0 22 0.880918 1
gene 1 4 21 0.443601 0 23 0.443601 1
gene 1 5 21 -0.210148 0 24 -0.210148 1
gene 1 6 21 -0.648193 0 25 -0.648193 1
gene 1 7 21 0.0434973 0 26 0.0434973 1
gene 1 8 21 0.641346 0 27 0.641346 1
gene 1 9 21 0.871877 0 28 0.871877 1
gene 1 10 21 0.527735 0 29 0.527735 1
gene 1 11 21 -0.477023 0 30 -0.477023 1
gene 1 12 21 0.302212 0 31 0.302212 1
gene 1 13 21 -0.0241491 0 32 -0.0241491 0
gene 1 14 21 0.557486 0 33 0.557486 0
gene 1 15 21 0.127986 0 34 0.127986 1
gene 1 16 21 0.326681 0 35 0.326681 1
gene 1 17 21 0.210313 0 36 0.210313 1
gene 1 18 21 -0.363359 0 37 -0.363359 1
gene 1 19 21 -0.624876 0 38 -0.624876 1
gene 1 1 22 0.421496 0 39 0.421496 1
gene 1 2 22 0.667534 0 40 0.667534 1
gene 1 3 22 -0.674815 0 41 -0.674815 1
gene 1 4 22 0.13875 0 42 0.13875 1
gene 1 5 22 -0.0900818 0 43 -0.0900818 1
gene 1 6 22 0.885472 0 44 0.885472 1
gene 1 7 22 -0.218242 0 45 -0.218242 1
gene 1 8 22 -0.0703205 0 46 -0.0703205 1
gene 1 9 22 -0.803345 0 47 -0.803345 1
gene 1 10 22 0.472191 0 48 0.472191 1
gene 1 11 22 0.6818 0 49 0.6818 1
gene 1 12 22 -0.273393 0 50 -0.273393 0
gene 1 13 22 0.367082 0 51 0.367082 1
gene 1 14 22 -0.237752 0 52 -0.237752 1
gene 1 15 22 0.322417 0 53 0.322417 1
gene 1 16 22 0.622568 0 54 0.622568 1
gene 1 17 22 0.232251 0 55 0.232251 1
gene 1 18 22 0.494012 0 56 0.494012 1
gene 1 19 22 -0.222986 0 57 -0.222986 1
gene 1 1 23 0.445816 0 58 0.445816 1
gene 1 2 23 0.0312379 0 59 0.0312379 1
gene 1 3 23 0.171111 0 60 0.171111 0
gene 1 4 23 0.152558 0 61 0.152558 1
gene 1 5 23 0.688164 0 62 0.688164 1
gene 1 6 23 -0.781957 0 63 -0.781957 1
gene 1 7 23 -0.222184 0 64 -0.222184 1
gene 1 8 23 0.148015 0 65 0.148015 1
gene 1 9 23 0.233575 0 66 0.233575 1
gene 1 10 23 0.465723 0 67 0.465723 1
gene 1 11 23 0.170339 0 68 0.170339 1
gene 1 12 23 1.07936 0 69 1.07936 1
gene 1 13 23 -0.712638 0 70 -0.712638 1
gene 1 14 23 0.238461 0 71 0.238461 1
gene 1 15 23 -0.733833 0 72 -0.733833 1
gene 1 16 23 -0.660727 0 73 -0.660727 1
gene 1 17 23 -0.00698938 0 74 -0.00698938 1
gene 1 18 23 -0.0750758 0 75 -0.0750758 1
gene 1 19 23 0.160175 0 76 0.160175 1
gene 1 13 26 0.266483 0 84 0.266483 0
gene 1 26 21 -0.074715 0 85 -0.074715 1
gene 1 9 26 -0.232629 0 121 -0.232629 1
gene 1 12 37 -0.549946 0 133 -0.549946 1
gene 1 37 22 0.138206 0 134 0.138206 1
gene 1 14 26 0.712767 0 140 0.712767 1
gene 1 3 40 1.22946 0 151 1.22946 1
gene 1 40 23 0.480561 0 152 0.480561 1
gene 1 1 37 -0.388971 0 176 -0.388971 1
gene 1 37 23 -0.273662 0 195 -0.273662 1
gene 1 14 53 0.808957 0 202 0.808957 1
gene 1 53 21 -0.493558 0 203 -0.493558 1
gene 1 5 58 0.265052 0 218 0.265052 1
gene 1 58 20 0.438144 0 219 0.438144 1
gene 1 15 26 -0.0820583 0 238 -0.0820583 1
gene 1 13 73 1 0 285 0 1
gene 1 73 26 0.0799448 0 286 0 1
gene 1 14 40 0.72501 0 289 0.72501 1
genomeend 3456
genomestart 3459
trait 1 0.429333 0.283893 0.730217 0.33553 0.0249932 0.743623 0.232461 0.319795 
node 1 1 1 1 0
node 2 1 1 1 0
node 3 1 1 1 0
node 4 1 1 1 0
node 5 1 1 1 0
node 6 1 1 1 0
node 7 1 1 1 0
node 8 1 1 1 0
node 9 1 1 1 0
node 10 1 1 1 0
node 11 1 1 1 0
node 12 1 1 1 0
node 13 1 1 1 0
node 14 1 1 1 0
node 15 1 1 1 0
node 16 1 1 1 0
node 17 1 1 1 0
node 18 1 1 1 0
node 19 1 1 3 0
node 20 1 0 2 0
node 21 1 0 2 0
node 22 1 0 2 0
node 23 1 0 2 0
node 28 1 0 0 0
node 35 1 0 0 0
node 36 1 0 0 0
node 68 1 0 0 0
node 72 1 0 0 0
node 75 1 0 0 0
gene 1 1 20 -0.223956 0 1 -0.223956 1
gene 1 2 20 -1.18435 0 2 -1.18435 1
gene 1 3 20 0.463208 0 3 0.463208 1
gene 1 4 20 -0.227997 0 4 -0.227997 1
gene 1 5 20 0.0718308 0 5 0.0718308 1
gene 1 6 20 0.487759 0 6 0.487759 1
gene 1 7 20 2.03089 0 7 2.03089 1
gene 1 8 20 0.3088 0 8 0.3088 1
gene 1 9 20 -0.070866 0 9 -0.070866 1
gene 1 10 20 -0.17265 0 10 -0.17265 1
gene 1 11 20 -0.308837 0 11 -0.308837 1
gene 1 12 20 0.761631 0 12 0.761631 1
gene 1 13 20 -0.424069 0 13 -0.424069 1
gene 1 14 20 -0.104688 0 14 -0.104688 0
gene 1 15 20 0.0416814 0 15 0.0416814 1
gene 1 16 20 0.388375 0 16 0.388375 1
gene 1 17 20 0.756844 0 17 0.756844 1
gene 1 18 20 -0.402271 0 18 -0.402271 1
gene 1 19 20 0.0960796 0 19 0.0960796 1
gene 1 1 21 0.375172 0 20 0.375172 1
gene 1 2 21 -1.30422 0 21 -1.30422 1
gene 1 3 21 -0.410505 0 22 -0.410505 1
gene 1 4 21 0.248258 0 23 0.248258 1
gene 1 5 21 -0.585997 0 24 -0.585997 1
gene 1 6 21 0.221517 0 25 0.221517 1
gene 1 7 21 0.349163 0 26 0.349163 1
gene 1 8 21 0.153123 0 27 0.153123 1
gene 1 9 21 0.41636 0 28 0.41636 1
gene 1 10 21 0.399044 0 29 0.399044 1
gene 1 11 21 -1.07319 0 30 -1.07319 1
gene 1 12 21 -0.362391 0 31 -0.362391 1
gene 1 13 21 -0.430738 0 32 -0.430738 1
gene 1 14 21 0.308979 0 33 0.308979 1
gene 1 15 21 -0.168799 0 34 -0.168799 1
gene 1 16 21 -0.322163 0 35 -0.322163 1
gene 1 17 21 -0.035438 0 36 -0.035438 1
gene 1 18 21 -0.941041 0 37 -0.941041 1
gene 1 19 21 -0.479504 0 38 -0.479504 1
gene 1 1 22 0.00265004 0 39 0.00265004 1
gene 1 2 22 -1.18775 0 40 -1.18775 1
gene 1 3 22 -0.699239 0 41 -0.699239 1
gene 1 4 22 -0.281152 0 42 -0.281152 1
gene 1 5 22 0.132792 0 43 0.132792 1
gene 1 6 22 0.481043 0 44 0.481043 1
gene 1 7 22 0.311296 0 45 0.311296 1
gene 1 8 22 1.43043 0 46 1.43043 1
gene 1 9 22 -0.247472 0 47 -0.247472 1
gene 1 10 22 0.00516938 0 48 0.00516938 1
gene 1 11 22 -0.325241 0 49 -0.325241 1
gene 1 12 22 0.252454 0 50 0.252454 1
gene 1 13 22 0.50385 0 51 0.50385 1
gene 1 14 22 0.238094 0 52 0.238094 1
gene 1 15 22 0.483475 0 53 0.483475 1
gene 1 16 22 0.288422 0 54 0.288422 1
gene 1 17 22 0.323016 0 55 0.323016 1
gene 1 18 22 -0.289806 0 56 -0.289806 1
gene 1 19 22 1.4123 0 57 1.4123 1
gene 1 1 23 -0.0101223 0 58 -0.0101223 1
gene 1 2 23 0.141911 0 59 0.141911 1
gene 1 3 23 -0.347208 0 60 -0.347208 1
gene 1 4 23 -0.489112 0 61 -0.489112 1
gene 1 5 23 0.391678 0 62 0.391678 1
gene 1 6 23 0.409708 0 63 0.409708 1
gene 1 7 23 -0.465814 0 64 -0.465814 1
gene 1 8 23 -1.26466 0 65 -1.26466 1
gene 1 9 23 -0.184144 0 66 -0.184144 1
gene 1 10 23 0.346779 0 67 0.346779 1
gene 1 11 23 0.0554062 0 68 0.0554062 1
gene 1 12 23 -1.17515 0 69 -1.17515 1
gene 1 13 23 -0.0372447 0 70 -0.0372447 1
gene 1 14 23 -0.872162 0 71 -0.872162 1
gene 1 15 23 -0.188223 0 72 -0.188223 0
gene 1 16 23 0.198137 0 73 0.198137 1
gene 1 17 23 -0.369021 0 74 -0.369021 1
gene 1 18 23 0.47955 0 75 0.47955 1
gene 1 19 23 0.28605 0 76 0.28605 1
gene 1 21 20 0.433895 0 78 0.433895 1
gene 1 22 22 0.085914 1 83 0.085914 1
gene 1 10 28 0.235614 0 92 0.235614 1
gene 1 28 20 0.97873 0 93 0.97873 1
gene 1 20 22 -0.577055 0 118 -0.577055 1
gene 1 3 35 -0.423985 0 129 -0.423985 1
gene 1 35 20 0.254021 0 130 0.254021 1
gene 1 1 36 -0.509199 0 131 -0.509199 1
gene 1 36 20 -0.262445 0 132 -0.262445 1
gene 1 23 23 0.223026 1 206 0.223026 1
gene 1 6 35 0.130943 0 233 0.130943 1
gene 1 14 68 -0.0264933 0 261 -0.0264933 1
gene 1 68 20 0.147982 0 262 0.147982 1
gene 1 4 28 0.51965 0 265 0.51965 1
gene 1 15 36 0.555434 0 273 0.555434 1
gene 1 12 72 1.19825 0 283 1.19825 1
gene 1 72 20 -0.0539593 0 284 -0.0539593 1
gene 1 15 75 -0.00490362 0 290 -0.00490362 1
gene 1 75 23 0.132099 0 291 0.132099 1
genomeend 3459
genomestart 3462
trait 1 0.987652 0.681739 0.91525 0.193001 0.771385 0.955035 0.0412612 0.583443 
node 1 1 1 1 0
node 2 1 1 1 0
node 3 1 1 1 0
node 4 1 1 1 0
node 5 1 1 1 0
node 6 1 1 1 0
node 7 1 1 1 0
node 8 1 1 1 0
node 9 1 1 1 0
node 10 1 1 1 0
node 11 1 1 1 0
node 12 1 1 1 0
node 13 1 1 1 0
node 14 1 1 1 0
node 15 1 1 1 0
node 16 1 1 1 0
node 17 1 1 1 0
node 18 1 1 1 0
node 19 1 1 3 0
node 20 1 0 2 0
node 21 1 0 2 0
node 22 1 0 2 0
node 23 1 0 2 0
node 26 1 0 0 0
node 32 1 0 0 0
node 34 1 0 0 0
gene 1 1 20 0.582904 0 1 0.582904 1
gene 1 2 20 0.468152 0 2 0.468152 1
gene 1 3 20 -0.475921 0 3 -0.475921 1
gene 1 4 20 -0.482633 0 4 -0.482633 1
gene 1 5 20 0.0657463 0 5 0.0657463 1
gene 1 6 20 0.927331 0 6 0.927331 1
gene 1 7 20 -0.48119 0 7 -0.48119 1
gene 1 8 20 -0.664438 0 8 -0.664438 1
gene 1 9 20 1.73385 0 9 1.73385 1
gene 1 10 20 0.387498 0 10 0.387498 1
gene 1 11 20 1.0219 0 11 1.0219 1
gene 1 12 20 -0.298852 0 12 -0.298852 1
gene 1 13 20 -0.451846 0 13 -0.451846 1
gene 1 14 20 -0.00750788 0 14 -0.00750788 1
gene 1 15 20 0.326055 0 15 0.326055 1
gene 1 16 20 -0.0146744 0 16 -0.0146744 1
gene 1 17 20 -0.77393 0 17 -0.77393 1
gene 1 18 20 0.64686 0 18 0.64686 0
gene 1 19 20 0.780517 0 19 0.780517 1
gene 1 1 21 0.594651 0 20 0.594651 1
gene 1 2 21 -0.0409466 0 21 -0.0409466 1
gene 1 3 21 1.36659 0 22 1.36659 1
gene 1 4 21 -0.135274 0 23 -0.135274 1
gene 1 5 21 -1.1574 0 24 -1.1574 1
gene 1 6 21 -0.959641 0 25 -0.959641 1
gene 1 7 21 -0.81693 0 26 -0.81693 1
gene 1 8 21 -1.07578 0 27 -1.07578 1
gene 1 9 21 -0.537224 0 28 -0.537224 1
gene 1 10 21 0.302324 0 29 0.302324 1
gene 1 11 21 -0.560845 0 30 -0.560845 1
gene 1 12 21 0.145342 0 31 0.145342 1
gene 1 13 21 0.0262422 0 32 0.0262422 1
gene 1 14 21 -0.208328 0 33 -0.208328 1
gene 1 15 21 -0.467881 0 34 -0.467881 1
gene 1 16 21 1.51748 0 35 1.51748 1
gene 1 17 21 -0.33127 0 36 -0.33127 1
gene 1 18 21 0.219704 0 37 0.219704 1
gene 1 19 21 -0.721388 0 38 -0.721388 1
gene 1 1 22 0.216152 0 39 0.216152 1
gene 1 2 22 -1.15148 0 40 -1.15148 1
gene 1 3 22 -0.869474 0 41 -0.869474 1
gene 1 4 22 -0.41211 0 42 -0.41211 1
gene 1 5 22 -0.387568 0 43 -0.387568 1
gene 1 6 22 -0.53275 0 44 -0.53275 1
gene 1 7 22 -1.08264 0 45 -1.08264 1
gene 1 8 22 -0.152803 0 46 -0.152803 1
gene 1 9 22 0.0284978 0 47 0.0284978 1
gene 1 10 22 -0.0595281 0 48 -0.0595281 1
gene 1 11 22 0.698795 0 49 0.698795 1
gene 1 12 22 0.143319 0 50 0.143319 1
gene 1 13 22 0.325743 0 51 0.325743 1
gene 1 14 22 0.198031 0 52 0.198031 1
gene 1 15 22 -0.205134 0 53 -0.205134 1
gene 1 16 22 0.386767 0 54 0.386767 1
gene 1 17 22 0.0114345 0 55 0.0114345 1
gene 1 18 22 -0.0830607 0 56 -0.0830607 1
gene 1 19 22 1.01625 0 57 1.01625 1
gene 1 1 23 0.163085 0 58 0.163085 1
gene 1 2 23 -0.334421 0 59 -0.334421 1
gene 1 3 23 -0.394197 0 60 -0.394197 1
gene 1 4 23 -0.249518 0 61 -0.249518 1
gene 1 5 23 -0.246197 0 62 -0.246197 1
gene 1 6 23 0.618632 0 63 0.618632 1
gene 1 7 23 -1.27202 0 64 -1.27202 1
gene 1 8 23 -0.145865 0 65 -0.145865 1
gene 1 9 23 -0.324568 0 66 -0.324568 1
gene 1 10 23 -0.00823396 0 67 -0.00823396 1
gene 1 11 23 -0.982083 0 68 -0.982083 1
gene 1 12 23 0.246477 0 69 0.246477 1
gene 1 13 23 -0.387908 0 70 -0.387908 1
gene 1 14 23 0.663633 0 71 0.663633 1
gene 1 15 23 1.17872 0 72 1.17872 1
gene 1 16 23 -0.184688 0 73 -0.184688 1
gene 1 17 23 -0.0429668 0 74 -0.0429668 1
gene 1 18 23 0.245215 0 75 0.245215 1
gene 1 19 23 -0.398614 0 76 -0.398614 1
gene 1 13 26 0.344593 0 84 0.344593 1
gene 1 26 21 -0.378913 0 85 -0.378913 1
gene 1 5 32 0.373108 0 101 0.373108 1
gene 1 32 21 -0.132281 0 102 -0.132281 1
gene 1 18 34 0.511624 0 114 0.511624 1
gene 1 34 20 -0.0261389 0 115 -0.0261389 1
gene 1 10 34 1.17825 0 136 1.17825 1
gene 1 19 26 -0.176543 0 143 -0.176543 1
gene 1 8 32 0.29308 0 149 0.29308 1
gene 1 34 26 -0.505377 0 221 -0.505377 1
genomeend 3462
genomestart 3468
trait 1 0.0664358 0 0.00167526 0.0984737 0.0540571 0.015148 0.0924551 0.47692 
node 1 1 1 1 0
node 2 1 1 1 0
node 3 1 1 1 0
node 4 1 1 1 0
node 5 1 1 1 0
node 6 1 1 1 0
node 7 1 1 1 0
node 8 1 1 1 0
node 9 1 1 1 0
node 10 1 1 1 0
node 11 1 1 1 0
node 12 1 1 1 0
node 13 1 1 1 0
node 14 1 1 1 0
node 15 1 1 1 0
node 16 1 1 1 0
node 17 1 1 1 0
node 18 1 1 1 0
node 19 1 1 3 0
node 20 1 0 2 0
node 21 1 0 2 0
node 22 1 0 2 0
node 23 1 0 2 0
node 26 1 0 0 0
node 37 1 0 0 0
node 40 1 0 0 0
node 53 1 0 0 0
node 58 1 0 0 0
gene 1 1 20 0.384251 0 1 0.384251 1
gene 1 2 20 0.305771 0 2 0.305771 1
gene 1 3 20 -0.441074 0 3 -0.441074 1
gene 1 4 20 0.433153 0 4 0.433153 1
gene 1 5 20 -0.399175 0 5 -0.399175 1
gene 1 6 20 0.456134 0 6 0.456134 1
gene 1 7 20 -0.0486181 0 7 -0.0486181 1
gene 1 8 20 -0.246064 0 8 -0.246064 1
gene 1 9 20 0.176469 0 9 0.176469 1
gene 1 10 20 0.518019 0 10 0.518019 1
gene 1 11 20 -0.160026 0 11 -0.160026 1
gene 1 12 20 -0.540832 0 12 -0.540832 1
gene 1 13 20 0.154634 0 13 0.154634 1
gene 1 14 20 0.000949415 0 14 0.000949415 1
gene 1 15 20 0.206213 0 15 0.206213 1
gene 1 16 20 -0.104565 0 16 -0.104565 1
gene 1 17 20 -0.261292 0 17 -0.261292 1
gene 1 18 20 0.255978 0 18 0.255978 1
gene 1 19 20 0.370656 0 19 0.370656 1
gene 1 1 21 -0.319139 0 20 -0.319139 1
gene 1 2 21 -0.250084 0 21 -0.250084 1
gene 1 3 21 0.819705 0 22 0.819705 1
gene 1 4 21 0.864465 0 23 0.864465 1
gene 1 5 21 0.402528 0 24 0.402528 1
gene 1 6 21 -0.627922 0 25 -0.627922 1
gene 1 7 21 1.08424 0 26 1.08424 1
gene 1 8 21 0.0807756 0 27 0.0807756 1
gene 1 9 21 0.573168 0 28 0.573168 1
gene 1 10 21 -0.570147 0 29 -0.570147 1
gene 1 11 21 -0.495605 0 30 -0.495605 1
gene 1 12 21 -0.731772 0 31 -0.731772 1
gene 1 13 21 0.328745 0 32 0.328745 0
gene 1 14 21 0.419854 0 33 0.419854 0
gene 1 15 21 0.315979 0 34 0.315979 1
gene 1 16 21 0.307669 0 35 0.307669 1
gene 1 17 21 -0.213032 0 36 -0.213032 1
gene 1 18 21 -0.254708 0 37 -0.254708 1
gene 1 19 21 -0.588876 0 38 -0.588876 1
gene 1 1 22 0.200025 0 39 0.200025 1
gene 1 2 22 0.629945 0 40 0.629945 1
gene 1 3 22 -0.566191 0 41 -0.566191 1
gene 1 4 22 0.448406 0 42 0.448406 1
gene 1 5 22 0.650825 0 43 0.650825 1
gene 1 6 22 0.654657 0 44 0.654657 1
gene 1 7 22 -0.0390555 0 45 -0.0390555 1
gene 1 8 22 0.0923662 0 46 0.0923662 1
gene 1 9 22 -0.685947 0 47 -0.685947 1
gene 1 10 22 0.186385 0 48 0.186385 1
gene 1 11 22 -0.129582 0 49 -0.129582 1
gene 1 12 22 0.146913 0 50 0.146913 0
gene 1 13 22 0.749202 0 51 0.749202 1
gene 1 14 22 -0.388309 0 52 -0.388309 1
gene 1 15 22 -0.34736 0 53 -0.34736 1
gene 1 16 22 1.10127 0 54 1.10127 1
gene 1 17 22 0.611312 0 55 0.611312 1
gene 1 18 22 -0.0884561 0 56 -0.0884561 1
gene 1 19 22 -0.441398 0 57 -0.441398 1
gene 1 1 23 0.362219 0 58 0.362219 1
gene 1 2 23 -0.186123 0 59 -0.186123 1
gene 1 3 23 0.0532293 0 60 0.0532293 0
gene 1 4 23 0.482608 0 61 0.482608 1
gene 1 5 23 0.582303 0 62 0.582303 1
gene 1 6 23 -0.58898 0 63 -0.58898 1
gene 1 7 23 -0.327483 0 64 -0.327483 1
gene 1 8 23 -0.385299 0 65 -0.385299 1
gene 1 9 23 0.299832 0 66 0.299832 1
gene 1 10 23 0.837241 0 67 0.837241 1
gene 1 11 23 0.129859 0 68 0.129859 1
gene 1 12 23 1.53207 0 69 1.53207 1
gene 1 13 23 -0.759979 0 70 -0.759979 1
gene 1 14 23 0.638162 0 71 0.638162 1
gene 1 15 23 -0.731036 0 72 -0.731036 1
gene 1 16 23 -0.297184 0 73 -0.297184 1
gene 1 17 23 0.193908 0 74 0.193908 1
gene 1 18 23 0.489379 0 75 0.489379 1
gene 1 19 23 0.748831 0 76 0.748831 1
gene 1 13 26 -0.390783 0 84 -0.390783 1
gene 1 26 21 -0.314495 0 85 -0.314495 1
gene 1 9 26 -0.134934 0 121 -0.134934 1
gene 1 12 37 -0.151455 0 133 -0.151455 1
gene 1 37 22 0.217155 0 134 0.217155 1
gene 1 14 26 0.207041 0 140 0.207041 1
gene 1 3 40 0.190306 0 151 0.190306 1
gene 1 40 23 0.441591 0 152 0.441591 1
gene 1 1 37 0.346832 0 176 0.346832 1
gene 1 37 23 0.804675 0 195 0.804675 1
gene 1 14 53 0.519169 0 202 0.519169 1
gene 1 53 21 0.0431138 0 203 0.0431138 1
gene 1 5 58 1.21729 0 218 1.21729 1
gene 1 58 20 0.202078 0 219 0.202078 1
gene 1 15 26 -0.65807 0 238 -0.65807 1
gene 1 14 40 -0.191263 0 289 -0.191263 1
genomeend 3468
genomestart 3471
trait 1 0.0664361 0 0.00335052 0.0984745 0.0546202 0.0151481 0.0944551 0.47677 
node 1 1 1 1 0
node 2 1 1 1 0
node 3 1 1 1 0
node 4 1 1 1 0
node 5 1 1 1 0
node 6 1 1 1 0
node 7 1 1 1 0
node 8 1 1 1 0
node 9 1 1 1 0
node 10 1 1 1 0
node 11 1 1 1 0
node 12 1 1 1 0
node 13 1 1 1 0
node 14 1 1 1 0
node 15 1 1 1 0
node 16 1 1 1 0
node 17 1 1 1 0
node 18 1 1 1 0
node 19 1 1 3 0
node 20 1 0 2 0
node 21 1 0 2 0
node 22 1 0 2 0
node 23 1 0 2 0
node 26 1 0 0 0
node 37 1 0 0 0
node 40 1 0 0 0
node 53 1 0 0 0
node 58 1 0 0 0
node 79 1 0 0 0
gene 1 1 20 0.766543 0 1 0.766543 1
gene 1 2 20 0.21641 0 2 0.21641 1
gene 1 3 20 -0.127004 0 3 -0.127004 1
gene 1 4 20 0.228935 0 4 0.228935 1
gene 1 5 20 0.1099 0 5 0.1099 1
gene 1 6 20 0.451887 0 6 0.451887 1
gene 1 7 20 -0.131653 0 7 -0.131653 1
gene 1 8 20 -0.0413583 0 8 -0.0413583 1
gene 1 9 20 0.717983 0 9 0.717983 1
gene 1 10 20 0.598219 0 10 0.598219 1
gene 1 11 20 -0.152774 0 11 -0.152774 1
gene 1 12 20 -0.2711 0 12 -0.2711 1
gene 1 13 20 0.509286 0 13 0.509286 1
gene 1 14 20 -0.144704 0 14 -0.144704 1
gene 1 15 20 0.395468 0 15 0.395468 1
gene 1 16 20 -0.289208 0 16 -0.289208 1
gene 1 17 20 0.0703491 0 17 0.0703491 1
gene 1 18 20 0.965486 0 18 0.965486 1
gene 1 19 20 0.267871 0 19 0.267871 1
gene 1 1 21 -0.0477469 0 20 -0.0477469 1
gene 1 2 21 -0.482415 0 21 -0.482415 1
gene 1 3 21 0.314307 0 22 0.314307 1
gene 1 4 21 0.0663392 0 23 0.0663392 1
gene 1 5 21 -0.105306 0 24 -0.105306 1
gene 1 6 21 -0.648193 0 25 -0.648193 1
gene 1 7 21 0.660184 0 26 0.660184 1
gene 1 8 21 0.25322 0 27 0.25322 1
gene 1 9 21 0.413881 0 28 0.413881 1
gene 1 10 21 -0.207008 0 29 -0.207008 1
gene 1 11 21 0.254575 0 30 0.254575 1
gene 1 12 21 -0.776895 0 31 -0.776895 1
gene 1 13 21 -0.170141 0 32 -0.170141 0
gene 1 14 21 0.157107 0 33 0.157107 1
gene 1 15 21 -0.0217533 0 34 -0.0217533 1
gene 1 16 21 -0.362485 0 35 -0.362485 1
gene 1 17 21 -0.230733 0 36 -0.230733 1
gene 1 18 21 -0.435792 0 37 -0.435792 1
gene 1 19 21 -0.624876 0 38 -0.624876 1
gene 1 1 22 0.449674 0 39 0.449674 1
gene 1 2 22 1.67101 0 40 1.67101 1
gene 1 3 22 -0.313975 0 41 -0.313975 0
gene 1 4 22 -0.0759523 0 42 -0.0759523 1
gene 1 5 22 0.00281224 0 43 0.00281224 1
gene 1 6 22 0.569841 0 44 0.569841 1
gene 1 7 22 -0.319995 0 45 -0.319995 1
gene 1 8 22 0.0134866 0 46 0.0134866 1
gene 1 9 22 -0.81926 0 47 -0.81926 1
gene 1 10 22 0.503638 0 48 0.503638 1
gene 1 11 22 0.314435 0 49 0.314435 1
gene 1 12 22 -0.000681613 0 50 -0.000681613 1
gene 1 13 22 0.410794 0 51 0.410794 1
gene 1 14 22 -0.28341 0 52 -0.28341 1
gene 1 15 22 -0.150593 0 53 -0.150593 1
gene 1 16 22 0.305167 0 54 0.305167 1
gene 1 17 22 0.0502456 0 55 0.0502456 1
gene 1 18 22 0.494034 0 56 0.494034 1
gene 1 19 22 2.00075 0 57 2.00075 1
gene 1 1 23 0.151039 0 58 0.151039 1
gene 1 2 23 -0.0668882 0 59 -0.0668882 1
gene 1 3 23 0.232385 0 60 0.232385 1
gene 1 4 23 0.122494 0 61 0.122494 1
gene 1 5 23 0.657953 0 62 0.657953 1
gene 1 6 23 -1.45859 0 63 -1.45859 1
gene 1 7 23 -0.265355 0 64 -0.265355 1
gene 1 8 23 -0.112938 0 65 -0.112938 1
gene 1 9 23 0.213248 0 66 0.213248 1
gene 1 10 23 -0.0100215 0 67 -0.0100215 1
gene 1 11 23 0.573934 0 68 0.573934 1
gene 1 12 23 1.16202 0 69 1.16202 1
gene 1 13 23 -0.911839 0 70 -0.911839 1
gene 1 14 23 0.95401 0 71 0.95401 1
gene 1 15 23 0.193147 0 72 0.193147 1
gene 1 16 23 -0.377953 0 73 -0.377953 1
gene 1 17 23 -0.216103 0 74 -0.216103 1
gene 1 18 23 0.162359 0 75 0.162359 1
gene 1 19 23 0.555154 0 76 0.555154 1
gene 1 13 26 0.454658 0 84 0.454658 1
gene 1 26 21 -0.165223 0 85 -0.165223 1
gene 1 9 26 -0.0763074 0 121 -0.0763074 1
gene 1 12 37 -0.0587811 0 133 -0.0587811 1
gene 1 37 22 -0.0900284 0 134 -0.0900284 1
gene 1 14 26 0.256801 0 140 0.256801 1
gene 1 3 40 0.437499 0 151 0.437499 1
gene 1 40 23 0.271319 0 152 0.271319 1
gene 1 1 37 -0.00350724 0 176 -0.00350724 1
gene 1 37 23 0.884485 0 195 0.884485 1
gene 1 14 53 0.726852 0 202 0.726852 1
gene 1 53 21 0.252865 0 203 0.252865 1
gene 1 5 58 0.290018 0 218 0.290018 1
gene 1 58 20 -0.0184987 0 219 -0.0184987 1
gene 1 15 26 -0.265312 0 238 -0.265312 1
gene 1 14 40 0.114006 0 289 0.114006 1
gene 1 3 79 1 0 312 0 1
gene 1 79 22 -0.0941925 0 313 0 1
genomeend 3471
genomestart 3481
trait 1 0.0664375 0 0.0103562 0.0984779 0.0569092 0.0151486 0.102829 0.476046 
node 1 1 1 1 0
node 2 1 1 1 0
node 3 1 1 1 0
node 4 1 1 1 0
node 5 1 1 1 0
node 6 1 1 1 0
node 7 1 1 1 0
node 8 1 1 1 0
node 9 1 1 1 0
node 10 1 1 1 0
node 11 1 1 1 0
node 12 1 1 1 0
node 13 1 1 1 0
node 14 1 1 1 0
node 15 1 1 1 0
node 16 1 1 1 0
node 17 1 1 1 0
node 18 1 1 1 0
node 19 1 1 3 0
node 20 1 0 2 0
node 21 1 0 2 0
node 22 1 0 2 0
node 23 1 0 2 0
node 26 1 0 0 0
node 37 1 0 0 0
node 40 1 0 0 0
node 53 1 0 0 0
node 58 1 0 0 0
gene 1 1 20 -0.436662 0 1 -0.436662 1
gene 1 2 20 -0.736052 0 2 -0.736052 1
gene 1 3 20 0.185314 0 3 0.185314 1
gene 1 4 20 0.427563 0 4 0.427563 1
gene 1 5 20 -0.11834 0 5 -0.11834 1
gene 1 6 20 0.166503 0 6 0.166503 1
gene 1 7 20 0.375568 0 7 0.375568 1
gene 1 8 20 -0.0235543 0 8 -0.0235543 1
gene 1 9 20 0.297816 0 9 0.297816 1
gene 1 10 20 0.279138 0 10 0.279138 1
gene 1 11 20 -0.496876 0 11 -0.496876 1
gene 1 12 20 -0.0503646 0 12 -0.0503646 1
gene 1 13 20 0.271032 0 13 0.271032 1
gene 1 14 20 0.306348 0 14 0.306348 1
gene 1 15 20 0.654262 0 15 0.654262 1
gene 1 16 20 -0.528001 0 16 -0.528001 1
gene 1 17 20 -0.11707 0 17 -0.11707 1
gene 1 18 20 0.624335 0 18 0.624335 1
gene 1 19 20 0.299432 0 19 0.299432 1
gene 1 1 21 0.193315 0 20 0.193315 1
gene 1 2 21 -0.756403 0 21 -0.756403 1
gene 1 3 21 0.0870245 0 22 0.0870245 1
gene 1 4 21 0.443601 0 23 0.443601 1
gene 1 5 21 -0.0756606 0 24 -0.0756606 1
gene 1 6 21 -0.648193 0 25 -0.648193 1
gene 1 7 21 0.526927 0 26 0.526927 1
gene 1 8 21 -0.256705 0 27 -0.256705 1
gene 1 9 21 0.264789 0 28 0.264789 1
gene 1 10 21 0.244509 0 29 0.244509 1
gene 1 11 21 -0.374751 0 30 -0.374751 1
gene 1 12 21 -0.865095 0 31 -0.865095 1
gene 1 13 21 -0.0551689 0 32 -0.0551689 0
gene 1 14 21 0.557486 0 33 0.557486 0
gene 1 15 21 -0.478299 0 34 -0.478299 1
gene 1 16 21 -0.356641 0 35 -0.356641 1
gene 1 17 21 -0.848121 0 36 -0.848121 1
gene 1 18 21 -0.369663 0 37 -0.369663 1
gene 1 19 21 -0.129595 0 38 -0.129595 1
gene 1 1 22 1.19096 0 39 1.19096 1
gene 1 2 22 0.667534 0 40 0.667534 1
gene 1 3 22 -0.59331 0 41 -0.59331 1
gene 1 4 22 -0.316041 0 42 -0.316041 1
gene 1 5 22 0.116467 0 43 0.116467 1
gene 1 6 22 0.389351 0 44 0.389351 1
gene 1 7 22 -0.218242 0 45 -0.218242 1
gene 1 8 22 -0.0703205 0 46 -0.0703205 1
gene 1 9 22 -0.489555 0 47 -0.489555 1
gene 1 10 22 0.472191 0 48 0.472191 1
gene 1 11 22 -0.342544 0 49 -0.342544 1
gene 1 12 22 0.0368723 0 50 0.0368723 0
gene 1 13 22 0.367082 0 51 0.367082 1
gene 1 14 22 -0.237752 0 52 -0.237752 1
gene 1 15 22 0.322417 0 53 0.322417 1
gene 1 16 22 0.400335 0 54 0.400335 1
gene 1 17 22 0.232251 0 55 0.232251 1
gene 1 18 22 -0.0232727 0 56 -0.0232727 1
gene 1 19 22 2.35632 0 57 2.35632 1
gene 1 1 23 -0.00347064 0 58 -0.00347064 1
gene 1 2 23 0.000846319 0 59 0.000846319 1
gene 1 3 23 0.14707 0 60 0.14707 0
gene 1 4 23 -0.663519 0 61 -0.663519 1
gene 1 5 23 1.09904 0 62 1.09904 1
gene 1 6 23 -1.07606 0 63 -1.07606 1
gene 1 7 23 0.0926213 0 64 0.0926213 1
gene 1 8 23 -0.0499803 0 65 -0.0499803 1
gene 1 9 23 -0.208628 0 66 -0.208628 1
gene 1 10 23 0.465723 0 67 0.465723 1
gene 1 11 23 0.584604 0 68 0.584604 1
gene 1 12 23 0.284042 0 69 0.284042 1
gene 1 13 23 0.200084 0 70 0.200084 1
gene 1 14 23 0.238461 0 71 0.238461 1
gene 1 15 23 -0.733833 0 72 -0.733833 1
gene 1 16 23 -0.660727 0 73 -0.660727 1
gene 1 17 23 -0.00698938 0 74 -0.00698938 1
gene 1 18 23 -0.0750758 0 75 -0.0750758 1
gene 1 19 23 -0.0211581 0 76 -0.0211581 1
gene 1 13 26 0.266483 0 84 0.266483 1
gene 1 26 21 0.822662 0 85 0.822662 1
gene 1 9 26 -0.232629 0 121 -0.232629 1
gene 1 12 37 -0.223989 0 133 -0.223989 1
gene 1 37 22 0.0222479 0 134 0.0222479 1
gene 1 14 26 0.207041 0 140 0.207041 1
gene 1 3 40 0.336601 0 151 0.336601 1
gene 1 40 23 0.181815 0 152 0.181815 1
gene 1 1 37 0.0749091 0 176 0.0749091 1
gene 1 37 23 -0.295606 0 195 -0.295606 1
gene 1 14 53 0.354212 0 202 0.354212 1
gene 1 53 21 0.736602 0 203 0.736602 1
gene 1 5 58 0.255023 0 218 0.255023 1
gene 1 58 20 -0.294456 0 219 -0.294456 1
gene 1 15 26 0.0404837 0 238 0.0404837 1
gene 1 14 40 -0.00445437 0 289 -0.00445437 1
genomeend 3481
genomestart 3485
trait 1 0.647676 0.436681 0.943089 0.563108 0.800986 0.414091 0.133724 0.0694606 
node 1 1 1 1 0
node 2 1 1 1 0
node 3 1 1 1 0
node 4 1 1 1 0
node 5 1 1 1 0
node 6 1 1 1 0
node 7 1 1 1 0
node 8 1 1 1 0
node 9 1 1 1 0
node 10 1 1 1 0
node 11 1 1 1 0
node 12 1 1 1 0
node 13 1 1 1 0
node 14 1 1 1 0
node 15 1 1 1 0
node 16 1 1 1 0
node 17 1 1 1 0
node 18 1 1 1 0
node 19 1 1 3 0
node 20 1 0 2 0
node 21 1 0 2 0
node 22 1 0 2 0
node 23 1 0 2 0
node 25 1 0 0 0
node 27 1 0 0 0
node 54 1 0 0 0
node 69 1 0 0 0
gene 1 1 20 0.718979 0 1 0.718979 1
gene 1 2 20 -0.422693 0 2 -0.422693 1
gene 1 3 20 -0.303061 0 3 -0.303061 1
gene 1 4 20 0.86003 0 4 0.86003 1
gene 1 5 20 -0.0748119 0 5 -0.0748119 1
gene 1 6 20 0.788715 0 6 0.788715 1
gene 1 7 20 0.311525 0 7 0.311525 1
gene 1 8 20 -0.774484 0 8 -0.774484 1
gene 1 9 20 -0.445131 0 9 -0.445131 1
gene 1 10 20 1.29876 0 10 1.29876 1
gene 1 11 20 -0.512094 0 11 -0.512094 0
gene 1 12 20 0.825161 0 12 0.825161 1
gene 1 13 20 0.681285 0 13 0.681285 1
gene 1 14 20 0.374195 0 14 0.374195 1
gene 1 15 20 0.321924 0 15 0.321924 1
gene 1 16 20 0.0153479 0 16 0.0153479 1
gene 1 17 20 -0.133041 0 17 -0.133041 1
gene 1 18 20 -0.646415 0 18 -0.646415 1
gene 1 19 20 0.241764 0 19 0.241764 1
gene 1 1 21 0.257912 0 20 0.257912 1
gene 1 2 21 1.19018 0 21 1.19018 1
gene 1 3 21 -0.59281 0 22 -0.59281 1
gene 1 4 21 0.449735 0 23 0.449735 0
gene 1 5 21 0.672694 0 24 0.672694 1
gene 1 6 21 -0.503376 0 25 -0.503376 1
gene 1 7 21 -0.689281 0 26 -0.689281 1
gene 1 8 21 0.784635 0 27 0.784635 1
gene 1 9 21 -0.557199 0 28 -0.557199 1
gene 1 10 21 -1.08601 0 29 -1.08601 1
gene 1 11 21 0.161558 0 30 0.161558 1
gene 1 12 21 -0.473985 0 31 -0.473985 1
gene 1 13 21 -0.454397 0 32 -0.454397 1
gene 1 14 21 0.221664 0 33 0.221664 1
gene 1 15 21 0.151185 0 34 0.151185 1
gene 1 16 21 0.692624 0 35 0.692624 1
gene 1 17 21 -1.90958 0 36 -1.90958 1
gene 1 18 21 -0.99138 0 37 -0.99138 1
gene 1 19 21 -0.130174 0 38 -0.130174 1
gene 1 1 22 0.354148 0 39 0.354148 1
gene 1 2 22 -0.6958 0 40 -0.6958 1
gene 1 3 22 -0.58347 0 41 -0.58347 1
gene 1 4 22 0.34078 0 42 0.34078 1
gene 1 5 22 0.832919 0 43 0.832919 1
gene 1 6 22 1.06306 0 44 1.06306 1
gene 1 7 22 -1.15268 0 45 -1.15268 1
gene 1 8 22 -1.62091 0 46 -1.62091 1
gene 1 9 22 -0.410902 0 47 -0.410902 1
gene 1 10 22 -1.32992 0 48 -1.32992 1
gene 1 11 22 -0.4097 0 49 -0.4097 1
gene 1 12 22 -0.49178 0 50 -0.49178 1
gene 1 13 22 0.596051 0 51 0.596051 1
gene 1 14 22 0.428952 0 52 0.428952 1
gene 1 15 22 1.22799 0 53 1.22799 1
gene 1 16 22 1.06246 0 54 1.06246 1
gene 1 17 22 -0.945077 0 55 -0.945077 1
gene 1 18 22 0.174295 0 56 0.174295 1
gene 1 19 22 0.489228 0 57 0.489228 1
gene 1 1 23 -1.42516 0 58 -1.42516 1
gene 1 2 23 -0.374852 0 59 -0.374852 1
gene 1 3 23 0.469682 0 60 0.469682 1
gene 1 4 23 0.101532 0 61 0.101532 1
gene 1 5 23 1.69767 0 62 1.69767 1
gene 1 6 23 -0.868305 0 63 -0.868305 1
gene 1 7 23 0.301368 0 64 0.301368 1
gene 1 8 23 0.395721 0 65 0.395721 1
gene 1 9 23 -1.0071 0 66 -1.0071 1
gene 1 10 23 0.806701 0 67 0.806701 1
gene 1 11 23 -0.191459 0 68 -0.191459 1
gene 1 12 23 -1.13915 0 69 -1.13915 1
gene 1 13 23 1.68225 0 70 1.68225 1
gene 1 14 23 -0.675748 0 71 -0.675748 1
gene 1 15 23 -1.14782 0 72 -1.14782 1
gene 1 16 23 0.126068 0 73 0.126068 1
gene 1 17 23 0.238091 0 74 0.238091 1
gene 1 18 23 0.399542 0 75 0.399542 1
gene 1 19 23 0.440157 0 76 0.440157 1
gene 1 23 22 -0.569842 0 77 -0.569842 1
gene 1 4 25 0.25584 0 81 0.25584 1
gene 1 25 21 -0.141648 0 82 -0.141648 1
gene 1 6 27 0.0401245 0 86 0.0401245 1
gene 1 27 22 0.141184 0 87 0.141184 1
gene 1 7 27 0.157158 0 89 0.157158 1
gene 1 11 27 -1.21991 0 109 -1.21991 1
gene 1 27 27 -0.372298 1 113 -0.372298 1
gene 1 20 21 0.0228706 0 138 0.0228706 1
gene 1 22 22 -0.0269003 1 139 -0.0269003 1
gene 1 14 27 0.0928735 0 145 0.0928735 1
gene 1 25 20 -0.372601 0 157 -0.372601 1
gene 1 22 20 -0.13522 0 169 -0.13522 1
gene 1 25 25 0.885501 1 191 0.885501 1
gene 1 2 25 0.0241457 0 200 0.0241457 1
gene 1 15 27 -0.49873 0 201 -0.49873 1
gene 1 3 54 -0.181236 0 209 -0.181236 1
gene 1 54 21 0.430577 0 210 0.430577 1
gene 1 1 54 1.05632 0 220 1.05632 1
gene 1 11 69 0.355634 0 271 0.355634 1
gene 1 69 20 -0.18513 0 272 -0.18513 1
gene 1 69 54 -1.19662 0 301 -1.19662 1
gene 1 2 54 0.89692 0 305 0.89692 1
genomeend 3485
genomestart 3486
trait 1 0.323838 0.49969 0.962168 0.626979 0.749773 0.609244 0.239738 0.0696574 
node 1 1 1 1 0
node 2 1 1 1 0
node 3 1 1 1 0
node 4 1 1 1 0
node 5 1 1 1 0
node 6 1 1 1 0
node 7 1 1 1 0
node 8 1 1 1 0
node 9 1 1 1 0
node 10 1 1 1 0
node 11 1 1 1 0
node 12 1 1 1 0
node 13 1 1 1 0
node 14 1 1 1 0
node 15 1 1 1 0
node 16 1 1 1 0
node 17 1 1 1 0
node 18 1 1 1 0
node 19 1 1 3 0
node 20 1 0 2 0
node 21 1 0 2 0
node 22 1 0 2 0
node 23 1 0 2 0
node 25 1 0 0 0
node 27 1 0 0 0
node 54 1 0 0 0
node 69 1 0 0 0
node 78 1 0 0 0
gene 1 1 20 0.510179 0 1 0.510179 1
gene 1 2 20 -0.344419 0 2 -0.344419 1
gene 1 3 20 0.138276 0 3 0.138276 1
gene 1 4 20 0.685139 0 4 0.685139 1
gene 1 5 20 0.340438 0 5 0.340438 1
gene 1 6 20 1.00617 0 6 1.00617 1
gene 1 7 20 0.403679 0 7 0.403679 1
gene 1 8 20 -0.997638 0 8 -0.997638 1
gene 1 9 20 -0.543834 0 9 -0.543834 1
gene 1 10 20 0.329873 0 10 0.329873 1
gene 1 11 20 0.0281386 0 11 0.0281386 0
gene 1 12 20 0.567262 0 12 0.567262 1
gene 1 13 20 0.872981 0 13 0.872981 1
gene 1 14 20 -0.535358 0 14 -0.535358 1
gene 1 15 20 0.607743 0 15 0.607743 1
gene 1 16 20 -0.99613 0 16 -0.99613 1
gene 1 17 20 -0.0938278 0 17 -0.0938278 1
gene 1 18 20 -0.656735 0 18 -0.656735 1
gene 1 19 20 0.207021 0 19 0.207021 1
gene 1 1 21 0.121318 0 20 0.121318 1
gene 1 2 21 0.79084 0 21 0.79084 1
gene 1 3 21 -0.630649 0 22 -0.630649 1
gene 1 4 21 0.779076 0 23 0.779076 1
gene 1 5 21 0.419181 0 24 0.419181 1
gene 1 6 21 -1.22142 0 25 -1.22142 1
gene 1 7 21 -0.590629 0 26 -0.590629 1
gene 1 8 21 0.496692 0 27 0.496692 1
gene 1 9 21 -0.371821 0 28 -0.371821 1
gene 1 10 21 -0.922282 0 29 -0.922282 1
gene 1 11 21 0.293116 0 30 0.293116 1
gene 1 12 21 -0.0605266 0 31 -0.0605266 1
gene 1 13 21 -0.220701 0 32 -0.220701 1
gene 1 14 21 -0.427798 0 33 -0.427798 1
gene 1 15 21 -0.167445 0 34 -0.167445 1
gene 1 16 21 0.565481 0 35 0.565481 1
gene 1 17 21 -1.97005 0 36 -1.97005 1
gene 1 18 21 -0.554035 0 37 -0.554035 1
gene 1 19 21 0.250354 0 38 0.250354 1
gene 1 1 22 0.108102 0 39 0.108102 1
gene 1 2 22 -0.539768 0 40 -0.539768 1
gene 1 3 22 -0.486898 0 41 -0.486898 1
gene 1 4 22 -0.525376 0 42 -0.525376 1
gene 1 5 22 0.32709 0 43 0.32709 1
gene 1 6 22 0.952537 0 44 0.952537 1
gene 1 7 22 -0.652121 0 45 -0.652121 1
gene 1 8 22 -0.808002 0 46 -0.808002 1
gene 1 9 22 0.117099 0 47 0.117099 1
gene 1 10 22 -1.36205 0 48 -1.36205 1
gene 1 11 22 -0.21966 0 49 -0.21966 1
gene 1 12 22 0.374238 0 50 0.374238 1
gene 1 13 22 0.444094 0 51 0.444094 1
gene 1 14 22 0.020416 0 52 0.020416 1
gene 1 15 22 0.335976 0 53 0.335976 1
gene 1 16 22 0.770387 0 54 0.770387 1
gene 1 17 22 -1.24781 0 55 -1.24781 1
gene 1 18 22 -0.0945731 0 56 -0.0945731 1
gene 1 19 22 0.724605 0 57 0.724605 1
gene 1 1 23 -0.297448 0 58 -0.297448 1
gene 1 2 23 -0.338974 0 59 -0.338974 1
gene 1 3 23 -0.496911 0 60 -0.496911 1
gene 1 4 23 0.418131 0 61 0.418131 1
gene 1 5 23 0.71229 0 62 0.71229 1
gene 1 6 23 -0.0912896 0 63 -0.0912896 1
gene 1 7 23 -0.0831719 0 64 -0.0831719 1
gene 1 8 23 0.205757 0 65 0.205757 1
gene 1 9 23 -0.220655 0 66 -0.220655 1
gene 1 10 23 -0.140193 0 67 -0.140193 1
gene 1 11 23 0.151371 0 68 0.151371 1
gene 1 12 23 -0.787575 0 69 -0.787575 1
gene 1 13 23 1.84061 0 70 1.84061 1
gene 1 14 23 -0.44094 0 71 -0.44094 1
gene 1 15 23 -1.17222 0 72 -1.17222 1
gene 1 16 23 0.112917 0 73 0.112917 1
gene 1 17 23 -0.29793 0 74 -0.29793 1
gene 1 18 23 1.11729 0 75 1.11729 1
gene 1 19 23 0.268902 0 76 0.268902 1
gene 1 23 22 -0.294332 0 77 -0.294332 1
gene 1 4 25 -0.645584 0 81 -0.645584 1
gene 1 25 21 0.190664 0 82 0.190664 1
gene 1 6 27 -0.371461 0 86 -0.371461 1
gene 1 27 22 -0.0606963 0 87 -0.0606963 1
gene 1 7 27 0.522024 0 89 0.522024 1
gene 1 11 27 -0.807379 0 109 -0.807379 1
gene 1 27 27 -0.0754157 1 113 -0.0754157 1
gene 1 20 21 -0.405835 0 138 -0.405835 1
gene 1 22 22 0.10258 1 139 0.10258 1
gene 1 14 27 0.231288 0 145 0.231288 1
gene 1 25 20 -0.288267 0 157 -0.288267 1
gene 1 22 20 -0.185851 0 169 -0.185851 1
gene 1 25 25 0.652815 1 191 0.652815 1
gene 1 2 25 0.019153 0 200 0.019153 1
gene 1 15 27 -0.290845 0 201 -0.290845 1
gene 1 3 54 0.0781912 0 209 0.0781912 1
gene 1 54 21 0.466633 0 210 0.466633 1
gene 1 1 54 0.867209 0 220 0.867209 1
gene 1 11 69 -0.0759834 0 271 -0.0759834 1
gene 1 69 20 -0.0795335 0 272 -0.0795335 1
gene 1 69 54 -0.689197 0 301 -0.689197 1
gene 1 2 54 0.294164 0 305 0.294164 1
gene 1 11 78 -0.101567 0 306 -0.101567 1
gene 1 78 69 0.105593 0 307 0.105593 1
genomeend 3486
genomestart 3487
trait 1 0 1 0.203131 0.139295 0 0.702821 0.820875 0.342792 
node 1 1 1 1 0
node 2 1 1 1 0
node 3 1 1 1 0
node 4 1 1 1 0
node 5 1 1 1 0
node 6 1 1 1 0
node 7 1 1 1 0
node 8 1 1 1 0
node 9 1 1 1 0
node 10 1 1 1 0
node 11 1 1 1 0
node 12 1 1 1 0
node 13 1 1 1 0
node 14 1 1 1 0
node 15 1 1 1 0
node 16 1 1 1 0
node 17 1 1 1 0
node 18 1 1 1 0
node 19 1 1 3 0
node 20 1 0 2 0
node 21 1 0 2 0
node 22 1 0 2 0
node 23 1 0 2 0
node 28 1 0 0 0
node 35 1 0 0 0
node 36 1 0 0 0
node 68 1 0 0 0
node 72 1 0 0 0
node 75 1 0 0 0
gene 1 1 20 0.240877 0 1 0.240877 0
gene 1 2 20 -1.73135 0 2 -1.73135 1
gene 1 3 20 0.149937 0 3 0.149937 1
gene 1 4 20 -0.0474017 0 4 -0.0474017 1
gene 1 5 20 -0.851302 0 5 -0.851302 1
gene 1 6 20 -0.13883 0 6 -0.13883 1
gene 1 7 20 0.290386 0 7 0.290386 1
gene 1 8 20 -0.0200915 0 8 -0.0200915 1
gene 1 9 20 -0.909669 0 9 -0.909669 1
gene 1 10 20 -0.0876943 0 10 -0.0876943 1
gene 1 11 20 -0.909592 0 11 -0.909592 1
gene 1 12 20 0.117599 0 12 0.117599 1
gene 1 13 20 -0.974542 0 13 -0.974542 1
gene 1 14 20 -0.0774864 0 14 -0.0774864 0
gene 1 15 20 -0.692263 0 15 -0.692263 1
gene 1 16 20 0.277104 0 16 0.277104 1
gene 1 17 20 0.897131 0 17 0.897131 1
gene 1 18 20 -0.214792 0 18 -0.214792 1
gene 1 19 20 0.0576487 0 19 0.0576487 1
gene 1 1 21 -0.415001 0 20 -0.415001 1
gene 1 2 21 -0.00486691 0 21 -0.00486691 1
gene 1 3 21 0.33546 0 22 0.33546 1
gene 1 4 21 0.858423 0 23 0.858423 1
gene 1 5 21 -0.45909 0 24 -0.45909 1
gene 1 6 21 -0.397024 0 25 -0.397024 1
gene 1 7 21 -0.0438514 0 26 -0.0438514 1
gene 1 8 21 0.413631 0 27 0.413631 1
gene 1 9 21 0.0192612 0 28 0.0192612 1
gene 1 10 21 0.442781 0 29 0.442781 1
gene 1 11 21 -1.89171 0 30 -1.89171 1
gene 1 12 21 0.0552101 0 31 0.0552101 1
gene 1 13 21 -0.348637 0 32 -0.348637 1
gene 1 14 21 0.653433 0 33 0.653433 1
gene 1 15 21 -0.540525 0 34 -0.540525 1
gene 1 16 21 0.106634 0 35 0.106634 1
gene 1 17 21 -0.332506 0 36 -0.332506 1
gene 1 18 21 -0.267006 0 37 -0.267006 1
gene 1 19 21 -0.0155632 0 38 -0.0155632 1
gene 1 1 22 -0.210804 0 39 -0.210804 1
gene 1 2 22 -2.34702 0 40 -2.34702 1
gene 1 3 22 0.429115 0 41 0.429115 1
gene 1 4 22 -0.266774 0 42 -0.266774 1
gene 1 5 22 0.545949 0 43 0.545949 1
gene 1 6 22 -0.484307 0 44 -0.484307 1
gene 1 7 22 -0.665428 0 45 -0.665428 1
gene 1 8 22 2.88832 0 46 2.88832 1
gene 1 9 22 0.444011 0 47 0.444011 1
gene 1 10 22 -0.24697 0 48 -0.24697 1
gene 1 11 22 -0.210769 0 49 -0.210769 1
gene 1 12 22 0.0217546 0 50 0.0217546 1
gene 1 13 22 -0.637132 0 51 -0.637132 1
gene 1 14 22 -0.253914 0 52 -0.253914 1
gene 1 15 22 -0.0139331 0 53 -0.0139331 1
gene 1 16 22 -0.0718466 0 54 -0.0718466 1
gene 1 17 22 0.506849 0 55 0.506849 1
gene 1 18 22 -1.37751 0 56 -1.37751 1
gene 1 19 22 1.51912 0 57 1.51912 1
gene 1 1 23 0.0867814 0 58 0.0867814 1
gene 1 2 23 0.652237 0 59 0.652237 1
gene 1 3 23 0.338166 0 60 0.338166 1
gene 1 4 23 0.0597148 0 61 0.0597148 1
gene 1 5 23 0.412389 0 62 0.412389 1
gene 1 6 23 -1.24394 0 63 -1.24394 1
gene 1 7 23 -0.605115 0 64 -0.605115 1
gene 1 8 23 0.0807319 0 65 0.0807319 1
gene 1 9 23 0.626913 0 66 0.626913 1
gene 1 10 23 0.339312 0 67 0.339312 1
gene 1 11 23 0.28984 0 68 0.28984 1
gene 1 12 23 -1.14207 0 69 -1.14207 1
gene 1 13 23 2.37468 0 70 2.37468 1
gene 1 14 23 -0.194043 0 71 -0.194043 1
gene 1 15 23 0.0631692 0 72 0.0631692 0
gene 1 16 23 0.0325978 0 73 0.0325978 1
gene 1 17 23 0.0762361 0 74 0.0762361 1
gene 1 18 23 -0.383229 0 75 -0.383229 1
gene 1 19 23 -1.14444 0 76 -1.14444 1
gene 1 21 20 -0.402469 0 78 -0.402469 1
gene 1 22 22 -0.673592 1 83 -0.673592 1
gene 1 10 28 -0.365922 0 92 -0.365922 1
gene 1 28 20 0.119528 0 93 0.119528 1
gene 1 20 22 -0.371964 0 118 -0.371964 1
gene 1 3 35 0.195552 0 129 0.195552 1
gene 1 35 20 -0.387969 0 130 -0.387969 1
gene 1 1 36 -0.414948 0 131 -0.414948 1
gene 1 36 20 0.784522 0 132 0.784522 1
gene 1 23 23 -0.595982 1 206 -0.595982 1
gene 1 6 35 0.761329 0 233 0.761329 1
gene 1 14 68 -0.305065 0 261 -0.305065 1
gene 1 68 20 0.34715 0 262 0.34715 1
gene 1 4 28 0.233251 0 265 0.233251 1
gene 1 15 36 0.427146 0 273 0.427146 1
gene 1 12 72 1.62364 0 283 1.62364 1
gene 1 72 20 0.214769 0 284 0.214769 1
gene 1 15 75 1.78921 0 290 1.78921 1
gene 1 75 23 0.280936 0 291 0.280936 1
genomeend 3487
genomestart 3488
trait 1 0.357811 0.280103 0.824752 0.485332 0.0209847 0.661012 0.26295 0.36004 
node 1 1 1 1 0
node 2 1 1 1 0
node 3 1 1 1 0
node 4 1 1 1 0
node 5 1 1 1 0
node 6 1 1 1 0
node 7 1 1 1 0
node 8 1 1 1 0
node 9 1 1 1 0
node 10 1 1 1 0
node 11 1 1 1 0
node 12 1 1 1 0
node 13 1 1 1 0
node 14 1 1 1 0
node 15 1 1 1 0
node 16 1 1 1 0
node 17 1 1 1 0
node 18 1 1 1 0
node 19 1 1 3 0
node 20 1 0 2 0
node 21 1 0 2 0
node 22 1 0 2 0
node 23 1 0 2 0
node 28 1 0 0 0
node 35 1 0 0 0
node 36 1 0 0 0
node 68 1 0 0 0
node 72 1 0 0 0
node 75 1 0 0 0
gene 1 1 20 -0.0239524 0 1 -0.0239524 0
gene 1 2 20 -1.08818 0 2 -1.08818 1
gene 1 3 20 -0.00105901 0 3 -0.00105901 1
gene 1 4 20 0.633657 0 4 0.633657 1
gene 1 5 20 -0.498535 0 5 -0.498535 1
gene 1 6 20 0.376134 0 6 0.376134 1
gene 1 7 20 0.767108 0 7 0.767108 1
gene 1 8 20 -0.599046 0 8 -0.599046 1
gene 1 9 20 -0.457575 0 9 -0.457575 1
gene 1 10 20 -0.528604 0 10 -0.528604 1
gene 1 11 20 -0.611777 0 11 -0.611777 1
gene 1 12 20 0.140907 0 12 0.140907 1
gene 1 13 20 -0.219213 0 13 -0.219213 1
gene 1 14 20 -0.0686265 0 14 -0.0686265 1
gene 1 15 20 -0.268718 0 15 -0.268718 1
gene 1 16 20 -0.296361 0 16 -0.296361 1
gene 1 17 20 0.877072 0 17 0.877072 1
gene 1 18 20 -0.0504701 0 18 -0.0504701 1
gene 1 19 20 0.511522 0 19 0.511522 1
gene 1 1 21 0.0297487 0 20 0.0297487 1
gene 1 2 21 -0.341244 0 21 -0.341244 1
gene 1 3 21 0.0764933 0 22 0.0764933 1
gene 1 4 21 0.400537 0 23 0.400537 1
gene 1 5 21 0.124095 0 24 0.124095 1
gene 1 6 21 0.124586 0 25 0.124586 1
gene 1 7 21 0.390168 0 26 0.390168 1
gene 1 8 21 0.298069 0 27 0.298069 1
gene 1 9 21 -1.45206 0 28 -1.45206 1
gene 1 10 21 -0.69184 0 29 -0.69184 1
gene 1 11 21 -0.426603 0 30 -0.426603 1
gene 1 12 21 0.414355 0 31 0.414355 1
gene 1 13 21 -0.555313 0 32 -0.555313 1
gene 1 14 21 0.465123 0 33 0.465123 1
gene 1 15 21 -1.02985 0 34 -1.02985 1
gene 1 16 21 -0.0420036 0 35 -0.0420036 1
gene 1 17 21 0.102508 0 36 0.102508 1
gene 1 18 21 -0.16832 0 37 -0.16832 1
gene 1 19 21 0.0786542 0 38 0.0786542 1
gene 1 1 22 -0.299612 0 39 -0.299612 1
gene 1 2 22 -0.636578 0 40 -0.636578 1
gene 1 3 22 -0.453274 0 41 -0.453274 1
gene 1 4 22 1.06407 0 42 1.06407 1
gene 1 5 22 -0.269518 0 43 -0.269518 1
gene 1 6 22 -0.435756 0 44 -0.435756 1
gene 1 7 22 -1.04812 0 45 -1.04812 1
gene 1 8 22 1.7541 0 46 1.7541 1
gene 1 9 22 0.19965 0 47 0.19965 1
gene 1 10 22 0.123033 0 48 0.123033 1
gene 1 11 22 -0.41944 0 49 -0.41944 1
gene 1 12 22 1.19528 0 50 1.19528 1
gene 1 13 22 0.211923 0 51 0.211923 1
gene 1 14 22 0.955444 0 52 0.955444 1
gene 1 15 22 0.129928 0 53 0.129928 1
gene 1 16 22 0.247705 0 54 0.247705 1
gene 1 17 22 0.322002 0 55 0.322002 1
gene 1 18 22 -1.27241 0 56 -1.27241 1
gene 1 19 22 2.18918 0 57 2.18918 1
gene 1 1 23 -0.348429 0 58 -0.348429 1
gene 1 2 23 0.709546 0 59 0.709546 1
gene 1 3 23 0.298971 0 60 0.298971 1
gene 1 4 23 1.29666 0 61 1.29666 1
gene 1 5 23 1.1563 0 62 1.1563 1
gene 1 6 23 0.0903053 0 63 0.0903053 1
gene 1 7 23 -0.376847 0 64 -0.376847 1
gene 1 8 23 -0.386147 0 65 -0.386147 1
gene 1 9 23 0.0843986 0 66 0.0843986 1
gene 1 10 23 0.0998566 0 67 0.0998566 1
gene 1 11 23 0.732634 0 68 0.732634 1
gene 1 12 23 -0.227625 0 69 -0.227625 1
gene 1 13 23 1.01105 0 70 1.01105 1
gene 1 14 23 -0.11205 0 71 -0.11205 1
gene 1 15 23 -0.506839 0 72 -0.506839 1
gene 1 16 23 -0.476219 0 73 -0.476219 1
gene 1 17 23 0.984478 0 74 0.984478 1
gene 1 18 23 1.0895 0 75 1.0895 1
gene 1 19 23 0.0371061 0 76 0.0371061 1
gene 1 21 20 -0.371026 0 78 -0.371026 1
gene 1 22 22 -0.078495 1 83 -0.078495 1
gene 1 10 28 -0.58316 0 92 -0.58316 1
gene 1 28 20 -0.137687 0 93 -0.137687 1
gene 1 20 22 -0.740256 0 118 -0.740256 1
gene 1 3 35 -0.279183 0 129 -0.279183 1
gene 1 35 20 -0.0438992 0 130 -0.0438992 1
gene 1 1 36 0.171632 0 131 0.171632 1
gene 1 36 20 0.302051 0 132 0.302051 1
gene 1 23 23 -0.812847 1 206 -0.812847 1
gene 1 6 35 -0.397762 0 233 -0.397762 1
gene 1 14 68 0.303561 0 261 0.303561 1
gene 1 68 20 -0.096104 0 262 -0.096104 1
gene 1 4 28 0.143427 0 265 0.143427 1
gene 1 15 36 0.0371337 0 273 0.0371337 1
gene 1 12 72 0.800214 0 283 0.800214 1
gene 1 72 20 0.146366 0 284 0.146366 1
gene 1 15 75 0.519824 0 290 0.519824 1
gene 1 75 23 -0.235467 0 291 -0.235467 1
genomeend 3488
genomestart 3494
trait 1 0.309936 0.280103 0.824752 0.553237 0.020851 0.616184 0.26295 0.36004 
node 1 1 1 1 0
node 2 1 1 1 0
node 3 1 1 1 0
node 4 1 1 1 0
node 5 1 1 1 0
node 6 1 1 1 0
node 7 1 1 1 0
node 8 1 1 1 0
node 9 1 1 1 0
node 10 1 1 1 0
node 11 1 1 1 0
node 12 1 1 1 0
node 13 1 1 1 0
node 14 1 1 1 0
node 15 1 1 1 0
node 16 1 1 1 0
node 17 1 1 1 0
node 18 1 1 1 0
node 19 1 1 3 0
node 20 1 0 2 0
node 21 1 0 2 0
node 22 1 0 2 0
node 23 1 0 2 0
node 28 1 0 0 0
node 35 1 0 0 0
node 36 1 0 0 0
node 68 1 0 0 0
node 72 1 0 0 0
node 75 1 0 0 0
gene 1 1 20 -0.925651 0 1 -0.925651 0
gene 1 2 20 -0.856354 0 2 -0.856354 1
gene 1 3 20 0.673251 0 3 0.673251 1
gene 1 4 20 0.458814 0 4 0.458814 1
gene 1 5 20 -0.182075 0 5 -0.182075 1
gene 1 6 20 0.497561 0 6 0.497561 1
gene 1 7 20 0.790195 0 7 0.790195 1
gene 1 8 20 0.931249 0 8 0.931249 1
gene 1 9 20 0.799306 0 9 0.799306 1
gene 1 10 20 -0.398069 0 10 -0.398069 1
gene 1 11 20 -0.839038 0 11 -0.839038 1
gene 1 12 20 0.625716 0 12 0.625716 1
gene 1 13 20 -0.0612025 0 13 -0.0612025 1
gene 1 14 20 -0.00768725 0 14 -0.00768725 0
gene 1 15 20 -0.700101 0 15 -0.700101 1
gene 1 16 20 -0.156771 0 16 -0.156771 1
gene 1 17 20 0.568058 0 17 0.568058 1
gene 1 18 20 0.642535 0 18 0.642535 1
gene 1 19 20 0.0489567 0 19 0.0489567 1
gene 1 1 21 1.02651 0 20 1.02651 1
gene 1 2 21 0.462541 0 21 0.462541 1
gene 1 3 21 0.469106 0 22 0.469106 1
gene 1 4 21 0.888133 0 23 0.888133 1
gene 1 5 21 0.193567 0 24 0.193567 1
gene 1 6 21 0.731692 0 25 0.731692 1
gene 1 7 21 0.358791 0 26 0.358791 1
gene 1 8 21 0.565389 0 27 0.565389 1
gene 1 9 21 -0.502477 0 28 -0.502477 1
gene 1 10 21 -0.283718 0 29 -0.283718 1
gene 1 11 21 -1.27559 0 30 -1.27559 1
gene 1 12 21 0.733568 0 31 0.733568 1
gene 1 13 21 -0.151704 0 32 -0.151704 1
gene 1 14 21 -0.410199 0 33 -0.410199 1
gene 1 15 21 0.0410147 0 34 0.0410147 1
gene 1 16 21 0.276277 0 35 0.276277 1
gene 1 17 21 -0.647618 0 36 -0.647618 1
gene 1 18 21 -0.218123 0 37 -0.218123 1
gene 1 19 21 0.592099 0 38 0.592099 1
gene 1 1 22 0.137721 0 39 0.137721 1
gene 1 2 22 -1.86912 0 40 -1.86912 1
gene 1 3 22 -0.351815 0 41 -0.351815 1
gene 1 4 22 -0.404016 0 42 -0.404016 1
gene 1 5 22 -0.27071 0 43 -0.27071 1
gene 1 6 22 0.178747 0 44 0.178747 1
gene 1 7 22 -1.98836 0 45 -1.98836 1
gene 1 8 22 0.438738 0 46 0.438738 1
gene 1 9 22 -0.848779 0 47 -0.848779 1
gene 1 10 22 0.550291 0 48 0.550291 1
gene 1 11 22 -1.33723 0 49 -1.33723 1
gene 1 12 22 1.26407 0 50 1.26407 1
gene 1 13 22 0.0977916 0 51 0.0977916 1
gene 1 14 22 -0.015097 0 52 -0.015097 1
gene 1 15 22 -0.490173 0 53 -0.490173 1
gene 1 16 22 0.323868 0 54 0.323868 1
gene 1 17 22 1.90218 0 55 1.90218 1
gene 1 18 22 -0.980354 0 56 -0.980354 1
gene 1 19 22 1.70894 0 57 1.70894 1
gene 1 1 23 -0.0359738 0 58 -0.0359738 1
gene 1 2 23 0.328261 0 59 0.328261 1
gene 1 3 23 -0.356764 0 60 -0.356764 1
gene 1 4 23 0.66552 0 61 0.66552 1
gene 1 5 23 -0.0437118 0 62 -0.0437118 1
gene 1 6 23 -0.81786 0 63 -0.81786 1
gene 1 7 23 -0.0174134 0 64 -0.0174134 1
gene 1 8 23 -0.585113 0 65 -0.585113 1
gene 1 9 23 0.26997 0 66 0.26997 1
gene 1 10 23 0.637746 0 67 0.637746 1
gene 1 11 23 -0.553609 0 68 -0.553609 1
gene 1 12 23 -0.0762468 0 69 -0.0762468 1
gene 1 13 23 1.52984 0 70 1.52984 1
gene 1 14 23 -0.943661 0 71 -0.943661 1
gene 1 15 23 -0.964458 0 72 -0.964458 0
gene 1 16 23 -1.29023 0 73 -1.29023 1
gene 1 17 23 0.0326768 0 74 0.0326768 1
gene 1 18 23 1.07958 0 75 1.07958 1
gene 1 19 23 -0.75534 0 76 -0.75534 1
gene 1 21 20 -0.470371 0 78 -0.470371 1
gene 1 22 22 -0.591157 1 83 -0.591157 1
gene 1 10 28 0.121309 0 92 0.121309 1
gene 1 28 20 -0.223765 0 93 -0.223765 1
gene 1 20 22 -0.377044 0 118 -0.377044 1
gene 1 3 35 0.0415693 0 129 0.0415693 1
gene 1 35 20 0.0894804 0 130 0.0894804 1
gene 1 1 36 0.393028 0 131 0.393028 1
gene 1 36 20 0.103728 0 132 0.103728 1
gene 1 23 23 -0.256757 1 206 -0.256757 1
gene 1 6 35 -0.0455162 0 233 -0.0455162 1
gene 1 14 68 0.0916181 0 261 0.0916181 1
gene 1 68 20 0.336168 0 262 0.336168 1
gene 1 4 28 0.219092 0 265 0.219092 1
gene 1 15 36 -0.443468 0 273 -0.443468 1
gene 1 12 72 0.172636 0 283 0.172636 1
gene 1 72 20 -0.19502 0 284 -0.19502 1
gene 1 15 75 0.0600378 0 290 0.0600378 1
gene 1 75 23 -0.234203 0 291 -0.234203 1
gene 1 35 21 -0.869713 0 311 -0.869713 1
genomeend 3494
genomestart 3499
trait 1 0 1 1 1 0.426345 0.804396 0.345753 0 
node 1 1 1 1 0
node 2 1 1 1 0
node 3 1 1 1 0
node 4 1 1 1 0
node 5 1 1 1 0
node 6 1 1 1 0
node 7 1 1 1 0
node 8 1 1 1 0
node 9 1 1 1 0
node 10 1 1 1 0
node 11 1 1 1 0
node 12 1 1 1 0
node 13 1 1 1 0
node 14 1 1 1 0
node 15 1 1 1 0
node 16 1 1 1 0
node 17 1 1 1 0
node 18 1 1 1 0
node 19 1 1 3 0
node 20 1 0 2 0
node 21 1 0 2 0
node 22 1 0 2 0
node 23 1 0 2 0
node 25 1 0 0 0
node 27 1 0 0 0
node 54 1 0 0 0
node 69 1 0 0 0
node 78 1 0 0 0
gene 1 1 20 -0.285084 0 1 -0.285084 1
gene 1 2 20 -0.998063 0 2 -0.998063 1
gene 1 3 20 -0.0617198 0 3 -0.0617198 1
gene 1 4 20 0.465759 0 4 0.465759 1
gene 1 5 20 -0.0352968 0 5 -0.0352968 1
gene 1 6 20 0.296564 0 6 0.296564 1
gene 1 7 20 -0.890928 0 7 -0.890928 1
gene 1 8 20 -0.961785 0 8 -0.961785 1
gene 1 9 20 0.0759029 0 9 0.0759029 1
gene 1 10 20 0.524594 0 10 0.524594 1
gene 1 11 20 -0.15019 0 11 -0.15019 1
gene 1 12 20 1.28887 0 12 1.28887 1
gene 1 13 20 -0.183735 0 13 -0.183735 1
gene 1 14 20 -0.651939 0 14 -0.651939 1
gene 1 15 20 -0.322502 0 15 -0.322502 1
gene 1 16 20 -0.625863 0 16 -0.625863 1
gene 1 17 20 -0.166839 0 17 -0.166839 1
gene 1 18 20 -0.716359 0 18 -0.716359 1
gene 1 19 20 -0.0014414 0 19 -0.0014414 1
gene 1 1 21 -0.394633 0 20 -0.394633 1
gene 1 2 21 1.02589 0 21 1.02589 1
gene 1 3 21 -1.16792 0 22 -1.16792 1
gene 1 4 21 0.123291 0 23 0.123291 0
gene 1 5 21 0.14 0 24 0.14 1
gene 1 6 21 -1.64088 0 25 -1.64088 1
gene 1 7 21 -0.403211 0 26 -0.403211 1
gene 1 8 21 0.222031 0 27 0.222031 1
gene 1 9 21 -0.46721 0 28 -0.46721 1
gene 1 10 21 -1.22698 0 29 -1.22698 1
gene 1 11 21 0.510837 0 30 0.510837 1
gene 1 12 21 -0.279119 0 31 -0.279119 1
gene 1 13 21 0.0389642 0 32 0.0389642 1
gene 1 14 21 0.143251 0 33 0.143251 1
gene 1 15 21 0.262748 0 34 0.262748 1
gene 1 16 21 1.06097 0 35 1.06097 1
gene 1 17 21 -0.879831 0 36 -0.879831 1
gene 1 18 21 -0.650798 0 37 -0.650798 1
gene 1 19 21 0.454984 0 38 0.454984 1
gene 1 1 22 0.139033 0 39 0.139033 1
gene 1 2 22 0.0341384 0 40 0.0341384 1
gene 1 3 22 0.103191 0 41 0.103191 1
gene 1 4 22 -0.968568 0 42 -0.968568 1
gene 1 5 22 0.222949 0 43 0.222949 1
gene 1 6 22 0.667533 0 44 0.667533 1
gene 1 7 22 -0.463949 0 45 -0.463949 1
gene 1 8 22 -0.181706 0 46 -0.181706 1
gene 1 9 22 0.567555 0 47 0.567555 1
gene 1 10 22 -0.337298 0 48 -0.337298 1
gene 1 11 22 -0.164351 0 49 -0.164351 1
gene 1 12 22 0.115587 0 50 0.115587 1
gene 1 13 22 0.386161 0 51 0.386161 1
gene 1 14 22 0.539461 0 52 0.539461 1
gene 1 15 22 -0.0306494 0 53 -0.0306494 1
gene 1 16 22 0.587871 0 54 0.587871 1
gene 1 17 22 -1.8388 0 55 -1.8388 1
gene 1 18 22 -0.665242 0 56 -0.665242 1
gene 1 19 22 0.181505 0 57 0.181505 1
gene 1 1 23 -0.193561 0 58 -0.193561 1
gene 1 2 23 -0.376337 0 59 -0.376337 1
gene 1 3 23 -0.660853 0 60 -0.660853 1
gene 1 4 23 0.461045 0 61 0.461045 1
gene 1 5 23 0.461647 0 62 0.461647 1
gene 1 6 23 -0.165633 0 63 -0.165633 1
gene 1 7 23 -0.485878 0 64 -0.485878 1
gene 1 8 23 -0.882853 0 65 -0.882853 1
gene 1 9 23 -0.303114 0 66 -0.303114 1
gene 1 10 23 -0.704058 0 67 -0.704058 1
gene 1 11 23 -0.0658328 0 68 -0.0658328 1
gene 1 12 23 -0.391408 0 69 -0.391408 1
gene 1 13 23 0.695002 0 70 0.695002 1
gene 1 14 23 -1.21289 0 71 -1.21289 1
gene 1 15 23 -0.254333 0 72 -0.254333 1
gene 1 16 23 0.151895 0 73 0.151895 1
gene 1 17 23 -0.430143 0 74 -0.430143 1
gene 1 18 23 2.20526 0 75 2.20526 1
gene 1 19 23 0.484263 0 76 0.484263 1
gene 1 23 22 -0.987823 0 77 -0.987823 1
gene 1 4 25 -0.188493 0 81 -0.188493 1
gene 1 25 21 1.19336 0 82 1.19336 1
gene 1 6 27 -0.7883 0 86 -0.7883 1
gene 1 27 22 0.293115 0 87 0.293115 1
gene 1 7 27 -0.307046 0 89 -0.307046 1
gene 1 11 27 0.0720791 0 109 0.0720791 1
gene 1 27 27 -0.0981917 1 113 -0.0981917 1
gene 1 20 21 0.0582761 0 138 0.0582761 1
gene 1 22 22 0.886078 1 139 0.886078 1
gene 1 14 27 -0.258901 0 145 -0.258901 1
gene 1 25 20 -0.143118 0 157 -0.143118 1
gene 1 22 20 -0.665935 0 169 -0.665935 1
gene 1 25 25 0.086375 1 191 0.086375 1
gene 1 2 25 0.510161 0 200 0.510161 1
gene 1 15 27 -0.042548 0 201 -0.042548 1
gene 1 3 54 0.664836 0 209 0.664836 1
gene 1 54 21 0.133606 0 210 0.133606 1
gene 1 1 54 0.59994 0 220 0.59994 1
gene 1 11 69 0.0326187 0 271 0.0326187 1
gene 1 69 20 0.333713 0 272 0.333713 1
gene 1 11 78 -0.288091 0 306 -0.288091 1
gene 1 78 69 0.320211 0 307 0.320211 1
genomeend 3499
genomestart 3500
trait 1 0 0.562699 0.981247 0.690849 0.698559 0.804396 0.345753 0.0698541 
node 1 1 1 1 0
node 2 1 1 1 0
node 3 1 1 1 0
node 4 1 1 1 0
node 5 1 1 1 0
node 6 1 1 1 0
node 7 1 1 1 0
node 8 1 1 1 0
node 9 1 1 1 0
node 10 1 1 1 0
node 11 1 1 1 0
node 12 1 1 1 0
node 13 1 1 1 0
node 14 1 1 1 0
node 15 1 1 1 0
node 16 1 1 1 0
node 17 1 1 1 0
node 18 1 1 1 0
node 19 1 1 3 0
node 20 1 0 2 0
node 21 1 0 2 0
node 22 1 0 2 0
node 23 1 0 2 0
node 25 1 0 0 0
node 27 1 0 0 0
node 54 1 0 0 0
node 69 1 0 0 0
node 78 1 0 0 0
gene 1 1 20 -0.354403 0 1 -0.354403 1
gene 1 2 20 -0.877481 0 2 -0.877481 1
gene 1 3 20 0.185067 0 3 0.185067 1
gene 1 4 20 0.283839 0 4 0.283839 1
gene 1 5 20 -0.361093 0 5 -0.361093 1
gene 1 6 20 0.954663 0 6 0.954663 1
gene 1 7 20 -0.676215 0 7 -0.676215 1
gene 1 8 20 -0.517793 0 8 -0.517793 1
gene 1 9 20 0.158604 0 9 0.158604 1
gene 1 10 20 0.374741 0 10 0.374741 1
gene 1 11 20 -0.63217 0 11 -0.63217 1
gene 1 12 20 1.05348 0 12 1.05348 1
gene 1 13 20 0.257193 0 13 0.257193 1
gene 1 14 20 -1.07486 0 14 -1.07486 1
gene 1 15 20 -0.244312 0 15 -0.244312 1
gene 1 16 20 -0.643259 0 16 -0.643259 1
gene 1 17 20 0.0805322 0 17 0.0805322 1
gene 1 18 20 -0.579206 0 18 -0.579206 1
gene 1 19 20 -0.533988 0 19 -0.533988 1
gene 1 1 21 -0.534673 0 20 -0.534673 1
gene 1 2 21 1.34683 0 21 1.34683 1
gene 1 3 21 -1.21669 0 22 -1.21669 1
gene 1 4 21 0.880519 0 23 0.880519 0
gene 1 5 21 -0.514448 0 24 -0.514448 1
gene 1 6 21 -1.87636 0 25 -1.87636 1
gene 1 7 21 -0.619082 0 26 -0.619082 1
gene 1 8 21 -0.478188 0 27 -0.478188 1
gene 1 9 21 0.0567816 0 28 0.0567816 1
gene 1 10 21 -1.20884 0 29 -1.20884 1
gene 1 11 21 0.49954 0 30 0.49954 1
gene 1 12 21 0.238489 0 31 0.238489 1
gene 1 13 21 -0.351731 0 32 -0.351731 1
gene 1 14 21 -0.320415 0 33 -0.320415 1
gene 1 15 21 0.205731 0 34 0.205731 1
gene 1 16 21 0.972237 0 35 0.972237 1
gene 1 17 21 -1.47368 0 36 -1.47368 1
gene 1 18 21 -0.448096 0 37 -0.448096 1
gene 1 19 21 0.399432 0 38 0.399432 1
gene 1 1 22 0.212013 0 39 0.212013 1
gene 1 2 22 -0.376238 0 40 -0.376238 1
gene 1 3 22 0.490629 0 41 0.490629 1
gene 1 4 22 -0.320804 0 42 -0.320804 1
gene 1 5 22 0.189963 0 43 0.189963 1
gene 1 6 22 0.426361 0 44 0.426361 1
gene 1 7 22 -1.1089 0 45 -1.1089 1
gene 1 8 22 -0.109054 0 46 -0.109054 1
gene 1 9 22 0.652729 0 47 0.652729 1
gene 1 10 22 -0.454804 0 48 -0.454804 1
gene 1 11 22 0.0754858 0 49 0.0754858 1
gene 1 12 22 0.459291 0 50 0.459291 1
gene 1 13 22 0.324865 0 51 0.324865 1
gene 1 14 22 -0.377454 0 52 -0.377454 1
gene 1 15 22 -0.877602 0 53 -0.877602 1
gene 1 16 22 0.109035 0 54 0.109035 1
gene 1 17 22 -1.83867 0 55 -1.83867 1
gene 1 18 22 -0.455574 0 56 -0.455574 1
gene 1 19 22 0.0920369 0 57 0.0920369 1
gene 1 1 23 -0.0729218 0 58 -0.0729218 1
gene 1 2 23 -0.743004 0 59 -0.743004 1
gene 1 3 23 -0.128748 0 60 -0.128748 1
gene 1 4 23 -0.194347 0 61 -0.194347 1
gene 1 5 23 -0.453625 0 62 -0.453625 1
gene 1 6 23 -0.190747 0 63 -0.190747 1
gene 1 7 23 -0.269413 0 64 -0.269413 1
gene 1 8 23 -0.274344 0 65 -0.274344 1
gene 1 9 23 0.0739042 0 66 0.0739042 1
gene 1 10 23 -0.00391048 0 67 -0.00391048 1
gene 1 11 23 -0.64822 0 68 -0.64822 1
gene 1 12 23 -0.821844 0 69 -0.821844 1
gene 1 13 23 1.38529 0 70 1.38529 1
gene 1 14 23 -1.45812 0 71 -1.45812 1
gene 1 15 23 -0.658246 0 72 -0.658246 1
gene 1 16 23 0.345503 0 73 0.345503 1
gene 1 17 23 -0.162266 0 74 -0.162266 1
gene 1 18 23 1.44375 0 75 1.44375 1
gene 1 19 23 0.794746 0 76 0.794746 1
gene 1 23 22 -0.996431 0 77 -0.996431 1
gene 1 4 25 -0.324519 0 81 -0.324519 1
gene 1 25 21 0.0237681 0 82 0.0237681 1
gene 1 6 27 -0.734738 0 86 -0.734738 1
gene 1 27 22 -0.285289 0 87 -0.285289 1
gene 1 7 27 0.104054 0 89 0.104054 1
gene 1 11 27 -0.295499 0 109 -0.295499 1
gene 1 27 27 0.170261 1 113 0.170261 1
gene 1 20 21 0.100469 0 138 0.100469 1
gene 1 22 22 1.11737 1 139 1.11737 1
gene 1 14 27 -0.166802 0 145 -0.166802 1
gene 1 25 20 -0.918828 0 157 -0.918828 1
gene 1 22 20 -0.85767 0 169 -0.85767 1
gene 1 25 25 0.361082 1 191 0.361082 1
gene 1 2 25 0.0136093 0 200 0.0136093 1
gene 1 15 27 -0.0615375 0 201 -0.0615375 1
gene 1 3 54 0.239695 0 209 0.239695 1
gene 1 54 21 0.193618 0 210 0.193618 1
gene 1 1 54 0.952103 0 220 0.952103 1
gene 1 11 69 0.835989 0 271 0.835989 1
gene 1 69 20 0.480999 0 272 0.480999 1
gene 1 11 78 0.303317 0 306 0.303317 1
gene 1 78 69 0.0902338 0 307 0.0902338 1
genomeend 3500
genomestart 3502
trait 1 0.316859 0.279021 0.851761 0.557234 0.0197821 0.618197 0.271661 0.371539 
node 1 1 1 1 0
node 2 1 1 1 0
node 3 1 1 1 0
node 4 1 1 1 0
node 5 1 1 1 0
node 6 1 1 1 0
node 7 1 1 1 0
node 8 1 1 1 0
node 9 1 1 1 0
node 10 1 1 1 0
node 11 1 1 1 0
node 12 1 1 1 0
node 13 1 1 1 0
node 14 1 1 1 0
node 15 1 1 1 0
node 16 1 1 1 0
node 17 1 1 1 0
node 18 1 1 1 0
node 19 1 1 3 0
node 20 1 0 2 0
node 21 1 0 2 0
node 22 1 0 2 0
node 23 1 0 2 0
node 28 1 0 0 0
node 35 1 0 0 0
node 36 1 0 0 0
node 68 1 0 0 0
node 72 1 0 0 0
node 75 1 0 0 0
gene 1 1 20 -0.264948 0 1 -0.264948 1
gene 1 2 20 -1.14735 0 2 -1.14735 1
gene 1 3 20 0.0733275 0 3 0.0733275 1
gene 1 4 20 0.339588 0 4 0.339588 1
gene 1 5 20 0.203703 0 5 0.203703 1
gene 1 6 20 -0.180593 0 6 -0.180593 1
gene 1 7 20 -0.315395 0 7 -0.315395 1
gene 1 8 20 -0.280283 0 8 -0.280283 1
gene 1 9 20 0.572431 0 9 0.572431 1
gene 1 10 20 -1.00162 0 10 -1.00162 1
gene 1 11 20 -0.642855 0 11 -0.642855 1
gene 1 12 20 0.349661 0 12 0.349661 1
gene 1 13 20 -0.0779656 0 13 -0.0779656 1
gene 1 14 20 0.095966 0 14 0.095966 0
gene 1 15 20 -0.132131 0 15 -0.132131 1
gene 1 16 20 -0.254503 0 16 -0.254503 1
gene 1 17 20 -0.387611 0 17 -0.387611 1
gene 1 18 20 0.942745 0 18 0.942745 1
gene 1 19 20 -0.00767998 0 19 -0.00767998 1
gene 1 1 21 0.404172 0 20 0.404172 1
gene 1 2 21 -0.524442 0 21 -0.524442 1
gene 1 3 21 0.664094 0 22 0.664094 1
gene 1 4 21 -0.0475572 0 23 -0.0475572 1
gene 1 5 21 -0.606975 0 24 -0.606975 1
gene 1 6 21 -0.062845 0 25 -0.062845 1
gene 1 7 21 0.456728 0 26 0.456728 1
gene 1 8 21 1.12424 0 27 1.12424 1
gene 1 9 21 -0.46478 0 28 -0.46478 1
gene 1 10 21 -0.410292 0 29 -0.410292 1
gene 1 11 21 -0.658782 0 30 -0.658782 1
gene 1 12 21 0.815156 0 31 0.815156 1
gene 1 13 21 0.0799801 0 32 0.0799801 1
gene 1 14 21 -0.734714 0 33 -0.734714 1
gene 1 15 21 -0.651372 0 34 -0.651372 1
gene 1 16 21 0.12184 0 35 0.12184 1
gene 1 17 21 0.901541 0 36 0.901541 1
gene 1 18 21 0.355623 0 37 0.355623 1
gene 1 19 21 1.14376 0 38 1.14376 1
gene 1 1 22 -0.0336558 0 39 -0.0336558 1
gene 1 2 22 0.344072 0 40 0.344072 1
gene 1 3 22 -0.174079 0 41 -0.174079 1
gene 1 4 22 0.254561 0 42 0.254561 1
gene 1 5 22 0.110507 0 43 0.110507 1
gene 1 6 22 -0.278829 0 44 -0.278829 1
gene 1 7 22 -0.853384 0 45 -0.853384 1
gene 1 8 22 1.04271 0 46 1.04271 1
gene 1 9 22 0.170019 0 47 0.170019 1
gene 1 10 22 0.487389 0 48 0.487389 1
gene 1 11 22 -0.12622 0 49 -0.12622 1
gene 1 12 22 1.00079 0 50 1.00079 1
gene 1 13 22 0.819623 0 51 0.819623 1
gene 1 14 22 0.668496 0 52 0.668496 1
gene 1 15 22 0.415674 0 53 0.415674 1
gene 1 16 22 0.030089 0 54 0.030089 1
gene 1 17 22 1.03873 0 55 1.03873 1
gene 1 18 22 -1.22073 0 56 -1.22073 1
gene 1 19 22 0.228013 0 57 0.228013 1
gene 1 1 23 0.297457 0 58 0.297457 1
gene 1 2 23 0.190732 0 59 0.190732 1
gene 1 3 23 0.0679239 0 60 0.0679239 1
gene 1 4 23 1.28269 0 61 1.28269 1
gene 1 5 23 0.555186 0 62 0.555186 1
gene 1 6 23 -0.477907 0 63 -0.477907 1
gene 1 7 23 0.11001 0 64 0.11001 1
gene 1 8 23 0.347327 0 65 0.347327 1
gene 1 9 23 0.192057 0 66 0.192057 1
gene 1 10 23 -0.0951977 0 67 -0.0951977 1
gene 1 11 23 0.375034 0 68 0.375034 1
gene 1 12 23 0.0961387 0 69 0.0961387 1
gene 1 13 23 2.35673 0 70 2.35673 1
gene 1 14 23 -0.391751 0 71 -0.391751 1
gene 1 15 23 -1.13606 0 72 -1.13606 0
gene 1 16 23 -0.87251 0 73 -0.87251 1
gene 1 17 23 -0.370808 0 74 -0.370808 1
gene 1 18 23 0.75993 0 75 0.75993 1
gene 1 19 23 -1.02166 0 76 -1.02166 1
gene 1 21 20 0.173246 0 78 0.173246 1
gene 1 22 22 -0.229175 1 83 -0.229175 1
gene 1 10 28 0.121309 0 92 0.121309 1
gene 1 28 20 -0.142335 0 93 -0.142335 1
gene 1 20 22 -0.6434 0 118 -0.6434 1
gene 1 3 35 -0.272384 0 129 -0.272384 1
gene 1 35 20 0.266434 0 130 0.266434 1
gene 1 1 36 -0.667038 0 131 -0.667038 1
gene 1 36 20 -0.730066 0 132 -0.730066 1
gene 1 23 23 -0.263698 1 206 -0.263698 1
gene 1 6 35 -0.380845 0 233 -0.380845 1
gene 1 14 68 0.530558 0 261 0.530558 1
gene 1 68 20 0.121234 0 262 0.121234 1
gene 1 4 28 0.191878 0 265 0.191878 1
gene 1 15 36 0.0273254 0 273 0.0273254 1
gene 1 12 72 0.516264 0 283 0.516264 1
gene 1 72 20 0.603609 0 284 0.603609 1
gene 1 15 75 -0.0321451 0 290 -0.0321451 1
gene 1 75 23 -0.0410049 0 291 -0.0410049 1
genomeend 3502
genomestart 3503
trait 1 0.0664358 0 0.00167526 0.0984737 0.0540571 0.015148 0.0924551 0.47692 
node 1 1 1 1 0
node 2 1 1 1 0
node 3 1 1 1 0
node 4 1 1 1 0
node 5 1 1 1 0
node 6 1 1 1 0
node 7 1 1 1 0
node 8 1 1 1 0
node 9 1 1 1 0
node 10 1 1 1 0
node 11 1 1 1 0
node 12 1 1 1 0
node 13 1 1 1 0
node 14 1 1 1 0
node 15 1 1 1 0
node 16 1 1 1 0
node 17 1 1 1 0
node 18 1 1 1 0
node 19 1 1 3 0
node 20 1 0 2 0
node 21 1 0 2 0
node 22 1 0 2 0
node 23 1 0 2 0
node 26 1 0 0 0
node 37 1 0 0 0
node 40 1 0 0 0
node 53 1 0 0 0
node 58 1 0 0 0
node 73 1 0 0 0
gene 1 1 20 0.762774 0 1 0.762774 1
gene 1 2 20 0.241926 0 2 0.241926 1
gene 1 3 20 -0.307176 0 3 -0.307176 1
gene 1 4 20 0.430358 0 4 0.430358 1
gene 1 5 20 -0.258757 0 5 -0.258757 1
gene 1 6 20 0.571964 0 6 0.571964 1
gene 1 7 20 -0.112296 0 7 -0.112296 1
gene 1 8 20 -0.301985 0 8 -0.301985 1
gene 1 9 20 0.394417 0 9 0.394417 1
gene 1 10 20 0.398578 0 10 0.398578 1
gene 1 11 20 -0.171443 0 11 -0.171443 1
gene 1 12 20 -0.4107 0 12 -0.4107 1
gene 1 13 20 0.405309 0 13 0.405309 1
gene 1 14 20 -0.222803 0 14 -0.222803 1
gene 1 15 20 0.327454 0 15 0.327454 1
gene 1 16 20 -0.316283 0 16 -0.316283 1
gene 1 17 20 0.12877 0 17 0.12877 1
gene 1 18 20 0.469992 0 18 0.469992 1
gene 1 19 20 0.335044 0 19 0.335044 1
gene 1 1 21 -0.38141 0 20 -0.38141 1
gene 1 2 21 -0.305709 0 21 -0.305709 1
gene 1 3 21 0.850312 0 22 0.850312 1
gene 1 4 21 0.654033 0 23 0.654033 1
gene 1 5 21 0.0961897 0 24 0.0961897 1
gene 1 6 21 -0.638057 0 25 -0.638057 1
gene 1 7 21 0.563869 0 26 0.563869 1
gene 1 8 21 0.361061 0 27 0.361061 1
gene 1 9 21 0.722522 0 28 0.722522 1
gene 1 10 21 -0.021206 0 29 -0.021206 1
gene 1 11 21 -0.486314 0 30 -0.486314 1
gene 1 12 21 -0.21478 0 31 -0.21478 1
gene 1 13 21 0.152298 0 32 0.152298 0
gene 1 14 21 0.48867 0 33 0.48867 0
gene 1 15 21 0.221982 0 34 0.221982 1
gene 1 16 21 0.317175 0 35 0.317175 1
gene 1 17 21 -0.00135964 0 36 -0.00135964 1
gene 1 18 21 -0.309033 0 37 -0.309033 1
gene 1 19 21 -0.606876 0 38 -0.606876 1
gene 1 1 22 0.31076 0 39 0.31076 1
gene 1 2 22 0.648739 0 40 0.648739 1
gene 1 3 22 -0.620503 0 41 -0.620503 1
gene 1 4 22 0.293578 0 42 0.293578 1
gene 1 5 22 0.280372 0 43 0.280372 1
gene 1 6 22 0.770065 0 44 0.770065 1
gene 1 7 22 -0.128649 0 45 -0.128649 1
gene 1 8 22 0.0110228 0 46 0.0110228 1
gene 1 9 22 -0.744646 0 47 -0.744646 1
gene 1 10 22 0.329288 0 48 0.329288 1
gene 1 11 22 0.276109 0 49 0.276109 1
gene 1 12 22 -0.06324 0 50 -0.06324 0
gene 1 13 22 0.558142 0 51 0.558142 1
gene 1 14 22 -0.313031 0 52 -0.313031 1
gene 1 15 22 -0.0124712 0 53 -0.0124712 1
gene 1 16 22 0.861918 0 54 0.861918 1
gene 1 17 22 0.421781 0 55 0.421781 1
gene 1 18 22 0.202778 0 56 0.202778 1
gene 1 19 22 -0.332192 0 57 -0.332192 1
gene 1 1 23 0.404017 0 58 0.404017 1
gene 1 2 23 -0.0774426 0 59 -0.0774426 1
gene 1 3 23 0.11217 0 60 0.11217 0
gene 1 4 23 0.317583 0 61 0.317583 1
gene 1 5 23 0.635233 0 62 0.635233 1
gene 1 6 23 -0.685469 0 63 -0.685469 1
gene 1 7 23 -0.274833 0 64 -0.274833 1
gene 1 8 23 -0.118642 0 65 -0.118642 1
gene 1 9 23 0.266704 0 66 0.266704 1
gene 1 10 23 0.651482 0 67 0.651482 1
gene 1 11 23 0.150099 0 68 0.150099 1
gene 1 12 23 1.30572 0 69 1.30572 1
gene 1 13 23 -0.736308 0 70 -0.736308 1
gene 1 14 23 0.438312 0 71 0.438312 1
gene 1 15 23 -0.732434 0 72 -0.732434 1
gene 1 16 23 -0.478956 0 73 -0.478956 1
gene 1 17 23 0.0934591 0 74 0.0934591 1
gene 1 18 23 0.207152 0 75 0.207152 1
gene 1 19 23 0.454503 0 76 0.454503 1
gene 1 13 26 -0.0621503 0 84 -0.0621503 0
gene 1 26 21 -0.194605 0 85 -0.194605 1
gene 1 9 26 -0.183782 0 121 -0.183782 1
gene 1 12 37 -0.3507 0 133 -0.3507 1
gene 1 37 22 0.177681 0 134 0.177681 1
gene 1 14 26 0.459904 0 140 0.459904 1
gene 1 3 40 0.709886 0 151 0.709886 1
gene 1 40 23 0.461076 0 152 0.461076 1
gene 1 1 37 -0.0210691 0 176 -0.0210691 1
gene 1 37 23 0.265507 0 195 0.265507 1
gene 1 14 53 0.664063 0 202 0.664063 1
gene 1 53 21 -0.225222 0 203 -0.225222 1
gene 1 5 58 0.741173 0 218 0.741173 1
gene 1 58 20 0.320111 0 219 0.320111 1
gene 1 15 26 -0.370064 0 238 -0.370064 1
gene 1 13 73 1 0 285 0 1
gene 1 73 26 0.0799448 0 286 0 1
gene 1 14 40 0.266873 0 289 0.266873 1
genomeend 3503
genomestart 3504
trait 1 0.647676 0.436681 0.943089 0.563108 0.800986 0.414091 0.133724 0.0694606 
node 1 1 1 1 0
node 2 1 1 1 0
node 3 1 1 1 0
node 4 1 1 1 0
node 5 1 1 1 0
node 6 1 1 1 0
node 7 1 1 1 0
node 8 1 1 1 0
node 9 1 1 1 0
node 10 1 1 1 0
node 11 1 1 1 0
node 12 1 1 1 0
node 13 1 1 1 0
node 14 1 1 1 0
node 15 1 1 1 0
node 16 1 1 1 0
node 17 1 1 1 0
node 18 1 1 1 0
node 19 1 1 3 0
node 20 1 0 2 0
node 21 1 0 2 0
node 22 1 0 2 0
node 23 1 0 2 0
node 25 1 0 0 0
node 27 1 0 0 0
node 54 1 0 0 0
node 69 1 0 0 0
gene 1 1 20 -0.361081 0 1 -0.361081 1
gene 1 2 20 -0.912245 0 2 -0.912245 1
gene 1 3 20 -0.598241 0 3 -0.598241 1
gene 1 4 20 -0.242279 0 4 -0.242279 1
gene 1 5 20 0.428331 0 5 0.428331 1
gene 1 6 20 0.733849 0 6 0.733849 1
gene 1 7 20 0.393288 0 7 0.393288 1
gene 1 8 20 -0.635117 0 8 -0.635117 1
gene 1 9 20 -0.659413 0 9 -0.659413 1
gene 1 10 20 0.521837 0 10 0.521837 1
gene 1 11 20 -0.72662 0 11 -0.72662 0
gene 1 12 20 0.838687 0 12 0.838687 1
gene 1 13 20 0.283005 0 13 0.283005 1
gene 1 14 20 0.691442 0 14 0.691442 1
gene 1 15 20 0.127916 0 15 0.127916 1
gene 1 16 20 -0.204375 0 16 -0.204375 1
gene 1 17 20 0.0982836 0 17 0.0982836 1
gene 1 18 20 -0.291598 0 18 -0.291598 1
gene 1 19 20 0.389307 0 19 0.389307 1
gene 1 1 21 -0.388066 0 20 -0.388066 1
gene 1 2 21 0.499209 0 21 0.499209 1
gene 1 3 21 -0.162319 0 22 -0.162319 1
gene 1 4 21 0.819852 0 23 0.819852 0
gene 1 5 21 0.306081 0 24 0.306081 1
gene 1 6 21 -1.16795 0 25 -1.16795 1
gene 1 7 21 -0.727644 0 26 -0.727644 1
gene 1 8 21 0.872887 0 27 0.872887 1
gene 1 9 21 0.284228 0 28 0.284228 1
gene 1 10 21 -0.0323807 0 29 -0.0323807 1
gene 1 11 21 0.0344387 0 30 0.0344387 1
gene 1 12 21 0.0745738 0 31 0.0745738 1
gene 1 13 21 -0.803946 0 32 -0.803946 1
gene 1 14 21 0.448943 0 33 0.448943 1
gene 1 15 21 0.411844 0 34 0.411844 1
gene 1 16 21 0.805994 0 35 0.805994 1
gene 1 17 21 -1.72608 0 36 -1.72608 1
gene 1 18 21 -0.778181 0 37 -0.778181 1
gene 1 19 21 -0.277325 0 38 -0.277325 1
gene 1 1 22 0.942754 0 39 0.942754 1
gene 1 2 22 -0.792634 0 40 -0.792634 1
gene 1 3 22 -0.211005 0 41 -0.211005 1
gene 1 4 22 -0.374063 0 42 -0.374063 1
gene 1 5 22 0.737613 0 43 0.737613 1
gene 1 6 22 1.20358 0 44 1.20358 1
gene 1 7 22 0.447591 0 45 0.447591 1
gene 1 8 22 -0.901583 0 46 -0.901583 1
gene 1 9 22 0.37951 0 47 0.37951 1
gene 1 10 22 -0.409661 0 48 -0.409661 1
gene 1 11 22 -0.0533496 0 49 -0.0533496 1
gene 1 12 22 -0.49178 0 50 -0.49178 1
gene 1 13 22 0.522632 0 51 0.522632 1
gene 1 14 22 0.607506 0 52 0.607506 1
gene 1 15 22 0.395107 0 53 0.395107 1
gene 1 16 22 1.66996 0 54 1.66996 1
gene 1 17 22 -1.13666 0 55 -1.13666 1
gene 1 18 22 -0.314401 0 56 -0.314401 1
gene 1 19 22 -0.0377816 0 57 -0.0377816 1
gene 1 1 23 0.158707 0 58 0.158707 1
gene 1 2 23 -0.589525 0 59 -0.589525 1
gene 1 3 23 0.339212 0 60 0.339212 1
gene 1 4 23 -0.499855 0 61 -0.499855 1
gene 1 5 23 1.87416 0 62 1.87416 1
gene 1 6 23 -1.40502 0 63 -1.40502 1
gene 1 7 23 0.666635 0 64 0.666635 1
gene 1 8 23 0.13187 0 65 0.13187 1
gene 1 9 23 0.362478 0 66 0.362478 1
gene 1 10 23 1.04729 0 67 1.04729 1
gene 1 11 23 -0.303699 0 68 -0.303699 1
gene 1 12 23 0.309169 0 69 0.309169 1
gene 1 13 23 1.52519 0 70 1.52519 1
gene 1 14 23 -0.458488 0 71 -0.458488 1
gene 1 15 23 -0.350493 0 72 -0.350493 1
gene 1 16 23 -0.459467 0 73 -0.459467 1
gene 1 17 23 0.17365 0 74 0.17365 1
gene 1 18 23 -0.30321 0 75 -0.30321 1
gene 1 19 23 -0.14676 0 76 -0.14676 1
gene 1 23 22 -0.912681 0 77 -0.912681 1
gene 1 4 25 -0.623249 0 81 -0.623249 1
