genomestart 2372
trait 1 0.792029 0.573411 0.194609 0.0164466 0.0677434 0.00435196 0.308256 0.00225215 
node 1 1 1 1 0
node 2 1 1 1 0
node 3 1 1 1 0
node 4 1 1 1 0
node 5 1 1 1 0
node 6 1 1 1 0
node 7 1 1 1 0
node 8 1 1 1 0
node 9 1 1 1 0
node 10 1 1 1 0
node 11 1 1 1 0
node 12 1 1 1 0
node 13 1 1 1 0
node 14 1 1 1 0
node 15 1 1 1 0
node 16 1 1 1 0
node 17 1 1 1 0
node 18 1 1 1 0
node 19 1 1 3 0
node 20 1 0 2 0
node 21 1 0 2 0
node 22 1 0 2 0
node 23 1 0 2 0
node 30 1 0 0 0
node 37 1 0 0 0
node 40 1 0 0 0
node 50 1 0 0 0
node 58 1 0 0 0
node 60 1 0 0 0
node 74 1 0 0 0
gene 1 1 20 -0.25107 0 1 -0.25107 1
gene 1 2 20 0.279831 0 2 0.279831 1
gene 1 3 20 -0.517885 0 3 -0.517885 1
gene 1 4 20 0.270772 0 4 0.270772 1
gene 1 5 20 1.84784 0 5 1.84784 1
gene 1 6 20 0.336549 0 6 0.336549 1
gene 1 7 20 0.483135 0 7 0.483135 1
gene 1 8 20 0.335201 0 8 0.335201 1
gene 1 9 20 0.976037 0 9 0.976037 0
gene 1 10 20 -0.282203 0 10 -0.282203 1
gene 1 11 20 0.383761 0 11 0.383761 1
gene 1 12 20 0.0102533 0 12 0.0102533 1
gene 1 13 20 -1.80327 0 13 -1.80327 1
gene 1 14 20 -1.06352 0 14 -1.06352 1
gene 1 15 20 -0.492917 0 15 -0.492917 1
gene 1 16 20 1.98315 0 16 1.98315 1
gene 1 17 20 1.68181 0 17 1.68181 1
gene 1 18 20 -0.0235196 0 18 -0.0235196 1
gene 1 19 20 1.79094 0 19 1.79094 1
gene 1 1 21 0.98565 0 20 0.98565 1
gene 1 2 21 0.209651 0 21 0.209651 1
gene 1 3 21 0.279552 0 22 0.279552 1
gene 1 4 21 0.98093 0 23 0.98093 1
gene 1 5 21 -0.652323 0 24 -0.652323 1
gene 1 6 21 0.109658 0 25 0.109658 1
gene 1 7 21 0.317505 0 26 0.317505 1
gene 1 8 21 0.655104 0 27 0.655104 1
gene 1 9 21 -0.0702013 0 28 -0.0702013 1
gene 1 10 21 -0.775281 0 29 -0.775281 1
gene 1 11 21 -1.21909 0 30 -1.21909 1
gene 1 12 21 0.574112 0 31 0.574112 1
gene 1 13 21 -0.634602 0 32 -0.634602 1
gene 1 14 21 -1.44367 0 33 -1.44367 1
gene 1 15 21 0.157612 0 34 0.157612 1
gene 1 16 21 -0.140566 0 35 -0.140566 1
gene 1 17 21 -0.32326 0 36 -0.32326 1
gene 1 18 21 -0.956063 0 37 -0.956063 1
gene 1 19 21 0.245392 0 38 0.245392 1
gene 1 1 22 -0.292813 0 39 -0.292813 1
gene 1 2 22 0.342617 0 40 0.342617 0
gene 1 3 22 0.0740759 0 41 0.0740759 1
gene 1 4 22 -0.675944 0 42 -0.675944 1
gene 1 5 22 0.291889 0 43 0.291889 1
gene 1 6 22 -0.37052 0 44 -0.37052 1
gene 1 7 22 -0.520402 0 45 -0.520402 1
gene 1 8 22 0.873771 0 46 0.873771 1
gene 1 9 22 -0.0151558 0 47 -0.0151558 1
gene 1 10 22 -0.0865043 0 48 -0.0865043 1
gene 1 11 22 0.141856 0 49 0.141856 0
gene 1 12 22 -0.0248197 0 50 -0.0248197 1
gene 1 13 22 -0.440952 0 51 -0.440952 1
gene 1 14 22 -0.272367 0 52 -0.272367 1
gene 1 15 22 -0.171898 0 53 -0.171898 1
gene 1 16 22 0.385825 0 54 0.385825 0
gene 1 17 22 0.0988214 0 55 0.0988214 1
gene 1 18 22 -0.355154 0 56 -0.355154 1
gene 1 19 22 0.553297 0 57 0.553297 1
gene 1 1 23 1.14189 0 58 1.14189 1
gene 1 2 23 0.483826 0 59 0.483826 1
gene 1 3 23 0.179034 0 60 0.179034 1
gene 1 4 23 -0.537677 0 61 -0.537677 1
gene 1 5 23 0.568007 0 62 0.568007 1
gene 1 6 23 -0.582309 0 63 -0.582309 1
gene 1 7 23 0.46981 0 64 0.46981 1
gene 1 8 23 0.396026 0 65 0.396026 1
gene 1 9 23 -0.107545 0 66 -0.107545 1
gene 1 10 23 -0.0573604 0 67 -0.0573604 1
gene 1 11 23 -0.219093 0 68 -0.219093 1
gene 1 12 23 -0.751653 0 69 -0.751653 1
gene 1 13 23 -0.327761 0 70 -0.327761 1
gene 1 14 23 0.154976 0 71 0.154976 1
gene 1 15 23 0.266736 0 72 0.266736 1
gene 1 16 23 -0.58946 0 73 -0.58946 1
gene 1 17 23 -1.03213 0 74 -1.03213 1
gene 1 18 23 -0.231206 0 75 -0.231206 1
gene 1 19 23 -0.595732 0 76 -0.595732 1
gene 1 21 22 0.497509 0 77 0.497509 1
gene 1 22 23 0.152839 0 87 0.152839 1
gene 1 2 30 0.460604 0 103 0.460604 1
gene 1 30 22 0.41407 0 104 0.41407 1
gene 1 15 30 -1.23372 0 117 -1.23372 1
gene 1 16 37 0.405048 0 124 0.405048 1
gene 1 37 22 -0.101648 0 125 -0.140438 1
gene 1 22 22 0.466187 1 128 0.466187 1
gene 1 14 40 1.1296 0 132 1.1296 0
gene 1 40 23 0.250815 0 133 0.250815 1
gene 1 16 30 0.0794554 0 135 0 1
gene 1 10 40 -0.909055 0 140 -0.909055 1
gene 1 17 50 -0.137892 0 174 -0.137892 1
gene 1 50 20 0.429322 0 175 0.0879771 1
gene 1 4 40 0.410798 0 181 0.410798 1
gene 1 9 58 1 0 197 0 1
gene 1 58 20 0.0826542 0 198 0 1
gene 1 17 40 0.336112 0 200 0.336112 1
gene 1 11 60 1 0 206 0 1
gene 1 60 22 -0.0872699 0 207 0 1
gene 1 14 74 1 0 251 0 1
gene 1 74 40 0.338879 0 252 0 1
genomeend 2372

genomestart 2495
trait 1 0.663847 0.380806 0.0964912 0.0603297 0.340006 0.2829 0.308909 0.0014076 
node 1 1 1 1 0
node 2 1 1 1 0
node 3 1 1 1 0
node 4 1 1 1 0
node 5 1 1 1 0
node 6 1 1 1 0
node 7 1 1 1 0
node 8 1 1 1 0
node 9 1 1 1 0
node 10 1 1 1 0
node 11 1 1 1 0
node 12 1 1 1 0
node 13 1 1 1 0
node 14 1 1 1 0
node 15 1 1 1 0
node 16 1 1 1 0
node 17 1 1 1 0
node 18 1 1 1 0
node 19 1 1 3 0
node 20 1 0 2 0
node 21 1 0 2 0
node 22 1 0 2 0
node 23 1 0 2 0
node 30 1 0 0 0
node 37 1 0 0 0
node 40 1 0 0 0
node 50 1 0 0 0
node 58 1 0 0 0
node 63 1 0 0 0
node 73 1 0 0 0
gene 1 1 20 -0.0610248 0 1 -0.0610248 1
gene 1 2 20 -0.0971084 0 2 -0.0971084 1
gene 1 3 20 0.184617 0 3 0.184617 1
gene 1 4 20 0.263085 0 4 0.263085 1
gene 1 5 20 -0.37905 0 5 -0.37905 1
gene 1 6 20 0.0605658 0 6 0.0605658 1
gene 1 7 20 0.888027 0 7 0.888027 1
gene 1 8 20 -0.0761828 0 8 -0.0761828 1
gene 1 9 20 0.269443 0 9 0.269443 0
gene 1 10 20 0.547373 0 10 0.547373 1
gene 1 11 20 -0.145987 0 11 -0.145987 1
gene 1 12 20 0.372413 0 12 0.372413 1
gene 1 13 20 -1.95984 0 13 -1.95984 1
gene 1 14 20 -1.43 0 14 -1.43 0
gene 1 15 20 -0.443996 0 15 -0.443996 1
gene 1 16 20 2.21679 0 16 2.21679 1
gene 1 17 20 1.59115 0 17 1.59115 0
gene 1 18 20 -0.32559 0 18 -0.32559 1
gene 1 19 20 2.24764 0 19 2.24764 1
gene 1 1 21 0.00259982 0 20 0.00259982 1
gene 1 2 21 0.702918 0 21 0.702918 1
gene 1 3 21 1.20382 0 22 1.20382 1
gene 1 4 21 1.13366 0 23 1.13366 1
gene 1 5 21 -0.578743 0 24 -0.578743 1
gene 1 6 21 0.831527 0 25 0.831527 1
gene 1 7 21 0.235475 0 26 0.235475 1
gene 1 8 21 0.109235 0 27 0.109235 1
gene 1 9 21 -0.166928 0 28 -0.166928 1
gene 1 10 21 -0.471831 0 29 -0.471831 1
gene 1 11 21 -0.561893 0 30 -0.561893 1
gene 1 12 21 0.431206 0 31 0.431206 1
gene 1 13 21 0.0486079 0 32 0.0486079 1
gene 1 14 21 -0.577973 0 33 -0.577973 1
gene 1 15 21 -0.434539 0 34 -0.434539 1
gene 1 16 21 -0.210038 0 35 -0.210038 1
gene 1 17 21 0.373036 0 36 0.373036 1
gene 1 18 21 0.00475351 0 37 0.00475351 1
gene 1 19 21 0.205843 0 38 0.205843 1
gene 1 1 22 0.0855938 0 39 0.0855938 1
gene 1 2 22 -0.438639 0 40 -0.438639 0
gene 1 3 22 0.160676 0 41 0.160676 1
gene 1 4 22 0.464045 0 42 0.464045 1
gene 1 5 22 0.231821 0 43 0.231821 1
gene 1 6 22 -0.0235606 0 44 -0.0235606 1
gene 1 7 22 -0.338796 0 45 -0.338796 1
gene 1 8 22 1.36115 0 46 1.36115 0
gene 1 9 22 1.03377 0 47 1.03377 1
gene 1 10 22 -0.0915001 0 48 -0.0915001 1
gene 1 11 22 0.243684 0 49 0.243684 1
gene 1 12 22 0.360877 0 50 0.360877 1
gene 1 13 22 0.456317 0 51 0.456317 1
gene 1 14 22 -0.740464 0 52 -0.740464 1
gene 1 15 22 -0.453634 0 53 -0.453634 1
gene 1 16 22 0.168121 0 54 0.168121 0
gene 1 17 22 -0.56811 0 55 -0.56811 1
gene 1 18 22 0.131847 0 56 0.131847 1
gene 1 19 22 1.21961 0 57 1.21961 1
gene 1 1 23 0.106637 0 58 0.106637 1
gene 1 2 23 0.727034 0 59 0.727034 1
gene 1 3 23 -0.222554 0 60 -0.222554 1
gene 1 4 23 0.30742 0 61 0.30742 1
gene 1 5 23 -0.140044 0 62 -0.140044 1
gene 1 6 23 0.148616 0 63 0.148616 1
gene 1 7 23 0.112686 0 64 0.112686 1
gene 1 8 23 1.11415 0 65 1.11415 1
gene 1 9 23 -0.792898 0 66 -0.792898 1
gene 1 10 23 -0.40586 0 67 -0.40586 1
gene 1 11 23 -0.41444 0 68 -0.41444 1
gene 1 12 23 -0.403849 0 69 -0.403849 1
gene 1 13 23 -0.293254 0 70 -0.293254 1
gene 1 14 23 0.274688 0 71 0.274688 1
gene 1 15 23 1.59746 0 72 1.59746 1
gene 1 16 23 -1.15451 0 73 -1.15451 1
gene 1 17 23 -1.7278 0 74 -1.7278 1
gene 1 18 23 -0.10752 0 75 -0.10752 1
gene 1 19 23 -1.03584 0 76 -1.03584 1
gene 1 21 22 0.814375 0 77 0.814375 1
gene 1 22 23 0.553191 0 87 0.553191 1
gene 1 2 30 0.0974382 0 103 0.0974382 1
gene 1 30 22 0.519575 0 104 0.519575 1
gene 1 15 30 -1.10301 0 117 -1.10301 1
gene 1 16 37 0.298681 0 124 0.298681 1
gene 1 37 22 0.560753 0 125 0.560753 1
gene 1 22 22 -0.335387 1 128 -0.335387 1
gene 1 17 30 -0.0615948 0 129 -0.0615948 1
gene 1 14 40 0.74116 0 132 0.74116 1
gene 1 40 23 -0.33338 0 133 -0.33338 1
gene 1 16 30 0.187812 0 135 0.187812 1
gene 1 10 40 -0.513231 0 140 -0.513231 1
gene 1 17 50 0.570913 0 174 0.570913 1
gene 1 50 20 0.608877 0 175 0.608877 1
gene 1 4 40 0.803717 0 181 0.803717 1
gene 1 9 58 1.00268 0 197 1.00268 1
gene 1 58 20 -0.565138 0 198 -0.565138 1
gene 1 8 63 -0.135721 0 215 -0.135721 1
gene 1 63 22 -0.594181 0 216 -0.594181 1
gene 1 18 50 0.170404 0 221 0.170404 1
gene 1 18 63 0.193271 0 240 0.193271 1
gene 1 14 73 0.341715 0 246 0.341715 1
gene 1 73 20 -0.16739 0 247 -0.16739 1
gene 1 40 30 0.127662 0 250 0.127662 1
genomeend 2495

genomestart 461
trait 1 0.356757 0.0938965 0.575388 0.681473 0.209276 0.104525 0.053407 0.290617 
node 1 1 1 1 0
node 2 1 1 1 0
node 3 1 1 1 0
node 4 1 1 1 0
node 5 1 1 1 0
node 6 1 1 1 0
node 7 1 1 1 0
node 8 1 1 1 0
node 9 1 1 1 0
node 10 1 1 1 0
node 11 1 1 1 0
node 12 1 1 1 0
node 13 1 1 1 0
node 14 1 1 1 0
node 15 1 1 1 0
node 16 1 1 1 0
node 17 1 1 1 0
node 18 1 1 1 0
node 19 1 1 3 0
node 20 1 0 2 0
node 21 1 0 2 0
node 22 1 0 2 0
node 23 1 0 2 0
node 78 1 0 0 0
node 86 1 0 0 0
node 91 1 0 0 0
node 98 1 0 0 0
node 104 1 0 0 0
node 105 1 0 0 0
node 120 1 0 0 0
node 136 1 0 0 0
node 144 1 0 0 0
node 174 1 0 0 0
node 180 1 0 0 0
node 183 1 0 0 0
node 194 1 0 0 0
node 195 1 0 0 0
node 196 1 0 0 0
node 197 1 0 0 0
node 199 1 0 0 0
node 229 1 0 0 0
node 271 1 0 0 0
node 303 1 0 0 0
gene 1 1 20 -0.472855 0 1 -0.472855 1
gene 1 2 20 -1.64632 0 2 -1.64632 1
gene 1 3 20 -0.450299 0 3 -0.450299 1
gene 1 4 20 1.50809 0 4 1.50809 1
gene 1 5 20 0.608838 0 5 0.608838 1
gene 1 6 20 -0.0351476 0 6 -0.0351476 1
gene 1 7 20 0.583234 0 7 0.583234 1
gene 1 8 20 1.1792 0 8 1.1792 1
gene 1 9 20 -0.277694 0 9 -0.277694 1
gene 1 10 20 -0.695276 0 10 -0.695276 1
gene 1 11 20 -0.509508 0 11 -0.509508 0
gene 1 12 20 -0.104079 0 12 -0.104079 1
gene 1 13 20 -0.0258042 0 13 -0.0258042 1
gene 1 14 20 0.593884 0 14 0.593884 1
gene 1 15 20 0.212387 0 15 0.212387 1
gene 1 16 20 1.19026 0 16 1.19026 1
gene 1 17 20 1.20673 0 17 1.20673 1
gene 1 18 20 0.0975457 0 18 0.0975457 1
gene 1 19 20 -1.62997 0 19 -1.62997 1
gene 1 1 21 -1.01122 0 20 -1.01122 1
gene 1 2 21 2.024 0 21 2.024 1
gene 1 3 21 0.68483 0 22 0.68483 0
gene 1 4 21 -0.0124854 0 23 -0.0124854 1
gene 1 5 21 -0.231933 0 24 -0.231933 1
gene 1 6 21 -0.707409 0 25 -0.707409 1
gene 1 7 21 0.363313 0 26 0.363313 1
gene 1 8 21 -0.802319 0 27 -0.802319 1
gene 1 9 21 -0.0406035 0 28 -0.0406035 1
gene 1 10 21 -0.117177 0 29 -0.117177 0
gene 1 11 21 0.229898 0 30 0.229898 1
gene 1 12 21 0.0285986 0 31 0.0285986 1
gene 1 13 21 -1.78145 0 32 -1.78145 1
gene 1 14 21 0.413515 0 33 0.413515 1
gene 1 15 21 0.280721 0 34 0.280721 1
gene 1 16 21 -0.172624 0 35 -0.172624 1
gene 1 17 21 0.159817 0 36 0.159817 1
gene 1 18 21 0.530415 0 37 0.530415 1
gene 1 19 21 -1.76207 0 38 -1.76207 1
gene 1 1 22 -1.90864 0 39 -1.90864 1
gene 1 2 22 0.593717 0 40 0.593717 1
gene 1 3 22 -0.541316 0 41 -0.541316 1
gene 1 4 22 -0.104037 0 42 -0.104037 1
gene 1 5 22 0.610481 0 43 0.610481 1
gene 1 6 22 -1.29831 0 44 -1.29831 1
gene 1 7 22 0.206952 0 45 0.206952 1
gene 1 8 22 -0.844933 0 46 -0.844933 1
gene 1 9 22 -0.955709 0 47 -0.955709 1
gene 1 10 22 0.476594 0 48 0.476594 1
gene 1 11 22 0.647735 0 49 0.647735 1
gene 1 12 22 -0.235518 0 50 -0.235518 1
gene 1 13 22 -1.23916 0 51 -1.23916 1
gene 1 14 22 0.870033 0 52 0.870033 1
gene 1 15 22 0.13892 0 53 0.13892 1
gene 1 16 22 -0.412887 0 54 -0.412887 1
gene 1 17 22 0.651814 0 55 0.651814 1
gene 1 18 22 -0.284659 0 56 -0.284659 1
gene 1 19 22 1.79349 0 57 1.79349 1
gene 1 1 23 0.573949 0 58 0.573949 1
gene 1 2 23 -0.260311 0 59 -0.260311 1
gene 1 3 23 -0.913474 0 60 -0.913474 1
gene 1 4 23 0.147619 0 61 0.147619 1
gene 1 5 23 -0.596297 0 62 -0.596297 1
gene 1 6 23 0.830037 0 63 0.830037 1
gene 1 7 23 0.640559 0 64 0.640559 1
gene 1 8 23 -0.0673655 0 65 -0.0673655 1
gene 1 9 23 0.637995 0 66 0.637995 1
gene 1 10 23 0.332432 0 67 0.332432 1
gene 1 11 23 -1.50418 0 68 -1.50418 1
gene 1 12 23 -0.759612 0 69 -0.759612 1
gene 1 13 23 -0.241902 0 70 -0.241902 1
gene 1 14 23 -0.834754 0 71 -0.834754 1
gene 1 15 23 1.00788 0 72 1.00788 1
gene 1 16 23 -0.411928 0 73 -0.411928 1
gene 1 17 23 0.112987 0 74 0.112987 1
gene 1 18 23 -0.244134 0 75 -0.244134 0
gene 1 19 23 -0.119323 0 76 -0.119323 1
gene 1 20 20 -0.850598 1 79 -0.850598 1
gene 1 23 20 -0.520258 0 80 -0.520258 1
gene 1 21 23 1.24098 0 109 1.24098 1
gene 1 20 22 0.588008 0 141 0.588008 1
gene 1 3 78 0.338676 0 287 0.338676 1
gene 1 78 20 0.0316359 0 288 0.0316359 1
gene 1 18 86 -0.277781 0 317 -0.277781 1
gene 1 86 23 -0.129542 0 318 -0.129542 1
gene 1 11 91 -0.138022 0 332 -0.138022 1
gene 1 91 20 -0.751614 0 333 -0.751614 1
gene 1 7 98 -0.159649 0 360 -0.159649 1
gene 1 98 22 0.929483 0 361 0.929483 1
gene 1 6 104 0.843054 0 387 0.843054 1
gene 1 104 23 0.0425518 0 388 0.0425518 1
gene 1 12 78 -0.355262 0 389 -0.355262 1
gene 1 15 105 -0.338368 0 392 -0.338368 1
gene 1 105 23 -0.378762 0 393 -0.378762 1
gene 1 17 78 -0.120939 0 408 -0.120939 1
gene 1 18 98 -1.08406 0 434 -1.08406 1
gene 1 20 120 0.593468 1 469 0.593468 1
gene 1 120 20 0.0835328 0 470 0.0835328 1
gene 1 4 91 -0.846428 0 473 -0.846428 1
gene 1 91 22 0.0720437 0 527 0.0720437 1
gene 1 78 78 -0.976776 1 534 -0.976776 1
gene 1 14 78 -0.541528 0 544 -0.541528 1
gene 1 8 91 0.855815 0 548 0.855815 1
gene 1 15 136 -1.38547 0 568 -1.38547 1
gene 1 136 22 0.135154 0 569 0.135154 1
gene 1 21 120 0.615212 0 574 0.615212 1
gene 1 16 144 -2.28852 0 607 -2.28852 0
gene 1 144 21 -0.084064 0 608 -0.084064 1
gene 1 136 86 -0.743271 0 723 -0.743271 1
gene 1 91 105 0.060947 0 739 0.060947 1
gene 1 16 174 -0.400209 0 824 -0.400209 1
gene 1 174 144 0.119934 0 825 0.119934 1
gene 1 136 105 -0.712186 0 840 -0.712186 1
gene 1 3 180 -0.222543 0 842 -0.222543 1
gene 1 180 21 -0.0266458 0 843 -0.0266458 1
gene 1 19 144 -0.17683 0 847 -0.17683 1
gene 1 12 183 -0.0280615 0 851 -0.0280615 1
gene 1 183 23 0.302803 0 852 0.302803 1
gene 1 98 180 -0.10857 0 860 -0.10857 1
gene 1 180 105 -0.251377 0 865 -0.251377 1
gene 1 13 86 0.00964392 0 883 0.00964392 1
gene 1 16 78 0.291933 0 903 0.291933 1
gene 1 120 91 0.226358 0 905 0.226358 1
gene 1 3 194 0.610425 0 906 0.610425 1
gene 1 194 78 0.173331 0 907 0.173331 1
gene 1 13 195 -0.264437 0 908 -0.264437 1
gene 1 195 22 -0.357046 0 909 -0.357046 1
gene 1 8 180 0.724994 0 910 0.724994 0
gene 1 10 196 0.587611 0 911 0.587611 1
gene 1 196 21 -0.907547 0 912 -0.907547 1
gene 1 21 21 0.159741 1 913 0.159741 1
gene 1 12 197 -0.353136 0 914 -0.353136 1
gene 1 197 23 0.421372 0 915 0.421372 1
gene 1 11 199 0.946813 0 920 0.946813 1
gene 1 199 23 0.76835 0 921 0.76835 1
gene 1 19 180 -0.0625886 0 926 -0.0625886 1
gene 1 17 229 -0.49902 0 1056 -0.49902 1
gene 1 229 78 0.450175 0 1057 0.450175 1
gene 1 8 271 0.553074 0 1239 0.553074 1
gene 1 271 180 0.107928 0 1240 0.107928 1
gene 1 3 91 -0.0586973 0 1252 -0.0586973 1
gene 1 196 194 -0.38668 0 1371 -0.38668 1
gene 1 4 303 0.249849 0 1389 0.249849 1
gene 1 303 23 0.159979 0 1390 0.159979 1
gene 1 120 136 -0.149272 0 1540 -0.149272 1
gene 1 91 91 0.361067 1 1613 0.361067 1
gene 1 21 199 -0.155632 0 1653 -0.155632 1
gene 1 7 105 0.333541 0 1714 0.333541 1
genomeend 461

genomestart 463
trait 1 0.667563 0 0.945292 0.848201 0 0.142967 0.188577 0.425069 
node 1 1 1 1 0
node 2 1 1 1 0
node 3 1 1 1 0
node 4 1 1 1 0
node 5 1 1 1 0
node 6 1 1 1 0
node 7 1 1 1 0
node 8 1 1 1 0
node 9 1 1 1 0
node 10 1 1 1 0
node 11 1 1 1 0
node 12 1 1 1 0
node 13 1 1 1 0
node 14 1 1 1 0
node 15 1 1 1 0
node 16 1 1 1 0
node 17 1 1 1 0
node 18 1 1 1 0
node 19 1 1 3 0
node 20 1 0 2 0
node 21 1 0 2 0
node 22 1 0 2 0
node 23 1 0 2 0
node 78 1 0 0 0
node 86 1 0 0 0
node 91 1 0 0 0
node 98 1 0 0 0
node 104 1 0 0 0
node 105 1 0 0 0
node 120 1 0 0 0
node 136 1 0 0 0
node 144 1 0 0 0
node 174 1 0 0 0
node 180 1 0 0 0
node 183 1 0 0 0
node 194 1 0 0 0
node 195 1 0 0 0
node 200 1 0 0 0
node 237 1 0 0 0
node 253 1 0 0 0
gene 1 1 20 -1.26656 0 1 -1.26656 1
gene 1 2 20 -0.318827 0 2 -0.318827 1
gene 1 3 20 -1.22849 0 3 -1.22849 0
gene 1 4 20 -0.407524 0 4 -0.407524 1
gene 1 5 20 -0.50016 0 5 -0.50016 1
gene 1 6 20 -0.204518 0 6 -0.204518 1
gene 1 7 20 -1.01714 0 7 -1.01714 1
gene 1 8 20 -2.16071 0 8 -2.16071 1
gene 1 9 20 -0.26993 0 9 -0.26993 1
gene 1 10 20 -0.35964 0 10 -0.35964 1
gene 1 11 20 -0.0677634 0 11 -0.0677634 0
gene 1 12 20 0.374582 0 12 0.374582 1
gene 1 13 20 0.0911588 0 13 0.0911588 1
gene 1 14 20 -0.207179 0 14 -0.207179 1
gene 1 15 20 -1.01881 0 15 -1.01881 1
gene 1 16 20 1.30759 0 16 1.30759 1
gene 1 17 20 -1.07194 0 17 -1.07194 1
gene 1 18 20 -0.968132 0 18 -0.968132 1
gene 1 19 20 0.00434072 0 19 0.00434072 1
gene 1 1 21 -0.298099 0 20 -0.298099 0
gene 1 2 21 -0.215381 0 21 -0.215381 1
gene 1 3 21 0.0281092 0 22 0.0281092 1
gene 1 4 21 -0.14822 0 23 -0.14822 1
gene 1 5 21 -0.543624 0 24 -0.543624 1
gene 1 6 21 -0.74804 0 25 -0.74804 1
gene 1 7 21 -0.393543 0 26 -0.393543 1
gene 1 8 21 0.450864 0 27 0.450864 1
gene 1 9 21 -0.18576 0 28 -0.18576 1
gene 1 10 21 -0.0340984 0 29 -0.0340984 1
gene 1 11 21 -0.84191 0 30 -0.84191 1
gene 1 12 21 -0.46523 0 31 -0.46523 1
gene 1 13 21 -0.836656 0 32 -0.836656 1
gene 1 14 21 -0.130134 0 33 -0.130134 1
gene 1 15 21 0.308933 0 34 0.308933 1
gene 1 16 21 -2.9408 0 35 -2.9408 1
gene 1 17 21 -0.963775 0 36 -0.963775 1
gene 1 18 21 0.281929 0 37 0.281929 1
gene 1 19 21 0.0150015 0 38 0.0150015 1
gene 1 1 22 0.336595 0 39 0.336595 1
gene 1 2 22 0.728756 0 40 0.728756 1
gene 1 3 22 -0.333879 0 41 -0.333879 1
gene 1 4 22 -0.0606871 0 42 -0.0606871 0
gene 1 5 22 -0.279251 0 43 -0.279251 1
gene 1 6 22 0.424067 0 44 0.424067 1
gene 1 7 22 -0.610662 0 45 -0.610662 1
gene 1 8 22 -0.610974 0 46 -0.610974 1
gene 1 9 22 -0.13002 0 47 -0.13002 1
gene 1 10 22 -0.632102 0 48 -0.632102 1
gene 1 11 22 -0.856399 0 49 -0.856399 1
gene 1 12 22 1.90288 0 50 1.90288 1
gene 1 13 22 -1.7361 0 51 -1.7361 0
gene 1 14 22 -0.220443 0 52 -0.220443 1
gene 1 15 22 -0.02605 0 53 -0.02605 1
gene 1 16 22 -0.438404 0 54 -0.438404 1
gene 1 17 22 0.562547 0 55 0.562547 1
gene 1 18 22 1.55376 0 56 1.55376 1
gene 1 19 22 0.0673664 0 57 0.0673664 1
gene 1 1 23 0.331034 0 58 0.331034 1
gene 1 2 23 -2.09275 0 59 -2.09275 1
gene 1 3 23 -1.74628 0 60 -1.74628 1
gene 1 4 23 0.304438 0 61 0.304438 1
gene 1 5 23 2.17092 0 62 2.17092 1
gene 1 6 23 1.35805 0 63 1.35805 1
gene 1 7 23 1.12973 0 64 1.12973 1
gene 1 8 23 -0.122529 0 65 -0.122529 1
gene 1 9 23 -0.0103828 0 66 -0.0103828 1
gene 1 10 23 -0.025502 0 67 -0.025502 1
gene 1 11 23 -0.599149 0 68 -0.599149 1
gene 1 12 23 -0.995958 0 69 -0.995958 1
gene 1 13 23 -1.03145 0 70 -1.03145 1
gene 1 14 23 0.40724 0 71 0.40724 1
gene 1 15 23 0.142086 0 72 0.142086 0
gene 1 16 23 1.00223 0 73 1.00223 1
gene 1 17 23 -1.4774 0 74 -1.4774 1
gene 1 18 23 0.708082 0 75 0.708082 1
gene 1 19 23 1.487 0 76 1.487 1
gene 1 20 20 -0.204879 1 79 -0.204879 1
gene 1 23 20 -1.49851 0 80 -1.49851 1
gene 1 21 23 -1.0509 0 109 -1.0509 1
gene 1 20 22 0.401377 0 141 0.401377 1
gene 1 3 78 1.03789 0 287 1.03789 1
gene 1 78 20 -0.0451609 0 288 -0.0451609 1
gene 1 18 86 -0.441394 0 317 -0.441394 1
gene 1 86 23 -2.26328 0 318 -2.26328 1
gene 1 11 91 -0.103877 0 332 -0.103877 1
gene 1 91 20 0.219567 0 333 0.219567 1
gene 1 7 98 0.806108 0 360 0.806108 1
gene 1 98 22 1.31871 0 361 1.31871 1
gene 1 6 104 -0.372004 0 387 -0.372004 1
gene 1 104 23 0.2113 0 388 0.2113 1
gene 1 12 78 0.124567 0 389 0.124567 1
gene 1 15 105 -0.362072 0 392 -0.362072 1
gene 1 105 23 -0.511862 0 393 -0.511862 1
gene 1 17 78 -0.160335 0 408 -0.160335 1
gene 1 18 98 -0.0499904 0 434 -0.0499904 1
gene 1 20 120 0.471028 1 469 0.471028 1
gene 1 120 20 -0.194448 0 470 -0.194448 1
gene 1 4 91 -0.28547 0 473 -0.28547 1
gene 1 91 22 -1.40296 0 527 -1.40296 1
gene 1 78 78 0.907771 1 534 0.907771 1
gene 1 14 78 -0.0887972 0 544 -0.0887972 1
gene 1 8 91 1.10026 0 548 1.10026 1
gene 1 15 136 0.887129 0 568 0.887129 1
gene 1 136 22 0.394004 0 569 0.394004 1
gene 1 21 120 -0.489229 0 574 -0.489229 1
gene 1 16 144 -0.176898 0 607 -0.176898 0
gene 1 144 21 -0.0951507 0 608 -0.0951507 1
gene 1 136 86 -0.0950055 0 723 -0.0950055 1
gene 1 91 105 0.179857 0 739 0.179857 1
gene 1 16 174 0.38439 0 824 0.38439 1
gene 1 174 144 0.669971 0 825 0.669971 1
gene 1 136 105 -0.294594 0 840 -0.294594 1
gene 1 3 180 0.0854205 0 842 0.0854205 1
gene 1 180 21 -1.07393 0 843 -1.07393 1
gene 1 19 144 -0.00945571 0 847 -0.00945571 1
gene 1 12 183 0.539644 0 851 0.539644 1
gene 1 183 23 -0.516767 0 852 -0.516767 1
gene 1 98 180 -0.256355 0 860 -0.256355 1
gene 1 180 105 -0.108474 0 865 -0.108474 1
gene 1 13 86 -0.647219 0 883 -0.647219 1
gene 1 16 78 0.139251 0 903 0.139251 1
gene 1 120 91 -0.0976307 0 905 -0.0976307 1
gene 1 3 194 0.0344673 0 906 0.0344673 1
gene 1 194 78 -0.0313057 0 907 -0.0313057 1
gene 1 13 195 0.049701 0 908 0.049701 1
gene 1 195 22 0.764355 0 909 0.764355 1
gene 1 8 180 0.396004 0 910 0.396004 1
gene 1 21 21 -0.111935 1 913 -0.111935 1
gene 1 19 180 -0.515411 0 926 -0.515411 1
gene 1 4 200 0.336947 0 945 0.336947 1
gene 1 200 22 0.329711 0 946 0.329711 1
gene 1 16 237 1.64125 0 1080 1.64125 1
gene 1 237 78 -0.13615 0 1081 -0.13615 1
gene 1 1 253 0.245654 0 1140 0.245654 1
gene 1 253 21 -0.402787 0 1141 -0.402787 1
gene 1 9 183 -0.177065 0 1249 -0.177065 1
gene 1 105 194 0.398978 0 1301 0.398978 1
genomeend 463

genomestart 1125
trait 1 0.276502 0.831875 0.159911 0.751232 0.381263 0.819964 0.698218 0.674183 
node 1 1 1 1 0
node 2 1 1 1 0
node 3 1 1 1 0
node 4 1 1 1 0
node 5 1 1 1 0
node 6 1 1 1 0
node 7 1 1 1 0
node 8 1 1 1 0
node 9 1 1 1 0
node 10 1 1 1 0
node 11 1 1 1 0
node 12 1 1 1 0
node 13 1 1 1 0
node 14 1 1 1 0
node 15 1 1 1 0
node 16 1 1 1 0
node 17 1 1 1 0
node 18 1 1 1 0
node 19 1 1 3 0
node 20 1 0 2 0
node 21 1 0 2 0
node 22 1 0 2 0
node 23 1 0 2 0
node 31 1 0 0 0
node 43 1 0 0 0
node 80 1 0 0 0
node 112 1 0 0 0
node 117 1 0 0 0
node 128 1 0 0 0
node 141 1 0 0 0
node 149 1 0 0 0
node 191 1 0 0 0
node 202 1 0 0 0
node 204 1 0 0 0
node 208 1 0 0 0
node 219 1 0 0 0
node 224 1 0 0 0
node 227 1 0 0 0
node 236 1 0 0 0
node 238 1 0 0 0
node 257 1 0 0 0
gene 1 1 20 0.474733 0 1 0.474733 1
gene 1 2 20 0.552453 0 2 0.552453 1
gene 1 3 20 -0.553806 0 3 -0.553806 1
gene 1 4 20 -0.577762 0 4 -0.577762 1
gene 1 5 20 1.45544 0 5 1.45544 1
gene 1 6 20 0.341927 0 6 0.341927 1
gene 1 7 20 -0.957062 0 7 -0.957062 1
gene 1 8 20 -0.090598 0 8 -0.090598 1
gene 1 9 20 0.160459 0 9 0.160459 1
gene 1 10 20 -0.0513636 0 10 -0.0513636 1
gene 1 11 20 0.483629 0 11 0.483629 1
gene 1 12 20 0.911679 0 12 0.911679 1
gene 1 13 20 1.94911 0 13 1.94911 1
gene 1 14 20 -0.425165 0 14 -0.425165 0
gene 1 15 20 0.754961 0 15 0.754961 1
gene 1 16 20 0.289719 0 16 0.289719 1
gene 1 17 20 0.128926 0 17 0.128926 1
gene 1 18 20 0.471654 0 18 0.471654 1
gene 1 19 20 1.57937 0 19 1.57937 1
gene 1 1 21 -0.535871 0 20 -0.535871 1
gene 1 2 21 0.490233 0 21 0.490233 1
gene 1 3 21 0.539605 0 22 0.539605 1
gene 1 4 21 -0.39134 0 23 -0.39134 1
gene 1 5 21 0.558816 0 24 0.558816 1
gene 1 6 21 0.101397 0 25 0.101397 0
gene 1 7 21 -0.929812 0 26 -0.929812 1
gene 1 8 21 -0.602961 0 27 -0.602961 1
gene 1 9 21 0.812507 0 28 0.812507 1
gene 1 10 21 -0.471564 0 29 -0.471564 1
gene 1 11 21 0.099514 0 30 0.099514 1
gene 1 12 21 0.842829 0 31 0.842829 1
gene 1 13 21 -0.469388 0 32 -0.469388 1
gene 1 14 21 0.578335 0 33 0.578335 1
gene 1 15 21 -2.48226 0 34 -2.48226 1
gene 1 16 21 -0.0535417 0 35 -0.0535417 1
gene 1 17 21 0.637601 0 36 0.637601 1
gene 1 18 21 0.335412 0 37 0.335412 1
gene 1 19 21 -0.990197 0 38 -0.990197 1
gene 1 1 22 -0.139987 0 39 -0.139987 1
gene 1 2 22 -0.146422 0 40 -0.146422 1
gene 1 3 22 0.0656217 0 41 0.0656217 1
gene 1 4 22 -0.245169 0 42 -0.245169 1
gene 1 5 22 0.608347 0 43 0.608347 1
gene 1 6 22 0.690972 0 44 0.690972 1
gene 1 7 22 -1.24909 0 45 -1.24909 1
gene 1 8 22 -1.23373 0 46 -1.23373 1
gene 1 9 22 -0.269394 0 47 -0.269394 1
gene 1 10 22 -0.740194 0 48 -0.740194 0
gene 1 11 22 -0.124687 0 49 -0.124687 1
gene 1 12 22 -0.507696 0 50 -0.507696 1
gene 1 13 22 0.833768 0 51 0.833768 1
gene 1 14 22 0.568304 0 52 0.568304 1
gene 1 15 22 -0.414328 0 53 -0.414328 1
gene 1 16 22 0.292283 0 54 0.292283 1
gene 1 17 22 -0.35247 0 55 -0.35247 1
gene 1 18 22 -1.11953 0 56 -1.11953 1
gene 1 19 22 0.806395 0 57 0.806395 1
gene 1 1 23 0.225747 0 58 0.225747 1
gene 1 2 23 0.960239 0 59 0.960239 0
gene 1 3 23 -0.860761 0 60 -0.860761 1
gene 1 4 23 0.529075 0 61 0.529075 1
gene 1 5 23 -0.334737 0 62 -0.334737 1
gene 1 6 23 0.159348 0 63 0.159348 1
gene 1 7 23 0.0577587 0 64 0.0577587 1
gene 1 8 23 0.815725 0 65 0.815725 1
gene 1 9 23 -1.48544 0 66 -1.48544 1
gene 1 10 23 -0.231519 0 67 -0.231519 1
gene 1 11 23 0.767158 0 68 0.767158 1
gene 1 12 23 0.0438089 0 69 0.0438089 1
gene 1 13 23 -0.228198 0 70 -0.228198 1
gene 1 14 23 -0.134331 0 71 -0.134331 1
gene 1 15 23 -0.567165 0 72 -0.567165 0
gene 1 16 23 0.257319 0 73 0.257319 1
gene 1 17 23 -0.402668 0 74 -0.402668 1
gene 1 18 23 0.0226552 0 75 0.0226552 0
gene 1 19 23 0.159634 0 76 0.159634 1
gene 1 20 21 1.06448 0 78 1.06448 1
gene 1 22 23 -0.702458 0 79 -0.702458 1
gene 1 7 31 -0.185615 0 101 -0.185615 1
gene 1 31 23 0.281441 0 102 0.281441 1
gene 1 10 43 -0.0223371 0 137 -0.0223371 1
gene 1 43 20 0.383976 0 138 0.383976 1
gene 1 1 31 -0.890644 0 197 -0.890644 1
gene 1 18 80 -0.607746 0 241 -0.607746 1
gene 1 80 23 -0.39709 0 242 -0.39709 1
gene 1 6 112 -0.551343 0 380 -0.551343 1
gene 1 112 21 0.397287 0 381 0.397287 1
gene 1 31 112 -0.264386 0 382 -0.264386 1
gene 1 12 43 -0.692114 0 386 -0.692114 1
gene 1 15 112 -1.13836 0 387 -1.13836 1
gene 1 112 20 -0.0621598 0 396 -0.0621598 1
gene 1 18 43 0.0959159 0 397 0.0959159 1
gene 1 43 31 0.193369 0 400 0.193369 1
gene 1 15 117 -0.556853 0 403 -0.556853 1
gene 1 117 23 0.0515548 0 404 0.0515548 1
gene 1 22 117 -0.11984 0 423 -0.11984 1
gene 1 10 128 0.465199 0 440 0.465199 1
gene 1 128 22 -0.479378 0 441 -0.479378 1
gene 1 1 112 0.10373 0 443 0.10373 1
gene 1 2 80 0.243811 0 451 0.243811 1
gene 1 6 141 0.00886674 0 497 0.00886674 1
gene 1 141 20 0.322253 0 498 0.322253 1
gene 1 18 149 -0.109769 0 519 -0.109769 1
gene 1 149 23 -0.642478 0 520 -0.642478 1
gene 1 80 80 -0.858805 1 551 -0.858805 1
gene 1 112 112 0.437729 1 597 0.437729 1
gene 1 23 23 0.85944 1 623 0.85944 1
gene 1 1 191 1.24822 0 649 1.24822 1
gene 1 191 20 1.38816 0 650 1.38816 1
gene 1 14 202 0.467292 0 686 0.467292 1
gene 1 202 20 1.06153 0 687 1.06153 1
gene 1 20 20 -0.0273241 1 688 -0.0273241 1
gene 1 3 204 0.129387 0 695 0.129387 1
gene 1 204 20 0.0165253 0 696 0.0165253 1
gene 1 8 208 -0.27988 0 707 -0.27988 1
gene 1 208 21 0.162222 0 708 0.162222 1
gene 1 4 31 0.207222 0 710 0.207222 1
gene 1 16 202 -0.149573 0 711 -0.149573 1
gene 1 202 23 -1.45724 0 748 -1.45724 1
gene 1 1 219 0.414296 0 759 0.414296 1
gene 1 219 23 -0.00839759 0 760 -0.00839759 1
gene 1 1 128 -0.427981 0 761 -0.427981 1
gene 1 2 224 0.445274 0 775 0.445274 1
gene 1 224 23 -5.82663e-05 0 776 -5.82663e-05 1
gene 1 17 112 0.415651 0 782 0.415651 1
gene 1 18 227 -0.522536 0 783 -0.522536 1
gene 1 227 43 0.358177 0 784 0.358177 1
gene 1 18 236 -0.503601 0 808 -0.503601 1
gene 1 236 21 -0.678964 0 809 -0.678964 1
gene 1 14 238 -0.589081 0 814 -0.589081 1
gene 1 238 21 -0.0639544 0 815 -0.0639544 1
gene 1 12 80 -0.337005 0 822 -0.337005 1
gene 1 202 202 0.0532065 1 824 0.0532065 1
gene 1 17 257 -0.419341 0 908 -0.419341 1
gene 1 257 22 -0.0106757 0 909 -0.0106757 1
gene 1 5 117 0.445908 0 927 0.445908 1
gene 1 128 23 -0.662832 0 945 -0.662832 1
gene 1 219 117 0.467369 0 1101 0.467369 1
gene 1 12 112 0.022653 0 1103 0.022653 1
genomeend 1125

genomestart 960
trait 1 0.248391 0.909926 0.2004 0.912927 0.564797 0.961343 0.237872 0.760194 
node 1 1 1 1 0
node 2 1 1 1 0
node 3 1 1 1 0
node 4 1 1 1 0
node 5 1 1 1 0
node 6 1 1 1 0
node 7 1 1 1 0
node 8 1 1 1 0
node 9 1 1 1 0
node 10 1 1 1 0
node 11 1 1 1 0
node 12 1 1 1 0
node 13 1 1 1 0
node 14 1 1 1 0
node 15 1 1 1 0
node 16 1 1 1 0
node 17 1 1 1 0
node 18 1 1 1 0
node 19 1 1 3 0
node 20 1 0 2 0
node 21 1 0 2 0
node 22 1 0 2 0
node 23 1 0 2 0
node 31 1 0 0 0
node 43 1 0 0 0
node 80 1 0 0 0
node 112 1 0 0 0
node 128 1 0 0 0
node 202 1 0 0 0
node 204 1 0 0 0
node 227 1 0 0 0
gene 1 1 20 0.217626 0 1 0.217626 1
gene 1 2 20 -0.115711 0 2 -0.115711 1
gene 1 3 20 -0.0613947 0 3 -0.0613947 1
gene 1 4 20 0.398167 0 4 0.398167 1
gene 1 5 20 -0.0120961 0 5 -0.0120961 1
gene 1 6 20 1.53776 0 6 1.53776 1
gene 1 7 20 1.60257 0 7 1.60257 1
gene 1 8 20 0.0702348 0 8 0.0702348 1
gene 1 9 20 1.38574 0 9 1.38574 1
gene 1 10 20 0.242639 0 10 0.242639 1
gene 1 11 20 1.73922 0 11 1.73922 1
gene 1 12 20 -0.449984 0 12 -0.449984 1
gene 1 13 20 1.32554 0 13 1.32554 1
gene 1 14 20 -0.334082 0 14 -0.334082 0
gene 1 15 20 -1.08594 0 15 -1.08594 1
gene 1 16 20 0.835225 0 16 0.835225 1
gene 1 17 20 0.193874 0 17 0.193874 1
gene 1 18 20 -0.212265 0 18 -0.212265 1
gene 1 19 20 2.31033 0 19 2.31033 1
gene 1 1 21 -1.37905 0 20 -1.37905 1
gene 1 2 21 -0.705317 0 21 -0.705317 1
gene 1 3 21 -0.455095 0 22 -0.455095 1
gene 1 4 21 -0.0916529 0 23 -0.0916529 1
gene 1 5 21 -0.563044 0 24 -0.563044 1
gene 1 6 21 0.223898 0 25 0.223898 1
gene 1 7 21 1.40449 0 26 1.40449 1
gene 1 8 21 0.174457 0 27 0.174457 1
gene 1 9 21 -0.635753 0 28 -0.635753 1
gene 1 10 21 -1.15119 0 29 -1.15119 1
gene 1 11 21 -0.228442 0 30 -0.228442 1
gene 1 12 21 1.58561 0 31 1.58561 1
gene 1 13 21 -0.683647 0 32 -0.683647 1
gene 1 14 21 -0.488517 0 33 -0.488517 1
gene 1 15 21 0.195313 0 34 0.195313 1
gene 1 16 21 -0.295595 0 35 -0.295595 1
gene 1 17 21 -0.0838758 0 36 -0.0838758 1
gene 1 18 21 0.563227 0 37 0.563227 1
gene 1 19 21 -1.44864 0 38 -1.44864 1
gene 1 1 22 0.714805 0 39 0.714805 1
gene 1 2 22 0.409618 0 40 0.409618 1
gene 1 3 22 -1.35646 0 41 -1.35646 1
gene 1 4 22 -0.288493 0 42 -0.288493 1
gene 1 5 22 -0.0468458 0 43 -0.0468458 1
gene 1 6 22 0.212597 0 44 0.212597 1
gene 1 7 22 0.351597 0 45 0.351597 1
gene 1 8 22 -0.450835 0 46 -0.450835 1
gene 1 9 22 -0.131812 0 47 -0.131812 1
gene 1 10 22 -0.316554 0 48 -0.316554 0
gene 1 11 22 -0.144725 0 49 -0.144725 1
gene 1 12 22 -0.598353 0 50 -0.598353 1
gene 1 13 22 0.464948 0 51 0.464948 1
gene 1 14 22 -1.18811 0 52 -1.18811 1
gene 1 15 22 -0.131248 0 53 -0.131248 1
gene 1 16 22 -0.524977 0 54 -0.524977 1
gene 1 17 22 -1.0209 0 55 -1.0209 1
gene 1 18 22 -0.623171 0 56 -0.623171 1
gene 1 19 22 0.57756 0 57 0.57756 1
gene 1 1 23 -0.972866 0 58 -0.972866 1
gene 1 2 23 0.897171 0 59 0.897171 1
gene 1 3 23 0.627331 0 60 0.627331 1
gene 1 4 23 0.825811 0 61 0.825811 1
gene 1 5 23 0.25968 0 62 0.25968 1
gene 1 6 23 0.0472557 0 63 0.0472557 1
gene 1 7 23 -0.642714 0 64 -0.642714 1
gene 1 8 23 -0.283328 0 65 -0.283328 1
gene 1 9 23 0.379393 0 66 0.379393 1
gene 1 10 23 0.390705 0 67 0.390705 1
gene 1 11 23 1.48606 0 68 1.48606 1
gene 1 12 23 -0.0996268 0 69 -0.0996268 1
gene 1 13 23 -0.788074 0 70 -0.788074 1
gene 1 14 23 0.0755072 0 71 0.0755072 1
gene 1 15 23 1.3189 0 72 1.3189 1
gene 1 16 23 -0.701379 0 73 -0.701379 1
gene 1 17 23 0.786899 0 74 0.786899 1
gene 1 18 23 0.506681 0 75 0.506681 1
gene 1 19 23 0.449013 0 76 0.449013 1
gene 1 20 21 -0.108809 0 78 -0.108809 1
gene 1 22 23 -0.109639 0 79 -0.109639 1
gene 1 7 31 0.193584 0 101 0.193584 1
gene 1 31 23 0.84275 0 102 0.84275 1
gene 1 10 43 1.02156 0 137 1.02156 1
gene 1 43 20 1.72628 0 138 1.72628 1
gene 1 1 31 -0.513397 0 197 -0.513397 1
gene 1 18 80 -0.140826 0 241 -0.140826 1
gene 1 80 23 0.292984 0 242 0.292984 1
gene 1 6 112 -0.871025 0 380 -0.871025 1
gene 1 112 21 0.88147 0 381 0.88147 1
gene 1 12 43 0.175911 0 386 0.175911 1
gene 1 112 20 0.31587 0 396 0.31587 1
gene 1 18 43 0.667081 0 397 0.667081 0
gene 1 10 128 0.13866 0 440 0.13866 1
gene 1 128 22 0.986833 0 441 0.986833 1
gene 1 1 112 -0.471106 0 443 -0.471106 1
gene 1 112 112 -0.261237 1 597 -0.261237 1
gene 1 23 23 0.071065 1 623 0.071065 1
gene 1 14 202 0.218176 0 686 0.218176 1
gene 1 202 20 0.367093 0 687 0.367093 1
gene 1 3 204 0.701284 0 695 0.701284 1
gene 1 204 20 0.629839 0 696 0.629839 1
gene 1 4 31 0.179417 0 710 0.179417 1
gene 1 16 202 0.167717 0 711 0.167717 1
gene 1 202 23 0.473993 0 748 0.473993 1
gene 1 18 227 -0.0438331 0 783 -0.0438331 1
gene 1 227 43 0.00672616 0 784 0.00672616 1
gene 1 128 23 0.135806 0 945 0.135806 1
gene 1 227 20 -0.120726 0 1105 -0.120726 1
gene 1 17 112 -0.589672 0 1140 -0.589672 1
genomeend 960

genomestart 40605
trait 1 0.362534 0.445503 0.430762 0.34481 0.878293 0.662694 0.988434 0.537854 
node 1 1 1 1 0
node 2 1 1 1 0
node 3 1 1 1 0
node 4 1 1 1 0
node 5 1 1 1 0
node 6 1 1 1 0
node 7 1 1 1 0
node 8 1 1 1 0
node 9 1 1 1 0
node 10 1 1 1 0
node 11 1 1 1 0
node 12 1 1 1 0
node 13 1 1 1 0
node 14 1 1 1 0
node 15 1 1 1 0
node 16 1 1 1 0
node 17 1 1 1 0
node 18 1 1 1 0
node 19 1 1 3 0
node 20 1 0 2 0
node 21 1 0 2 0
node 22 1 0 2 0
node 23 1 0 2 0
node 24 1 0 0 0
node 26 1 0 0 0
node 27 1 0 0 0
node 29 1 0 0 0
node 31 1 0 0 0
node 32 1 0 0 0
node 37 1 0 0 0
node 43 1 0 0 0
node 46 1 0 0 0
node 49 1 0 0 0
node 51 1 0 0 0
node 62 1 0 0 0
node 66 1 0 0 0
node 69 1 0 0 0
node 73 1 0 0 0
node 79 1 0 0 0
node 81 1 0 0 0
node 99 1 0 0 0
node 101 1 0 0 0
node 109 1 0 0 0
node 123 1 0 0 0
node 125 1 0 0 0
node 127 1 0 0 0
node 135 1 0 0 0
node 142 1 0 0 0
node 146 1 0 0 0
node 155 1 0 0 0
node 167 1 0 0 0
node 194 1 0 0 0
node 251 1 0 0 0
gene 1 1 20 -0.420193 0 1 -0.420193 1
gene 1 2 20 -0.414456 0 2 -0.414456 1
gene 1 3 20 0.6771 0 3 0.6771 0
gene 1 4 20 -0.126655 0 4 -0.126655 1
gene 1 5 20 -0.176864 0 5 -0.176864 1
gene 1 6 20 0.402446 0 6 0.402446 0
gene 1 7 20 -0.283614 0 7 -0.283614 1
gene 1 8 20 -0.316557 0 8 -0.316557 1
gene 1 9 20 2.06713 0 9 2.06713 1
gene 1 10 20 0.53003 0 10 0.53003 1
gene 1 11 20 1.30645 0 11 1.30645 1
gene 1 12 20 1.94653 0 12 1.94653 1
gene 1 13 20 -0.539659 0 13 -0.539659 1
gene 1 14 20 -0.839639 0 14 -0.839639 1
gene 1 15 20 0.423541 0 15 0.423541 1
gene 1 16 20 0.478677 0 16 0.478677 1
gene 1 17 20 -0.0519685 0 17 -0.0519685 1
gene 1 18 20 0.00421819 0 18 0.00421819 1
gene 1 19 20 1.09683 0 19 1.09683 1
gene 1 1 21 -1.9923 0 20 -1.9923 1
gene 1 2 21 -0.38549 0 21 -0.38549 1
gene 1 3 21 0.610823 0 22 0.610823 1
gene 1 4 21 -1.67581 0 23 -1.67581 1
gene 1 5 21 -0.0578187 0 24 -0.0578187 1
gene 1 6 21 2.33613 0 25 2.33613 1
gene 1 7 21 -0.334656 0 26 -0.334656 1
gene 1 8 21 0.225558 0 27 0.225558 1
gene 1 9 21 0.251768 0 28 0.251768 1
gene 1 10 21 -0.0782347 0 29 -0.0782347 1
gene 1 11 21 0.16735 0 30 0.16735 1
gene 1 12 21 -1.09469 0 31 -1.09469 1
gene 1 13 21 0.304211 0 32 0.304211 1
gene 1 14 21 -0.352309 0 33 -0.352309 1
gene 1 15 21 0.468458 0 34 0.468458 1
gene 1 16 21 0.8236 0 35 0.8236 1
gene 1 17 21 0.985814 0 36 0.985814 1
gene 1 18 21 0.103883 0 37 0.103883 1
gene 1 19 21 -1.29383 0 38 -1.29383 1
gene 1 1 22 0.71019 0 39 0.71019 1
gene 1 2 22 0.593383 0 40 0.593383 1
gene 1 3 22 1.13167 0 41 1.13167 1
gene 1 4 22 -0.456209 0 42 -0.456209 1
gene 1 5 22 -0.352732 0 43 -0.352732 1
gene 1 6 22 2.43839 0 44 2.43839 1
gene 1 7 22 0.490349 0 45 0.490349 1
gene 1 8 22 -0.785835 0 46 -0.785835 1
gene 1 9 22 -0.410161 0 47 -0.410161 1
gene 1 10 22 0.186777 0 48 0.186777 1
gene 1 11 22 0.651467 0 49 0.651467 1
gene 1 12 22 -0.213114 0 50 -0.213114 1
gene 1 13 22 -0.494486 0 51 -0.494486 1
gene 1 14 22 -1.44061 0 52 -1.44061 0
gene 1 15 22 0.10265 0 53 0.10265 1
gene 1 16 22 -0.172537 0 54 -0.172537 1
gene 1 17 22 1.18404 0 55 1.18404 1
gene 1 18 22 0.463282 0 56 0.463282 1
gene 1 19 22 0.981809 0 57 0.981809 1
gene 1 1 23 0.499559 0 58 0.499559 1
gene 1 2 23 -0.305438 0 59 -0.305438 1
gene 1 3 23 0.237022 0 60 0.237022 1
gene 1 4 23 -0.131613 0 61 -0.131613 1
gene 1 5 23 0.406207 0 62 0.406207 1
gene 1 6 23 -0.0463632 0 63 -0.0463632 1
gene 1 7 23 -0.426287 0 64 -0.426287 1
gene 1 8 23 0.452715 0 65 0.452715 1
gene 1 9 23 -0.985408 0 66 -0.985408 1
gene 1 10 23 1.21044 0 67 1.21044 1
gene 1 11 23 -0.678361 0 68 -0.678361 1
gene 1 12 23 0.705186 0 69 0.705186 1
gene 1 13 23 0.442748 0 70 0.442748 1
gene 1 14 23 0.215516 0 71 0.215516 1
gene 1 15 23 1.75198 0 72 1.75198 1
gene 1 16 23 0.913383 0 73 0.913383 1
gene 1 17 23 1.13561 0 74 1.13561 1
gene 1 18 23 0.0893617 0 75 0.0893617 1
gene 1 19 23 -0.895851 0 76 -0.895851 1
gene 1 20 21 -1.13141 0 77 -1.13141 1
gene 1 1 24 -1.36287 0 78 -1.36287 1
gene 1 24 23 0.41836 0 79 0.41836 1
gene 1 16 26 -0.132008 0 86 -0.132008 1
gene 1 26 23 -0.414673 0 87 -0.414673 1
gene 1 14 27 -0.227564 0 88 -0.227564 1
gene 1 27 22 0.385244 0 89 0.385244 1
gene 1 1 27 1.03939 0 98 1.03939 1
gene 1 26 21 -0.948845 0 100 -0.948845 1
gene 1 23 21 1.00186 0 102 1.00186 1
gene 1 23 22 -0.144736 0 104 -0.144736 1
gene 1 6 26 2.09311 0 105 2.09311 1
gene 1 27 27 -0.405039 1 110 -0.405039 1
gene 1 15 26 1.20226 0 112 1.20226 1
gene 1 15 29 -0.352307 0 113 -0.352307 1
gene 1 29 21 -1.24043 0 114 -1.24043 1
gene 1 24 31 -1.25274 0 120 -1.25274 1
gene 1 31 23 -0.4169 0 121 -0.4169 1
gene 1 1 32 0.142493 0 122 0.142493 1
gene 1 32 20 -0.377217 0 123 -0.377217 1
gene 1 12 37 1.11923 0 141 1.11923 1
gene 1 37 20 2.80651 0 142 2.80651 1
gene 1 13 43 0.420958 0 156 0.420958 1
gene 1 43 20 -0.100344 0 157 -0.100344 1
gene 1 16 46 -0.440217 0 169 -0.440217 1
gene 1 46 20 0.133076 0 170 0.133076 1
gene 1 17 49 -0.473614 0 176 -0.473614 1
gene 1 49 23 -0.163647 0 177 -0.163647 1
gene 1 14 51 -0.201253 0 181 -0.201253 1
gene 1 51 21 -0.204089 0 182 -0.204089 1
gene 1 13 26 1.34615 0 205 1.34615 1
gene 1 24 26 -0.364602 0 212 -0.364602 1
gene 1 13 62 0.820238 0 221 0.820238 1
gene 1 62 21 0.337208 0 222 0.337208 1
gene 1 26 32 -0.365547 0 228 -0.365547 1
gene 1 3 66 2.47154 0 232 2.47154 1
gene 1 66 22 0.617755 0 233 0.617755 1
gene 1 20 69 -1.14776 0 247 -1.14776 1
gene 1 69 21 0.300755 0 248 0.300755 1
gene 1 4 26 -1.73454 0 254 -1.73454 1
gene 1 17 31 0.137758 0 257 0.137758 1
gene 1 14 69 -0.870053 0 265 -0.870053 1
gene 1 24 49 -0.23611 0 269 -0.23611 1
gene 1 4 73 0.999271 0 274 0.999271 1
gene 1 73 23 -0.0683454 0 275 -0.0683454 1
gene 1 24 22 -0.223857 0 297 -0.223857 1
gene 1 13 79 -0.789173 0 304 -0.789173 1
gene 1 79 62 -0.311677 0 305 -0.311677 1
gene 1 24 81 0.883891 0 326 0.883891 1
gene 1 81 26 0.132847 0 327 0.132847 1
gene 1 11 43 0.543494 0 344 0.543494 1
gene 1 43 46 0.825711 0 349 0.825711 1
gene 1 18 26 -0.456339 0 350 -0.456339 0
gene 1 31 31 -1.64221 1 358 -1.64221 1
gene 1 16 62 -0.256181 0 379 -0.256181 1
gene 1 3 99 -0.809413 0 420 -0.809413 1
gene 1 99 20 0.310417 0 421 0.310417 1
gene 1 31 101 -0.352641 1 425 -0.352641 1
gene 1 101 31 0.118163 0 426 0.118163 1
gene 1 12 109 0.365995 0 472 0.365995 1
gene 1 109 21 0.858341 0 473 0.858341 1
gene 1 18 123 -0.342836 0 554 -0.342836 1
gene 1 123 26 -0.0520743 0 555 -0.0520743 1
gene 1 31 49 -1.10276 0 567 -1.10276 1
gene 1 24 125 0.833839 0 573 0.833839 1
gene 1 125 22 -0.335535 0 574 -0.335535 1
gene 1 6 49 0.278251 0 584 0.278251 1
gene 1 31 22 2.16582 0 587 2.16582 1
gene 1 6 109 0.198934 0 589 0.198934 1
gene 1 2 127 0.0539695 0 595 0.0539695 1
gene 1 127 20 -0.155398 0 596 -0.155398 1
gene 1 5 49 0.0235462 0 634 0.0235462 1
gene 1 13 69 -1.13684 0 636 -1.13684 1
gene 1 5 109 -0.655887 0 653 -0.655887 1
gene 1 11 135 -0.567968 0 654 -0.567968 1
gene 1 135 20 1.68112 0 655 1.68112 1
gene 1 16 99 0.0124882 0 665 0.0124882 1
gene 1 127 51 1.67733 0 670 1.67733 1
gene 1 16 142 0.205644 0 719 0.205644 1
gene 1 142 62 -0.878349 0 720 -0.878349 1
gene 1 127 127 0.254556 1 721 0.254556 1
gene 1 127 24 0.452745 0 730 0.452745 1
gene 1 11 146 0.311956 0 751 0.311956 1
gene 1 146 43 -0.16603 0 752 -0.16603 1
gene 1 6 155 -0.0922754 0 817 -0.0922754 1
gene 1 155 20 0.385775 0 818 0.385775 1
gene 1 7 69 -0.159522 0 834 -0.159522 1
gene 1 127 62 -0.42005 0 861 -0.42005 1
gene 1 66 167 0.275125 0 898 0.275125 1
gene 1 167 22 0.13564 0 899 0.13564 1
gene 1 123 123 -0.437589 1 918 -0.437589 1
gene 1 24 123 0.159074 0 945 0.159074 1
gene 1 17 123 -0.232215 0 1051 -0.232215 1
gene 1 135 69 -0.00147422 0 1059 -0.00147422 1
gene 1 101 21 -0.485874 0 1084 -0.485874 1
gene 1 37 101 -0.154694 0 1091 -0.154694 1
gene 1 99 123 0.477193 0 1095 0.477193 1
gene 1 17 194 -0.422531 0 1101 -0.422531 1
gene 1 194 123 -0.140224 0 1102 -0.140224 1
gene 1 1 101 0.437126 0 1108 0.437126 1
gene 1 109 66 -0.479525 0 1134 -0.479525 1
gene 1 8 66 0.21098 0 1183 0.21098 1
gene 1 109 109 0.0816731 1 1212 0.0816731 1
gene 1 2 125 0.236631 0 1235 0.236631 1
gene 1 109 142 0.875796 0 1245 0.875796 1
gene 1 31 69 -0.0874929 0 1246 -0.0874929 1
gene 1 13 123 0.391086 0 1472 0.391086 1
gene 1 125 43 -0.747962 0 1475 -0.747962 1
gene 1 31 167 0.50309 0 1480 0.50309 1
gene 1 142 142 -0.167036 1 1502 -0.167036 1
gene 1 66 37 1.03836 0 1514 1.03836 1
gene 1 37 37 0.475261 1 1645 0.475261 1
gene 1 43 32 -0.180322 0 1651 -0.180322 1
gene 1 14 135 -0.471779 0 1701 -0.471779 1
gene 1 125 251 0.415172 0 1736 0.415172 1
gene 1 251 43 0.981673 0 1737 0.981673 1
gene 1 24 79 -0.0298988 0 1759 -0.0298988 1
genomeend 40605
genomestart 40606
trait 1 0.362534 0.445503 0.430762 0.34481 0.878293 0.662694 0.988434 0.537854 
node 1 1 1 1 0
node 2 1 1 1 0
node 3 1 1 1 0
node 4 1 1 1 0
node 5 1 1 1 0
node 6 1 1 1 0
node 7 1 1 1 0
node 8 1 1 1 0
node 9 1 1 1 0
node 10 1 1 1 0
node 11 1 1 1 0
node 12 1 1 1 0
node 13 1 1 1 0
node 14 1 1 1 0
node 15 1 1 1 0
node 16 1 1 1 0
node 17 1 1 1 0
node 18 1 1 1 0
node 19 1 1 3 0
node 20 1 0 2 0
node 21 1 0 2 0
node 22 1 0 2 0
node 23 1 0 2 0
node 24 1 0 0 0
node 26 1 0 0 0
node 27 1 0 0 0
node 29 1 0 0 0
node 31 1 0 0 0
node 32 1 0 0 0
node 37 1 0 0 0
node 43 1 0 0 0
node 46 1 0 0 0
node 49 1 0 0 0
node 51 1 0 0 0
node 62 1 0 0 0
node 66 1 0 0 0
node 69 1 0 0 0
node 73 1 0 0 0
node 79 1 0 0 0
node 81 1 0 0 0
node 99 1 0 0 0
node 101 1 0 0 0
node 109 1 0 0 0
node 123 1 0 0 0
node 125 1 0 0 0
node 127 1 0 0 0
node 135 1 0 0 0
node 142 1 0 0 0
node 146 1 0 0 0
node 155 1 0 0 0
node 167 1 0 0 0
node 194 1 0 0 0
node 251 1 0 0 0
gene 1 1 20 1.10564 0 1 1.10564 1
gene 1 2 20 0.20892 0 2 0.20892 1
gene 1 3 20 0.236198 0 3 0.236198 0
gene 1 4 20 0.723026 0 4 0.723026 1
gene 1 5 20 0.0517487 0 5 0.0517487 1
gene 1 6 20 0.707474 0 6 0.707474 0
gene 1 7 20 0.520068 0 7 0.520068 1
gene 1 8 20 0.315831 0 8 0.315831 1
gene 1 9 20 2.15314 0 9 2.15314 1
gene 1 10 20 0.582028 0 10 0.582028 1
gene 1 11 20 -0.169697 0 11 -0.169697 1
gene 1 12 20 1.22164 0 12 1.22164 1
gene 1 13 20 0.474177 0 13 0.474177 1
gene 1 14 20 -0.81108 0 14 -0.81108 1
gene 1 15 20 0.265009 0 15 0.265009 1
gene 1 16 20 -0.670889 0 16 -0.670889 1
gene 1 17 20 0.0695226 0 17 0.0695226 1
gene 1 18 20 -0.411293 0 18 -0.411293 1
gene 1 19 20 0.104618 0 19 0.104618 1
gene 1 1 21 -1.748 0 20 -1.748 1
gene 1 2 21 -1.01002 0 21 -1.01002 1
gene 1 3 21 0.501773 0 22 0.501773 1
gene 1 4 21 -1.58113 0 23 -1.58113 1
gene 1 5 21 -0.601606 0 24 -0.601606 1
gene 1 6 21 2.50612 0 25 2.50612 1
gene 1 7 21 -0.287831 0 26 -0.287831 1
gene 1 8 21 0.0466051 0 27 0.0466051 1
gene 1 9 21 0.0141901 0 28 0.0141901 1
gene 1 10 21 0.0415496 0 29 0.0415496 1
gene 1 11 21 -0.0452071 0 30 -0.0452071 1
gene 1 12 21 -0.302998 0 31 -0.302998 1
gene 1 13 21 0.548651 0 32 0.548651 1
gene 1 14 21 -1.05191 0 33 -1.05191 1
gene 1 15 21 -0.0465077 0 34 -0.0465077 1
gene 1 16 21 1.71996 0 35 1.71996 1
gene 1 17 21 1.70834 0 36 1.70834 1
gene 1 18 21 2.21677 0 37 2.21677 1
gene 1 19 21 0.227349 0 38 0.227349 1
gene 1 1 22 1.33486 0 39 1.33486 1
gene 1 2 22 0.425789 0 40 0.425789 1
gene 1 3 22 0.652252 0 41 0.652252 1
gene 1 4 22 -0.661811 0 42 -0.661811 1
gene 1 5 22 -0.208486 0 43 -0.208486 1
gene 1 6 22 0.808651 0 44 0.808651 1
gene 1 7 22 0.753206 0 45 0.753206 1
gene 1 8 22 -0.991666 0 46 -0.991666 1
gene 1 9 22 0.158728 0 47 0.158728 1
gene 1 10 22 0.0984711 0 48 0.0984711 1
gene 1 11 22 1.18551 0 49 1.18551 1
gene 1 12 22 0.591856 0 50 0.591856 1
gene 1 13 22 -0.590721 0 51 -0.590721 1
gene 1 14 22 -1.52388 0 52 -1.52388 0
gene 1 15 22 0.111571 0 53 0.111571 1
gene 1 16 22 -0.521139 0 54 -0.521139 1
gene 1 17 22 0.521209 0 55 0.521209 1
gene 1 18 22 0.115303 0 56 0.115303 1
gene 1 19 22 1.26981 0 57 1.26981 1
gene 1 1 23 -0.658734 0 58 -0.658734 1
gene 1 2 23 0.0624242 0 59 0.0624242 1
gene 1 3 23 0.0632454 0 60 0.0632454 1
gene 1 4 23 -0.874879 0 61 -0.874879 1
gene 1 5 23 0.538794 0 62 0.538794 1
gene 1 6 23 -0.803876 0 63 -0.803876 1
gene 1 7 23 -0.188109 0 64 -0.188109 1
gene 1 8 23 0.0268449 0 65 0.0268449 1
gene 1 9 23 -0.478284 0 66 -0.478284 1
gene 1 10 23 1.1018 0 67 1.1018 1
gene 1 11 23 -0.432379 0 68 -0.432379 1
gene 1 12 23 1.61468 0 69 1.61468 1
gene 1 13 23 0.459129 0 70 0.459129 1
gene 1 14 23 0.298447 0 71 0.298447 1
gene 1 15 23 -0.245938 0 72 -0.245938 1
gene 1 16 23 0.526065 0 73 0.526065 1
gene 1 17 23 0.902389 0 74 0.902389 1
gene 1 18 23 -0.0629991 0 75 -0.0629991 1
gene 1 19 23 -0.63968 0 76 -0.63968 1
gene 1 20 21 -0.864663 0 77 -0.864663 1
gene 1 1 24 -1.37849 0 78 -1.37849 1
gene 1 24 23 -0.170303 0 79 -0.170303 1
gene 1 16 26 0.301163 0 86 0.301163 1
gene 1 26 23 -0.232459 0 87 -0.232459 1
gene 1 14 27 0.561236 0 88 0.561236 1
gene 1 27 22 0.735113 0 89 0.735113 1
gene 1 1 27 0.248832 0 98 0.248832 1
gene 1 26 21 -0.768869 0 100 -0.768869 1
gene 1 23 21 -0.191088 0 102 -0.191088 1
gene 1 23 22 -0.728032 0 104 -0.728032 1
gene 1 6 26 0.455119 0 105 0.455119 1
gene 1 27 27 -1.07567 1 110 -1.07567 1
gene 1 15 26 0.882474 0 112 0.882474 1
gene 1 15 29 -0.234881 0 113 -0.234881 1
gene 1 29 21 -1.31548 0 114 -1.31548 1
gene 1 24 31 0.31722 0 120 0.31722 1
gene 1 31 23 -0.0524974 0 121 -0.0524974 1
gene 1 1 32 -0.0284072 0 122 -0.0284072 1
gene 1 32 20 -0.0766689 0 123 -0.0766689 1
gene 1 12 37 1.83843 0 141 1.83843 1
gene 1 37 20 0.145587 0 142 0.145587 1
gene 1 13 43 0.59565 0 156 0.59565 1
gene 1 43 20 -0.93053 0 157 -0.93053 1
gene 1 16 46 0.814468 0 169 0.814468 1
gene 1 46 20 0.199264 0 170 0.199264 1
gene 1 17 49 0.216916 0 176 0.216916 1
gene 1 49 23 0.796626 0 177 0.796626 1
gene 1 14 51 0.110304 0 181 0.110304 1
gene 1 51 21 -0.294 0 182 -0.294 1
gene 1 13 26 0.628851 0 205 0.628851 1
gene 1 24 26 -1.06248 0 212 -1.06248 1
gene 1 13 62 0.0486936 0 221 0.0486936 1
gene 1 62 21 -0.187881 0 222 -0.187881 1
gene 1 26 32 -0.39827 0 228 -0.39827 1
gene 1 3 66 1.08149 0 232 1.08149 1
gene 1 66 22 -0.313767 0 233 -0.313767 1
gene 1 20 69 0.130111 0 247 0.130111 1
gene 1 69 21 1.00874 0 248 1.00874 1
gene 1 4 26 -1.06986 0 254 -1.06986 1
gene 1 17 31 1.25183 0 257 1.25183 1
gene 1 14 69 0.459194 0 265 0.459194 1
gene 1 24 49 0.0523119 0 269 0.0523119 1
gene 1 4 73 0.385702 0 274 0.385702 1
gene 1 73 23 -0.0200824 0 275 -0.0200824 1
gene 1 24 22 0.441683 0 297 0.441683 1
gene 1 13 79 0.743407 0 304 0.743407 1
gene 1 79 62 -0.0270803 0 305 -0.0270803 1
gene 1 24 81 -0.168638 0 326 -0.168638 1
gene 1 81 26 -1.13677 0 327 -1.13677 1
gene 1 11 43 0.176877 0 344 0.176877 1
gene 1 43 46 0.435853 0 349 0.435853 1
gene 1 18 26 -0.06713 0 350 -0.06713 0
gene 1 31 31 -0.320446 1 358 -0.320446 1
gene 1 16 62 -0.533478 0 379 -0.533478 0
gene 1 3 99 0.510268 0 420 0.510268 1
gene 1 99 20 0.551607 0 421 0.551607 1
gene 1 31 101 -0.747652 1 425 -0.747652 1
gene 1 101 31 0.0140819 0 426 0.0140819 1
gene 1 12 109 -0.25646 0 472 -0.25646 1
gene 1 109 21 0.120608 0 473 0.120608 1
gene 1 18 123 -0.459305 0 554 -0.459305 1
gene 1 123 26 -0.17264 0 555 -0.17264 1
gene 1 31 49 -1.13756 0 567 -1.13756 1
gene 1 24 125 -0.283859 0 573 -0.283859 1
gene 1 125 22 -0.247574 0 574 -0.247574 1
gene 1 6 49 -1.63787 0 584 -1.63787 1
gene 1 31 22 0.843902 0 587 0.843902 1
gene 1 6 109 -0.00591955 0 589 -0.00591955 1
gene 1 2 127 -0.179735 0 595 -0.179735 1
gene 1 127 20 -0.267291 0 596 -0.267291 1
gene 1 5 49 -0.66892 0 634 -0.66892 1
gene 1 13 69 -1.31048 0 636 -1.31048 1
gene 1 5 109 -0.616472 0 653 -0.616472 1
gene 1 11 135 0.297569 0 654 0.297569 1
gene 1 135 20 0.964576 0 655 0.964576 1
gene 1 16 99 -0.0484329 0 665 -0.0484329 1
gene 1 127 51 -0.242969 0 670 -0.242969 1
gene 1 16 142 -0.370405 0 719 -0.370405 1
gene 1 142 62 -0.127208 0 720 -0.127208 1
gene 1 127 127 -0.272805 1 721 -0.272805 1
gene 1 127 24 0.27896 0 730 0.27896 1
gene 1 11 146 0.0751027 0 751 0.0751027 1
gene 1 146 43 0.265297 0 752 0.265297 1
gene 1 6 155 -0.152098 0 817 -0.152098 1
gene 1 155 20 -0.681118 0 818 -0.681118 1
gene 1 7 69 -0.108966 0 834 -0.108966 1
gene 1 127 62 -0.213171 0 861 -0.213171 1
gene 1 66 167 0.768025 0 898 0.768025 1
gene 1 167 22 0.0277279 0 899 0.0277279 1
gene 1 123 123 -0.110396 1 918 -0.110396 1
gene 1 24 123 -0.950171 0 945 -0.950171 1
gene 1 17 123 -0.551677 0 1051 -0.551677 1
gene 1 135 69 -0.124945 0 1059 -0.124945 1
gene 1 101 21 -0.410302 0 1084 -0.410302 1
gene 1 37 101 -0.70222 0 1091 -0.70222 1
gene 1 99 123 0.180302 0 1095 0.180302 1
gene 1 17 194 -0.814364 0 1101 -0.814364 1
gene 1 194 123 0.329954 0 1102 0.329954 1
gene 1 1 101 1.94443 0 1108 1.94443 1
gene 1 109 66 -0.54914 0 1134 -0.54914 1
gene 1 8 66 -0.327024 0 1183 -0.327024 1
gene 1 109 109 0.511844 1 1212 0.511844 1
gene 1 2 125 -0.148754 0 1235 -0.148754 1
gene 1 109 142 0.853498 0 1245 0.853498 1
gene 1 31 69 -0.69533 0 1246 -0.69533 1
gene 1 13 123 -0.458007 0 1472 -0.458007 1
gene 1 125 43 -0.274951 0 1475 -0.274951 1
gene 1 31 167 0.40601 0 1480 0.40601 1
gene 1 142 142 0.519649 1 1502 0.519649 1
gene 1 66 37 1.12683 0 1514 1.12683 1
gene 1 37 37 0.538778 1 1645 0.538778 1
gene 1 43 32 0.867318 0 1651 0.867318 1
gene 1 14 135 -0.322789 0 1701 -0.322789 1
gene 1 125 251 -0.20832 0 1736 -0.20832 1
gene 1 251 43 -0.14565 0 1737 -0.14565 1
gene 1 24 79 0.0291035 0 1759 0.0291035 1
genomeend 40606

