genomestart 1
trait 1 0 0 0 0 0 0 0 0 
node 1 1 1 1 0
node 2 1 1 1 0
node 3 1 1 1 0
node 4 1 1 1 0
node 5 1 1 1 0
node 6 1 1 1 0
node 7 1 1 1 0
node 8 1 1 1 0
node 9 1 1 1 0
node 10 1 1 1 0
node 11 1 1 1 0
node 12 1 1 1 0
node 13 1 1 1 0
node 14 1 1 1 0
node 15 1 1 1 0
node 16 1 1 1 0
node 17 1 1 1 0
node 18 1 1 1 0
node 19 1 1 3 0
node 20 1 0 2 0
node 21 1 0 2 0
node 22 1 0 2 0
node 23 1 0 2 0
gene 1 1 20 -0.0250471 0 1 -0.0250471 1
gene 1 2 20 -0.745445 0 2 -0.745445 1
gene 1 3 20 0.162913 0 3 0.162913 1
gene 1 4 20 0.158113 0 4 0.158113 1
gene 1 5 20 -0.870947 0 5 -0.870947 1
gene 1 6 20 0.719006 0 6 0.719006 1
gene 1 7 20 0.825634 0 7 0.825634 1
gene 1 8 20 0.184289 0 8 0.184289 1
gene 1 9 20 0.851127 0 9 0.851127 1
gene 1 10 20 -0.00100987 0 10 -0.00100987 1
gene 1 11 20 0.0368111 0 11 0.0368111 1
gene 1 12 20 -0.800517 0 12 -0.800517 1
gene 1 13 20 0.631924 0 13 0.631924 1
gene 1 14 20 0.0768142 0 14 0.0768142 1
gene 1 15 20 0.847318 0 15 0.847318 1
gene 1 16 20 0.429524 0 16 0.429524 1
gene 1 17 20 0.23777 0 17 0.23777 1
gene 1 18 20 -0.299921 0 18 -0.299921 1
gene 1 19 20 0.981334 0 19 0.981334 1
gene 1 1 21 -0.383042 0 20 -0.383042 1
gene 1 2 21 -0.114408 0 21 -0.114408 1
gene 1 3 21 -0.25898 0 22 -0.25898 1
gene 1 4 21 -0.802054 0 23 -0.802054 1
gene 1 5 21 -0.994965 0 24 -0.994965 1
gene 1 6 21 -0.823055 0 25 -0.823055 1
gene 1 7 21 0.0625437 0 26 0.0625437 1
gene 1 8 21 0.814795 0 27 0.814795 1
gene 1 9 21 0.0604534 0 28 0.0604534 1
gene 1 10 21 -0.0981902 0 29 -0.0981902 1
gene 1 11 21 -0.368155 0 30 -0.368155 1
gene 1 12 21 -0.877042 0 31 -0.877042 1
gene 1 13 21 -0.575733 0 32 -0.575733 1
gene 1 14 21 -0.41351 0 33 -0.41351 1
gene 1 15 21 0.526446 0 34 0.526446 1
gene 1 16 21 0.389167 0 35 0.389167 1
gene 1 17 21 0.518836 0 36 0.518836 1
gene 1 18 21 -0.911076 0 37 -0.911076 1
gene 1 19 21 0.891867 0 38 0.891867 1
gene 1 1 22 -0.641785 0 39 -0.641785 1
gene 1 2 22 -0.466791 0 40 -0.466791 1
gene 1 3 22 -0.0972279 0 41 -0.0972279 1
gene 1 4 22 -0.47678 0 42 -0.47678 1
gene 1 5 22 0.83008 0 43 0.83008 1
gene 1 6 22 -0.447969 0 44 -0.447969 1
gene 1 7 22 0.930163 0 45 0.930163 1
gene 1 8 22 -0.427266 0 46 -0.427266 1
gene 1 9 22 0.962909 0 47 0.962909 1
gene 1 10 22 0.862344 0 48 0.862344 1
gene 1 11 22 -0.228819 0 49 -0.228819 1
gene 1 12 22 -0.481036 0 50 -0.481036 1
gene 1 13 22 0.542617 0 51 0.542617 1
gene 1 14 22 -0.396326 0 52 -0.396326 1
gene 1 15 22 -0.663376 0 53 -0.663376 1
gene 1 16 22 -0.00207226 0 54 -0.00207226 1
gene 1 17 22 0.884432 0 55 0.884432 1
gene 1 18 22 -0.0976198 0 56 -0.0976198 1
gene 1 19 22 -0.879194 0 57 -0.879194 1
gene 1 1 23 0.111158 0 58 0.111158 1
gene 1 2 23 0.596589 0 59 0.596589 1
gene 1 3 23 0.349297 0 60 0.349297 1
gene 1 4 23 0.814027 0 61 0.814027 1
gene 1 5 23 0.10032 0 62 0.10032 1
gene 1 6 23 -0.966821 0 63 -0.966821 1
gene 1 7 23 0 0 64 0 1
gene 1 8 23 -0.450492 0 65 -0.450492 1
gene 1 9 23 -0.991255 0 66 -0.991255 1
gene 1 10 23 0 0 67 0 1
gene 1 11 23 0 0 68 0 1
gene 1 12 23 0 0 69 0 1
gene 1 13 23 -0.440202 0 70 -0.440202 1
gene 1 14 23 0 0 71 0 1
gene 1 15 23 0 0 72 0 1
gene 1 16 23 0.145405 0 73 0.145405 1
gene 1 17 23 0.71463 0 74 0.71463 1
gene 1 18 23 0 0 75 0 1
gene 1 19 23 -0.839718 0 76 -0.839718 1
genomeend 1
genomestart 2
trait 1 0 0 0 0 0 0 0 0 
node 1 1 1 1 0
node 2 1 1 1 0
node 3 1 1 1 0
node 4 1 1 1 0
node 5 1 1 1 0
node 6 1 1 1 0
node 7 1 1 1 0
node 8 1 1 1 0
node 9 1 1 1 0
node 10 1 1 1 0
node 11 1 1 1 0
node 12 1 1 1 0
node 13 1 1 1 0
node 14 1 1 1 0
node 15 1 1 1 0
node 16 1 1 1 0
node 17 1 1 1 0
node 18 1 1 1 0
node 19 1 1 3 0
node 20 1 0 2 0
node 21 1 0 2 0
node 22 1 0 2 0
node 23 1 0 2 0
gene 1 1 20 -0.821145 0 1 -0.821145 1
gene 1 2 20 0.0131853 0 2 0.0131853 1
gene 1 3 20 -0.361038 0 3 -0.361038 1
gene 1 4 20 -0.807898 0 4 -0.807898 1
gene 1 5 20 -0.787919 0 5 -0.787919 1
gene 1 6 20 0.0351276 0 6 0.0351276 1
gene 1 7 20 0.120085 0 7 0.120085 1
gene 1 8 20 0.425439 0 8 0.425439 1
gene 1 9 20 -0.703911 0 9 -0.703911 1
gene 1 10 20 0.955137 0 10 0.955137 1
gene 1 11 20 -0.422045 0 11 -0.422045 1
gene 1 12 20 -0.509263 0 12 -0.509263 1
gene 1 13 20 -0.387449 0 13 -0.387449 1
gene 1 14 20 0.334244 0 14 0.334244 1
gene 1 15 20 -0.504521 0 15 -0.504521 1
gene 1 16 20 0.152682 0 16 0.152682 1
gene 1 17 20 0.27309 0 17 0.27309 1
gene 1 18 20 -0.302108 0 18 -0.302108 1
gene 1 19 20 0.731824 0 19 0.731824 1
gene 1 1 21 -0.778351 0 20 -0.778351 1
gene 1 2 21 0.261356 0 21 0.261356 1
gene 1 3 21 -0.052827 0 22 -0.052827 1
gene 1 4 21 0.530203 0 23 0.530203 1
gene 1 5 21 0.994672 0 24 0.994672 1
gene 1 6 21 0.513646 0 25 0.513646 1
gene 1 7 21 -0.942126 0 26 -0.942126 1
gene 1 8 21 -0.935212 0 27 -0.935212 1
gene 1 9 21 0.787115 0 28 0.787115 1
gene 1 10 21 0.474703 0 29 0.474703 1
gene 1 11 21 0.259364 0 30 0.259364 1
gene 1 12 21 0.428158 0 31 0.428158 1
gene 1 13 21 0.683243 0 32 0.683243 1
gene 1 14 21 0.202788 0 33 0.202788 1
gene 1 15 21 0.201445 0 34 0.201445 1
gene 1 16 21 -0.689666 0 35 -0.689666 1
gene 1 17 21 -0.968311 0 36 -0.968311 1
gene 1 18 21 0.0368675 0 37 0.0368675 1
gene 1 19 21 -0.246608 0 38 -0.246608 1
gene 1 1 22 0.25861 0 39 0.25861 1
gene 1 2 22 -0.580258 0 40 -0.580258 1
gene 1 3 22 -0.527091 0 41 -0.527091 1
gene 1 4 22 0.69586 0 42 0.69586 1
gene 1 5 22 -0.12291 0 43 -0.12291 1
gene 1 6 22 -0.536933 0 44 -0.536933 1
gene 1 7 22 -0.888529 0 45 -0.888529 1
gene 1 8 22 0.65012 0 46 0.65012 1
gene 1 9 22 -0.530568 0 47 -0.530568 1
gene 1 10 22 -0.613857 0 48 -0.613857 1
gene 1 11 22 0.284832 0 49 0.284832 1
gene 1 12 22 -0.483884 0 50 -0.483884 1
gene 1 13 22 -0.536221 0 51 -0.536221 1
gene 1 14 22 0.339718 0 52 0.339718 1
gene 1 15 22 -0.780831 0 53 -0.780831 1
gene 1 16 22 0.763203 0 54 0.763203 1
gene 1 17 22 -0.0263493 0 55 -0.0263493 1
gene 1 18 22 0.499209 0 56 0.499209 1
gene 1 19 22 -0.27756 0 57 -0.27756 1
gene 1 1 23 -0.135625 0 58 -0.135625 1
gene 1 2 23 -0.378886 0 59 -0.378886 1
gene 1 3 23 0.195107 0 60 0.195107 1
gene 1 4 23 0.246302 0 61 0.246302 1
gene 1 5 23 0 0 62 0 1
gene 1 6 23 -0.866061 0 63 -0.866061 1
gene 1 7 23 0.658699 0 64 0.658699 1
gene 1 8 23 0 0 65 0 1
gene 1 9 23 0 0 66 0 1
gene 1 10 23 0.370749 0 67 0.370749 1
gene 1 11 23 -0.0176736 0 68 -0.0176736 1
gene 1 12 23 -0.618062 0 69 -0.618062 1
gene 1 13 23 -0.559264 0 70 -0.559264 1
gene 1 14 23 0 0 71 0 1
gene 1 15 23 -0.0393536 0 72 -0.0393536 1
gene 1 16 23 -0.366793 0 73 -0.366793 1
gene 1 17 23 0.896509 0 74 0.896509 1
gene 1 18 23 -0.261859 0 75 -0.261859 1
gene 1 19 23 0 0 76 0 1
genomeend 2
genomestart 3
trait 1 0 0 0 0 0 0 0 0 
node 1 1 1 1 0
node 2 1 1 1 0
node 3 1 1 1 0
node 4 1 1 1 0
node 5 1 1 1 0
node 6 1 1 1 0
node 7 1 1 1 0
node 8 1 1 1 0
node 9 1 1 1 0
node 10 1 1 1 0
node 11 1 1 1 0
node 12 1 1 1 0
node 13 1 1 1 0
node 14 1 1 1 0
node 15 1 1 1 0
node 16 1 1 1 0
node 17 1 1 1 0
node 18 1 1 1 0
node 19 1 1 3 0
node 20 1 0 2 0
node 21 1 0 2 0
node 22 1 0 2 0
node 23 1 0 2 0
gene 1 1 20 -0.176511 0 1 -0.176511 1
gene 1 2 20 -0.0731703 0 2 -0.0731703 1
gene 1 3 20 0.0668506 0 3 0.0668506 1
gene 1 4 20 -0.868092 0 4 -0.868092 1
gene 1 5 20 0.271233 0 5 0.271233 1
gene 1 6 20 0.985434 0 6 0.985434 1
gene 1 7 20 -0.183193 0 7 -0.183193 1
gene 1 8 20 -0.711121 0 8 -0.711121 1
gene 1 9 20 -0.0708249 0 9 -0.0708249 1
gene 1 10 20 0.404157 0 10 0.404157 1
gene 1 11 20 0.245842 0 11 0.245842 1
gene 1 12 20 0.714068 0 12 0.714068 1
gene 1 13 20 0.511448 0 13 0.511448 1
gene 1 14 20 -0.505053 0 14 -0.505053 1
gene 1 15 20 0.399655 0 15 0.399655 1
gene 1 16 20 0.508134 0 16 0.508134 1
gene 1 17 20 -0.737173 0 17 -0.737173 1
gene 1 18 20 0.533013 0 18 0.533013 1
gene 1 19 20 0.764741 0 19 0.764741 1
gene 1 1 21 0 0 20 0 1
gene 1 2 21 -0.0484176 0 21 -0.0484176 1
gene 1 3 21 -0.250922 0 22 -0.250922 1
gene 1 4 21 -0.855011 0 23 -0.855011 1
gene 1 5 21 0.144932 0 24 0.144932 1
gene 1 6 21 -0.343461 0 25 -0.343461 1
gene 1 7 21 0 0 26 0 1
gene 1 8 21 0.982558 0 27 0.982558 1
gene 1 9 21 -0.0442666 0 28 -0.0442666 1
gene 1 10 21 -0.854558 0 29 -0.854558 1
gene 1 11 21 0.262564 0 30 0.262564 1
gene 1 12 21 -0.734691 0 31 -0.734691 1
gene 1 13 21 0.762814 0 32 0.762814 1
gene 1 14 21 -0.408152 0 33 -0.408152 1
gene 1 15 21 -0.532646 0 34 -0.532646 1
gene 1 16 21 0.411213 0 35 0.411213 1
gene 1 17 21 0.809237 0 36 0.809237 1
gene 1 18 21 0.296556 0 37 0.296556 1
gene 1 19 21 0.367105 0 38 0.367105 1
gene 1 1 22 -0.736522 0 39 -0.736522 1
gene 1 2 22 0.00652486 0 40 0.00652486 1
gene 1 3 22 0.184605 0 41 0.184605 1
gene 1 4 22 -0.219277 0 42 -0.219277 1
gene 1 5 22 0.0292937 0 43 0.0292937 1
gene 1 6 22 -0.590226 0 44 -0.590226 1
gene 1 7 22 -0.761964 0 45 -0.761964 1
gene 1 8 22 0.270785 0 46 0.270785 1
gene 1 9 22 -0.0103959 0 47 -0.0103959 1
gene 1 10 22 0.276855 0 48 0.276855 1
gene 1 11 22 -0.525333 0 49 -0.525333 1
gene 1 12 22 0.607105 0 50 0.607105 1
gene 1 13 22 0 0 51 0 1
gene 1 14 22 -0.509491 0 52 -0.509491 1
gene 1 15 22 -0.20582 0 53 -0.20582 1
gene 1 16 22 0.562758 0 54 0.562758 1
gene 1 17 22 -0.332144 0 55 -0.332144 1
gene 1 18 22 -0.97217 0 56 -0.97217 1
gene 1 19 22 0.507543 0 57 0.507543 1
gene 1 1 23 0.0888518 0 58 0.0888518 1
gene 1 2 23 0 0 59 0 1
gene 1 3 23 -0.883989 0 60 -0.883989 1
gene 1 4 23 -0.452988 0 61 -0.452988 1
gene 1 5 23 -0.518831 0 62 -0.518831 1
gene 1 6 23 -0.258283 0 63 -0.258283 1
gene 1 7 23 0.588491 0 64 0.588491 1
gene 1 8 23 0.13791 0 65 0.13791 1
gene 1 9 23 -0.659843 0 66 -0.659843 1
gene 1 10 23 -0.265092 0 67 -0.265092 1
gene 1 11 23 -0.147426 0 68 -0.147426 1
gene 1 12 23 0 0 69 0 1
gene 1 13 23 -0.554126 0 70 -0.554126 1
gene 1 14 23 -0.791992 0 71 -0.791992 1
gene 1 15 23 -0.942668 0 72 -0.942668 1
gene 1 16 23 0.0490441 0 73 0.0490441 1
gene 1 17 23 0 0 74 0 1
gene 1 18 23 0.255039 0 75 0.255039 1
gene 1 19 23 0.343815 0 76 0.343815 1
genomeend 3
genomestart 4
trait 1 0 0 0 0 0 0 0 0 
node 1 1 1 1 0
node 2 1 1 1 0
node 3 1 1 1 0
node 4 1 1 1 0
node 5 1 1 1 0
node 6 1 1 1 0
node 7 1 1 1 0
node 8 1 1 1 0
node 9 1 1 1 0
node 10 1 1 1 0
node 11 1 1 1 0
node 12 1 1 1 0
node 13 1 1 1 0
node 14 1 1 1 0
node 15 1 1 1 0
node 16 1 1 1 0
node 17 1 1 1 0
node 18 1 1 1 0
node 19 1 1 3 0
node 20 1 0 2 0
node 21 1 0 2 0
node 22 1 0 2 0
node 23 1 0 2 0
gene 1 1 20 -0.903682 0 1 -0.903682 1
gene 1 2 20 -0.734996 0 2 -0.734996 1
gene 1 3 20 0.214285 0 3 0.214285 1
gene 1 4 20 -0.771737 0 4 -0.771737 1
gene 1 5 20 -0.167279 0 5 -0.167279 1
gene 1 6 20 -0.94813 0 6 -0.94813 1
gene 1 7 20 -0.632231 0 7 -0.632231 1
gene 1 8 20 -0.896787 0 8 -0.896787 1
gene 1 9 20 -0.937103 0 9 -0.937103 1
gene 1 10 20 -0.800788 0 10 -0.800788 1
gene 1 11 20 -0.865953 0 11 -0.865953 1
gene 1 12 20 0.900732 0 12 0.900732 1
gene 1 13 20 -0.00240806 0 13 -0.00240806 1
gene 1 14 20 0.949109 0 14 0.949109 1
gene 1 15 20 0.761869 0 15 0.761869 1
gene 1 16 20 -0.220381 0 16 -0.220381 1
gene 1 17 20 -0.951461 0 17 -0.951461 1
gene 1 18 20 0.452879 0 18 0.452879 1
gene 1 19 20 -0.543518 0 19 -0.543518 1
gene 1 1 21 0.736314 0 20 0.736314 1
gene 1 2 21 0.240334 0 21 0.240334 1
gene 1 3 21 0.433315 0 22 0.433315 1
gene 1 4 21 -0.20501 0 23 -0.20501 1
gene 1 5 21 -0.451537 0 24 -0.451537 1
gene 1 6 21 0.370797 0 25 0.370797 1
gene 1 7 21 0.860012 0 26 0.860012 1
gene 1 8 21 -0.269559 0 27 -0.269559 1
gene 1 9 21 -0.3117 0 28 -0.3117 1
gene 1 10 21 0.277073 0 29 0.277073 1
gene 1 11 21 -0.230235 0 30 -0.230235 1
gene 1 12 21 -0.201519 0 31 -0.201519 1
gene 1 13 21 0.909842 0 32 0.909842 1
gene 1 14 21 0.24077 0 33 0.24077 1
gene 1 15 21 0.647196 0 34 0.647196 1
gene 1 16 21 0.793806 0 35 0.793806 1
gene 1 17 21 -0.467687 0 36 -0.467687 1
gene 1 18 21 0.44815 0 37 0.44815 1
gene 1 19 21 0.0534407 0 38 0.0534407 1
gene 1 1 22 0.443525 0 39 0.443525 1
gene 1 2 22 0.277996 0 40 0.277996 1
gene 1 3 22 -0.679033 0 41 -0.679033 1
gene 1 4 22 0.594537 0 42 0.594537 1
gene 1 5 22 -0.799839 0 43 -0.799839 1
gene 1 6 22 -0.451298 0 44 -0.451298 1
gene 1 7 22 0.699808 0 45 0.699808 1
gene 1 8 22 -0.0664715 0 46 -0.0664715 1
gene 1 9 22 0.217108 0 47 0.217108 1
gene 1 10 22 -0.0719699 0 48 -0.0719699 1
gene 1 11 22 0.814766 0 49 0.814766 1
gene 1 12 22 -0.64188 0 50 -0.64188 1
gene 1 13 22 0.00602234 0 51 0.00602234 1
gene 1 14 22 0.42666 0 52 0.42666 1
gene 1 15 22 0.427877 0 53 0.427877 1
gene 1 16 22 0.999407 0 54 0.999407 1
gene 1 17 22 0.139469 0 55 0.139469 1
gene 1 18 22 0.364186 0 56 0.364186 1
gene 1 19 22 -0.57384 0 57 -0.57384 1
gene 1 1 23 -0.801739 0 58 -0.801739 1
gene 1 2 23 -0.100433 0 59 -0.100433 1
gene 1 3 23 0.847626 0 60 0.847626 1
gene 1 4 23 -0.106654 0 61 -0.106654 1
gene 1 5 23 -0.4963 0 62 -0.4963 1
gene 1 6 23 -0.509965 0 63 -0.509965 1
gene 1 7 23 0 0 64 0 1
gene 1 8 23 0.19804 0 65 0.19804 1
gene 1 9 23 -0.586818 0 66 -0.586818 1
gene 1 10 23 0.496507 0 67 0.496507 1
gene 1 11 23 0.0403481 0 68 0.0403481 1
gene 1 12 23 0.0803488 0 69 0.0803488 1
gene 1 13 23 -0.273246 0 70 -0.273246 1
gene 1 14 23 -0.681845 0 71 -0.681845 1
gene 1 15 23 0 0 72 0 1
gene 1 16 23 -0.841538 0 73 -0.841538 1
gene 1 17 23 -0.577687 0 74 -0.577687 1
gene 1 18 23 0 0 75 0 1
gene 1 19 23 -0.859504 0 76 -0.859504 1
genomeend 4
genomestart 5
trait 1 0 0 0 0 0 0 0 0 
node 1 1 1 1 0
node 2 1 1 1 0
node 3 1 1 1 0
node 4 1 1 1 0
node 5 1 1 1 0
node 6 1 1 1 0
node 7 1 1 1 0
node 8 1 1 1 0
node 9 1 1 1 0
node 10 1 1 1 0
node 11 1 1 1 0
node 12 1 1 1 0
node 13 1 1 1 0
node 14 1 1 1 0
node 15 1 1 1 0
node 16 1 1 1 0
node 17 1 1 1 0
node 18 1 1 1 0
node 19 1 1 3 0
node 20 1 0 2 0
node 21 1 0 2 0
node 22 1 0 2 0
node 23 1 0 2 0
gene 1 1 20 -0.670404 0 1 -0.670404 1
gene 1 2 20 0 0 2 0 1
gene 1 3 20 -0.266857 0 3 -0.266857 1
gene 1 4 20 -0.155736 0 4 -0.155736 1
gene 1 5 20 -0.871931 0 5 -0.871931 1
gene 1 6 20 0.169997 0 6 0.169997 1
gene 1 7 20 0 0 7 0 1
gene 1 8 20 -0.964096 0 8 -0.964096 1
gene 1 9 20 0.269692 0 9 0.269692 1
gene 1 10 20 0.865912 0 10 0.865912 1
gene 1 11 20 -0.775556 0 11 -0.775556 1
gene 1 12 20 -0.329053 0 12 -0.329053 1
gene 1 13 20 -0.761965 0 13 -0.761965 1
gene 1 14 20 -0.165731 0 14 -0.165731 1
gene 1 15 20 0.902093 0 15 0.902093 1
gene 1 16 20 0 0 16 0 1
gene 1 17 20 -0.806727 0 17 -0.806727 1
gene 1 18 20 0 0 18 0 1
gene 1 19 20 0.601614 0 19 0.601614 1
gene 1 1 21 0.459548 0 20 0.459548 1
gene 1 2 21 -0.84236 0 21 -0.84236 1
gene 1 3 21 0.945443 0 22 0.945443 1
gene 1 4 21 -0.948587 0 23 -0.948587 1
gene 1 5 21 0.427471 0 24 0.427471 1
gene 1 6 21 0 0 25 0 1
gene 1 7 21 -0.671914 0 26 -0.671914 1
gene 1 8 21 -0.241309 0 27 -0.241309 1
gene 1 9 21 0.884827 0 28 0.884827 1
gene 1 10 21 0.233626 0 29 0.233626 1
gene 1 11 21 0.693955 0 30 0.693955 1
gene 1 12 21 -0.454836 0 31 -0.454836 1
gene 1 13 21 0.340879 0 32 0.340879 1
gene 1 14 21 -0.114519 0 33 -0.114519 1
gene 1 15 21 -0.0139627 0 34 -0.0139627 1
gene 1 16 21 0.673098 0 35 0.673098 1
gene 1 17 21 -0.359552 0 36 -0.359552 1
gene 1 18 21 -0.977319 0 37 -0.977319 1
gene 1 19 21 0 0 38 0 1
gene 1 1 22 -0.395749 0 39 -0.395749 1
gene 1 2 22 0.358348 0 40 0.358348 1
gene 1 3 22 -0.647336 0 41 -0.647336 1
gene 1 4 22 0.117142 0 42 0.117142 1
gene 1 5 22 -0.0854636 0 43 -0.0854636 1
gene 1 6 22 0.606414 0 44 0.606414 1
gene 1 7 22 0.98391 0 45 0.98391 1
gene 1 8 22 0.691568 0 46 0.691568 1
gene 1 9 22 0 0 47 0 1
gene 1 10 22 -0.867959 0 48 -0.867959 1
gene 1 11 22 -0.537029 0 49 -0.537029 1
gene 1 12 22 -0.346018 0 50 -0.346018 1
gene 1 13 22 0.101402 0 51 0.101402 1
gene 1 14 22 0.929586 0 52 0.929586 1
gene 1 15 22 -0.226444 0 53 -0.226444 1
gene 1 16 22 0.37413 0 54 0.37413 1
gene 1 17 22 -0.58734 0 55 -0.58734 1
gene 1 18 22 -0.203255 0 56 -0.203255 1
gene 1 19 22 -0.743418 0 57 -0.743418 1
gene 1 1 23 0.346036 0 58 0.346036 1
gene 1 2 23 -0.539301 0 59 -0.539301 1
gene 1 3 23 -0.661249 0 60 -0.661249 1
gene 1 4 23 0.330956 0 61 0.330956 1
gene 1 5 23 0.900126 0 62 0.900126 1
gene 1 6 23 -0.943616 0 63 -0.943616 1
gene 1 7 23 0 0 64 0 1
gene 1 8 23 0.441073 0 65 0.441073 1
gene 1 9 23 0 0 66 0 1
gene 1 10 23 -0.853075 0 67 -0.853075 1
gene 1 11 23 0.0189228 0 68 0.0189228 1
gene 1 12 23 -0.821673 0 69 -0.821673 1
gene 1 13 23 0.87819 0 70 0.87819 1
gene 1 14 23 0.602924 0 71 0.602924 1
gene 1 15 23 0.440267 0 72 0.440267 1
gene 1 16 23 -0.0752844 0 73 -0.0752844 1
gene 1 17 23 -0.24129 0 74 -0.24129 1
gene 1 18 23 0.208472 0 75 0.208472 1
gene 1 19 23 -0.201347 0 76 -0.201347 1
genomeend 5
